268 200
HCCDB-3.S290 -0.023387 -0.441595 0.076405 0.245803 0.338223 0.286720 0.338216 1.547058 0.528622 0.012758 -0.989249 -0.089549 0.111188 -0.029229 -1.000579 -1.158177 0.776899 -0.948053 0.442499 -1.045392 0.280417 0.631679 -0.109688 1.332497 -0.237845 -0.519349 -0.603616 -0.140128 0.070286 -0.271496 -0.686024 0.876997 1.378802 0.321312 -1.108993 0.510084 -0.359432 -0.419603 0.424163 -0.845596 -0.016437 0.319037 0.373124 -0.419734 -0.132983 -0.269323 1.368441 0.532410 -0.188544 -1.332524 0.715728 0.077327 -0.521764 0.180907 0.346346 -0.774197 -0.977328 0.937736 -0.246045 1.124975 -0.297419 -0.538888 -0.219712 0.523508 0.998040 0.356646 -0.619167 1.276368 -0.041712 0.398648 -0.217946 0.536180 0.737885 0.245470 -0.862295 1.047766 0.058460 -1.040180 0.578168 -0.823905 0.395577 -0.860736 0.372236 -1.841792 -0.119534 -0.580609 -0.542777 -0.865937 -0.459493 0.091814 -0.434123 -0.685207 0.241876 0.112337 0.730664 0.007667 -0.164120 -0.337004 -0.681877 -0.044769 0.095037 0.699866 -0.153476 -0.314690 0.310310 0.450441 0.768349 0.366656 0.799700 -0.294864 1.800969 0.690616 0.029325 0.015128 0.115472 0.243863 0.613238 -0.825827 0.224342 -0.459862 0.033130 0.527557 0.586298 -0.098724 0.136684 -0.131144 0.016052 -1.094265 1.170191 0.006786 0.196014 0.702061 -0.590217 -0.011399 0.685690 -0.266999 0.011494 0.040587 0.348595 -0.629063 0.892386 0.449601 -0.184911 0.287608 0.554302 0.487553 -0.808269 -0.005672 -0.450499 -0.314128 0.257972 0.274772 -0.013956 -0.155215 0.998967 0.531418 0.004817 -0.755303 0.851741 -0.716001 0.448631 -0.129371 -0.385515 -0.523248 -0.944441 -0.459587 0.110584 1.498947 -1.080827 -0.194576 -0.199639 1.798644 -0.013505 -0.618742 1.046842 0.053409 -0.613702 0.344252 0.505725 0.777386 0.307737 -0.147142 0.965490 0.521351 0.887039 0.313644 -0.522489 -0.369826 -0.212806 -0.225263 -0.823350 0.374638 1.244717 -0.002083 0.176038 0.057501 0.097779 -1.193687 0.470947 -0.874651 
HCCDB-3.S291 -0.827185 -0.647017 0.363514 0.479240 0.168228 -0.739653 0.860120 0.459232 -0.620695 0.257778 -0.039297 0.971295 -0.444020 -0.265251 -0.577446 -0.129779 0.023915 -1.149329 -0.108459 -0.482665 0.182878 0.780753 -0.109240 0.093118 -0.132627 0.520828 0.036411 -1.251180 -0.025444 0.014289 -0.788289 0.024394 0.431713 -1.116811 -0.592716 0.339135 -0.112798 -0.167864 0.199063 -0.941597 0.271457 -0.569845 0.081231 -0.363776 0.129216 -0.998870 -0.185051 0.432914 0.584351 -0.685826 -0.235591 0.780602 -0.134071 -0.073893 -0.095194 0.491820 -0.623180 0.647945 -0.936549 0.619244 -0.152448 0.650360 -0.538308 -0.614101 1.491173 -0.885040 0.808562 1.156496 -0.113527 0.635127 0.654481 0.664055 0.972143 -0.250577 0.948462 -0.248908 0.260323 -0.101696 1.049300 -0.430156 0.690027 -0.351610 -0.811905 -0.728726 -0.811425 -0.063361 -1.099750 0.652742 0.658909 0.527848 -0.444706 -0.141104 -0.266222 -0.290505 0.042158 -0.258195 -0.327567 1.078076 -0.699394 -0.984342 0.031289 0.958092 0.187728 0.504478 -0.138876 0.350725 1.018780 0.671122 -0.182841 0.854906 -0.177799 1.441211 0.386472 -0.164955 0.653407 0.805990 -0.338551 -0.889355 0.503000 -1.053509 -0.968463 0.741395 -0.527784 0.562962 0.366964 -0.514417 -0.288025 -0.621654 1.177657 0.538152 -1.028745 0.099587 0.239200 0.166980 0.671897 0.858918 -0.877890 0.650362 1.508794 -0.894309 0.796304 -0.681231 -0.413376 1.042728 0.518242 0.378163 0.316842 0.092061 -0.751427 0.179940 -0.474089 -0.859777 -0.132642 0.960505 1.217585 0.152457 0.735026 -1.505951 0.371377 0.102658 -0.810322 0.155746 -0.190335 0.621773 -0.592964 -0.143843 -0.072108 1.094487 -1.288060 -0.201192 -0.189899 0.760943 -0.221925 0.064680 1.107975 -0.325453 -0.949966 0.709346 -1.352870 -0.258226 -0.161001 -0.872824 0.531633 -0.357909 -0.207690 0.022420 0.536439 -0.013833 -0.216437 -1.658339 -1.355080 0.695512 0.163329 -0.514947 -0.183470 0.374040 -0.125387 -1.306807 0.302826 -1.629268 
HCCDB-3.S292 0.297618 -0.471722 -0.266470 0.252062 -0.078738 -0.065159 0.513119 0.435830 -0.373449 0.340878 -0.753512 0.215340 0.265059 -0.541493 0.419873 -0.259107 0.631788 -1.533092 0.223577 -0.188824 -0.383499 0.200375 0.101611 1.030121 -0.188392 0.326824 -0.322305 -0.315740 0.345149 0.291666 -0.874343 0.321579 1.121512 -0.557352 -0.515868 0.711435 -0.361906 0.693090 -0.309014 -0.935285 0.462423 -0.196453 0.660405 -0.856646 -0.359043 0.045836 0.286069 0.372459 0.269709 -0.214217 0.238351 0.383708 0.075253 0.079613 0.107479 -0.322166 0.345795 0.368653 -0.708968 -0.224679 0.316475 -0.683441 0.565405 0.254424 0.687274 -0.998196 0.014848 0.203227 0.000988 0.194238 0.185047 0.599265 0.413647 0.719617 -0.235676 -0.297167 0.097813 -0.636486 1.158903 -0.765328 0.081271 0.041718 0.268989 -0.996110 0.025742 -0.013576 -0.523837 -0.685553 0.501750 0.059514 -0.480257 -1.498006 -0.014507 0.397544 0.626006 0.671509 -0.285444 0.131150 0.496593 -0.946182 -0.160872 0.025141 0.204918 -0.822837 0.206721 0.136234 0.065143 0.774141 -0.196419 0.153648 0.057294 0.737977 0.106771 0.702716 -0.366345 0.312198 -0.023603 -0.575004 0.173672 -1.299001 -0.544598 0.296658 -0.060612 -0.409228 0.395241 0.302581 -0.394098 -0.241933 0.747033 -0.661374 -0.258830 0.282680 0.418143 0.051496 0.134556 0.072916 -0.134311 -0.468179 0.783302 -0.652363 0.090036 -0.565666 0.152684 0.574721 -0.359488 0.492364 0.731950 0.037557 -0.292105 -0.750720 -0.412033 0.123297 -0.748163 0.359308 -0.153290 0.703973 0.369780 -0.999430 -0.106970 -0.377785 0.849763 0.139387 -0.127077 0.538326 -0.418622 -0.743512 0.089879 0.925859 -1.591557 -0.665946 0.201728 0.765888 0.623722 0.293512 0.870671 -0.119819 -0.475532 -0.222185 -0.226455 0.843587 -0.157770 -0.299179 1.307993 -0.256336 -0.012572 0.195032 0.142477 0.099269 -0.889474 -0.665970 -0.374326 0.760403 0.697373 -0.073104 -0.445341 0.175708 -0.666678 -0.813560 0.462352 -1.111420 
HCCDB-3.S293 0.472850 -0.545599 0.126311 -0.033780 0.677536 -0.693309 0.781253 0.390695 0.294220 -0.080350 -0.712393 -0.031480 -0.472471 0.319273 -0.832085 0.016024 0.590594 -0.925871 -0.456948 -1.070634 0.090725 1.133413 0.061965 -0.623028 0.495000 -0.444367 -0.149543 -0.632907 -0.089291 0.619263 -1.672120 0.202329 0.870316 -0.199099 -0.162372 0.722129 0.248374 -0.265660 0.134904 -1.028684 -0.166515 0.783597 0.067258 -1.293827 0.468222 -0.645423 0.097487 -0.308091 -0.243401 -0.704055 -0.309788 -1.228139 -0.149097 0.846871 0.258826 -0.290738 0.289613 0.975700 -0.447665 0.769946 0.213935 -0.617646 0.167835 0.005411 1.128362 -1.431656 0.806686 0.314103 -0.162818 -0.105980 -1.064451 0.833376 0.310161 1.171942 -0.130232 0.225622 -0.079649 -0.545866 0.654083 -0.315301 0.947326 -0.356129 0.642270 -0.270427 -0.455358 -0.245885 -0.947491 -0.696830 0.238063 0.348370 -0.713785 -1.123167 -0.164821 0.230704 0.499477 -0.581922 -0.589653 -0.189211 -0.381555 -0.428423 0.484337 0.390897 0.940169 -0.902235 0.720559 -0.074878 0.500728 1.316052 -0.357149 -0.004210 -0.477732 1.046950 0.518269 0.259188 -0.847598 0.058555 -0.345049 -0.294761 -0.081981 -0.560132 0.723619 1.066733 0.041633 -0.388577 0.653456 -0.241547 0.710224 -0.586529 1.597374 -0.360619 0.061773 0.363263 -0.879994 0.519728 0.223709 -0.213537 -0.052773 1.149819 0.878882 -0.422908 0.639443 -0.432401 -0.196614 1.161539 -0.765681 0.529087 0.390481 0.663015 -0.604521 0.232927 0.119855 0.161637 0.598625 -0.111899 0.368596 0.685497 0.407685 -1.115913 -0.467070 -0.338146 0.287017 -0.810153 0.268813 0.561315 0.411760 0.200595 -0.383253 1.300032 -0.539091 0.173965 -0.457998 0.204488 -0.370259 -0.076210 0.499159 0.452432 -0.964171 1.529285 -0.760250 -0.650956 -0.364266 -0.705799 1.008828 0.151288 -0.139009 -0.653119 0.315567 0.261225 -0.507900 -0.340756 -1.171834 0.036979 -0.095070 1.050901 0.309908 0.129173 0.117035 -0.084103 0.219921 -2.258744 
HCCDB-3.S294 0.365486 -1.270371 0.655652 -0.511937 -0.872802 -0.135336 0.700891 1.004624 -0.072516 0.133275 0.234003 0.188165 0.212900 0.710937 -0.644873 -0.420213 0.536428 -0.904543 0.375836 -1.003428 1.192333 1.308016 -0.126396 0.188137 -0.393050 -0.632994 -0.632169 0.269975 0.864239 -0.132375 -0.579787 -0.125184 0.608628 -1.005779 -0.514163 0.908626 0.178718 0.031376 -0.007497 -1.073457 0.115076 -0.532468 0.400876 -0.623146 -0.173911 0.486178 0.078269 0.047069 0.376419 -0.535946 0.666778 0.030714 -0.583533 -0.207654 -0.125481 -0.325791 -0.110191 -0.637500 0.047515 0.030747 0.390722 -0.224640 -0.270760 -0.446698 -0.122327 -0.923022 0.749305 0.157113 -0.019576 0.425421 0.415023 -0.064972 -0.178816 1.418256 0.406640 -0.381392 -1.129634 -0.065497 0.560576 -0.490241 0.140554 0.502671 0.543008 -0.399265 0.124095 -0.610500 -1.006300 -0.400422 0.391044 -0.769867 0.165550 -1.088796 -0.347537 0.055801 0.033184 -0.276442 -0.458755 0.007241 -0.238954 -0.991418 0.511562 0.001732 0.174396 -0.256327 0.193339 0.543507 0.372046 1.005768 -0.121627 0.244885 1.458013 0.706387 0.184082 -0.050352 -0.869280 1.200463 0.031798 -0.913116 0.351866 -0.909675 -0.714196 0.851976 0.706627 0.491583 -0.728396 -0.053073 -0.987018 0.145186 0.920274 -0.844490 0.320811 0.393191 0.477457 0.391085 0.810743 -0.190304 0.155917 -0.778954 -0.294958 -0.720284 0.039651 -0.478442 0.343792 0.561167 -1.605399 0.502189 -0.815154 -0.593095 -0.766051 -0.009908 0.197522 -0.221635 -0.044653 0.135477 0.490176 -0.248699 -0.379742 -0.763045 -0.200793 -0.569119 -0.409105 0.008878 0.183746 0.484728 -0.729308 0.169834 0.276578 0.467015 -1.289048 0.142764 0.692363 0.648057 0.883073 -0.620725 0.832770 -0.528990 -1.125293 -0.431340 -1.079612 -0.041795 -1.056221 -0.572317 1.165903 -0.250344 0.233063 0.007624 -0.858814 -0.178790 -0.835982 -0.109251 -1.210731 0.967233 0.660730 0.830532 -0.782788 -0.028907 0.431978 -1.478570 -0.128825 -2.027274 
HCCDB-3.S295 0.526281 -0.403138 1.128241 -0.068759 0.391680 0.282906 0.956535 0.776725 -0.336918 -0.217631 0.155622 0.049340 0.266029 0.947243 0.055857 -0.484761 0.071661 -0.790595 -0.347564 -0.979450 -0.341857 1.142266 -0.061590 -0.142241 0.749146 0.193863 -0.831059 -0.527756 0.178092 0.199126 -1.086293 0.075299 0.719550 -0.459678 -0.939882 1.443201 0.153095 0.417260 -0.383472 -0.526414 1.022775 -0.486725 0.749597 -1.203882 0.466681 0.197484 1.171326 0.542204 0.041950 0.204140 0.519220 -0.057201 -0.076567 -0.680992 0.094292 0.410489 -0.535138 1.295331 -0.834287 0.465325 -0.138505 0.223371 0.306080 -0.843449 0.688121 -0.782239 0.084757 0.334289 0.073605 -0.224634 -0.722613 0.739110 -0.685999 0.787598 -0.548337 1.099151 -0.050911 -0.992484 0.582652 -0.373342 0.378982 0.953419 0.027319 -1.377298 -0.452503 -1.237778 0.512999 -0.727840 -0.157784 0.426176 -0.566497 -0.441900 0.000639 0.001177 0.416680 -0.196018 0.355330 0.905678 0.169756 -0.048600 0.555608 0.277537 0.080388 -0.368555 0.127551 0.043499 -0.044971 1.193665 0.823647 0.121547 0.819837 1.184148 0.706478 -0.007216 0.158811 -0.064838 -0.021817 -0.006263 -0.422496 -0.664644 -0.603921 1.242986 0.142262 -0.419732 0.145667 0.373161 0.984157 -0.167695 0.890330 0.791699 -0.004788 0.402918 0.434927 0.149017 0.451471 0.654571 -0.259595 0.620208 0.107687 -0.290662 -0.396975 -0.162532 -0.094350 -0.213986 0.467750 0.874161 0.764158 0.720872 -0.873165 -0.060749 0.472932 -0.742169 -0.087431 -0.329085 0.286870 0.557597 -0.295267 -1.250026 -0.152505 -0.824151 0.836882 -0.278456 -0.264096 0.101444 -0.181388 -0.383233 0.823496 1.586235 -0.302270 -0.597030 0.696192 1.440295 0.345092 -0.490824 0.247661 -0.247739 -0.490698 0.275573 -0.151727 -0.456490 0.351591 -1.043759 1.558130 0.972113 0.037641 -0.844038 0.859354 0.410608 -0.314055 -0.857621 -0.717796 1.105326 1.003757 0.646795 -0.281732 0.131628 -0.922928 -0.494996 0.235148 -1.065005 
HCCDB-3.S296 1.016495 0.050393 -0.444694 -0.177985 -0.221407 -0.354133 0.085576 1.394619 -0.089825 -0.393766 0.004037 0.339346 -0.378904 1.066933 0.099978 -0.791010 0.926523 -1.169489 0.679044 -0.799756 0.721766 0.753396 0.446727 0.073598 -0.008814 -0.755526 0.795567 -0.374200 0.199892 0.211686 -1.203026 1.308434 1.493126 -0.831523 -0.354133 0.462485 -0.596622 -0.516886 0.307343 -0.350210 0.314369 -0.426800 0.694802 -0.695783 0.392733 -0.266706 0.489386 0.808368 -0.264813 -0.384385 0.292491 -0.150624 0.149913 0.308620 0.277347 -0.189228 0.150012 0.117690 0.256611 -0.196987 0.379468 -0.648718 -0.110603 -0.005594 0.062741 -0.834030 0.040969 0.814535 0.625770 0.142248 -0.229926 1.143516 0.338622 0.563480 0.078849 0.149775 -0.315121 -0.039318 1.480414 -0.926725 0.452966 0.278368 -0.215094 -1.634290 0.020387 -0.457647 -0.022581 -0.545639 -0.319791 0.521332 -0.870158 -0.653856 -0.416304 0.070645 0.134795 -0.607951 -0.452541 0.271630 0.741570 -1.068120 0.489306 0.100910 0.374832 -0.329091 -0.956917 0.428780 0.783223 0.693475 -0.900410 -0.421487 -0.150459 1.143176 0.348631 -0.031807 -0.594470 0.292732 -0.428459 -0.920323 -0.220296 -0.172651 -0.542069 0.693367 -0.897973 0.035395 0.603146 0.837127 -0.058602 -0.214994 0.910677 -0.250559 -0.202151 0.119250 0.053877 -0.510283 0.371265 0.959143 -0.527499 -0.278286 0.744419 -0.767397 0.213070 0.858593 0.110886 1.382819 0.066955 -0.185165 0.775737 0.685737 0.749991 -0.810599 0.423718 -0.529564 -0.248825 0.572742 0.896131 0.379773 0.573629 -0.758084 0.145170 -0.027702 0.299319 0.207424 0.075622 0.987168 -0.204004 -0.064368 0.623464 0.571583 -1.616891 0.094597 -0.265221 0.684664 1.099671 0.217131 0.712353 -0.830706 -0.161399 0.027213 -0.175803 -0.095977 0.536747 -0.263305 0.931909 -0.067790 0.807808 0.528862 0.223155 -0.469534 -0.464437 -0.469232 -0.569534 1.395302 0.283850 0.430899 0.120838 -0.119334 -0.476425 -0.905379 -1.303811 -1.395664 
HCCDB-3.S297 0.997658 -0.295517 0.261718 -0.406886 -0.232293 -0.021199 0.219890 0.727354 -0.636696 -0.400603 -0.217362 0.397981 0.142853 0.002524 -0.458022 0.185512 -0.276397 -0.786289 0.472255 -0.334998 -0.280606 0.669660 0.337284 1.288724 -0.414044 -0.501330 -0.902060 -0.702774 -0.634750 -0.191474 -1.122952 -0.115031 0.960816 -0.374149 0.040619 0.796636 0.330160 0.680318 0.889500 -0.890876 0.225876 0.400479 0.262238 -0.886083 0.204526 0.669490 0.280637 0.380453 0.550723 -0.817201 0.249309 0.052794 -0.580820 -0.086881 0.653165 0.363224 -0.618545 0.810805 -0.058131 -0.196029 0.177973 -0.133751 -0.321162 -1.008887 0.694023 -0.400622 0.127588 0.014325 0.386730 0.234405 -0.816179 0.397964 -0.757617 -0.243382 0.312610 0.027648 0.112088 -0.283139 1.309405 -0.043598 0.366203 0.497267 0.285515 -1.079389 -0.182255 -1.091397 -0.288150 0.642724 0.186069 -0.094159 -0.343812 -0.839148 0.269213 0.660677 -0.319659 -0.959967 -0.463704 0.156430 0.117610 -1.191319 -0.396466 0.618985 1.007778 -0.766055 -0.158675 -0.590161 0.042398 1.475629 -0.192757 -0.729918 -0.039222 0.696216 0.327285 -0.854047 0.061188 0.690758 1.088342 -0.584106 0.189717 -0.453892 -0.978459 1.381556 0.696726 -0.072159 -0.739746 -0.108603 -0.926473 -0.246894 1.135538 -0.339276 0.264713 0.993988 0.295536 -0.182380 -0.098783 0.294710 -0.531301 -0.442199 0.182736 -0.372927 0.573809 0.194077 -0.714646 1.394466 -0.512802 -0.311948 1.016568 0.237864 -0.755225 -0.259354 0.212599 -0.769326 0.043852 -0.563284 0.336000 0.209923 -0.405631 -1.067668 -0.589991 -0.049021 0.078995 -0.085522 -0.051072 0.076244 -0.512068 0.271802 0.036117 0.949113 -1.158912 -0.444062 -0.020535 0.952395 0.264307 0.031265 0.183940 0.795106 -1.420063 0.261919 -0.150219 0.090801 -0.057284 -0.083042 1.009818 0.684232 0.469482 -0.690381 0.252028 -0.226187 -1.267975 -0.891817 -0.941098 0.723350 0.824315 0.651157 -0.741087 0.447786 -0.257508 -0.473508 -0.362114 -1.235025 
HCCDB-3.S298 0.335950 -0.794483 0.068813 -0.036802 0.940324 0.705112 1.015150 0.475117 -0.924184 -0.830873 0.149843 0.118541 0.216360 0.760747 -0.420657 0.440774 0.735329 -1.502291 0.991810 -0.243948 0.204371 0.786456 -0.118557 0.842869 0.517906 0.182382 1.022539 0.658352 0.839638 -0.603529 -0.321089 0.772725 0.789236 0.403019 -0.018957 0.491868 -1.157952 0.432880 0.277537 -0.475870 0.349385 0.637950 0.228856 -0.750178 0.690473 -0.442249 -0.518461 0.511724 0.302101 -0.443096 0.416059 0.459949 0.079541 -0.126471 0.710683 -0.741369 -0.742344 1.357691 -0.741486 0.082311 1.534112 -0.253587 -0.058497 0.291392 1.129633 0.271306 1.164134 0.132300 0.083002 0.249446 0.847861 0.881485 -0.416430 1.121159 -1.020583 0.473682 -0.060318 -1.120872 1.471653 -1.251117 1.459524 0.861893 0.377893 -1.116468 0.051568 -0.037533 -1.031655 -0.180989 -0.467578 0.511646 0.116034 -1.142369 -0.674487 -0.165410 -0.004894 -0.235139 0.088172 -0.218985 0.202531 -1.288455 0.385914 0.516505 0.847408 -0.504437 0.279075 -0.055421 0.459419 0.809775 0.110921 0.028806 -0.401844 1.033758 0.257780 -0.143295 0.818768 0.232420 -0.163951 -0.167233 0.289034 -1.104877 -0.524023 0.127211 0.034777 -0.271578 -0.576461 -0.001875 -0.373044 -0.645782 0.279731 -0.118525 -0.979683 -0.346327 0.129592 -0.195331 0.201385 0.225278 -0.474500 -0.048139 0.877270 0.363969 0.004161 0.472533 -0.223964 0.589503 0.181643 0.877384 -0.391407 -0.506870 -0.134805 -0.045274 0.690226 0.456299 -0.594944 0.798615 0.118836 0.569828 -0.444295 -0.848595 -0.955306 -0.827497 0.136667 -0.099230 0.620935 0.261678 -0.853599 -0.228547 -0.116255 0.751788 -1.428743 -0.009574 0.966861 1.088138 0.029930 0.059605 0.851373 1.045832 -0.289075 0.530408 -0.238261 -0.052764 -0.958047 -0.600403 1.320851 0.453830 0.962760 -0.433434 -0.202558 -0.135148 -0.168794 0.364057 -1.158528 0.401827 0.774092 -0.031341 -0.883564 0.629680 -0.742092 -1.123887 -0.283740 -0.844585 
HCCDB-3.S299 0.882184 -0.000539 -0.091951 -0.318753 -0.316324 -0.149076 0.442793 0.411639 0.637365 0.486708 -0.516947 -0.093255 0.489362 0.336207 -0.850565 0.008271 0.212241 -0.918561 0.501725 -0.515227 0.273535 0.377139 0.302500 0.221936 -0.408654 0.256159 -0.549365 -0.455235 0.401115 0.119770 -0.932622 0.677087 0.775214 -0.949822 -0.145712 -0.733831 -0.264089 0.316597 0.147662 -0.499225 0.724070 1.042723 0.380988 -0.236490 0.212654 0.466719 0.524524 0.314548 0.332631 -0.298704 0.675309 -0.255942 -0.481950 -0.476422 0.893656 -0.466372 -0.080831 0.500711 -0.315832 0.212433 -0.123280 0.095020 -0.249507 -0.198503 0.726487 0.433967 0.487829 0.822264 -0.324610 -0.006714 -0.077641 1.008542 -0.032501 0.191933 -0.406975 0.387442 -0.064981 -1.423222 0.781251 -0.205736 0.761727 0.557403 -0.431689 -0.947583 0.167554 -0.942836 -0.497030 -0.451619 0.226141 -0.472821 -0.089763 -0.416625 0.298603 -0.935277 0.492003 -0.536919 -0.313037 0.026025 0.913593 -1.353280 0.262132 -0.068663 0.063057 -0.936026 0.437296 -0.747869 -0.027648 0.422231 0.574424 0.087352 0.200213 1.669882 1.245976 -0.122318 -0.103297 -0.485558 -0.146131 -0.620394 -0.049454 -0.849421 -0.199594 0.611875 -0.289550 0.381082 0.895392 -0.005304 0.133968 -0.491324 1.170262 -1.207898 0.367271 -0.028520 0.132022 -0.241111 0.207713 0.467673 -0.387847 -0.565945 0.394036 -0.586175 0.685294 -0.322606 -0.562218 0.002633 0.013720 -0.127799 -0.161312 0.679007 -1.019784 -0.756482 0.129093 -0.059853 0.447881 -0.083395 0.064960 -0.095287 -0.013273 -0.392565 -0.150964 -0.848710 -0.011801 0.688799 0.038891 0.806509 0.683778 0.552427 0.099329 0.148774 -1.749297 -0.249755 -0.793309 -0.356924 -0.140315 -0.784328 1.211773 0.099849 -1.289720 0.814857 -0.486970 -0.461452 -0.071510 -0.250009 1.320136 0.365484 0.155373 0.437160 -0.042512 -0.170946 -0.964342 -0.560258 -1.251076 1.048598 -0.638681 0.103427 -1.031926 0.760140 -0.843557 -0.893532 0.190208 -0.522660 
HCCDB-3.S300 0.073783 -0.672367 1.054079 -0.245998 0.179982 -0.589296 1.030353 1.055794 -0.269903 0.053542 -0.754312 0.028505 -0.681385 0.824325 0.190300 -0.492101 1.208238 -0.184920 0.641982 -0.655870 -0.087617 0.727473 -0.168114 0.792984 -0.144462 0.129335 -0.841403 0.228481 1.213997 -0.276039 -0.961981 0.760889 0.425650 -0.447009 -0.733757 0.827240 -1.113646 0.199947 0.468458 -1.066502 0.505565 0.563597 0.188664 -0.411622 -0.044772 -0.130784 0.228552 0.239271 0.723656 -0.086657 0.936214 -0.569371 -0.104106 0.747490 0.585439 -0.633273 -0.339702 0.649605 -0.021607 0.511078 0.733742 -0.594509 -0.288135 -0.396765 0.944158 0.512402 0.420145 0.133617 1.325250 0.449483 -0.534633 -0.100612 0.319099 0.696162 -0.432057 0.888881 1.111096 0.305579 0.860774 -0.533023 -0.220933 0.590897 -0.240223 -0.231214 -0.734812 0.387985 -0.094767 -0.616746 -0.184954 0.098507 -0.822544 -0.949897 -0.200759 -0.068903 1.619303 -0.737325 -0.172775 -0.210433 0.535697 -0.432871 0.127073 0.070650 -0.150242 -0.218449 -0.444931 -0.578368 0.239054 0.245683 0.058003 -0.354367 0.417120 0.428604 0.527398 0.039892 -0.957170 -0.102457 0.156231 -1.151418 0.575374 -0.896946 -0.907552 0.222105 0.283551 -0.182490 -1.371184 -0.269190 0.369996 -0.627080 1.736451 -0.349543 -0.034383 0.679962 0.020883 0.776170 -0.075173 0.808796 -0.928226 0.029658 0.277617 -0.859087 -0.320944 -1.368152 -0.179516 0.288366 0.239423 0.052387 0.644099 -0.306819 -0.241764 0.636049 0.494746 -0.308946 0.059525 0.210149 -0.265536 -0.872322 0.665640 -0.286781 -0.182381 -0.375901 -0.388135 -0.604749 0.450907 -0.462485 0.920086 -0.134970 -0.846282 0.880485 -0.608533 0.267466 -0.182616 0.874711 0.315986 -0.247635 0.713244 0.137201 -1.187170 -0.025507 0.608684 -0.336286 -0.208600 -0.546565 1.168566 -0.049699 0.244384 -0.223327 0.297920 -0.899863 -1.276597 -0.775888 -1.697641 1.074246 -0.229774 0.118916 -0.269267 0.741178 0.608703 -0.774463 -0.159172 -0.847831 
HCCDB-3.S301 0.658659 -0.132874 0.208588 0.313238 -0.743135 -0.679940 1.142223 0.068560 0.357094 -0.158143 -0.462340 0.689475 0.239024 0.284895 -0.491964 -1.008335 0.251423 -0.888395 0.522376 -0.623212 -0.316881 -0.003352 -0.130767 0.742604 0.255286 -0.493530 0.158091 0.011814 1.048362 0.028012 -0.675960 -0.092949 1.249281 -0.222678 -0.574237 0.751025 -0.931214 -0.947530 -0.521378 -0.209609 0.268845 0.011378 -0.105259 -1.180612 0.848447 0.152243 0.239135 0.572013 0.049681 -0.615801 0.664135 0.080088 0.327914 -0.772387 0.238866 -0.800311 0.178036 0.230143 -0.869571 0.122612 -0.052499 -0.468742 -0.743393 0.465264 1.053941 -0.843768 0.631207 0.055823 0.450161 -0.573065 -0.101494 0.600264 0.161345 0.614404 0.037373 -0.598472 -0.184722 -0.558721 0.096196 -0.736281 0.591397 0.428686 -0.065294 -1.081389 -0.033539 -1.851207 -0.273843 -0.397090 0.657133 0.228713 -0.002547 -1.129106 -0.331137 -0.466874 0.211456 -0.652430 -0.167852 -0.041868 -0.289481 -1.020924 0.409562 -0.249138 0.269529 -0.089551 -0.209257 0.176152 0.290496 0.162084 0.644041 -0.319698 0.278025 0.152690 0.472665 0.923164 -0.674342 0.452819 -0.853289 -0.344149 -0.070991 -0.841856 0.017090 0.620567 -0.495375 0.176266 -0.763816 -0.632580 -0.697575 -1.136376 0.105674 -0.251326 0.159443 1.214289 -0.220024 0.438187 0.219505 0.300353 -0.726715 -0.077042 0.015553 -0.975018 0.521718 0.359378 -0.963891 0.019144 -0.042968 -0.007411 0.522322 0.202519 0.079003 0.339439 0.325068 -0.407636 0.199752 -0.344167 0.255364 -0.336862 -0.056751 0.136194 -0.121418 -0.580732 0.846766 0.023280 0.530898 0.203193 0.021359 0.090099 -0.440749 0.949659 -0.882417 -0.405230 -0.146886 0.317536 -0.119706 0.457646 0.856214 -0.276387 -0.195461 0.503564 0.150429 -0.321624 -0.591610 -0.712791 1.186237 -0.138763 0.185194 0.038002 0.186012 0.171235 -0.114404 -0.816982 -1.291464 0.699751 0.072312 0.045834 -0.236836 0.695298 -1.350017 -0.272926 -0.732246 -0.900657 
HCCDB-3.S302 0.773782 -0.203227 -0.077040 0.062995 -0.741287 -1.240231 0.553221 0.587795 -0.315271 -0.875470 -0.797424 0.526742 0.062253 0.904014 -0.276392 -0.887206 0.853803 -0.583545 -0.631816 -0.411519 0.279395 -0.018723 0.613697 0.918127 0.149228 -0.320195 -0.164216 0.101446 0.409557 -0.373307 -0.234445 1.051856 1.233910 0.124465 -0.562132 0.836813 -0.754820 -0.406715 0.591249 -0.597098 0.689547 -0.014680 0.934707 -0.555441 -0.477040 0.005669 0.363884 0.266978 -0.243040 -0.508889 0.070944 0.136050 -0.054199 -0.426513 0.225612 -0.611542 0.349619 -0.063796 -0.811301 0.140454 0.322905 -0.766140 0.202721 0.133614 1.156788 -0.903507 0.190090 0.437704 -0.287270 0.036102 0.064417 0.305589 0.301279 0.646544 0.133566 0.176273 0.395777 -0.511455 0.317814 -0.386755 0.634382 1.071244 -0.226095 -0.594869 -0.285270 -0.771329 -0.075925 -0.109329 0.711674 0.495194 -0.313988 -1.143747 -0.436483 0.103724 0.427285 0.034786 -1.358169 0.620446 0.189539 -0.118778 -0.544257 -0.767541 1.154953 -0.302520 0.659941 -0.474659 -0.037204 0.816328 0.473615 0.005326 -0.147718 0.369672 -0.302361 -0.553083 0.278140 0.343967 -0.147131 -0.871895 0.007678 -0.585852 -0.362319 0.983466 -0.548260 0.039788 0.206885 -0.048143 0.086736 -0.470530 0.613816 -0.896726 0.406190 0.255168 -0.116143 0.167432 0.132256 0.372415 -0.630472 -0.009571 -0.082895 -0.664718 0.128310 -0.355740 -0.307564 0.512271 -0.416431 -0.278109 0.544534 -0.027552 0.121069 -0.020771 0.652144 0.553762 0.179025 0.580031 0.525881 -0.022909 -0.070798 -0.939014 0.449629 -0.192716 -0.457329 -0.008268 0.130233 0.071841 0.198208 -0.394612 -0.081238 0.583111 -1.218269 -0.060157 0.448413 0.710501 -0.032504 -0.277223 0.669218 -0.060616 -0.657331 -0.158832 -0.085159 -0.065397 -0.403432 0.138310 1.479041 -0.277373 0.443773 -0.127174 -0.047046 -0.327132 -0.863945 -0.205190 -1.469763 0.840920 0.009346 0.603264 -0.563317 0.050730 -0.208799 -0.987119 -0.594249 -0.575828 
HCCDB-3.S303 0.073111 -0.695241 0.225915 -1.053166 0.539224 -0.075319 0.910200 0.698627 0.037496 0.012783 -0.622234 0.547243 -0.508365 -0.062604 -0.865165 -1.174201 0.701531 -0.544261 0.208681 -0.055885 0.600547 0.774718 0.076336 0.734586 -0.433568 -0.668439 -0.549925 -0.438212 0.811584 -0.357320 -0.940306 0.761914 1.225831 -0.555244 -0.214679 1.149226 -0.502380 0.290115 0.252058 -0.289794 -0.033208 -0.166692 0.643905 -0.519779 -0.687616 0.159173 0.769944 0.547438 0.790458 -0.459471 1.110237 -0.123538 0.189701 0.049114 -0.026921 -0.533656 0.486359 0.533999 -0.141839 -0.046535 0.627728 0.000323 0.089876 0.647738 0.295704 -0.552709 1.131200 0.043740 -0.282672 0.412409 0.111142 -0.166118 0.512685 0.484987 0.171696 0.109972 -0.355361 -0.759268 0.575507 -0.665494 0.369007 0.161277 -0.589746 -0.309860 -0.372560 -0.163010 -0.314877 -0.407098 0.162507 0.357455 -0.332571 -1.199535 0.284729 0.198271 0.312522 0.118950 -0.460035 -0.036001 0.531977 -0.973349 0.021524 0.459902 -0.143699 -0.298141 0.239935 0.191982 0.045872 0.522262 0.049162 0.163702 0.363768 0.480634 0.540617 0.316239 -0.988912 -0.325819 -0.361796 -0.776554 0.412061 -0.440703 0.045943 0.603943 0.230067 0.120056 -0.116667 0.285205 0.029962 -0.579742 0.819723 -0.576240 0.017013 0.627591 -0.577734 0.360186 -0.060123 0.641374 -0.420604 -0.156084 -0.155348 -0.754834 0.355939 -0.358545 -0.278426 0.266415 -0.394786 0.077780 0.894478 0.983410 0.156679 0.375915 0.533479 0.167492 -0.293471 0.751418 0.089414 -0.120450 -0.030498 -0.953215 0.385531 -0.185873 -0.394635 0.194609 -0.081474 0.397858 0.458966 0.415309 -0.206058 0.520315 -0.552184 -0.455671 0.497603 0.020446 -0.050420 -0.062537 1.198995 -0.208589 -0.323048 0.321624 0.144921 -0.287036 -0.103787 -0.090271 1.558581 0.443455 0.542205 0.389703 -0.493699 0.421362 -1.047042 -1.217769 -1.637656 0.628210 0.100648 -0.040056 -0.196395 -0.162231 -0.539221 -0.297458 -0.369397 -0.591616 
HCCDB-3.S304 -0.293879 -0.775061 -0.163288 -0.014116 0.142307 -0.519372 0.085530 0.358483 0.477949 0.384128 -0.408551 0.745677 0.019748 0.469491 -0.129734 -0.420597 -0.088102 -1.162822 -0.131929 -0.864700 -0.034741 0.293214 0.391424 0.244268 -0.341325 -0.602584 -0.268738 0.343892 0.666559 0.262144 -0.276302 0.778227 0.821857 -0.052156 -0.559361 0.735827 -0.489346 -0.010619 0.310235 -0.599895 0.762250 -0.951941 0.266429 -0.292628 0.610803 0.324760 0.582192 0.689122 0.333293 -0.151841 0.721757 0.221981 -0.567954 -0.450037 0.531205 -0.273311 -0.244603 1.263540 -0.434497 -0.680799 -0.331414 -0.705613 -0.930568 0.656048 1.057109 -0.080603 -0.531986 0.640015 0.548023 -0.353534 -0.535715 0.859042 0.742161 -0.024099 0.065078 0.368456 -0.714966 -0.753105 1.128911 -1.335542 0.431716 0.249533 -0.499571 -0.060378 -0.290942 0.586586 0.158545 -0.465961 -0.036197 0.748286 -1.059971 -0.494359 -0.305039 0.172952 0.457704 -0.879904 -0.641889 0.289634 0.546044 -0.935020 0.329508 -0.733962 0.526915 -0.035352 -0.146655 -0.452227 0.330288 0.879170 0.293356 -0.311076 0.008208 0.818473 0.302832 0.345282 0.544486 0.367822 -0.458603 -1.157149 0.047307 -0.674120 0.065228 0.483702 -0.127630 -0.028218 0.112064 -0.011093 -0.444160 -0.115926 0.477086 -0.877148 0.027648 0.216651 0.161018 -0.003128 0.098567 0.600285 -0.027310 -0.357729 0.353911 -0.551239 0.221642 0.185884 -0.187520 0.727940 -1.309464 0.056770 0.694980 -0.464016 -0.511012 -0.390355 0.838933 -0.435927 0.686690 0.822604 0.430753 0.169651 -0.166430 -0.783348 0.827058 0.327711 0.512136 0.542788 0.168705 -0.188268 -0.079392 0.675053 -0.358133 0.794596 -0.709721 -0.344802 -0.415158 0.782678 0.542029 -0.047628 0.654143 -0.391719 0.179503 0.211717 -0.644640 -0.393851 0.021995 0.069137 1.976108 -0.540933 1.121217 -0.222398 -0.590305 -0.742424 -0.934592 -0.911220 -0.349504 0.715649 0.089663 -0.175401 0.143709 0.037345 -0.746840 -0.663380 0.415897 -1.165085 
HCCDB-3.S305 1.011014 -0.045062 -0.016249 0.029702 -0.484832 -0.370136 0.767761 0.830122 -0.151561 0.032633 -0.599213 -0.391789 0.374347 0.273038 -0.327620 -0.922844 0.791493 -0.831038 0.552600 -0.267410 0.149081 0.154583 -0.746968 0.792344 -0.587216 -0.699219 0.121841 -0.584175 0.708953 -0.045948 -0.224707 1.077920 1.172056 0.671762 -0.766524 0.229824 -0.476006 0.111525 0.210102 -0.425379 -0.440990 0.520155 0.264924 -0.398340 0.130859 0.035079 0.356506 0.303878 0.861235 0.392537 0.340501 0.385317 0.354052 0.012425 -0.412337 -0.351150 -0.139990 0.278246 -0.651146 -0.353198 0.523149 -0.256687 -0.306852 0.258476 0.368563 -1.472701 0.960890 0.974629 0.602694 0.648156 0.002295 0.663493 -0.763310 -0.190580 -0.655451 0.432506 -0.235742 -0.490811 0.858962 -0.423291 0.320757 -0.182601 -0.066597 -0.776465 -0.556371 -0.497125 -0.856632 0.135882 -0.503602 0.282527 -1.259949 -1.088950 0.121921 -0.030262 0.891407 -0.491748 -0.764039 0.680674 -0.194343 -1.120248 0.305744 -0.229059 0.229921 -0.770911 -0.080846 0.047414 -0.410359 0.677257 -0.398047 0.269559 -0.111001 1.188861 0.026825 0.063052 -0.449182 0.356888 0.229651 -1.012751 0.403531 -0.362650 -0.003941 1.167750 0.885371 -0.076280 -0.196550 -0.371188 0.227112 -1.453292 0.247583 0.196929 0.171294 -0.122374 -0.208292 0.023387 0.037712 0.362032 -0.136272 0.183297 0.184820 -0.556909 -0.393913 -0.526745 -0.441770 0.276611 -0.351968 -0.549599 0.335110 -0.119068 -0.377893 -0.307074 0.367724 -0.138137 0.354720 0.396248 0.254619 -0.005371 0.037718 -0.495869 -0.453870 -0.014278 -0.072183 0.876493 -0.416845 0.171088 0.023747 -0.362446 0.057420 0.558789 -0.597550 -0.337670 0.358146 0.230655 0.138654 0.218946 0.664978 0.613020 -1.002294 0.459246 -0.980403 -0.460586 0.168498 0.071323 0.620223 -0.041500 0.710792 0.177947 0.167761 0.275970 -0.867651 -0.855420 -1.506480 0.864825 0.693070 0.176810 -0.504002 0.110046 -0.340038 -0.835467 0.193860 -1.530458 
HCCDB-3.S306 -0.004117 0.018766 0.184986 -0.326848 -0.249558 -0.467016 0.353873 0.839551 -0.087470 -0.254303 -0.692723 0.164553 -0.196209 -0.076721 -0.625168 -0.876147 0.311766 -0.671657 0.072300 -0.333308 0.064293 0.181272 -0.011972 0.784821 -0.031680 -0.576838 -0.171174 0.116728 0.040455 -0.430077 -0.669705 0.441794 1.025782 -0.629219 -0.533322 0.708447 -0.377930 -0.307730 0.256733 -0.420839 -0.018634 -0.115616 0.981332 -0.280022 -0.316906 0.296059 0.406464 0.922798 0.097639 0.524208 0.017022 0.069568 0.247963 -0.316651 0.335650 -0.473630 0.080259 0.491362 -0.145822 0.182887 0.468150 -0.239428 -0.049531 0.038556 0.093364 -0.230193 0.570202 -0.091452 0.271331 0.041288 0.024009 0.313383 0.131518 0.131740 0.094268 0.135689 -0.058844 -0.813888 0.549054 -0.753119 0.452265 0.103557 -0.054017 -0.634262 -0.505639 -0.364964 0.116750 -0.535926 0.321097 0.347555 -0.154623 -0.839827 0.104833 -0.096577 0.283585 -0.268075 -0.649293 -0.149871 0.028695 -0.816861 0.288948 0.118118 0.062516 -0.093379 -0.150018 0.463183 -0.026591 0.634132 -0.034267 0.478990 0.490647 0.555180 0.146058 0.307873 -0.227775 -0.086255 -0.505893 -0.811100 0.226595 -0.813756 -0.536188 0.616300 -0.264008 0.017484 0.208439 -0.048029 -0.082487 -0.599570 0.536389 -0.846823 0.151776 0.260624 -0.407782 -0.197750 -0.112454 0.248242 -0.531538 0.055228 0.145911 -0.984439 -0.076222 0.107817 0.150554 0.094729 -0.509452 0.037243 0.742192 0.477117 -0.290162 0.015791 0.678430 -0.017627 0.340465 0.702246 0.280973 0.213655 0.133571 -0.824597 -0.208517 -0.401595 0.445296 -0.137193 0.219967 0.645585 -0.251295 0.362389 0.228691 0.460164 -1.254369 -0.864712 0.219271 0.261381 0.404229 0.012905 0.731191 -0.364257 -0.212993 0.025190 -0.604198 -0.254661 -0.169217 -0.095715 1.656778 -0.093944 0.426436 0.022668 -0.533602 0.405205 -1.152467 -1.166431 -1.441894 0.692367 -0.041078 0.631268 -0.595428 0.194624 -0.577147 -0.024485 -0.260946 -0.887649 
HCCDB-3.S307 0.579641 -0.184735 0.025744 0.787350 0.184956 -1.584644 0.272161 0.689842 -0.240563 0.107368 -0.799701 -0.116398 -0.049519 0.471448 0.092730 -0.999492 0.164707 -0.314884 0.156762 -1.075984 0.842577 0.185274 0.314938 0.365133 -0.228894 -0.414182 0.292097 -0.779438 -0.085312 0.003573 -0.790749 0.253764 1.221079 -1.290409 -0.771885 0.156929 -0.444300 -0.802328 -0.041798 -0.112012 0.163922 0.180546 0.267806 -0.204430 0.133880 -0.330575 0.702797 0.637006 0.185453 -0.283788 -0.201632 0.161266 0.404894 0.240321 -0.706073 0.031605 0.007419 0.506246 0.186620 -0.076797 0.570079 -0.141044 -0.464539 -0.144347 0.162720 -0.635890 0.522188 0.770169 0.400877 0.662588 -0.022667 1.366418 -0.021979 0.410088 -0.202259 -0.147559 -0.533145 -0.956166 0.362121 -0.998127 -0.286031 0.648491 -0.102651 -1.476876 -0.334444 -0.672193 0.009293 -0.278590 0.453809 0.561219 -0.729459 -0.317423 0.196060 -0.153051 0.423342 -0.893195 0.111314 0.533116 0.799161 -0.595626 -0.254367 0.358615 0.657719 -0.387869 -0.820075 -0.181374 0.317835 0.371025 -0.018935 -0.302501 0.021465 0.731337 0.324852 -0.189229 0.117291 -0.224678 0.219126 -0.420344 0.619869 -0.413104 0.062116 0.626839 -0.367338 0.193219 -0.367164 0.428048 -0.644066 -0.223045 0.863083 -0.497785 -0.090633 0.201131 -0.404013 -0.201494 -0.561233 0.789549 -0.616998 -0.383794 0.515202 -0.353848 0.467792 0.527760 -0.044680 0.880102 -0.224226 -0.699641 0.853833 0.131079 0.300730 -0.459649 0.131151 -0.500094 0.715906 0.364579 0.964645 0.414891 0.338098 -0.967240 -0.317198 -0.538688 0.471620 -0.225191 0.327889 0.575005 0.299068 0.874855 -0.992148 0.407810 -0.912152 -0.577136 -0.226158 0.514722 0.957720 -0.154803 0.797284 0.187884 -0.789274 -0.448082 -0.291087 -0.140156 0.249988 -0.523957 1.276689 -0.097781 0.389293 0.762924 -0.389752 -0.708911 -0.630932 -1.246429 -1.065196 0.908143 0.479922 -0.104093 -0.638509 0.591074 -0.568958 -0.773084 0.221553 -0.823432 
HCCDB-3.S308 0.373570 -0.205897 0.037990 -0.186520 -0.245872 -0.733709 0.324960 0.836425 -0.431300 -0.143942 -0.690332 0.559660 0.320469 -0.036907 -0.205878 -0.696200 0.352839 -0.429399 0.156373 -0.103820 0.279760 0.504465 -0.678546 0.638981 0.429830 0.663415 -0.335384 -0.019954 -0.043877 -0.041467 -0.718818 0.538502 0.802884 -0.617686 -0.226019 0.105084 -0.228648 -0.272664 -0.230775 -0.433010 0.554292 0.230185 0.625621 -0.856115 0.224067 0.564495 0.464329 0.513790 0.104551 0.099854 0.426926 0.220705 -0.214002 -0.644785 0.436918 -0.619060 0.034023 0.759325 -0.476879 0.051630 -0.022205 -0.788210 0.395481 0.587590 0.819728 -0.238126 0.015975 0.444385 -0.188627 0.212617 0.355030 0.618277 -0.458451 0.125992 -0.081211 -0.074999 -0.380630 -0.404064 0.459731 -1.009421 0.718785 0.701970 0.372665 -0.596658 -0.462200 -0.318113 -0.088004 0.071345 0.376092 0.177104 -0.364318 -1.141095 -0.528540 0.334713 1.000492 -0.335582 -0.508063 -0.182253 -0.166404 -1.262679 0.359670 0.024662 0.090214 -0.822386 -0.533150 0.308814 -0.098922 0.732607 0.010169 -0.239562 -0.072426 0.824987 0.216162 0.617143 -0.368064 0.673834 -0.062422 -0.389771 0.761421 -0.594468 0.001870 -0.040721 0.450375 -0.492520 -0.170260 -0.046835 -0.474460 -0.712450 0.717128 -0.570159 -0.400484 0.458141 0.174143 0.236614 0.258544 0.177281 -0.812913 -0.139118 0.172799 -0.379121 -0.030600 -0.208625 -0.481327 0.173051 -0.650354 -0.184883 1.115118 -0.545356 -0.913894 -0.210339 -0.055720 0.358875 0.162970 0.169456 -0.100328 0.299599 0.478740 -0.728674 0.355220 -0.146663 0.074816 -0.149218 -0.182294 0.247879 -0.224309 -0.107454 -0.110489 0.776325 -1.236496 -0.419002 0.212515 0.796203 0.539518 -0.246076 0.629001 0.197299 -0.382892 0.105991 0.089174 -0.102008 -0.321172 -0.286969 1.147327 -0.386180 0.512722 -0.007231 -0.323878 -0.209025 -0.700612 -0.991015 -0.881835 0.925631 -0.223282 -0.469053 0.068424 0.313809 -0.379423 -0.505034 0.109739 -1.186757 
HCCDB-3.S309 0.156344 -0.607409 -0.122768 -0.491673 -0.548471 -1.277089 0.782480 0.346197 -0.344406 -0.505376 -0.626045 0.444938 -0.048601 0.886731 -0.197454 -0.970782 0.754104 -1.114444 -0.472189 -0.857299 -0.110995 0.427621 0.047972 0.156700 0.078783 -0.650316 -0.687539 -0.173343 0.375755 -0.583609 -0.652659 0.369884 1.064319 -0.160073 -0.760743 0.563846 -0.375525 -0.257624 -0.271612 -0.015927 0.090392 -0.452977 0.246745 -0.612009 0.358516 0.140306 0.135456 0.556046 0.543520 -0.371316 0.109882 0.218017 0.227073 -0.391314 0.296030 -0.307717 0.562661 -0.121511 -0.322994 -0.019715 0.344466 -0.159145 0.359687 0.200263 0.394751 -0.333853 0.400539 0.317902 -0.325081 0.528239 0.139289 0.303485 -0.700138 0.205865 0.048001 -0.123997 -0.279231 -0.638930 0.325536 -1.009139 0.191446 0.734131 -0.655428 -0.528564 -0.486368 -0.531181 0.043229 -0.593799 -0.259801 0.798443 -0.449239 -0.502147 -0.651608 0.214836 0.483463 -0.178780 -0.556894 0.144111 0.122665 -1.099385 0.007331 -0.154170 0.890474 0.052896 0.328778 0.499255 0.456940 0.609342 -0.333194 0.021877 0.352158 0.682631 0.107375 0.230508 -0.033268 0.426103 0.044442 -0.607500 -0.015044 -0.753326 -0.261114 0.208218 0.180042 0.090910 0.216492 0.143895 -0.465374 -0.514112 0.455197 -0.831121 0.425671 0.478296 -0.028176 -0.421417 -0.131273 0.505803 -0.034629 -0.045525 -0.250156 -0.694717 -0.206551 -0.151724 -0.236425 0.373560 -0.125603 0.575854 0.515831 0.011716 0.024993 -0.997333 0.369337 -0.274932 0.234027 0.497824 0.426236 0.138536 0.322284 -1.008924 0.480987 -0.045319 0.023141 -0.244139 0.426241 0.035279 -0.243610 -0.087099 -0.224835 0.245797 -1.269793 -0.016505 0.074210 0.753566 0.093845 0.004327 0.763941 -0.519877 -0.240767 0.024873 -0.820121 -0.369516 -0.099201 -0.433021 1.849830 -0.239487 0.165309 0.079968 -0.783806 0.202449 -1.070557 -0.816119 -1.047784 0.860742 0.153956 0.315404 0.252160 0.133200 -1.003402 -0.518748 -0.214899 -0.958450 
HCCDB-3.S310 0.199380 -0.036613 -0.018862 -0.588330 0.537012 -0.371322 0.621130 0.774027 -0.879875 -0.425413 -0.348265 0.143780 -0.128064 -0.005292 0.233656 -0.453146 0.126862 -1.079942 0.463068 0.351060 -0.208272 -0.284222 0.155901 0.413326 -0.429017 -0.074442 -0.297677 -0.976503 0.249816 0.572128 -1.073725 0.677754 1.285403 -0.514098 -0.221070 0.774282 0.134825 0.089143 0.067396 -0.764743 0.946545 -0.047977 0.786569 -0.596267 0.600051 -0.204695 -0.450010 -0.423225 0.187951 0.640840 0.232116 0.535868 0.425211 0.375950 0.516364 -0.128736 -0.142204 0.673317 -0.410177 0.452247 -0.196400 -0.625933 -0.523244 0.230935 0.000881 -0.875351 0.473646 1.112864 0.364433 0.680180 0.215206 0.883428 0.247332 -0.010357 0.189330 -0.009741 0.409268 -1.080408 0.507988 -0.240709 0.844126 0.310537 -0.312914 -1.366166 -0.543518 -0.217795 -0.296724 0.062578 0.632821 0.206712 -0.721493 -0.838616 0.369583 0.360326 1.092675 -0.293186 -0.480840 0.567896 0.278718 -1.436162 0.833933 -0.088369 -0.313063 -0.311773 -0.370580 0.353122 0.572501 1.557019 0.487920 0.062365 0.916719 0.966749 -0.094266 1.063039 -0.634911 0.585308 -0.230789 -0.591037 0.412246 -0.187382 0.436478 -0.199055 -0.287455 -0.102955 0.390130 -0.077280 -0.147198 -0.069321 1.270323 -0.502553 0.377493 -0.158364 -0.034002 0.497997 0.270826 -0.153467 -0.560365 0.309063 0.335443 -0.250256 0.314349 0.308601 -0.640894 0.535707 -1.076540 0.233391 0.520877 -0.311277 0.129847 -0.476593 0.346256 0.255550 -0.025499 -0.241222 0.711181 0.227264 0.718697 -0.084777 0.486316 -0.108848 0.170082 -0.435962 0.295452 0.372107 -0.734293 0.254068 -0.225382 0.925261 -0.900114 -0.079507 0.347124 0.443886 0.274653 0.030597 0.606451 0.088679 -0.620393 -0.132252 -0.718323 -0.092983 -1.111176 -0.419490 0.845831 -0.040944 0.323788 0.536978 -0.725552 0.135630 -0.827001 -0.942813 -1.252636 0.850462 0.202021 0.453830 -0.022439 0.888415 -0.592330 -1.487129 0.059507 -0.369958 
HCCDB-3.S311 0.043893 -0.729967 0.599337 -0.875283 -0.226849 -0.874892 1.067671 0.281564 0.072150 -0.763201 -0.095953 1.029538 -0.516334 -0.568885 -1.012920 -0.563298 -0.167114 -0.741153 -0.367793 0.621105 0.868033 0.683485 -0.575008 0.088812 0.037304 0.090196 -0.291699 0.330325 0.276303 -0.421560 -0.110257 0.154033 1.320646 -0.912997 -0.833724 1.187281 -0.560269 0.085024 0.462933 -1.073007 0.042517 0.415586 0.055438 -0.718598 0.606058 0.186689 0.435157 0.496774 0.496716 0.240523 -0.366849 -0.132961 -0.494981 1.240778 0.207350 -1.022460 -0.371080 0.535860 -1.093338 0.246218 -0.507629 -0.155323 -0.104994 0.154527 1.383931 -0.034400 -0.165509 0.509126 0.827193 0.127374 -0.152677 0.282638 0.004479 -0.040143 -0.186367 0.457275 -0.298034 -0.972245 1.022077 -0.928343 0.119608 1.223143 -0.276590 -0.276860 -0.658064 -0.996354 -0.085067 -0.720707 -0.204403 -0.181340 -0.377915 -0.769541 0.322642 -0.217357 1.436976 -0.741244 -0.320111 0.735087 0.740694 -1.186134 0.122260 -0.076853 0.855966 -0.478591 0.161552 -0.190396 -0.733214 0.789805 -0.164283 -0.046105 0.222722 0.685483 0.106338 -0.826844 -0.323511 0.263249 -0.357074 -1.077798 0.454310 -0.901088 -0.466744 0.663707 -0.249546 0.383106 -0.473224 -0.244539 0.736206 -0.611228 0.628515 -0.941517 -0.263137 0.730448 0.009806 -0.351698 0.597264 -0.145113 -0.077054 -0.144294 0.184677 0.433656 1.138974 -1.213794 0.278653 0.452451 0.046789 -0.543480 0.179375 0.117136 0.235045 -0.302028 -0.237266 -0.080927 -0.212146 -0.272433 0.703026 -0.175181 0.689511 -0.388479 0.367309 -0.225684 1.047798 0.034671 0.139551 0.000793 -0.027787 -0.522456 -0.252695 0.718607 -1.291505 0.432903 0.520774 0.572633 0.522114 -0.496831 0.347691 -0.360902 -0.828989 -0.664612 0.164382 -0.284771 -0.802023 -0.366610 0.950284 -0.348263 0.117295 0.687375 -0.708034 -0.167997 0.016991 -0.748278 -0.713781 -0.018355 1.003789 -0.441600 -1.453789 0.640781 -1.316591 -1.183210 -0.054048 -1.443328 
HCCDB-3.S312 -0.020519 -0.908580 0.725467 0.089737 -0.522907 -0.702058 0.643787 0.901558 -0.358647 0.157133 -0.492624 0.130809 0.676911 0.444743 -0.322655 -0.483017 0.569608 -0.967031 -0.486618 -0.682794 0.454866 1.032935 -0.850218 -1.108272 -0.174410 -0.847016 0.106595 0.205019 1.203701 -0.249978 -0.780693 0.622273 0.580293 -1.117011 -0.174806 0.833154 -0.673092 -0.437436 0.847968 -0.879982 -0.023082 0.245057 0.907472 -0.455147 -0.063243 0.643560 0.348388 0.249133 0.346436 0.610922 1.204190 -0.187577 0.066857 -0.270387 0.506258 -0.249360 0.743896 0.517990 -0.087426 0.145318 0.410174 -0.374179 -0.941686 -0.012586 0.816808 -0.050500 0.223171 -0.024917 0.179559 0.765109 0.482067 0.135611 0.006781 0.724808 -0.251959 0.440641 -0.417603 -0.571079 1.641971 -1.083963 0.890760 0.352758 -0.110937 -0.497979 -1.453438 -0.670997 -1.301618 -0.617473 -0.480583 0.438992 -0.455286 -1.015103 -0.264224 -0.060570 -0.024901 -0.095603 -0.346649 0.234195 0.669118 0.040407 -0.382921 -0.359843 1.006125 -0.197103 -0.351736 -0.841044 0.621018 0.295222 -0.219178 0.483615 0.749388 0.980896 0.544327 0.626423 -0.732593 1.008391 0.401823 -0.212124 -0.542325 -0.807381 -0.038287 0.546703 -0.042936 1.153310 0.331274 0.007196 0.157358 0.089502 1.437681 0.065698 -0.050709 0.240764 -0.338150 0.450860 -0.298253 0.645319 -0.640595 -0.863222 0.320497 -0.150685 -0.210277 -0.204504 0.207588 0.350478 -0.692283 -0.202524 0.659545 0.225566 -0.655438 1.114858 0.676859 -0.018158 -0.374224 -0.018723 0.598435 0.125483 0.092879 -0.332909 0.420426 -0.301873 -0.169134 0.825937 0.220792 -0.353487 -1.425486 -0.619118 -0.569854 -0.223988 -1.134592 -0.027447 0.249566 0.912398 0.151440 -0.387046 0.398951 0.374453 -0.493511 -0.017107 -0.639961 -0.110245 -0.537362 -0.890760 0.705845 -0.092488 0.877545 -0.140739 0.013911 0.169796 -0.960523 -1.347616 -1.199660 1.703111 -0.259908 0.291806 -0.152981 -0.046327 -0.304144 -0.258142 0.279564 -0.263266 
HCCDB-3.S313 0.945146 -0.013660 0.083457 -0.076117 -0.073700 -0.996367 0.419187 0.509727 -0.318451 0.076131 -0.993735 0.495819 0.246758 0.147071 0.042349 -0.649621 -0.238172 -1.575188 0.165784 -0.071595 0.054971 0.562983 0.583633 0.671559 -0.031477 -0.063654 -0.617156 0.263624 0.698201 1.397905 -0.539274 0.312634 1.168244 -0.534164 -1.692696 0.589198 -0.591973 0.487629 0.277152 -0.556272 0.658010 0.178622 -0.190404 -0.447913 -0.337767 -0.297337 1.564634 -0.359328 0.469772 -0.236156 1.067642 0.686880 0.147308 -0.030352 0.187659 -0.471821 -0.250404 0.433573 -0.506196 -0.143232 0.321609 0.116701 -0.661474 -0.199307 -0.191762 -0.824879 0.765032 1.038814 -0.129073 0.446797 0.261140 0.052046 0.891893 0.255212 -0.310678 1.080121 -0.423752 0.053553 0.843218 -0.421296 1.092834 0.039831 -0.380436 -0.584077 -0.138029 0.108451 -0.419194 0.454883 -0.295713 0.794014 -0.339669 -0.909037 -0.524549 -0.025137 0.810913 0.011145 -0.456998 0.428258 0.333132 -0.593497 0.419041 -0.322712 1.012197 -0.285995 -0.426097 0.289447 -0.349054 0.960441 0.098603 0.331132 -0.491096 0.365379 -0.141319 -0.360210 0.664676 -0.345195 -0.101458 -0.525765 -0.230479 -0.105899 -0.529676 0.415278 -0.551182 0.705338 0.682250 0.667120 0.191516 -1.036016 0.596696 0.006576 0.168171 0.931319 -0.790380 0.146565 0.288706 1.359083 -0.119150 -0.872655 1.329816 -1.282501 -0.509627 0.165089 0.278111 0.142716 -0.290374 0.261906 0.323063 0.431608 -0.409145 -0.249791 0.223106 -0.322297 0.261880 0.746345 0.120772 -0.663725 -0.420769 -1.147018 0.482274 -0.009604 1.563041 -0.294097 0.038045 0.355832 0.002016 -0.171247 -0.103218 0.121458 -1.399455 0.170659 0.122925 0.754217 0.734357 0.340268 0.316106 -0.424621 -0.506250 0.020220 -0.746536 -0.618967 -0.134936 -0.244315 1.376689 -0.382119 0.296201 -0.485990 0.057075 -0.154118 -1.243086 -1.523679 -0.489213 0.923886 0.768076 0.514712 0.770037 0.200085 -0.337171 -1.229461 -0.257776 -1.009907 
HCCDB-3.S314 0.717194 -0.142988 0.043056 -0.075191 -0.330276 -0.222655 -0.088440 1.036541 -0.420685 -0.428385 -0.430011 0.791147 -0.613394 0.287762 -0.047130 -0.742563 0.736716 -1.683817 0.241879 -0.643457 0.682274 1.177747 0.246283 0.425531 0.670649 0.333433 -0.181371 -0.523716 0.172881 -0.515661 -0.830491 0.808541 1.207783 -0.509065 0.214924 0.166490 -0.537388 -0.372810 0.707603 -1.304856 1.218910 0.266496 0.766800 -0.662140 0.197449 0.896022 0.765407 0.476941 0.833191 0.532483 0.485966 -0.043574 -0.030417 -0.317064 0.861463 -0.815233 -0.196853 1.180274 -0.192460 0.401513 -0.252289 -0.080914 -0.381765 0.696697 0.453668 -0.796232 0.123695 0.414716 -0.378779 -0.741237 0.829188 0.639865 -0.114117 0.538257 -0.140488 -0.051352 -0.499099 -0.471482 0.837960 -0.003615 1.228619 1.135743 0.216165 -0.237131 -0.169734 -0.155006 0.029262 0.055747 -0.137372 0.478954 -0.081462 -0.996069 -0.924969 0.198331 -0.180274 -0.754986 -0.121007 0.569234 -0.461175 0.119971 0.540531 -0.330359 0.215976 -0.743553 -0.634989 -0.265262 -0.022870 0.404384 -0.417521 -0.100679 -0.095896 0.020862 0.021464 0.412141 -0.498716 -0.476150 0.018597 -0.493658 0.609254 -0.723630 -0.204702 -0.022899 -0.343043 0.027102 0.021153 -0.612221 -0.821139 -0.236710 1.156040 -0.311255 0.025492 0.590511 -0.416073 0.599221 -0.194739 -0.069600 -0.203101 -0.328589 0.774491 -0.602857 0.063597 -0.539405 -0.003295 0.119602 -0.430533 -0.323202 0.574650 -0.457235 -0.010064 -0.257104 0.500522 -0.569563 -0.161665 0.217676 -0.243161 0.518674 0.140446 -1.179853 0.632652 0.328429 0.983640 -0.014985 0.127185 -0.021536 -0.647231 -0.567549 -0.132737 1.270747 -1.436655 -0.853209 0.914755 0.667243 0.729112 0.701298 0.763557 0.092307 -0.673768 -0.373631 0.323609 -0.470740 0.235982 0.170463 0.861668 0.244666 0.190757 -0.241104 -0.467704 -0.466813 -0.158006 -1.163026 -1.377982 0.813616 -0.455718 0.088694 -0.671305 0.667688 -0.459166 -0.018900 -0.780980 -0.916884 
HCCDB-3.S315 0.306493 0.016208 -0.671453 0.429919 -0.177873 -0.069364 0.494169 0.878826 -0.417757 -0.534648 -0.658236 0.184567 0.397098 0.064398 -0.340736 -0.592052 0.272721 -0.537595 0.117990 -0.730887 0.159461 0.279681 0.186229 0.374133 0.433951 -0.755903 0.021006 0.000842 0.239926 0.233615 -0.856676 0.562535 0.956761 -0.761825 -0.072526 0.151251 -0.388384 -0.502728 0.040690 -0.674184 0.477345 0.413591 0.875035 -0.920779 -0.288368 0.240539 0.177107 0.589028 0.305549 0.207629 -0.135456 0.476473 0.171108 -0.104003 0.137319 -1.400510 0.101977 0.270073 -0.228908 0.058675 0.442706 0.043487 0.028397 0.092752 -0.001023 -0.447277 0.215543 0.202559 0.625733 0.786697 0.131225 0.803559 0.106659 -0.074690 0.019599 0.121889 0.116321 -0.729292 0.810564 -0.626649 0.466268 0.752035 0.103563 -0.723468 -0.614499 -0.220197 0.635461 -0.549737 0.211553 0.114427 0.137076 -0.817983 -0.135602 0.272761 0.406794 0.106088 -1.019430 0.193980 -0.136593 -0.866211 0.503303 -0.174771 0.155577 -0.137874 0.105658 -0.456657 -0.198289 0.783048 0.135230 -0.093065 0.358877 0.637979 0.505108 0.517137 -0.843203 0.426217 -0.609100 -0.497491 0.547042 -0.526757 -0.199016 0.216885 -0.220332 0.109302 0.567319 0.148819 0.187790 -0.641794 0.924895 -0.584569 -0.457976 0.040104 0.127923 -0.045541 0.313971 0.494096 -0.139257 0.131761 0.771414 -0.517429 -0.495402 0.305921 -0.062210 0.471925 -0.547016 0.437482 0.650445 -0.125707 -0.279000 -0.319866 0.653315 -0.302609 0.016060 0.573506 0.433312 0.001041 0.448756 -0.936672 0.482441 -0.120777 0.059836 -0.035092 0.096194 0.318326 -0.325901 0.810570 0.139414 0.517955 -1.123149 -0.449581 0.212246 0.129696 0.387379 -0.284372 0.661177 -0.169447 -0.740938 -0.118764 -0.701830 -0.406787 -0.275781 -0.191497 1.499661 0.020462 0.763562 0.085731 -0.332227 0.192754 -0.519372 -1.543475 -1.037266 1.054447 -0.130223 0.281260 0.009978 0.239486 -0.587071 -0.670244 -0.352891 -0.837749 
HCCDB-3.S316 0.225352 -0.598061 -0.250331 -0.233235 -0.016562 -0.735318 0.998830 0.997065 -0.064462 -0.803204 -0.655248 0.817465 -0.720922 0.166548 -0.691227 -0.530160 0.417094 -0.520630 -0.088446 -1.047769 0.221933 0.590671 0.638067 -0.025611 0.089274 -0.236130 -0.805978 -0.075789 0.234242 -0.838309 -0.392382 0.028011 1.236598 -0.249946 -0.029265 0.908273 -0.678367 0.119868 0.070239 -0.844235 0.565879 0.282122 0.244089 -0.247312 -0.099555 -0.237285 -0.082059 0.617302 -0.190416 -0.382048 0.463980 -0.054819 0.278733 0.059069 0.053498 -0.439461 -0.192910 0.224215 -0.705337 -0.099618 0.421402 -0.663690 -0.024524 0.183346 0.911751 -0.162383 0.540826 1.000562 -0.474457 0.324918 0.534592 -0.090690 0.497117 0.081922 0.230758 0.240265 -0.338033 -1.344869 0.914311 -0.979320 0.736774 0.746685 -0.372236 -1.117817 -0.028869 -1.028933 0.185591 -0.020328 -0.210895 0.196929 -0.322630 -0.681483 0.205973 -0.049089 0.574274 0.166560 -1.164621 -0.178645 0.475427 -0.783367 -0.014222 0.376808 0.241290 0.317109 -0.096656 0.059685 0.066088 0.590088 0.215553 0.134252 0.337942 0.551576 -0.003995 -0.336627 -0.191761 0.282297 -0.129660 -0.863838 0.123620 -0.040877 0.339657 0.407863 0.097146 0.175014 0.319563 0.243418 -0.477409 -0.951359 0.543315 -0.750966 0.643770 0.463764 0.064861 -0.215878 -0.050364 0.579029 -0.207836 0.129967 -0.885821 -0.550178 -0.215836 -0.137451 -0.298710 -0.036994 -0.502575 -0.128910 0.513660 0.372996 0.092702 -0.852088 -0.017867 -0.246522 0.324618 0.497430 0.415299 0.267498 -0.149573 -0.308695 0.546326 -0.268652 0.195539 0.059099 0.042366 -0.041331 0.208494 -0.320658 -0.328266 0.773553 -1.173393 -0.322781 0.677316 0.792849 0.142983 -0.209284 0.295098 -0.596684 -1.208316 0.704078 -0.707406 0.139682 0.098024 0.066338 0.782057 0.303776 0.904029 -0.018289 -0.937065 -0.326154 -0.537540 -0.062993 -0.912342 1.145658 0.560067 0.182943 -0.058262 0.255769 -0.548563 -0.746707 -0.665741 -1.302380 
HCCDB-3.S317 0.757653 -0.077345 -0.091240 0.076215 -0.976246 -0.368484 0.600115 0.965039 -0.361826 -0.290156 -0.654857 0.078803 -0.219430 0.505512 -0.098017 -1.103935 0.220181 -0.838800 0.380642 -0.482279 0.138413 0.069057 0.747576 0.677771 0.701748 -0.577249 -0.157666 0.394403 0.302713 -0.282937 -0.242004 -0.017657 1.107754 -0.956290 0.062633 0.338051 -0.395835 -0.256455 0.462071 -0.538688 0.115565 0.069515 0.683611 -0.833111 0.029201 -0.071736 0.231446 0.421785 -0.196879 0.115730 -0.033757 -0.288801 -0.177762 -0.324748 0.638722 -0.466053 0.034650 0.028370 -0.231574 0.112105 0.340055 0.087501 -0.006637 -0.243171 0.322163 -0.755137 0.013844 0.434934 0.270484 0.442239 0.136567 0.908839 0.015922 0.545334 0.556491 0.545366 0.117831 -0.425569 0.368594 -0.995899 1.006209 0.923211 -0.343316 -0.728386 0.087715 -0.537074 -0.294592 -0.593357 0.121012 0.666737 -0.528297 -0.600936 0.054790 0.054287 0.181479 -0.287957 -0.414712 0.118309 -0.192228 -0.659970 0.121253 -0.067817 0.811718 0.060169 -0.045880 -0.205673 0.148641 0.858683 0.270843 0.613885 -0.143298 0.332092 -0.001218 0.067773 -0.636844 0.005436 -0.063659 -1.261950 -0.039690 -0.590788 0.196978 0.768151 -0.002400 0.051058 -0.094737 -0.097254 -0.337805 -0.496881 0.293272 -0.839736 0.182018 0.022611 0.107859 -0.305486 -0.326518 0.223528 -0.268373 -0.160054 -0.059658 -0.604457 0.242290 0.095333 0.154462 0.352667 -0.297888 0.483314 0.805212 -0.596566 0.051005 0.014783 0.187733 -0.181794 0.229034 0.547528 0.557452 0.465415 0.385526 -1.390404 1.038272 -0.540433 0.492848 -0.230349 -0.052575 -0.511777 0.053278 -0.048951 -0.495562 0.720451 -1.366449 -0.917739 0.102020 0.234542 0.432213 -0.125793 0.587358 -0.357647 -0.685108 0.708144 -0.437716 -0.404308 0.138915 -0.487411 1.685444 0.283065 0.186935 -0.054086 0.257578 -1.071850 -0.695977 -0.846210 -0.966722 0.630633 0.103131 0.182432 0.176708 0.031429 -0.557006 -0.237205 -0.195862 -0.596539 
HCCDB-3.S318 -0.257686 0.422277 0.072864 -0.383460 0.051354 -0.050393 1.336122 0.724823 -0.393826 0.400143 -0.312296 -0.776082 0.627723 0.058979 -1.061809 -0.434660 0.812330 -0.420857 -0.010887 -0.553875 0.415808 0.935702 0.281942 -0.066943 -0.087061 -0.523907 0.175579 -0.430482 1.187446 -0.724128 -0.024913 0.915749 1.014636 -0.489243 -0.278933 0.835190 -0.306619 -0.251462 0.714594 -0.816849 0.122660 -0.275099 0.574551 -0.561752 -0.136391 -0.018809 0.932520 1.240598 0.719056 -1.225172 0.708388 -0.253398 0.276223 0.317142 0.664285 -0.645393 0.329548 -0.015450 -0.857381 0.998817 0.268777 -0.272300 -0.388593 0.151948 0.745694 -0.295389 0.373695 0.392253 -0.365486 0.988796 0.003385 -0.231156 -0.060174 0.551042 -0.196397 0.281652 -0.420428 -0.730431 0.655300 -1.191359 0.143612 0.667655 -0.377912 -0.565703 -0.878550 -0.221660 -0.441112 0.088740 0.413174 -0.092705 -0.551159 -0.328523 0.025617 -0.071283 0.433629 0.135572 -0.410368 0.467136 -0.028610 -0.379518 0.100851 0.141421 0.499520 -0.335345 0.301422 0.163023 0.686409 1.487711 0.505461 0.701864 0.959915 0.440716 0.338254 -0.063100 -0.640923 0.522928 0.326660 -0.270412 0.548241 -0.921550 -0.139819 0.716861 0.679381 0.003828 0.153947 0.059039 -0.054846 0.103512 0.847209 -0.576094 -0.081414 0.602520 -0.287851 -0.003790 0.037315 0.623568 -0.901323 -0.607306 -0.723529 -0.778065 -0.124861 -0.531385 -0.136654 -0.211263 -0.483893 -0.365552 0.847647 0.467283 -0.950099 -0.351392 0.008372 -0.770473 0.545714 0.472185 -0.147321 -0.017945 -0.161736 -0.742794 -0.230680 -0.079941 0.441899 -0.191229 0.183759 0.147441 -0.159208 0.086782 -0.499247 1.052200 -1.294879 -0.043651 0.562053 0.698341 0.423889 0.032632 0.941405 0.192975 -0.338080 0.041321 -0.602576 0.256385 0.158088 -0.328516 0.798904 0.215366 0.260637 0.293255 -0.456138 -0.106680 -0.708515 -0.012960 -1.503460 0.934635 0.047123 -0.025609 -0.245923 0.474846 -0.276443 0.251644 -0.519640 -1.524858 
HCCDB-3.S319 0.883536 0.399406 1.003186 -0.014760 -0.662777 -0.521401 0.605370 0.634057 -0.390723 -0.562180 -0.601219 0.251634 -0.049026 -0.325486 -1.171311 -0.858664 0.443630 -1.495941 0.264765 -0.232714 0.843285 0.422940 0.400403 0.065043 -0.030923 -0.004895 -0.530175 0.357174 0.501339 -0.021584 -0.435906 0.776467 0.704070 -0.303817 -0.443613 0.980526 -0.572837 -0.566060 0.235677 0.306563 0.652622 0.172800 0.156665 -1.040895 0.701645 0.484483 0.355163 0.650323 0.734282 0.060466 0.640193 -0.285697 -0.121349 0.087517 0.671990 0.050633 -0.589767 0.043876 -0.307697 0.758857 0.678492 0.353173 -0.253446 -0.127819 0.339844 -0.984850 0.492662 0.772782 -0.024044 0.840006 -0.189214 0.259339 0.677777 0.310783 -0.200153 0.898314 0.259342 -1.072678 0.149576 -0.744343 0.918564 0.338936 -0.937757 -0.403286 -0.244003 -0.216920 -0.132015 -0.019903 -0.145714 0.726942 -0.494649 -1.345241 -0.107930 0.472508 0.382558 -0.031624 -0.243019 0.209391 0.304430 -1.274254 -0.096153 0.039245 0.943105 -0.049706 -0.398409 0.806786 0.310382 0.554828 0.493476 0.096400 -0.446856 0.264568 -0.126297 -0.867470 0.340815 -0.173038 -0.564288 -0.489966 0.900330 0.335810 0.500913 0.958280 -0.118979 0.340062 0.282988 0.408033 -0.855249 -0.077695 0.814939 0.231274 -0.040236 0.460446 0.104813 -0.332007 0.869534 0.523958 0.126428 -0.143946 0.095605 -0.555817 -0.478782 -0.138366 -0.265277 0.195483 0.000765 0.130294 1.183640 0.085870 -0.785530 0.170974 0.624127 0.106254 1.037706 0.175059 0.211580 0.064394 0.191649 -1.020319 0.478654 -0.655310 0.268091 0.354970 0.478504 -0.172264 -0.076419 0.299395 -0.320397 0.528953 -0.899923 -0.229103 -0.570565 0.380884 1.224364 -0.289025 0.173050 -0.460307 -0.181499 0.184460 -0.456680 -0.434970 0.231978 -0.698293 1.073428 -0.193910 0.691984 -0.014541 -0.450775 -0.415687 -0.910480 -0.939005 -0.595797 0.609875 -0.260149 0.491127 0.088978 0.552188 0.089817 -0.641171 -0.294679 -1.277066 
HCCDB-3.S320 0.846456 -0.816051 0.541038 0.087385 -0.441194 -1.427912 0.749371 0.594908 0.193111 -0.258566 -0.890479 0.385852 -1.072683 0.322254 -0.278204 -1.004831 0.094319 -0.973981 0.015851 -0.814065 -0.078860 0.229056 -0.098164 0.239163 -0.267503 -0.485702 -0.459314 -0.671867 0.362218 -0.498615 -0.391940 0.317415 0.810229 -0.267834 -0.796701 0.697277 -0.252926 -0.080596 0.558488 -0.310633 -0.754963 0.087685 0.823024 -1.096854 0.463958 0.342144 0.260767 0.575535 0.340946 0.303281 0.007962 0.585615 0.605852 -0.552968 0.769698 -1.048443 -0.037317 0.571630 -0.188489 0.598553 -0.337111 -0.293765 -0.052499 0.658464 0.795524 0.231955 0.517177 0.299113 0.332792 0.210051 -0.195385 0.444371 0.412530 0.154436 0.245432 -0.481771 0.012599 -0.145492 1.268378 -0.448233 0.431027 0.169083 -0.665146 -0.044851 -0.582628 -0.494459 0.093719 -0.513458 0.135578 0.684195 0.100431 -1.442609 0.011923 -0.487866 0.623937 -0.808257 -0.580187 -0.290322 1.007946 -0.738134 0.457200 -0.224153 -0.357122 0.099436 -0.023253 -0.208764 0.361127 0.221039 -0.117433 -0.492764 0.878640 0.399064 -0.269760 0.095619 -0.120626 -0.406926 -0.359900 -0.971789 0.602924 -0.756859 -0.428555 0.282139 0.024818 -0.334456 0.540371 0.413391 -0.128852 -0.503079 0.493313 -0.503298 0.424556 0.490034 -0.082110 0.212468 -0.063293 1.425466 -0.506690 -0.161218 -0.236404 -0.093899 0.291496 -0.852429 -0.079251 -0.259700 -0.187394 0.270575 0.583779 0.321602 -0.297771 -0.156145 0.384738 -0.080911 0.462584 0.460232 0.356166 0.174980 0.211055 -1.238887 -0.194857 -0.518277 0.792224 0.036957 -0.873309 0.391545 0.372247 0.180104 -0.685297 0.787534 -1.304967 -0.094811 0.252164 0.793985 0.036999 -0.276283 0.710681 -0.353856 -0.585329 0.397780 -0.914303 0.006007 -0.215527 0.111772 2.029691 0.326507 0.412092 0.092241 -0.285519 0.824281 -0.192863 -0.365197 -1.327897 0.465566 0.371940 -0.044028 -0.872113 0.614609 -0.226674 0.453394 -0.359092 -0.243730 
HCCDB-3.S321 -0.046938 -1.324498 0.190502 0.074613 0.713545 -0.765862 0.772464 1.229234 -0.386609 -0.221336 -0.970270 0.186688 -0.453086 0.090188 -0.200803 0.292907 0.180624 -0.411308 -0.056352 -1.028977 0.341750 0.490567 0.413426 0.115739 -0.068643 -0.283714 -1.069532 -0.870565 0.479713 -0.550385 -0.679707 -0.059694 0.082317 -0.330876 -0.329354 0.696606 -0.493369 -0.068955 0.480481 -0.976955 0.169194 0.016161 1.088734 -0.575510 0.449340 -0.151073 0.823060 0.658710 0.724944 -0.035512 1.273271 0.435959 -0.121416 -0.464593 0.459036 -1.167000 0.380613 0.347273 -0.792779 -0.138804 -0.307107 -0.394453 -0.251848 -0.034851 0.676059 -0.686114 0.518600 0.037680 0.668467 -0.438278 -0.529893 0.958954 -0.670301 0.638457 -0.473929 0.157015 0.628820 -0.942273 1.291006 -0.560916 0.679028 0.746073 0.126959 -0.376002 -0.296347 -0.137060 -0.971775 -0.417392 -0.212517 -0.706074 -0.187300 -0.585873 -0.253502 0.075703 0.300988 0.036122 -0.548140 1.093013 0.374317 -0.994519 0.477002 -0.658708 0.219621 -0.925167 0.074541 -0.149964 0.515232 0.456087 0.387138 0.513918 0.479184 0.324561 0.031390 -0.514896 0.187799 0.628798 -0.382779 -0.759860 0.164420 0.145950 -0.210357 0.801881 -0.578276 -0.075295 0.198136 -0.172252 -0.316276 -0.912042 0.372556 0.509143 0.421248 -0.070236 -0.034088 -0.240048 0.772276 0.086382 0.038660 -0.191809 0.265889 -0.248882 0.974257 -0.146797 -0.466377 0.002237 -1.486824 0.002940 0.267563 0.434595 -0.325137 0.394841 0.320499 -0.336086 0.492651 0.724001 0.073676 -0.678389 0.042888 -0.290660 -0.010912 -0.578221 -0.408449 0.036328 -0.102534 0.422040 -0.387775 0.057883 0.130489 0.957563 -1.286721 -1.134590 -0.176820 0.658139 0.922179 -0.135817 0.874806 -0.182441 -0.458911 0.125582 0.013359 -1.293211 -0.760456 -0.789400 0.746542 0.222284 0.014843 0.222389 -0.562740 0.012940 -0.957366 -1.141753 -0.843178 1.031830 -0.264736 -0.064854 -0.090174 0.058905 0.426036 -0.974677 -0.085094 -0.628085 
HCCDB-3.S322 0.524157 0.317808 0.252126 0.648793 0.344235 -0.341306 0.932352 0.716706 -0.486362 -0.973259 -0.737832 -0.059317 0.041779 0.098598 0.035447 -0.686683 0.211236 -0.746588 0.273415 -0.819330 0.315604 0.165307 -0.201298 0.172268 0.313925 -0.686548 -0.231158 -0.421039 0.626420 0.970087 -0.681548 0.879863 0.058738 -0.858627 0.282076 0.558491 0.525507 -0.057530 0.008143 -0.398034 -0.195242 -0.137486 0.354717 -1.228711 0.522670 -0.067175 -0.226069 0.701262 0.014109 0.088921 0.144760 0.325304 -0.573832 0.127175 0.945570 -0.804413 -0.498579 0.524189 -0.154639 -0.270713 -0.828831 -0.554573 -0.149227 0.253099 -0.073288 0.133743 0.710917 0.552005 0.314153 0.267276 0.204864 0.629030 -0.327551 0.465486 0.392437 0.019389 -0.233042 -0.840459 0.516725 -1.643419 0.981166 0.401600 -0.028383 -0.587093 -0.050188 -0.439195 -0.393314 -0.202289 -0.254968 0.573038 -0.358556 -0.951239 0.514053 -0.164952 0.003173 -0.029138 -0.904396 0.888619 0.398138 -0.684046 0.462202 -0.278080 0.245481 -0.538569 -0.664348 0.556192 0.624568 1.370947 0.283844 0.007199 -0.231816 1.583257 0.098790 0.732229 -0.059444 -0.294256 0.555666 -0.633464 -0.409949 -0.674166 -0.146580 0.326995 0.105887 0.690953 -0.374990 0.186497 -0.086870 -1.210206 1.002038 0.120734 0.176425 0.326413 -0.104270 -0.323883 0.526763 0.877453 -0.263889 0.032587 0.829176 -0.057531 0.109123 -0.296233 0.197203 1.062359 -0.231342 -0.152994 0.358396 0.749588 -0.131305 -1.048002 0.213368 -1.198802 -0.509520 -0.049266 0.510104 0.979899 0.201971 -0.636436 -0.309299 0.270254 0.251145 -1.229096 0.267801 0.435665 0.524026 0.347759 -1.030384 0.873952 -0.842323 -0.474018 0.751762 0.519211 0.893519 -0.142532 -0.150137 -0.242575 -0.560844 0.706100 -0.759048 -0.417397 -0.016204 -0.508192 1.091681 0.223769 0.558201 -0.157082 -0.009580 -0.870535 -0.687749 -0.933404 -1.495687 1.473079 0.173056 0.354496 0.995110 0.713262 0.167164 -0.588672 -0.815824 -0.370315 
HCCDB-3.S323 0.824698 -0.675808 0.337081 -0.777268 -0.092598 -0.102098 0.589887 0.654335 0.036390 -0.386794 -0.376430 0.091342 -0.373712 0.531959 -0.985156 -0.738919 0.195493 -0.348148 0.100175 -0.529046 -0.188984 0.437993 -0.022555 0.233588 -0.196457 -0.277447 -0.302263 0.015215 0.587869 -0.151166 -1.069539 0.822318 0.790622 -0.649841 -1.026698 -0.059568 -0.164578 -0.026747 0.462655 -0.607095 0.460642 0.146795 0.380549 -0.571789 -0.694473 0.263087 0.862604 1.014206 0.224827 -0.176294 0.397388 -0.062345 -0.438958 0.137585 0.586155 -0.853033 0.190077 0.048729 -0.014851 -0.274495 0.501564 -0.253005 -0.328846 0.144860 0.580098 -0.195866 0.709760 -0.336763 -0.172414 0.862718 -0.087004 0.319707 -0.029456 0.780763 0.347190 0.028402 0.148393 0.015335 1.204101 -0.725048 0.310635 0.199537 -0.341092 0.232778 -0.718445 -0.207562 -0.778036 -0.803688 -0.267739 -0.124695 0.262121 -0.710395 0.065186 -0.284937 0.088278 -0.025001 -0.503426 0.523794 -0.035715 -0.153992 0.552759 -0.126058 0.326497 0.107098 0.013413 -0.184155 0.186911 1.484766 -0.177625 0.117240 0.112171 1.325469 0.404248 0.849678 -0.214298 0.567014 0.317244 -0.815043 0.718736 -0.157952 0.100008 -0.073868 -0.632510 -0.303870 0.199021 0.363953 0.012575 -0.865066 0.727711 -0.827528 -0.164781 0.903971 -0.019641 -0.135241 0.125116 0.600987 0.207311 -0.280224 0.344336 -0.201064 0.399159 -0.135439 -0.107021 0.235262 -0.661590 0.585040 0.505109 0.283836 -0.317596 -0.455643 0.218958 -0.168836 0.467880 0.657317 0.341495 0.150768 0.273242 -0.609294 -0.102955 -0.905272 0.272050 0.127111 -0.205027 0.095146 0.146413 0.435029 0.472618 0.356387 -1.544962 -0.512024 0.166347 0.704515 -0.035156 -0.261266 0.762626 0.141056 -0.573675 0.162178 -0.726579 -0.531754 0.006547 -0.219853 0.887106 0.069851 1.116097 -0.088836 -0.654972 0.167533 -0.650758 -0.600817 -1.468375 1.236027 -0.101103 0.433260 0.285972 0.230649 -0.122857 -0.747690 0.308470 -0.735877 
HCCDB-3.S324 0.477234 -0.611936 -0.539889 -0.046357 -0.501442 -0.156250 0.538687 0.114555 0.073680 -0.112219 -0.424139 0.044952 -0.251194 -0.490167 0.031544 -0.329846 0.316760 -1.603131 -0.478571 -0.373628 0.813229 0.213353 -0.680106 0.837415 0.028636 -0.436510 0.040880 -0.243370 0.380554 0.576859 -1.214901 0.884748 1.240878 -0.812834 -0.480445 -0.244577 -0.345539 0.449521 0.301108 -0.449384 0.427067 0.015361 0.597851 -0.979810 0.883077 -0.175757 0.550715 0.362675 0.013749 -0.115495 1.169819 0.376599 -0.289681 -0.511767 0.607655 -0.796106 0.405472 0.114360 -0.140096 0.218684 -0.066344 -0.742243 -0.206373 0.063839 1.016518 -0.184378 0.358247 0.142890 0.474759 0.134091 -0.051172 0.483104 -0.144729 0.314204 0.170960 0.690504 -0.286335 -0.527548 0.704420 -0.610657 -0.037523 0.163179 -0.219174 -0.460235 -0.499819 -0.595351 -0.786019 -0.352165 0.179369 0.168469 -0.282512 -1.024615 0.064853 0.257079 0.492473 0.128674 -0.042017 -0.035193 0.542933 -1.012548 0.675225 0.251311 -0.076016 -0.461080 0.151203 -0.455298 0.374683 0.031582 0.406452 0.361187 -0.004135 0.123979 0.735663 0.346128 -0.105728 0.311414 -0.193470 -0.515300 -0.100516 -0.338503 0.944721 0.690613 0.334844 0.159571 -0.233324 0.138040 0.210016 -1.057890 1.480094 -0.919594 0.183885 0.868324 0.136762 0.013387 0.421055 -0.180976 -0.383663 0.611883 0.528032 -1.196543 0.138484 -0.403385 -0.755010 -0.039718 -0.134731 -0.241885 0.263170 -0.377758 -0.364090 -0.225049 0.793362 -0.289169 0.074640 0.260105 0.686556 0.563900 -0.137187 0.117118 0.086113 0.077655 -0.252056 -0.318687 0.033870 -0.310002 -0.031514 -0.206540 0.472090 0.193522 -0.758469 -0.883285 0.495570 0.701988 0.512186 -0.168598 1.322039 0.454646 -0.331382 0.361454 -0.147375 -0.294334 -0.068486 -0.466624 1.140277 -0.212062 0.563974 -0.281491 -0.829420 0.395803 -0.095506 -0.658450 -1.818709 0.948413 0.032356 -0.516310 -0.274768 0.033262 -0.413386 -0.457590 -0.135726 -1.169613 
HCCDB-3.S325 0.255446 -0.500111 0.586893 -0.245057 0.339129 -0.012069 0.516596 0.919201 -0.055105 -1.209041 -0.489906 1.184583 0.070487 0.597441 0.185208 -1.147795 -0.303088 -0.819513 -0.387653 -0.377010 1.214688 -0.225546 0.466253 1.034332 0.367010 -0.392514 0.344789 -0.408890 -0.227872 -0.571348 -0.300443 0.610609 1.140847 -0.603828 -0.200432 1.420944 -0.823674 -0.555431 0.184306 -0.774221 -0.038604 0.123001 0.607867 -0.430953 -0.775491 0.609292 0.169846 0.827209 -0.202828 -0.359301 0.051847 -0.257701 0.833429 -0.554933 0.587678 -0.125128 0.416030 -0.119645 -0.905462 0.791918 -0.002515 -0.688786 -0.033844 -0.479306 0.860713 -0.342255 0.222877 0.137632 -0.151854 -0.455944 0.115359 0.437706 -0.015637 0.314162 0.198233 0.884903 0.218819 0.342455 0.764419 -0.664432 1.188128 0.667321 -0.708881 -0.854612 -0.363595 -0.723300 -0.071603 -0.963415 0.317669 0.142983 -0.572949 -0.867718 -0.326372 -0.100167 -0.185180 -0.614557 -1.357877 0.169309 0.759504 -0.781130 0.487808 0.100573 0.643743 -0.489598 0.088304 -0.262111 0.374276 1.064034 -0.083775 1.125994 -0.101644 -0.133061 -0.774576 0.161637 -0.163542 0.068777 -0.191728 -0.368311 0.937507 -1.456798 -0.526369 0.456192 -0.148676 0.561040 0.132334 0.590912 0.302789 -1.328696 0.760594 -1.131957 -0.181464 0.466444 -0.055419 -0.402671 0.332888 0.673927 -1.163376 -0.097538 -0.012336 -0.069911 0.733679 -0.443876 0.106677 0.143099 -0.530326 -0.396049 1.002601 0.053597 -0.433875 0.192966 0.080376 1.234491 -0.065142 0.649395 0.372797 -0.683572 -0.149645 -0.701794 0.051285 -0.657899 0.169318 -0.159035 -0.016136 0.405302 0.127768 -0.507409 -0.217409 0.235880 -1.475834 -0.201866 0.205391 0.833030 -0.321244 -0.023733 0.434595 0.009402 -1.307717 0.352176 -0.291803 -0.479865 -0.317728 -0.113470 1.682551 -0.701214 0.608117 -0.288311 0.080434 -0.029845 0.260914 -0.735936 -2.134764 0.565620 0.177958 -0.127961 -0.812398 0.419411 -0.653361 -0.116265 -0.282065 -0.221532 
HCCDB-3.S326 1.104801 -0.058290 0.146254 0.336429 -0.473954 0.208341 0.512293 0.882257 -0.362228 -0.162939 0.046389 -0.061100 0.330039 -0.537100 -0.596641 -0.835952 0.392981 -0.244748 0.230248 -0.796101 -0.087023 0.724320 0.711966 0.253448 0.088359 -0.437176 -0.551514 -0.067148 -0.333472 -0.125436 -0.008745 0.145103 1.241643 -0.042356 -0.438346 0.517694 -0.680689 -0.108163 -0.213454 -0.197765 0.174418 -0.126973 1.046185 -1.285490 -0.324860 0.079490 0.326653 0.621411 0.067997 -0.594140 0.282545 -0.150911 -0.577209 -0.703310 0.618761 -1.354579 0.238350 0.137858 -0.125136 0.637963 -0.090455 -0.010250 -1.091216 0.577941 1.532582 0.132224 0.463007 0.390746 0.289906 0.636162 -0.248331 0.407608 -0.052637 0.368245 0.022495 0.390851 -0.076155 -1.433366 0.519009 -0.680515 0.242230 0.232676 -0.523265 -0.876991 -0.436422 -0.601351 -0.698731 -0.295793 0.464594 -0.160009 -0.039985 -0.832118 -0.192515 0.214368 0.683413 0.106796 -0.108262 0.725277 -0.014506 -1.258046 0.284182 -0.373370 0.184072 -0.139551 0.256051 -0.046177 0.582463 0.430314 0.210819 -0.207186 0.603042 0.319490 0.153452 0.313104 -0.167685 0.420633 0.187088 -0.207483 0.129070 -0.562698 -0.195652 0.441141 0.671446 -0.042873 -0.555847 -0.497792 0.156415 -0.640347 1.294388 -0.582156 0.429531 0.518262 -0.205942 0.345131 -0.013796 -0.172407 -0.591446 -0.204983 0.162692 -0.112271 -0.301815 0.291118 -0.699280 0.591332 -0.676580 -0.115287 1.075312 0.053296 -0.194485 -0.015593 0.642962 -0.329559 -0.628945 0.265667 0.920018 0.230234 -0.054592 -1.491060 -0.464034 0.360252 0.001050 -0.683510 -0.316652 0.319186 0.018592 0.481624 -0.403868 0.239714 -1.419146 -0.209692 0.154257 0.384904 0.511246 -0.167078 0.444626 -0.249795 -0.161072 -0.050346 0.262376 -0.554874 -0.017340 -0.859475 0.925696 0.066747 0.564029 -0.162084 -0.772990 0.519255 -0.801177 -0.549575 -1.355379 0.860864 -0.069580 -0.080547 0.399026 0.793000 -0.920579 0.193561 0.088510 -0.830518 
HCCDB-3.S327 1.029183 -0.206607 0.480578 -0.344902 0.122351 -0.015102 0.437929 0.116137 0.015712 0.414879 0.020325 -0.153917 -0.661711 0.996588 -0.776111 -0.814733 0.407615 0.041378 -0.047471 -0.891416 0.597113 0.668253 -0.362124 0.609324 -0.021008 0.350394 -0.501959 -0.731384 0.679785 -0.759702 -0.916623 0.799227 1.235555 -1.099947 0.406603 1.439855 -0.079158 0.140164 0.307380 -0.648182 -0.105760 0.209873 1.189849 -1.255838 0.695511 -0.650303 0.803556 0.273926 0.461697 -0.914551 0.675075 0.333959 0.398827 -0.191820 0.239115 -1.420454 0.244921 -0.047612 -0.739122 0.191878 0.151523 -0.014615 -0.491875 0.049450 0.216106 -0.199711 0.190316 0.261461 0.043176 0.369554 -0.403484 0.087139 -0.188135 0.932807 -0.273815 0.831675 0.250672 -0.378996 0.607678 -0.809453 0.502188 0.461885 -0.884186 -1.276281 0.155385 0.359869 -1.021994 -0.442521 0.167051 0.053401 -0.311229 -0.623235 -0.001493 -0.572497 1.451811 0.297271 -0.467921 0.463065 -0.161539 -0.645086 -0.052750 0.501775 -0.181486 0.322489 -0.326675 -0.112934 -0.486186 0.283711 0.595176 -0.770467 -0.103589 0.227568 0.275545 0.577730 -0.160464 0.194244 -0.030244 -1.045454 1.098716 -0.840810 -1.111019 0.021063 -0.413256 0.699883 0.120911 0.092066 -0.031104 0.174342 0.664945 -1.294194 0.683634 0.288334 -0.609143 -0.348962 -0.261000 0.068210 -0.574962 -0.312075 -0.400032 0.021987 0.147302 -0.911826 -0.696241 0.923071 -0.236346 0.354435 0.516166 -0.250804 -0.148441 0.286853 0.842642 -0.070152 0.569109 0.556131 0.069691 0.150002 -0.145547 -1.323336 0.337756 -0.056703 0.260517 -0.263474 0.133570 -0.133837 -0.049023 0.539569 0.031429 0.566556 -1.493756 0.022009 0.627772 0.825511 0.040769 -0.581832 0.454685 -0.164500 -0.013042 -0.025503 0.097320 -0.132551 -0.190833 -0.358205 1.382169 -0.225379 0.623834 0.018341 -0.207898 -0.279359 -0.876635 -0.898120 -1.125319 0.605100 -0.501799 0.767731 -0.136855 0.033140 -0.062669 -0.825474 -0.292078 -0.843300 
HCCDB-3.S328 0.113601 -0.648742 -0.072856 -0.012898 -0.445059 -0.330449 0.772738 0.418243 -0.274073 -0.562519 -0.386241 -0.309922 -0.193654 0.447761 -0.566710 -1.003331 -0.591978 -0.477116 0.217993 -0.263449 0.355689 1.039747 0.011254 0.656511 -0.325480 -0.704410 -0.918708 -0.623735 0.691209 -0.393790 -0.360304 0.439205 0.493396 -1.304069 -0.054673 0.394475 -0.179097 0.049532 0.862289 -0.759658 0.329453 0.101087 0.240853 -0.998932 0.392778 0.182875 0.506257 1.041862 0.197127 0.039187 0.212691 -0.348426 -0.391470 -0.172773 0.181354 -0.509739 -0.592408 -0.067101 -0.222343 -0.087150 -0.127716 -0.622171 0.404833 0.726024 0.392382 0.081559 0.090332 1.104182 0.210420 -0.840006 0.338570 0.623696 0.194240 0.332384 0.386714 0.254913 0.171994 -1.070849 0.252446 -1.252999 0.946339 0.663680 -1.146730 -1.125535 -0.405813 -1.172201 -0.725471 -0.589846 -0.064623 -0.070636 -0.048507 -1.232653 -0.010349 0.089869 0.329977 -0.047807 -0.739153 -0.084381 0.535770 -0.609336 -0.004147 0.438146 1.571562 0.510773 -0.372778 0.409260 0.749039 0.553053 0.443749 0.031122 0.142687 -0.173798 -0.086833 0.403745 -0.277403 0.095147 -0.183640 -0.695797 -0.124224 -0.051424 0.247640 0.642798 0.103315 0.053248 0.195892 0.013538 -0.182979 -0.815368 0.706689 -0.325412 0.082507 0.040574 0.374247 0.337175 0.273148 0.306157 -0.185291 -0.519941 0.568916 -0.877617 0.237028 -0.153830 -0.163283 0.044551 0.327736 -0.488541 1.333555 0.477791 -0.305225 -0.263552 0.066381 -0.642325 0.508373 -0.029111 0.440736 0.718334 -1.010288 -0.603345 0.232781 -0.872417 0.632247 -0.201890 -0.115619 0.355768 0.010037 -0.532935 -0.001372 0.190780 -1.003284 -0.139158 -0.159562 0.425438 0.311995 0.273764 0.915585 -0.023880 -1.147436 0.057584 -0.359260 -0.052483 0.182993 -0.364339 1.248434 -0.090198 0.700474 -0.350097 -0.066922 -0.653576 0.002185 -0.462296 -1.333704 0.496858 0.301935 0.166324 -0.025433 -0.175825 -0.120205 -0.621394 -0.247336 -0.669813 
HCCDB-3.S329 0.071967 -0.112133 0.016458 -0.289848 0.038407 -0.206891 0.810642 1.133170 0.842345 -0.492541 -0.929516 0.419272 -0.495015 0.289546 -0.567972 0.107513 0.009428 -0.747340 -0.357399 -0.894522 -0.292779 0.705683 0.161655 1.245223 0.081801 -0.148050 0.239454 0.600363 0.124021 0.913894 -0.539473 0.564037 0.496980 -0.423322 -0.650746 0.930962 0.055638 0.191007 0.683883 -1.067487 -0.094122 -0.006850 0.243494 -1.121140 -0.020614 0.206291 0.927335 0.603162 0.596668 -0.372534 -0.132149 0.209941 -0.142167 -0.530633 0.394390 -1.003124 -0.499630 1.284699 0.287593 1.354186 -0.452770 -0.644094 -0.602854 0.209255 0.308261 -0.409802 -0.113565 0.277470 0.629018 0.050489 1.049507 0.533730 -0.782096 0.565021 -0.854144 -0.236785 0.807750 -0.406865 1.199599 -0.176337 0.076646 0.127912 -0.124004 -1.848026 -0.392991 -1.194674 -0.216254 0.154678 -0.377502 0.183885 -0.415069 -0.861208 0.634605 -0.054226 0.125069 -0.202884 0.110334 0.276729 0.038149 -0.697470 -0.760020 -0.581660 0.831789 -0.820557 0.317781 0.535832 0.358442 0.911509 0.492550 0.539590 1.638304 0.216677 -0.261441 0.129347 -0.082562 -0.492312 0.084464 -0.920962 0.418472 -0.141895 0.568788 0.795742 -0.221916 0.474864 0.738048 -0.096610 0.619979 -0.769850 0.754178 -0.848447 0.123913 0.404227 -0.334439 -0.230005 0.231226 0.537804 -0.246055 -0.500952 0.055211 0.082664 0.171244 -0.180249 -0.089118 0.341721 -0.212270 0.820337 0.182712 0.179696 -0.342944 -0.412011 0.734198 -0.423765 0.455577 0.106107 0.330482 0.248021 0.100968 -1.684289 0.170000 -0.618592 -0.352400 -0.482290 0.224803 -0.753932 0.038517 0.037404 -0.095790 -0.228764 -1.230131 -0.040901 0.439259 -0.143527 0.265497 -0.012247 1.615804 0.055587 -0.770914 0.464766 -0.238162 -0.893077 -0.335778 -0.311726 1.155756 1.101390 0.773968 0.673053 -0.224445 -0.175793 -0.841467 -0.539008 -1.449687 0.274341 0.513777 -0.421710 -0.617197 0.798933 0.348726 -0.378131 0.512443 -1.472559 
HCCDB-3.S330 0.642296 0.015470 -0.011693 0.147312 0.297268 -0.215881 1.030657 0.996858 0.076771 -0.758218 -0.514960 0.370051 0.115137 0.025704 -1.324440 -0.818408 0.001785 -0.023247 -0.157708 -0.556403 0.885784 0.628933 0.232242 0.813781 -0.894300 -0.012926 -0.425633 -0.667985 1.091128 0.733003 -0.359790 -0.024792 0.423094 -1.037748 0.025246 1.112759 -0.776136 0.222390 -0.024615 -0.346830 1.149897 0.073114 0.483077 -0.360057 -0.734576 -1.101309 1.323353 1.008623 0.692799 0.265842 0.687724 0.657601 -0.254798 -0.118116 0.485925 -0.773712 0.154542 0.372856 -0.776900 0.157103 0.116696 -0.226359 -0.747733 0.171221 1.161910 -0.392208 -0.250561 0.351269 0.926208 0.205734 -0.247187 -0.177419 0.029948 0.547008 -0.403696 0.453010 -1.126628 -0.420994 0.396816 -1.650019 0.571275 0.434344 -0.271240 0.067845 -0.920170 -0.345348 -1.195685 -0.455807 -0.581575 0.392617 0.264936 -0.710834 -0.523358 -0.236258 0.069716 -0.403830 -0.377100 -0.310390 0.587728 -0.479913 -0.197861 -0.413225 -0.529205 -0.331847 -0.740809 -0.049528 1.194947 0.743997 0.664809 -0.017179 -0.357392 0.386434 -0.410863 -0.219200 0.645708 0.104989 -0.050722 -0.081912 0.789200 -0.792728 0.035469 0.956616 0.653172 0.083123 -0.221931 -0.073190 0.028902 -0.486483 0.244935 -0.240403 -0.167260 0.429007 0.043990 -0.142372 0.523584 0.237786 -0.013627 -0.003116 0.228038 0.014354 -0.515667 0.198702 -0.563391 0.586650 -0.067978 0.329494 0.774404 0.394875 -0.636363 0.440874 0.180816 -0.059076 -0.226747 -0.214702 -0.198022 0.251013 0.129667 -1.341890 0.394709 -0.783015 0.050561 0.077776 0.367726 -0.846673 -0.263476 0.240227 0.074589 1.458204 -1.385469 -0.666688 -0.023831 -0.169464 -0.019742 -0.520418 1.220120 -0.075370 -0.049087 -0.027461 0.601550 -0.345309 0.048067 -0.516916 0.992990 -0.758178 0.398058 -0.174239 -0.071748 0.345589 -1.130053 -0.675102 -1.225654 0.509298 0.027696 0.943204 -0.785932 0.510970 -0.283913 -0.967415 -0.425512 -1.130478 
HCCDB-3.S331 -0.330301 -0.650404 -0.644170 -0.688168 -1.025972 -0.185160 0.719786 0.275770 0.097504 0.095664 -0.734091 0.249159 0.054130 0.161580 -0.727156 0.213111 0.249332 -0.491460 -0.195287 -0.551983 0.587628 1.187556 -0.090959 0.773406 0.617975 -0.082701 -0.114486 -0.442769 2.057054 -0.168972 -0.847416 0.443761 0.890612 -0.610513 -0.377387 0.261250 -0.894061 0.247872 0.703703 -0.725149 -0.022203 0.290064 -0.038101 -0.729835 1.109790 -0.396620 1.199844 0.970283 -0.263365 0.143105 0.480860 -0.057864 -0.508216 -0.795016 0.797512 0.003288 -0.156817 -0.332660 -0.475118 1.008358 -0.010343 -0.108122 -0.218109 -0.068716 1.164181 -0.342762 0.671563 0.498438 0.467347 -0.657838 -0.607505 0.403487 -0.478257 0.033341 -0.055379 0.446627 -0.749606 -1.648035 0.989056 -1.047083 0.126721 -0.033726 -0.156911 -0.699382 -0.306138 -0.638730 -0.191626 -0.410284 -0.213255 -0.059704 -0.547024 -1.469698 -0.818786 0.003164 0.522991 -0.043966 -0.962539 0.251304 0.071502 -0.587318 0.732520 0.165859 -0.110117 -0.933269 -0.804043 -0.447690 0.273192 0.938802 0.027010 -0.032312 0.382527 1.029432 -0.226817 -0.210383 -0.170508 0.087929 0.751923 -0.928706 0.171954 0.018751 0.877879 0.427377 0.028506 -0.980687 -0.321656 0.001563 0.607753 -0.554899 0.194826 0.121810 -0.393335 1.164007 -0.899252 -0.311931 0.092071 0.145754 0.354062 -0.285918 0.164329 -0.009003 0.358284 -0.064155 -0.569585 -0.036609 -0.029206 0.281055 0.589992 -0.200167 -0.299271 -0.118294 0.806547 -0.608087 -0.591286 -0.086361 -0.838229 0.521215 -0.170330 -0.883115 0.301774 -0.543675 0.743989 0.012859 0.163778 0.471919 -0.585570 0.204945 -0.239137 0.440069 -0.917911 0.387807 0.506304 0.316246 0.458599 0.055924 0.318279 -0.599984 -0.923140 0.039540 -0.306242 -0.603495 -0.541908 0.232834 1.459534 -0.327047 1.178000 0.221704 0.385068 0.484775 0.222664 -0.814903 -2.218862 0.190399 -0.418674 0.005141 -0.464563 0.436240 0.041119 -1.173173 -0.498663 -0.411297 
HCCDB-3.S332 1.065872 -0.214689 -0.071724 0.274247 0.421771 -0.591383 0.290148 0.766754 -0.010423 0.056441 -0.291489 0.287741 -0.276050 -0.228969 -0.192073 0.152336 -0.633754 -0.406090 -0.111965 -0.438381 -0.285331 1.034377 -0.590042 0.844673 0.412397 -0.249947 0.149273 -0.149302 0.425961 -0.601311 -0.980985 0.529575 0.645519 -0.443287 -0.546727 0.390840 -0.719109 -0.252658 0.672768 -0.382086 0.552117 0.455346 0.748208 -1.308500 -0.430472 0.393980 1.110766 0.334530 -0.026892 -0.052836 0.535912 0.566480 -0.370477 -0.821106 0.740645 -0.334776 -0.281169 0.674413 -0.066697 0.102105 0.053810 0.183117 0.171750 0.301218 0.217199 -0.566426 0.211960 0.180276 -0.083767 -0.154555 -0.783021 0.441856 -0.198546 0.304237 0.432634 0.262792 0.117221 -0.004358 0.824670 -0.997387 0.652513 0.676065 0.021080 -1.209990 -0.745727 0.144749 -0.269924 -0.321996 0.341516 0.249608 -0.330277 -1.119499 -0.296105 0.330860 0.838180 0.415620 -0.062742 -0.543023 0.078204 -0.716583 0.817001 0.356458 0.035447 -0.540155 -0.652291 -0.317983 0.213864 0.926875 0.053883 0.614399 -0.013272 0.664797 0.264126 0.327324 0.782450 0.205973 0.479685 -0.319628 0.219064 -0.633743 0.290098 0.376518 0.180352 -0.332465 0.149114 0.447541 0.823395 -0.889291 0.958808 -0.559732 0.203106 0.537473 0.322224 -0.125688 -0.073965 0.528849 -0.071609 -0.241123 -0.048408 -0.589103 0.360202 -0.152202 -0.445244 0.004653 -0.856710 -0.345043 1.006043 0.145192 -0.186821 -0.232435 0.624482 0.182621 0.154574 0.148373 0.093629 -0.113665 0.137459 -0.854836 -0.113146 0.314008 0.224067 -0.073996 0.311355 0.206593 0.161735 -0.208321 0.142301 0.709636 -1.281378 -0.278734 -0.124175 0.435415 0.341677 0.021144 0.513680 0.540201 -0.766783 0.342368 -0.678842 -0.234491 -0.426701 -0.684196 0.798656 0.266107 0.772413 -0.034351 0.091831 -0.415920 -0.248477 -0.626568 -1.473950 1.136637 -0.271601 0.058120 -0.924171 0.639807 -0.774922 -0.712170 -0.283432 -0.712190 
HCCDB-3.S333 0.323142 -0.317496 0.711769 -0.243324 -0.439120 0.041809 0.798865 0.565298 0.231004 -1.085633 -0.179415 0.422323 0.165218 0.009132 -0.694575 0.100998 0.521711 -0.711085 0.680159 -0.874897 0.257639 0.967748 -0.270951 0.709676 0.284222 0.187996 -1.191448 -0.684592 -0.545132 -0.100542 -0.490223 0.259476 0.776279 -1.136695 -0.478668 0.372212 -0.411130 -0.085300 0.900388 -1.022358 0.495008 0.047071 -0.029597 0.278963 0.592847 0.161145 0.376548 -0.877463 0.075381 0.240681 -0.699877 0.756624 0.015968 -0.230355 -0.258359 -1.164740 0.576635 0.463156 0.146468 0.573589 0.152497 -0.492826 -1.531728 0.864610 1.037772 -0.650181 1.103783 0.861404 0.688682 0.380519 -0.385674 0.610104 -0.666374 0.180950 -0.061306 0.955837 0.409482 -0.796087 1.893584 -1.282282 0.315305 0.468232 -0.422658 -1.009459 0.173687 -0.709782 -1.356724 0.073658 1.195213 -0.292404 0.095454 -0.764998 -0.649476 0.608546 0.886335 -0.152900 -0.421387 -0.369254 -0.017164 -1.396808 -0.416161 -0.920934 0.761338 -0.109508 0.974963 -0.024280 0.805053 0.359674 0.783843 -0.168325 0.309335 0.645898 0.516201 0.573740 -0.568058 0.634444 0.050578 -0.516673 0.330339 -0.167352 0.648650 0.309913 0.354767 -0.318489 0.215403 0.196162 0.349570 -0.795904 0.667405 0.475189 0.186505 1.021553 -0.157584 0.487879 1.319007 0.308207 -0.206797 0.265209 -0.229759 -0.487677 -0.518604 -0.136373 -0.469228 -0.175906 0.260798 0.148573 0.993618 0.409709 -0.480884 -1.000715 0.056552 0.095716 0.169307 0.112434 0.709455 -0.068151 0.187615 -0.621570 0.115018 0.616313 0.768347 0.318738 0.294562 -0.376772 -0.411646 -0.039493 -0.210654 0.251653 -1.332571 -0.410536 -0.630562 -0.347302 0.046775 -0.445875 0.421946 0.214685 -0.417937 -0.454434 -0.951606 -0.129209 -0.027266 -0.811588 2.152684 0.569409 0.349177 -0.273061 0.156900 -0.908587 0.214661 -0.532610 -1.602568 0.545886 -0.506208 0.751815 -0.704890 0.410114 0.131291 -0.377166 -0.708201 -1.221526 
HCCDB-3.S334 0.274335 -0.379663 0.834378 -1.254174 0.292659 -0.271917 1.012808 0.602531 -0.167268 0.312064 0.160343 -0.023669 -0.106193 -0.084417 -0.417505 -1.042901 0.243998 -0.156909 -0.233565 -0.505169 0.242343 0.531309 0.259878 0.578923 -0.263127 -0.689966 -0.850010 -0.112137 0.987942 -0.517109 -0.603574 0.452324 1.053175 -0.619993 -0.087322 1.210550 0.292507 0.361010 -0.499253 -0.741477 0.247204 0.172353 -0.309348 -0.115966 0.192356 0.119691 0.698942 0.259222 0.704963 -0.303862 0.780133 -0.129587 -0.045226 -0.271526 0.310390 -0.961698 -0.173567 -0.048851 -0.553682 0.247201 0.005365 -0.024730 -0.080794 0.134848 0.810526 0.087236 0.414505 0.920073 0.478164 -0.277815 0.533459 0.057008 0.342379 0.217078 0.109915 0.609996 0.063469 -0.931134 0.827426 -1.424639 0.485445 0.672975 0.205715 -1.212205 -0.099666 0.200012 0.017900 -0.119774 0.470980 0.306509 -0.591603 -0.702529 0.184711 -0.465543 0.582182 0.149756 -0.599935 0.213980 0.280648 -0.660848 -0.204519 0.742556 0.514333 0.229736 -0.155420 0.024958 -0.361614 0.450862 0.219432 0.057041 0.620698 0.483476 0.163038 -0.130577 -0.801862 -0.165753 0.163452 -0.537209 1.484118 -0.623846 -0.263727 0.215085 -0.413669 -0.240091 -0.573894 -0.248145 0.540250 0.048929 0.467603 -1.087775 0.617564 0.803576 -0.797971 0.348100 0.055651 0.198426 -0.678676 -0.300485 -0.609640 -0.529932 -0.253343 -0.476878 -0.794535 0.474213 -0.003763 0.079394 0.286237 0.193943 -0.054518 0.206732 -0.117232 -0.168416 0.194801 0.339732 -0.057104 -0.498019 0.843421 -0.707418 -0.057642 0.117635 0.052151 0.277951 0.091623 0.379279 -0.161700 0.601759 -0.531331 1.021258 -1.768495 -0.214702 0.715567 0.557317 0.284537 0.113605 0.710763 -0.272954 -0.967746 0.796377 -0.208883 -0.057243 -0.370787 -0.231919 1.485510 0.765361 1.040462 -0.179937 -0.389500 -0.171997 -1.019922 -0.508854 -1.783883 0.727855 -0.274136 -0.310774 -0.737517 0.274799 0.166582 -0.544317 -0.287741 -1.146313 
HCCDB-3.S335 0.658701 -0.757081 0.210937 -0.251082 -0.242729 -0.758655 1.286680 -0.691030 -0.157121 -0.745371 -0.990237 1.311303 0.333679 -0.092176 0.038678 -0.523018 0.589975 -2.047354 0.086996 -0.905816 -0.331089 0.770296 0.403335 0.894008 -0.395549 0.072583 0.044362 0.171525 0.240187 0.383424 -0.764816 -0.067166 1.202578 -0.457462 0.190280 0.212441 -0.861676 0.116566 0.491986 -0.332490 -0.440110 0.422298 -0.338389 -1.185180 0.846802 -0.150748 0.441711 0.326353 0.627957 0.012052 0.471921 -0.596398 0.870349 0.647270 -0.656598 -0.507799 -0.706980 1.384370 -0.679482 0.199649 -0.496386 0.113223 -0.298963 0.641316 0.718890 -0.162175 0.110731 0.913483 -0.060071 -0.113132 -0.598935 0.305546 -0.957496 -0.105138 -0.156927 0.465047 0.351323 -1.002110 0.537754 -1.671886 0.469581 0.190902 -0.370922 -0.347707 0.061843 -0.453570 0.152939 0.061836 0.628772 0.010479 0.100222 -0.585209 0.535487 -0.173984 0.335817 -0.089116 -0.529594 0.176241 0.279801 -0.672557 0.208422 -0.461471 -0.167614 0.161870 -0.491904 0.202335 0.686808 1.290808 -0.224935 -0.165276 0.672164 0.658834 0.749681 -0.539475 0.193422 -0.103973 0.018162 0.827382 0.233954 0.060955 -0.151059 0.100644 0.167630 0.099331 -1.106586 -0.057617 0.574265 -0.455407 0.495750 -0.860633 -1.015993 0.959222 -0.563641 -0.022197 0.786058 0.233643 -1.874504 0.028876 0.046991 -0.032402 0.728191 -0.099048 -0.201446 0.588061 -0.710241 -0.207503 0.904395 -1.045969 -1.118382 0.351674 0.098600 -0.274259 -0.747302 0.154975 -0.130625 0.407537 -0.111002 -0.294652 1.360543 -0.556270 0.115585 -0.821627 -0.082067 0.850755 0.255817 -0.220373 0.509694 0.569841 -1.114039 -0.171282 0.103866 0.089215 0.287930 -0.769700 2.224705 0.390579 -0.917287 0.171256 -0.499570 -0.313905 0.030643 -0.725454 1.371693 0.184717 0.228441 -0.494086 -0.634558 -0.085086 -0.340302 -0.870115 -0.668018 2.190457 0.905662 0.660672 -0.071385 -0.075293 0.612681 -0.382160 -0.218858 -0.914909 
HCCDB-3.S336 0.786648 -1.144530 0.389456 0.037559 -0.756016 -0.550716 0.374817 0.718272 -0.061711 0.002019 0.036373 0.219211 -0.206860 -0.304472 -0.142103 -0.800897 0.777685 -0.623073 0.107244 -0.142119 -0.639607 0.401763 -0.086379 0.575456 0.395585 -0.127982 0.095668 -0.315498 0.550457 -0.111903 -0.964348 0.539117 1.035544 -0.421521 -0.864810 0.925516 -0.011710 0.037788 -0.167918 -0.796795 0.147450 0.355598 0.204772 -0.555122 0.178536 -0.058306 0.143321 0.330739 0.686246 -0.150285 0.940043 -0.249740 0.225400 0.016015 -0.295996 -0.151835 0.601949 1.077895 -0.670726 -0.165204 -0.293355 -0.059104 -0.563008 0.582360 0.948778 -0.879555 0.645613 0.412881 0.462406 0.361087 -0.628903 0.254666 -0.087822 -0.180661 0.498927 0.824573 0.497542 -1.154164 0.402816 -0.972565 1.523643 0.385558 0.308265 0.287698 0.377524 0.282516 -0.348670 -0.276552 0.106770 -0.210068 -0.261326 -0.392392 -0.160889 -0.173393 1.003379 -0.053059 -0.719386 0.306076 0.681286 -1.289779 0.192840 0.298545 0.112754 -0.522878 -0.201106 0.351661 0.147869 0.993257 0.794882 0.837226 0.301593 1.144770 0.275034 0.562986 0.476089 0.684232 -0.329400 -0.142327 0.898619 -0.658866 0.154446 0.193275 -0.262134 -0.317160 0.206994 0.661215 -0.755311 -0.212602 0.527191 0.401369 -0.083780 0.551140 0.710611 -0.303581 -0.161903 0.592638 -0.084218 -0.362271 0.504599 -0.217917 0.601296 -0.022392 -0.351200 0.458487 -0.908129 0.067687 0.671011 -0.384934 -1.193856 0.035703 -0.339194 -0.195707 0.233998 0.069545 -0.253543 0.575871 0.079534 -0.821954 0.035549 -0.789433 0.772118 -0.315686 0.891153 0.727418 -0.030837 -0.129135 -0.050870 0.775137 -1.057260 0.079485 0.531325 0.590666 0.743013 -0.236263 1.076621 0.332893 -0.085541 0.210492 -0.499421 0.532888 -0.349619 -0.485180 0.626261 0.486413 0.144267 0.157435 -0.599053 -0.818156 -1.089774 -0.996111 -1.397909 -0.396367 1.721197 0.447973 -0.546263 -0.351610 -0.398214 -0.908245 0.265265 -1.163389 
HCCDB-3.S337 -0.339607 0.117706 0.142929 0.042505 -0.888658 0.351551 1.629347 0.599555 -0.032066 0.896657 0.033402 0.363825 0.157823 0.660180 -0.404248 -0.320517 0.293102 -0.486446 0.218261 -0.530083 0.045947 0.003739 0.188392 0.197904 0.185049 0.090712 -0.051316 -1.053960 0.007700 0.099467 -0.299371 0.446821 0.785293 -0.401076 -0.494455 0.252431 -0.737822 0.195089 0.723603 -0.629272 -0.033062 -0.287048 0.532499 -1.514801 0.667735 0.150442 -0.184689 0.368066 -0.338524 0.441107 0.804178 -0.010611 0.115162 -0.198913 0.718454 -0.189121 -0.100508 0.221017 -0.155680 1.005516 -0.193800 -0.420677 0.046004 0.441644 0.240601 -0.557442 0.598290 1.127929 0.678999 -0.470618 0.330601 0.079326 0.291625 0.470117 -0.223497 0.417407 -0.401411 -1.633453 0.287149 -0.884836 0.613052 0.340123 -0.073652 -0.419686 -0.668603 -0.408801 -0.179494 -0.191410 0.617695 1.273389 -0.429052 -0.849269 0.682503 0.049948 0.754307 -0.809114 -0.066301 -0.218324 -0.437998 0.203488 0.593080 0.393725 0.658338 -0.107358 -0.348198 0.025230 0.557271 0.331209 0.393616 0.420763 -0.319910 -0.057051 0.511382 0.338653 0.108063 1.007219 0.586051 -0.842445 -0.130963 -0.037530 0.113794 0.507856 0.737804 -0.802587 -0.490163 0.112625 0.470897 -1.060169 0.646243 -0.843812 -0.274953 0.958906 -0.414715 -0.261474 0.774162 0.391063 -0.182575 -0.872984 0.289413 0.160598 0.668529 -0.339074 -0.307222 0.518633 -0.682159 -0.623175 0.462091 0.200456 0.176023 -0.602338 0.090870 -0.046223 0.104659 -0.616244 0.288925 0.372453 0.754014 -0.518931 -0.191082 -0.972414 -0.145362 0.347776 0.077674 0.572643 0.638346 -0.344917 -0.008815 1.292290 -0.769667 -0.280490 -0.150365 0.900479 -0.110726 0.080301 0.763961 -0.356833 -0.579769 -0.046392 -0.257016 -0.430980 -1.404910 -1.195562 2.075854 -0.969738 0.976272 -0.364412 -0.915546 -0.260063 -0.611224 -0.741146 -1.428884 0.470919 0.170372 0.258184 -0.617250 0.187209 -0.437866 -0.875610 -0.389642 -1.072242 
HCCDB-3.S338 1.194565 -0.839837 0.675139 -0.147667 0.242429 0.359493 0.461614 0.488689 -0.564080 0.372276 -0.833169 0.778640 -0.407955 1.223899 -1.104473 -0.228202 -0.116889 -0.073270 0.460887 -1.147926 0.377353 0.638253 0.586638 0.507616 0.504452 -0.684624 -0.262577 0.112953 1.034035 0.488637 -0.880085 -0.020492 0.544111 -0.902990 -0.650448 0.936659 -0.239392 0.192790 0.275495 -0.633480 0.247114 0.341614 -0.109287 -0.940162 0.164637 0.274095 -0.064827 0.393672 0.515766 0.020365 0.988822 -0.662272 -0.052541 -0.008883 0.289540 -0.584775 -0.203814 -0.204058 -0.661152 0.339076 -0.630749 -0.335270 -0.508970 -0.573897 1.058966 0.152287 1.314016 -0.649694 0.618414 0.881240 0.361976 0.657883 0.473717 0.457391 0.129059 0.191825 -0.259139 -0.230595 0.041457 -0.711717 0.219143 -0.123751 0.970613 -0.460513 -0.048871 0.391718 -0.818602 -0.219139 -0.327925 -0.973204 -1.001591 -0.172698 -0.247644 0.831649 0.044309 0.314647 -0.343030 0.252650 -0.174576 -1.478774 0.451997 -0.901607 0.039852 -0.030902 -0.292391 -0.231456 0.091006 0.298554 0.304518 0.788413 0.209142 1.675061 0.004709 0.436914 0.006113 1.088131 -0.191485 -0.500406 -0.100865 0.058610 -0.277593 0.671441 -0.260716 0.201220 0.499697 0.500770 -0.377625 -0.085535 0.873618 -0.210032 0.899320 0.228008 -0.201863 0.394923 0.142543 0.578465 0.017870 -0.020651 0.313483 -0.699794 0.578048 -0.966258 -0.065244 -0.444797 -1.266317 0.341754 0.847304 0.474400 -0.420291 -1.143831 0.200429 -0.531000 -0.251547 0.518108 1.321584 0.148077 0.341234 -0.502204 -0.022303 -0.528495 0.005871 0.069504 0.198024 0.173000 -0.119286 -0.540836 -0.586714 0.433245 -1.122710 -0.073175 -0.342097 0.999286 0.273670 -1.240182 1.485559 0.117547 -0.142728 -0.144480 -0.163560 -0.860542 -0.458324 -0.218307 0.623334 0.188649 0.003654 0.682484 -0.010445 -0.414925 -1.177886 -1.274977 -1.460203 1.653668 0.013152 1.334020 -0.748422 0.043732 -0.196883 -0.773171 0.102062 -1.160843 
HCCDB-3.S339 0.366206 0.000284 -0.112153 -0.413664 -0.392836 -0.678326 0.289432 0.525834 0.163096 -0.168465 -1.133461 0.378524 -0.307845 -0.244893 -1.148020 0.191054 0.121579 -1.277119 0.224083 -1.167006 0.642603 0.997215 0.592209 0.527108 0.391234 0.879707 0.305182 0.506810 0.197074 -0.251765 -0.410559 -0.178632 0.336527 -0.877408 -0.616436 0.242075 -0.230446 -0.457189 -0.340486 -0.771571 0.606684 0.161927 0.152379 -0.034167 -0.383090 0.255892 -0.383686 0.219775 0.588871 0.316108 0.257582 0.331709 0.694731 -0.360472 0.566492 -1.112163 -0.370511 0.677897 -0.812222 -0.214306 0.163007 -0.281012 0.486092 0.546017 0.975001 -1.248739 -0.051538 0.807368 0.210916 0.465435 0.080667 0.843595 1.613592 0.554821 0.289286 -0.479322 0.614131 -0.776649 0.657770 -0.367428 0.600817 1.064470 -0.075836 -1.122859 0.000363 -0.167393 -0.290325 -0.373876 0.197812 0.096935 -0.451002 -0.338913 0.070480 -0.074815 0.681990 -0.767302 -0.281364 0.206847 0.401690 -1.487242 0.904710 0.431499 0.255133 -0.104779 -0.702815 0.127017 0.190440 0.542975 0.664552 -0.381010 -0.546784 0.858234 0.746638 0.517708 -0.086591 -0.028226 0.393053 -0.767747 0.567829 0.220205 -0.130665 0.420376 0.360554 0.673694 -0.640714 0.015388 0.354226 -0.113532 0.297344 -0.321007 0.266995 0.817364 -0.591644 -0.095119 0.198575 0.623253 -0.046198 -1.318048 0.541933 -0.259564 0.422243 -0.635206 -0.118032 0.200296 -0.263450 -0.261304 0.357254 -0.356644 0.350894 -0.348649 0.376587 -0.554874 -0.279124 -0.647343 0.209445 0.150399 -0.335550 -0.821012 0.355993 -0.269434 0.345691 0.381581 0.187593 0.362723 -0.423344 0.383471 0.016948 0.847929 -0.835721 0.284897 0.171916 -0.003493 -0.589994 -0.417014 0.822750 0.066867 -0.607285 -0.036644 -0.257777 -0.541639 0.034960 -0.498101 1.542461 -0.185205 0.299917 -0.614985 0.087550 -0.610674 -0.582299 -1.465356 -1.006482 1.808334 0.545110 1.075990 -0.768834 0.493869 -0.248243 -0.319165 -0.352921 -0.359278 
HCCDB-3.S340 -0.488220 -0.153954 -0.456971 0.483929 -0.296567 -0.151432 0.525530 0.414374 0.146114 0.012304 -0.639137 -0.210597 -0.754403 -0.278946 -0.026172 -0.781104 0.581415 -0.970417 0.498371 -0.882640 0.330541 0.885801 0.385101 0.760391 -0.377595 0.100648 -0.251093 -0.593201 0.097731 0.241171 -0.828981 0.454061 1.115216 0.557233 -0.780609 0.218125 -0.596192 0.031659 -0.182171 -1.315987 1.096597 0.313051 0.470153 -0.677781 0.402410 0.571047 0.185252 0.417329 0.385042 -0.078962 0.247590 0.142145 -0.245218 0.093305 0.746203 -1.111159 0.460668 0.721840 -0.473275 0.167446 0.559104 -0.681549 0.637954 -0.735777 -0.055585 -0.319211 0.343680 0.926662 0.182755 0.085881 -0.135367 0.518604 -0.403361 0.167635 -0.818746 0.930869 0.469198 -0.517006 0.610083 -0.960132 0.461719 0.429056 -0.071148 -0.352363 -0.131197 0.079059 -0.818977 0.038619 -0.139720 0.193934 0.182564 -0.551412 0.400005 -0.336523 0.186365 0.156229 -0.042934 0.301445 0.995062 -0.439732 -0.271199 -0.143642 0.197809 -0.756057 0.270259 -0.212132 -0.073899 0.612658 0.465662 -0.027664 0.486221 0.005317 0.204337 -0.214107 0.056429 0.219428 0.084662 -0.616490 0.013037 -0.161153 0.889641 0.420975 -0.193591 0.572817 -0.030780 -0.206632 0.351299 -0.081259 1.832384 -0.353806 0.310828 0.528828 0.624361 -0.266285 -0.054090 0.391148 -0.825663 0.136011 -0.309612 -1.036292 0.690203 -0.686184 -0.514785 0.701721 -0.205528 -0.573480 0.091913 -0.312904 -0.351822 -0.285446 -0.006463 -0.499834 0.176840 0.047862 0.237258 0.148411 0.718737 -1.004862 0.120967 -0.520235 0.420188 0.502356 -0.005488 0.820566 -0.362413 -0.406854 -0.496980 0.926920 -1.105035 -0.412667 -0.258538 0.107760 0.370424 -0.191876 0.503917 0.121709 -0.472812 -0.034209 -0.197010 -0.174551 -0.710098 -0.572104 1.188696 0.475729 0.839646 0.073250 -0.525644 0.121517 -1.074397 -1.782483 -2.178863 0.163794 -0.251221 0.812333 -1.083386 0.127365 0.793158 -0.785397 0.826095 -0.777527 
HCCDB-3.S341 0.699280 -0.551156 -0.289070 -0.035305 -1.086776 -0.418433 0.875096 0.172075 -0.149380 -0.597670 -0.586600 0.810562 -0.580468 0.486633 -0.464216 -1.171980 -0.231781 -0.625092 0.312485 -0.782416 0.721472 1.065766 0.218560 0.747971 0.622650 -0.213511 -0.450932 -0.915380 0.388024 -0.331304 -0.683558 1.088293 1.447921 -0.760068 -0.184584 0.234009 -0.395988 0.250963 0.831664 -0.861928 0.484251 0.508964 0.582201 -0.635662 -0.345116 0.787483 -0.171467 0.450736 0.547362 0.381656 -0.097780 0.325061 0.290222 -0.433127 0.761484 -0.573946 0.121319 0.401061 -0.162635 0.043895 -0.258220 0.155677 0.174172 0.237986 0.848469 -0.470812 -0.002108 0.165043 0.424981 -0.502422 0.231835 0.603411 -0.080943 0.461558 0.031506 0.604318 0.234364 -0.734610 0.701564 -0.355272 0.790625 0.470374 -0.135190 -0.242771 0.074975 -0.408132 -0.328146 -0.251467 -0.408593 -0.100875 -0.049240 -0.836251 -0.087010 -0.149482 0.180453 -0.713604 -0.500246 0.531654 0.271046 -0.193099 0.664390 -0.056276 0.819253 -0.013351 -0.516095 -0.195254 0.030062 1.034972 0.376674 -0.160562 -0.035084 0.264613 -0.371967 0.030844 -0.531048 -0.131618 -0.800186 -1.337908 0.388453 -0.967721 0.485696 0.338496 -0.312155 -0.016082 0.508541 -0.241742 -0.579384 -0.403682 0.668247 -0.691904 0.101447 0.718014 0.045850 0.163240 0.034174 0.149925 0.573631 -0.475073 0.598747 -0.393256 -0.037087 0.176381 0.488003 0.430670 0.108854 -0.238017 0.782902 -0.064130 -0.382223 -0.127261 0.360306 -0.499193 0.319035 0.317315 0.679405 0.777119 0.124716 -0.836583 0.074732 0.079082 0.355698 0.373268 0.007991 0.302112 -0.007020 -0.010783 0.552153 0.523599 -1.251820 -0.430798 0.276229 0.202926 0.362035 0.433693 0.772537 -0.082760 -0.384547 0.114034 -0.353571 -0.415650 0.200759 -0.409415 0.967191 0.266677 0.666061 0.202066 0.107139 -0.308074 -0.585017 -0.681091 -0.868064 0.665685 0.463846 0.547078 0.158278 0.514387 -0.259102 -0.622113 -0.825126 -1.156479 
