212 200
HCCDB-18.S1 0.164160 -0.568410 -0.273453 0.151145 0.454592 -0.767575 0.665521 0.667276 -0.663768 0.105357 -0.449344 0.854126 -0.256935 0.159674 -0.683672 -0.525940 0.234587 -1.225942 -0.037724 0.136014 0.222345 0.030653 0.367088 0.517080 -0.089085 -0.120952 -0.194035 -0.716171 0.203764 0.074097 -0.855368 0.469109 0.695286 -0.406397 -0.700721 0.083591 -0.270156 0.025218 -0.254931 -0.567574 0.252363 0.223961 0.401393 -0.805198 0.268668 0.257057 0.210450 1.209748 0.005814 -0.017241 0.114146 0.229800 -0.019950 -0.123287 -0.009697 -0.891442 -0.350959 0.584158 -0.460867 0.282332 0.634148 -0.485213 0.013371 0.152352 0.649224 -0.567477 0.580032 0.732213 0.645051 0.633743 -0.214147 0.777859 -0.215396 -0.221194 -0.073680 0.301122 0.031363 -0.247450 0.339102 -0.287427 0.949664 0.018440 -0.192321 -0.688333 -0.229100 -0.375700 -0.120211 -0.712754 0.268877 0.092985 -0.699361 -0.930247 -0.294466 0.214221 0.938255 -0.143900 -0.419507 0.523476 0.663420 -1.207459 0.206217 0.508598 0.052190 -0.495058 -0.545428 0.378519 0.466172 0.701209 0.173561 -0.038291 0.591689 0.314772 0.418909 1.044476 -0.347745 0.296323 -0.222460 0.091638 0.452826 -0.396945 0.143985 -0.047008 -0.253651 0.203338 0.307576 0.007490 0.177905 -0.268465 0.565959 -0.857003 0.117338 0.078617 -0.540464 0.408883 0.368843 0.121292 -0.883170 -0.308539 -0.073729 -0.425846 0.555632 0.127190 -0.064009 0.572492 -0.489929 0.289434 0.652219 -0.195912 -0.344925 -0.108626 0.180719 -0.102031 0.188184 0.063840 0.372099 0.084492 0.667649 -0.490699 0.837342 -0.398020 0.574225 -0.105066 -0.023507 0.047289 -0.178797 0.065151 0.126119 0.604631 -0.869843 -0.482897 0.626986 -0.240730 0.371343 -0.353413 0.567379 0.091266 -0.255771 0.030275 -0.034992 0.609145 -0.226481 -0.765413 0.682480 0.089130 -0.014028 -0.066538 -0.675595 -1.261670 -0.086763 -0.943032 -0.963931 0.422473 0.586189 1.019913 -0.014918 0.348777 -0.200869 -1.487000 -0.338744 -0.816600 
HCCDB-18.S10 0.343393 -0.136521 0.290137 0.515128 0.430409 -0.434876 1.399613 0.745888 -0.762522 0.564146 -0.865488 0.384793 -0.005484 0.781928 -1.102016 0.244920 -0.156731 -0.370955 0.131113 0.326278 -0.147281 0.886366 0.604384 0.215252 0.337421 -0.349378 0.035125 0.064431 -0.451786 0.885147 -0.305637 0.661712 1.109215 -0.635361 -1.369972 0.940260 -0.225813 0.386663 -0.156735 -1.157260 0.411250 -0.131355 0.837175 -0.849604 0.326953 0.183034 0.091568 0.323856 0.104830 0.029109 1.008263 -0.161889 0.297494 -0.484847 0.088099 -0.227392 -0.043713 0.871506 -0.206997 0.486525 -0.474524 0.028676 -0.078605 -0.819730 1.023261 -0.637462 0.303556 0.276279 0.021386 -0.649648 -0.260807 0.981211 -0.871504 0.707805 0.534487 0.497442 0.179707 -0.042115 0.934810 -0.730466 0.960991 0.990435 -0.287442 -0.314691 -0.359154 -0.175114 0.031655 -0.123576 -0.083300 -0.022157 -0.664747 -1.042820 -0.097826 0.551587 0.029877 0.137657 -0.336969 0.161782 -0.925725 -1.188904 0.069586 0.411708 0.174177 -0.465055 0.147463 0.407979 0.472684 0.522487 -0.443234 -0.444945 0.402824 0.756125 0.441794 -0.131329 0.016516 0.260672 0.860842 -0.458333 0.395885 0.614039 0.397961 0.859154 0.126251 0.584410 -0.611039 -0.787471 -0.599682 -1.003850 1.385433 -0.517592 -0.571624 0.604145 -0.581737 -0.302127 -0.547187 1.561236 -0.695517 0.437931 0.515106 -0.611524 0.057048 -0.853840 -0.394307 0.401596 0.277982 -0.277127 -0.519342 0.309595 -0.908835 -0.415892 0.687278 0.376878 0.411930 -0.026941 0.279945 0.489701 0.296333 -0.982671 0.575355 -0.752017 0.507328 0.647128 -0.267732 0.459005 -0.009483 0.398576 0.129638 1.573166 -1.669999 -0.239179 0.470424 -0.544388 0.227574 -0.429872 0.429918 0.148073 -0.293854 -0.275918 0.518140 0.232198 -0.449152 -0.701497 0.876682 0.002995 -0.469317 -0.214107 -0.644706 -0.594760 -0.345136 -0.942991 -1.679190 0.864849 0.552476 -0.037829 0.018636 -0.048687 0.146318 0.470406 0.189073 -0.558884 
HCCDB-18.S100 0.569723 0.100264 -0.022255 0.261016 -0.453452 -0.339974 0.055556 1.042072 0.412733 0.139214 -1.138057 -0.107444 -0.088325 0.466759 -1.363574 0.161002 -0.066893 -1.900818 0.452330 -1.189123 0.230631 0.451633 0.138172 0.697556 0.861845 0.284027 -0.361745 -0.026293 1.392771 0.537526 -0.432795 0.259318 1.091318 -0.863092 -0.871934 0.836453 -0.567122 0.677320 -0.002340 -0.919648 -0.448341 -0.174469 -0.698144 -0.501131 1.078295 0.061582 0.912625 1.063245 0.620866 -0.162782 0.430531 0.486392 0.002118 -0.315220 0.147988 -0.430434 0.049657 0.632529 -0.089089 0.549268 0.425215 -0.402891 -0.245601 0.265575 0.243217 -0.322761 0.290839 1.062442 0.053517 0.500216 0.244465 0.316434 0.121975 0.480026 0.569908 0.392201 0.426848 -0.374760 0.388366 -0.302435 1.002740 0.219500 -0.689480 -0.167615 -0.513747 -0.252500 -0.709567 -0.434170 -0.097069 -0.196275 0.355744 -0.638463 -0.448983 0.255915 0.390120 0.109892 0.083175 0.059334 0.270154 -0.291963 -0.029463 -0.061980 0.740281 -0.074520 -0.127447 -0.110012 0.516216 1.234526 0.100557 -0.368279 -0.247947 0.785311 0.134164 0.445801 -0.113735 0.421028 0.327306 -0.498065 0.541497 -0.694170 -0.122886 0.112535 0.071968 -0.367734 0.008539 -0.316099 -0.149297 -0.694999 0.560771 -0.031449 0.359608 0.154695 -0.931826 -0.497026 -0.130651 0.596195 -0.215156 -0.053581 0.409696 -0.386786 0.755516 -0.122257 -0.721349 0.878916 -0.417745 0.049617 1.165009 0.698713 -0.095262 0.123888 0.305368 0.127375 -0.455447 -0.010050 0.123132 0.606743 -0.361429 -0.024305 0.277379 -0.650104 0.553509 -0.688356 -0.676275 0.274725 -0.053759 0.003460 0.410489 0.786287 -0.676883 -0.317754 0.624570 -0.075071 -0.326152 -0.571656 0.987715 0.546750 -1.094677 0.195677 -0.396569 -0.385645 0.074157 -0.251476 1.198434 -0.445468 0.729587 -0.851547 -0.282283 0.054457 0.244969 -0.939837 -1.259737 0.818402 0.454521 -0.144070 -0.554578 0.463149 0.664768 -0.435792 0.074936 -0.882156 
HCCDB-18.S102 0.346424 0.157517 0.256138 0.367886 -0.208451 -0.284625 0.143166 0.758775 0.264838 -0.217293 -0.359950 -0.073963 -0.254729 -0.190186 -0.539605 -0.531854 -0.105222 -0.739979 0.002608 -0.592978 0.256472 0.511463 -0.204607 0.665529 -0.186517 -0.267256 -0.220915 -0.003941 -0.085804 0.383361 -0.627494 0.243537 0.704247 -0.878988 -0.258931 0.520973 -0.957431 -0.116326 -0.110804 -0.327249 -0.177231 0.131156 0.473207 -1.008059 0.348454 0.540116 0.345477 0.940503 0.150914 -0.016399 0.497655 0.407676 -0.031540 -0.403043 0.091234 -0.056838 0.217420 0.439562 0.333055 0.217529 0.282516 -0.292675 -0.001763 0.490370 0.520086 0.050139 0.503546 0.005431 0.035495 0.498598 0.084933 0.414710 0.228054 0.174921 0.018818 0.229083 -0.419264 -0.730384 0.355105 -0.351003 0.471061 0.215522 -0.220322 -0.792858 -0.516678 -0.160713 -0.362728 -0.151215 0.393809 -0.173691 0.106210 -0.693948 -0.015388 -0.055830 0.072730 -0.224842 -0.338071 0.191805 0.484291 -0.861568 0.574428 0.289129 0.295957 -0.100452 -0.229803 -0.102149 0.334803 0.658138 0.394892 0.129288 0.003716 0.470626 0.465452 -0.076795 0.008252 0.516951 -0.063944 -0.374245 0.083647 -0.281210 0.350688 0.012460 -0.182878 -0.259772 -0.133779 -0.071183 0.413806 -0.438471 0.936876 -0.449547 0.217170 -0.004994 -0.302534 0.286169 0.385955 0.434156 -0.567469 -0.026983 0.853430 -0.793375 0.205063 -0.504829 -0.422690 0.605843 -0.357190 -0.058720 0.770499 0.157801 -0.252012 -0.498360 1.204611 -0.461505 0.310578 0.183704 0.957381 0.134587 0.730967 -0.452028 -0.097589 -0.417626 0.327125 0.058307 0.325028 -0.103167 -0.091468 0.426534 0.338801 0.584262 -1.149647 -0.191141 0.340755 1.249431 0.540657 -0.399829 0.920597 -0.295720 -0.993312 0.149247 -0.155413 0.114188 -0.266307 -0.830542 1.466833 0.004983 0.211928 0.129042 -0.509841 -0.386032 -0.567776 -1.022129 -1.163194 0.667881 0.553799 0.380042 -0.196529 0.426591 0.212106 -0.475269 -0.056696 -0.506810 
HCCDB-18.S104 0.446578 -0.636545 0.631433 -0.342153 -0.860344 -1.048502 0.857900 0.599301 0.566261 0.250438 -0.091639 -0.323222 -0.145939 -0.081401 -0.868118 -0.328253 0.138246 -1.170380 0.286745 -0.540986 0.150431 0.600813 -0.255739 0.713762 -0.083985 -0.610987 -0.301244 -0.596344 0.407926 -0.096480 -0.445739 -0.195901 0.076812 -0.042908 -0.915549 0.221561 -0.403056 0.227843 -0.128171 -0.798170 0.697212 0.034391 0.205405 -0.761091 -0.016902 -0.190767 -0.120720 0.229659 0.109779 0.017226 0.170114 -0.396846 -0.028262 -0.467734 0.910452 -0.591519 0.205744 0.610062 -0.314344 0.079584 0.205465 -0.095255 0.393500 0.393420 0.604473 -0.220070 0.607320 0.463675 -0.300258 -0.069778 -0.478149 1.370517 -0.116369 0.612733 -0.324818 -0.103619 -0.546722 -0.452131 0.741934 -0.902779 0.424599 0.313819 -0.352078 -0.865538 -1.106885 -0.661024 -0.331180 -0.096807 -0.525471 0.241505 -0.045047 -0.551548 -0.270572 -0.616294 0.579478 0.517262 -0.570421 -0.375944 0.005429 -0.383049 -0.077575 -0.126820 0.418289 -0.452028 -0.370760 0.043309 0.614373 0.917021 0.194975 0.275255 0.088543 0.977333 -0.371750 -0.105350 -0.669412 0.511370 -0.546058 -0.595229 -0.275863 -0.539807 0.240336 -0.355391 0.374891 0.275449 -0.150173 0.291545 0.367636 -0.543495 1.371140 0.274786 -0.178293 0.251002 0.306393 -0.174006 0.596354 0.554457 -0.421901 -0.055796 0.381102 -0.982120 -0.226312 -0.358754 -0.744342 0.594449 -0.781723 -0.422329 1.058889 -0.208412 -0.588968 0.083816 0.420677 -0.807998 0.780091 -0.058197 -0.119781 0.004670 0.160254 -1.203068 -0.207162 -0.820748 0.457154 -0.396280 0.159703 -0.121653 0.201750 0.170432 -0.007295 0.671522 -1.704271 -0.079274 0.192036 0.341371 0.483388 -0.978641 0.432056 0.325138 -0.636668 -0.039812 -0.040072 -0.608572 -0.250902 -0.210581 0.845331 0.344960 0.510068 0.530598 -0.887091 -0.240535 -0.877356 -0.254894 -0.546868 0.677391 0.211277 0.577479 -0.812241 0.664407 0.046436 -0.053209 0.393242 -1.034846 
HCCDB-18.S106 0.575127 0.009301 -0.262402 0.000115 -0.062796 -0.547457 0.988625 0.405646 0.297727 -0.412130 0.156330 0.019130 0.106441 0.702594 -0.539721 -0.168425 -0.353425 -0.982971 0.215773 -0.940683 0.507623 0.360678 -0.225319 0.542961 0.010455 -0.527954 -0.304843 -0.278735 0.183115 0.027895 -0.491787 -0.005506 1.049965 -0.715798 -0.594870 0.501283 -0.255612 0.295953 0.199354 -0.590797 -0.047750 -0.056828 0.002793 -0.874057 -0.343644 0.228188 0.567230 0.157249 0.430614 0.085491 0.299833 0.074982 0.273611 -0.046560 0.447173 -0.245718 0.847368 0.223863 -0.241510 0.018124 -0.122111 -0.491922 -0.161455 -0.155577 0.329520 0.055767 0.758862 0.579267 0.275230 0.446388 0.081043 0.419703 0.082659 -0.217596 0.180225 0.219113 -0.424256 -0.552619 0.746984 -0.739887 0.345305 0.394988 0.427293 -0.347018 -0.281020 -0.677049 -1.075277 -0.209434 0.330122 0.003085 -0.596387 -0.259498 -0.481136 -0.029423 0.445663 -0.070301 -0.215281 0.561900 0.092115 -0.559250 0.341967 0.580150 0.511203 0.259623 -0.379207 0.338823 0.204451 0.930453 -0.589066 -0.180805 0.558080 0.807300 0.535485 -0.307817 0.006765 0.175338 0.293017 -0.874006 0.254096 -1.059793 0.249211 0.328999 0.057724 0.044945 0.200822 -0.288296 -0.199969 -0.628300 0.638412 -0.619805 -0.016513 0.011991 0.149987 -0.052951 0.406684 0.160248 0.369946 -0.089109 0.544110 -0.475624 -0.433479 -0.118107 -0.287409 0.324153 -0.385543 0.239087 1.128282 0.243209 -0.337735 -0.125765 0.333546 0.160413 0.438087 0.123687 0.085871 0.269598 -0.023013 -0.629950 0.487532 -0.137649 0.845299 0.103803 0.066136 -0.218437 -0.213131 0.070970 -0.027155 0.622995 -0.873560 -0.716570 0.518835 0.561476 0.225465 -0.173080 0.540823 0.017428 -0.612616 0.379008 -0.083703 -0.750256 -0.403931 -0.402966 1.538825 -0.327305 -0.078796 -0.275806 0.060874 -0.084919 -0.725065 -0.907970 -1.333268 0.886760 -0.160959 0.749297 0.052843 0.239202 0.058111 -0.560639 0.389195 -0.919938 
HCCDB-18.S108 0.165320 -0.088830 -0.122586 -0.125951 0.252061 -0.786147 0.472127 0.897875 -0.002452 -0.101075 -0.786512 0.084468 0.035870 -0.077715 -0.594427 -0.182660 0.445979 -0.833061 0.234304 -0.471800 0.129898 0.496894 -0.435015 0.409849 0.019454 -0.194096 -0.184878 -0.682944 -0.142446 0.185102 -0.265397 0.361979 0.937002 -0.817476 -0.460688 0.333205 -0.463459 0.000100 0.229897 -0.570576 0.050401 0.285303 0.400348 -0.543014 0.140413 0.188716 0.063413 0.519440 -0.285821 0.008925 0.339347 0.218980 -0.183655 -0.269607 0.032977 -0.694639 -0.068277 0.126784 -0.178964 -0.244652 0.442053 0.085884 0.036907 0.270701 0.484924 -0.279817 0.107493 -0.010426 -0.041909 0.200891 0.067631 0.554105 -0.011575 -0.133626 -0.235268 0.130350 -0.224517 -0.490604 0.106218 -0.566425 0.322935 0.275415 0.043049 -1.341367 -0.738002 -0.098336 -0.216302 0.284870 0.385880 0.052537 -0.300113 -0.927046 -0.440959 -0.171799 0.565277 -0.454098 -0.717872 0.689240 0.279534 -0.894317 0.535405 0.428457 0.216251 -0.310133 -0.176380 -0.068149 -0.102041 1.102647 -0.066187 -0.017137 0.094876 0.776833 0.259545 -0.106891 0.258942 0.046265 0.007017 -0.371995 0.373540 -0.604096 -0.348482 -0.060848 -0.072838 0.288409 -0.359163 0.443754 -0.189281 -0.318079 0.360607 -0.802858 -0.085679 0.454042 -0.110878 -0.299515 0.239635 0.451468 -0.819073 -0.112721 0.480617 -0.853159 0.331860 -0.260972 0.020800 0.417880 -0.826583 0.007898 0.722456 0.415191 -0.575149 0.179164 0.409269 0.115491 0.197474 -0.016902 0.165392 0.085782 0.687795 -0.999945 0.634822 -0.512583 0.202839 -0.227722 0.074660 -0.304609 -0.170961 0.081955 0.463885 0.429883 -1.119136 -0.290113 0.016233 0.212546 0.447325 -0.387674 0.247626 0.049791 -0.458653 -0.099236 -0.124056 -0.454460 0.064904 -0.646463 1.425469 -0.080317 0.426203 0.041186 -0.382629 -0.612489 -0.533854 -1.045104 -1.000386 0.951195 0.407021 0.561682 -0.045439 0.243488 -0.193810 -0.782631 0.056573 -0.558218 
HCCDB-18.S11 0.784433 -0.070906 0.558483 0.155741 -0.252677 -0.917885 0.731399 0.360476 -0.271051 -0.346530 -0.407589 0.052946 -0.179544 0.551021 -0.726578 -0.080826 0.453140 -0.478753 0.416301 -0.388348 -0.372106 0.631231 0.563947 0.020325 -0.208179 -0.369710 -0.185636 0.325936 -0.310501 0.143894 -0.491492 0.249740 1.014395 -1.461069 -1.033733 -0.009680 -0.428469 -0.461448 -0.171975 -0.394374 0.145821 0.219806 0.697922 -0.891696 -0.288160 0.076224 0.265222 0.537080 -0.002109 -0.061370 0.136246 -0.293126 -0.005829 -0.449561 -0.073730 -0.317897 0.240479 0.919199 0.104139 0.289348 -0.016742 -0.072113 0.077812 0.286326 0.177336 -0.843926 0.543593 0.826186 0.355040 0.585810 0.248262 0.342474 -0.125708 0.068814 0.280763 0.370066 0.141264 -0.462126 0.181366 -1.083890 0.690894 -0.395006 0.134023 -1.000457 -0.437429 -0.610566 -0.501122 -0.237820 0.007587 0.039323 -0.959107 -0.701316 -0.582087 -0.407573 -0.138159 0.034862 -0.105625 0.499482 0.944059 -0.937829 0.169143 -0.254884 -0.419574 -0.693294 -0.203333 0.253866 -0.299165 1.035336 0.058347 0.031502 0.193222 1.042506 -0.109660 0.309166 0.158779 0.185469 -0.055203 -0.224140 0.529028 0.021263 0.153252 0.318802 -0.502357 -0.643266 0.206618 -0.750294 -0.409097 -0.654329 0.738796 -0.801981 -1.001710 0.277639 -0.412162 -0.031450 1.168754 0.197613 -0.734582 0.158150 0.231605 -0.617891 0.231913 -0.433984 0.367320 0.193174 -0.106269 -0.061550 0.192348 0.642119 -0.297775 -0.186509 0.584113 -0.301376 0.805514 0.157740 0.027352 -0.103395 -0.507889 -1.226347 -0.083349 -0.327963 0.733164 0.198526 -0.810849 -0.694458 -0.549378 0.139397 -0.441548 1.171969 -1.291054 -0.411836 -0.268679 1.178962 -0.313158 -1.004612 -0.089570 -0.303595 -0.874814 0.912611 0.176774 -0.336815 0.117922 -0.132469 0.924929 0.061103 0.541989 -0.128646 -0.367472 -0.620029 -0.790165 -0.973967 -1.305611 0.566400 -0.573394 0.693094 0.015373 -0.281535 -0.311660 -0.684438 0.508095 -0.879126 
HCCDB-18.S110 0.530918 -0.720395 -0.267836 0.058064 -0.534407 -1.008168 0.861620 1.195950 -0.121947 -0.398348 -0.141167 0.427400 -0.352850 0.511506 -0.414017 -0.279918 0.255394 -0.730233 0.388271 -0.342373 -0.476136 0.340897 0.311541 0.821292 0.452934 -0.362430 -0.024350 -0.744034 0.376263 -0.058381 -0.221161 -0.582208 0.656597 -1.149778 -0.716718 0.706955 0.089080 -0.002769 0.042032 0.038194 -0.116406 -0.679243 0.524101 -0.212907 -0.816317 -0.078567 0.618320 0.205236 1.040045 -0.558078 0.606161 0.936495 0.180840 0.000400 0.429385 -0.557830 0.632213 0.629070 -0.171681 0.192087 0.374794 -0.366417 0.114141 0.070797 1.058926 -0.667023 0.463484 0.285365 0.313730 -0.507432 0.194111 0.650829 -0.039871 0.230987 0.170539 0.385369 -0.182609 -0.850723 0.490025 -0.492727 0.270039 0.062631 -0.134471 -0.688658 -0.157241 -0.823953 0.148609 -0.280731 -0.015660 0.492798 -0.980923 -0.567093 0.035650 0.164428 0.667008 0.372586 0.021603 0.741160 0.402774 -0.627903 0.279255 -0.102556 0.069804 -0.639251 -0.164550 -0.537268 0.509536 0.240405 -0.513654 0.650452 0.270606 0.865193 0.628211 -0.478982 0.283938 0.770516 0.386587 -0.482075 0.837528 -0.203383 0.116959 -0.071048 -0.122527 0.096818 0.038136 -0.163699 0.192500 -0.839781 1.006544 -0.267568 0.176690 0.480567 0.472224 0.741429 0.291455 0.839252 -0.336364 0.184198 0.639527 0.107948 0.240747 0.068164 0.398523 0.417285 -0.717352 0.559730 0.881712 -0.116101 -0.315748 -0.276440 -0.024668 0.099734 -0.247349 0.432116 0.345781 0.278686 0.291295 -0.431162 -0.149222 -0.710195 0.084400 0.031611 -0.152421 -0.150427 -0.165531 0.532990 -0.504558 1.055124 -1.188007 -0.563439 -0.061394 0.806069 0.149782 -1.290256 0.951948 -0.214096 -0.590703 0.026339 -0.057489 -0.527344 -0.304273 -0.692445 0.792314 0.214672 -0.384508 0.225252 -0.194030 -0.322379 -0.300935 -1.269412 -1.159939 0.699892 0.356263 0.788370 -0.408251 0.498999 0.425099 -0.266177 0.442103 -0.925228 
HCCDB-18.S112 0.580618 -0.408601 0.480271 -0.333522 0.343703 -0.819015 0.941516 0.618060 -0.123229 -0.304527 -0.679953 0.450119 -0.113914 -0.211740 -0.792768 -0.497615 0.259337 -0.855873 0.104717 -0.333036 0.139752 0.746386 -0.220133 0.482856 0.153331 -0.237326 -0.032998 -0.566186 -0.229161 0.180904 -0.703819 0.122621 0.755599 -0.447480 -0.555525 0.310631 -0.220324 -0.320469 -0.155531 -0.656044 0.264285 -0.536891 0.226036 -0.753770 0.017441 0.231429 0.263424 0.507464 0.124532 0.251194 0.247443 -0.132447 -0.018294 -0.310126 -0.142315 -0.595541 0.385302 -0.157492 -0.115323 0.359730 0.189719 -0.518706 -0.241812 0.063505 0.931649 -0.095030 0.325362 0.292029 -0.132681 0.040523 -0.145372 0.197305 0.128373 0.468410 0.071121 0.346619 0.050951 -0.632414 0.556902 -0.881831 0.190268 0.034902 0.156885 -0.459115 -0.459733 -0.397774 -0.498294 -0.153380 0.497281 0.161166 -0.276266 -0.645923 -0.358058 -0.309100 1.082772 0.068151 -0.150866 0.061919 0.502880 -0.834488 0.459260 0.518649 0.032084 -0.351548 0.127769 0.361842 0.273411 0.570180 -0.133503 0.203961 0.052292 0.693897 0.863907 0.000210 0.096959 0.048614 0.031893 -0.449233 0.288307 -0.438868 0.262118 0.466410 0.402478 0.004096 0.062157 0.137348 -0.313370 -0.708033 0.304271 -0.392491 0.224673 0.208009 0.179781 -0.068272 -0.173032 0.554721 -0.279547 0.204455 0.888984 -0.720856 0.016985 0.149813 -0.301245 0.322941 -0.026600 0.524878 1.135234 -0.353567 -0.474221 -0.405230 0.539136 0.090802 0.170021 -0.315733 0.422608 -0.082439 0.324499 -0.615947 0.270917 -0.708149 -0.072201 0.030633 -0.223560 -0.228297 0.160427 0.065658 -0.112564 0.539950 -1.011799 -1.016764 0.709207 0.581387 0.736147 -0.522974 0.470398 0.016726 -0.453582 0.527687 -0.123432 -0.316372 -0.525745 -0.579031 1.260134 -0.558381 0.001903 -0.452734 -0.424590 -0.040403 -0.535381 -1.296270 -0.812951 0.559684 0.251802 0.565342 -0.325266 0.138508 0.125171 -1.257959 -0.056323 -0.533035 
HCCDB-18.S114 0.345821 -0.093333 -0.004180 -0.105555 0.156469 -0.797183 0.602218 0.969579 -0.100515 0.058038 -0.287682 0.194666 -0.446249 0.174399 -0.476145 -0.248536 0.293971 -0.708120 0.344550 -0.732508 -0.445151 0.393125 0.067465 0.625869 0.002036 0.139053 -0.146240 -0.347443 0.249314 0.185283 -0.457897 0.143871 0.559430 -0.836077 -0.451903 0.879639 -0.265207 -0.069716 -0.025979 -0.696975 0.130162 -0.073387 0.246417 -0.747853 0.105889 0.215451 0.077096 1.063008 -0.155647 0.279182 0.291758 -0.027540 -0.177532 0.002498 0.278962 -0.362580 0.529768 0.416654 -0.358074 0.411035 0.764827 -0.612769 -0.256816 0.275991 0.879399 -0.355235 0.157694 0.193109 -0.262616 0.121452 -0.024423 0.348204 0.071398 0.160603 -0.129034 0.259443 0.262437 -0.685137 0.282868 -0.635162 0.724372 0.585399 -0.110876 -0.247683 -0.318914 -0.129921 -0.171884 -0.426163 0.347223 -0.202114 -0.149061 -0.758117 -0.410378 -0.131408 1.108486 0.120959 -0.563519 0.013632 0.095634 -0.801140 0.407018 -0.201205 0.120050 -0.221142 -0.017867 0.435773 0.226046 1.014782 0.291741 0.018568 -0.086805 0.941478 0.099892 0.202496 -0.411988 -0.216696 0.207890 -0.354229 0.593022 -0.577488 -0.401260 0.072108 -0.288161 -0.077967 0.090897 -0.163011 -0.102705 -0.398688 0.369259 -0.390968 -0.303461 0.132306 0.009199 -0.232621 -0.182696 0.721587 -0.598804 0.213862 0.964136 -0.046386 0.453961 -0.055710 -0.342462 0.253094 -0.253080 -0.001051 0.681086 -0.048900 -0.333048 0.070490 0.556615 -0.047654 0.429898 -0.198430 0.506497 0.207032 0.400255 -0.716713 0.487208 -0.706047 0.411913 0.080872 0.147557 0.178208 -0.078356 0.110420 -0.194903 0.644104 -0.998174 -0.548635 0.016194 0.195597 0.311016 -0.205268 0.321746 0.070386 -0.231803 0.353357 -0.495828 -0.140384 0.137759 -0.593160 1.170274 -0.232038 0.151647 0.047616 -0.234474 -0.517112 -0.630959 -1.080434 -1.151505 0.802138 0.609843 0.549223 0.112558 0.352826 -0.272661 -1.313441 -0.037222 -1.093329 
HCCDB-18.S116 0.459698 0.080937 0.120347 -0.150994 0.237363 -1.045971 0.650421 1.038350 -0.027523 -0.545434 -0.505650 0.413114 0.453502 0.642256 -0.507705 -0.705444 0.402200 -0.844338 -0.064352 -0.802835 0.316545 0.154173 0.512508 0.592170 -0.046939 -0.426025 0.045201 -0.182366 -0.010339 0.104417 -0.355120 -0.015335 0.914558 -0.570311 -0.295097 0.604459 -0.766471 0.091024 0.404077 -0.438488 0.238345 0.036073 0.292775 -0.395856 -0.177344 0.230731 -0.084380 0.728533 -0.107095 -0.375124 0.145250 -0.000481 -0.032678 -0.203774 0.098488 -0.488039 0.122285 0.359511 -0.498117 -0.027557 -0.043850 -0.025798 -0.015448 0.358837 0.829138 -0.787394 0.412505 0.416120 -0.423590 -0.142671 0.101861 0.462422 0.100510 0.377869 0.234151 0.774349 0.168659 -0.695576 0.528843 -0.092299 0.375222 0.277927 -0.414160 -0.690999 -0.557845 -0.559764 0.083630 -0.151768 0.199909 0.258132 -0.557246 -0.640915 -0.343388 -0.467095 0.575122 -0.206020 -1.037294 0.050353 0.108077 -0.889111 0.099288 0.142718 -0.082495 -0.518106 0.114769 0.248318 -0.225874 0.806219 0.073147 -0.028557 -0.163663 0.779021 -0.303938 0.168407 -0.332939 0.002128 -0.086327 -0.941906 0.431927 -0.811926 0.257938 0.240786 -0.152464 0.292849 -0.184053 0.193145 -0.422631 -0.681110 0.296825 -0.364792 0.242051 0.341845 0.069990 0.087783 0.018505 0.399586 -0.509574 0.036554 0.059549 -1.259832 0.548321 0.080572 0.053872 0.386569 -0.171592 0.147571 0.265166 0.331161 -0.398572 0.506283 0.349666 -0.141055 -0.073232 0.264924 0.141145 0.204857 0.119929 -0.760872 0.536550 -0.633190 0.006313 0.015694 0.176499 0.198147 -0.043576 -0.056152 -0.153083 0.205042 -0.879098 -0.154332 0.028035 0.706952 -0.001145 -0.317554 0.639743 0.113536 -0.960291 -0.304327 -0.089595 0.065958 -0.129237 -0.831972 1.014377 -0.195211 0.505893 0.111974 -0.583733 -0.568699 -0.587045 -0.821548 -1.174360 0.881914 -0.056024 0.561405 -0.655069 0.242595 -0.193562 -1.149184 -0.194124 -0.939781 
HCCDB-18.S118 0.372544 -0.629896 0.041615 -0.232116 0.472221 -0.348013 0.309499 0.340335 0.048689 -0.251648 -0.586209 0.022875 -0.838756 0.335103 -0.357130 0.431518 -0.190251 -1.700487 -0.163536 -1.297070 0.985668 -0.047679 0.570997 0.174087 -0.143054 -0.319371 0.863487 -1.513830 0.455268 -0.100892 -0.941863 0.552010 0.520616 -0.545876 -0.787779 1.046744 -0.463368 -0.016289 0.487715 -1.001460 0.295821 -0.090356 -0.079380 -0.614231 -0.993195 -0.315625 0.105474 0.768345 0.815909 -0.318027 0.338108 0.393232 -0.306474 -0.667770 -0.650024 -0.617207 0.287324 0.271600 0.046464 0.778769 0.491600 0.137750 -0.192895 -0.072427 0.602423 -0.012291 1.054945 0.182734 -0.411096 1.054770 -0.123989 0.661383 0.203541 0.251141 -0.213361 -1.011774 0.050417 -0.951238 0.441563 -1.091087 1.277448 0.344526 -0.335283 -0.232618 0.475558 -1.149512 -0.495957 -0.906473 0.061615 -0.577505 -0.517823 -0.957309 1.159901 0.855250 0.355830 0.074022 -0.118883 0.868339 -0.166146 -0.795168 0.578117 -0.628142 0.447521 -0.974303 -0.617579 0.640268 -0.333075 0.502452 -0.406586 -0.101951 -0.052597 1.676321 0.468079 0.240145 0.590587 0.508398 -0.176433 -1.416229 1.086390 -0.322451 0.041188 0.951332 -0.060768 -0.841405 -0.085634 0.511399 0.397875 0.018963 1.522920 -0.894192 0.144964 0.236680 0.082920 0.486331 0.098142 -0.060668 -1.197162 -0.097935 0.994280 -1.185195 -0.643121 0.634104 -0.494257 0.695136 0.037340 0.051679 0.023313 -0.494055 -0.147822 -0.313350 -0.010620 -0.901648 0.271045 0.132081 0.557052 0.972548 1.491877 -0.782628 1.086565 -0.347668 0.946972 -0.511164 0.660199 -0.619071 0.164318 0.412321 -0.201572 0.457825 -0.612205 0.305011 -0.125110 0.609357 0.571983 -0.224326 -0.404153 0.458451 -0.855696 0.107379 0.382910 0.410651 -0.773192 -0.358296 1.330603 -0.780066 0.616378 -0.735016 -0.394787 -0.261990 0.249477 -1.323990 -0.984326 1.002316 0.150684 0.006655 -0.348661 0.122200 0.627806 -0.501539 -0.397765 -0.099407 
HCCDB-18.S12 -0.045330 -0.367647 -0.173053 0.539967 -0.581415 -0.130633 0.703621 0.418982 0.077047 -0.011434 -0.469821 -0.086109 -0.256200 -0.082224 -0.661494 -0.283452 0.281904 -0.917437 -0.085323 -1.138250 0.365371 0.502686 -0.037059 0.737191 -0.062048 -0.157977 -0.521315 -0.219646 -0.720279 0.179244 -0.426099 -0.144754 0.613864 -0.642243 -1.278988 0.739759 -0.257636 -0.631447 0.377205 -0.693396 0.853196 0.000223 0.663869 -0.890431 0.001108 0.082979 0.091613 0.887163 -0.171785 -0.107586 0.335399 -0.265293 0.092670 0.042320 0.054900 -0.224440 -0.044019 0.648881 -0.239609 0.791947 0.367224 -0.384834 0.101828 0.176815 0.498780 -0.128050 0.151357 0.706572 0.310937 0.218474 -0.441756 0.978309 0.185989 0.318422 -0.207379 0.490041 -0.310842 -0.463333 0.390158 -0.433457 0.462082 0.427924 -0.348758 -0.619930 -0.547771 -0.290460 -0.404318 -0.254307 0.019069 0.022364 -0.093365 -0.840387 0.517529 -0.135045 0.150603 0.007450 -0.328471 0.357362 0.582640 -0.278500 -0.030062 -0.106727 0.556882 0.332019 -0.132343 0.030581 0.799447 0.843627 0.285506 -0.192276 0.384847 1.293599 0.714700 0.096949 -0.396557 -0.110095 0.202822 -0.919404 0.467293 -0.670349 -0.088893 0.484073 -0.167610 0.253407 -0.172244 -0.053756 -0.262961 -0.742443 0.081024 -0.074023 -0.196702 0.447362 0.536830 0.215473 0.147263 0.579864 -0.738905 -0.284261 0.591151 -0.804316 0.465431 -0.167696 -0.188589 0.574708 -0.111449 -0.399931 0.370204 0.074452 -0.388804 -0.313861 0.488244 0.458590 0.316935 0.045602 0.580761 -0.356881 -0.287269 -0.447048 0.323352 -0.449521 0.328194 -0.391340 0.280468 -0.564201 0.330522 0.020822 0.052840 0.753544 -1.334023 -0.147322 -0.110792 1.001377 -0.198902 -0.426858 0.548893 -0.466890 -0.994709 0.385955 -0.163905 -0.400484 -0.852634 -0.318541 0.981273 0.908113 0.496819 -0.034563 -0.034105 -0.216710 -0.756808 -0.582468 -1.057741 -0.148340 0.211489 0.115604 -0.636646 0.078037 -0.068232 -1.034325 -0.171926 -1.049078 
HCCDB-18.S120 0.729969 -0.122189 0.286809 0.088147 0.178595 -0.258381 0.769826 0.584864 0.213622 -0.237162 -0.835730 0.391104 0.063670 0.223080 -0.278875 -0.307157 0.419865 -0.894244 0.050001 -0.849980 -0.234717 0.622527 -0.065805 0.766572 0.120730 -0.052472 -0.352052 -0.820037 0.023176 -0.079817 -0.365506 -0.151946 0.934342 -0.549492 -0.562289 0.509084 -0.270647 -0.030874 -0.050979 -0.554527 0.624762 0.272293 -0.223147 -0.610376 0.211541 0.163141 -0.004123 0.862953 -0.194880 -0.011618 0.303387 0.071085 -0.251092 -0.205708 -0.136073 -0.382444 -0.025779 0.261295 -0.020328 0.407125 0.078990 -0.300686 0.038093 0.344534 0.556981 -0.413969 0.421767 0.163397 -0.019350 0.076618 0.350632 0.292967 -0.130540 0.134609 -0.401983 0.012616 -0.261477 -0.495086 0.413501 -0.236205 0.265362 0.040885 -0.360876 -0.861486 -0.338793 -0.162713 -0.084678 -0.185295 -0.022692 0.287423 -0.806340 -0.436103 -0.553704 -0.284167 0.679183 -0.377286 -0.150318 0.225673 0.427499 -0.766061 0.222655 0.039503 0.123139 -0.546090 -0.401815 -0.014083 -0.020651 0.902499 0.355951 -0.208574 0.327063 0.605495 -0.100587 0.576034 -0.429896 0.455119 -0.372366 -0.409968 0.351716 -0.695531 0.447732 -0.450595 0.097222 -0.191126 -0.100726 -0.128291 0.001159 -0.962718 0.464568 -0.105564 0.413795 0.233226 -0.073861 0.033576 -0.057013 0.645137 -0.457034 0.096136 0.822280 -0.597271 0.336166 -0.137012 -0.453033 0.882549 -0.342384 -0.335231 0.764018 -0.042236 -0.462320 0.120201 0.396504 -0.089555 0.118579 -0.294669 0.786616 0.396742 0.193992 -0.409527 -0.185034 -0.803164 0.587438 0.168158 0.496008 -0.097822 0.209498 0.075103 -0.013651 0.597972 -1.042278 -0.572867 0.176877 0.262892 0.503111 0.200041 0.689472 -0.327727 -1.050037 0.214922 -0.314426 -0.141681 -0.333606 -0.968534 1.518758 -0.189988 0.443223 0.080369 -0.110434 -0.736002 -0.589613 -1.006878 -1.322758 0.515455 0.269971 0.143551 -0.445208 0.092168 -0.030170 -0.626605 -0.268262 -0.622325 
HCCDB-18.S121 0.133873 0.041339 0.402033 -0.666338 -0.228091 -0.979054 0.478403 1.235840 -0.420129 -0.295328 -0.618555 0.494683 -1.029431 0.908483 -0.675725 0.564585 -0.053727 -1.153427 0.048213 -0.859981 -0.389822 0.157093 0.097315 1.403188 0.458229 -0.413344 -0.193935 -0.458849 1.119083 0.174670 -1.273088 0.013758 0.256058 -0.073804 -1.244800 0.999984 0.196488 -0.268249 0.155172 -0.869284 0.313431 -0.373081 0.516086 -0.381042 0.225527 0.304481 1.117283 0.352846 1.006251 -0.162243 1.276054 -0.107533 0.275423 0.173495 0.155689 -0.222092 -0.250299 0.977561 0.252881 0.735681 0.747146 0.393257 -0.500987 1.207078 0.482097 0.027609 0.463852 -0.182500 -0.207472 0.139168 0.519447 1.669037 -0.133912 -0.244433 -0.240778 0.539467 0.444339 -0.285917 -0.229938 -0.210418 0.368860 -0.462830 -0.258926 -0.402980 -0.837200 -0.299259 -0.795089 -0.608302 0.814763 0.089206 -0.671784 -0.377917 0.230393 -0.784007 0.652317 0.149875 -0.252129 0.998147 0.406007 -1.092357 0.533670 0.232244 -0.181066 -0.505174 -0.099495 0.141670 0.394860 0.343196 0.389353 0.889083 -0.622853 0.772654 0.653178 0.221335 0.026075 0.652634 0.494481 -0.797184 -0.022554 1.085590 -0.374992 1.282815 -0.300625 0.384939 0.122244 -1.129637 0.109819 -0.585411 1.449569 -0.274269 0.185352 0.436087 -0.338971 0.341244 0.624347 -0.196933 -0.444657 1.367898 -0.036619 -0.728016 -0.047703 -0.349190 0.342896 1.329122 0.448540 -0.730208 0.407217 0.090103 -1.073104 0.302562 -0.486857 -0.328042 -0.943478 0.629534 0.166450 1.031786 0.173200 -1.373282 -0.049622 -0.492336 0.123755 0.817149 -0.665623 0.363662 0.339393 0.001809 0.519492 0.714624 -1.430118 -0.667056 0.554940 0.461461 0.037497 -0.121760 0.935414 -0.236712 -0.677633 -0.051864 -0.369931 -0.351582 -0.259423 -0.724387 1.413594 -0.245411 0.353242 0.043795 -0.742813 -0.370405 0.022666 -0.572787 -0.557135 0.363842 0.198339 0.225682 -0.112728 0.382196 -0.328776 -0.838594 -0.346773 -1.149367 
HCCDB-18.S123 -0.068894 -0.494919 -0.406481 0.076866 0.432650 -0.532877 0.486108 1.044917 0.274532 0.172966 -0.080733 0.715644 0.180295 0.197074 -0.516094 -0.154947 0.560051 -0.641196 0.015637 -0.572857 0.096171 0.219119 0.473791 0.608472 0.086193 -0.180376 -0.091369 -0.099063 0.402213 0.133574 -0.396486 0.203602 0.832146 -0.515793 -0.264489 0.230626 -0.114716 -0.368269 -0.076257 -0.542376 0.088986 -0.511308 0.004243 -0.696239 -0.003639 0.419583 0.478001 0.670900 -0.103244 -0.243687 0.333395 0.035549 -0.249663 -0.480826 0.171557 -0.240266 0.146603 0.693271 0.021549 -0.072315 0.307577 -0.318599 -0.043431 0.633783 1.296005 -0.008735 0.425882 0.744025 0.284758 -0.038784 -0.220102 0.913394 0.251875 0.173495 0.131074 0.465885 -0.351908 -0.433661 0.664416 -0.921656 0.452665 0.327708 0.331809 -0.557883 0.101461 -0.173523 -0.301987 0.121617 0.155225 -0.191975 -0.426627 -0.497709 -0.117642 0.029575 0.754296 0.026772 -0.547085 0.294349 0.212639 -0.587170 0.686928 -0.309283 0.382323 -0.163569 -0.312408 0.333979 -0.187371 1.238824 -0.043917 0.157794 -0.064524 0.647411 0.703520 -0.185752 0.116798 0.216749 0.244286 -0.365566 0.687219 -0.739705 -0.122543 -0.303688 -0.148915 0.073375 0.288505 0.133058 -0.444723 -0.152550 0.589768 -0.718890 0.031016 0.160533 0.108362 0.121898 0.047499 0.893066 -0.337417 0.214966 0.465296 -0.519934 0.570530 0.118724 -0.570082 0.383901 -0.386179 -0.142985 1.050666 -0.088779 -0.292508 0.140433 0.447682 -0.327885 0.219849 0.123010 0.354565 -0.131624 -0.091660 -1.018641 0.737146 -0.222833 0.354122 0.313374 0.025511 -0.348396 0.008405 0.184618 0.074774 0.902397 -0.948068 -0.730469 0.369021 0.563461 0.365978 -0.325874 0.312022 0.092519 -0.316521 0.554377 0.028194 -0.498211 -0.206196 -0.512368 1.554792 -0.409450 0.442616 0.067328 -0.184001 -0.759893 -0.865481 -0.822142 -0.951420 0.816463 0.067179 0.326103 0.178835 0.427545 -0.414284 -0.865940 0.723212 -1.015414 
HCCDB-18.S125 0.023631 -0.102976 0.029628 0.159799 -0.200309 -0.330497 0.789396 0.772677 -0.271414 -0.308284 -0.789901 0.184340 0.157416 0.295391 -0.161118 -0.722122 0.459802 -1.162773 0.648219 -0.808674 -0.355503 0.343805 -0.041438 0.095556 -0.137880 -0.526639 -0.152788 -0.173907 0.105978 -0.312693 -0.137408 0.069017 1.148636 -0.687402 -0.442662 0.425463 -0.194876 0.272560 -0.040605 -0.449508 0.501488 0.067704 0.127424 -0.474613 -0.143055 0.278619 0.147058 0.936874 0.233226 -0.326396 0.021021 0.293918 -0.297383 -0.178035 0.063719 -0.385076 -0.147675 0.347086 -0.058740 -0.219918 0.850374 -0.160871 -0.020785 -0.102399 0.342403 -0.528216 0.571204 0.715682 0.027434 0.341766 0.270963 0.869107 0.220457 0.047401 -0.365771 0.116362 -0.194007 0.165640 0.386707 -1.034849 0.643370 0.474346 -0.341388 -0.831203 -0.532126 -0.034418 -0.508876 0.049814 0.212156 0.472441 -0.782325 -1.054070 -0.262748 -0.086036 0.566600 -0.703784 -0.721228 0.210259 0.089547 -1.275165 0.374634 -0.148834 0.039272 -0.391400 -0.347837 0.094641 0.257352 1.022238 0.043702 0.003436 -0.037388 0.390550 -0.384484 0.150900 -0.249681 0.025439 -0.029868 -0.617648 0.435736 -0.750096 -0.188317 0.286801 -0.513246 -0.328821 0.079285 0.198848 0.123971 -0.635789 0.497813 -0.479417 0.108582 0.288669 0.020317 -0.096481 -0.205756 0.703517 -0.440837 -0.070373 0.178983 -0.739100 0.037145 -0.128897 0.139057 0.050311 -0.105737 -0.181196 0.140863 0.506927 -0.244691 0.263452 -0.120594 0.281333 0.110155 -0.038893 0.366318 0.240169 0.042263 -0.734100 0.406805 -0.837482 0.555591 -0.012190 0.567913 0.099554 0.186148 -0.140605 0.180835 0.324286 -0.814106 -0.529590 0.273080 0.565052 -0.151134 -0.250474 0.562201 0.115157 -0.333452 0.134872 -0.063129 -0.949366 -0.190748 -0.924257 1.282661 -0.218111 0.036105 0.137469 -0.347087 -0.599887 -0.722580 -1.076340 -1.202786 0.585369 0.528657 0.119570 -0.395357 0.218838 -0.101255 -0.787808 -0.065069 -0.720303 
HCCDB-18.S126 0.783054 -0.443594 0.257597 0.226442 -0.671203 -0.464935 1.248791 0.593760 -0.772140 0.052745 0.132607 0.260971 0.462885 -0.094206 -0.612721 -1.152019 -0.061409 -0.409367 -0.037251 -1.019145 0.497583 0.192304 0.380125 0.530582 0.281365 -0.681047 0.090345 -0.799997 -0.467409 0.117917 -0.347924 -0.054159 0.283529 -0.798647 -0.480082 0.043145 -0.695631 0.167576 0.279211 -0.422118 0.239930 0.062115 0.652221 -0.798707 0.006783 0.996527 1.279107 0.250710 -0.297309 -0.228963 0.048966 0.662846 -0.106416 0.401865 1.064021 -1.139939 -0.089449 0.600078 -0.608632 0.220624 0.411481 -0.486992 -0.200496 0.264171 1.100843 0.093654 0.882426 0.517133 0.129544 0.337718 -0.193216 0.530366 -0.045209 0.046018 0.488056 0.276981 0.555948 -0.762606 0.136638 -0.591814 0.047522 0.482393 -0.355090 -1.078667 -0.384922 -0.482528 -1.053149 -0.226919 -0.610768 -0.007677 0.021646 -0.552770 -0.647674 0.449364 0.286717 -0.237439 -0.635550 0.723840 -0.186300 -1.164349 0.109415 0.246684 0.558526 -0.538402 -0.565845 -0.169194 0.515356 0.924072 0.244823 -0.609403 1.137163 0.820668 -0.377059 -0.306903 0.228241 -0.092545 0.511966 -0.410412 0.761258 -0.094368 0.035784 0.573845 0.647582 0.319185 -0.313024 0.074262 -0.206008 -0.637112 0.852014 -0.536257 0.309380 0.071577 0.176487 -0.436640 0.327939 0.499075 -0.740016 -0.181093 1.236479 -1.640006 0.594280 -0.381928 0.236700 -0.122860 -0.477600 0.210109 0.542381 0.680572 -0.758882 0.197362 -0.227086 -0.334910 0.204317 0.187891 -0.453006 0.078665 0.429068 -0.438989 0.328725 -0.444589 0.361586 0.619799 -0.019458 -0.191318 0.166903 0.247784 -0.213813 0.860125 -0.689328 -0.624758 -0.262531 0.310023 -0.008054 -0.416334 -0.075117 0.094296 -0.398729 0.861141 0.386861 -0.391806 -0.496791 -0.707708 1.487970 0.182930 0.374655 -0.228543 -0.343115 0.052106 -0.442710 -0.886455 -0.801213 0.376386 0.059943 -0.152620 0.033384 0.568733 -0.023015 -0.833332 0.256724 -1.042148 
HCCDB-18.S128 0.136889 -0.119102 0.028108 0.141568 0.067190 -0.429502 0.955436 1.229604 -0.142779 -0.029694 -0.295952 -0.080013 -0.142622 0.411330 -0.450250 -0.537064 0.086633 -0.868982 0.346848 -0.653452 -0.160056 0.552254 0.199716 0.354626 0.354456 -0.426728 -0.234094 -0.251540 0.067257 0.170322 -0.290003 0.289998 0.936801 -0.551010 -0.363895 0.251257 -0.369429 -0.365144 -0.127660 -0.550975 -0.095456 0.415426 0.761433 -0.408588 -0.084593 0.088401 0.448656 0.534170 0.200176 0.167310 0.253392 0.071162 -0.052996 -0.178666 -0.002126 -0.734316 0.146251 0.102773 -0.179445 0.393322 0.271079 -0.046439 0.282618 0.111742 0.499989 -0.249994 0.231055 -0.004540 0.262906 0.527252 0.187236 0.393785 0.125598 0.288960 -0.067868 -0.068997 0.005833 -0.651765 0.841812 -0.782202 0.236573 0.101196 0.073765 -0.780784 -0.062689 -0.106244 0.050802 -0.161244 0.295686 -0.167277 -0.047120 -0.901170 -0.225548 0.173654 0.469169 -0.258955 -0.371805 0.029238 -0.007438 -1.037696 0.226106 -0.000935 0.144757 -0.164681 0.396905 -0.059997 -0.016483 0.909555 -0.154676 -0.036362 0.409696 0.903564 0.389946 -0.173439 -0.094276 0.493915 -0.044831 -0.076318 0.602688 -0.428539 -0.192694 0.187906 -0.113358 0.104003 0.246776 -0.048141 -0.190327 -0.362743 0.275064 -0.345527 -0.555631 0.242439 0.129411 0.018834 0.208921 0.325925 -0.486420 0.237776 0.608734 -0.485586 -0.092414 -0.543749 -0.141114 0.436427 -0.459354 -0.113303 0.829206 0.285954 -0.403340 0.004138 0.618014 -0.285897 0.755075 0.069061 0.412247 0.329512 0.586866 -1.062530 0.025172 -0.378488 0.235091 -0.054546 0.253253 -0.014463 -0.048920 0.548745 -0.175468 0.686299 -1.222522 -0.523859 0.167484 0.257792 0.512910 -0.130502 0.458969 -0.081398 -0.806066 0.114126 -0.088533 -0.294321 0.033274 -0.478898 1.545462 -0.209444 0.280117 -0.064972 -0.010417 -0.844963 -0.796740 -1.262390 -0.974224 0.608808 0.338080 0.285516 0.130828 0.734815 -0.261455 -0.431375 0.178436 -0.776326 
HCCDB-18.S130 0.373595 -0.247980 0.472912 0.337001 -0.488313 -1.037665 0.283369 0.442617 0.162909 -0.226983 -0.206647 0.530849 0.296391 0.275019 -0.161976 -0.386485 0.452765 -0.858060 0.657902 -0.330405 0.221603 -0.355611 -0.102270 1.410456 0.118615 -0.848598 -0.142953 0.155033 -0.016137 -0.330225 0.321166 0.013344 0.938676 -1.016188 -0.399450 0.540886 -0.581872 -0.078808 0.811479 -1.006259 -0.117522 -0.050271 0.334826 -1.116855 0.035090 0.367027 0.463308 0.607972 -0.259438 -0.373016 0.009721 -0.042454 -0.050545 0.313693 0.427544 -0.458593 -0.303693 0.436749 -0.711489 0.034754 -0.447291 -0.037039 -0.328337 0.315256 0.903793 -1.085006 0.284985 0.525289 -0.254996 0.140795 0.087948 0.773541 0.845031 0.409373 0.124795 0.550719 0.191124 -1.123473 0.420361 -0.411557 0.364057 0.215901 -0.502555 -0.572685 -0.426937 -0.738707 -0.288535 -0.172239 -0.361434 -0.017749 -1.026335 -1.035907 -0.345892 -0.225736 0.200766 -0.058033 -0.658324 0.435216 0.827328 -1.250395 0.366941 0.653710 0.359185 -0.219300 -0.116438 0.220422 -0.594174 0.516903 0.010579 0.157204 0.206891 0.611120 -0.610681 0.164262 -0.520372 -0.343195 0.152870 -0.802410 0.816912 -0.413379 -0.047923 0.240278 -0.109656 -0.689171 -0.381375 -0.455493 0.227459 -0.892577 0.942711 -0.571045 0.261120 -0.102363 0.187942 0.106672 -0.103394 0.095502 -0.690755 -0.452830 0.190418 -0.712622 0.338471 -0.617691 -0.141255 -0.010176 -0.097217 -0.170467 0.476200 0.005365 -0.134743 0.299162 1.054062 -0.226173 0.014172 0.128982 0.134649 0.579804 0.506187 -0.880208 0.071207 0.012574 0.108112 0.205482 0.000885 -0.293493 0.550676 0.290080 0.108842 1.144786 -0.999502 0.033252 0.036102 0.453978 -0.525697 0.098965 -0.373987 0.179994 -1.074998 0.542429 -0.419744 -0.443573 0.169068 -0.709897 1.227965 0.012782 -0.180052 -0.017332 -0.718875 -0.082032 -0.406207 -0.652113 -1.216905 1.094466 0.644698 0.929061 -0.285229 0.176333 0.064431 -1.046572 -0.591006 -1.052147 
HCCDB-18.S132 0.269632 -0.921630 0.113439 -0.029473 0.242150 -0.688875 0.591882 0.963539 -0.186306 -0.194812 0.006571 0.226399 -0.125526 0.335783 -0.736261 -0.125090 -0.003289 -0.569987 0.309998 -0.475861 0.225243 0.249940 0.396984 0.091690 0.482636 -0.083540 -0.440198 -0.520012 0.155229 -0.259880 -0.294729 0.031068 0.752035 -0.512404 -0.360112 0.239746 -0.511964 -0.384670 0.208336 -0.213543 -0.216626 0.119251 0.211741 -0.584551 0.202065 0.308842 0.829321 0.598220 -0.112376 -0.096290 0.107644 -0.337720 -0.273737 -0.159464 0.481923 -0.485841 0.354459 0.278037 -0.255031 0.204630 0.061431 -0.519502 -0.011220 0.032230 0.265376 -0.078498 0.617697 0.606092 0.060686 0.365214 0.296042 0.913415 -0.023976 0.449432 -0.458820 -0.011799 -0.090714 -0.794946 0.484563 -0.314219 0.097921 0.853927 0.074751 -0.546596 -0.951204 -0.454977 -0.613919 -0.153428 0.223854 -0.133498 0.114630 -0.608654 -0.062641 0.206154 0.499177 0.118970 -0.322526 0.009001 0.472141 -0.875949 0.213966 -0.063888 0.049285 -0.370145 0.391050 -0.307200 0.161833 0.681070 0.211194 0.515238 0.605045 0.871080 0.506341 -0.254701 -0.012220 1.034824 0.518296 -0.466717 0.190982 -0.263461 -0.093702 0.550479 -0.090185 0.059231 -0.103107 0.140143 -0.282431 -0.272733 0.705657 -0.320891 -0.051592 0.046261 0.100231 0.541946 0.181613 -0.257367 -0.511607 0.069299 0.824711 -0.495720 0.352990 -0.458512 0.048008 0.461980 -0.667137 -0.202007 0.976486 0.276716 -0.518007 -0.449832 1.011111 0.221296 0.345379 0.386808 0.798286 0.174570 0.478755 -0.706610 0.780942 -0.218502 0.374454 -0.117030 0.174582 0.338882 0.332940 0.027996 -0.652366 0.745469 -1.293125 -0.842361 0.229451 0.515769 0.641049 -0.018981 0.918694 -0.261017 -0.236117 0.036093 -0.764441 -0.082886 -0.122271 -0.694454 1.057952 0.182788 0.244396 0.025681 -0.350802 -0.767858 -0.760184 -1.345963 -1.324490 0.860954 -0.226373 0.364201 -0.045649 -0.157299 -0.135548 -0.197938 0.312806 -0.345128 
HCCDB-18.S134 1.243195 -0.372105 0.551998 -0.074574 -0.340680 0.130095 0.922120 0.723791 -0.313905 0.001694 -0.425319 0.186843 0.286292 0.034348 -0.379222 -0.193181 0.684438 -0.937354 0.013810 -0.544363 0.011095 0.776758 0.783738 0.632238 -0.617612 -0.378465 -0.941044 -0.737908 0.488261 -0.084651 -0.538232 0.184142 1.096489 -0.447338 -0.176230 0.975199 -0.255170 -0.117060 0.347961 -0.613688 -0.450213 -0.414707 0.947013 -0.654441 0.046680 -0.309307 0.720458 0.679969 -0.253346 -0.096359 0.514834 0.007948 0.170050 0.072644 0.412880 -0.305877 -0.150396 0.765342 -0.001501 0.340033 0.256213 -0.465314 0.255213 -0.358109 1.301972 -0.389262 0.969733 0.320015 -0.356168 0.054923 -0.164197 1.224023 0.352734 -0.240900 0.011693 -0.037795 -0.132529 -1.052144 0.637968 -1.212525 0.337363 0.705407 -0.017059 -0.893234 -0.970708 0.296141 -1.230910 -0.248932 -0.383878 -0.069158 0.057939 -1.097009 -0.305779 -0.001309 0.564173 0.151943 -0.464257 0.354263 0.327842 -0.935768 0.342230 0.119805 0.435319 0.196411 -0.897304 -0.004690 -0.119476 0.568154 0.614941 -0.167656 0.154494 -0.071084 0.451922 -0.164164 -0.153215 0.011551 0.095406 -0.469486 -0.126697 -0.647699 -0.220834 0.483527 0.441540 -0.225776 -0.408983 -0.491452 -0.459572 -0.379436 0.772861 -0.474434 0.338992 0.315261 0.279074 -0.150380 0.442434 0.731564 -0.822749 -0.510306 0.464717 -0.559410 0.621026 0.062437 -0.591770 0.157439 -0.359629 0.144178 1.185858 -0.017136 -0.288924 -0.115841 0.393264 -0.196880 -0.066376 0.617592 0.276333 0.192503 -0.022529 -0.604114 0.238503 0.442170 0.206268 -0.284789 -0.280713 -0.512822 1.056764 0.257575 -0.225181 0.482462 -0.958216 0.520025 0.520825 0.238695 0.481039 -0.166720 0.921763 -0.086758 -0.973537 -0.057651 -0.431895 -0.873693 -0.019052 -0.539156 1.348035 0.200506 0.439804 -0.157422 -0.392304 0.638513 -0.688967 -0.908076 -0.925859 -0.362930 0.175997 0.247168 -0.169115 0.125505 0.177442 -0.138193 0.310070 -0.923316 
HCCDB-18.S136 0.721059 -1.305003 0.289889 0.042079 -0.067224 -0.408044 0.856424 0.447176 -0.291351 0.029452 -0.819060 0.228363 -0.399120 -0.072902 -0.617213 -0.868894 0.649678 -0.490075 -0.065950 -0.423249 0.345614 0.467967 -0.233142 0.437111 0.165456 -0.063563 -0.677516 -0.078129 0.366042 0.035687 -0.173213 0.590509 0.681238 -0.808475 -0.711896 0.183935 -0.666703 -0.199164 0.610207 -0.770373 -0.292980 0.378726 0.332720 -0.747280 -0.185484 0.276706 0.602081 0.517923 -0.872018 -0.219526 0.217014 0.276384 -0.111321 -0.253793 0.186906 -0.674697 -0.070380 0.493518 -0.023053 -0.116090 0.226223 0.177365 0.392963 0.026979 0.896262 -0.439617 0.495465 0.629252 -0.258319 0.468269 -0.126770 1.062519 0.393974 -0.000456 0.613417 0.309982 -0.537556 -1.109725 0.723909 -0.818681 0.704522 0.921286 0.011475 -1.118477 -0.792253 -0.250900 -0.211733 -0.289859 0.839921 0.058458 -0.588222 -0.479549 -0.250885 -0.169781 0.741156 -0.249185 -0.096662 0.217093 -0.446055 -1.151340 0.272232 -0.202591 0.163932 -0.014291 -0.185507 -0.581034 0.352578 0.746096 0.173174 0.221589 0.552163 0.685558 0.275304 0.184359 -0.207864 0.429731 0.310872 -0.165431 0.474164 -0.413143 -0.484312 0.357076 0.298744 0.272565 -0.304098 0.402454 -0.222218 -0.275755 0.701424 -0.401606 0.065580 0.156688 -0.098242 -0.607964 0.306242 0.068961 -1.032386 -0.359176 0.334505 -0.484622 0.560496 -0.631494 -0.859725 -0.226859 0.225712 0.525283 0.190028 -0.075781 -0.181388 0.009754 0.131324 -0.039604 -0.166867 0.494356 0.139786 0.407528 0.274813 -0.782156 -0.612484 -0.304089 0.159701 0.034854 0.389749 -0.713838 0.260377 0.164647 -0.072068 0.748482 -1.198398 -0.610698 0.387884 0.458000 0.728341 -0.220852 0.659822 -0.215099 -0.399401 -0.098576 -0.061567 -0.620753 0.031928 -0.048496 1.561202 -0.370956 0.548265 -0.056048 -0.342190 -0.372857 -0.714729 -0.056409 -1.139214 0.273559 0.018222 0.738809 0.020723 -0.232220 0.625088 -0.480548 0.532869 -0.572657 
HCCDB-18.S138 0.571708 -0.318740 0.015412 0.288325 -0.094069 -0.515092 0.438069 0.905192 -0.151722 -0.170046 -0.561212 0.657011 -0.266512 0.436681 -0.295012 -0.750067 -0.068740 -0.882247 0.202805 -0.222032 0.119939 0.544109 0.140153 0.186594 0.165154 -0.496072 0.052593 -0.263898 0.332933 -0.271756 -0.682113 -0.096510 0.886128 -0.780441 -0.743343 -0.053675 -0.862886 -0.003223 0.113445 -0.387133 0.102907 -0.102810 0.654117 -0.752732 0.078801 0.331532 0.593542 0.480206 0.035888 0.165031 0.744351 0.579520 -0.683484 -0.302890 0.154790 0.018063 -0.087170 0.546792 0.271028 -0.362167 0.583345 0.068961 0.333574 0.479492 0.343830 -0.155622 0.576636 0.831376 0.570019 0.236782 0.080811 0.642142 0.082436 0.235433 0.009415 0.235162 0.314434 -0.385834 0.325359 -0.340999 0.229258 0.488530 0.330173 -0.384023 -0.672839 -0.437328 -0.341084 0.053554 0.335646 -0.058466 0.001012 -0.767856 -0.159076 0.019347 0.762837 -0.395865 -0.414620 0.138852 -0.097306 -0.582918 0.435328 0.408405 0.264060 -0.790583 0.244982 0.431450 0.273602 0.905637 0.090257 -0.101270 -0.068739 1.379978 0.230575 0.545050 -0.145106 0.115141 -0.152720 -0.692778 0.082475 -0.392837 -0.219206 -0.084043 -0.216285 -0.337955 -0.257353 -0.016277 -0.232686 -0.909310 0.796777 -0.341133 -0.268104 0.473694 -0.518066 -0.034153 0.415993 0.716093 -0.414138 0.151744 0.648702 -0.341219 0.662602 -0.255523 -0.769000 0.545022 -0.271884 0.307382 0.426625 -0.102619 -0.351597 -0.484457 0.318499 0.391400 0.414254 0.691823 0.555053 0.459420 0.160199 -0.425420 -0.077040 0.075509 0.005647 0.162530 0.276515 -0.320535 0.497912 -0.015366 -0.026293 0.356391 -1.072491 -0.652117 0.577094 0.141992 0.816199 -0.604362 0.708594 0.262533 -0.307062 0.399865 -0.029160 -0.763411 0.234739 -0.399461 1.381414 -0.061503 0.660148 -0.071283 -0.524317 -0.105238 -0.150328 -0.578483 -1.059512 0.713493 -0.157678 0.437892 -0.756155 0.370577 -0.170246 -0.635350 0.237761 -0.989621 
HCCDB-18.S14 0.615059 -0.540193 0.642230 -0.398195 -0.178124 -0.276743 0.978531 0.222214 -0.698675 0.205008 -0.501278 0.198873 0.406254 1.286095 -0.514909 -1.310204 0.526599 -1.159489 0.098967 -0.695299 0.048138 0.303851 0.450521 1.479608 0.086798 0.408938 -1.285463 -0.664697 -0.471638 -0.082958 -0.336260 0.328221 0.195417 -0.361755 -0.207754 1.132045 0.187438 0.242090 0.339565 -0.343257 0.392721 0.327617 -0.443259 -0.990381 -0.366296 -0.123792 0.993464 1.157411 0.675349 0.372498 0.721059 0.309727 -0.397933 -0.123586 -0.062045 -0.332218 -0.296362 0.848734 -1.118011 -0.140399 -0.326221 -0.613279 0.183390 -0.042324 1.492543 -0.656743 0.747410 0.470442 -0.011506 0.220249 1.014075 0.379802 0.225199 -0.260119 0.112942 0.299129 -0.151050 -0.249907 1.427375 -1.184034 0.036248 0.847626 0.066296 -1.312767 -0.475463 -0.318672 0.025521 0.032802 0.476320 0.497723 -1.236466 -0.671425 -0.806067 -0.042344 0.929810 -0.208447 -0.545497 0.129669 0.984578 -0.394323 0.711577 -0.017863 0.693125 -0.275790 -0.759168 -0.471898 -0.721599 0.540380 0.006209 -0.442307 0.150158 0.535509 -0.279177 0.495973 -0.310500 0.507662 -0.413749 -0.935198 0.742208 -0.598266 -0.165756 0.914411 -0.501771 -0.229885 0.030271 0.075399 -0.199073 0.359137 1.125875 -0.875883 0.075945 -0.049934 0.233229 0.530353 0.123385 -0.623908 -0.166345 -0.255113 -0.147320 -0.296577 -0.373547 -0.377261 -0.255482 1.108930 -0.064400 -0.190418 -0.187683 -0.353265 -0.540154 -0.061291 0.321605 0.177160 -0.002869 0.204385 -0.236620 -0.172343 0.667329 -0.888309 -0.204625 -0.419598 0.075261 -0.264176 0.012534 0.074295 0.436578 0.398514 0.190752 0.505283 -0.972450 -1.127552 -0.264367 0.268066 0.119516 -0.442991 0.369788 0.100669 -0.689072 0.299141 0.672066 -0.718022 0.262325 -0.850856 1.348939 -0.274002 0.196305 -0.242963 -0.349022 -0.439514 -1.234967 -0.893754 -1.393288 -0.293963 -0.928713 0.066816 -0.318937 0.629633 0.106518 -0.354235 0.125061 -0.734262 
HCCDB-18.S140 0.166853 -0.503718 0.570266 -0.158688 0.012059 -0.109235 0.469243 0.389877 0.103546 -0.522644 -0.095859 0.119235 -0.208728 0.662096 -0.823382 -0.722853 -0.091930 -0.910214 0.049184 -0.133297 -0.988409 0.907633 0.241327 0.772153 -0.041242 -0.489832 0.112777 -0.070438 -0.046578 0.608133 -0.319184 0.339582 0.912585 -0.909837 0.148439 0.304827 -0.192765 -0.602018 -0.183832 -0.505005 0.339798 0.157720 0.454352 -0.108449 -0.077043 -0.389144 0.056740 0.883921 -0.128694 -0.410743 0.230203 0.320867 -0.321100 -0.485013 -0.026805 -0.282896 0.279676 0.308849 0.258328 -0.067434 0.354718 -0.495253 -0.065490 0.259470 0.807739 0.395844 -0.073872 0.565880 -0.102337 0.537692 0.015184 0.909597 -0.014928 0.038101 0.078583 -0.328288 -0.381568 -0.611687 0.382763 -0.431795 0.571193 0.481381 0.013600 -0.981337 0.102786 -0.687613 -0.565929 -0.136443 -0.152909 0.334631 0.011425 -0.132615 -0.236696 0.072361 1.259227 -0.173647 -0.340175 0.777507 -0.478461 -0.374308 0.440939 -0.753108 0.028423 -0.170483 0.336554 0.472971 0.348038 0.324650 -0.555531 0.237330 0.097023 1.333739 0.067093 0.239543 0.057245 0.432421 -0.112428 -0.531729 0.436856 -1.025773 -0.032215 0.527739 0.381782 -0.210647 -0.101479 0.423890 0.147092 -1.113810 0.732997 -0.217247 -0.416314 0.615734 -0.011348 -0.046498 0.239184 0.488506 -1.027397 -0.075105 0.645517 -0.126890 0.526442 -0.845819 -0.118184 0.839703 -0.098203 -0.067348 0.252088 0.659982 -0.357139 0.048776 0.252376 -0.475682 0.304429 -0.138878 0.522098 -0.041658 0.827043 -1.141465 -0.136863 -0.174773 0.428526 -0.404957 -0.308204 0.149799 0.119214 0.499440 -0.252099 0.956715 -0.871653 -0.626777 0.132629 0.169705 0.403864 -0.230042 0.954408 0.192322 -0.696432 0.294166 -0.433262 -0.592558 -0.333325 -0.388032 0.861892 -0.252455 0.828979 0.622623 -0.686113 -0.820974 -0.395714 -1.407783 -1.505028 0.751356 0.240671 0.522937 -0.156325 0.809608 0.286065 -0.570263 -0.203339 -0.720657 
HCCDB-18.S142 0.172028 -0.277247 0.048762 0.336227 -0.052854 -0.366329 0.913742 0.886106 -0.111800 -0.091555 -0.414226 0.003070 -0.132003 0.191021 -0.500026 -0.515728 -0.207182 -0.668262 -0.010487 -0.519600 0.051286 0.328995 0.102622 0.509235 -0.021429 -0.191821 0.048824 -0.215290 0.168022 0.380173 -0.654796 0.150432 0.733096 -0.893808 -0.430936 0.224722 -0.472703 -0.202141 -0.206757 -0.429859 -0.015962 0.405121 0.276734 -0.439646 -0.113921 -0.086311 0.336938 0.710925 0.071918 -0.101314 -0.141898 0.185605 0.015093 -0.388946 0.152310 -0.436350 0.059155 0.275335 0.234185 -0.296145 0.364326 0.116002 -0.186145 0.184105 0.434122 -0.252899 0.272139 -0.134616 0.274556 0.307748 -0.032984 0.002304 0.030678 0.213792 0.009940 -0.021455 0.160263 -0.901247 0.356169 -0.296929 0.166614 0.215007 0.073161 -0.915138 -0.641360 -0.315533 0.136127 -0.169084 0.258481 0.165046 -0.331173 -0.755550 -0.223087 -0.062375 0.789846 -0.602063 -0.667890 0.399395 0.388717 -0.725732 0.441452 0.167990 0.283151 -0.416555 -0.044998 0.166016 -0.058153 0.929825 0.253683 -0.141816 0.432658 0.898738 0.259020 0.172667 -0.358573 0.239855 -0.020744 -0.635362 0.133133 -0.435396 -0.053289 -0.000508 0.086758 0.139022 0.212303 -0.076215 -0.196368 -0.437379 0.583937 -0.299420 -0.372294 0.293270 -0.268600 -0.162761 0.356477 0.599576 -0.498152 -0.218092 0.694198 -0.612244 0.216054 -0.238644 -0.393084 0.574280 -0.407396 0.030696 0.601731 0.346549 -0.365465 -0.500015 0.311803 -0.477529 0.527865 0.167832 0.163220 0.509006 0.272236 -0.900294 0.136355 -0.200736 0.382848 0.053189 0.030461 -0.040729 -0.125530 0.135428 -0.023114 0.627130 -0.981769 -0.444718 0.396055 0.410413 0.578326 -0.382753 0.516620 -0.226075 -0.912166 -0.176230 -0.150933 -0.296247 -0.506751 -0.572267 1.366166 -0.411729 0.565394 -0.185583 -0.143803 -0.398907 -0.364442 -1.353351 -1.086417 0.804166 0.026912 0.427037 0.002857 0.600501 -0.034758 -0.506133 0.084258 -1.068891 
HCCDB-18.S143 0.011596 -0.325636 -0.115918 0.095774 -0.134568 -0.573391 0.473404 1.027096 -0.197171 -0.189480 -0.431507 0.140014 -0.165223 0.458393 -0.770847 -0.191859 0.275335 -0.884353 0.138152 -0.618582 -0.335613 0.414275 0.102040 0.769371 0.179350 -0.371113 -0.342625 -0.066762 0.234477 0.305038 -0.230809 0.322985 0.842545 -0.674881 -0.466521 0.289773 -0.444765 -0.289159 0.363203 -0.159708 0.197691 0.289331 -0.139197 -0.404400 0.343052 -0.261921 0.188244 0.896068 0.110188 -0.232742 0.284411 0.125284 -0.327863 -0.195555 0.163327 -0.402683 0.097903 0.296280 -0.203148 -0.355650 0.285854 -0.168208 -0.023711 -0.115950 0.520177 -0.229812 0.439768 0.171514 0.020843 0.189398 -0.225622 0.842644 0.353894 0.006162 0.078116 -0.176271 -0.033109 -0.634187 0.082165 -0.250594 0.110135 0.880140 0.153847 -0.913565 -0.664563 -0.404765 -0.384116 0.037749 0.634056 0.284918 -0.195257 -1.081840 -0.282685 -0.067232 0.792834 -0.185183 -0.884767 0.452004 0.836383 -0.649241 0.414847 -0.165657 0.675818 -0.438391 -0.434456 -0.215931 -0.163774 0.893544 -0.037766 0.005717 0.072847 0.537046 0.114840 -0.054230 0.311310 0.245723 -0.093780 -0.433564 0.140743 -0.903851 0.185833 -0.041954 -0.409728 0.229931 -0.018856 0.223646 -0.054101 -0.477029 0.846360 -0.602425 -0.125544 0.055450 -0.597477 0.119005 0.203859 0.386916 -0.568240 -0.083273 0.388452 -0.778816 0.424441 -0.240125 -0.177351 0.209460 -0.454222 -0.181039 0.626362 0.176496 -0.013206 -0.034181 0.072324 0.204241 0.182430 -0.020558 0.274239 0.295588 0.822387 -1.038543 0.354304 -0.399650 0.082414 -0.108651 0.090550 -0.106466 -0.255916 0.070992 0.280706 0.710056 -1.149256 -0.275962 0.435565 0.650585 0.379285 -0.360077 0.378271 -0.148299 -0.225664 -0.012574 -0.070051 -0.408261 -0.195747 -0.401472 1.317165 -0.003473 0.295947 -0.102324 -0.347267 -0.515999 -0.353684 -0.768514 -1.330085 0.851148 0.451033 0.430253 -0.342587 0.136690 -0.097251 -0.644924 0.147081 -0.587883 
HCCDB-18.S145 0.437145 -0.117927 0.621676 0.649814 -0.047368 -0.430104 1.177586 0.532275 0.059835 -0.385816 -0.661942 0.771259 -0.279911 0.602506 -0.949663 -0.194750 -0.051139 -1.385585 0.579141 -1.711840 0.444025 0.235891 -0.533237 0.984351 0.262544 -0.391329 -1.149636 -0.053965 -0.036637 0.278048 -0.759209 0.372336 1.024508 -0.792874 -0.594640 -0.146776 -0.201701 -0.043605 0.434685 0.277760 0.660278 -1.133588 -0.015126 -0.324164 0.667011 0.228595 0.273300 0.581661 0.121834 0.076175 0.397529 0.099431 0.612608 -0.468567 0.003567 -0.210494 0.246618 1.367526 -0.935827 0.554935 -0.232606 0.679200 -0.019509 0.242774 1.478821 -0.272076 0.536954 0.523374 -0.120975 -0.043043 -0.038301 0.347721 -0.321303 -0.104944 0.524588 0.366188 -0.071023 -0.376371 0.480497 -0.255159 0.549330 0.597421 -0.865503 -0.928364 -0.920312 -0.463381 -0.986850 -0.805489 -1.097633 -0.321988 -1.397465 -0.623717 -0.880578 0.115166 0.535363 0.618170 -0.522452 0.972184 1.185577 -0.427520 0.429399 0.312170 -0.199455 -0.420956 -0.749488 0.519930 -0.315625 0.848147 -0.199059 0.135132 -0.081684 0.388007 0.939165 0.185437 -0.625127 -0.136724 -0.105316 -0.809723 -0.016470 -0.153233 -0.181509 -0.248193 -0.495963 -0.507118 -0.292816 0.117722 -0.084966 -0.330748 0.763005 -0.635600 -0.257231 0.981870 -0.183458 -0.520047 0.579685 -0.472664 -1.433584 -0.657970 0.864039 0.194618 -0.168852 -0.334285 0.655950 0.309921 -0.660550 -0.188594 -0.231616 -0.211216 0.934795 -0.413358 0.892250 0.411238 0.173881 -0.445418 -0.784357 -0.269397 0.061702 -1.213010 0.003484 -0.378851 0.576041 -0.181912 0.203231 0.463957 0.284381 -0.144392 0.193254 0.092977 -1.298857 -1.258879 -0.331818 0.896998 -0.003993 -0.409653 0.582554 0.812502 -0.930464 0.999742 -0.569546 -0.151156 -0.061788 -0.449362 1.332269 -0.441919 0.494553 -0.169779 -0.362796 -0.537598 -0.805478 -0.863803 -0.430769 -0.177369 0.086244 0.455899 -0.478566 -0.060454 0.112335 0.020545 -0.695931 -1.211433 
HCCDB-18.S147 0.098148 -0.328506 0.196843 0.226227 -0.214802 -0.794322 1.202451 0.724190 -0.111151 -0.476878 -0.365334 -0.290567 0.016533 0.166418 -0.514351 -0.456142 0.214605 -0.821456 0.160603 -1.133560 0.052056 0.331929 0.029695 0.877151 0.067734 -0.405782 -0.200893 -0.351355 -0.185312 0.045709 -0.255779 -0.227105 0.942198 -0.642910 -0.371909 0.148463 -0.180976 -0.187258 0.321647 -1.128880 0.260310 0.074707 0.733362 -0.893014 0.149431 0.023557 0.420283 0.886717 -0.268609 0.125669 0.229538 0.246176 0.019154 -0.530325 0.436128 -0.580628 -0.104868 0.601883 -0.218807 -0.152713 0.285644 -0.213638 0.277459 0.419986 0.401800 -0.214163 0.173220 0.506420 0.310170 0.315533 0.263370 0.268810 0.242270 0.432670 0.184169 0.317069 0.093264 -0.668598 0.665168 -0.330035 0.107854 0.619218 -0.237905 -1.082720 -0.483681 -0.082203 -0.395425 -0.012016 0.133998 -0.178559 -0.680153 -0.966461 -0.223474 -0.112050 0.604098 -0.345443 -0.014663 0.476436 0.154151 -1.046922 0.670365 0.255391 0.303196 -0.222238 -0.291543 -0.113681 -0.092012 0.505789 -0.282905 -0.153232 0.165328 0.490244 0.340399 0.039918 -0.163733 0.070053 -0.008725 -0.693235 0.209348 -0.435638 0.073166 0.246639 0.144752 0.402218 -0.040230 0.428561 -0.018642 -0.623901 0.227623 -0.350714 0.086286 0.029835 0.160816 0.181191 0.399436 -0.024826 -0.651141 -0.256034 0.564420 -0.909254 0.053397 0.021270 0.128534 -0.021841 -0.304347 0.033954 0.782921 0.382124 -0.608244 0.111546 0.381144 -0.054664 0.379757 0.267777 0.343501 0.647379 0.173338 -0.806118 0.089738 -0.438853 0.535121 -0.060440 0.607770 0.292422 -0.013237 0.120873 0.071509 0.745290 -0.770034 -0.208150 0.146859 0.351092 0.413053 -0.329960 0.479840 0.144811 -0.378848 0.197160 -0.311190 -0.661995 -0.091874 -0.283740 1.172255 -0.177849 -0.045347 -0.057900 -0.776330 -0.471580 -0.565459 -0.967424 -0.856693 0.780534 -0.116307 0.566441 -0.399612 0.403448 -0.647033 -0.295160 -0.265796 -0.537047 
HCCDB-18.S149 0.020224 -0.726765 0.035266 -0.210173 -0.850478 -0.351104 1.535894 1.150923 0.265159 -0.123740 0.008473 0.662397 -0.180371 0.078477 0.193600 0.552138 0.322769 -0.496610 0.353944 -0.190619 -0.743498 0.181787 0.402143 0.385540 0.768484 -0.503055 -0.035589 -1.007898 -0.093917 -0.298880 -1.240729 0.731120 0.615527 -1.236920 -0.488604 0.393517 -0.047911 0.228506 -0.233327 -0.128412 0.392761 0.092830 0.573228 -0.711318 -0.367305 0.463915 0.298137 0.786937 0.545591 -0.688452 0.218012 0.577162 -0.291867 -0.055898 0.579770 -1.461326 0.213542 0.697281 -0.522342 0.122251 -0.435789 0.184674 -0.527941 0.014678 0.388149 -0.437230 0.880404 0.982044 -0.474136 0.185605 -0.219827 1.029653 0.478365 0.496776 0.529729 0.136037 -0.898105 -1.179966 0.633294 -0.995971 -0.026344 -0.795844 -0.607959 -0.351020 -0.453709 -0.325713 -0.256248 -0.827731 0.081918 -0.552230 -0.904468 -1.418027 -0.156214 -0.314924 -0.795031 -0.145767 0.183741 0.292892 0.310059 -0.952567 0.371421 -0.083507 0.597932 0.404761 0.144731 -0.251200 -0.225589 0.456587 0.461027 -0.607549 -0.058562 1.570476 0.508428 -0.359039 0.347942 -0.433186 0.122824 -0.638362 0.289482 -0.526592 0.413356 0.537631 0.225693 0.856005 -0.832400 0.056987 -0.378443 -0.508928 1.148192 -0.506393 -0.812911 -0.376677 -0.570051 0.124837 0.231050 -0.513106 -0.486778 0.240676 0.358734 -0.579812 -0.244147 0.178151 -0.359724 0.949663 -0.301059 0.765510 0.751439 -0.051482 0.181681 -0.683282 1.114918 0.656364 0.089132 0.532748 0.767672 -0.310541 0.291120 -0.734690 0.082207 -0.680335 0.591876 0.248623 -0.675668 0.693192 0.113523 -0.117627 0.003748 0.407184 -0.406809 -0.466525 0.843890 0.696541 0.229340 -0.031871 0.227236 0.260502 -1.432357 0.080280 -0.664339 -0.648990 -0.679709 -0.435906 0.130311 -0.186553 0.347987 0.249752 0.111495 -0.822087 -0.531091 -1.223153 -1.352526 1.310835 0.026889 0.754339 -0.083129 0.494403 0.668697 -0.459780 0.132156 -0.833943 
HCCDB-18.S15 0.865773 -0.630030 0.097762 0.037676 -0.136103 -0.151841 0.482877 0.498400 -0.173000 0.330644 -0.472370 -0.502247 0.009588 0.235865 -1.140375 -0.514135 0.523271 -0.720855 -0.441476 -1.083428 0.907137 0.846735 -0.303858 0.434570 0.674347 -0.589467 -0.254888 -0.221481 0.345708 0.293186 -0.329135 0.245346 0.953657 -0.341647 -1.269734 0.529233 -0.453025 0.113894 0.512104 -1.150443 0.815583 0.130279 -0.235125 -0.250997 0.459762 0.313605 0.013703 0.728220 -0.260062 -0.440624 -0.445677 0.165569 -0.721267 -0.531958 0.162476 -0.210757 0.103571 0.636712 -0.471299 0.137131 -0.165472 -0.613899 -0.488342 -0.116694 0.949710 -0.890086 1.000419 0.523458 -0.229517 0.161137 0.322552 1.247169 0.258572 0.753767 -0.342820 0.658988 -0.022712 0.000551 0.361061 -0.353427 -0.024997 0.444207 -0.401565 -1.385108 -0.291710 -0.433076 -0.593899 -0.088996 -0.316420 0.502970 0.156015 -1.054446 -0.419242 -0.103285 0.569592 -0.369937 -0.136788 0.258575 0.357463 -0.560738 0.365518 -0.585547 -0.391801 0.123142 -0.632652 -0.234374 0.748006 0.655219 0.536377 -0.627994 0.130195 0.808065 0.173249 -0.175684 0.121403 -0.014992 -0.557501 -0.511398 0.904966 -0.058294 0.232821 0.315241 0.657553 0.049945 0.033859 -0.386148 -0.081870 -1.805367 0.714663 -0.318809 -0.446784 0.340951 -0.675529 -0.202405 1.087092 0.457684 -0.853222 -0.236430 0.378781 -0.385420 -0.227461 -0.311515 -0.010418 0.782898 0.025659 -0.082604 0.217925 0.121344 -0.931988 -0.234649 0.342850 0.102326 0.173840 -0.169871 -0.187721 0.151505 0.338644 -0.291250 -0.291346 -0.073479 0.180631 -0.109882 -0.110532 0.047339 -0.181634 -0.101775 -0.971994 0.058403 -1.072842 -0.455704 0.157341 0.190949 0.287737 -0.448726 0.623010 -0.111689 -1.366972 0.186659 -0.725461 0.496918 0.460461 -1.267036 0.928024 -0.079990 -0.158365 -0.415638 -0.060129 0.243468 -0.715163 -0.917231 -0.872562 0.723384 1.028145 0.593519 -1.159740 -0.007166 0.280154 -0.607206 0.038424 -0.549006 
HCCDB-18.S151 0.248009 -0.160376 -0.054305 0.381146 -0.157633 -0.337557 0.868996 0.694031 -0.180238 -0.300346 -0.597622 0.222538 -0.221696 0.109240 -0.229224 -0.271823 0.261452 -1.010529 0.379465 -0.723797 0.199699 0.564229 0.373071 0.458711 -0.149328 -0.293114 0.138363 -0.210962 0.207715 0.303336 -0.731528 0.651802 0.783879 -0.736522 -0.294333 0.244372 -0.755064 -0.128831 0.019791 -0.176656 -0.054939 0.058273 0.516599 -0.663467 -0.161539 0.143944 0.480558 0.869259 -0.065381 -0.219997 0.370740 0.112310 -0.422971 -0.609319 0.421725 -0.526080 -0.100204 0.477262 0.287705 -0.313362 0.435970 -0.042718 -0.098794 0.655630 0.504787 -0.749936 0.524352 0.015379 0.433276 0.245530 -0.123480 0.800154 0.370889 0.279085 -0.111918 0.444969 0.080714 -0.308065 0.173095 -0.485933 0.668766 0.529581 -0.090153 -0.761012 -0.593305 -0.386693 -0.233071 0.032086 0.236993 0.550189 -0.518841 -0.553613 -0.034892 0.101184 0.461007 -0.212359 -0.475545 0.340403 0.175399 -0.991022 0.381319 0.268720 0.221925 -0.085332 -0.443340 0.096277 -0.305953 0.721410 -0.473905 -0.037333 0.198622 0.415428 0.356700 0.005194 -0.024762 -0.008291 -0.358563 -0.630451 0.286096 -0.532818 -0.207037 -0.013630 0.137226 0.010841 0.037361 0.129735 -0.213478 -0.442761 0.603635 -0.219431 0.206056 0.342350 -0.321383 0.251602 0.135814 0.369396 -0.495379 -0.081037 0.392562 -0.624739 0.295321 -0.342806 -0.119112 0.434165 -0.348293 0.052642 0.427907 0.336062 -0.350232 -0.195621 0.261342 -0.031728 0.315858 0.297453 0.157593 0.379851 0.448703 -0.775409 0.421694 -0.222068 0.434893 -0.067130 0.081073 -0.105726 -0.172862 0.079961 0.173993 0.518937 -1.341663 -0.400375 0.192073 0.831326 0.433788 -0.403696 0.237998 -0.045839 -0.580983 0.154558 -0.308320 -0.551341 -0.021987 -0.203934 1.088194 -0.041036 0.004276 0.282694 -0.318722 -0.923048 -0.309151 -0.928385 -1.096210 0.825530 0.115583 0.471916 0.092439 0.054553 -0.322355 -1.003260 -0.105721 -0.714123 
HCCDB-18.S153 0.772539 -0.781011 0.377469 -0.552113 0.414570 -0.251653 1.014292 0.814186 0.066681 0.095543 -0.228131 -0.324397 -0.313533 0.424057 -0.242465 -0.476686 0.362637 0.005857 0.000244 -0.943280 0.272104 0.877194 0.147943 0.921108 -0.286486 -0.612297 -0.369112 0.078243 0.549084 0.027088 -0.719709 0.147457 0.731450 -0.505465 -0.549086 0.378384 -0.492134 0.390691 0.167054 -0.795042 -0.102303 0.471997 0.401738 -1.032941 0.353559 -0.540880 0.224129 1.110600 -0.040256 -0.091362 0.438501 0.095617 0.480825 0.138530 0.540567 -0.804186 0.322721 -0.158277 -0.187284 0.576003 0.289675 -0.299891 -0.269756 0.169628 0.684123 -0.287525 1.061808 0.400438 -0.033372 0.454260 -0.167974 0.771278 -0.391921 0.079279 -0.138688 0.881941 -0.124341 -0.595545 0.675719 -0.959899 0.394327 -0.006477 0.068241 -0.754024 -0.787931 -0.559164 -0.149818 0.103846 -0.488197 0.224244 -0.115392 -0.844777 -0.945342 -0.032403 0.405599 -0.305458 0.176485 0.502557 0.053969 -0.270632 0.432261 0.155646 0.163462 -0.217897 -0.396243 -0.023571 0.072916 0.723439 0.067543 0.379385 0.314161 0.959928 0.335816 0.100659 -0.141693 0.212888 -0.133336 -1.151578 0.040440 -0.275846 -0.003637 0.345018 0.448569 0.306414 -0.311809 -0.062942 0.263710 -0.827324 0.918778 -0.367725 -0.640440 0.468218 0.127301 0.138653 0.286479 1.128325 -0.298292 -0.042359 0.597612 -0.619563 0.258889 -0.327934 0.098056 -0.160799 -0.112539 -0.331432 0.681298 -0.433366 -0.975516 -0.390471 0.304870 -0.430571 -0.220651 0.474064 0.291158 0.096504 0.354178 -0.440607 -0.469861 -0.201030 0.121101 -0.349717 0.000712 -0.627203 0.500118 -0.010756 -0.250820 0.701903 -0.741533 -0.337857 0.359975 0.381759 0.420988 -0.144864 0.589754 -0.324630 -1.808454 -0.099565 0.050064 -0.760027 0.041603 -0.262952 1.441654 -0.642461 0.464740 0.125875 -0.349664 -0.995452 -1.203038 -0.631331 -0.818077 0.156875 -0.261203 0.170321 -0.185054 0.217819 0.336021 -0.594008 1.020656 -0.601994 
HCCDB-18.S154 0.346186 0.139946 0.367714 0.155650 0.401548 -0.127835 0.598438 0.988122 -0.195921 -0.108773 -0.783690 0.499735 0.002675 -0.057757 -0.129993 -0.257861 0.451484 -0.992053 0.068753 -0.294811 -0.144050 0.468013 0.086785 0.348212 0.018181 0.046986 -0.130250 -0.557576 -0.130955 -0.214463 -0.533334 0.239902 0.531351 -0.360211 -0.283661 0.286352 -0.157706 0.309357 -0.019117 -0.579436 0.194795 0.222946 0.097028 -0.776549 0.087601 0.424640 0.017652 0.774833 -0.221612 0.001331 0.147336 0.114020 -0.117530 -0.132799 0.292609 -0.301378 0.624111 0.525127 -0.080141 0.192153 0.122997 -0.384244 0.250586 0.408117 1.279369 -0.454320 0.086935 -0.080208 -0.043854 0.289069 0.310874 0.285549 0.085883 -0.080472 -0.205309 0.213657 -0.395060 -0.587476 0.347457 -0.600178 0.392580 0.375366 0.205177 -0.587883 -0.209657 -0.139184 -0.527538 -0.112287 -0.038595 0.009513 -0.872905 -0.723779 -0.503377 -0.179939 1.167562 -0.249617 -0.395524 0.145092 0.442015 -0.673070 0.116436 0.135110 0.178985 -0.537234 -0.703540 0.315800 0.488484 0.776066 -0.058301 -0.280516 0.216909 0.635546 0.526467 0.638304 -0.839686 0.241905 -0.265799 -0.634547 0.408316 -0.672683 0.301285 -0.011863 -0.040602 -0.096197 0.440977 0.103442 -0.365367 -0.488786 0.722520 -0.430815 -0.387898 0.627205 -0.056306 -0.071836 -0.415166 0.282506 -0.906045 0.136984 0.876447 -0.899287 0.437591 -0.432419 -0.484186 0.515521 -0.330183 0.432631 1.342852 -0.104633 -0.587138 -0.360779 0.463574 0.322244 0.203681 0.120882 0.615105 -0.175906 0.547470 -0.807223 0.363531 -0.576786 0.126027 -0.228982 0.198933 -0.218865 0.370496 0.476457 -0.133508 0.802774 -1.026710 -0.175272 0.541863 0.364481 0.366122 -0.128696 0.487509 0.345648 -0.724365 0.315346 -0.293922 -0.477127 0.020676 -0.643529 1.504492 -0.099017 0.131672 0.101967 -0.250297 -0.577560 -0.190336 -0.860568 -0.712645 0.823522 0.196807 0.173930 -0.175226 0.438489 -0.126391 -0.835723 0.080241 -0.856807 
HCCDB-18.S156 0.140260 -0.232335 -0.054101 -0.207451 -0.325672 -0.444803 0.469342 0.460372 -0.131967 0.041701 -0.403324 0.125604 -0.307979 0.363018 -0.741878 -0.726765 0.284414 -1.174075 0.279873 -0.527052 0.225151 0.468938 -0.355503 0.061178 0.118666 -0.054518 -0.619332 -0.023202 0.384361 0.149444 -0.291740 0.472135 0.886358 -0.329950 -1.027608 0.606223 -0.290483 -0.212409 0.363594 -0.358655 0.765498 0.400729 0.191492 -0.174902 -0.107818 0.831251 0.477234 0.480832 -0.223676 0.499710 0.015392 0.405300 -0.752853 -0.544311 0.269140 -0.108485 -0.271577 0.395028 -0.168643 0.017190 0.305212 -0.190446 -0.047350 0.299467 0.340337 -0.660890 0.993198 0.281797 0.220252 -0.024103 -0.204951 0.793885 0.395820 0.069363 0.044242 0.239611 -0.228964 -0.274132 0.963491 -1.111593 0.388681 0.163519 0.001385 -0.964667 -0.472969 0.180859 -0.457751 -0.523901 -0.395109 0.501693 -0.047664 -0.420329 0.058327 -0.320954 0.257573 -0.116817 -0.190358 0.485142 0.092090 -0.912785 0.186078 0.071485 -0.037358 -0.897756 -0.503516 -0.170057 0.175930 0.854929 -0.361700 0.018901 0.186136 0.671606 0.474483 0.196525 0.371475 -0.139453 0.003088 -0.634102 0.638970 -0.945428 -0.061780 0.443226 0.545431 -0.001010 -0.126771 -0.150087 0.243547 -0.851030 0.797471 -0.242198 0.236205 0.031261 0.180191 -0.304027 -0.010372 0.269717 -0.622320 0.140838 -0.011738 -1.025519 0.398413 -0.625371 -0.178013 0.140029 -0.149947 -0.407615 0.510084 0.042629 -0.399248 -0.062971 0.460242 0.522959 0.296752 0.138840 0.181776 0.141724 0.210615 -0.650979 0.589842 -0.146706 0.415086 -0.206931 -0.000291 -0.058230 -0.207218 0.028043 0.029013 0.362816 -1.194070 -0.551398 0.472854 0.293452 0.348982 -0.231980 0.334344 0.055989 -0.809981 0.464350 -0.216029 -0.505790 -0.118774 -0.826002 1.051563 0.171272 0.121366 0.116457 -0.674060 -0.438017 -1.139824 -0.641569 -1.098305 0.894042 0.213249 0.535446 -1.137163 -0.216113 -0.314737 -0.454188 -0.212310 -0.988734 
HCCDB-18.S158 0.255492 -0.306398 -0.058988 0.019208 0.252202 -0.819894 0.499924 0.645654 0.052803 -0.189938 -0.447456 0.172899 -0.338354 0.275842 -0.345427 -0.086266 -0.068214 -0.811398 0.180020 -0.633768 -0.509127 -0.047950 0.272276 0.233656 0.075914 -0.245460 -0.094093 -0.606764 0.082789 0.596336 -0.449948 0.383216 0.898251 -0.698725 -0.299981 0.621638 -0.174551 -0.330374 -0.236774 -0.299480 0.215875 0.447130 0.595669 -0.280267 0.038857 0.242808 0.199484 0.844606 -0.302899 -0.261136 -0.181641 -0.231204 -0.087452 -0.247045 0.016189 -0.127338 0.060755 0.023598 -0.356381 0.381402 0.408679 -0.287165 0.155837 0.139849 0.385027 -0.177259 0.414686 0.201239 0.200423 0.158412 -0.146248 0.355103 0.459104 0.258540 -0.005869 -0.266948 -0.146211 -0.494287 0.534786 -0.785347 0.580097 0.148759 0.098883 -0.862777 -0.227847 -0.050658 -0.221611 -0.455199 0.153322 0.060321 0.225005 -0.716950 -0.095558 -0.524334 0.853684 -0.091751 -0.449698 -0.052240 0.252093 -0.718554 0.361518 -0.051905 0.453042 -0.147519 -0.090217 0.127357 0.010485 1.186787 0.035632 0.110066 0.344886 0.998697 0.198297 0.114771 0.240706 0.182254 0.066547 -0.654010 0.262417 -0.019794 -0.290051 0.244715 -0.082755 -0.066576 0.202905 0.111366 -0.157668 -0.542385 0.703471 -0.369825 -0.480982 0.185650 -0.530604 0.023034 0.148813 0.135257 -0.329163 0.077545 0.823733 -0.418300 0.322405 -0.230235 -0.101994 0.563257 -0.248172 0.066376 0.287026 0.157414 -0.331637 -0.496660 0.551984 -0.422085 0.471461 0.100998 0.781116 0.198783 0.571867 -0.795364 -0.161892 -0.457711 0.107454 0.063008 -0.283569 -0.123903 -0.062133 0.217487 -0.282494 0.647987 -1.784803 -0.655082 0.213251 0.389730 0.605188 0.163821 0.566720 -0.048895 -0.798651 -0.018537 0.006402 0.170390 -0.023374 -0.826290 1.270764 -0.145695 0.487043 -0.071981 -0.161844 -0.699531 -0.652283 -1.294911 -1.341312 1.083307 -0.343319 0.563918 -0.361035 0.245887 -0.169043 -0.139097 -0.076218 -0.955434 
HCCDB-18.S160 -0.061651 -0.278690 -0.086729 0.054566 0.087782 -0.990835 0.387366 0.160986 0.041196 -0.575487 -0.678979 0.553021 -0.364585 0.542632 -0.466779 0.011314 -0.254006 -1.107495 0.419896 -0.668277 -0.118058 -0.025231 0.176218 0.475301 0.172090 -0.350150 -0.473343 -0.972948 0.544165 0.032930 -0.391594 0.673922 0.750241 -0.621750 -0.505608 0.617931 -0.126329 -0.099026 -0.446941 -0.117202 0.190901 0.058457 1.018698 -0.652374 -0.655314 0.288618 0.254791 0.478281 -0.316543 -0.150684 0.068638 -0.205022 0.099863 0.143104 0.038587 0.202797 -0.305400 0.637124 -0.337818 0.678788 0.468834 -0.150163 -0.144067 0.048351 0.900117 -0.153255 0.863074 0.912073 0.234870 -0.057404 -0.183353 0.638530 0.591453 0.090879 0.181030 -0.202807 -0.217106 -0.445874 0.430073 -0.974923 0.746940 0.387004 0.083752 -0.835780 -0.379336 0.046486 -0.538497 -0.345032 -0.017616 -0.035787 0.120527 -1.083773 -0.447351 -0.604296 0.922471 0.112545 -0.400568 0.184723 -0.008397 -0.304721 0.260005 -0.079211 -0.099800 -0.116450 -0.158720 -0.468742 0.028368 1.534954 -0.210609 0.051312 0.278900 1.170770 0.239716 0.255031 0.237133 0.003817 0.403315 -1.090539 0.067646 0.543612 0.054179 0.479737 0.527591 0.481950 0.197332 -0.306937 0.120072 -0.504737 0.523457 -0.274353 -0.441454 -0.158742 -0.442626 0.567209 -0.036185 -0.562233 -0.177783 0.103077 0.653591 -0.157042 0.237375 0.360456 0.186761 0.726428 -0.276545 0.289652 0.201275 -0.106865 -0.718029 -0.119320 -0.148137 -0.367935 0.428040 -0.091749 0.877770 0.102204 0.890835 -0.384549 -0.598091 -0.555915 0.354078 -0.093560 -0.375685 -0.030678 0.287146 -0.078729 -0.394681 0.739421 -1.792834 -0.684175 0.383053 0.568617 0.892682 0.032781 0.441642 -0.056164 -0.249115 -0.050202 -0.305149 0.333675 -0.267371 -0.462575 0.809674 0.181036 0.317479 -0.157471 -0.415904 -0.735201 -0.684044 -1.141271 -1.668144 0.888913 -0.124147 0.716280 -0.600400 0.398016 -0.285963 0.072348 -0.215372 -0.897197 
HCCDB-18.S162 0.214182 -1.010027 0.454080 -0.447975 -0.176813 -0.504480 0.791304 0.838563 -0.680303 -0.120643 -0.233005 -0.057064 0.116987 0.383598 -1.090562 -0.858148 0.456837 -0.128817 -0.144379 -0.705066 0.204858 0.833349 0.222460 0.571650 -0.245935 -0.068574 -0.640448 -0.041315 0.001347 -0.005053 -0.716675 0.113231 1.623572 -0.604283 -0.579858 0.596978 -0.479383 0.135925 0.491684 -0.183969 -0.295977 -0.024995 0.200862 -0.860048 0.282630 0.609453 0.554612 1.564542 0.009614 -0.311930 0.369718 0.390018 -0.412650 -0.000373 0.460641 -0.529670 0.092180 0.590776 -0.478012 0.221440 0.107805 -0.258380 0.041953 -0.152626 0.604144 -0.444799 1.127048 0.391449 -0.566652 0.209831 -0.172250 1.238686 0.124931 0.389420 0.277847 0.249891 0.112517 -0.480721 0.656128 -0.985440 0.533721 0.548669 0.245995 -0.725481 -0.846148 0.187260 -0.480583 -0.103348 0.116204 0.260508 0.222030 -1.021089 -0.416895 0.294000 0.433063 0.192674 -0.192976 0.480000 0.096342 -0.582371 0.449866 0.436481 -0.000224 0.144848 -0.326566 0.310559 0.144989 0.929041 -0.096557 0.530342 0.692210 0.860319 0.277001 0.487802 0.024470 -0.052974 -0.303623 -0.976163 0.152673 -0.370556 -0.205647 0.699077 0.729569 0.432207 -0.452441 -0.091038 0.231861 -0.443117 0.836681 -0.433389 -0.062075 0.364367 -0.101315 -0.332681 0.577724 0.678678 -0.474383 -0.294457 0.273252 -0.854342 0.222373 -0.555593 -0.754590 -0.302839 -0.146905 -0.022294 0.869209 -0.304170 -0.271260 0.328834 0.435821 -0.479145 0.135047 0.574655 0.371340 0.128342 0.431839 -0.163498 -0.092326 -0.398612 -0.061818 0.222584 0.372487 0.083891 0.343654 0.309587 -0.290894 0.340987 -1.175696 0.485189 0.383528 0.314249 0.655868 -0.203052 0.430773 0.200654 -0.551820 0.352734 0.050895 -0.619839 0.373802 -0.278094 1.508264 -0.540384 1.141553 0.027773 -0.487454 -0.088992 -0.704400 -0.723801 -0.577314 -0.099437 -0.186647 0.619686 -0.204781 0.019601 -0.059306 -0.170271 0.112229 -0.791549 
HCCDB-18.S164 0.473166 -0.029940 -0.044410 0.312249 -0.104231 -0.539018 0.927978 0.822791 -0.069291 -0.028894 -0.419616 -0.196939 0.057729 0.041885 -0.529734 -0.269085 0.193133 -0.818929 0.208718 -0.818784 0.002719 0.364163 0.153914 0.285466 0.169691 -0.236112 0.002845 -0.212024 0.220632 0.415740 -0.742621 0.386265 0.777606 -0.784912 -0.409629 0.117611 -0.445750 -0.494936 0.072545 -0.571693 0.113753 0.238765 0.376208 -0.303863 -0.112105 0.336073 0.286656 0.621773 0.465960 0.065108 -0.128226 0.000355 -0.096728 -0.555784 0.086939 -0.477739 0.274067 0.313226 0.010848 -0.149870 0.276570 -0.112859 0.279032 0.088691 0.465056 -0.075387 0.475220 0.180090 0.233542 0.199455 -0.009297 0.280658 0.243678 0.235267 -0.085491 0.019089 -0.109579 -0.457204 0.762031 -0.692083 0.498029 0.043172 -0.000606 -0.920385 -0.232405 0.013005 -0.190778 -0.398142 0.346300 0.146710 -0.391973 -0.301532 -0.132181 -0.249317 0.457233 -0.277954 -0.207575 0.248619 -0.088883 -1.015908 0.316973 0.267879 0.440321 -0.105581 -0.250777 0.400017 0.339447 0.973491 -0.320927 -0.293721 0.308454 0.780879 0.218866 0.386863 -0.048560 -0.158589 -0.231693 -0.823087 0.463794 -0.311752 -0.286388 0.136953 0.047553 -0.137325 0.183263 0.073867 0.196896 -0.691033 0.727609 -0.261785 -0.297551 0.302084 -0.168609 -0.041288 0.089159 0.139745 -0.253553 0.310936 0.700229 -0.632423 0.073178 -0.527648 0.112096 0.394399 -0.196070 0.321700 0.754320 0.490315 -0.211647 -0.324423 0.364263 -0.105010 0.364102 0.382940 0.000718 -0.093578 0.192379 -1.168786 0.526467 -0.678440 0.305052 -0.200489 -0.109118 -0.028419 -0.168502 0.215418 0.404635 0.254423 -1.292334 -0.334224 0.261555 0.717845 0.390909 -0.207947 0.375098 -0.180971 -0.410961 -0.299636 -0.006463 -0.711057 -0.218602 -0.608597 1.220623 -0.123870 0.344615 0.015769 -0.243113 -0.741886 -0.612638 -1.129875 -1.085650 1.047329 0.126116 0.394409 0.157199 0.494997 -0.642309 -0.626143 -0.172485 -1.069608 
HCCDB-18.S166 0.542425 -0.747986 0.884108 -0.312255 -0.049012 -0.630141 0.813451 1.177049 -0.637997 -0.815394 -0.455028 0.184690 -0.036052 0.344820 0.328304 -0.044515 0.247703 -0.908230 -0.014169 -1.211758 0.016951 -0.244498 -0.003021 0.762474 0.017482 -0.067388 0.088135 -0.561887 0.496406 0.360191 -0.354153 0.514987 0.839954 -0.585830 -1.344254 0.345712 -0.448735 -0.232797 0.259838 -1.051525 0.290991 0.323360 -0.274311 -0.359807 0.564918 -0.830826 0.718681 1.410350 -0.082238 -0.074626 0.121240 0.333897 0.305267 0.749048 0.404397 -0.473357 -0.264556 0.174397 -0.066198 0.244143 0.171845 0.020038 -0.286675 -0.588921 0.934889 -0.091623 0.308048 0.810134 0.342439 -0.267772 0.587346 1.019989 -0.566032 -0.104750 0.255482 0.160908 -0.399388 -0.171443 -0.052649 -0.238228 0.267577 0.228432 0.035388 -0.500842 -0.522150 -0.284398 -0.651170 -0.300118 0.205618 -0.348546 0.075049 -0.663707 0.181128 -0.371289 -0.040567 -0.081357 -0.252747 0.177979 -0.326385 -0.577484 -0.107878 -0.017940 0.163348 0.007945 0.311586 -0.665297 0.373921 0.671364 -0.498702 0.377278 -0.017501 0.996154 0.506274 0.835091 -0.276118 0.287987 -0.416851 -0.871839 0.384185 -0.695599 -0.020210 0.696021 0.278411 0.061877 -0.501671 -0.307493 -0.601343 -0.703241 1.026654 -0.766800 -0.213466 0.366554 -0.029306 -0.471705 0.681881 0.350317 -0.050394 -0.782543 1.021635 -0.506418 0.537368 -0.183484 -0.046802 0.939363 -1.199651 0.261876 0.568425 0.597969 0.135188 -0.029018 -0.461409 -0.073265 -0.561450 -0.425323 -0.284451 0.196295 0.382694 -0.876841 -0.791515 0.448453 0.668381 -0.169899 0.326892 -0.720843 0.233727 0.329776 -0.499935 0.579294 -1.030697 -0.729132 0.449335 0.855252 0.371294 -1.035738 0.267737 -0.380296 -0.248006 -0.128913 -0.983968 -0.049606 -0.146977 -0.228143 1.157333 0.160722 0.326905 0.454276 -0.568148 -0.276598 -0.586938 -1.079717 -1.566103 0.154496 0.208403 0.577642 -0.556036 0.707190 -0.287128 -0.350575 0.299122 -0.764591 
HCCDB-18.S168 0.603392 -0.600655 0.263266 -0.028705 0.568426 -0.554607 1.082934 1.259242 -0.223939 -0.286198 -0.364669 -0.424760 -0.239361 0.766622 -0.899221 -0.551777 0.782100 -0.375795 0.435350 -0.597507 -0.059460 0.330354 0.120616 0.867822 -0.298442 -0.265622 -0.398695 0.571807 0.259120 -0.373133 -0.144418 0.573469 0.808436 -0.501102 -0.386520 0.498591 0.187155 0.113679 0.716537 -0.435201 0.462551 0.333563 -0.049398 -0.870112 0.215178 0.354397 0.499418 0.377564 0.013316 -0.120203 -0.063748 0.081092 0.099647 0.130197 -0.092010 -0.307114 0.306626 0.219740 -0.880771 0.082401 0.342907 -0.184703 -0.519229 0.178586 0.758870 -0.021581 0.828298 0.158478 -0.460841 0.291762 0.314747 0.748609 0.134765 0.337188 -0.049580 0.328531 -0.286680 -0.763492 0.655302 -0.956005 0.226276 1.029095 -0.036007 -1.125622 -0.306583 -0.298834 -0.440801 -0.324500 0.015503 0.564175 -0.400650 -0.773302 -0.538935 -0.339090 0.673682 -0.505695 -0.322334 -0.022378 0.067526 -1.189244 0.358857 0.120841 0.118635 0.219861 -0.167232 0.145489 0.139827 0.440073 -0.218467 -0.140724 0.371968 0.604646 0.052091 0.711768 0.307483 -0.348669 -0.056675 -0.473514 0.769569 -1.198125 -0.420787 0.209229 0.722603 0.402912 -0.607976 0.038185 0.008753 -0.149948 1.060408 -0.353202 -0.176160 0.309887 0.287605 -0.532007 0.260698 0.474296 -0.841681 -0.068675 0.322784 -0.653658 0.168938 -0.480107 -0.660752 0.551414 -0.263630 -0.443450 0.943579 -0.189834 0.030324 -0.038082 -0.030126 -0.472641 -0.001880 0.403785 0.091351 0.104734 0.388850 -0.253688 0.363794 -0.952707 0.575953 -0.399786 -0.138493 -0.927196 0.187243 0.546454 0.285072 0.410788 -1.074376 -0.572962 0.081249 0.810835 0.617290 0.147548 0.223405 -0.093379 -0.442311 0.539536 0.064686 -0.422293 -0.021888 -0.005566 1.226140 -0.447282 0.150386 0.040439 -0.275404 0.102756 -0.612349 -0.809003 -1.335173 0.461546 0.336894 0.922951 -0.458906 -0.099965 0.093655 -0.428232 0.161216 -0.887353 
HCCDB-18.S17 0.769520 0.011090 0.300389 0.395101 -0.143561 -0.228202 0.209579 0.623638 0.336898 0.031642 -0.770147 0.473509 -0.334521 0.529285 -0.196818 -0.424005 -0.467136 -0.574910 -0.332662 -0.547816 0.132938 -0.101235 -0.639488 0.846030 0.051727 -0.508845 0.050545 -0.951263 -0.050906 0.499250 -0.347718 0.405727 0.863143 -0.308322 -0.324309 0.443138 0.003245 0.289485 0.196532 -0.289439 0.324916 0.094811 0.754074 -0.576020 0.496480 0.635535 0.829340 0.720359 0.013481 -0.279248 0.085519 -0.368719 -0.370442 -0.013117 -0.189616 -0.301420 -0.078561 -0.249536 -0.141086 0.082340 0.322253 0.297161 0.128733 0.094898 0.368369 -0.135862 0.101184 0.375500 0.062723 0.812377 -0.357212 0.727720 0.621720 -0.711045 0.234514 -0.650965 -0.352006 -0.443833 0.928194 -0.964598 0.613256 1.002242 -0.271493 -0.935366 -0.113192 -0.666447 -0.343497 -0.380816 0.655153 -0.359983 -0.352986 -1.021709 -0.222755 0.044700 0.820761 0.409587 0.223083 0.460099 0.040083 -0.753075 1.065058 -0.382737 0.429661 -0.130127 -0.267572 0.189224 0.409278 0.464708 0.202559 0.089336 0.060277 1.064630 0.283188 0.180147 -0.023276 -0.033102 0.230222 -0.298728 0.396781 0.042394 0.230307 0.382066 0.004204 0.270366 -0.455769 0.278026 -0.316208 -1.046709 0.990988 -0.826825 -0.768425 0.017675 -0.928030 0.586306 0.105237 0.100825 -0.354061 -0.482245 0.413747 -0.656065 0.457470 -0.183321 -0.619143 0.262710 -0.077921 0.011351 0.072458 0.441069 0.419362 0.200574 -0.103445 -0.251401 -0.377108 0.620936 -0.022839 0.088578 0.504175 -1.373737 0.308825 -0.567975 -0.563474 -0.356428 0.333148 0.121916 -0.359506 0.369521 -0.260635 0.784246 -1.366847 -0.562532 0.279106 0.341636 0.903015 -0.204636 0.691552 -0.127375 -0.762197 -0.092454 -0.543005 -0.213425 -0.245358 -1.114747 1.003983 0.635893 0.519537 -0.096264 0.072007 -0.859575 -0.684092 -0.989659 -1.341782 0.903435 0.234464 0.852212 0.192242 -0.274241 -0.307533 -0.270185 -0.086213 -1.035444 
HCCDB-18.S170 0.667862 -0.873596 -0.011079 0.232064 -0.578242 -0.294201 0.348555 1.269839 -0.084447 -0.219887 -0.421515 0.660467 0.037929 0.543572 -1.264886 -0.281985 0.258789 -0.949386 0.392710 -1.120545 -0.625570 0.489127 0.253795 0.233680 0.120818 -0.106201 -0.005524 -0.091731 0.583661 0.131430 -0.137001 -0.152971 0.846405 -0.978368 -0.889820 0.157447 -0.668295 0.380672 0.686278 -0.568925 0.403638 -0.040913 0.962636 -0.565015 0.647886 -0.378140 0.693978 1.642792 -0.375128 0.028990 0.092936 0.209118 -0.236029 -0.351745 0.107147 -0.766882 0.401623 1.347320 -0.469922 0.099779 0.011075 -0.045046 -0.617014 -0.299799 0.520418 -1.023113 0.186967 0.382063 0.004516 -0.193010 0.182878 0.339985 0.735188 0.364651 -0.102075 0.299041 0.150350 -0.025108 1.129047 -0.735672 0.594291 0.815133 -0.175246 -1.191298 -0.043311 -0.094479 0.393553 0.577595 0.400686 0.384948 -0.679201 -0.803110 -0.177112 -0.040735 0.598006 0.161750 0.071097 -0.160930 0.204388 -0.952115 0.489430 0.247094 0.506051 0.036239 -0.112897 0.817316 -0.714587 0.678932 -0.144911 -0.186882 0.072965 1.009733 0.720969 0.665111 0.037578 0.711601 0.062309 -0.320421 0.351412 -0.331057 0.868226 0.564144 0.462444 -0.117495 -0.296108 -0.141764 -0.551028 -0.254297 0.135422 -0.335293 0.327876 0.221527 0.002507 -0.172541 0.303600 0.025852 -0.959729 -0.123555 0.203299 -0.673802 -0.118909 0.126987 0.453068 0.173803 0.661336 -0.622200 0.421580 0.464611 -0.596078 0.183667 -0.340285 -0.097676 0.209200 -0.007764 0.389729 -0.178927 0.153373 -0.505681 0.036609 -0.834605 0.396304 -0.103828 0.149015 -0.181214 0.818772 0.074997 -0.428549 0.905560 -0.718372 -0.078925 0.311856 0.801619 0.014484 -0.338399 0.670502 -0.366506 -0.833162 0.379866 -0.268134 -0.141816 -0.471570 -0.481966 1.255883 0.208875 0.534910 -0.116772 -0.529907 -0.564578 -0.604907 -0.324611 -0.985269 0.600423 -0.263410 0.127512 -0.161948 0.651955 0.053390 -0.891597 0.060546 -0.892941 
HCCDB-18.S172 0.340157 -0.876849 -0.080903 0.465201 -0.194742 -0.357266 0.665247 0.521870 0.430389 0.257095 -0.403721 0.509331 -0.468485 0.523898 -0.801685 0.465237 0.160325 -0.335456 0.003786 -0.254633 0.053541 0.472559 0.127559 0.606007 0.611283 0.097576 -0.590097 -0.485694 0.173529 -0.138677 -0.723192 -0.386022 0.840923 -0.829722 -0.395877 0.428403 -0.167515 -0.258229 -0.498419 -0.442459 0.607492 -0.096192 -0.316139 -0.868017 0.449584 0.395225 1.513841 0.273541 0.100588 -0.273230 0.175617 0.407343 0.302970 0.302359 0.234929 -0.987051 -0.117329 -0.265703 -0.395446 -0.038695 0.138517 -0.653715 0.010643 0.218147 0.152917 0.198865 0.847690 0.317498 -0.100305 -0.070951 0.012875 0.805020 0.659788 0.567192 0.123952 0.233264 -0.594358 -0.013105 0.568792 -0.427583 0.732932 -0.015934 0.083683 -0.754532 -0.161310 0.543291 -0.977717 -0.217880 0.193654 -0.312462 -0.493993 -0.490859 0.036656 0.373174 0.131165 -0.775017 -0.609896 1.119768 -0.085444 -0.750681 -0.239089 0.250711 0.123673 -0.273130 0.012633 0.642633 -0.212896 0.570177 -0.000356 0.028139 0.369081 0.846442 0.042297 0.262841 -0.059524 0.737061 0.241186 -0.476598 0.391445 -0.310790 -0.181983 0.763419 0.068997 0.046319 0.759080 0.215517 -0.111482 -0.035702 1.157799 -0.736547 -0.923929 0.315496 -0.090441 0.402504 0.533457 0.659381 -1.122362 0.406014 0.368373 -0.809622 0.389761 0.303705 0.142693 -0.114417 -0.162592 -0.237672 0.635463 0.005489 -0.577221 -0.298732 1.238430 -0.086444 -0.178935 0.166605 0.815673 0.381721 0.320267 -1.216102 0.067225 -0.981113 0.133602 -0.900019 -0.187931 -0.401112 -0.583775 0.543212 -0.999639 0.299311 -1.687597 -0.463664 -0.479345 0.518594 0.492825 -0.661914 1.070159 0.520225 -0.933784 -0.473491 -0.070501 0.125514 -0.668855 0.074301 0.764054 -0.397813 0.361572 0.512905 -0.275463 -0.524158 -0.659015 -1.069220 -1.641378 1.560933 0.557862 0.592234 0.091607 0.429471 -0.252103 -0.339803 -0.312826 -0.057346 
HCCDB-18.S174 0.311526 -0.862309 0.490966 0.161275 0.133513 0.106212 0.522661 1.274938 -0.710008 -0.284222 -0.347182 0.277410 -0.424129 -0.105483 -0.622286 -0.117248 0.216505 -1.535448 -0.521621 0.066833 0.078488 0.026939 0.125391 0.335340 0.154841 0.335104 -0.120364 -0.264477 0.497812 0.343140 -0.196949 0.100137 0.885328 -0.540041 -0.355171 0.622505 -0.551090 0.066034 -0.434779 0.050421 0.414925 0.183727 -0.142518 -0.956832 0.190512 -0.017829 0.199261 0.878335 0.346610 0.144482 0.014903 -0.346427 -0.018687 -0.455694 0.365154 -0.369698 -0.120921 0.317860 -0.012248 -0.122688 0.618954 -0.484899 0.012324 0.445762 0.815331 -0.530996 0.478444 0.288930 0.412106 0.007441 0.200309 0.495221 -0.198068 0.437158 -0.162556 -0.203318 -0.008865 -0.674075 0.555427 -0.452176 0.070622 0.152191 -0.286298 -0.540573 -0.432341 -0.406726 -0.353315 -0.346934 0.109261 -0.046150 -0.554663 -0.910256 -0.592752 -0.094058 0.886235 -0.014740 -0.069166 0.103345 0.442393 -0.527134 0.149449 0.438330 0.273176 -0.315826 -0.277414 -0.270696 0.046998 1.353093 0.243431 -0.179042 -0.182408 1.007864 0.288261 0.750009 -0.461164 0.110610 0.235554 -0.543704 0.160310 -0.450951 -0.096669 0.568631 -0.145971 -0.229078 0.392288 0.364472 -0.371974 -0.512651 0.508962 -0.585272 -0.169360 0.119912 0.113313 0.035016 -0.384338 0.386585 -0.829270 0.077016 0.357611 -0.454285 -0.026610 -0.309779 -0.564408 0.267411 -0.735457 0.055650 0.724110 -0.139855 -0.158870 0.075236 0.159506 -0.327949 0.032031 0.601241 -0.000491 0.070548 0.263281 -0.526402 0.668457 -0.605412 0.514517 0.268162 0.218631 -0.125995 0.045463 0.517837 -0.247726 0.844995 -1.348142 -0.832841 0.431157 0.046069 0.490251 -0.529218 0.822622 0.221307 -0.763330 0.078793 0.009332 0.013819 -0.018233 -0.840732 1.202205 -0.338464 0.332680 -0.066335 -0.619978 -0.359789 -0.936158 -0.725877 -0.503344 0.652899 0.734435 0.049828 -0.602335 -0.010420 -0.304426 -1.317007 0.280703 -0.503463 
HCCDB-18.S176 0.611269 0.105764 0.037860 0.401934 -0.387654 -0.175621 0.788526 0.833442 -0.488405 0.335162 -0.269433 0.233903 0.048887 0.052270 -0.544251 -0.348691 0.327492 -1.179133 0.044937 -0.787207 -0.488306 0.414460 0.054382 0.576738 0.088355 -0.229935 0.034838 -0.062898 0.316021 -0.470912 0.008958 0.498251 0.776094 -0.577493 -0.395531 0.889456 -0.629382 -0.288700 0.725761 -0.236300 0.020485 0.214480 0.340387 -0.769036 0.310294 0.433549 0.646207 0.459420 0.446360 -0.314046 0.557597 -0.082002 -0.240134 0.019099 0.488323 -0.714699 -0.134053 -0.162874 -0.463011 0.174834 0.106034 -0.133339 0.018194 0.461235 1.118529 -0.286718 0.775522 0.837450 0.098540 0.896397 0.008416 0.497665 0.054346 0.137542 0.276467 0.743224 0.143274 -0.681800 0.662946 -0.562081 0.155457 0.638183 -0.074937 -1.485500 0.375237 -0.101362 -0.796931 0.211249 0.362667 0.315296 -0.513855 -0.922098 -0.267183 0.024595 0.782354 -0.295091 -0.576485 0.412507 0.489150 -0.590907 0.128030 -0.138352 0.613689 -0.796870 -0.339933 0.154738 0.079208 0.526190 0.136576 -0.056161 0.162595 0.640664 0.395895 -0.116011 -0.211478 -0.045907 -0.465547 -0.186071 0.006988 -0.515985 0.116909 0.049990 0.686758 0.238598 -0.343449 -0.142978 -0.329435 -0.412125 0.947500 0.330890 0.222933 0.271863 0.219346 0.325654 0.323593 0.443801 -0.599276 0.205264 0.580005 -0.707951 0.302187 -0.335990 -0.739571 -0.066681 -0.217499 0.016479 0.733889 -0.058244 -0.025717 0.036820 0.606647 0.056047 0.625088 0.530262 0.169979 0.520492 0.583956 -0.763910 0.172310 -0.270787 -0.246303 0.011786 -0.035477 -0.171394 0.220443 0.166831 0.220180 0.702088 -1.081958 -0.701864 0.587797 0.576014 0.171262 -0.401597 0.421244 0.405595 -0.445380 0.395681 -0.343605 -0.052648 -0.277475 -0.354421 1.535348 -0.249226 0.044389 -0.209471 0.067088 -0.260468 -0.874080 -0.498417 -0.766216 0.280416 0.102607 0.881932 -0.496102 -0.116514 0.090379 -0.928265 0.393338 -0.384816 
HCCDB-18.S178 1.565620 -0.151007 -0.217583 -0.446195 -0.324029 -0.832657 0.883141 0.846679 0.073100 0.041764 -0.899564 -0.337066 0.111553 0.528434 -0.093467 -0.407961 0.423030 -0.632894 -0.102891 -0.768919 0.131265 0.820655 -0.391697 0.297270 0.616089 0.146145 -0.075439 -0.175040 0.132082 -0.157517 -0.373521 0.571369 1.842704 -1.025774 -0.086190 0.029374 -1.074652 0.080664 0.211543 -0.782696 0.403177 0.160461 0.188170 -1.313740 0.240189 -0.429072 0.332640 0.655215 -0.170546 -0.064800 0.126247 -0.053654 0.044755 0.296419 -0.273649 -0.175584 0.358027 -0.107836 0.000468 0.089714 0.361981 0.072319 0.091002 -0.058543 0.751056 0.115587 0.078047 0.477425 -0.008381 -0.038255 0.058072 0.592364 -0.103392 -0.511220 0.080451 -0.496162 0.062583 -0.636033 0.834020 -1.149307 0.649441 0.347516 0.356783 -0.705958 -0.367660 -0.293156 -0.437308 0.459350 -0.150938 -0.226033 -0.518594 -1.097489 -0.101578 0.180961 0.218415 -0.164435 -0.452478 0.371755 0.160437 -0.864715 1.000585 -0.098732 0.424902 0.269526 0.021163 -0.028225 0.653335 0.149492 0.553388 0.035718 0.125385 0.673776 0.135821 -0.067334 -0.008261 0.051723 0.198232 -0.266126 0.481297 -1.071560 -0.270873 0.203532 -0.097474 -0.141513 -0.094883 0.361284 0.663265 -0.171441 1.041785 0.139245 0.469716 0.870757 -0.088531 -0.319623 0.119049 -0.307111 0.117678 0.398720 0.083544 -0.935238 0.118713 -0.889721 0.010304 1.044495 -0.385994 -0.654231 0.116510 -0.066816 0.093204 -0.292713 0.607861 0.261169 -0.142717 0.163571 0.418627 -0.432470 0.122626 -0.749333 0.701934 -0.554808 0.806634 -0.039826 -1.019276 -0.091872 0.231184 0.769714 -0.497211 1.143206 -0.978775 -0.820229 0.493827 0.497553 0.901353 -0.584099 0.232047 0.068614 -0.225977 0.327113 -0.713531 -0.114110 -0.193586 -0.986442 0.923953 0.162232 0.052276 -0.112068 -1.217658 0.023772 -0.377376 -1.469373 -0.478863 1.020938 0.836045 0.999668 -0.753050 1.273238 -0.570436 0.039786 0.810364 -0.611213 
HCCDB-18.S18 0.872082 -0.558168 0.092250 0.265375 -0.499129 -0.093052 1.208370 0.490609 -0.627265 -0.532936 -0.303354 -0.257952 0.034013 0.238445 -0.364985 -0.960866 0.083891 -0.856327 -0.496255 -0.896262 0.214892 -0.184248 0.418315 0.407968 0.460354 -0.334009 -0.198713 -0.671870 0.124234 0.017876 -0.798827 0.596412 0.554376 -0.111527 -0.212732 0.196737 -0.301907 -0.132615 0.275463 -0.605058 -0.343564 0.038978 -0.022320 -0.272254 -0.140006 0.077427 0.963171 0.394096 -0.270859 -0.580585 0.231650 -0.035110 -0.359281 0.281331 0.630220 -0.664589 0.607312 0.517835 -0.570108 0.151446 0.282823 -0.377345 -0.144452 -0.246313 0.222623 -0.059766 1.216951 0.787059 0.047986 0.474227 0.090316 0.729727 -0.086476 0.177367 0.787519 0.572145 -0.013950 -0.431686 0.350550 -0.840873 0.080021 0.838674 -0.497698 -1.002052 -0.534384 -0.323087 -0.380174 -0.295044 -0.387482 -0.600828 -0.138820 -0.158348 0.154870 0.413200 0.654593 0.243711 -0.368997 -0.096649 -0.392810 -0.888469 0.591623 0.355825 -0.139258 -0.124204 -0.520344 0.220027 0.148179 0.746423 -0.090348 -0.085277 0.067848 0.588074 0.434135 0.383310 -0.281929 0.105733 0.109596 -0.376229 0.516682 -0.583621 -0.264663 0.301051 0.180415 0.908678 -0.155869 0.426291 -0.973393 -0.675131 0.933066 -0.842430 -0.311855 0.244204 -0.099072 -0.195963 -0.109055 0.162917 -0.622621 -0.380994 -0.033560 -0.744045 0.589402 -0.960660 -0.294624 0.564416 -0.987688 -0.268857 0.693846 0.121163 -0.316144 0.291380 -0.184639 -0.586861 0.409347 0.178922 0.050763 0.419534 -0.252034 -1.058524 0.407143 -0.518647 0.635962 0.234667 0.211168 -0.333854 0.007838 0.248669 -0.115710 1.022020 -1.116282 -0.529394 -0.325968 0.332069 0.257828 -0.329101 0.722260 -0.289299 -0.574852 0.242099 0.538429 -0.642086 -0.068735 -0.169921 1.447930 0.230827 0.063204 -0.449063 0.038448 -0.410385 -0.616413 -0.896439 -0.916427 0.618029 -0.138430 0.385316 -0.329953 0.297808 0.087577 -0.828041 -0.008134 -0.906191 
HCCDB-18.S180 0.619862 -0.046668 -0.040843 0.174806 -0.234588 -0.508785 1.103516 0.168815 -0.517471 -0.725370 -0.237795 0.348915 0.046434 0.329949 -0.492013 -0.290257 0.250914 -1.321679 0.188308 -0.492672 0.495910 0.363347 0.034159 0.658665 -0.192940 -0.569149 -0.103583 -0.305253 0.811689 0.378905 -0.572153 0.360645 0.814720 -0.543236 -0.886035 -0.241633 0.065584 -0.060039 0.165399 -0.700581 -0.229785 -0.252201 0.526665 -0.851059 0.187533 -0.060351 0.706536 0.895757 -0.001004 0.054822 0.316246 -0.574860 -0.089429 0.409940 -0.106055 -0.880831 0.520522 0.509101 -0.248421 0.464554 0.320019 -0.430387 0.243758 0.272553 1.039153 -0.471444 0.204933 0.276399 0.107035 0.316946 0.558716 0.578008 0.537987 0.366847 0.196328 0.324733 -0.392352 -0.296195 0.674648 -0.482757 0.438347 -0.063605 0.013564 -0.464564 -0.613278 -0.163075 -0.382820 0.285981 0.428571 -0.469016 -0.655971 -1.213306 0.488169 0.250468 0.305784 -0.376608 -0.921672 0.541857 0.367819 -0.961633 -0.066065 -0.277114 0.276195 -0.322209 -0.051400 -0.440439 0.010932 0.472920 -0.383782 -0.617622 -0.077182 0.746499 0.360360 0.148378 0.357044 0.532136 -0.055910 -0.326159 0.371699 -0.160950 0.197331 0.675973 -0.096915 -0.280933 -0.177099 0.302719 0.211174 -0.965832 0.731686 -0.118814 -0.373610 0.039824 0.228145 -0.061707 0.789835 0.657194 0.013098 0.089545 0.127789 -0.304740 0.655507 -0.465593 -0.283228 0.300548 -0.532879 -0.035545 1.107333 -0.115020 0.111304 -0.307275 0.533728 -0.250609 -0.086909 0.359279 -0.099810 0.347681 0.144281 -0.909915 0.458046 0.174184 0.808447 0.111567 -0.009352 -0.386081 0.065947 -0.192325 0.185866 0.867439 -0.888635 -1.033351 0.613232 0.880795 0.374261 -0.321475 1.219347 0.012816 -1.022647 0.470874 -0.196131 -0.400669 -0.086914 -0.512726 0.741349 -0.002177 0.214130 -0.250775 -0.139529 -0.270725 0.088238 -0.777984 -0.937477 0.457951 0.248802 0.319599 -0.415877 0.306708 -0.235823 -0.747696 0.397218 -0.580105 
HCCDB-18.S182 0.434679 -0.527016 0.244477 0.133897 0.036866 -0.436610 0.614163 0.735505 -0.496628 0.056196 0.199650 0.168662 0.249375 0.325693 -1.103516 -0.451213 -0.105993 -1.336689 -0.024697 -0.577396 0.341587 0.582565 -0.413781 -0.086850 0.195453 -0.305639 -0.187835 0.062070 0.823711 -0.257234 -0.872816 0.666345 1.254319 -0.967934 -0.499811 0.588892 -0.422840 -0.024234 -0.138722 -0.854521 0.249938 0.155046 0.070481 -0.687323 -0.263987 -0.063014 1.566484 0.783191 0.435498 -0.090549 0.644436 0.174891 0.169395 0.022795 0.467900 -0.142414 0.938730 0.122188 -0.225320 0.343135 0.118879 -0.572840 -0.102614 0.558765 0.503227 -0.427730 0.805117 0.018789 0.273329 0.499294 0.098362 0.564991 0.246420 0.386684 0.464095 0.237703 -0.063899 -0.038298 0.279962 -0.396752 0.505162 0.264463 0.003144 -0.530264 -0.854621 -0.207745 -1.185884 -0.239802 0.034673 0.221995 0.175695 -0.517625 -0.107425 -0.240461 0.309458 0.080653 -0.536523 0.562861 0.091790 -0.386932 -0.283910 -0.090849 1.208223 -0.658121 -0.308656 0.002505 0.321889 0.929297 -0.163075 -0.323146 0.230861 1.148285 0.449552 0.175791 -0.030213 0.514952 0.407211 -0.436396 -0.508566 -0.383937 0.570354 0.029093 0.482131 -0.341602 -0.992446 -0.015377 0.248107 -0.266209 1.565690 -0.075161 0.016443 -0.194146 0.224516 0.299158 0.077886 0.668225 -0.366289 -0.013814 -0.081366 -0.428515 0.308315 -0.430113 -0.703945 0.527598 -0.528086 0.211093 0.759584 0.309637 -0.031264 -0.039826 0.667343 0.097054 0.270735 0.783436 -0.095732 0.130904 0.355998 -0.478569 0.538242 -0.493236 -0.290958 -0.403838 -0.142181 -0.088227 -0.295086 0.217904 0.380343 0.382667 -1.265181 -0.671433 0.594112 0.916170 0.099359 -0.013075 0.882449 0.362298 -0.426306 0.560636 -0.427081 -0.448726 0.223516 -0.364584 1.130515 -0.448228 0.750796 0.182370 -0.433289 -0.090314 -0.557185 -0.429908 -1.121353 0.765050 0.259951 0.801839 -0.224445 0.478141 0.077693 -0.003677 0.689131 -0.763969 
