100 200
HCCDB-1.S10 0.445872 -0.389353 -0.020270 -0.053144 -0.040708 -0.529472 0.898557 0.677911 0.077037 0.019807 -0.108567 0.434898 -0.077153 0.161175 -0.799934 -0.316142 0.219064 -0.965559 0.051514 -0.737308 -0.199070 0.520564 0.212688 0.767510 -0.079394 -0.264397 -0.189468 -0.200338 0.102521 0.312018 -0.440438 0.293404 1.003978 -0.541784 -0.654154 0.271234 -0.160111 -0.466573 0.041061 -0.638711 0.234323 0.245050 0.478742 -0.373498 -0.116293 0.033161 0.304314 0.833344 0.031529 0.123405 0.316995 0.183806 -0.150764 0.034762 0.053335 -0.452655 0.408564 0.090504 -0.272649 0.131675 0.319308 -0.372892 -0.064049 0.059756 0.449558 -0.289263 0.288781 0.054635 -0.257202 -0.021915 -0.014727 0.473857 -0.026873 0.112592 -0.125276 0.356042 -0.081047 -0.517550 0.569012 -0.309655 0.330889 0.302679 -0.172473 -0.654757 -0.317632 -0.379907 -0.158440 -0.014094 0.124537 0.238830 -0.334187 -0.783390 -0.286875 -0.005386 0.689871 -0.052448 -0.296311 0.137586 0.068943 -0.774230 0.308333 -0.110012 0.254304 -0.154290 -0.150081 0.255672 -0.186511 0.700654 -0.033275 -0.063919 0.377929 0.932203 0.113407 0.268066 0.058300 0.203062 0.002619 -0.554054 0.465212 -0.506864 -0.023314 0.226855 -0.162669 0.261257 -0.135709 0.198947 -0.040861 -0.390078 0.788025 -0.270417 -0.285876 0.189043 -0.181605 0.046854 0.369911 0.302651 -0.675999 -0.128782 0.384061 -0.367478 0.364456 -0.636024 -0.230499 0.201420 -0.185444 -0.043300 0.691647 0.109606 -0.238515 -0.302707 0.542467 -0.097976 0.243295 0.387492 0.545970 0.249435 0.277657 -0.935107 -0.145439 -0.595254 0.238118 -0.277459 -0.026219 -0.070067 0.116560 0.272090 -0.137760 0.816831 -1.056280 -0.546715 0.030642 0.335866 0.196172 -0.327629 0.337720 -0.113424 -0.629228 0.099593 0.014657 -0.332342 -0.195977 -0.773867 1.015054 0.152685 0.494749 -0.143205 -0.151042 -0.635265 -0.749982 -0.908694 -1.113372 0.946425 0.042296 0.348935 -0.105526 0.234977 -0.160151 -0.550788 0.135468 -0.908698 
HCCDB-1.S101 0.364098 -0.321470 0.112543 0.159815 0.068908 -0.544678 0.705897 0.590532 -0.276803 0.110677 -0.076391 0.293166 -0.182931 0.337234 -0.713219 -0.233449 0.292537 -1.141635 -0.301165 -0.545220 -0.119073 0.436296 0.177309 0.793474 -0.120013 -0.084708 -0.065950 -0.326834 0.214750 0.155326 -0.240763 0.284656 0.769298 -0.592488 -0.429372 0.428024 -0.336104 -0.343299 -0.036751 -0.401218 0.249647 0.204248 0.448651 -0.507446 -0.142098 -0.006478 0.279141 0.683321 0.192761 0.151527 0.258766 0.067508 0.028365 -0.039669 0.174637 -0.355519 0.308310 0.099110 -0.193761 0.099323 0.386497 -0.433721 0.092629 0.099304 0.691304 -0.354352 0.458761 0.059075 0.018211 0.055024 0.195229 0.459365 -0.025826 0.305618 -0.032995 0.225611 0.085083 -0.678134 0.691029 -0.557580 0.281510 0.193143 -0.071583 -0.528460 -0.339855 -0.322490 -0.250663 -0.181635 0.242816 0.050456 -0.259624 -0.739878 -0.240117 -0.016129 0.777402 -0.090639 -0.332607 -0.008125 0.073902 -0.746048 0.410491 -0.008702 0.141826 -0.196158 0.016356 0.145746 -0.103115 0.897056 0.023252 -0.080639 0.321470 0.824847 0.211838 0.261928 -0.109414 0.130247 0.181533 -0.498910 0.485382 -0.611988 0.001688 0.316937 -0.217411 0.255317 -0.135318 0.278163 -0.173784 -0.442507 0.694883 -0.335109 -0.273859 0.163870 -0.082527 0.233607 0.286073 0.091602 -0.644268 -0.000245 0.494484 -0.528775 0.182303 -0.628571 -0.107155 0.225861 -0.218223 -0.114058 0.614640 0.136291 -0.410352 -0.374844 0.521689 -0.061338 0.193943 0.473956 0.487725 0.333851 0.349547 -1.044892 0.008468 -0.450109 0.338803 -0.229314 -0.233083 -0.113916 0.003815 0.333072 -0.257776 0.825692 -1.208634 -0.387615 0.111108 0.313721 0.259914 -0.316142 0.338419 -0.040799 -0.718250 0.285608 0.026731 -0.380516 -0.233446 -0.677042 1.029658 -0.073938 0.572052 0.024227 -0.236568 -0.557226 -0.770906 -0.912853 -1.131132 0.878056 0.216468 0.294279 0.017311 0.226264 -0.182835 -0.650419 0.178771 -0.644159 
HCCDB-1.S103 0.428697 -0.335607 0.150238 0.168143 -0.030589 -0.730731 0.854539 0.708942 0.147102 -0.034724 0.002339 0.292141 0.144192 0.332279 -0.888760 -0.143388 0.403370 -0.739157 -0.089743 -0.714683 -0.099859 0.628058 0.304694 0.715027 -0.243727 -0.347414 -0.061644 -0.284806 0.205153 0.213202 -0.434419 0.351112 0.796700 -0.504183 -0.514987 0.413506 -0.453081 -0.300544 0.116438 -0.373459 -0.029539 0.257807 0.310921 -0.461085 -0.033565 -0.126940 0.401350 0.579728 0.014336 0.202098 0.267684 0.127091 -0.023060 0.184044 0.133823 -0.493424 0.468606 0.117792 -0.250004 0.075534 0.331657 -0.323208 0.054655 0.078273 0.587290 -0.410974 0.409435 0.163868 -0.120145 0.065153 0.130287 0.675253 0.129487 0.044103 0.130107 0.419408 0.024378 -0.594183 0.732280 -0.432915 0.275022 0.239430 -0.080153 -0.347390 0.029301 -0.440967 -0.215179 -0.230553 0.141314 0.070215 -0.272681 -0.626963 -0.156350 -0.158582 0.772001 0.211254 -0.167767 0.161164 0.053367 -0.812918 0.472973 -0.022711 0.164496 -0.244726 -0.228906 0.104871 -0.096281 0.815111 0.075723 0.009091 0.295161 0.751538 0.140149 0.066882 -0.027474 0.151930 0.206056 -0.417048 0.512894 -0.564289 -0.198585 0.270774 -0.018390 0.190687 -0.091836 0.156806 -0.233583 -0.436302 0.788167 -0.242988 -0.183800 0.148378 -0.209336 0.232837 0.361475 0.445425 -0.490973 -0.154839 0.574005 -0.517902 0.247716 -0.571890 -0.225886 0.210285 -0.249822 0.111645 0.550203 0.029744 -0.497093 -0.398521 0.493023 0.007299 0.240745 0.354363 0.610246 0.277493 0.248670 -1.144360 0.195096 -0.454009 0.336465 -0.259103 -0.228091 -0.115324 -0.016323 0.241112 -0.138234 0.708785 -1.127459 -0.575350 0.092927 0.435219 0.303838 -0.241777 0.469936 -0.019326 -0.622010 0.212205 -0.080291 -0.298631 -0.277066 -0.794710 0.982985 0.032017 0.467818 -0.037069 -0.136746 -0.659189 -0.713666 -0.978634 -1.310501 0.812730 -0.034158 0.539538 -0.075703 0.325827 -0.116611 -0.484251 0.063896 -0.798851 
HCCDB-1.S105 0.272244 -0.147592 0.019549 0.119482 0.211399 -0.697417 0.825475 0.523691 0.003937 0.208857 -0.151787 0.183358 -0.188748 0.399680 -0.657105 -0.311242 0.311468 -0.753793 -0.171818 -0.624057 -0.099114 0.776091 0.133140 0.940442 -0.027707 -0.227046 -0.173451 -0.104303 0.099023 0.379123 -0.284805 0.275791 0.756378 -0.588503 -0.651459 0.378998 -0.189836 -0.427290 0.020403 -0.546319 -0.028955 0.060899 0.526515 -0.346378 -0.142292 0.049212 0.429946 0.751820 0.305493 -0.023240 0.115324 0.159416 0.008995 0.115718 0.096772 -0.477171 0.378405 0.220538 -0.394435 0.236994 0.298110 -0.191895 -0.134737 -0.078285 0.588249 -0.415873 0.484853 0.286736 -0.195615 0.162901 -0.079785 0.479651 -0.123708 0.034606 -0.108374 0.370790 0.090404 -0.674762 0.658411 -0.229086 0.454242 0.234635 -0.103348 -0.508119 -0.331471 -0.502878 -0.198509 -0.252519 -0.053342 0.083506 -0.321100 -0.509689 -0.275647 -0.038156 0.561759 0.012129 -0.253820 -0.031953 -0.076349 -0.893537 0.484714 -0.156796 0.234695 -0.386358 0.044771 -0.014190 -0.146855 0.824491 0.058123 -0.197071 0.253451 0.871533 0.191598 -0.036860 -0.084496 0.092425 0.102731 -0.729124 0.176245 -0.435092 -0.096551 0.430078 -0.229132 0.215551 -0.007446 0.122425 -0.134395 -0.371051 0.765915 -0.134431 -0.116523 0.293095 -0.259500 0.160078 0.491038 0.257013 -0.684481 -0.041894 0.310331 -0.405474 0.400253 -0.379968 -0.194340 0.199430 -0.380703 -0.066610 0.616260 0.078211 -0.407889 -0.408402 0.481026 -0.005021 0.252961 0.214978 0.610832 0.233990 0.325207 -0.910895 0.135199 -0.626196 0.187460 -0.252253 -0.233263 -0.283396 -0.038790 0.285791 -0.186180 0.844211 -1.149533 -0.458132 0.180405 0.437955 0.262275 -0.208671 0.338137 -0.096581 -0.816206 0.255376 -0.027128 -0.405739 -0.010782 -0.923341 0.938803 0.216232 0.527140 -0.050157 -0.269725 -0.612275 -0.749064 -0.796329 -1.306998 0.846626 0.124978 0.438957 -0.101819 0.231300 -0.101999 -0.673814 0.306419 -0.891524 
HCCDB-1.S107 0.448753 -0.333113 0.039778 -0.030407 0.020716 -0.617561 0.852974 0.677712 -0.161621 -0.022387 -0.081128 0.278888 -0.319810 0.422065 -0.817881 -0.131867 0.299794 -1.005623 -0.118809 -0.754883 -0.174030 0.467211 0.243429 0.743089 -0.064281 -0.097094 -0.001125 -0.254968 0.105936 0.192011 -0.234727 0.305900 1.073916 -0.510067 -0.508888 0.296278 -0.289283 -0.378879 0.013405 -0.467643 0.046736 0.196753 0.320640 -0.390261 0.014709 0.023728 0.190060 0.639557 0.130422 0.170805 0.208670 0.201052 -0.144582 0.103927 0.021112 -0.571289 0.299337 0.183739 -0.300176 0.169790 0.367804 -0.302931 -0.117441 0.019987 0.508540 -0.355550 0.285878 0.094829 0.022682 -0.000525 0.150759 0.494395 -0.003862 0.064868 0.020907 0.418857 -0.125863 -0.753474 0.545193 -0.458754 0.346748 0.234096 -0.199959 -0.406354 -0.509392 -0.457701 -0.246344 -0.229709 0.113312 0.128548 -0.291109 -0.614667 -0.205808 0.039467 0.747425 0.092940 -0.271337 0.052380 0.006948 -0.794300 0.381704 -0.092688 0.170670 -0.173197 -0.123392 0.318757 -0.123618 0.839645 0.091761 -0.019095 0.231564 0.715274 0.077517 0.195180 -0.044021 0.043637 0.046569 -0.483901 0.375488 -0.589316 -0.203381 0.122368 0.029425 0.270292 -0.204529 0.183910 -0.160652 -0.500180 0.715366 -0.261203 -0.198768 0.224399 -0.163633 0.208656 0.226268 0.228281 -0.696511 0.011498 0.641666 -0.430164 0.417547 -0.541811 -0.276728 0.334363 -0.163395 0.025229 0.659923 0.144516 -0.314019 -0.520890 0.458906 -0.153721 0.239465 0.133706 0.520714 0.204141 0.200719 -0.975470 0.004013 -0.467513 0.214304 -0.290699 0.017794 -0.087469 -0.098380 0.386214 -0.118352 0.875682 -1.220572 -0.465883 -0.029189 0.461328 0.351806 -0.400420 0.313324 -0.046772 -0.643274 0.394398 -0.009976 -0.275441 -0.031564 -0.642574 1.050308 0.037476 0.381085 -0.188689 -0.192996 -0.565546 -0.876628 -0.962713 -1.209575 0.912317 0.124937 0.433407 -0.037378 0.300492 -0.168140 -0.604172 0.128858 -0.724124 
HCCDB-1.S109 0.454503 -0.375968 0.059798 -0.097038 0.155538 -0.712059 0.741564 0.757906 -0.106087 0.055621 -0.077911 0.236954 -0.266324 0.490991 -0.707982 -0.431896 0.389798 -0.928426 -0.003328 -0.448117 -0.074541 0.606437 0.236578 0.709458 -0.013969 -0.166799 -0.190260 -0.287771 0.190206 0.347910 -0.340182 0.332734 0.892303 -0.677142 -0.554267 0.330500 -0.198179 -0.285785 0.175112 -0.391145 -0.013926 0.130979 0.304599 -0.572915 -0.127515 -0.028567 0.216808 0.841188 0.027585 0.123476 0.259096 -0.004280 -0.127688 0.140154 0.076263 -0.534407 0.311695 0.099158 -0.224994 0.140919 0.399156 -0.374817 -0.022926 -0.007274 0.550999 -0.285893 0.389883 0.149217 -0.123804 0.019639 0.124342 0.419129 -0.018410 0.042560 0.050539 0.167693 -0.017775 -0.596348 0.633924 -0.620230 0.499396 0.391934 -0.490726 -0.546317 -0.301895 -0.357368 -0.248277 -0.195298 0.106302 0.104757 -0.206892 -0.653122 -0.082424 0.053360 0.665630 0.061702 -0.232923 0.146895 -0.045249 -0.849988 0.248359 0.025384 0.181609 -0.123002 -0.297621 0.074721 -0.111964 0.797730 0.048892 -0.102813 0.242530 0.695078 0.124211 0.100502 -0.124683 0.062005 -0.028263 -0.398580 0.292000 -0.611141 -0.022543 0.189717 -0.193665 0.284077 -0.186272 0.151188 -0.410937 -0.494633 0.643590 -0.280104 -0.146678 0.165987 -0.077509 0.173812 0.427573 0.300419 -0.561409 -0.194287 0.463943 -0.530795 0.341845 -0.501263 -0.200524 0.191330 -0.292193 -0.045911 0.523596 0.068786 -0.388251 -0.282807 0.586307 -0.098885 0.265645 0.264343 0.633309 0.382807 0.226628 -1.007587 -0.068556 -0.441432 0.305687 -0.197352 -0.205663 -0.164776 -0.010087 0.297660 -0.151509 0.741873 -1.073916 -0.461894 0.077428 0.321678 0.270100 -0.344441 0.310466 0.061749 -0.682397 0.250385 0.060392 -0.313339 -0.023381 -0.558280 1.102225 0.142300 0.632915 -0.029555 -0.354442 -0.375603 -0.717422 -1.067575 -1.147817 1.074211 0.001907 0.445654 0.008496 0.158070 -0.052427 -0.536757 0.112821 -0.886476 
HCCDB-1.S111 0.396576 -0.362920 0.175216 -0.061891 -0.005422 -0.721824 0.895185 0.451508 -0.121110 0.008373 -0.153822 0.466190 0.007576 0.328363 -0.648942 -0.277195 0.316440 -1.199792 -0.001221 -0.665640 -0.211882 0.500846 0.247596 0.864619 -0.211248 -0.100282 0.006343 -0.137009 0.092895 0.306435 -0.403031 0.228165 0.977957 -0.571850 -0.401883 0.284918 -0.291635 -0.390538 0.134006 -0.428169 -0.019563 0.187910 0.234265 -0.466404 0.061512 -0.068822 0.376475 0.713278 0.145964 0.095793 0.259132 0.052841 0.113006 0.111648 -0.062677 -0.454188 0.227325 0.300024 -0.270256 0.154581 0.264986 -0.222484 -0.042664 0.173246 0.552057 -0.392906 0.309627 0.221777 -0.170378 0.017415 0.013999 0.417720 -0.202804 0.032142 -0.019336 0.323607 0.066456 -0.679588 0.583157 -0.658865 0.384811 0.237519 -0.255540 -0.462778 -0.260297 -0.356388 -0.157458 -0.049927 0.234359 0.033471 -0.197588 -0.625711 -0.120501 -0.023639 0.708896 -0.028024 -0.454416 0.108219 0.019745 -0.763736 0.397865 -0.145670 0.097514 -0.096183 -0.089975 0.117395 -0.013285 0.892762 -0.010916 -0.146208 0.330429 0.749762 0.274223 -0.005764 0.034293 -0.032317 0.054162 -0.215903 0.403920 -0.478232 -0.131240 0.209622 -0.087225 0.261223 -0.359321 0.160957 -0.008242 -0.486556 0.658462 -0.380874 -0.386503 0.292029 -0.295357 0.174730 0.463291 0.332721 -0.841748 0.051501 0.519877 -0.358425 0.477522 -0.579256 -0.246227 0.356975 -0.342589 -0.106836 0.621583 -0.145491 -0.456376 -0.257669 0.463153 -0.116671 0.151036 0.268742 0.497723 0.360420 0.189188 -0.926007 0.288809 -0.498052 0.257014 -0.392185 -0.191501 0.070093 0.002264 0.204503 -0.052362 0.755877 -1.116841 -0.449625 0.048788 0.300077 0.265283 -0.432306 0.710687 0.001137 -0.701218 0.327520 -0.050049 -0.295838 -0.096268 -0.694845 1.036624 0.138017 0.437116 -0.155389 -0.383922 -0.510408 -0.697191 -0.991581 -1.123018 1.179271 0.070009 0.491721 0.025972 0.070775 0.060709 -0.495408 0.087398 -0.785209 
HCCDB-1.S113 0.429112 -0.314159 0.186391 -0.044164 0.059864 -0.622999 0.694892 0.662549 -0.208072 0.153896 0.115029 0.226513 -0.176829 0.412419 -0.773176 -0.215336 0.306360 -0.975912 0.007325 -0.660686 -0.080764 0.429044 0.287947 0.727901 0.038945 -0.165536 -0.158717 -0.143172 0.101360 0.112437 -0.229878 0.391904 0.904684 -0.576883 -0.561174 0.349018 -0.306642 -0.400441 -0.106630 -0.534024 0.152785 0.089491 0.330212 -0.428080 -0.007300 -0.161543 0.188910 0.665709 0.095324 0.065627 0.382178 0.187742 -0.053168 -0.160197 0.186769 -0.489385 0.317944 0.049210 -0.228415 0.015753 0.387834 -0.243914 -0.158842 0.194004 0.675081 -0.312505 0.394097 0.081052 -0.100262 0.257896 0.126024 0.497771 0.043643 0.028435 -0.060682 0.388128 -0.014623 -0.480663 0.701076 -0.520096 0.299196 0.309820 -0.149905 -0.628135 -0.343927 -0.523130 -0.201874 -0.180244 0.117578 0.194735 -0.398289 -0.645762 -0.169169 -0.025901 0.747367 -0.051816 -0.331711 0.161738 -0.048888 -0.970522 0.399095 -0.011649 0.196985 -0.151681 0.003117 0.143104 -0.186227 0.823570 0.237962 -0.220040 0.344980 0.781735 0.191214 0.111521 -0.055423 -0.033737 0.060409 -0.343220 0.522465 -0.671290 -0.033496 0.376065 -0.186258 0.164689 -0.185488 0.158824 -0.116711 -0.384826 0.633785 -0.379873 -0.121856 0.084320 -0.272299 0.129556 0.209172 0.263169 -0.499047 0.056573 0.539625 -0.487771 0.477297 -0.520613 -0.197322 0.297980 -0.325844 -0.034665 0.611570 0.147090 -0.331987 -0.440828 0.480500 -0.094148 0.156904 0.310393 0.452423 0.323279 0.304991 -1.031090 -0.087246 -0.386848 0.270084 -0.129494 -0.103461 -0.138159 0.001366 0.258337 -0.220850 0.717906 -1.234218 -0.396188 0.076797 0.412660 0.214504 -0.372270 0.490758 -0.099687 -0.541077 0.245609 0.025092 -0.270424 -0.197163 -0.769217 1.023530 0.071197 0.476508 -0.110178 -0.330818 -0.484825 -0.709110 -0.771571 -1.288645 0.995764 -0.088745 0.353230 0.058250 0.207815 -0.094281 -0.514482 0.068389 -0.815054 
HCCDB-1.S114 0.412967 -0.220608 0.022666 -0.082733 -0.087249 -0.630142 0.868504 0.740059 0.012473 0.115246 -0.148832 0.306141 -0.193363 0.393081 -0.856081 -0.309548 0.220337 -0.957485 -0.120115 -0.600254 -0.066374 0.521148 0.299337 0.810667 -0.048397 -0.149017 -0.143702 -0.173662 0.146245 0.212168 -0.367330 0.404354 0.844279 -0.552183 -0.631288 0.420678 -0.155942 -0.519566 0.118416 -0.523654 0.127420 0.267198 0.361089 -0.419304 -0.028097 -0.105619 0.317661 0.751173 -0.039673 0.004108 0.212161 0.131973 -0.106148 -0.088064 0.104318 -0.558911 0.455103 0.236080 -0.285124 0.132568 0.352864 -0.316964 -0.124146 0.194216 0.515496 -0.421105 0.293002 0.058605 -0.167676 0.062008 0.047810 0.544178 0.153967 0.041388 -0.101365 0.278879 -0.009261 -0.510720 0.680680 -0.316866 0.294988 0.205834 -0.219198 -0.618044 -0.420669 -0.467769 -0.220859 -0.126186 0.265787 0.062853 -0.234888 -0.629204 -0.315038 0.146068 0.652340 -0.142071 -0.301962 0.079800 -0.032424 -0.737814 0.330590 -0.169210 0.230476 -0.289908 -0.161492 0.174496 -0.302825 0.822485 0.015319 0.030166 0.293093 0.847757 0.111064 0.251168 -0.052216 0.040094 0.105344 -0.453208 0.312311 -0.585909 -0.068086 0.200407 -0.125128 0.270838 -0.209566 0.336504 -0.118439 -0.574906 0.755100 -0.091999 -0.309191 0.164641 -0.218604 0.271385 0.359223 0.438190 -0.612638 -0.030036 0.353561 -0.496922 0.429141 -0.531757 -0.198020 0.312327 -0.235645 -0.088104 0.542536 0.073033 -0.275701 -0.362875 0.366542 -0.096359 0.414004 0.235495 0.563508 0.247749 0.156303 -0.919559 -0.086291 -0.508568 0.365014 -0.264888 -0.068103 -0.173321 0.153487 0.162894 -0.119518 0.858501 -1.051907 -0.583555 -0.042704 0.397341 0.333531 -0.285831 0.464759 -0.072586 -0.628166 0.258613 -0.030909 -0.362223 -0.156968 -0.773083 0.931015 0.028376 0.534523 -0.172936 -0.368082 -0.780998 -0.812510 -1.054986 -1.135693 0.846850 -0.123245 0.334446 -0.176420 0.330180 -0.182340 -0.502458 0.123965 -0.775905 
HCCDB-1.S116 0.386431 -0.347988 0.246175 0.061590 0.193903 -0.451864 0.770181 0.604622 -0.161078 0.163471 -0.062169 0.237782 -0.189529 0.460444 -0.815849 -0.094964 0.377997 -0.820774 0.060922 -0.577760 -0.093236 0.563142 0.234246 0.707494 0.001926 -0.099735 -0.191869 -0.034985 0.079056 0.079100 -0.378837 0.291755 0.957002 -0.560672 -0.753787 0.345212 -0.224345 -0.338418 0.204928 -0.512137 0.120189 0.205220 0.478984 -0.346544 0.024350 0.091395 0.357106 0.761069 0.035264 0.147879 0.183777 0.127895 -0.034206 0.099408 -0.060220 -0.453412 0.443308 -0.135542 -0.231003 0.064972 0.479287 -0.249628 -0.028957 0.048560 0.633400 -0.359151 0.583524 0.114299 -0.163403 -0.027757 -0.032049 0.392242 -0.006973 0.420199 0.125245 0.324890 0.142554 -0.666779 0.696506 -0.550822 0.322497 0.204240 -0.215916 -0.603435 -0.458808 -0.377214 -0.320586 -0.091605 0.233742 0.056277 -0.311001 -0.617999 -0.107927 0.040301 0.776461 -0.009542 -0.336184 0.195340 0.136793 -0.791190 0.418943 -0.215402 0.140758 -0.098254 -0.227850 0.051975 -0.051664 0.830629 0.062645 -0.189588 0.351670 0.925616 0.091431 0.125270 -0.030969 -0.005982 0.016213 -0.519473 0.530965 -0.604323 -0.060396 0.336503 -0.022222 0.430500 -0.092193 0.204516 -0.191486 -0.404394 0.810641 -0.182329 -0.108081 0.234456 -0.453160 0.224566 0.401924 0.316572 -0.522283 -0.233122 0.439003 -0.385624 0.431253 -0.622836 -0.341269 0.167115 -0.226488 0.074031 0.528036 0.041234 -0.493409 -0.408488 0.331543 -0.037176 0.182229 0.199068 0.523266 0.202076 0.233305 -1.071695 0.079308 -0.375311 0.306470 -0.211362 -0.197701 -0.082426 0.137204 0.382333 -0.178876 0.711632 -1.142220 -0.515168 0.217399 0.536403 0.250286 -0.367330 0.417496 -0.003170 -0.692522 0.205647 -0.041347 -0.276515 -0.154146 -0.681762 0.968990 -0.041844 0.839519 0.152283 -0.149500 -0.631785 -0.564042 -1.014590 -1.108043 0.920235 -0.196600 0.518007 0.014562 0.123312 -0.097525 -0.543275 0.042475 -0.792145 
HCCDB-1.S118 0.391859 -0.328859 0.124368 -0.016985 -0.067095 -0.646545 0.714638 0.612912 -0.065984 0.025476 -0.189528 0.340930 -0.190293 0.248203 -0.786302 -0.284753 0.241357 -0.941152 0.024421 -0.637453 -0.056202 0.569658 0.083092 0.765436 -0.024174 -0.139125 -0.100441 -0.281077 0.099496 0.162427 -0.383071 0.376192 1.082927 -0.534102 -0.638391 0.400739 -0.336387 -0.317888 -0.049425 -0.488303 0.193863 0.248636 0.363086 -0.251636 -0.070010 -0.002254 0.317988 0.892437 0.103589 0.083188 0.181359 0.205433 -0.041334 -0.044900 0.038979 -0.468620 0.248615 0.076209 -0.257594 0.096210 0.263053 -0.217517 0.089936 0.014492 0.630965 -0.467285 0.310311 0.100584 -0.150786 0.099538 0.135418 0.504184 0.096886 -0.011718 0.011225 0.181595 -0.102137 -0.684889 0.538584 -0.513169 0.355800 0.210898 -0.181117 -0.651878 -0.412596 -0.418662 -0.234795 -0.181502 0.255476 0.129238 -0.408102 -0.609772 -0.325866 0.051732 0.804524 -0.149208 -0.329726 0.155547 0.112221 -0.883411 0.394250 -0.004118 0.107597 -0.123641 -0.099255 0.186821 -0.107199 0.798450 0.050208 -0.118532 0.226803 0.723193 0.210074 0.117292 -0.102660 0.033206 0.114049 -0.407827 0.308384 -0.605467 -0.091838 0.109259 -0.170041 0.203074 -0.235157 0.185913 -0.289268 -0.417214 0.850267 -0.241030 -0.100017 0.102467 -0.299332 0.204853 0.270842 0.376066 -0.591604 -0.080607 0.552090 -0.435562 0.420359 -0.517030 -0.130842 0.361114 -0.313663 -0.125107 0.583968 0.180380 -0.330589 -0.366895 0.458813 -0.092154 0.296271 0.272316 0.530577 0.253543 0.196212 -1.066146 0.037824 -0.490414 0.308088 -0.241300 -0.134026 -0.056368 0.018089 0.351579 -0.165647 0.661629 -1.090046 -0.499418 0.011722 0.419915 0.325022 -0.209531 0.301431 -0.160121 -0.637448 0.318167 0.013001 -0.358516 -0.009427 -0.759245 1.083195 0.098334 0.496674 -0.008614 -0.401917 -0.549577 -0.837601 -0.874893 -1.214478 0.876188 -0.021270 0.284211 0.066017 0.210598 -0.307457 -0.478972 0.066248 -0.618110 
HCCDB-1.S12 0.226675 -0.405229 0.071429 -0.059373 -0.040316 -0.746783 0.821558 0.658840 -0.050013 -0.052393 -0.130867 0.212994 -0.099571 0.290093 -0.827386 -0.218258 0.245086 -1.054044 -0.150751 -0.497409 -0.097116 0.385541 0.222745 0.799595 -0.035484 -0.174958 0.164463 -0.175502 0.146385 0.251204 -0.371916 0.301371 0.851611 -0.556010 -0.582301 0.208402 0.051845 -0.458901 0.121132 -0.481441 0.117994 0.125330 0.251348 -0.414885 -0.017189 -0.215519 0.300379 0.758715 0.252587 0.059113 0.118299 0.218270 -0.030567 -0.076977 0.064568 -0.436244 0.444030 0.194340 -0.259610 0.166403 0.366984 -0.262979 -0.020430 0.223228 0.592415 -0.398593 0.521720 0.043588 -0.159187 -0.051368 0.011549 0.465898 -0.019300 0.190973 0.135858 0.380622 0.078859 -0.666456 0.697872 -0.371710 0.365236 0.260028 -0.000584 -0.517694 -0.327590 -0.274648 -0.271697 -0.095046 0.196849 -0.060152 -0.446415 -0.526073 -0.324236 0.070295 0.540375 0.137876 -0.305478 0.204820 -0.028947 -0.761337 0.266971 -0.153912 0.067821 -0.133207 -0.087027 0.025230 0.002250 0.739681 -0.001261 -0.222203 0.321182 0.917166 0.285694 0.216754 -0.067500 0.087077 0.033290 -0.475594 0.371040 -0.553490 -0.184635 0.091143 -0.132529 0.215950 0.078919 0.123949 0.041049 -0.381311 0.900861 -0.167408 -0.271377 -0.004141 -0.235859 0.175804 0.348338 0.471540 -0.397386 -0.051180 0.583439 -0.510226 0.424970 -0.540897 -0.204173 0.370746 -0.283981 -0.078468 0.519883 0.205985 -0.373155 -0.249017 0.512205 0.050977 0.412655 0.395203 0.647757 0.294899 0.288253 -1.056829 -0.015305 -0.524522 0.210360 -0.255956 -0.073364 -0.122497 0.042937 0.286239 -0.206116 0.793740 -1.427886 -0.629695 0.054119 0.487715 0.148548 -0.349952 0.354444 -0.153366 -0.702525 0.328813 -0.066018 -0.352267 -0.250077 -0.731700 0.781699 -0.038784 0.484700 -0.168007 -0.357642 -0.609932 -0.829193 -1.194705 -1.243916 0.958042 0.125624 0.393324 0.069394 0.260126 0.006466 -0.517383 -0.087600 -0.954348 
HCCDB-1.S120 0.442878 -0.346219 0.171818 -0.016120 0.045654 -0.609800 0.665940 0.681754 -0.215990 0.133653 0.128358 0.249042 -0.198119 0.410119 -0.780918 -0.247350 0.292861 -1.000643 0.039514 -0.668684 -0.071537 0.468807 0.257700 0.739210 0.033929 -0.222677 -0.135857 -0.175320 0.093587 0.119098 -0.213092 0.408362 0.912877 -0.586286 -0.563623 0.383293 -0.290184 -0.428929 -0.146057 -0.577789 0.143349 0.076956 0.324106 -0.434111 -0.012357 -0.169331 0.128374 0.641769 0.091275 0.060026 0.361896 0.214383 -0.055982 -0.116066 0.149553 -0.489389 0.323023 0.042921 -0.192149 0.021993 0.400314 -0.229308 -0.121867 0.173318 0.639304 -0.295501 0.453110 0.110035 -0.076605 0.245282 0.125372 0.472407 0.034779 0.026362 -0.044877 0.384207 0.003133 -0.522105 0.674911 -0.555780 0.285515 0.265999 -0.150686 -0.574996 -0.360865 -0.518418 -0.210708 -0.184193 0.122500 0.194275 -0.382814 -0.645806 -0.183965 -0.015762 0.717636 -0.029044 -0.317967 0.149286 -0.034930 -0.990598 0.447748 -0.056824 0.267206 -0.157831 -0.021336 0.143761 -0.184057 0.832989 0.257789 -0.192498 0.312305 0.792013 0.160134 0.114732 -0.064977 -0.013553 0.066651 -0.318619 0.603192 -0.682647 -0.024623 0.360155 -0.149482 0.109127 -0.166820 0.168626 -0.128174 -0.376873 0.601987 -0.357666 -0.183775 0.108398 -0.200990 0.135086 0.205623 0.279433 -0.469776 0.023722 0.531976 -0.474704 0.477931 -0.520612 -0.237548 0.275158 -0.341502 -0.058748 0.644299 0.171448 -0.330820 -0.410167 0.503957 -0.068056 0.151481 0.327764 0.450252 0.292839 0.306422 -1.020126 -0.081331 -0.390004 0.283412 -0.127700 -0.110783 -0.121288 0.014214 0.254267 -0.226309 0.756414 -1.194625 -0.391960 0.098363 0.420776 0.228384 -0.349171 0.472269 -0.096382 -0.534703 0.213973 0.036428 -0.259916 -0.209016 -0.751137 0.983098 0.103966 0.465542 -0.075052 -0.305388 -0.498203 -0.722667 -0.800360 -1.285999 0.999993 -0.048370 0.320480 0.084483 0.163962 -0.094907 -0.512724 0.070021 -0.863263 
HCCDB-1.S121 0.184757 -0.223352 -0.022300 -0.248243 0.121503 -0.608585 0.830063 0.629700 -0.323722 -0.032985 -0.146619 0.211625 0.088464 0.346577 -0.926933 -0.041986 0.313563 -0.990994 -0.072609 -0.814787 -0.082513 0.529808 0.054864 0.876362 -0.294941 -0.015677 -0.168533 -0.501075 0.058759 0.271108 -0.537204 0.319521 0.853463 -0.564938 -0.659974 0.478872 -0.219429 -0.496061 0.008407 -0.377349 0.103223 0.106084 0.497470 -0.482621 -0.022326 -0.009110 0.367394 0.679278 0.179982 -0.109835 0.310183 0.184716 -0.072036 -0.017335 0.007957 -0.460804 0.429446 0.128152 -0.234589 0.209510 0.435686 -0.060176 -0.309218 0.209795 0.578937 -0.424158 0.452311 0.058175 0.027337 -0.136865 0.322218 0.513052 0.157059 0.125859 0.145444 0.211042 0.210480 -0.607957 0.506094 -0.478708 0.444613 0.197482 -0.173784 -0.532184 -0.343952 -0.475764 -0.154555 -0.201649 0.091860 0.159071 -0.399662 -0.437342 -0.469287 -0.157486 0.867469 0.073902 -0.508340 0.238305 0.057153 -0.779464 0.425028 -0.012772 -0.035814 -0.297495 -0.090215 0.098471 -0.046068 0.896904 -0.108354 0.121529 0.162173 0.964905 0.160320 -0.046764 -0.114199 0.092287 0.133511 -0.330388 0.293404 -0.417228 0.010282 0.302813 -0.272927 0.384886 -0.116342 -0.046160 -0.001927 -0.419047 0.828943 -0.380865 -0.286836 0.092876 -0.072895 0.267868 0.407059 0.307835 -0.384173 0.020832 0.543097 -0.424588 0.514721 -0.647520 -0.243520 0.159888 -0.154997 0.035148 0.528957 -0.085837 -0.352363 -0.344468 0.417395 -0.155916 0.286204 0.387613 0.681248 0.443455 0.276392 -1.064952 -0.070950 -0.616659 0.309133 -0.189749 -0.107438 -0.148858 0.058661 0.380686 -0.405620 0.795629 -1.016895 -0.413976 0.076962 0.603873 0.278116 -0.269645 0.234649 -0.172765 -0.677252 0.269732 -0.195473 -0.238011 -0.144812 -0.488001 0.964881 0.077499 0.415490 -0.130376 -0.183855 -0.648774 -0.550872 -0.993462 -1.259059 0.980841 0.310295 0.320125 -0.071767 0.362123 0.063859 -0.284880 0.110340 -0.882297 
HCCDB-1.S123 0.373047 -0.214897 0.130428 -0.113036 0.011120 -0.608317 0.802513 0.590333 -0.096650 0.082151 -0.066839 0.322814 -0.214742 0.325443 -0.757824 -0.339206 0.204911 -0.922824 -0.017107 -0.624446 -0.295467 0.470223 0.217322 0.806726 -0.037964 -0.242378 0.023596 -0.191303 0.177637 0.128625 -0.505448 0.421736 0.901162 -0.599656 -0.549801 0.241154 -0.321461 -0.429894 0.054299 -0.566968 0.085804 0.210949 0.345481 -0.442252 -0.181402 0.017130 0.355162 0.725146 -0.017763 0.164936 0.272882 0.339199 -0.098252 -0.078171 0.131848 -0.485571 0.383002 -0.042831 -0.249739 0.103815 0.331527 -0.071592 -0.042487 0.028206 0.506928 -0.392629 0.297703 0.225486 -0.094686 0.148409 0.164795 0.571070 0.179602 0.264274 0.023260 0.312950 -0.023697 -0.548597 0.582987 -0.405993 0.397738 0.283417 -0.146844 -0.570947 -0.497900 -0.232497 -0.143069 -0.260091 0.122283 0.083749 -0.360136 -0.641644 -0.281334 -0.000020 0.700074 0.076078 -0.455907 0.245067 -0.044720 -0.831765 0.419872 -0.071564 0.217269 -0.193099 -0.042586 0.104560 -0.142643 0.777144 0.036043 -0.075828 0.315030 0.798654 0.263174 0.004151 -0.149739 0.053740 0.112362 -0.351555 0.386041 -0.528454 0.050915 0.155953 0.036035 0.231700 -0.155492 0.351880 -0.178892 -0.598705 0.772703 -0.194076 -0.261862 0.242744 -0.157110 0.135295 0.319777 0.390162 -0.554402 -0.008120 0.485835 -0.534215 0.343497 -0.547444 -0.205140 0.313370 -0.280845 0.002649 0.504215 0.197065 -0.281544 -0.438459 0.476073 -0.104091 0.305757 0.260777 0.622401 0.375269 0.363395 -0.923444 0.031024 -0.473749 0.325079 -0.239297 -0.109275 -0.131389 -0.077665 0.288394 -0.129409 0.784549 -1.177817 -0.614707 0.032152 0.382269 0.271514 -0.358017 0.314535 -0.129116 -0.550799 0.150602 -0.079579 -0.269219 -0.145171 -0.861155 1.083411 0.163379 0.560195 -0.054283 -0.382539 -0.504601 -0.768758 -0.888879 -1.114491 0.973473 -0.099178 0.328925 -0.080276 0.279326 -0.247728 -0.565317 0.033923 -0.738749 
HCCDB-1.S125 0.351150 -0.230622 0.042278 -0.091456 -0.078768 -0.744569 0.822432 0.670265 -0.065938 0.097925 -0.056614 0.307176 -0.020209 0.365516 -0.728471 -0.297996 0.139345 -1.029300 -0.097364 -0.564954 -0.186436 0.396331 0.168705 0.912724 -0.055197 -0.220182 -0.091165 -0.218831 0.049061 0.211718 -0.369751 0.267372 1.003412 -0.582265 -0.505941 0.288825 -0.245677 -0.346816 0.103787 -0.479089 0.140300 0.228803 0.380140 -0.290886 -0.121842 0.018342 0.091533 0.774314 0.034863 0.028136 0.218999 0.185679 -0.126895 -0.068893 0.215874 -0.455537 0.340645 -0.071650 -0.235437 0.120261 0.336844 -0.317765 0.113821 0.187839 0.620383 -0.294863 0.348809 0.005207 -0.111763 0.114556 -0.030508 0.500785 -0.075578 0.062917 -0.108178 0.396329 -0.090591 -0.447564 0.663397 -0.677166 0.282112 0.358728 -0.104245 -0.570332 -0.369259 -0.286046 -0.228859 -0.266872 0.109999 0.073897 -0.304697 -0.671706 -0.287103 -0.025861 0.702352 -0.102439 -0.467519 0.089950 0.094953 -0.847202 0.341308 -0.159860 0.234243 -0.230807 -0.099513 -0.039212 -0.181662 0.945770 0.046381 0.063443 0.224798 0.692004 0.214262 0.151562 0.032440 0.078672 0.112056 -0.551667 0.378687 -0.737715 -0.078197 0.318316 -0.001160 0.217034 -0.105430 0.042326 -0.297634 -0.396246 0.762901 -0.242388 -0.106335 0.097197 -0.143073 0.093953 0.340391 0.371538 -0.497258 -0.083761 0.550020 -0.476357 0.298730 -0.511826 -0.248690 0.300405 -0.178747 -0.042023 0.546226 -0.051021 -0.378050 -0.443256 0.522898 -0.032225 0.256211 0.317884 0.522590 0.313055 0.324960 -1.042015 0.144785 -0.605827 0.269205 -0.214363 -0.182324 -0.139261 0.028148 0.226359 -0.171650 0.728678 -1.147711 -0.517522 0.003810 0.568246 0.211239 -0.330681 0.400223 -0.191196 -0.602607 0.255808 -0.045713 -0.222400 -0.095209 -0.678477 1.113822 0.147365 0.496564 -0.066968 -0.221176 -0.610743 -0.782272 -0.886528 -1.178599 0.916999 0.085831 0.388046 0.182468 0.314395 -0.156435 -0.495957 0.009148 -0.745754 
HCCDB-1.S127 0.446064 -0.244153 0.083013 0.064689 0.038334 -0.714849 0.830068 0.756940 -0.136070 -0.003185 -0.013299 0.333363 -0.043419 0.228089 -0.632991 -0.359278 0.264092 -0.921224 0.035391 -0.566724 0.006565 0.606442 0.348831 0.835205 0.029283 -0.332312 -0.075534 -0.192410 0.141377 0.302915 -0.344109 0.366896 0.882775 -0.645575 -0.608143 0.371596 -0.196077 -0.348670 -0.004014 -0.479381 -0.019136 0.153409 0.403318 -0.359026 -0.031870 0.058614 0.432426 0.776658 -0.067549 0.082505 0.246645 0.223256 0.011829 -0.030078 0.280063 -0.528958 0.446472 0.036172 -0.007030 0.135887 0.362750 -0.252337 0.096862 0.132638 0.545087 -0.194112 0.258925 0.017064 0.073226 0.179973 0.047595 0.637625 0.068961 0.103387 0.070069 0.263134 0.097839 -0.731004 0.832271 -0.519734 0.328950 0.267598 -0.316830 -0.646864 -0.324602 -0.227735 -0.262997 -0.109902 0.283293 0.109477 -0.361933 -0.583109 -0.336235 0.053810 0.707708 0.012215 -0.256405 0.126770 0.052184 -0.844042 0.308800 -0.087917 0.207623 -0.264634 0.137043 0.078365 -0.215859 0.640046 0.076135 -0.136497 0.006694 0.802781 0.188448 0.143277 0.009433 0.073304 0.056102 -0.448969 0.410992 -0.508638 0.140484 0.289018 -0.093705 0.346664 -0.003977 0.286340 -0.175251 -0.326793 0.813893 -0.403904 -0.488499 0.071624 -0.172535 0.224543 0.511897 0.347149 -0.460506 -0.022693 0.497142 -0.611707 0.437934 -0.543353 -0.236300 0.283726 -0.326524 0.103611 0.528780 0.146745 -0.282489 -0.533358 0.482301 -0.266788 0.259773 0.248636 0.552542 0.238221 0.190109 -1.082846 0.043452 -0.360880 0.155362 -0.232746 -0.282412 -0.104703 -0.011342 0.338612 -0.147638 0.646489 -1.223802 -0.524978 0.058119 0.529766 0.166102 -0.342703 0.194592 0.059099 -0.680948 0.265383 0.014407 -0.355653 -0.231695 -0.757002 0.896832 0.197350 0.637457 -0.308844 -0.243260 -0.507839 -0.731892 -0.938912 -1.158060 0.969934 -0.043241 0.444337 -0.150110 0.325829 -0.122363 -0.617816 0.023391 -0.849873 
HCCDB-1.S129 0.378767 -0.231725 0.018830 0.054542 -0.007981 -0.636907 0.686481 0.640777 -0.174958 0.081560 -0.198179 0.242544 -0.184197 0.302108 -0.803891 -0.150011 0.258885 -1.001774 0.037336 -0.545335 -0.031139 0.366276 0.189203 0.852710 -0.181845 -0.187200 0.012135 -0.238243 0.212120 0.243149 -0.494216 0.301476 0.988902 -0.741738 -0.644216 0.379254 -0.139129 -0.474170 0.029464 -0.517270 0.166767 0.093689 0.305764 -0.495246 -0.120836 -0.148419 0.313249 0.695440 0.087121 0.083924 0.281669 0.080093 0.046319 -0.067557 0.027157 -0.396522 0.266558 0.148052 -0.208480 -0.000125 0.404153 -0.191948 -0.116386 0.142204 0.590084 -0.438855 0.374286 0.138345 -0.008912 0.124203 0.037981 0.566631 0.007656 0.156048 0.125383 0.346805 -0.011194 -0.597818 0.489658 -0.492687 0.414905 0.344840 -0.215584 -0.407722 -0.475339 -0.268633 -0.192978 -0.265085 0.207522 -0.018284 -0.451788 -0.623728 -0.313126 -0.109131 0.644631 0.077824 -0.350801 0.187445 -0.042315 -0.761631 0.387130 -0.095398 0.119330 -0.254721 -0.065583 0.157679 -0.109036 0.827192 -0.012675 -0.107886 0.284175 0.801738 0.231631 0.181802 -0.052132 0.181757 0.079938 -0.341046 0.477507 -0.615002 0.114561 0.241509 -0.120891 0.219910 -0.021475 0.201025 -0.308225 -0.407208 0.665418 -0.301411 -0.229546 0.059499 -0.139323 0.200019 0.438550 0.390194 -0.418131 0.046371 0.500549 -0.388175 0.333735 -0.412478 -0.244286 0.300254 -0.209556 0.008576 0.632171 0.120163 -0.315768 -0.472128 0.527283 -0.095703 0.394135 0.278899 0.600615 0.272983 0.303988 -1.123597 0.067461 -0.609813 0.261293 -0.298280 -0.156717 -0.049811 0.055183 0.289918 -0.206660 0.663038 -1.177312 -0.478920 0.218091 0.375395 0.343184 -0.239412 0.370425 -0.131043 -0.572146 0.309451 0.110542 -0.347752 -0.166229 -0.707996 1.054411 -0.025230 0.467090 -0.012267 -0.323356 -0.616657 -0.807491 -1.018649 -1.180108 0.877014 0.087874 0.350493 0.062938 0.182087 -0.096712 -0.680295 0.038180 -0.700005 
HCCDB-1.S131 0.315675 -0.219399 0.145748 0.009072 0.095822 -0.792138 0.704042 0.722283 -0.077620 0.101999 -0.095278 0.255580 -0.092370 0.288053 -0.657140 -0.297517 0.297962 -0.827047 -0.008536 -0.673306 -0.129854 0.492233 0.099429 0.783875 -0.131430 -0.153946 -0.048577 -0.160026 -0.045542 0.095245 -0.350484 0.197507 0.920686 -0.538297 -0.502382 0.561970 -0.129149 -0.267291 0.301613 -0.323939 0.194044 0.150032 0.212470 -0.354780 -0.130521 -0.096568 0.357277 0.551477 -0.027135 0.029788 0.384794 0.084040 -0.069299 -0.119272 0.178447 -0.503331 0.392091 0.054350 -0.294888 0.113450 0.378891 -0.342022 -0.008783 0.029127 0.663607 -0.427714 0.362724 0.059833 -0.016320 0.000465 0.242227 0.481072 0.066446 0.100434 -0.011577 0.154774 0.167421 -0.619980 0.676822 -0.436598 0.348798 0.195125 -0.259929 -0.370974 -0.349631 -0.332776 -0.193009 -0.241821 0.120413 0.142184 -0.363431 -0.699469 -0.327513 -0.024881 0.659434 0.140841 -0.444998 0.144204 -0.062934 -0.884757 0.527188 -0.085317 0.085192 -0.298323 -0.186880 0.122035 0.036099 0.884712 0.062056 -0.057245 0.364318 0.793925 0.299828 0.051572 -0.034991 0.177487 0.194121 -0.453770 0.396601 -0.648026 -0.011154 0.359302 -0.089894 0.290259 -0.053712 0.144117 -0.255170 -0.343155 0.742635 -0.186614 -0.237289 0.102812 -0.180165 0.097470 0.458345 0.374144 -0.582586 -0.041944 0.533609 -0.356386 0.425081 -0.527023 -0.213139 0.365226 -0.160079 -0.036999 0.545138 0.098246 -0.216612 -0.368387 0.532638 -0.201326 0.398261 0.336664 0.419571 0.106006 0.291815 -1.162163 -0.070314 -0.590495 0.242895 -0.315756 -0.226099 -0.153743 -0.017009 0.278274 -0.081900 0.911085 -1.175766 -0.420298 0.153703 0.378187 0.240724 -0.450918 0.436076 -0.059902 -0.634822 0.282109 -0.104214 -0.146715 -0.205700 -0.636421 0.992323 0.005784 0.317330 -0.129748 -0.219853 -0.687204 -0.731067 -1.179117 -1.241004 0.829474 0.003316 0.358753 0.069400 0.264307 -0.230464 -0.658127 0.111054 -0.753290 
HCCDB-1.S133 0.347370 -0.320308 0.133460 0.018325 -0.055056 -0.766623 0.754558 0.751818 -0.129856 0.045769 -0.077598 0.270209 -0.009975 0.353028 -0.784434 -0.259690 0.362589 -1.031813 0.062832 -0.514238 -0.301586 0.531497 0.365278 0.727702 -0.124714 -0.325700 -0.117650 -0.226142 0.009436 0.201415 -0.303489 0.314423 0.883978 -0.519417 -0.689758 0.413807 -0.232875 -0.313137 0.052453 -0.640516 0.222031 0.106003 0.446890 -0.477767 -0.063495 0.032050 0.321915 0.585322 -0.034039 0.139605 0.197355 0.265178 0.006335 -0.022483 0.099029 -0.325607 0.393516 -0.059934 -0.248471 0.304625 0.476845 -0.261177 -0.032180 0.092892 0.530054 -0.251221 0.304745 0.287124 -0.133038 0.030440 0.125370 0.342820 0.093461 0.192251 -0.025301 0.370722 0.044052 -0.733409 0.665223 -0.505052 0.318805 0.263215 -0.219251 -0.558308 -0.401686 -0.425035 -0.175174 -0.182061 -0.028083 0.037683 -0.175341 -0.660901 -0.437331 0.089375 0.687562 0.005332 -0.379131 0.217823 0.051548 -0.707095 0.458780 -0.053932 0.271092 -0.076970 -0.038421 0.050336 -0.113470 0.709753 0.061360 -0.050379 0.242662 0.792730 0.206706 0.134769 0.175453 -0.036386 0.084241 -0.583319 0.506203 -0.667836 -0.079215 0.256811 -0.038897 0.222678 -0.125787 0.220919 -0.173842 -0.427838 0.723621 -0.317787 -0.105191 0.099796 -0.242540 0.123424 0.364810 0.423947 -0.662044 -0.077219 0.323166 -0.519938 0.308944 -0.524587 -0.292260 0.207135 -0.147316 -0.040395 0.590777 0.136310 -0.367078 -0.483711 0.388867 -0.061587 0.269879 0.373025 0.515884 0.322684 0.209269 -1.009767 0.004557 -0.413301 0.232822 -0.390887 -0.103224 -0.137657 -0.009980 0.272058 -0.119258 0.686047 -1.125071 -0.339741 -0.016113 0.441548 0.251642 -0.278088 0.286436 -0.082601 -0.694087 0.263209 0.002596 -0.415444 -0.044432 -0.708245 1.059064 0.169772 0.524584 -0.084704 -0.208914 -0.510074 -0.721139 -0.803720 -1.160099 0.980270 -0.004809 0.439296 -0.072218 0.177958 -0.220068 -0.687664 0.056292 -0.944118 
HCCDB-1.S135 0.415070 -0.300502 0.153728 -0.039067 0.090455 -0.570961 0.666877 0.691817 -0.201352 0.125243 0.127658 0.219555 -0.191277 0.390257 -0.765738 -0.231538 0.294343 -0.992399 0.038369 -0.637103 -0.080811 0.433755 0.309066 0.733172 0.019633 -0.185158 -0.139053 -0.196835 0.088541 0.132764 -0.264318 0.414165 0.900292 -0.546102 -0.524189 0.386229 -0.298858 -0.420326 -0.120156 -0.548491 0.132792 0.064981 0.354968 -0.446005 -0.004571 -0.186414 0.158219 0.690252 0.078890 0.072792 0.347760 0.201981 -0.071043 -0.186619 0.162902 -0.482212 0.325422 0.048798 -0.196182 0.044058 0.423530 -0.227163 -0.184642 0.153399 0.639307 -0.329253 0.428797 0.106125 -0.112280 0.235798 0.134566 0.489852 0.010457 0.036785 -0.049337 0.396790 -0.013543 -0.474574 0.685382 -0.537758 0.278179 0.265602 -0.140164 -0.603504 -0.354365 -0.493238 -0.214456 -0.128664 0.141093 0.160876 -0.349597 -0.662064 -0.151534 -0.032665 0.722695 -0.068698 -0.344887 0.160576 -0.039188 -0.979596 0.448242 -0.004103 0.181966 -0.173974 -0.053059 0.141203 -0.194718 0.804996 0.247936 -0.215824 0.320537 0.791274 0.196078 0.086023 -0.018964 -0.052261 0.029882 -0.373403 0.611539 -0.705804 -0.044096 0.335374 -0.198448 0.129463 -0.175205 0.141344 -0.121908 -0.388356 0.631777 -0.375457 -0.151458 0.126082 -0.238191 0.113409 0.232914 0.288667 -0.472992 0.053776 0.598474 -0.517476 0.498341 -0.503559 -0.205768 0.318804 -0.334420 -0.056285 0.656318 0.168035 -0.315306 -0.395996 0.527256 -0.066939 0.195978 0.346539 0.443433 0.317524 0.307813 -1.038740 -0.091369 -0.366269 0.264900 -0.085845 -0.091457 -0.150403 0.011901 0.268317 -0.223881 0.719064 -1.225273 -0.452458 0.086711 0.400498 0.229953 -0.387288 0.503279 -0.109015 -0.525908 0.214692 0.018200 -0.272006 -0.176387 -0.714954 1.004063 0.044778 0.454591 -0.113063 -0.343515 -0.506734 -0.748044 -0.789284 -1.329881 1.008623 -0.091627 0.347778 0.061395 0.189866 -0.076403 -0.498209 0.073565 -0.802263 
HCCDB-1.S137 0.319174 -0.250759 0.108500 0.176597 0.056537 -0.604855 0.849138 0.670925 -0.122199 0.016156 -0.111666 0.251771 -0.038165 0.303066 -0.781568 -0.164593 0.306304 -0.894220 -0.030530 -0.677984 -0.134807 0.485851 0.345561 0.828690 0.041109 -0.244681 -0.192622 -0.164718 0.196690 0.233266 -0.354734 0.470296 0.902820 -0.523331 -0.484431 0.320634 -0.340486 -0.229226 0.124988 -0.428657 0.228600 0.108395 0.295483 -0.546847 -0.169787 -0.150144 0.433259 0.819599 0.005796 0.281280 0.473361 0.114925 -0.103775 -0.084255 0.232113 -0.523254 0.225900 0.070195 -0.302956 0.370155 0.377668 -0.241629 -0.045248 0.172106 0.540401 -0.333562 0.417526 0.153953 -0.169731 -0.025315 -0.076430 0.288707 0.003488 0.140044 -0.103124 0.460066 -0.074543 -0.645232 0.689679 -0.359858 0.456718 0.238223 -0.183784 -0.558434 -0.471322 -0.347529 -0.214365 -0.001001 0.156853 0.069119 -0.356185 -0.709120 -0.220119 -0.000714 0.787584 -0.055397 -0.226002 0.043825 -0.080177 -0.753773 0.358039 -0.227086 0.131824 -0.147348 0.043125 0.065500 -0.110043 0.814602 0.149669 0.062449 0.250768 0.642541 0.175405 0.092729 -0.042748 0.041972 -0.142505 -0.411634 0.403854 -0.684102 0.061216 0.346622 -0.151688 0.258917 -0.183017 0.070284 -0.148340 -0.493230 0.681488 -0.259520 -0.252150 0.350305 -0.107831 0.092089 0.342838 0.415172 -0.674540 -0.096888 0.526393 -0.376104 0.281777 -0.505098 -0.130368 0.369797 -0.192736 -0.045826 0.508332 0.113555 -0.303213 -0.505720 0.454359 -0.077445 0.308370 0.180197 0.651827 0.369299 0.260397 -1.043842 0.024050 -0.505679 0.241644 -0.280918 -0.192695 -0.047725 0.020081 0.368001 -0.326590 0.853888 -1.139813 -0.477226 0.097562 0.266228 0.326423 -0.356861 0.379399 -0.091353 -0.637781 0.441199 -0.094034 -0.385417 -0.001318 -0.780801 0.933367 -0.023378 0.613331 -0.142636 -0.124535 -0.569152 -0.653253 -0.877330 -1.156898 0.807100 0.118980 0.325381 -0.042689 0.202682 -0.114260 -0.560029 0.011839 -0.880532 
HCCDB-1.S139 0.307963 -0.452613 0.093610 0.095716 0.090011 -0.724742 0.722523 0.704353 -0.122825 -0.085577 -0.116853 0.347909 -0.135625 0.350930 -0.896230 -0.247391 0.289384 -1.005882 0.062151 -0.597732 0.002492 0.540484 0.156476 0.814777 -0.050624 -0.091522 -0.029620 -0.301477 0.154125 0.165279 -0.350212 0.392276 0.927376 -0.441552 -0.641794 0.350690 -0.204913 -0.402967 0.071859 -0.545065 0.132706 0.160440 0.364225 -0.502147 -0.104051 0.053787 0.296678 0.788122 0.007990 0.017655 0.177970 0.169789 0.011429 -0.115546 0.126069 -0.464820 0.350188 0.229361 -0.316693 0.083107 0.453209 -0.315363 -0.022304 0.118087 0.578003 -0.461763 0.332257 0.204389 -0.263864 0.099158 -0.005549 0.357906 0.090303 0.153045 0.060086 0.238162 0.058567 -0.642369 0.654601 -0.475837 0.319401 0.253807 -0.202101 -0.570164 -0.370664 -0.325604 -0.184016 -0.146188 0.233390 0.091194 -0.295517 -0.657865 -0.311284 0.097663 0.720034 -0.020788 -0.457620 0.112743 0.131430 -0.810665 0.485594 -0.136985 0.216552 -0.139906 -0.044704 0.086978 -0.195599 0.680798 0.076964 -0.033738 0.270260 0.784948 0.072621 0.006628 -0.089290 0.033228 0.081132 -0.450133 0.472412 -0.692488 -0.024276 0.232775 -0.221744 0.283735 -0.050170 0.149946 -0.222421 -0.468690 0.747998 -0.331728 -0.267152 0.206212 -0.242221 0.246503 0.266542 0.420726 -0.572083 0.037641 0.350809 -0.526785 0.370480 -0.610889 -0.163813 0.198337 -0.212333 -0.210100 0.577398 0.266507 -0.294186 -0.416307 0.496271 0.036377 0.325669 0.351265 0.495578 0.363803 0.275647 -1.025245 -0.023364 -0.526329 0.368186 -0.339443 -0.044460 -0.144735 -0.015630 0.254313 0.013673 0.743455 -0.940473 -0.382915 0.018269 0.419706 0.311274 -0.288708 0.397913 -0.075367 -0.692600 0.315842 0.065887 -0.379727 -0.248310 -0.616817 1.009188 0.092291 0.573376 -0.152033 -0.210626 -0.513080 -0.720114 -0.834312 -1.253029 0.943893 -0.123584 0.475919 -0.123862 0.186474 -0.236081 -0.551638 0.064668 -0.657838 
HCCDB-1.S14 0.512900 -0.424709 0.078869 -0.015199 -0.010433 -0.662102 0.728459 0.739856 -0.151203 0.120953 -0.083084 0.241669 -0.139383 0.288642 -0.804475 -0.251082 0.415756 -0.963673 0.045413 -0.468411 -0.160002 0.217658 0.296804 0.722466 -0.159838 -0.134864 -0.012431 -0.299833 0.209675 0.317822 -0.420036 0.374975 0.909222 -0.566567 -0.566117 0.226541 -0.187721 -0.368579 -0.039935 -0.500019 0.120843 -0.068785 0.306073 -0.387626 -0.094093 -0.046310 0.238420 0.641187 0.189164 0.084596 0.305394 0.120374 -0.135435 -0.054298 0.137373 -0.491695 0.301889 0.160531 -0.189215 0.186703 0.228852 -0.364787 -0.030316 0.135486 0.532308 -0.564354 0.487916 0.158311 -0.012826 0.043983 -0.052813 0.514055 0.043983 0.009881 0.018700 0.354675 0.177844 -0.707920 0.587755 -0.439724 0.549931 0.261417 -0.197694 -0.569100 -0.246977 -0.289989 -0.289446 -0.140408 0.254935 0.047503 -0.277688 -0.701255 -0.215926 0.057851 0.990445 -0.037952 -0.518161 0.200718 0.018633 -0.904235 0.362837 0.029653 -0.010873 -0.140568 -0.042413 0.135624 -0.087103 0.820057 0.102678 -0.180094 0.383468 0.708294 0.093565 0.312890 -0.007464 -0.065730 0.033327 -0.487265 0.424003 -0.585740 -0.043984 0.354060 -0.179504 0.306489 -0.113507 0.183149 -0.145941 -0.442054 0.640954 -0.146770 -0.288992 0.179362 -0.006883 0.229142 0.306449 0.317501 -0.644764 -0.052900 0.467479 -0.376482 0.303431 -0.585836 -0.188957 0.352541 -0.330251 -0.024183 0.633053 0.085246 -0.344597 -0.412099 0.533103 -0.036967 0.258424 0.395267 0.412022 0.277160 0.337489 -0.896340 -0.020809 -0.689301 0.353297 -0.348374 -0.116051 -0.048031 -0.180292 0.358564 -0.420199 0.819107 -0.985466 -0.497405 0.189483 0.571931 0.309790 -0.231840 0.396796 0.056388 -0.712344 0.324970 0.116403 -0.232524 -0.205406 -0.768264 0.857499 0.088753 0.419200 -0.003249 -0.339303 -0.763379 -0.697808 -0.940260 -1.143072 0.810730 0.085938 0.407135 -0.071400 0.252738 -0.153030 -0.610692 0.190624 -0.745058 
HCCDB-1.S140 0.308980 -0.305878 0.111657 0.055031 -0.131642 -0.607282 0.770096 0.587394 -0.133290 0.000638 -0.030044 0.315561 -0.065965 0.318331 -0.752822 -0.276385 0.263298 -1.008766 -0.053443 -0.567793 -0.172177 0.464524 0.062362 0.843923 -0.013593 -0.143378 -0.097801 -0.231490 0.284224 0.179480 -0.292195 0.438674 0.839569 -0.669828 -0.621478 0.388202 -0.307255 -0.355682 0.137488 -0.569379 0.308948 0.088582 0.383476 -0.357332 -0.070358 0.018125 0.313460 0.741449 -0.065427 0.016247 0.311766 0.097426 -0.195374 0.008559 0.267795 -0.583578 0.430382 0.055394 -0.333512 0.206094 0.335698 -0.253004 0.047087 0.134235 0.523836 -0.419382 0.359677 0.185965 -0.075784 0.103358 0.072522 0.376908 -0.023373 0.244068 -0.138107 0.303543 0.001436 -0.689210 0.646611 -0.482202 0.325203 0.168151 -0.223493 -0.601519 -0.403221 -0.264654 -0.213322 -0.213511 0.123865 0.027537 -0.381278 -0.720356 -0.063910 -0.035567 0.776615 0.105763 -0.251888 0.035896 -0.115218 -0.743853 0.372120 -0.113931 0.190462 -0.278841 -0.045316 0.040722 -0.077225 0.701148 0.005381 -0.110993 0.255585 0.782172 0.158138 -0.044246 0.037273 -0.051985 0.091239 -0.458225 0.369524 -0.590760 0.031374 0.271228 -0.062215 0.245943 -0.107467 0.148030 -0.031288 -0.395379 0.895351 -0.363884 -0.245051 0.189915 -0.142974 0.086059 0.253416 0.338667 -0.565160 0.075360 0.538513 -0.534276 0.382987 -0.558851 -0.099816 0.250279 -0.275027 -0.159389 0.519398 0.018947 -0.278024 -0.407568 0.552119 -0.177068 0.339613 0.282848 0.579374 0.327348 0.269279 -0.980859 0.031997 -0.461746 0.143874 -0.247147 -0.124752 0.009246 -0.001458 0.114089 -0.203106 0.766544 -1.170843 -0.513307 0.105457 0.422180 0.330778 -0.224640 0.407656 -0.085544 -0.747175 0.227410 -0.057449 -0.284738 -0.107879 -0.713005 0.990995 0.217037 0.504438 0.082444 -0.278496 -0.532478 -0.744943 -0.971271 -1.271717 0.809818 -0.105410 0.320060 -0.054627 0.096996 -0.150898 -0.612591 0.189752 -0.719231 
HCCDB-1.S144 0.282631 -0.223600 0.121442 -0.021441 0.033456 -0.845408 0.773870 0.705154 -0.367179 0.074338 -0.035491 0.309549 0.056179 0.476513 -0.888462 -0.369117 0.139645 -0.894830 -0.118275 -0.640384 -0.164143 0.382098 0.298534 0.718399 0.021206 -0.234435 -0.067131 -0.159503 0.079163 0.184119 -0.291252 0.243236 1.063352 -0.580962 -0.580257 0.383304 -0.364721 -0.415679 0.156003 -0.479613 0.184814 0.160905 0.319499 -0.420574 -0.119878 -0.106747 0.270983 0.705883 0.027468 -0.019530 0.266746 0.207797 0.067102 -0.146596 0.249364 -0.531432 0.390691 0.238051 -0.277126 0.102540 0.345757 -0.326113 -0.040901 0.181021 0.525668 -0.383821 0.272240 0.237611 -0.143934 0.101442 0.026853 0.338708 0.059513 0.171691 -0.083686 0.314763 -0.035500 -0.534127 0.719510 -0.509447 0.506867 0.227015 -0.219621 -0.457979 -0.335573 -0.364755 -0.202391 -0.109787 0.121287 -0.019460 -0.307228 -0.570640 -0.349715 -0.072747 0.746229 -0.035461 -0.386660 0.213546 0.042348 -0.737542 0.335268 -0.056048 0.084626 -0.112094 -0.214808 -0.006094 -0.027580 0.839569 0.039491 0.002254 0.341541 0.855635 0.116730 0.073386 -0.016929 0.033805 -0.006538 -0.531334 0.415305 -0.598764 -0.040954 0.316175 0.010933 0.196877 -0.026480 0.144855 -0.220417 -0.432159 0.781448 -0.303039 0.051386 0.232887 -0.267857 0.247235 0.281970 0.308418 -0.590127 -0.075978 0.520141 -0.608217 0.227297 -0.577494 -0.180848 0.219674 -0.356173 0.044677 0.592519 0.133842 -0.217237 -0.277063 0.498492 -0.070976 0.260642 0.284425 0.489886 0.283836 0.361145 -0.943750 -0.083854 -0.344321 0.225687 -0.248401 -0.192183 -0.039138 -0.128367 0.100678 -0.097809 0.818239 -1.115958 -0.473571 0.087434 0.308542 0.345273 -0.341508 0.403397 -0.139681 -0.644985 0.310927 -0.022085 -0.191601 -0.141471 -0.580608 1.010362 0.245026 0.714401 -0.158108 -0.191621 -0.627420 -0.690797 -0.953218 -1.221556 0.979532 -0.008360 0.342941 0.163054 0.102866 -0.122814 -0.508575 0.160345 -0.696387 
HCCDB-1.S145 0.482965 -0.212069 0.075991 -0.096800 0.005454 -0.650192 0.742581 0.621315 0.027546 0.204566 -0.056583 0.206756 0.026652 0.352015 -0.828482 -0.155960 0.245741 -0.989807 0.050962 -0.592439 -0.060736 0.464903 0.267359 0.726666 -0.157695 -0.077648 -0.101233 -0.283033 0.103736 0.278988 -0.425393 0.412324 0.836327 -0.683037 -0.514168 0.106745 -0.225961 -0.319717 0.097476 -0.489887 0.244675 0.364453 0.383952 -0.265610 -0.086742 0.090183 0.357611 0.707642 0.053834 0.027326 0.275320 0.106958 -0.160211 -0.082810 0.174550 -0.429636 0.319961 0.105400 -0.258449 0.223363 0.283836 -0.230823 -0.001151 0.040775 0.567172 -0.266545 0.430731 0.194071 -0.179062 0.017013 0.042439 0.589960 -0.032095 0.141784 -0.064773 0.387135 -0.016049 -0.791305 0.693652 -0.422106 0.444160 0.285190 -0.211425 -0.560404 -0.277668 -0.417781 -0.213681 -0.187830 0.182194 -0.061063 -0.314375 -0.594464 -0.163673 -0.162125 0.719813 -0.113669 -0.373947 0.079902 0.141651 -0.915158 0.437735 -0.083989 0.157886 -0.343436 0.057618 -0.029702 -0.177892 0.727919 0.087796 -0.103445 0.252397 1.015602 0.364361 0.071389 -0.054887 -0.065009 0.098650 -0.490630 0.359387 -0.599094 -0.097815 0.247470 -0.176624 0.277792 0.064484 0.224984 -0.105729 -0.454950 0.761269 -0.397904 -0.163876 0.098429 -0.193353 0.133846 0.331819 0.361259 -0.516106 -0.070866 0.470720 -0.478819 0.437167 -0.579772 -0.288220 0.204668 -0.155156 -0.102265 0.408592 0.221855 -0.457274 -0.496593 0.488193 -0.060239 0.363458 0.266506 0.607801 0.235807 0.174465 -0.967433 -0.021811 -0.550072 0.147768 -0.166939 -0.149438 0.044663 0.122710 0.332094 -0.117016 0.669283 -1.298298 -0.470245 -0.139978 0.265074 0.186889 -0.449628 0.496115 -0.056716 -0.752844 0.424334 -0.026727 -0.358828 -0.112266 -0.700520 1.017524 0.174859 0.496993 0.000774 -0.230873 -0.604073 -0.857374 -0.928031 -1.203178 0.983777 -0.182523 0.359843 -0.144133 0.282565 -0.260880 -0.609088 0.167028 -0.675756 
HCCDB-1.S147 0.416427 -0.263748 0.100092 -0.020847 0.037103 -0.720036 0.693945 0.731588 -0.180015 0.048343 -0.133190 0.320015 0.000821 0.305183 -0.709393 -0.289695 0.281820 -0.866298 -0.014132 -0.474117 -0.073290 0.462232 0.065894 0.793742 -0.030095 0.000963 -0.076117 -0.197861 0.021489 0.251104 -0.363860 0.377704 0.905046 -0.587384 -0.500483 0.278542 -0.189014 -0.425661 0.002428 -0.484191 0.201987 0.198219 0.399226 -0.467336 -0.023447 0.026680 0.349405 0.762020 0.066308 0.091572 0.251546 0.229984 -0.074988 -0.145716 0.135450 -0.468154 0.332665 0.161712 -0.221164 0.154081 0.319167 -0.391975 0.088041 0.156676 0.573178 -0.385838 0.280537 0.101422 -0.170090 0.120520 0.170964 0.488996 -0.072519 0.067347 -0.003688 0.249900 -0.067651 -0.580791 0.538539 -0.554416 0.410942 0.350871 -0.082834 -0.507542 -0.432493 -0.342141 -0.213199 -0.111169 0.207034 0.082277 -0.318144 -0.748788 -0.308678 0.053083 0.811765 -0.025499 -0.377714 0.059433 -0.040668 -0.906067 0.458377 -0.057587 0.136770 -0.316294 -0.149154 0.155967 -0.136196 0.811055 0.010606 -0.131857 0.183023 0.793880 0.203194 0.198851 -0.085416 0.125221 0.056216 -0.429178 0.519585 -0.605817 -0.052037 0.156917 -0.022232 0.083870 -0.175948 0.180845 -0.213240 -0.474671 0.746642 -0.268290 -0.282998 0.173291 -0.195803 0.233689 0.312403 0.293166 -0.635404 0.004650 0.474837 -0.439929 0.339068 -0.583460 -0.257445 0.228744 -0.280012 -0.105979 0.655078 0.000198 -0.431616 -0.396369 0.472366 0.003386 0.315419 0.313193 0.513888 0.312570 0.260748 -1.012299 0.067975 -0.485994 0.285406 -0.295309 -0.210876 -0.041944 -0.071516 0.214883 -0.157753 0.776613 -1.169423 -0.515293 0.060381 0.468749 0.292132 -0.343722 0.398457 -0.044717 -0.580442 0.310663 0.002898 -0.256432 -0.153509 -0.684993 1.024666 0.018856 0.489773 -0.040758 -0.306920 -0.576314 -0.793460 -0.985164 -1.163684 0.964351 -0.090639 0.287919 0.003608 0.155857 -0.152354 -0.542199 0.160406 -0.812553 
HCCDB-1.S148 0.369605 -0.245754 0.096323 -0.109561 0.144618 -0.595142 0.748527 0.758816 -0.234385 -0.003050 -0.078317 0.218617 -0.061031 0.301247 -0.648028 -0.236403 0.226140 -0.970930 0.026542 -0.402910 -0.155294 0.305972 0.217140 0.769847 -0.143391 -0.144471 -0.024663 -0.348383 0.128442 0.334927 -0.438034 0.444050 0.940177 -0.528682 -0.503874 0.365807 -0.147504 -0.359224 0.043406 -0.510194 0.265838 0.115127 0.438022 -0.389549 0.010221 -0.088058 0.189242 0.590499 0.042700 0.204131 0.200890 0.247302 -0.012398 0.003749 0.132193 -0.423553 0.309016 0.190434 -0.231806 0.198702 0.303283 -0.429410 -0.055620 0.097202 0.426009 -0.519039 0.375909 0.213737 -0.111801 0.172000 0.105111 0.563098 0.024114 0.111785 0.068526 0.232851 0.071367 -0.734481 0.554974 -0.394989 0.429962 0.278792 -0.218707 -0.623271 -0.454437 -0.288152 -0.209561 -0.100141 0.254960 0.068833 -0.429931 -0.682402 -0.163787 0.040172 0.841711 -0.043805 -0.401934 0.170508 0.052200 -0.931119 0.515739 -0.073995 0.095809 -0.159010 -0.134095 0.130122 -0.054447 0.959886 0.113415 -0.075353 0.370125 0.836669 0.140475 0.307991 -0.169221 0.121523 0.037838 -0.476667 0.508015 -0.506453 -0.033491 0.135578 -0.104340 0.194603 -0.045707 0.133091 -0.177247 -0.363346 0.779650 -0.270343 -0.148553 0.048248 -0.199904 0.284047 0.361758 0.240492 -0.604998 0.080046 0.513853 -0.431093 0.372306 -0.518428 -0.275276 0.310928 -0.394900 -0.037460 0.556306 0.077716 -0.228616 -0.458491 0.550726 -0.067314 0.312175 0.235755 0.651315 0.276327 0.359853 -0.895022 0.116456 -0.533315 0.246724 -0.342058 -0.126889 -0.023968 -0.187047 0.303842 -0.202728 0.805889 -1.087924 -0.449343 0.065144 0.384872 0.246396 -0.239993 0.395707 -0.058332 -0.646714 0.235599 -0.109768 -0.286114 -0.315314 -0.698603 0.942856 0.091165 0.450709 0.024494 -0.379763 -0.526438 -0.803941 -1.025912 -1.250420 0.928884 -0.035929 0.402482 0.027150 0.268586 -0.194861 -0.728625 0.148150 -0.668714 
HCCDB-1.S150 0.313811 -0.356905 0.232484 -0.163418 0.023271 -0.739174 0.811134 0.628009 -0.042606 -0.072838 -0.017340 0.405683 -0.158338 0.182454 -0.908862 -0.238205 0.160306 -0.935072 -0.097349 -0.385051 0.038030 0.534975 0.089703 0.701112 -0.050729 -0.097620 -0.099983 -0.094772 0.100112 0.195316 -0.276400 0.317176 1.007260 -0.701239 -0.666927 0.492192 -0.293583 -0.369425 0.148624 -0.577073 0.055968 0.189771 0.295040 -0.356833 0.004312 -0.046088 0.316717 0.739666 0.098570 0.158256 0.133038 0.163815 -0.127562 0.232114 0.139704 -0.573649 0.296171 0.113092 -0.341115 0.199147 0.254313 -0.303813 -0.038647 0.117831 0.699942 -0.342890 0.243001 0.092585 -0.010482 0.053415 0.071826 0.469456 0.009276 0.072694 -0.027284 0.318185 -0.088594 -0.690207 0.657660 -0.540929 0.293281 0.393077 -0.224963 -0.478462 -0.456508 -0.469928 -0.162868 -0.241306 0.083754 -0.004899 -0.280304 -0.703611 -0.174523 -0.042614 0.887430 -0.139493 -0.356138 0.183364 0.137661 -0.901018 0.384340 -0.080575 0.291874 -0.236040 0.011035 0.112137 -0.275995 0.780956 0.025768 -0.091367 0.263099 0.829470 0.114439 -0.041134 -0.012821 0.044670 0.020597 -0.543116 0.466667 -0.671633 -0.150053 0.271833 -0.171632 0.290530 -0.253410 0.141350 -0.002621 -0.471713 0.676876 -0.354961 -0.288818 0.224507 -0.145140 0.114790 0.427894 0.234281 -0.470455 -0.022275 0.457087 -0.288880 0.582346 -0.710742 -0.080453 0.262068 -0.142551 -0.234644 0.516353 0.154092 -0.164534 -0.403747 0.363259 -0.061207 0.252310 0.195733 0.592043 0.230454 0.364187 -0.915513 0.058414 -0.471740 0.384705 -0.258262 -0.146855 -0.099007 0.026234 0.160059 -0.209401 0.745816 -1.147573 -0.314391 0.128043 0.460907 0.299527 -0.367498 0.358874 -0.117218 -0.640162 0.130143 0.056042 -0.282592 -0.254841 -0.592764 0.961071 0.041019 0.456086 0.093898 -0.357398 -0.515328 -0.664735 -0.954448 -1.122649 0.774284 0.143249 0.236542 -0.184471 0.221665 -0.335026 -0.671429 0.134921 -0.890527 
HCCDB-1.S152 0.304944 -0.367780 0.248472 -0.005096 -0.078377 -0.711507 0.759505 0.702472 -0.112590 0.122063 -0.111696 0.229752 0.063949 0.370746 -0.712529 -0.241912 0.328380 -0.970678 -0.155625 -0.649125 -0.045774 0.601395 0.033972 0.485926 -0.113895 -0.265370 0.021349 -0.140708 0.278721 0.199153 -0.375061 0.393215 0.813217 -0.699880 -0.545838 0.425154 -0.303230 -0.491715 0.224579 -0.581045 0.078156 0.164674 0.499516 -0.337151 -0.135568 0.096905 0.359961 0.724944 0.107476 0.211692 0.384419 0.151183 -0.052746 -0.020504 0.204136 -0.428022 0.515007 0.108602 -0.181610 0.185336 0.429633 -0.329734 -0.128797 0.129137 0.576900 -0.342948 0.350515 -0.029697 -0.118672 0.193748 0.192933 0.371178 -0.026768 0.213893 -0.007544 0.376323 -0.097651 -0.589602 0.832727 -0.623352 0.484167 0.252485 -0.167449 -0.485037 -0.577496 -0.409730 -0.357819 -0.234105 0.025195 0.115257 -0.325570 -0.669841 -0.248296 -0.037043 0.625516 -0.013825 -0.341146 0.146144 0.100590 -0.591084 0.362838 -0.163284 0.316103 -0.187357 -0.080272 -0.041114 -0.039854 0.690084 -0.026279 -0.000261 0.317041 0.886733 0.197930 0.219555 -0.199774 0.200012 0.134368 -0.414621 0.261323 -0.636082 -0.053943 0.263506 -0.137178 0.409197 -0.040224 0.165728 -0.087682 -0.358891 0.841120 -0.205753 -0.220032 0.128414 -0.203889 0.270141 0.271329 0.416623 -0.579986 -0.159523 0.493468 -0.379217 0.284177 -0.581649 -0.119024 0.285958 -0.328909 -0.052375 0.578058 0.129560 -0.351100 -0.187493 0.613421 -0.075169 0.211407 0.223821 0.680907 0.266772 0.236227 -0.925767 0.041613 -0.520151 0.163114 -0.091884 -0.113347 -0.246292 -0.254870 0.126500 -0.262478 0.629671 -1.111918 -0.422827 0.074664 0.492651 0.202737 -0.348343 0.345455 -0.005849 -0.596091 0.255778 -0.108535 -0.262742 -0.201527 -0.792134 0.917093 0.063392 0.576959 -0.084343 -0.247354 -0.483791 -0.826139 -1.099393 -1.231268 1.108859 -0.121048 0.365854 0.041640 0.170968 -0.149337 -0.560438 0.182324 -0.600511 
HCCDB-1.S154 0.485605 -0.217482 0.099391 0.005463 -0.007612 -0.627801 0.669754 0.725188 -0.186858 -0.000670 -0.101285 0.407864 -0.189896 0.393465 -0.659467 -0.294464 0.369995 -1.100896 0.044568 -0.637314 -0.012782 0.628571 0.252056 0.780305 0.017622 0.000266 -0.087039 -0.278116 0.111282 0.155056 -0.415677 0.390562 0.955685 -0.595158 -0.433083 0.271127 -0.265572 -0.438985 0.178934 -0.632214 0.310505 0.201031 0.450894 -0.372677 -0.063931 0.113924 0.375504 0.728984 0.164717 0.187607 0.265953 0.127748 -0.054976 -0.074301 0.234700 -0.516296 0.295500 0.249115 -0.186143 0.200696 0.330094 -0.256998 -0.079189 0.222944 0.505087 -0.478517 0.306307 0.088768 -0.259968 -0.077681 0.261034 0.486136 -0.006240 0.169461 -0.045264 0.248547 -0.091126 -0.548902 0.634559 -0.371460 0.530098 0.396789 -0.151382 -0.452943 -0.353647 -0.362059 -0.183348 -0.109558 0.127502 0.126896 -0.308229 -0.691511 -0.378950 0.052211 0.631727 -0.166007 -0.324564 0.190585 -0.087842 -0.646224 0.473805 -0.109503 0.160433 -0.281042 -0.169526 0.094663 -0.200564 0.711814 -0.035299 -0.088861 0.172149 0.670034 0.134163 0.153640 -0.142788 -0.074583 0.091623 -0.421585 0.497063 -0.617386 -0.135040 0.157825 -0.173564 0.198360 -0.143826 0.041495 -0.264297 -0.383147 0.819731 -0.245734 -0.175168 0.191517 -0.292667 0.294173 0.263508 0.252609 -0.536998 -0.042633 0.560959 -0.530444 0.369183 -0.567994 -0.193903 0.204774 -0.218497 -0.091767 0.563405 0.014774 -0.232979 -0.439223 0.520826 -0.154335 0.254715 0.301318 0.525419 0.330322 0.277755 -1.047015 0.098855 -0.391708 0.377639 -0.254469 -0.155043 -0.081588 -0.165441 0.140220 -0.199479 0.854398 -1.173280 -0.568531 0.186116 0.489939 0.360556 -0.143303 0.405325 -0.081129 -0.656746 0.259369 0.078260 -0.336399 -0.093422 -0.576154 0.955375 0.134122 0.458413 -0.093804 -0.303761 -0.599776 -0.729620 -1.064969 -1.269497 0.925085 -0.135705 0.327353 -0.067260 0.267987 -0.135126 -0.457344 0.008212 -0.725954 
HCCDB-1.S156 0.381491 -0.216327 -0.028042 0.080887 0.001324 -0.607962 0.760867 0.776212 -0.125226 -0.029701 -0.102514 0.236316 0.008571 0.296430 -0.728178 -0.288445 0.253618 -0.875554 0.018609 -0.610269 -0.113579 0.399804 0.214751 0.773716 0.002758 -0.264977 0.034370 -0.198364 0.078327 0.279883 -0.434049 0.403782 0.939351 -0.583056 -0.473331 0.258294 -0.244935 -0.452137 0.035143 -0.497736 0.150189 0.245899 0.486253 -0.439569 -0.132405 -0.036754 0.322746 0.767281 0.050054 0.140793 0.118333 0.267205 -0.077242 -0.058993 0.082255 -0.647959 0.353575 0.134535 -0.174696 0.151251 0.431539 -0.297044 0.005875 0.094007 0.414761 -0.397259 0.387329 0.059389 -0.037866 0.190249 0.122891 0.523385 0.030025 0.098220 0.008879 0.276984 0.046055 -0.605134 0.642903 -0.506543 0.365396 0.323445 -0.108332 -0.541621 -0.437182 -0.342160 -0.007278 -0.243067 0.182984 0.043690 -0.267582 -0.673014 -0.255364 0.040156 0.728872 -0.020323 -0.471130 0.106194 -0.033877 -0.803204 0.430357 -0.103287 0.127670 -0.173753 -0.008178 -0.029528 -0.220612 0.836751 0.047696 -0.102288 0.292886 0.782997 0.213695 0.165908 -0.200167 0.103280 -0.032901 -0.473903 0.479495 -0.604550 -0.107459 0.152947 -0.137369 0.231227 -0.043070 0.183268 -0.091518 -0.452384 0.730197 -0.302302 -0.292624 0.141861 -0.200196 0.200398 0.359334 0.360232 -0.544186 0.059072 0.573044 -0.507649 0.214029 -0.420913 -0.170448 0.271691 -0.278130 0.031354 0.563101 0.082309 -0.293238 -0.436667 0.595157 -0.139434 0.325978 0.384610 0.602428 0.236950 0.321656 -1.085690 0.125632 -0.445530 0.251230 -0.276406 -0.144664 -0.059727 -0.102234 0.388544 -0.080250 0.735736 -1.130468 -0.491044 0.066546 0.356865 0.244218 -0.336287 0.358540 -0.110577 -0.663442 0.230366 -0.136693 -0.278091 -0.177492 -0.668134 1.055781 0.053637 0.564698 -0.041990 -0.295049 -0.543895 -0.738380 -1.124562 -1.222858 0.967602 -0.105882 0.405098 0.016797 0.186940 -0.167700 -0.509542 0.063113 -0.755787 
HCCDB-1.S158 0.441087 -0.409995 0.193543 0.022478 -0.034097 -0.840021 0.770131 0.647184 -0.070658 0.060046 -0.162015 0.311065 -0.264265 0.336995 -0.702521 -0.335823 0.222850 -0.982852 -0.009136 -0.629079 -0.174905 0.428242 0.151985 0.768774 -0.107843 -0.191698 -0.108683 -0.316003 0.143127 0.183852 -0.327694 0.281988 0.901135 -0.545767 -0.637259 0.390004 -0.215374 -0.392003 0.139647 -0.457609 -0.074776 0.160049 0.455701 -0.525425 -0.035162 -0.029485 0.290197 0.775860 0.051778 0.147995 0.149143 0.292147 0.059621 -0.105577 0.220341 -0.568409 0.372807 0.158517 -0.188788 0.269953 0.292530 -0.319673 -0.017895 0.209942 0.600871 -0.301632 0.380395 0.048028 -0.104869 0.091099 0.026597 0.446252 0.060856 0.146261 0.044577 0.147239 0.000139 -0.534420 0.700643 -0.422844 0.400432 0.181139 -0.332556 -0.412019 -0.439658 -0.346619 -0.150613 -0.189088 0.213375 0.177149 -0.268860 -0.783911 -0.207356 -0.086576 0.754230 -0.159356 -0.408567 0.058073 0.195609 -0.793970 0.452321 -0.135475 0.078820 -0.074498 -0.065977 0.075308 -0.094294 0.680745 0.044896 -0.232528 0.367605 0.720011 0.077468 0.103139 -0.099345 -0.086870 -0.001015 -0.536103 0.488943 -0.649582 -0.140394 0.223206 -0.099193 0.166448 -0.037810 0.263111 -0.132264 -0.417473 0.671443 -0.288655 -0.122811 0.212051 -0.192361 0.201435 0.308298 0.535323 -0.572291 -0.056983 0.400347 -0.435045 0.397641 -0.607598 -0.157003 0.154482 -0.211565 -0.034940 0.568215 0.183961 -0.273839 -0.404408 0.499841 -0.076196 0.368509 0.357055 0.583658 0.307556 0.283043 -1.114217 -0.049130 -0.540155 0.376748 -0.229923 -0.313879 -0.034223 0.048077 0.301111 -0.302136 0.820345 -1.149655 -0.456464 0.072068 0.478997 0.243098 -0.312599 0.416559 -0.120980 -0.630877 0.353901 -0.144167 -0.296562 -0.136330 -0.600626 1.145774 0.144108 0.506097 -0.055116 -0.271490 -0.367469 -0.708201 -0.897388 -1.254086 0.851230 0.013812 0.317047 -0.104358 0.237506 -0.147724 -0.360795 0.072546 -0.648976 
HCCDB-1.S16 0.302591 -0.280655 0.146588 0.052014 -0.041144 -0.505048 0.657578 0.759279 -0.271393 0.079817 -0.111312 0.249180 -0.077583 0.364651 -0.650645 -0.197615 0.143651 -0.972660 -0.000864 -0.499574 -0.144464 0.402891 0.211544 0.858193 -0.097008 -0.204143 0.036940 -0.333208 0.277721 0.226746 -0.297361 0.352032 1.009380 -0.677250 -0.527078 0.391673 -0.150674 -0.370165 0.047931 -0.552240 0.308697 -0.018499 0.449663 -0.423593 -0.090853 -0.091601 0.218585 0.725791 0.082852 0.063946 0.234783 0.069131 -0.058293 -0.098173 0.117926 -0.447710 0.247365 0.064554 -0.109014 0.183868 0.330673 -0.333711 -0.033585 0.201626 0.602901 -0.384148 0.418286 0.011761 -0.099086 0.114694 -0.012388 0.501544 0.021514 0.116617 0.039062 0.243703 0.160761 -0.707828 0.534060 -0.454514 0.470062 0.298354 -0.086665 -0.546965 -0.357902 -0.340277 -0.194444 -0.255367 0.193335 0.084667 -0.248048 -0.701799 -0.362938 -0.056264 0.823093 -0.036163 -0.302425 0.137142 -0.017855 -0.932739 0.317660 -0.043486 0.047060 -0.156815 -0.101128 0.187240 -0.048914 0.947822 0.029325 -0.052594 0.381722 0.835398 0.250078 0.248773 -0.040913 0.103937 0.039502 -0.377279 0.451090 -0.644281 0.011263 0.311013 -0.159953 0.125929 -0.079857 0.307168 -0.249538 -0.366184 0.739779 -0.117588 -0.182814 0.161301 -0.145760 0.230276 0.225047 0.246349 -0.610072 0.093365 0.468490 -0.421954 0.302437 -0.518514 -0.238461 0.268015 -0.295681 -0.046683 0.587001 0.107299 -0.337004 -0.336763 0.512265 -0.000361 0.277960 0.295088 0.403662 0.195541 0.327678 -1.012150 -0.070019 -0.604318 0.363679 -0.255042 -0.129615 -0.021521 -0.098726 0.226565 -0.240332 0.705267 -1.126958 -0.408692 0.114054 0.380045 0.278674 -0.278279 0.326390 0.002626 -0.648136 0.328570 -0.033245 -0.238325 -0.147562 -0.616846 1.000914 -0.106293 0.419361 0.007517 -0.223496 -0.647860 -0.858702 -1.048791 -1.184518 0.858943 0.110787 0.530009 0.033838 0.167728 -0.116429 -0.644512 0.164066 -0.726423 
HCCDB-1.S160 0.323393 -0.477428 0.155032 -0.014582 0.172171 -0.721585 0.844034 0.825922 -0.146272 0.050142 -0.112857 0.250490 -0.120420 0.321451 -0.739026 -0.102944 0.276964 -0.853942 -0.058524 -0.692266 -0.019193 0.476332 0.258931 0.752389 -0.023764 -0.205841 -0.237012 -0.356625 0.151019 0.143598 -0.372417 0.198208 0.756245 -0.514054 -0.558219 0.382582 -0.238433 -0.396463 0.144024 -0.482984 0.123461 0.146467 0.506503 -0.389095 -0.067419 -0.099607 0.480689 0.795375 0.195200 0.061028 0.446434 0.237207 -0.065568 -0.067230 0.146292 -0.574538 0.442516 0.075903 -0.288310 0.090154 0.240211 -0.349397 -0.046782 0.056433 0.581554 -0.478927 0.364093 -0.005311 -0.027207 -0.027915 -0.022127 0.561878 -0.127495 0.212655 -0.084637 0.283146 0.087664 -0.712463 0.785675 -0.466016 0.371766 0.316711 -0.131880 -0.416832 -0.387065 -0.304418 -0.339310 -0.204278 0.106550 -0.104983 -0.328116 -0.608756 -0.276410 -0.013044 0.669101 0.022933 -0.378601 0.309433 0.070862 -0.826916 0.452644 -0.147448 0.179859 -0.307588 -0.012968 0.070310 -0.139060 0.761607 0.073873 -0.004016 0.284409 0.714674 0.104028 0.067518 0.012349 0.104202 -0.012053 -0.521653 0.349101 -0.383599 -0.115317 0.314321 -0.235186 0.214719 -0.110414 0.109994 -0.143405 -0.530927 0.679485 -0.096590 -0.135004 0.091341 -0.172565 0.160830 0.494634 0.328119 -0.531117 -0.000676 0.489129 -0.436916 0.521971 -0.542120 -0.232585 0.192058 -0.449258 -0.047165 0.525310 0.146442 -0.327368 -0.293786 0.512713 -0.151368 0.427183 0.413719 0.551214 0.125861 0.217875 -0.891504 -0.001751 -0.590773 0.165447 -0.263447 -0.197284 -0.036239 -0.133139 0.284674 -0.128607 0.860864 -1.163629 -0.653095 -0.024982 0.444291 0.415984 -0.290241 0.451260 -0.111485 -0.617035 0.365314 0.088745 -0.523905 -0.244127 -0.706943 0.926941 0.105575 0.449645 0.029884 -0.309414 -0.569787 -0.821459 -1.049469 -1.115459 1.011166 -0.117909 0.326852 0.050912 0.133659 -0.029053 -0.598406 0.091072 -0.717988 
HCCDB-1.S162 0.457158 -0.321894 0.170933 -0.169522 0.015885 -0.609909 0.798913 0.706481 -0.039226 0.032248 -0.066949 0.232911 -0.161410 0.410694 -0.850245 -0.265418 0.218759 -0.866465 -0.044734 -0.600278 -0.172769 0.454404 0.187188 0.731797 -0.096919 -0.174795 -0.039201 -0.220316 0.161002 0.217167 -0.433089 0.423296 0.883265 -0.582854 -0.706046 0.229391 -0.252056 -0.390056 0.088925 -0.507412 0.199265 0.202544 0.354465 -0.375836 -0.225395 -0.000941 0.474489 0.862599 0.007348 0.054107 0.233406 0.155499 -0.108863 0.015552 0.168216 -0.525304 0.422095 0.041003 -0.156048 0.074237 0.396620 -0.305748 -0.083021 0.048575 0.499992 -0.366189 0.439468 -0.018130 -0.165083 0.276952 0.026985 0.455220 -0.046487 0.275431 0.011519 0.276449 0.030743 -0.509824 0.704843 -0.484334 0.362558 0.273436 -0.225301 -0.351192 -0.497373 -0.294207 -0.256206 -0.279860 0.101046 0.043271 -0.181742 -0.626715 -0.179420 -0.067511 0.616101 -0.022427 -0.392666 0.225335 -0.017200 -0.697278 0.474655 -0.096261 0.126169 -0.110722 -0.012973 0.062113 -0.114482 0.958449 -0.069256 -0.104939 0.276330 0.973385 0.247171 0.253458 -0.058755 0.134834 0.101144 -0.514897 0.494202 -0.502625 -0.023796 0.159478 -0.228067 0.197913 -0.075732 0.249423 -0.116284 -0.469436 0.738332 -0.310308 -0.220651 0.264562 -0.219082 0.148594 0.371158 0.355928 -0.488764 -0.082449 0.511012 -0.400270 0.411514 -0.545300 -0.194351 0.258036 -0.317347 0.050341 0.541948 0.108141 -0.332237 -0.462570 0.545769 -0.094361 0.389489 0.359946 0.607409 0.301257 0.268343 -0.983827 -0.019485 -0.630417 0.253790 -0.226876 -0.176323 -0.078602 -0.009223 0.303876 -0.016928 0.737861 -1.222188 -0.545513 0.019175 0.454085 0.210295 -0.345142 0.406194 -0.065885 -0.661053 0.371601 -0.103336 -0.376883 -0.076205 -0.635565 0.962388 0.101054 0.601090 -0.086168 -0.337495 -0.477014 -0.816558 -0.941599 -1.287479 1.021927 -0.070867 0.356174 0.132527 0.157798 -0.098091 -0.570923 0.212747 -0.709876 
HCCDB-1.S164 0.400701 -0.322380 0.204808 -0.065683 0.100659 -0.581099 0.765215 0.719213 -0.106412 -0.123453 -0.073086 0.482894 -0.075938 0.420688 -0.649844 -0.366262 0.161550 -0.975342 -0.105102 -0.509599 0.071464 0.347789 0.334856 0.856592 -0.003930 -0.191860 0.080683 -0.287135 0.002576 0.129366 -0.295936 0.411536 0.959000 -0.607074 -0.521636 0.496457 -0.359565 -0.448969 0.077397 -0.515561 0.062670 0.189246 0.404175 -0.351199 -0.282200 0.053482 0.295511 0.813038 -0.038655 0.035945 0.166088 0.156813 0.063416 -0.093450 0.140941 -0.422252 0.444977 0.027129 -0.289713 0.255702 0.280271 -0.395530 0.001125 -0.007264 0.595200 -0.437389 0.367166 0.014059 -0.180884 -0.035359 0.118009 0.464459 -0.008365 0.158376 0.058624 0.408260 0.072549 -0.459403 0.675599 -0.461496 0.490583 0.262179 -0.302638 -0.545011 -0.424503 -0.415762 -0.200288 -0.297634 0.226461 0.052878 -0.357500 -0.672905 -0.267667 -0.012438 0.553265 -0.097998 -0.553628 0.096046 0.116276 -0.788232 0.459240 -0.078648 0.204067 -0.251984 -0.014038 0.048856 -0.113450 0.842787 -0.004263 0.106472 0.216421 0.653991 -0.026989 0.144644 -0.081476 0.058964 0.011885 -0.385285 0.479635 -0.791738 -0.177630 0.273777 -0.151361 0.309721 -0.132343 0.266909 -0.079684 -0.565121 0.679613 -0.341495 -0.233620 0.165045 -0.223221 0.054824 0.390522 0.379611 -0.678945 -0.001336 0.428604 -0.398098 0.472392 -0.584716 -0.139228 0.228019 -0.244509 -0.141762 0.674858 0.057341 -0.345921 -0.351293 0.428034 0.133511 0.301773 0.396930 0.576579 0.201879 0.154255 -1.010756 0.010887 -0.546265 0.206460 -0.262892 -0.170861 -0.045461 -0.005995 0.164445 -0.231545 0.633032 -1.174629 -0.461906 0.069551 0.474080 0.157192 -0.293081 0.338520 -0.068735 -0.779727 0.332130 -0.027997 -0.333120 -0.163783 -0.617905 1.096703 -0.042369 0.566386 -0.116099 -0.197565 -0.475449 -0.621284 -0.934469 -1.427034 0.909021 -0.063305 0.310923 -0.136671 0.250815 -0.174321 -0.467430 0.081151 -0.638372 
HCCDB-1.S166 0.591723 -0.213545 0.129735 0.049365 -0.067352 -0.506318 0.769357 0.728371 -0.119322 0.089810 0.005174 0.245838 -0.056729 0.228858 -0.803835 -0.290483 0.300344 -0.854896 -0.006683 -0.612760 -0.162369 0.531587 0.339019 0.731831 -0.048057 -0.227902 -0.127200 -0.165836 0.003892 0.251195 -0.246437 0.352183 0.953193 -0.467697 -0.564428 0.351236 -0.322726 -0.414445 0.055672 -0.451189 0.107485 0.077119 0.458801 -0.492194 -0.169386 -0.023370 0.319384 0.774976 -0.035115 0.046292 0.216831 0.156564 -0.184568 -0.153103 0.179069 -0.596259 0.454775 0.017560 -0.136003 0.247265 0.298495 -0.282227 -0.197154 0.166670 0.680547 -0.308170 0.387251 0.109858 -0.076543 0.152890 0.016059 0.470296 -0.000228 0.157355 -0.036736 0.323782 0.028232 -0.781477 0.620860 -0.446460 0.305565 0.221710 -0.221720 -0.594730 -0.451518 -0.383809 -0.239892 -0.171287 0.274551 0.036300 -0.278111 -0.652521 -0.253321 0.044728 0.798082 0.007916 -0.346024 0.215064 0.009126 -0.888704 0.432017 -0.140668 0.106475 -0.178370 0.054526 0.091909 -0.072702 0.739048 0.134573 -0.151051 0.277811 0.739774 0.156383 0.122374 0.006502 0.054444 0.111196 -0.396742 0.384539 -0.608199 -0.129029 0.249795 0.057485 0.242212 -0.201344 0.082995 -0.064038 -0.446027 0.867920 -0.266311 -0.130464 0.171412 -0.216713 0.279310 0.356729 0.248787 -0.544573 -0.069672 0.478161 -0.420200 0.314608 -0.436483 -0.257751 0.261484 -0.302677 -0.039938 0.682306 0.046276 -0.278868 -0.429979 0.544672 -0.125135 0.146216 0.346734 0.726876 0.320923 0.208528 -1.148021 -0.063338 -0.381474 0.209212 -0.335262 -0.258751 -0.070463 0.011031 0.342722 -0.193719 0.677752 -1.209718 -0.476455 0.055655 0.421109 0.289599 -0.288594 0.367444 -0.119732 -0.559120 0.265865 0.056278 -0.383660 -0.128198 -0.762013 0.967984 0.091443 0.562048 -0.089089 -0.386567 -0.434953 -0.804766 -0.946506 -1.266225 0.933381 -0.117200 0.320926 0.074446 0.348037 -0.276740 -0.448469 0.152307 -0.753996 
HCCDB-1.S168 0.520069 -0.269510 0.204421 -0.084811 0.078956 -0.593901 0.729147 0.595174 -0.071919 0.189565 -0.007721 0.201248 -0.209059 0.478881 -0.805922 -0.313688 0.293850 -0.785297 -0.078145 -0.655708 -0.026587 0.480217 0.140938 0.814491 -0.109903 -0.051732 -0.097655 -0.297504 0.179635 0.088250 -0.434349 0.410259 0.939457 -0.702204 -0.403110 0.515262 -0.181203 -0.324677 0.077700 -0.504663 0.047303 0.175956 0.530443 -0.501528 0.024036 -0.176363 0.416653 0.710620 0.098261 -0.070134 0.284380 0.250841 0.016542 -0.033516 0.096180 -0.637887 0.403670 -0.000125 -0.309953 0.158403 0.385610 -0.258930 -0.119836 0.113547 0.465115 -0.351857 0.321991 0.060366 -0.147669 0.112946 0.008383 0.379393 -0.022200 0.240626 -0.052731 0.417639 0.012196 -0.573608 0.622399 -0.539450 0.384104 0.315221 -0.345292 -0.663417 -0.306596 -0.221550 -0.302098 -0.224447 0.159479 0.063297 -0.299720 -0.611088 -0.201467 -0.089593 0.906089 0.031378 -0.385359 0.167545 -0.014832 -0.773789 0.349163 0.039667 0.125436 -0.057656 -0.052423 0.077429 -0.251607 0.708782 0.120777 -0.229673 0.176582 0.745619 0.173722 0.158704 -0.039215 0.071959 0.070805 -0.521120 0.561581 -0.649416 -0.253526 0.144738 -0.196308 0.367367 -0.078902 0.183702 -0.150857 -0.309921 0.676923 -0.442172 -0.105878 0.166070 -0.297122 0.097399 0.278497 0.334353 -0.563351 -0.019250 0.350784 -0.341541 0.390989 -0.658059 -0.345171 0.366928 -0.221048 -0.008453 0.559072 0.026687 -0.273286 -0.357909 0.606836 -0.047770 0.401101 0.344880 0.531798 0.296550 0.254847 -1.054509 0.021164 -0.380093 0.294291 -0.297226 -0.138765 -0.154014 -0.004575 0.350142 -0.180624 0.762120 -1.222501 -0.394943 0.138475 0.485646 0.216922 -0.373004 0.352443 -0.076867 -0.486404 0.275604 0.037227 -0.267443 -0.145883 -0.644946 1.059279 0.023159 0.575331 -0.063984 -0.242944 -0.495785 -0.828093 -1.006277 -1.222233 0.876744 -0.166757 0.455622 0.025628 0.113239 -0.092750 -0.568677 0.098348 -0.748369 
HCCDB-1.S169 0.293767 -0.204490 0.098327 -0.073954 0.053711 -0.607678 0.790738 0.770146 0.093515 0.039122 -0.123575 0.300163 -0.177006 0.368253 -0.754955 -0.097604 0.222703 -0.979778 -0.121554 -0.636459 -0.188084 0.554026 0.202089 0.908236 -0.053548 -0.155753 0.063110 -0.059107 0.067513 0.402225 -0.301650 0.381649 0.851254 -0.575373 -0.623179 0.428466 -0.162555 -0.363289 0.175333 -0.595887 0.052475 0.147482 0.334956 -0.500778 -0.123543 -0.011040 0.471718 0.766704 0.144226 0.032416 0.184091 0.194501 -0.063137 -0.054134 0.130392 -0.560348 0.296925 0.241961 -0.122877 0.377003 0.244927 -0.379082 -0.087402 0.086871 0.504903 -0.423118 0.236496 0.074092 -0.039462 0.055900 0.225997 0.480128 -0.161628 0.177102 -0.174886 0.238739 0.126919 -0.588698 0.725941 -0.391363 0.336422 0.206871 -0.176614 -0.759956 -0.370179 -0.474349 -0.193661 -0.089076 0.037364 0.047469 -0.318219 -0.688375 -0.077898 -0.033955 0.617560 -0.001953 -0.280768 0.115612 0.008818 -0.775717 0.202151 -0.199940 0.277981 -0.305646 0.052720 0.206387 -0.076546 0.828426 0.103779 0.002338 0.502180 0.697190 0.042583 0.120366 -0.023029 -0.068555 0.070612 -0.526949 0.460672 -0.506313 0.074686 0.287635 -0.175044 0.313688 0.025227 0.151057 0.009596 -0.511239 0.770417 -0.325208 -0.165109 0.134289 -0.250204 0.136680 0.351667 0.349561 -0.513351 -0.079098 0.451032 -0.326352 0.338737 -0.610859 -0.168968 0.230273 -0.185224 0.077055 0.483122 0.125864 -0.322662 -0.461922 0.580247 -0.132928 0.364510 0.244249 0.594445 0.300867 0.251625 -1.206951 0.032477 -0.554037 0.169231 -0.330558 -0.109466 -0.271254 -0.020980 0.261608 -0.181300 0.622213 -1.175295 -0.449472 0.101923 0.335304 0.272978 -0.287004 0.590517 -0.076366 -0.685194 0.408489 0.004036 -0.437330 -0.163022 -0.655832 0.998193 0.320262 0.598667 0.078374 -0.241138 -0.535207 -0.828308 -0.907270 -1.300614 0.835068 0.043477 0.245532 -0.046656 0.289603 -0.024801 -0.489958 0.224621 -0.901481 
HCCDB-1.S171 0.472011 -0.229252 0.114618 -0.018057 0.105737 -0.618672 0.825356 0.776613 -0.074198 -0.056112 -0.076998 0.295061 -0.039163 0.353806 -0.901747 -0.274512 0.190973 -0.782935 -0.051003 -0.615375 0.034058 0.565710 0.233226 0.873721 -0.221931 -0.126278 -0.119770 -0.322428 0.231422 0.336540 -0.298840 0.307333 0.853329 -0.687807 -0.462773 0.466964 -0.306002 -0.346173 0.100770 -0.407808 0.306199 0.150383 0.353047 -0.302142 -0.224157 -0.282848 0.492583 0.840585 0.167271 0.115623 0.339856 0.271734 -0.138188 -0.019981 0.162820 -0.537504 0.409906 0.086231 -0.345442 0.189521 0.354633 -0.287071 -0.159814 0.062684 0.628028 -0.431243 0.268385 0.120045 0.033317 0.088196 0.049787 0.369055 0.001425 0.151156 -0.060628 0.365825 -0.215253 -0.573119 0.575538 -0.672088 0.410347 0.263150 -0.204210 -0.370767 -0.510427 -0.335927 -0.392794 -0.212570 0.056199 0.093994 -0.203927 -0.642611 -0.330063 -0.057320 0.671394 -0.069867 -0.402079 0.042090 0.090445 -0.755362 0.349940 -0.142492 -0.009216 -0.179549 -0.213760 0.088850 0.062822 0.835421 0.156635 -0.109883 0.136872 0.720257 0.033961 0.048972 0.079388 0.004048 0.053552 -0.353746 0.490755 -0.638734 -0.058824 0.332718 0.005018 0.225135 -0.169208 0.183275 -0.108681 -0.414458 0.585563 -0.227224 -0.244928 0.155937 -0.191088 0.125754 0.424360 0.322640 -0.492978 0.009294 0.480653 -0.346455 0.237018 -0.479570 -0.225273 0.283053 -0.164533 0.008697 0.618241 0.149744 -0.372053 -0.275311 0.514245 -0.069996 0.264360 0.204347 0.476566 0.306979 0.238252 -1.095870 0.066194 -0.604755 0.255537 -0.264200 -0.140173 -0.278642 -0.090487 0.297854 -0.137477 0.865009 -1.169687 -0.545050 0.000569 0.324674 0.198362 -0.371324 0.492318 -0.113720 -0.539766 0.283061 0.123889 -0.277805 -0.102803 -0.618706 0.986370 -0.053141 0.501693 -0.128208 -0.259493 -0.476397 -0.878970 -0.935875 -1.215274 0.908687 -0.085121 0.498533 -0.063142 0.207202 -0.160736 -0.613836 0.071773 -0.802349 
HCCDB-1.S173 0.501002 -0.243158 0.057354 0.041473 0.112244 -0.700112 0.715434 0.698081 -0.071415 0.074969 -0.027261 0.286655 -0.113342 0.236667 -0.730879 -0.109693 0.054928 -0.891084 -0.050400 -0.592665 -0.179063 0.621327 0.093310 0.849503 -0.043335 -0.217399 -0.005497 -0.214114 0.163245 0.101845 -0.417797 0.422786 0.844407 -0.515816 -0.591775 0.333374 -0.310949 -0.458304 0.149368 -0.470288 0.205337 0.270634 0.477897 -0.510303 -0.207903 0.076064 0.455058 0.740251 0.014709 0.092471 0.247667 0.285366 -0.138720 -0.166836 0.154225 -0.410867 0.300159 0.119360 -0.147151 0.181015 0.316019 -0.223881 0.007428 0.110672 0.457096 -0.460471 0.363352 0.038888 -0.140600 0.019557 -0.092293 0.449451 -0.023890 0.160901 0.093044 0.302095 0.040148 -0.579067 0.678344 -0.545058 0.374258 0.322814 -0.150600 -0.624930 -0.522104 -0.265393 -0.211001 -0.157255 0.218805 0.085342 -0.330544 -0.684009 -0.285429 0.084700 0.763836 0.076494 -0.320944 -0.038537 -0.024417 -0.811719 0.506072 0.006345 0.085547 -0.270796 -0.103703 0.046952 -0.120541 0.820597 0.026764 -0.019817 0.238090 0.812699 0.166798 0.148996 0.149253 0.053097 0.133388 -0.440354 0.390911 -0.568624 -0.015379 0.204645 -0.059036 0.117472 -0.087350 0.268344 0.029420 -0.529754 0.766831 -0.293576 -0.217489 0.161754 -0.153041 0.159500 0.318222 0.393347 -0.513582 -0.071414 0.417427 -0.490634 0.387615 -0.586307 -0.243786 0.178047 -0.315908 -0.099499 0.583614 0.093869 -0.283527 -0.412709 0.555196 -0.010028 0.314338 0.322378 0.591638 0.252722 0.252180 -1.070364 -0.027940 -0.445086 0.240256 -0.251868 -0.130124 -0.122236 -0.001760 0.192079 -0.092000 0.780451 -1.131933 -0.490898 -0.004472 0.437413 0.268942 -0.305174 0.396943 -0.013040 -0.656139 0.344148 -0.123177 -0.317400 -0.180364 -0.778669 0.970491 0.127261 0.580109 -0.045756 -0.175820 -0.633611 -0.760921 -0.941324 -1.250462 0.970199 -0.138602 0.337898 -0.172260 0.242725 -0.194654 -0.570366 0.072673 -0.756525 
HCCDB-1.S175 0.375401 -0.274125 0.240974 -0.009818 -0.040914 -0.569927 0.779377 0.622496 -0.069047 -0.092193 -0.014117 0.305289 -0.056113 0.301986 -0.822826 -0.116608 0.316492 -0.946644 0.093809 -0.672136 -0.079752 0.572221 0.157994 0.824120 -0.052874 -0.115846 -0.260547 -0.273420 -0.043036 0.241231 -0.373142 0.344794 0.889362 -0.679918 -0.574753 0.347435 -0.287240 -0.372869 0.219663 -0.616520 0.203133 0.160757 0.267009 -0.217418 -0.020361 -0.041432 0.301152 0.469812 0.010111 0.142893 0.027047 0.285188 -0.054492 -0.037449 0.004110 -0.565655 0.435437 0.090644 -0.129040 0.215873 0.358320 -0.328114 -0.297343 0.244234 0.598453 -0.465101 0.521989 0.187582 -0.017144 0.107518 0.005203 0.524421 -0.128868 0.101208 -0.050088 0.457786 0.117608 -0.667590 0.833867 -0.615567 0.298918 0.264012 -0.259429 -0.584282 -0.279505 -0.392465 -0.400066 -0.074852 0.393366 -0.019555 -0.180617 -0.688361 -0.382826 0.145526 0.773559 -0.040443 -0.427527 -0.007628 0.004824 -0.923604 0.297702 -0.236821 0.266439 -0.157036 0.158089 0.058583 0.010091 0.690146 0.191417 -0.121213 0.251338 0.781804 0.214796 0.192668 -0.117542 0.123643 0.096129 -0.456574 0.443212 -0.492648 0.041779 0.185901 -0.082980 0.152744 -0.118345 0.182708 -0.062079 -0.487085 0.725714 -0.079229 -0.190300 0.277885 -0.236977 0.294916 0.542699 0.301236 -0.515060 0.048405 0.383526 -0.439367 0.245609 -0.556291 -0.243162 0.155373 -0.073882 -0.051330 0.620551 0.175905 -0.348347 -0.573946 0.464914 -0.038905 0.283938 0.297111 0.697587 0.244048 0.249839 -0.982131 0.024408 -0.298606 0.379523 -0.199582 -0.145184 -0.182412 -0.108336 0.243239 -0.210650 0.689227 -1.196422 -0.519604 -0.103069 0.245253 0.246208 -0.381591 0.324135 -0.053667 -0.615201 0.205773 -0.143668 -0.272525 -0.133068 -0.790536 1.134406 0.164835 0.552703 -0.084179 -0.163245 -0.673137 -0.627444 -0.880666 -1.321464 0.839039 -0.141351 0.460091 -0.115908 0.224796 -0.055489 -0.545906 -0.023592 -0.809408 
HCCDB-1.S177 0.231461 -0.152048 0.124363 -0.036876 -0.128685 -0.495347 0.950573 0.693973 -0.084863 0.235398 0.009637 0.310519 -0.055830 0.431494 -0.765046 -0.220372 0.292693 -0.919505 0.033818 -0.600475 -0.138016 0.405159 0.228676 0.729685 -0.032489 -0.131043 -0.000151 -0.334545 0.068747 0.284600 -0.324509 0.350556 0.881079 -0.587012 -0.564068 0.359498 -0.300681 -0.368533 0.213170 -0.463327 0.074775 0.090662 0.414086 -0.607720 -0.029515 0.037946 0.205797 0.700322 -0.092622 0.162373 0.297495 0.152572 -0.022215 -0.045293 0.170009 -0.426113 0.320788 0.093391 -0.153849 0.309857 0.305324 -0.371198 0.044762 0.182233 0.479292 -0.448593 0.370634 0.256681 -0.010180 -0.042378 0.173242 0.399697 0.057646 0.145775 -0.105368 0.331442 -0.096340 -0.827744 0.534962 -0.484447 0.359800 0.232128 -0.154301 -0.472493 -0.463054 -0.348525 -0.181248 -0.138448 0.244513 0.287375 -0.340834 -0.662274 -0.081340 0.013094 0.775987 -0.146951 -0.308099 0.014572 -0.089720 -0.592614 0.491255 0.003493 0.239241 -0.155473 -0.096325 0.044615 -0.045949 0.688347 0.093735 -0.032291 0.181954 0.675076 0.254769 0.173403 -0.019774 0.227208 0.198956 -0.549292 0.304428 -0.497061 -0.057984 0.256372 0.010813 0.102344 -0.235954 0.157041 0.013949 -0.526256 0.721182 -0.355782 -0.244463 0.269460 -0.281966 0.121887 0.491231 0.367079 -0.531256 -0.188769 0.492874 -0.336193 0.439701 -0.583118 -0.224356 0.307157 -0.332636 -0.151033 0.567567 0.137495 -0.256550 -0.508968 0.438921 -0.093963 0.333749 0.130170 0.573404 0.311747 0.402488 -0.994975 -0.081608 -0.599100 0.164441 -0.189748 -0.152473 -0.031892 0.137681 0.205591 -0.171934 0.882232 -1.060817 -0.432787 -0.021350 0.458563 0.225234 -0.266301 0.426692 -0.129004 -0.605003 0.268582 -0.013685 -0.315664 -0.353877 -0.783520 1.172323 -0.092862 0.624034 -0.151867 -0.364495 -0.535411 -0.753317 -0.955425 -1.262274 0.908988 -0.026024 0.372574 -0.110563 0.166013 -0.205286 -0.593232 0.064737 -0.806013 
HCCDB-1.S179 0.445615 -0.297594 0.072415 -0.006298 -0.169308 -0.690122 0.780616 0.607817 -0.113257 -0.011468 -0.122526 0.388464 -0.160167 0.431943 -0.743722 -0.363352 0.175169 -0.935154 0.039171 -0.613892 -0.007966 0.606228 0.245061 0.844347 0.008890 -0.194216 -0.126619 -0.354605 0.109822 0.235148 -0.389401 0.478074 1.022430 -0.637567 -0.494029 0.346342 -0.238249 -0.315517 0.184095 -0.552781 0.180522 0.228307 0.403792 -0.375276 -0.196442 0.061983 0.260599 0.703764 0.057202 0.178175 0.127887 0.208722 -0.015872 -0.053496 0.187678 -0.466067 0.338847 0.086045 -0.143670 0.188070 0.257976 -0.240319 0.086318 0.158994 0.569969 -0.493745 0.321462 0.049036 -0.077813 -0.058624 0.159367 0.507055 0.004104 0.184106 0.003840 0.371910 0.053979 -0.679412 0.649291 -0.457424 0.440082 0.286322 -0.195444 -0.428831 -0.305491 -0.343955 -0.240258 -0.115161 0.057288 0.054247 -0.256849 -0.652691 -0.262531 -0.020352 0.739690 -0.100581 -0.401034 0.175734 0.049666 -0.693925 0.485646 -0.118803 0.271556 -0.164132 -0.090987 0.029974 -0.170604 0.855156 0.107697 -0.136159 0.217164 0.745022 0.069100 0.124824 -0.142518 0.008152 -0.072512 -0.587100 0.437369 -0.670147 0.036328 0.227609 -0.155520 0.191948 -0.046224 0.111803 -0.249040 -0.456983 0.702696 -0.280852 -0.149362 0.211367 -0.206748 0.209956 0.313367 0.266777 -0.382560 -0.090214 0.532922 -0.468200 0.339558 -0.462254 -0.086014 0.257133 -0.161728 -0.080444 0.612113 0.116162 -0.316280 -0.409365 0.473051 -0.110441 0.328220 0.348451 0.685285 0.383434 0.224954 -1.037103 0.039510 -0.396555 0.306105 -0.152093 -0.140126 -0.044455 -0.040404 0.282933 -0.050514 0.716730 -1.167390 -0.498836 0.077076 0.335520 0.243217 -0.208421 0.405666 -0.081616 -0.593511 0.243533 -0.030143 -0.348230 -0.090230 -0.680096 0.970938 0.144929 0.560814 0.009167 -0.225190 -0.571632 -0.754739 -0.948598 -1.159438 0.904931 -0.026998 0.425401 0.030452 0.221988 -0.156188 -0.593409 -0.009764 -0.844482 
HCCDB-1.S18 0.499549 -0.303360 0.055895 -0.030944 -0.074675 -0.619170 0.671693 0.762542 -0.241213 0.141170 -0.099708 0.347895 -0.182517 0.476464 -0.715900 -0.450527 0.241597 -0.866674 -0.039799 -0.636520 -0.054050 0.539999 0.300901 0.707349 -0.098558 -0.200351 -0.044902 -0.351649 0.175838 0.190640 -0.409602 0.410836 0.864204 -0.550678 -0.667999 0.386423 -0.220736 -0.507268 0.077095 -0.236185 0.068877 0.119426 0.310600 -0.480768 -0.060044 -0.096143 0.321809 0.615938 -0.064086 -0.024764 0.231395 0.312420 -0.072564 -0.098137 0.107909 -0.510984 0.228191 0.295408 -0.105537 0.002541 0.326158 -0.288029 0.037927 0.086188 0.496839 -0.309826 0.410548 0.104101 -0.029168 0.112071 -0.017005 0.440565 -0.030743 0.060405 0.052929 0.192112 -0.141200 -0.632671 0.615928 -0.347618 0.394983 0.218785 -0.328941 -0.501155 -0.533863 -0.334370 -0.203640 -0.152743 0.068227 0.003219 -0.444185 -0.625628 -0.292696 -0.120584 0.723453 -0.076086 -0.263545 0.100146 0.070127 -0.791958 0.292155 -0.134979 0.058213 -0.109204 -0.152100 0.116053 -0.046321 0.886899 -0.032302 -0.153668 0.254054 0.885054 0.088213 0.004359 -0.094710 0.015502 0.084983 -0.588644 0.575272 -0.556600 -0.000828 0.284166 -0.105964 0.210182 -0.087963 0.304465 -0.234625 -0.338436 0.747622 -0.247137 -0.177623 0.161076 -0.183604 0.205398 0.390210 0.408738 -0.539252 0.016769 0.333898 -0.411683 0.387870 -0.633055 -0.049644 0.252427 -0.245856 -0.020839 0.565490 0.069622 -0.241882 -0.353590 0.488522 -0.041827 0.335927 0.327903 0.564496 0.391957 0.300887 -0.986177 0.141238 -0.564136 0.276953 -0.320078 -0.133482 -0.046319 0.014077 0.327674 -0.296425 0.850756 -1.122796 -0.532066 0.052844 0.388604 0.264082 -0.292467 0.434489 -0.067884 -0.360522 0.235347 -0.046941 -0.172433 -0.098561 -0.642885 1.130030 0.017656 0.610918 -0.113061 -0.202885 -0.496977 -0.790090 -1.036934 -1.233102 0.957602 -0.124343 0.500908 0.028497 0.093847 -0.145104 -0.477328 0.042851 -0.759456 
HCCDB-1.S181 0.392245 -0.295985 0.239173 -0.118056 0.101115 -0.661299 0.931760 0.654983 -0.023581 -0.050234 -0.037917 0.197387 -0.131988 0.453950 -0.767648 -0.363770 0.384399 -0.919760 0.019668 -0.469643 -0.030210 0.471322 0.275044 0.704693 -0.053171 -0.249286 -0.156473 -0.274434 0.201261 0.311308 -0.228239 0.477889 0.996515 -0.579887 -0.662271 0.386956 -0.338114 -0.376455 0.129116 -0.511641 0.156184 0.030432 0.431692 -0.440705 -0.230857 0.001107 0.333491 0.909811 0.094912 -0.025454 0.295379 0.211888 -0.058644 -0.067976 0.161709 -0.446915 0.398885 -0.017306 -0.403821 0.173618 0.331299 -0.282146 -0.074193 0.155792 0.535470 -0.371838 0.459581 0.004945 -0.138399 0.056202 0.076361 0.479292 -0.106353 0.163912 -0.057714 0.415638 0.077289 -0.587801 0.671095 -0.584992 0.246686 0.227504 -0.221516 -0.457325 -0.382537 -0.292623 -0.250686 -0.277431 0.178716 0.177991 -0.213810 -0.741437 -0.230275 -0.017685 0.748546 0.011835 -0.280296 0.067980 0.004554 -0.714504 0.416402 -0.012186 0.069623 -0.120487 0.023299 0.265717 -0.070583 0.742009 -0.064299 -0.004571 0.274539 0.988420 0.051893 0.182729 -0.032105 -0.112160 0.093853 -0.539468 0.483627 -0.473719 -0.048545 0.252439 -0.111943 0.233139 -0.136853 0.274492 -0.117716 -0.391933 0.660259 -0.357619 -0.206778 0.162348 -0.290433 0.106025 0.422086 0.390286 -0.496201 -0.040826 0.423406 -0.545972 0.354877 -0.602970 -0.268962 0.336690 -0.109884 -0.023918 0.516486 0.102091 -0.275026 -0.331398 0.440801 -0.157551 0.373581 0.244343 0.584986 0.270094 0.189538 -0.923875 -0.028363 -0.528387 0.196247 -0.295019 0.005254 -0.099151 -0.007769 0.259047 -0.224563 0.744544 -1.178967 -0.433768 0.052583 0.394598 0.175141 -0.314730 0.413022 -0.057097 -0.520235 0.218331 -0.039827 -0.296941 -0.025545 -0.585083 1.028216 0.091411 0.572560 0.086834 -0.227781 -0.435125 -0.867677 -0.978594 -1.239690 0.963426 -0.092951 0.349179 -0.023403 0.205320 -0.247096 -0.496407 0.117468 -0.753711 
HCCDB-1.S183 0.363666 -0.345443 0.074557 -0.042557 0.037683 -0.727459 0.705999 0.742937 -0.186493 0.076376 -0.147537 0.322657 0.025411 0.252140 -0.760395 -0.242306 0.247676 -0.854056 -0.051934 -0.465493 -0.124839 0.405961 0.225490 0.752559 -0.119219 -0.019098 -0.105431 -0.187258 0.162514 0.143544 -0.315435 0.354353 0.930282 -0.602615 -0.504472 0.406221 -0.210425 -0.323215 0.056996 -0.485410 0.183377 0.150685 0.418447 -0.432664 -0.062748 -0.034789 0.263641 0.680690 0.106874 0.166344 0.144143 0.252006 0.026106 -0.036807 -0.035208 -0.399167 0.316334 0.185122 -0.193548 0.194276 0.334723 -0.386734 0.013585 0.111290 0.542096 -0.480065 0.278417 0.150581 -0.050472 0.049178 0.125647 0.561907 0.033879 0.093592 -0.097285 0.223738 0.162558 -0.670462 0.695003 -0.478098 0.456316 0.373983 -0.121162 -0.458382 -0.367520 -0.324010 -0.362631 -0.194777 0.153515 0.041743 -0.329472 -0.616248 -0.308872 -0.000286 0.742711 -0.053286 -0.322297 0.058462 0.025086 -0.953493 0.322263 -0.060933 -0.028371 -0.181611 0.003402 0.258541 -0.108912 0.735455 -0.054860 0.039067 0.354165 0.814016 0.214839 0.188228 -0.108434 0.030367 0.061100 -0.443718 0.566092 -0.703758 -0.119004 0.216533 -0.151008 0.218868 -0.115112 0.168823 -0.161971 -0.409262 0.704060 -0.203575 -0.207733 0.093144 -0.206921 0.247304 0.317838 0.139135 -0.627246 0.075353 0.409789 -0.521567 0.360638 -0.508403 -0.213286 0.294942 -0.281790 -0.009139 0.571722 0.114110 -0.393532 -0.459927 0.545920 -0.051620 0.346980 0.183265 0.511358 0.354630 0.276007 -1.024798 -0.022178 -0.688697 0.204196 -0.327515 -0.154703 -0.014661 0.028504 0.234799 -0.189182 0.775504 -1.123346 -0.466754 0.042258 0.488727 0.313789 -0.146956 0.488351 -0.158287 -0.587709 0.236624 -0.065275 -0.164796 -0.190235 -0.790788 1.096595 -0.109562 0.515486 -0.029377 -0.390504 -0.542270 -0.800969 -1.036823 -1.138896 0.877177 -0.055591 0.348361 0.006855 0.215567 0.034843 -0.645038 0.166065 -0.694782 
HCCDB-1.S185 0.389984 -0.253301 0.223025 0.081412 0.076853 -0.598145 0.717006 0.755678 0.104351 0.090442 -0.081209 0.375160 0.054690 0.346639 -0.653690 -0.041301 0.216847 -0.957026 0.089394 -0.548371 -0.111873 0.464191 0.394663 0.674871 -0.081940 -0.158302 -0.032250 -0.265568 0.226056 0.127181 -0.346874 0.437602 0.994170 -0.549396 -0.582773 0.455715 -0.048338 -0.448924 0.179261 -0.461076 0.179431 0.139269 0.396566 -0.400167 -0.119311 0.006671 0.413216 0.693743 -0.120233 0.093154 0.131862 0.126780 -0.013092 0.023297 0.071854 -0.550127 0.352444 0.140941 -0.210019 0.235891 0.276129 -0.310698 0.020710 0.049255 0.410615 -0.398658 0.495368 0.121476 0.174522 -0.058647 0.075789 0.601621 0.056113 0.216055 -0.003470 0.241593 -0.047671 -0.600320 0.722147 -0.603281 0.324215 0.167695 -0.210880 -0.543912 -0.524900 -0.414937 -0.228512 -0.304357 0.182415 0.054177 -0.301849 -0.611776 -0.372646 -0.038140 0.571842 0.169849 -0.558461 0.107194 0.012301 -0.748316 0.476808 -0.024330 0.123166 -0.197954 0.111974 0.132297 -0.080987 0.794383 0.004075 -0.197664 0.218598 0.822886 0.344525 0.000327 0.091275 0.135446 -0.003270 -0.570091 0.436866 -0.355928 -0.134053 0.145298 -0.176105 0.242287 -0.058776 0.221308 -0.164896 -0.507953 0.713617 -0.263235 -0.269447 0.204804 -0.206883 0.151799 0.377847 0.342226 -0.534437 -0.010005 0.514787 -0.662003 0.306143 -0.627140 -0.242361 0.313315 -0.254728 -0.009068 0.475896 0.153191 -0.248029 -0.321276 0.455014 -0.110456 0.358562 0.463199 0.763073 0.356238 0.352844 -1.021096 -0.012415 -0.458770 0.118222 -0.220216 -0.136279 -0.052761 -0.012282 0.396866 -0.233012 0.778511 -1.185367 -0.597689 0.060389 0.454436 0.313999 -0.388682 0.405039 -0.111735 -0.575461 0.313055 0.036408 -0.412343 -0.151589 -0.765495 0.742655 0.032225 0.543146 -0.073486 -0.207121 -0.667087 -0.738265 -1.005414 -1.230301 0.932345 -0.044553 0.423814 0.110440 0.346020 -0.139196 -0.685045 0.045465 -0.749077 
HCCDB-1.S187 0.570401 -0.305697 0.056134 -0.049883 0.036621 -0.499901 0.679529 0.758610 -0.017510 -0.049994 -0.039733 0.316707 -0.084040 0.536882 -0.655996 -0.265397 0.378370 -0.882506 0.024633 -0.524794 -0.100485 0.449350 0.239988 0.668588 -0.003569 -0.269968 -0.139564 -0.194211 0.174077 0.310373 -0.403425 0.403610 0.844461 -0.440424 -0.586370 0.463360 -0.239947 -0.470951 0.229944 -0.447973 0.075518 0.065633 0.408577 -0.554126 -0.169913 -0.081367 0.298289 0.681169 0.047249 0.222687 0.095052 0.217280 -0.166998 0.036314 0.184511 -0.549712 0.333475 0.005274 -0.184849 0.174217 0.284572 -0.282489 -0.014009 0.093369 0.508902 -0.310714 0.454300 0.121029 0.097282 0.112687 0.104063 0.526655 -0.047537 0.087930 0.137044 0.170081 -0.086214 -0.742702 0.682305 -0.477701 0.452860 0.350903 -0.308845 -0.635955 -0.396179 -0.372219 -0.342191 -0.082483 0.167492 0.104671 -0.255974 -0.639096 -0.184652 -0.056091 0.839631 -0.006896 -0.203979 0.167847 0.077168 -0.911042 0.237836 -0.006030 0.185089 -0.066755 -0.163835 0.060244 -0.108469 0.725506 0.114389 -0.100364 0.262770 0.666881 0.267762 0.012998 -0.048910 0.090845 0.158931 -0.442126 0.313959 -0.660735 -0.017451 0.190884 -0.194591 0.175850 -0.205129 0.124953 -0.288906 -0.450327 0.589554 -0.297277 -0.194857 0.034871 -0.279889 0.276782 0.402709 0.293029 -0.714409 -0.162358 0.504316 -0.475598 0.394953 -0.446608 -0.205729 0.229355 -0.305830 0.070035 0.508976 0.024192 -0.284366 -0.263456 0.540517 -0.087736 0.235451 0.377476 0.684555 0.381873 0.186438 -1.199917 -0.052763 -0.364950 0.259368 -0.242511 -0.240980 -0.158726 0.285023 0.166107 -0.300517 0.839053 -1.171109 -0.375144 0.035735 0.391028 0.161452 -0.335080 0.297350 -0.103895 -0.673799 0.163429 0.041175 -0.360391 -0.062003 -0.673978 1.003294 0.071200 0.630170 -0.083818 -0.284115 -0.355682 -0.675793 -1.051197 -1.249951 0.931779 0.004158 0.435831 -0.016304 0.258709 -0.036100 -0.569091 0.113058 -0.756531 
HCCDB-1.S189 0.304805 -0.327584 0.018777 -0.154472 0.043277 -0.644136 0.595531 0.740909 -0.023398 0.066483 -0.216589 0.292984 -0.062286 0.314321 -0.863414 -0.271007 0.218327 -0.886169 0.039724 -0.702345 -0.066420 0.506624 0.188827 0.854314 -0.136196 -0.249284 0.094492 -0.136039 0.027107 0.323000 -0.396684 0.516589 0.838838 -0.666854 -0.658725 0.282132 -0.181694 -0.424903 0.133503 -0.362885 0.261275 0.174120 0.357731 -0.415346 -0.151148 0.068750 0.392431 0.798352 0.104490 0.035526 0.274693 0.163274 -0.100354 -0.036524 0.081946 -0.600181 0.323932 0.020169 -0.158160 0.041407 0.259783 -0.165382 -0.067249 0.155448 0.469568 -0.512618 0.351904 0.184002 -0.011730 0.237564 -0.002947 0.538742 0.056330 0.180718 0.016304 0.219238 -0.071591 -0.570752 0.666849 -0.446198 0.404512 0.386613 -0.068665 -0.551130 -0.388748 -0.296123 -0.194861 -0.200063 0.189812 0.066827 -0.276283 -0.545341 -0.198974 0.057346 0.655083 -0.002609 -0.332860 0.091899 0.035726 -0.706760 0.332036 -0.217663 0.189193 -0.179485 -0.249276 0.114614 -0.226884 0.754151 0.042043 -0.026619 0.128678 0.797330 0.280420 0.091570 -0.029519 0.084107 0.110629 -0.436106 0.400903 -0.567518 0.119757 0.186229 -0.149803 0.324074 -0.003959 0.298482 -0.112744 -0.585384 0.806921 -0.218364 -0.147836 0.252936 -0.263054 0.186425 0.376823 0.420115 -0.485722 0.113779 0.498891 -0.550377 0.421018 -0.594237 -0.254086 0.333100 -0.279513 -0.049221 0.502365 0.127387 -0.165417 -0.485919 0.629466 -0.035919 0.312300 0.255676 0.600301 0.376576 0.404272 -0.908755 -0.071757 -0.543235 0.326736 -0.191287 -0.179027 -0.049487 -0.031277 0.343124 -0.161474 0.716545 -1.139744 -0.466064 0.038468 0.578266 0.117835 -0.281033 0.551339 -0.171143 -0.686964 0.355128 -0.026217 -0.409641 -0.217680 -0.735843 1.033783 0.145024 0.722037 -0.085264 -0.260045 -0.676504 -0.736535 -1.034842 -1.204013 0.834219 -0.077304 0.265814 -0.039983 0.069936 -0.210425 -0.618507 0.105866 -0.689017 
