115 200
HCCDB-17.S1 0.421128 -0.369565 0.081259 -0.035608 0.000479 -0.623734 0.726391 0.600338 -0.128563 0.107464 -0.118091 0.274589 -0.060029 0.213176 -0.705071 -0.242337 0.206357 -0.990330 0.085796 -0.563388 -0.100655 0.538074 0.273132 0.941658 -0.122558 -0.163179 -0.122721 -0.200342 0.114829 0.240280 -0.421030 0.393507 0.946956 -0.592454 -0.482044 0.258726 -0.257193 -0.341099 0.031184 -0.488386 0.143902 0.085857 0.357146 -0.515143 0.067168 -0.087791 0.308378 0.687149 0.025768 0.052852 0.147710 0.147438 -0.122896 -0.107585 0.057089 -0.480398 0.307180 -0.030140 -0.248034 0.209412 0.335193 -0.460583 -0.013629 0.124041 0.599109 -0.356753 0.395315 0.224618 -0.141658 -0.024622 -0.026515 0.431709 0.052136 0.100263 0.162289 0.322542 -0.012256 -0.699591 0.629605 -0.521956 0.538329 0.258664 -0.283549 -0.503025 -0.294441 -0.471930 -0.252713 -0.110528 0.189478 0.192734 -0.541988 -0.748310 -0.177640 0.053789 0.645302 -0.066646 -0.254084 0.086680 0.069808 -0.626301 0.404076 0.018236 -0.030119 -0.316718 -0.166631 0.146134 -0.095394 0.931498 0.049171 -0.110839 0.267108 0.679305 0.174321 0.073098 -0.067851 0.067654 0.061105 -0.414264 0.300012 -0.568120 -0.023026 0.250205 -0.025888 0.063995 -0.266265 0.183229 -0.117572 -0.449407 0.636096 -0.359757 -0.277675 0.179483 -0.279505 0.207364 0.476426 0.276775 -0.538932 -0.052643 0.590284 -0.518551 0.381388 -0.708390 -0.325419 0.255368 -0.265223 -0.058524 0.583347 0.057950 -0.407503 -0.473782 0.531002 -0.075177 0.271402 0.334720 0.672480 0.367777 0.112511 -0.946926 0.081482 -0.558480 0.249370 -0.298435 -0.114684 -0.088154 -0.022990 0.239872 -0.147682 0.807919 -1.174361 -0.437831 0.118982 0.569607 0.173757 -0.394560 0.433728 -0.086179 -0.597490 0.222146 0.055891 -0.275942 -0.251860 -0.852396 0.909285 0.106539 0.562485 -0.095606 -0.272488 -0.626075 -0.721538 -0.811594 -1.227448 0.857220 0.028433 0.330930 0.026933 0.331759 -0.154292 -0.488374 0.140218 -0.772884 
HCCDB-17.S10 0.529876 -0.356430 0.058830 -0.067244 0.002559 -0.759319 0.849406 0.563414 -0.057284 0.016591 -0.075057 0.306238 -0.070054 0.265099 -0.723873 -0.297700 0.173991 -0.961330 0.022535 -0.679766 -0.073058 0.562020 0.303429 0.789562 -0.137699 -0.249814 -0.030562 -0.227462 0.225950 0.180309 -0.358287 0.375208 0.920774 -0.599826 -0.650208 0.284899 -0.295188 -0.348779 0.116644 -0.555026 0.151939 0.177961 0.320982 -0.414106 -0.049854 -0.030060 0.360982 0.659736 0.025928 0.125358 0.200179 0.195662 -0.009231 -0.113076 -0.017184 -0.504427 0.448420 0.077659 -0.162060 0.122709 0.271635 -0.317594 -0.035512 0.155994 0.625638 -0.423285 0.371557 0.168302 -0.114855 -0.004631 0.029048 0.422001 0.004690 0.129356 0.041865 0.344495 0.070886 -0.606198 0.637612 -0.558311 0.416463 0.175217 -0.123497 -0.570752 -0.323023 -0.397062 -0.256097 -0.170744 0.208488 0.123471 -0.443221 -0.586662 -0.261912 -0.006696 0.772637 -0.078808 -0.356902 0.093738 0.057284 -0.698817 0.453910 -0.125921 0.100162 -0.160614 -0.153256 0.035388 -0.156243 0.788959 0.048556 -0.020896 0.286413 0.811720 0.227504 0.022501 -0.056937 0.112439 0.037030 -0.554816 0.489009 -0.619114 0.044470 0.201277 -0.108024 0.198595 -0.087160 0.240150 -0.152830 -0.471866 0.616010 -0.234146 -0.247641 0.143151 -0.313712 0.239114 0.362847 0.292278 -0.439215 -0.122795 0.588270 -0.417367 0.319657 -0.590580 -0.264397 0.201839 -0.260597 -0.114764 0.570353 0.110458 -0.368484 -0.373056 0.484777 -0.134392 0.237126 0.281640 0.513874 0.256147 0.274162 -1.051197 -0.026271 -0.542104 0.146470 -0.302666 -0.174018 -0.049143 -0.146269 0.209224 -0.189373 0.791850 -1.122615 -0.509148 0.012948 0.431955 0.164640 -0.336227 0.392141 -0.026618 -0.715944 0.197713 -0.050507 -0.327547 -0.212619 -0.812145 0.959949 0.014658 0.485351 -0.101288 -0.243327 -0.609879 -0.731451 -0.900726 -1.143803 0.852056 0.073127 0.396489 -0.060678 0.153644 -0.051069 -0.563089 0.192862 -0.807832 
HCCDB-17.S100 0.321484 -0.323335 0.161659 -0.003446 0.047391 -0.664641 0.761294 0.673656 -0.103352 0.100804 -0.134599 0.167941 -0.053417 0.426115 -0.843169 -0.276285 0.271275 -0.947740 -0.020679 -0.604556 -0.096377 0.409468 0.151083 0.842696 -0.143364 -0.148145 -0.001864 -0.251589 0.146164 0.181311 -0.302644 0.389629 0.914158 -0.578668 -0.578780 0.290082 -0.283940 -0.356112 0.060439 -0.474401 0.155930 0.170872 0.356339 -0.411060 -0.069296 -0.031274 0.355472 0.682037 -0.032823 0.153026 0.288977 0.182740 -0.037406 -0.058218 0.171091 -0.464749 0.403699 0.077862 -0.167311 0.145130 0.318666 -0.377779 -0.092034 0.021818 0.565904 -0.347413 0.318628 0.202060 -0.152831 0.037728 0.069486 0.535233 0.007794 0.122993 -0.020526 0.389670 -0.028121 -0.557831 0.582019 -0.472972 0.349338 0.225757 -0.272077 -0.581672 -0.341302 -0.398453 -0.291274 -0.123178 0.198417 -0.043874 -0.238254 -0.682087 -0.214410 -0.009676 0.744697 -0.015366 -0.334970 0.127831 -0.001922 -0.823171 0.403911 -0.050636 0.170438 -0.163851 -0.077082 0.039485 -0.211702 0.836610 0.122477 -0.092023 0.217505 0.785427 0.153699 0.063440 -0.044509 0.045333 0.086757 -0.512888 0.540009 -0.582906 -0.138033 0.212398 -0.041064 0.245969 -0.112149 0.234276 -0.072499 -0.380136 0.762720 -0.180800 -0.247622 0.262293 -0.229001 0.291607 0.341019 0.298888 -0.595377 -0.020938 0.548789 -0.479979 0.341417 -0.593113 -0.173339 0.250392 -0.248251 -0.139936 0.595729 0.042335 -0.270028 -0.400205 0.492115 -0.018184 0.389532 0.257205 0.605247 0.348862 0.230234 -1.002188 0.065839 -0.579136 0.315918 -0.305240 -0.196196 -0.128872 -0.095728 0.298001 -0.153306 0.783424 -1.152049 -0.486372 0.048443 0.449887 0.273221 -0.261361 0.348154 -0.081678 -0.668290 0.353744 -0.099652 -0.245175 -0.082741 -0.680641 1.074641 0.081347 0.483813 -0.105946 -0.270664 -0.585403 -0.697498 -1.060106 -1.253131 0.919584 -0.073877 0.435611 0.014389 0.108264 -0.230300 -0.508690 0.173644 -0.774560 
HCCDB-17.S101 0.361845 -0.397510 0.207260 -0.057704 0.033801 -0.611279 0.765650 0.725454 -0.142538 0.107848 0.003643 0.276977 -0.107584 0.399242 -0.769299 -0.216948 0.302161 -0.937906 -0.040023 -0.574149 -0.141551 0.458311 0.231416 0.769816 -0.129502 -0.215368 -0.080074 -0.170996 0.136568 0.223090 -0.361887 0.346242 0.861638 -0.614903 -0.598200 0.365709 -0.255718 -0.422812 0.145051 -0.495010 0.116128 0.124041 0.326013 -0.436268 -0.173936 0.007087 0.328994 0.687902 0.005996 0.123907 0.310386 0.228821 -0.103446 0.025134 0.076381 -0.427607 0.334120 0.053138 -0.129183 0.188692 0.338016 -0.329617 -0.022553 0.060469 0.532398 -0.329498 0.365368 0.157268 -0.107688 0.069520 0.161997 0.470189 -0.099565 0.190003 -0.005892 0.278382 -0.039479 -0.663647 0.658827 -0.444651 0.330031 0.255369 -0.169971 -0.554759 -0.379014 -0.389831 -0.283102 -0.135929 0.173588 0.037886 -0.232366 -0.606007 -0.239418 -0.061283 0.780850 -0.036359 -0.333393 0.119273 -0.013984 -0.879801 0.407170 -0.115558 0.203069 -0.176132 -0.008571 0.083160 -0.149278 0.735635 -0.013701 -0.066743 0.346341 0.801569 0.138950 0.086178 -0.058694 0.022267 0.009657 -0.418988 0.456273 -0.631855 -0.064884 0.188893 -0.081229 0.203625 -0.158784 0.201994 -0.142360 -0.486843 0.754558 -0.310563 -0.185515 0.171582 -0.229707 0.267309 0.346908 0.344985 -0.555867 -0.077804 0.463839 -0.500738 0.331046 -0.498463 -0.235371 0.223923 -0.180924 -0.029478 0.612746 0.046826 -0.317094 -0.425427 0.491198 0.006435 0.242516 0.321043 0.586416 0.334734 0.231534 -1.053980 -0.000734 -0.545465 0.221801 -0.222091 -0.192971 -0.172842 -0.050753 0.341438 -0.181864 0.694468 -1.140930 -0.489736 0.108996 0.418375 0.175248 -0.291548 0.439231 -0.058893 -0.644817 0.227032 -0.049709 -0.291081 -0.133360 -0.758917 0.978178 0.080544 0.570862 -0.109840 -0.266912 -0.554012 -0.799759 -1.028467 -1.207413 1.042479 -0.124056 0.428953 -0.078928 0.354472 -0.045994 -0.579409 0.075235 -0.857612 
HCCDB-17.S102 0.348719 -0.330337 0.067827 0.000781 0.045237 -0.653169 0.779640 0.737149 -0.186322 0.057611 -0.052568 0.257086 -0.094993 0.372360 -0.729957 -0.251966 0.325720 -1.008242 -0.016504 -0.612271 -0.094899 0.347074 0.239019 0.831296 -0.010534 -0.166018 -0.047551 -0.184923 0.101777 0.210617 -0.319400 0.313808 0.877541 -0.582689 -0.512679 0.293569 -0.246214 -0.377335 0.026685 -0.461544 0.149788 0.109539 0.350756 -0.393466 -0.137749 -0.077796 0.304784 0.722972 0.039095 0.118832 0.272532 0.194423 -0.019201 -0.039289 0.162447 -0.436446 0.427261 0.121723 -0.260876 0.134597 0.382419 -0.254284 -0.006883 0.172405 0.594278 -0.417063 0.388096 0.064672 -0.111258 0.132825 0.087873 0.508638 -0.041641 0.150786 -0.034190 0.337518 -0.019530 -0.667188 0.594941 -0.418856 0.346087 0.278602 -0.144456 -0.563540 -0.355769 -0.345067 -0.205370 -0.151774 0.151281 0.020383 -0.273679 -0.687032 -0.229720 0.021264 0.757317 -0.025672 -0.352090 0.061716 -0.041178 -0.865751 0.378331 -0.045973 0.168007 -0.237115 -0.018145 0.163347 -0.186850 0.826084 0.084057 -0.118156 0.276551 0.851764 0.187056 0.170828 -0.117844 0.068922 0.076470 -0.470262 0.464540 -0.520412 -0.103675 0.239956 -0.145122 0.262155 -0.156585 0.196811 -0.176024 -0.440100 0.730451 -0.267935 -0.232202 0.175274 -0.148028 0.203084 0.320739 0.257157 -0.620961 0.039284 0.523728 -0.457039 0.373579 -0.622481 -0.163797 0.274446 -0.294319 -0.101734 0.671143 0.103998 -0.356332 -0.371787 0.449414 -0.012489 0.328690 0.329445 0.512811 0.346758 0.369387 -1.061818 0.023003 -0.540491 0.308747 -0.303912 -0.162824 -0.134726 0.059079 0.327361 -0.170275 0.763790 -1.093125 -0.551110 0.117563 0.419243 0.310947 -0.231828 0.333492 -0.042054 -0.683060 0.308258 0.009141 -0.320394 -0.165339 -0.638507 0.972872 0.118598 0.489818 0.041996 -0.258265 -0.583467 -0.811950 -1.026865 -1.170222 0.956399 0.007726 0.343353 0.018282 0.130431 -0.216951 -0.592987 0.156642 -0.812091 
HCCDB-17.S103 0.357952 -0.289163 0.164773 -0.008459 0.024113 -0.626624 0.808959 0.720844 -0.130261 0.050978 -0.109247 0.250318 -0.087035 0.370453 -0.751348 -0.307107 0.298120 -0.941162 0.019559 -0.649612 -0.128574 0.468659 0.179226 0.837747 -0.065206 -0.124971 -0.003957 -0.255945 0.151792 0.167383 -0.273884 0.344152 0.833632 -0.560727 -0.607367 0.309610 -0.239236 -0.412310 0.070172 -0.513537 0.126301 0.120257 0.355675 -0.427141 -0.112022 -0.106655 0.325742 0.779410 -0.014627 0.033415 0.303059 0.028692 -0.035062 -0.062944 0.170173 -0.467443 0.454521 0.109678 -0.254726 0.145682 0.427798 -0.263382 -0.066144 0.109005 0.581631 -0.375650 0.312730 0.101022 -0.138536 -0.020431 0.047326 0.483431 -0.057429 0.086198 -0.022069 0.345072 -0.077017 -0.557461 0.575830 -0.440462 0.332637 0.257500 -0.202691 -0.558261 -0.361603 -0.414218 -0.263759 -0.115660 0.182255 0.021995 -0.200778 -0.719851 -0.178684 0.034265 0.789010 -0.016356 -0.357461 0.132079 -0.036920 -0.766840 0.366165 -0.057255 0.229965 -0.154387 -0.040835 0.132246 -0.202848 0.744579 0.079456 -0.107920 0.261884 0.842527 0.222842 0.067448 -0.038075 0.082158 0.037371 -0.522200 0.469342 -0.540876 -0.055545 0.200891 -0.073588 0.298428 -0.172674 0.174826 -0.114582 -0.463103 0.772276 -0.255669 -0.221618 0.221722 -0.238295 0.244270 0.371093 0.302184 -0.605225 -0.104621 0.528974 -0.472752 0.451528 -0.589400 -0.154609 0.211171 -0.181827 -0.040659 0.600122 0.033692 -0.293351 -0.386821 0.522367 -0.113913 0.373974 0.297128 0.567242 0.332872 0.260734 -0.963240 -0.005348 -0.573011 0.265222 -0.301093 -0.228183 -0.139885 -0.038098 0.286430 -0.142179 0.755344 -1.128679 -0.505002 0.040529 0.446253 0.253452 -0.295414 0.346693 -0.032559 -0.632416 0.302591 0.018613 -0.263473 -0.136609 -0.751766 1.043157 0.066865 0.533416 -0.067245 -0.314913 -0.591529 -0.774723 -1.033143 -1.207780 0.943700 -0.038237 0.390266 -0.063194 0.105687 -0.194374 -0.591730 0.116861 -0.821547 
HCCDB-17.S104 0.386143 -0.283306 0.146732 0.048732 0.073707 -0.698046 0.854064 0.724791 -0.096323 0.083876 -0.105670 0.321592 -0.095611 0.367688 -0.811855 -0.278331 0.290709 -0.959695 0.007399 -0.578898 -0.106249 0.455117 0.252066 0.911243 -0.092280 -0.139353 -0.058895 -0.225251 0.099930 0.216036 -0.294158 0.322181 0.874701 -0.513110 -0.599870 0.320050 -0.244320 -0.397603 0.043151 -0.512097 0.092642 0.115103 0.329361 -0.368225 -0.077425 -0.133186 0.404212 0.766562 0.014221 0.102739 0.263437 0.149574 -0.063224 -0.071733 0.111215 -0.413354 0.389461 0.194253 -0.228592 0.122731 0.369466 -0.239248 -0.050720 0.140010 0.532076 -0.364752 0.290892 0.086852 -0.111627 0.066691 0.113544 0.488308 0.003236 0.076663 -0.129547 0.391322 -0.030074 -0.468596 0.627702 -0.453656 0.383962 0.260562 -0.287862 -0.582795 -0.379246 -0.349889 -0.219732 -0.087705 0.223788 0.032832 -0.222918 -0.661242 -0.247308 0.001337 0.747186 0.014739 -0.369678 0.055309 -0.017468 -0.817249 0.322461 -0.009760 0.179169 -0.156209 -0.038812 0.164476 -0.249763 0.801958 0.074931 -0.105511 0.246905 0.764286 0.144358 0.095660 -0.036900 0.028253 0.048366 -0.484019 0.531485 -0.509437 -0.070604 0.199783 -0.060820 0.321750 -0.118837 0.156983 -0.170242 -0.440843 0.769981 -0.179228 -0.202832 0.188170 -0.208043 0.182778 0.288606 0.288927 -0.561877 -0.072040 0.529830 -0.476628 0.415567 -0.634758 -0.132681 0.254720 -0.211203 -0.076165 0.579440 0.107831 -0.306131 -0.337427 0.461425 -0.094347 0.375863 0.283838 0.553020 0.298209 0.306668 -0.989372 0.034701 -0.550270 0.254461 -0.289051 -0.206998 -0.127265 0.053958 0.270131 -0.187032 0.794020 -1.120736 -0.508335 0.052727 0.427815 0.338890 -0.348155 0.368055 -0.091354 -0.691192 0.338800 -0.033822 -0.274091 -0.103860 -0.697502 1.052774 0.033485 0.506844 -0.048340 -0.294185 -0.622591 -0.742127 -1.024787 -1.243555 0.942236 -0.035600 0.393085 -0.018970 0.128429 -0.195114 -0.544826 0.123878 -0.826729 
HCCDB-17.S105 0.345664 -0.332486 0.190824 -0.011880 0.048708 -0.697732 0.828988 0.685793 -0.133733 0.011325 -0.108154 0.202944 -0.107866 0.385202 -0.805561 -0.232493 0.207047 -0.899323 -0.080084 -0.603698 -0.151517 0.395910 0.153608 0.799541 -0.081468 -0.150788 0.049908 -0.179858 0.162084 0.244920 -0.306329 0.265526 0.939657 -0.568437 -0.574496 0.339877 -0.261657 -0.406279 0.057078 -0.431083 0.101159 0.120973 0.357522 -0.445871 -0.125464 -0.126442 0.299588 0.690981 0.050057 0.119167 0.339316 0.150939 -0.022716 -0.020653 0.138623 -0.376210 0.370869 0.136778 -0.265264 0.170392 0.378151 -0.340949 -0.083095 0.127063 0.542332 -0.341286 0.359200 0.140943 -0.085530 0.032715 0.064722 0.517393 -0.021928 0.108641 -0.043091 0.340462 0.026389 -0.559541 0.593141 -0.518308 0.387544 0.260016 -0.171030 -0.504874 -0.418344 -0.413313 -0.255498 -0.142342 0.169282 -0.007168 -0.246219 -0.636146 -0.322261 -0.040974 0.733276 0.094719 -0.339653 0.089563 0.044281 -0.900445 0.359945 -0.078181 0.170513 -0.182363 -0.033202 0.107192 -0.165018 0.844852 0.095941 -0.009763 0.264506 0.836215 0.103507 0.098637 -0.042288 0.018677 0.007962 -0.388780 0.516264 -0.600731 -0.142762 0.167203 -0.105332 0.235242 -0.182309 0.218150 -0.148474 -0.462148 0.817822 -0.254349 -0.268827 0.196630 -0.149878 0.236400 0.286030 0.266014 -0.603049 -0.069162 0.469671 -0.504338 0.409779 -0.560136 -0.161948 0.263037 -0.262531 0.001181 0.591052 0.049466 -0.320174 -0.394515 0.476219 -0.036382 0.343087 0.325825 0.489486 0.294150 0.283339 -1.002077 -0.022564 -0.524043 0.291365 -0.231291 -0.158691 -0.144007 -0.059866 0.265041 -0.167908 0.811451 -1.115115 -0.515827 0.071518 0.519544 0.268632 -0.255668 0.426503 -0.011001 -0.690691 0.308017 -0.011531 -0.279146 -0.195375 -0.690738 1.008531 0.085333 0.500051 -0.061103 -0.298029 -0.624019 -0.770710 -0.980354 -1.244600 0.924829 -0.025265 0.368594 -0.018753 0.195698 -0.162634 -0.514672 0.149895 -0.801009 
HCCDB-17.S106 0.389686 -0.278263 0.063750 -0.003961 0.145681 -0.695002 0.774049 0.698595 -0.138343 0.015122 -0.032141 0.350339 -0.099427 0.355192 -0.767256 -0.160156 0.291283 -0.962973 -0.021148 -0.605905 -0.119382 0.527791 0.281095 0.715162 -0.059510 -0.196646 -0.051569 -0.235158 0.106251 0.257966 -0.380484 0.316369 0.902394 -0.643751 -0.535388 0.358004 -0.193025 -0.428688 0.087850 -0.494330 0.084543 0.146675 0.410050 -0.444362 -0.094365 -0.029027 0.366051 0.699780 0.070199 0.116859 0.248344 0.229882 -0.117784 0.066457 0.152767 -0.473098 0.272279 0.141379 -0.171561 0.194943 0.251921 -0.246119 0.037925 0.126449 0.572186 -0.417330 0.392930 0.164601 -0.093496 0.073830 0.170324 0.554769 -0.017744 0.165805 -0.009374 0.368814 0.035334 -0.589528 0.675716 -0.433478 0.350549 0.247395 -0.211796 -0.510006 -0.371207 -0.374356 -0.286649 -0.094451 0.179753 0.035813 -0.252125 -0.560961 -0.178475 -0.009722 0.758324 -0.059971 -0.391217 0.193838 0.008014 -0.801431 0.460355 -0.071798 0.139955 -0.210500 0.003247 0.012408 -0.112439 0.811104 0.125587 -0.088172 0.184527 0.842324 0.200590 0.121634 -0.018223 0.140523 0.064136 -0.376020 0.486319 -0.587470 -0.030562 0.211264 -0.127286 0.185152 -0.113610 0.219825 -0.162018 -0.429042 0.765271 -0.305987 -0.213368 0.142708 -0.202733 0.120803 0.312277 0.309871 -0.514185 -0.084797 0.472552 -0.421536 0.318958 -0.531004 -0.204409 0.267715 -0.277852 -0.002702 0.484153 0.050993 -0.350968 -0.442450 0.460877 -0.001421 0.284979 0.366535 0.639212 0.384382 0.234626 -0.978861 0.018346 -0.451518 0.188448 -0.277111 -0.116569 -0.158679 0.006828 0.326183 -0.218358 0.725042 -1.207361 -0.525930 0.079808 0.401315 0.276954 -0.322420 0.397142 -0.088548 -0.614638 0.273794 0.044255 -0.390160 -0.230217 -0.772029 0.940534 0.069986 0.552433 -0.065279 -0.321197 -0.587511 -0.745356 -0.985586 -1.235298 0.942486 -0.086793 0.389244 -0.069913 0.314657 -0.119929 -0.629032 0.128927 -0.787793 
HCCDB-17.S107 0.287791 -0.271941 0.095862 -0.006591 0.005700 -0.683174 0.797263 0.708012 -0.132426 0.160239 -0.115510 0.227286 -0.060169 0.373604 -0.766938 -0.248357 0.227445 -0.945231 -0.073941 -0.642349 -0.149535 0.434493 0.213952 0.858869 -0.123764 -0.098892 -0.001345 -0.235463 0.147871 0.217968 -0.358099 0.363013 0.935922 -0.566615 -0.550031 0.371419 -0.256347 -0.416996 0.074291 -0.415845 0.155738 0.066991 0.368290 -0.370122 -0.093157 -0.051045 0.263682 0.667998 0.059527 0.109904 0.306859 0.209799 -0.063536 -0.024763 0.123023 -0.465388 0.316946 0.084038 -0.240673 0.103718 0.349735 -0.278576 -0.090029 0.106464 0.512280 -0.381874 0.324578 0.077010 -0.072400 0.107799 0.045678 0.556904 -0.023530 0.115621 -0.122421 0.364057 0.071976 -0.572425 0.615613 -0.522967 0.330920 0.310723 -0.259134 -0.516562 -0.358143 -0.316469 -0.280605 -0.127913 0.187255 0.019368 -0.267647 -0.628538 -0.273358 -0.028776 0.713432 0.076321 -0.339864 0.154900 0.007497 -0.877888 0.420703 -0.040964 0.149689 -0.193106 -0.037895 0.153146 -0.180278 0.854633 0.148788 -0.055148 0.276067 0.862978 0.130454 0.093380 -0.037215 0.030097 0.095646 -0.464635 0.525095 -0.596294 -0.115410 0.169311 -0.064792 0.286617 -0.112459 0.241469 -0.133944 -0.445324 0.777991 -0.209263 -0.197316 0.167208 -0.170555 0.207071 0.298848 0.277329 -0.581375 -0.003861 0.533537 -0.475130 0.411944 -0.548020 -0.133055 0.284803 -0.290225 -0.085210 0.614174 0.095922 -0.277074 -0.323152 0.477975 -0.086449 0.315769 0.283623 0.553523 0.289137 0.308049 -0.978309 -0.010813 -0.511082 0.303443 -0.275184 -0.186146 -0.103813 0.023242 0.292847 -0.200446 0.781444 -1.164860 -0.501247 0.095222 0.509560 0.361957 -0.247513 0.389629 -0.111968 -0.616278 0.356823 0.019037 -0.281269 -0.160995 -0.628665 1.024273 0.057383 0.411924 -0.040299 -0.274805 -0.621063 -0.796033 -1.016006 -1.219030 0.909535 -0.072478 0.369087 0.041329 0.138984 -0.177041 -0.551360 0.141096 -0.797632 
HCCDB-17.S108 0.342688 -0.289901 0.147150 0.048508 0.045640 -0.636561 0.794391 0.644647 -0.059568 0.021913 -0.070569 0.296391 -0.139899 0.453149 -0.751883 -0.160485 0.368460 -0.895443 -0.046756 -0.625401 -0.134265 0.510654 0.212142 0.763514 -0.027331 -0.227049 -0.008919 -0.162221 0.111766 0.244902 -0.413280 0.383674 0.865009 -0.663137 -0.572931 0.363512 -0.260849 -0.387805 0.073933 -0.468316 0.167902 0.189500 0.420245 -0.333895 -0.144727 -0.024781 0.383776 0.773679 -0.011216 0.112400 0.291499 0.196863 -0.207818 -0.028150 0.174936 -0.447175 0.366771 0.116562 -0.116425 0.195684 0.305907 -0.302023 -0.032102 0.155060 0.575561 -0.402058 0.340640 0.089654 -0.104276 0.067102 0.143343 0.568140 -0.082016 0.129991 -0.099871 0.395888 0.023053 -0.645802 0.687927 -0.418250 0.333752 0.240953 -0.272695 -0.625547 -0.346939 -0.386702 -0.314284 -0.086168 0.154020 0.007128 -0.250836 -0.539869 -0.232377 0.049669 0.785852 -0.047720 -0.357019 0.110147 0.017111 -0.765415 0.402341 -0.147609 0.117712 -0.128453 0.078314 0.040477 -0.084381 0.745896 0.096866 -0.084344 0.323343 0.872540 0.271299 0.073250 -0.054749 0.027238 0.138523 -0.518760 0.495770 -0.626474 -0.052757 0.254531 -0.083697 0.249350 -0.137216 0.189730 -0.106870 -0.418613 0.784300 -0.225805 -0.221857 0.195440 -0.188793 0.276799 0.327462 0.317860 -0.554055 -0.042124 0.523321 -0.417309 0.393696 -0.544764 -0.195331 0.289856 -0.204255 -0.000248 0.568038 0.042603 -0.286554 -0.450519 0.486245 -0.014206 0.251176 0.270786 0.622953 0.325104 0.302483 -0.995047 0.042725 -0.507589 0.199534 -0.238169 -0.123908 -0.184335 -0.104824 0.343892 -0.202256 0.731780 -1.052502 -0.485940 -0.040757 0.450399 0.218411 -0.372220 0.452800 -0.134565 -0.642529 0.202072 -0.027592 -0.305143 -0.172851 -0.805076 1.086417 0.041001 0.540924 -0.028869 -0.305450 -0.528018 -0.722111 -0.996374 -1.250881 0.888293 -0.072215 0.424848 -0.035942 0.209536 -0.071519 -0.584793 0.171654 -0.804182 
HCCDB-17.S109 0.294915 -0.336408 0.105995 -0.047176 0.051969 -0.598622 0.733380 0.700117 -0.106521 0.036660 -0.060059 0.213699 -0.131991 0.309318 -0.775374 -0.274123 0.231018 -0.922731 -0.032923 -0.553510 -0.024101 0.498069 0.200223 0.794061 -0.121205 -0.187456 -0.059860 -0.264095 0.157139 0.232390 -0.334030 0.269985 0.848340 -0.603365 -0.590227 0.273297 -0.286787 -0.433179 0.075971 -0.497137 0.124475 0.171245 0.340927 -0.439864 -0.137278 -0.022304 0.270230 0.710927 -0.003329 0.078879 0.352416 0.159987 -0.109079 0.017212 0.218811 -0.476265 0.293945 0.117423 -0.190453 0.138031 0.308785 -0.293232 0.012847 0.117257 0.546072 -0.296531 0.296646 0.116986 -0.146794 0.107972 0.144830 0.553472 -0.083668 0.107032 0.073227 0.350774 -0.017712 -0.630849 0.562532 -0.567434 0.329664 0.315524 -0.282227 -0.519403 -0.309131 -0.433452 -0.296194 -0.040570 0.163123 0.048121 -0.205527 -0.632058 -0.199829 -0.049058 0.794681 0.018626 -0.334210 0.175875 -0.015154 -0.873841 0.442041 -0.084247 0.169296 -0.134879 -0.072067 0.148804 -0.170759 0.817809 0.069173 -0.144711 0.310735 0.781774 0.139292 0.075490 -0.071625 0.059679 0.050241 -0.579078 0.485988 -0.605111 -0.041940 0.217471 -0.091200 0.259519 -0.164382 0.267790 -0.149521 -0.472734 0.804058 -0.270617 -0.219020 0.295490 -0.221430 0.250155 0.299291 0.310175 -0.557473 0.008557 0.473537 -0.470929 0.400166 -0.488483 -0.141263 0.259457 -0.225413 -0.055530 0.557668 0.036191 -0.349382 -0.433285 0.481275 -0.026236 0.300361 0.407176 0.612632 0.390024 0.221272 -0.995583 -0.002957 -0.484986 0.298588 -0.252838 -0.195149 -0.148409 -0.052942 0.374524 -0.243066 0.785681 -1.126777 -0.542384 0.113268 0.504083 0.289509 -0.269163 0.305548 -0.011161 -0.603237 0.342335 0.008844 -0.351630 -0.161487 -0.756308 0.954692 0.087067 0.535381 -0.136596 -0.286263 -0.603853 -0.796310 -1.019667 -1.199394 0.916099 -0.079649 0.378841 -0.049343 0.329173 -0.139920 -0.567914 0.019002 -0.912775 
HCCDB-17.S11 0.468183 -0.276113 0.080707 0.074321 -0.030720 -0.717077 0.719128 0.650254 -0.104191 -0.001981 -0.045339 0.285611 -0.074053 0.317246 -0.737274 -0.212298 0.331850 -0.949668 0.098276 -0.662968 -0.172838 0.587213 0.197205 0.903075 -0.028677 -0.169227 -0.147047 -0.269543 0.128685 0.302300 -0.349176 0.488193 0.939688 -0.607081 -0.561517 0.330986 -0.315304 -0.418857 0.078005 -0.499942 0.310535 0.185328 0.413255 -0.425460 0.115389 -0.096314 0.320168 0.677066 0.145867 0.064604 0.176512 0.207298 -0.081644 -0.091889 -0.017026 -0.434014 0.346109 0.106719 -0.044651 0.151805 0.308165 -0.326853 -0.045737 0.101791 0.543362 -0.359433 0.308849 0.125648 -0.028720 -0.058233 -0.011028 0.371989 0.054202 0.108333 0.000898 0.407061 0.086858 -0.574935 0.625067 -0.520385 0.522665 0.217322 -0.189158 -0.617316 -0.381241 -0.416754 -0.335857 -0.248582 0.149776 0.164810 -0.523762 -0.712186 -0.117651 0.074930 0.630581 0.050646 -0.267121 0.040913 0.033408 -0.682719 0.382034 0.012016 0.044524 -0.186789 -0.134922 0.016749 -0.058440 0.840962 0.090598 -0.038172 0.291179 0.778981 0.225030 0.048089 -0.071633 0.141990 0.088713 -0.532284 0.285963 -0.669886 0.021898 0.339363 -0.010137 0.191546 -0.198234 0.117387 -0.165318 -0.430203 0.685599 -0.230540 -0.258400 0.155156 -0.296070 0.256316 0.501591 0.333966 -0.426093 0.019419 0.515628 -0.543674 0.283860 -0.707159 -0.350275 0.240753 -0.337696 -0.050092 0.437729 0.106122 -0.446438 -0.405961 0.616219 -0.141125 0.359497 0.285986 0.642271 0.213298 0.221924 -0.897013 0.065637 -0.568282 0.201849 -0.289183 -0.007812 -0.135472 -0.124693 0.212997 -0.166142 0.857764 -1.153786 -0.405637 0.005762 0.541295 0.195395 -0.365120 0.375389 -0.166861 -0.673288 0.181237 0.017244 -0.258522 -0.147102 -0.884097 0.984131 0.142505 0.522658 -0.074959 -0.216490 -0.520195 -0.747864 -0.852708 -1.197412 0.767401 0.060199 0.303302 0.040675 0.200998 -0.097802 -0.556718 0.268153 -0.700216 
HCCDB-17.S110 0.359825 -0.346930 0.166841 0.024086 0.050857 -0.690125 0.812843 0.679873 -0.152077 0.087064 -0.109345 0.246823 -0.107642 0.438467 -0.767755 -0.230918 0.238128 -0.935871 -0.133494 -0.623551 -0.148128 0.393432 0.135374 0.805518 -0.102845 -0.171599 -0.018781 -0.138550 0.131858 0.228095 -0.294686 0.306543 0.942331 -0.552924 -0.574655 0.264566 -0.286709 -0.419376 0.112519 -0.409084 0.122028 0.133867 0.370026 -0.369315 -0.119942 -0.137837 0.265986 0.706740 0.043614 0.123822 0.315823 0.175624 -0.017921 -0.006731 0.119410 -0.404892 0.398413 0.108362 -0.210087 0.183452 0.368935 -0.314852 -0.113963 0.139761 0.587508 -0.342887 0.317296 0.095713 -0.061117 0.056524 0.039317 0.539526 0.031050 0.117688 -0.056796 0.335856 0.012768 -0.601032 0.626858 -0.476998 0.393612 0.292538 -0.176801 -0.505572 -0.411477 -0.358551 -0.287286 -0.160448 0.189106 -0.034759 -0.285308 -0.611340 -0.278963 -0.024214 0.760599 0.065279 -0.326430 0.042942 0.015242 -0.905249 0.376506 -0.074749 0.182336 -0.191192 -0.066021 0.077023 -0.186647 0.797226 0.144874 -0.038191 0.294841 0.813133 0.100819 0.071659 -0.050424 0.042093 0.054628 -0.425303 0.500652 -0.580598 -0.158322 0.181721 -0.113341 0.281832 -0.126992 0.195076 -0.162488 -0.487424 0.849675 -0.225603 -0.237858 0.137582 -0.180870 0.183190 0.295289 0.267837 -0.571697 -0.061503 0.486997 -0.487620 0.406031 -0.560065 -0.204611 0.250910 -0.278150 -0.033339 0.635549 0.089912 -0.316747 -0.422201 0.468999 -0.034288 0.296298 0.317011 0.521174 0.268598 0.321110 -1.000280 -0.003423 -0.514486 0.305115 -0.224973 -0.170956 -0.116537 -0.076398 0.262871 -0.198932 0.767210 -1.138664 -0.544198 0.093277 0.472130 0.344897 -0.228319 0.456324 -0.064259 -0.649694 0.288376 0.041589 -0.235623 -0.187326 -0.673940 0.961796 0.071409 0.501314 -0.050108 -0.297929 -0.621293 -0.735024 -1.003694 -1.202386 0.906976 -0.033176 0.375667 0.014073 0.162121 -0.174808 -0.604820 0.147430 -0.811566 
HCCDB-17.S111 0.375045 -0.354007 0.079795 -0.078225 0.075008 -0.572612 0.729052 0.708899 -0.166618 0.015305 -0.073679 0.311912 -0.058065 0.395336 -0.739480 -0.267258 0.279573 -0.928930 0.015824 -0.642846 -0.051873 0.408415 0.209755 0.802822 -0.034345 -0.165896 -0.053812 -0.159532 0.071435 0.164339 -0.277323 0.329118 0.877305 -0.574757 -0.544301 0.315546 -0.238494 -0.368512 0.071960 -0.492747 0.113057 0.099131 0.331179 -0.422043 -0.164545 -0.111141 0.295119 0.770272 0.043003 0.034444 0.288149 0.177722 0.011406 -0.055293 0.143590 -0.446613 0.417075 0.134433 -0.221861 0.103783 0.428368 -0.261875 -0.046888 0.206108 0.540927 -0.329846 0.320771 0.038404 -0.159701 0.101058 0.123842 0.499879 -0.051933 0.138913 0.023896 0.328505 -0.051303 -0.583804 0.596694 -0.456813 0.379458 0.337353 -0.201216 -0.547718 -0.420104 -0.343868 -0.244820 -0.145289 0.147462 0.065585 -0.260796 -0.653779 -0.180132 0.007884 0.734259 -0.007095 -0.376195 0.106771 -0.016602 -0.861046 0.352497 -0.117661 0.249002 -0.182313 -0.045177 0.121844 -0.246771 0.784464 0.075366 -0.055624 0.323984 0.809799 0.139656 0.100015 -0.067183 0.078711 0.078773 -0.491241 0.450762 -0.569198 -0.086537 0.276218 -0.142039 0.292442 -0.156996 0.167977 -0.143926 -0.541596 0.710294 -0.259558 -0.159459 0.151509 -0.192803 0.280246 0.303940 0.220123 -0.594454 -0.038615 0.548129 -0.522098 0.398076 -0.592284 -0.156598 0.251173 -0.282248 -0.073099 0.612319 0.143209 -0.307025 -0.357007 0.463941 -0.122270 0.324006 0.287846 0.552706 0.329562 0.292791 -1.021902 0.035011 -0.548707 0.303441 -0.233215 -0.155180 -0.142696 0.062481 0.244503 -0.211646 0.781278 -1.159577 -0.577761 0.030707 0.427453 0.309359 -0.338153 0.421283 -0.186497 -0.656928 0.357608 -0.021306 -0.293302 -0.120320 -0.669975 0.993384 0.023528 0.536820 -0.035984 -0.235350 -0.637070 -0.768193 -1.061548 -1.199756 0.930688 -0.038378 0.372400 -0.052244 0.076407 -0.128571 -0.530011 0.051622 -0.833661 
HCCDB-17.S112 0.335094 -0.297196 0.084258 -0.012108 0.004417 -0.667076 0.725582 0.665528 -0.112386 0.065491 -0.084117 0.192192 -0.071503 0.316505 -0.782147 -0.235650 0.267706 -0.948514 -0.033540 -0.587075 -0.103820 0.400081 0.163080 0.839708 -0.084928 -0.131081 -0.026639 -0.245507 0.101548 0.207158 -0.318854 0.383061 0.901990 -0.629061 -0.534597 0.376062 -0.284624 -0.371780 0.073080 -0.451999 0.100586 0.179128 0.358660 -0.386025 -0.097025 -0.038844 0.256844 0.783371 -0.039806 0.121517 0.287831 0.218237 -0.070419 -0.056022 0.185828 -0.482838 0.373307 0.087416 -0.258712 0.128124 0.453174 -0.311610 -0.023454 0.103938 0.591507 -0.378978 0.292138 0.138367 -0.211705 0.122037 0.072459 0.568336 0.012082 0.135261 -0.012845 0.325012 0.011476 -0.589251 0.646511 -0.481230 0.308123 0.331967 -0.223970 -0.502904 -0.428308 -0.335429 -0.212125 -0.190011 0.141489 0.015158 -0.263725 -0.710462 -0.245003 -0.028233 0.686372 0.050040 -0.380558 0.132028 -0.023689 -0.850221 0.382134 -0.073550 0.206148 -0.220116 -0.062506 0.120190 -0.112320 0.793147 0.079750 -0.076318 0.322416 0.795371 0.099684 0.166165 -0.003142 0.046269 0.010951 -0.424865 0.443795 -0.548944 -0.061166 0.238880 -0.091262 0.225109 -0.074379 0.259935 -0.101052 -0.444833 0.795887 -0.292369 -0.193088 0.226853 -0.161251 0.215796 0.292835 0.323866 -0.608386 -0.028334 0.576422 -0.501486 0.413918 -0.558074 -0.141120 0.252026 -0.261138 -0.105837 0.623830 0.134341 -0.260279 -0.339453 0.536684 -0.085048 0.280726 0.277215 0.613244 0.384184 0.296193 -0.996337 0.019104 -0.540439 0.297414 -0.226547 -0.165745 -0.063527 0.005079 0.302484 -0.158157 0.751313 -1.116914 -0.585945 0.096496 0.424006 0.300321 -0.292246 0.375646 -0.116272 -0.572936 0.365141 -0.031164 -0.336101 -0.155995 -0.654753 1.043823 0.111490 0.520880 -0.042136 -0.245620 -0.635597 -0.772135 -1.052378 -1.240854 0.928963 -0.113395 0.360244 0.017799 0.198252 -0.194334 -0.530638 0.134825 -0.817026 
HCCDB-17.S113 0.239645 -0.391527 0.204529 -0.115735 0.051207 -0.582505 0.818063 0.677437 -0.129199 0.171950 -0.175305 0.142081 -0.068018 0.376867 -0.769563 -0.293456 0.269948 -0.841270 -0.078447 -0.592251 -0.109902 0.423531 0.139174 0.818000 -0.132242 -0.137248 -0.020393 -0.260432 0.234905 0.185790 -0.276219 0.347431 0.905706 -0.533114 -0.626812 0.303227 -0.255665 -0.406662 0.067314 -0.459235 0.155843 0.119845 0.362446 -0.376459 -0.125732 -0.055282 0.302167 0.713278 0.031315 0.044251 0.384268 0.104888 0.020697 0.000287 0.135734 -0.461281 0.380442 0.128679 -0.238827 0.149832 0.362089 -0.313600 -0.052273 0.083464 0.538851 -0.318603 0.263087 0.121676 -0.169675 0.107603 0.067024 0.481324 -0.043723 0.051771 -0.015929 0.386676 -0.009565 -0.528284 0.559570 -0.527629 0.293988 0.301029 -0.226301 -0.571623 -0.390813 -0.365710 -0.306627 -0.161927 0.167182 0.043099 -0.292639 -0.639094 -0.261488 -0.036172 0.745819 -0.061951 -0.304457 0.177320 -0.034724 -0.796196 0.336931 -0.018912 0.135200 -0.139863 -0.086160 0.130125 -0.270591 0.828468 0.052712 -0.117988 0.316807 0.781316 0.090000 0.047110 -0.048107 -0.010479 -0.011474 -0.556010 0.475416 -0.624035 -0.068033 0.202288 -0.091684 0.297309 -0.164804 0.285354 -0.118001 -0.403027 0.798532 -0.308925 -0.195390 0.334952 -0.219880 0.302467 0.330883 0.390268 -0.610054 -0.060467 0.469556 -0.543866 0.320715 -0.519923 -0.163632 0.292890 -0.164266 -0.064954 0.572971 0.049003 -0.243663 -0.352909 0.444902 -0.070756 0.383571 0.397092 0.548169 0.321324 0.198452 -0.997010 0.014927 -0.525464 0.311945 -0.255529 -0.242287 -0.137495 -0.045187 0.385533 -0.176274 0.815015 -1.137963 -0.465158 0.111911 0.541904 0.213146 -0.323306 0.393427 -0.088768 -0.620179 0.351344 0.028402 -0.234375 -0.125656 -0.732432 1.021229 0.072786 0.491734 -0.153900 -0.259687 -0.626780 -0.800821 -1.070635 -1.238573 0.961432 -0.106956 0.421798 0.018651 0.241853 -0.085687 -0.553243 0.036010 -0.797059 
HCCDB-17.S114 0.387207 -0.229653 0.132179 -0.035272 0.095260 -0.686297 0.799794 0.718846 -0.101948 0.067361 -0.046657 0.341727 -0.087268 0.351576 -0.718991 -0.175452 0.255861 -0.914320 0.021888 -0.595434 -0.025819 0.512188 0.305424 0.715834 -0.087872 -0.161379 -0.038682 -0.256644 0.146862 0.204605 -0.434825 0.377299 0.851858 -0.674387 -0.577486 0.334639 -0.221459 -0.426370 0.117806 -0.413028 0.039129 0.141083 0.359989 -0.394180 -0.137477 -0.051378 0.362513 0.721076 0.052996 0.122371 0.231076 0.256301 0.027747 0.053308 0.174583 -0.461978 0.334010 0.070654 -0.128763 0.140911 0.282370 -0.317269 -0.051674 0.110586 0.481651 -0.379090 0.336794 0.149625 -0.117978 0.164611 0.125322 0.557036 -0.016284 0.156494 -0.008656 0.272157 -0.016865 -0.641729 0.689299 -0.488226 0.292236 0.240243 -0.323168 -0.553680 -0.392350 -0.414559 -0.254701 -0.175172 0.139473 0.087950 -0.226873 -0.645351 -0.279265 0.049438 0.672029 -0.036252 -0.459008 0.154685 -0.020880 -0.851066 0.447784 -0.103633 0.141218 -0.200269 -0.104963 0.112434 -0.137072 0.831809 0.039213 -0.108166 0.162377 0.910391 0.161858 0.154347 -0.040559 0.121837 0.073655 -0.444681 0.460920 -0.623541 -0.062609 0.228567 -0.144247 0.212947 -0.085089 0.293277 -0.149907 -0.416602 0.762402 -0.322020 -0.227032 0.109816 -0.222276 0.134469 0.329952 0.343490 -0.532837 -0.045628 0.515044 -0.442248 0.424883 -0.454760 -0.215302 0.368588 -0.239348 -0.099481 0.523256 0.071804 -0.264005 -0.436538 0.481469 -0.072302 0.317937 0.370629 0.604350 0.374665 0.269095 -0.983745 -0.013178 -0.497781 0.259253 -0.230304 -0.199169 -0.130381 0.071392 0.334406 -0.222651 0.685813 -1.155835 -0.502458 0.124935 0.468709 0.261947 -0.235623 0.319246 -0.092077 -0.618637 0.297665 -0.010175 -0.400154 -0.149930 -0.721581 0.923425 0.143530 0.512616 -0.044093 -0.216461 -0.563340 -0.759280 -1.007439 -1.242411 1.035095 -0.065109 0.327938 -0.037637 0.303188 -0.044599 -0.626253 0.059307 -0.768030 
HCCDB-17.S115 0.352415 -0.301555 0.092742 -0.054222 0.019583 -0.644254 0.783323 0.753573 -0.115174 0.091580 -0.098020 0.226392 -0.089627 0.385478 -0.803788 -0.253758 0.293153 -0.947922 0.032577 -0.573339 -0.140514 0.448564 0.201757 0.758697 -0.075519 -0.140033 -0.079920 -0.282947 0.067214 0.195071 -0.283602 0.368558 0.881163 -0.524470 -0.619968 0.295845 -0.252834 -0.386624 0.049811 -0.506424 0.133554 0.192508 0.298665 -0.419874 -0.105874 -0.020454 0.324603 0.786227 -0.024889 0.050884 0.252557 0.119830 -0.011817 0.016320 0.211049 -0.454253 0.406842 0.115798 -0.221898 0.101333 0.346347 -0.281466 -0.064256 0.132953 0.587258 -0.318986 0.320397 0.104583 -0.142580 0.088534 0.142802 0.540175 -0.071070 0.025829 -0.035263 0.388524 -0.027108 -0.586007 0.622884 -0.482298 0.333240 0.325351 -0.216631 -0.527869 -0.356740 -0.363606 -0.193459 -0.158645 0.154233 0.056167 -0.221084 -0.655448 -0.248590 -0.003536 0.774571 -0.062313 -0.374857 0.048606 -0.033611 -0.795173 0.370306 -0.089568 0.211013 -0.191522 -0.075227 0.170763 -0.126929 0.782826 0.056355 -0.080106 0.298034 0.812323 0.132057 0.127267 -0.019586 0.059482 0.122602 -0.503928 0.426048 -0.606395 -0.105371 0.184927 -0.064376 0.245526 -0.190911 0.154768 -0.141442 -0.497427 0.772413 -0.293010 -0.148418 0.187743 -0.215600 0.277148 0.353840 0.316869 -0.577948 -0.061439 0.489181 -0.501350 0.407866 -0.603724 -0.150306 0.264707 -0.195269 -0.115858 0.639019 0.118112 -0.283226 -0.362685 0.504527 -0.097516 0.419600 0.311409 0.577320 0.341133 0.283490 -1.027569 -0.046547 -0.532613 0.303787 -0.228416 -0.174137 -0.075978 -0.017811 0.303035 -0.170528 0.717700 -1.149736 -0.480207 0.068044 0.448081 0.268729 -0.308116 0.350541 -0.018234 -0.672801 0.314195 -0.015658 -0.320541 -0.034796 -0.720560 0.952136 0.028430 0.488929 -0.089967 -0.270819 -0.639554 -0.776969 -0.999062 -1.180748 0.958776 -0.038294 0.396116 -0.029595 0.123844 -0.162252 -0.594698 0.049250 -0.813116 
HCCDB-17.S12 0.418738 -0.350382 0.095126 -0.065033 0.014861 -0.635018 0.753857 0.580329 -0.173400 0.114457 -0.094063 0.333934 -0.079709 0.246116 -0.702560 -0.262587 0.187589 -0.955138 0.063278 -0.594781 -0.117750 0.502970 0.281421 0.917606 -0.112088 -0.155130 -0.117418 -0.175032 0.108253 0.239679 -0.419535 0.400699 0.946942 -0.596881 -0.451623 0.267626 -0.230605 -0.296073 0.039678 -0.506011 0.171047 0.061706 0.337512 -0.445512 0.021476 -0.074698 0.363933 0.709332 0.042852 0.020744 0.116252 0.116362 -0.101883 -0.147046 0.065513 -0.485897 0.347318 0.011990 -0.250712 0.197069 0.351533 -0.447811 0.031499 0.146696 0.578710 -0.345026 0.386618 0.201286 -0.140716 -0.037677 -0.018663 0.435598 0.052751 0.121589 0.136850 0.295557 0.013261 -0.693275 0.693036 -0.495533 0.535808 0.232954 -0.278730 -0.510355 -0.304837 -0.471847 -0.237686 -0.093639 0.201451 0.168048 -0.498949 -0.760865 -0.187938 0.056344 0.618193 -0.052249 -0.254256 0.047386 0.091858 -0.674636 0.430273 0.019838 -0.039179 -0.318942 -0.120412 0.157900 -0.081156 0.926776 0.004471 -0.117467 0.215087 0.679118 0.180194 0.096968 -0.055665 0.075913 0.085246 -0.398033 0.297802 -0.548329 -0.050011 0.224717 -0.062868 0.129383 -0.232710 0.130663 -0.146028 -0.459970 0.694037 -0.345649 -0.251193 0.180522 -0.332326 0.209459 0.517858 0.261164 -0.550114 -0.035365 0.591756 -0.498867 0.385312 -0.744385 -0.317374 0.292334 -0.254557 -0.089513 0.577885 0.040660 -0.430228 -0.437228 0.537337 -0.120727 0.224596 0.336173 0.658848 0.342305 0.151310 -0.978967 0.075524 -0.528692 0.222844 -0.305358 -0.143758 -0.064469 -0.048756 0.203861 -0.146881 0.841104 -1.158319 -0.429865 0.097266 0.580262 0.201566 -0.413494 0.397604 -0.086930 -0.641685 0.231898 0.061457 -0.254124 -0.269702 -0.851895 0.926190 0.090523 0.573748 -0.106126 -0.274999 -0.572560 -0.739529 -0.842616 -1.157016 0.871438 0.015315 0.376675 0.007133 0.350160 -0.151100 -0.541277 0.146398 -0.758974 
HCCDB-17.S13 0.437489 -0.205616 0.138511 -0.043522 -0.047705 -0.727228 0.760843 0.696668 -0.049073 0.070514 0.014951 0.323510 -0.093381 0.373911 -0.766230 -0.256988 0.264058 -0.966631 -0.032677 -0.624957 -0.193888 0.470939 0.279761 0.806495 -0.075541 -0.173525 -0.105589 -0.251760 0.065817 0.152624 -0.344606 0.343865 0.923129 -0.569575 -0.557280 0.363757 -0.289863 -0.360761 0.030837 -0.559960 0.204193 0.170578 0.384135 -0.376778 -0.053468 0.038854 0.358382 0.725153 0.031719 0.093049 0.188380 0.163566 -0.078845 -0.007530 0.039446 -0.518277 0.365280 0.047974 -0.207488 0.232512 0.338065 -0.248765 0.048361 0.081798 0.535788 -0.457767 0.371024 0.004115 -0.108212 0.055148 0.045085 0.427239 0.187047 0.145863 -0.016874 0.255949 0.070375 -0.652302 0.663763 -0.500238 0.376436 0.249687 -0.233055 -0.512255 -0.410410 -0.399125 -0.214823 -0.277889 0.216969 0.130926 -0.371677 -0.665282 -0.303435 0.019425 0.715949 0.014160 -0.436875 0.107818 -0.031166 -0.860403 0.410645 -0.077808 0.060091 -0.222346 -0.055756 0.105038 -0.095232 0.745920 -0.002858 -0.073532 0.198695 0.797885 0.204504 0.151180 0.003611 0.160957 0.063520 -0.427997 0.458797 -0.602078 -0.060597 0.231491 -0.113687 0.226489 -0.054731 0.147250 -0.134916 -0.468066 0.616439 -0.269344 -0.185626 0.049440 -0.248073 0.170034 0.384631 0.439601 -0.532131 -0.006028 0.499455 -0.580933 0.366563 -0.663699 -0.171414 0.256323 -0.279188 0.031425 0.580073 0.182699 -0.366809 -0.398431 0.566795 -0.118625 0.304278 0.321161 0.535191 0.233667 0.237148 -0.957715 0.042324 -0.523768 0.214880 -0.276738 -0.113621 -0.089315 -0.045286 0.260986 -0.087209 0.787399 -1.199862 -0.528397 0.073334 0.358155 0.211623 -0.366244 0.375306 -0.198897 -0.610726 0.239606 -0.046508 -0.251502 -0.145585 -0.711863 1.054286 0.017040 0.549533 -0.036140 -0.309626 -0.552724 -0.742869 -0.889828 -1.295920 0.854476 -0.070734 0.407463 0.037874 0.181804 -0.072023 -0.538984 0.112832 -0.722365 
HCCDB-17.S14 0.484498 -0.263485 0.039569 -0.089502 -0.016208 -0.549114 0.674926 0.620960 -0.121291 0.070161 -0.040568 0.315310 -0.137208 0.269296 -0.724724 -0.250110 0.249038 -0.861851 0.077246 -0.677315 -0.111890 0.568656 0.358879 0.782879 -0.124289 -0.218219 -0.155809 -0.212994 0.185676 0.270761 -0.406583 0.447393 0.918856 -0.563307 -0.564978 0.333287 -0.246223 -0.426646 -0.066322 -0.536100 0.201648 0.055972 0.385312 -0.484198 -0.047030 -0.156108 0.331443 0.733668 0.032798 -0.000124 0.170831 0.089713 -0.039085 -0.041060 0.071603 -0.537869 0.378021 0.050323 -0.198244 0.093981 0.397293 -0.288370 -0.023474 0.120843 0.641622 -0.376850 0.367685 0.029106 -0.071430 -0.011751 -0.050349 0.440258 0.101807 0.101161 0.134363 0.268583 0.003156 -0.655037 0.693239 -0.550127 0.359713 0.232293 -0.226038 -0.435624 -0.490206 -0.346071 -0.289123 -0.171125 0.022004 0.299499 -0.456762 -0.695220 -0.148294 0.027612 0.649000 -0.045343 -0.341259 0.208507 0.061848 -0.729869 0.336741 0.011405 0.073550 -0.218472 -0.129096 0.149152 -0.183578 0.895095 0.097588 -0.160322 0.229580 0.778416 0.207711 0.085659 -0.114564 0.015015 0.118400 -0.533944 0.274075 -0.686147 0.002739 0.254215 -0.132397 0.191198 -0.144472 0.091415 -0.266979 -0.534426 0.579062 -0.301545 -0.190107 0.063065 -0.327162 0.215805 0.407072 0.267244 -0.533824 -0.009113 0.460831 -0.507461 0.364715 -0.753703 -0.331322 0.271829 -0.314047 -0.094077 0.571537 0.065635 -0.373171 -0.439855 0.573859 -0.122138 0.239871 0.299035 0.719174 0.267088 0.204482 -1.021504 -0.009771 -0.453600 0.220222 -0.292838 -0.038215 -0.106753 0.004269 0.237851 -0.119936 0.812738 -1.112636 -0.432412 0.036224 0.598625 0.146954 -0.444117 0.400129 -0.151231 -0.676034 0.217191 0.031713 -0.261752 -0.213781 -0.849113 1.020376 0.046352 0.595008 -0.072174 -0.223002 -0.621292 -0.732045 -0.890066 -1.162256 0.822515 0.037978 0.246306 0.017340 0.202417 -0.031451 -0.537906 0.048884 -0.634255 
HCCDB-17.S15 0.520224 -0.316485 0.050089 -0.047370 0.050504 -0.645295 0.786366 0.695376 -0.177331 0.063221 0.042108 0.293028 -0.127510 0.392412 -0.718180 -0.260439 0.292680 -0.886842 0.027281 -0.604493 -0.039859 0.505277 0.292522 0.800419 -0.064905 -0.184854 -0.206129 -0.170738 0.153754 0.211300 -0.319836 0.379853 0.855289 -0.576016 -0.595697 0.380324 -0.283714 -0.467790 0.129305 -0.422575 0.200058 0.150276 0.382847 -0.534358 -0.134364 -0.006433 0.237432 0.674831 0.050307 0.023352 0.197654 0.181168 0.021165 0.018339 0.023464 -0.552835 0.345938 0.060213 -0.238232 0.110023 0.431407 -0.371583 0.043806 0.088826 0.522524 -0.325601 0.367412 0.136786 -0.059579 0.069689 0.078540 0.390276 0.107603 0.132788 0.085993 0.198212 0.041282 -0.547598 0.689682 -0.458571 0.337762 0.248426 -0.087485 -0.594795 -0.483685 -0.326180 -0.262856 -0.190304 0.059881 0.148503 -0.337601 -0.700776 -0.270981 -0.007623 0.747537 -0.097482 -0.325861 0.104151 0.010468 -0.836164 0.331162 -0.168984 0.142952 -0.216873 -0.074135 0.068453 -0.131081 0.863327 0.062329 -0.182050 0.325336 0.911653 0.241168 0.092815 -0.151918 0.076769 0.012445 -0.422188 0.407871 -0.689855 -0.042682 0.236816 -0.122015 0.129422 -0.143353 0.218872 -0.170746 -0.425357 0.596488 -0.269524 -0.209052 0.105080 -0.326850 0.254123 0.411372 0.474846 -0.626678 -0.055011 0.454714 -0.552782 0.311485 -0.645928 -0.250651 0.141042 -0.200392 -0.021300 0.547165 0.132031 -0.419043 -0.452856 0.451240 -0.068459 0.261222 0.341774 0.628021 0.271074 0.237138 -0.976206 -0.002458 -0.507531 0.244888 -0.255108 -0.169201 -0.194000 0.094586 0.279723 -0.258735 0.836394 -1.159438 -0.483554 0.048348 0.473063 0.191222 -0.410401 0.367781 -0.142031 -0.600593 0.230273 0.033802 -0.306499 -0.077235 -0.808613 0.952657 0.142786 0.607935 -0.115936 -0.268930 -0.515610 -0.770253 -1.013029 -1.177346 0.954055 0.021528 0.419474 0.094394 0.322998 -0.049143 -0.496605 -0.088144 -0.731519 
HCCDB-17.S16 0.432640 -0.308423 0.212351 0.003461 0.016697 -0.809716 0.795458 0.643728 -0.002078 0.117092 -0.096318 0.290451 -0.088393 0.285762 -0.765503 -0.232374 0.278323 -0.866755 -0.028711 -0.678533 -0.169428 0.615210 0.381690 0.816320 0.017298 -0.241222 -0.089981 -0.197537 0.112736 0.229440 -0.400326 0.487134 0.945710 -0.633704 -0.610408 0.290192 -0.155799 -0.316055 0.113866 -0.565673 0.152217 0.293353 0.387823 -0.400518 0.005945 -0.024297 0.295616 0.560884 0.096632 -0.005064 0.254066 0.156230 -0.070346 -0.095572 0.175682 -0.531725 0.311942 0.043527 -0.145793 0.153594 0.279320 -0.286967 -0.023141 0.178248 0.550346 -0.361365 0.429473 0.167287 -0.078402 -0.113134 -0.050657 0.340690 0.023573 0.103590 -0.005054 0.313145 0.093441 -0.571957 0.561800 -0.551317 0.471266 0.260788 -0.113216 -0.587190 -0.308338 -0.324347 -0.276607 -0.270178 0.158736 0.170340 -0.342997 -0.625783 -0.240104 0.117619 0.657704 -0.062473 -0.247462 0.058789 0.122952 -0.706113 0.489372 -0.052611 0.094525 -0.237142 -0.095499 0.068516 -0.102644 0.794858 -0.012450 -0.116087 0.182858 0.842805 0.267279 0.110770 -0.090315 0.113516 0.027170 -0.480349 0.317005 -0.639884 0.094329 0.318954 -0.046097 0.212085 -0.067141 0.187127 -0.058669 -0.435930 0.630200 -0.308706 -0.194184 0.138478 -0.339026 0.236436 0.414539 0.300120 -0.477176 0.021514 0.458034 -0.579148 0.344578 -0.647546 -0.250693 0.274618 -0.355888 -0.081620 0.473742 0.120133 -0.331417 -0.445193 0.520398 -0.151523 0.317975 0.174660 0.598937 0.185706 0.360878 -0.973503 -0.046977 -0.558825 0.279288 -0.319971 -0.011168 -0.010383 -0.048062 0.289552 -0.239905 0.817595 -1.121249 -0.431973 0.010641 0.419364 0.138175 -0.382289 0.434730 -0.096193 -0.718850 0.135500 0.027216 -0.388525 -0.215673 -0.914013 0.938285 0.114859 0.506761 -0.070555 -0.204992 -0.600234 -0.718947 -0.894046 -1.270757 0.776637 0.022798 0.381091 0.018010 0.148692 -0.139201 -0.623387 0.243086 -0.723473 
HCCDB-17.S17 0.500343 -0.245383 0.060389 -0.120243 -0.035696 -0.578219 0.710748 0.659512 -0.183644 0.086628 -0.007402 0.320534 -0.175886 0.331120 -0.732685 -0.317656 0.265687 -0.838149 0.071851 -0.698869 -0.117058 0.468955 0.319238 0.729177 -0.137301 -0.220031 -0.163063 -0.208601 0.033412 0.213819 -0.318853 0.392569 0.923290 -0.570426 -0.576718 0.414231 -0.257109 -0.511725 -0.028246 -0.503823 0.222520 0.014328 0.334143 -0.449486 -0.088338 -0.020589 0.296805 0.711271 0.129087 0.021927 0.180155 0.161112 -0.077305 -0.070147 -0.006090 -0.506294 0.386733 0.111078 -0.165317 0.105626 0.422323 -0.260873 0.019813 0.198196 0.509755 -0.439698 0.401056 -0.053320 -0.132268 0.038352 -0.003552 0.426048 0.166617 0.137859 -0.008928 0.282816 0.038402 -0.703878 0.687850 -0.495137 0.397493 0.259356 -0.239289 -0.554318 -0.447908 -0.373128 -0.228335 -0.209519 0.127156 0.150351 -0.396771 -0.717044 -0.194802 0.000307 0.672437 0.064435 -0.377774 0.115208 0.084482 -0.881267 0.370990 -0.038838 0.091209 -0.174703 -0.169546 0.195643 -0.095950 0.847478 0.002033 -0.177248 0.244870 0.790901 0.189487 0.126723 -0.104441 0.114416 0.112788 -0.514574 0.323933 -0.645169 -0.061920 0.231723 -0.122411 0.188411 -0.121451 0.094814 -0.217173 -0.486667 0.646941 -0.272817 -0.192206 0.074868 -0.346082 0.230997 0.379912 0.265974 -0.512566 -0.000133 0.532529 -0.582382 0.340253 -0.785003 -0.321034 0.278732 -0.223374 -0.033880 0.556962 0.111198 -0.328589 -0.404851 0.547730 -0.190675 0.251705 0.260271 0.614839 0.237777 0.263742 -1.046751 0.024845 -0.512065 0.242398 -0.332084 -0.074355 -0.057971 0.075432 0.208946 -0.133363 0.785822 -1.141157 -0.482249 0.105717 0.484199 0.182005 -0.411407 0.393414 -0.182780 -0.628215 0.215577 0.007261 -0.248321 -0.126917 -0.701107 0.963783 0.003552 0.554129 -0.029796 -0.218022 -0.543172 -0.802051 -0.896050 -1.213203 0.857618 0.015052 0.378699 -0.018317 0.176821 0.020831 -0.556919 0.023920 -0.684156 
HCCDB-17.S18 0.396272 -0.300747 0.048162 0.059181 -0.010332 -0.847934 0.762335 0.535940 -0.143450 0.017195 -0.145661 0.485504 -0.110770 0.389472 -0.702297 -0.154067 0.320545 -0.903087 0.041300 -0.636397 -0.169742 0.571940 0.311594 0.800510 -0.025221 -0.196539 -0.108992 -0.171264 0.112994 0.225881 -0.476260 0.493809 0.851093 -0.672011 -0.574763 0.300952 -0.324494 -0.392761 0.050167 -0.561476 0.322182 0.146450 0.417064 -0.352136 0.093361 -0.048732 0.353165 0.715671 0.133139 0.013210 0.274083 0.160157 -0.195057 -0.131392 0.064002 -0.461206 0.354531 0.012255 -0.058860 0.091234 0.284244 -0.344120 -0.060635 0.072936 0.513350 -0.483624 0.380788 0.011365 -0.060182 -0.145542 -0.039614 0.494481 0.099107 0.040015 0.041154 0.409316 0.077253 -0.551159 0.785134 -0.515820 0.464318 0.221785 -0.294036 -0.564147 -0.296146 -0.405728 -0.416142 -0.123224 0.099312 0.205609 -0.509833 -0.657038 -0.112046 0.265619 0.575950 0.027335 -0.261622 0.120067 0.038325 -0.561301 0.442734 0.058034 0.039068 -0.161668 -0.036313 0.109047 -0.093657 0.792077 0.135716 -0.016976 0.271662 0.809509 0.293207 0.017799 -0.157392 0.198644 0.175771 -0.562597 0.354920 -0.646353 0.042806 0.287125 -0.034078 0.206344 -0.107143 0.066739 -0.217920 -0.421593 0.623092 -0.254339 -0.277323 0.053949 -0.250724 0.190602 0.431090 0.333153 -0.463375 -0.023655 0.596291 -0.557224 0.348992 -0.812446 -0.358902 0.228269 -0.396658 -0.011813 0.480606 0.046490 -0.408147 -0.362881 0.603818 -0.061777 0.290545 0.200808 0.690247 0.211434 0.293631 -0.876907 0.066809 -0.529851 0.187777 -0.308134 0.012388 -0.127550 -0.090047 0.297368 -0.142097 0.846486 -1.074891 -0.413676 -0.082921 0.579374 0.168890 -0.384319 0.382893 -0.266901 -0.575789 0.117813 -0.013390 -0.272707 -0.196497 -0.924346 1.079612 0.073850 0.556005 -0.042809 -0.235786 -0.519316 -0.685255 -0.885310 -1.266388 0.790413 0.035085 0.333812 0.013419 0.246493 0.017846 -0.553544 0.228046 -0.655563 
HCCDB-17.S19 0.514546 -0.371990 0.107309 -0.117608 0.021119 -0.556426 0.804991 0.606663 -0.147622 0.058419 -0.002020 0.330671 -0.088599 0.276373 -0.647202 -0.305494 0.268267 -0.824642 0.028063 -0.642229 -0.051926 0.556967 0.251448 0.792077 -0.145768 -0.277890 -0.186579 -0.236018 0.219946 0.204951 -0.323969 0.409988 0.931198 -0.534566 -0.610103 0.353636 -0.285692 -0.305557 0.061006 -0.524562 0.218571 0.124676 0.341422 -0.429271 -0.039862 -0.004215 0.296298 0.676139 0.151238 0.019446 0.216145 0.109965 -0.000446 -0.073238 -0.070230 -0.540231 0.352094 0.056934 -0.209945 0.137356 0.439091 -0.336288 0.022915 0.134034 0.551876 -0.399958 0.371410 0.039942 -0.134576 -0.021110 0.059313 0.318782 0.131459 0.140699 0.128985 0.266128 0.085540 -0.542766 0.679188 -0.501981 0.460312 0.251241 -0.105601 -0.601131 -0.437876 -0.280129 -0.208320 -0.274054 0.141474 0.168311 -0.473758 -0.737160 -0.210804 0.026006 0.691725 -0.011124 -0.319379 0.122592 -0.010126 -0.765690 0.322052 -0.073595 0.054548 -0.213382 -0.152482 0.091039 -0.186755 0.865637 0.004776 -0.110496 0.295375 0.727820 0.211529 0.048480 -0.077256 0.035476 0.009514 -0.477668 0.364920 -0.696449 -0.000610 0.245501 -0.124551 0.228210 -0.097113 0.162263 -0.131390 -0.407595 0.507529 -0.236118 -0.180187 0.138336 -0.425618 0.305566 0.531082 0.409572 -0.579526 -0.072654 0.534160 -0.607290 0.236044 -0.752289 -0.316740 0.314804 -0.140283 0.006320 0.542116 0.117252 -0.372926 -0.377208 0.540424 -0.139681 0.282370 0.258141 0.667727 0.056360 0.113006 -1.013377 0.117467 -0.510346 0.265702 -0.286542 -0.102514 -0.097486 0.063730 0.319227 -0.122286 0.840000 -1.158478 -0.423930 0.049393 0.492546 0.054253 -0.405655 0.484969 -0.263917 -0.587988 0.234031 0.036776 -0.298602 -0.163113 -0.771273 1.029205 0.048481 0.575591 0.001145 -0.347041 -0.602517 -0.828284 -0.954497 -1.226554 0.807757 0.004365 0.363026 0.025820 0.280555 -0.089044 -0.526772 0.012272 -0.674985 
HCCDB-17.S2 0.467834 -0.169269 0.068522 0.005532 0.012134 -0.735358 0.762861 0.639466 -0.032429 0.077052 -0.013793 0.257949 -0.050680 0.254481 -0.685284 -0.280923 0.242047 -0.977351 -0.003095 -0.630620 -0.086927 0.545803 0.242696 0.809164 -0.149761 -0.253567 -0.154425 -0.239832 0.151351 0.191915 -0.429416 0.366977 0.941432 -0.602142 -0.495234 0.341603 -0.330842 -0.434873 -0.039315 -0.450060 0.225303 0.156057 0.463924 -0.444038 -0.006861 -0.013352 0.299549 0.686933 0.115641 0.069737 0.167951 0.185479 -0.042420 -0.130354 0.123937 -0.543512 0.380110 0.085191 -0.178979 0.142124 0.304494 -0.353373 0.028525 0.043248 0.588959 -0.477375 0.360572 0.053150 -0.148760 -0.042469 -0.004018 0.478884 0.102335 0.128137 0.055351 0.236716 0.079116 -0.556621 0.718567 -0.541377 0.503641 0.277445 -0.224395 -0.513625 -0.364679 -0.406002 -0.283567 -0.276313 0.175135 0.201083 -0.466848 -0.761089 -0.214844 0.055622 0.648272 0.032588 -0.359592 0.095394 0.067734 -0.697835 0.415722 -0.044333 0.043554 -0.174786 -0.173038 0.139316 -0.066523 0.836481 0.040775 -0.040612 0.271040 0.655783 0.228192 0.090039 -0.034230 0.108594 0.047622 -0.528577 0.327502 -0.648055 0.004016 0.290345 -0.067972 0.131875 -0.156630 0.199744 -0.206221 -0.480429 0.633758 -0.304324 -0.169724 0.109225 -0.280842 0.111016 0.374526 0.398256 -0.430728 -0.073878 0.515869 -0.513677 0.336302 -0.660309 -0.349589 0.308773 -0.254364 0.013759 0.524470 0.111208 -0.399570 -0.377422 0.604618 -0.094387 0.306006 0.272126 0.658296 0.158015 0.141970 -1.001282 0.031533 -0.503227 0.164476 -0.252766 -0.105049 -0.084612 -0.027418 0.210406 -0.204865 0.847887 -1.149439 -0.510265 0.101551 0.489557 0.243255 -0.396359 0.398352 -0.144019 -0.530583 0.215296 -0.045517 -0.203216 -0.202586 -0.761676 0.969711 0.022532 0.564050 -0.174268 -0.252469 -0.551805 -0.761433 -0.891997 -1.184361 0.815035 0.004549 0.331490 0.048205 0.320224 -0.132365 -0.471545 0.076470 -0.663689 
HCCDB-17.S20 0.521533 -0.210157 0.022921 -0.129654 -0.045709 -0.811923 0.924967 0.594369 -0.115390 -0.039455 0.002110 0.380527 -0.119942 0.395376 -0.767349 -0.296360 0.238148 -0.860922 -0.013517 -0.685792 -0.101979 0.459780 0.417478 0.792160 -0.094072 -0.237776 -0.106281 -0.208996 0.049987 0.135409 -0.351761 0.414378 1.034345 -0.494394 -0.638148 0.241546 -0.277502 -0.435807 -0.064250 -0.590748 0.228950 -0.004142 0.371740 -0.495322 0.017377 -0.207155 0.375830 0.738690 0.182716 -0.013386 0.005783 0.144406 0.042963 -0.146084 0.038238 -0.451897 0.421502 0.054135 -0.197774 0.173388 0.368907 -0.240445 -0.082879 0.187525 0.515778 -0.427000 0.408988 0.008760 -0.073494 -0.073320 -0.039871 0.457073 0.212740 0.014481 -0.088418 0.351006 0.044189 -0.640545 0.653574 -0.502147 0.620065 0.159056 -0.207421 -0.534794 -0.428904 -0.466713 -0.206092 -0.202709 0.190946 0.251646 -0.358696 -0.657095 -0.262139 0.149025 0.603310 0.067321 -0.405852 0.096954 0.099444 -0.795609 0.446320 0.079214 0.069556 -0.185270 -0.065441 0.172992 0.000450 0.768485 0.011891 -0.174003 0.191269 0.879402 0.210901 0.187425 -0.138363 0.144482 0.117617 -0.566682 0.319394 -0.628351 0.000267 0.208067 -0.073326 0.191231 -0.120872 -0.044997 -0.389506 -0.469889 0.689019 -0.203107 -0.236358 -0.023654 -0.376547 0.189154 0.338877 0.268997 -0.485914 -0.092052 0.630395 -0.493540 0.373405 -0.778808 -0.295568 0.176845 -0.377672 -0.078509 0.579606 0.215481 -0.340122 -0.389345 0.570897 -0.166558 0.193984 0.208164 0.633125 0.124722 0.377382 -0.978131 -0.073771 -0.463334 0.138200 -0.321823 -0.087336 0.079886 -0.019248 0.023320 -0.133660 0.733931 -1.083354 -0.437821 0.015966 0.440791 0.359395 -0.349980 0.436919 -0.110615 -0.672465 0.202557 0.084766 -0.298846 -0.113519 -0.728755 0.917857 0.025424 0.582940 0.018203 -0.276061 -0.513119 -0.668551 -0.914494 -1.125875 0.782223 0.085273 0.262089 -0.046693 0.112362 -0.185270 -0.733116 0.070524 -0.665222 
HCCDB-17.S21 0.410935 -0.110721 0.095746 -0.080537 0.082030 -0.612049 0.813211 0.596127 -0.070610 -0.002276 -0.086063 0.359848 -0.119660 0.434463 -0.831647 -0.233828 0.267294 -0.936632 -0.063257 -0.664624 -0.091993 0.518119 0.259841 0.708260 -0.051040 -0.232589 -0.003188 -0.344147 0.051966 0.106478 -0.330817 0.323064 0.856333 -0.614650 -0.602199 0.345818 -0.247398 -0.422469 0.087959 -0.555251 0.164968 0.141061 0.346101 -0.331450 -0.086434 -0.123080 0.329219 0.769193 0.069811 0.170626 0.128273 0.212447 -0.090342 -0.056861 0.007506 -0.607704 0.414606 0.057983 -0.040096 0.128576 0.316220 -0.246107 -0.030177 0.190758 0.608075 -0.335917 0.441733 0.033156 -0.085587 0.163554 -0.029265 0.526818 0.185291 0.064192 0.023510 0.243418 0.059062 -0.674246 0.676641 -0.505093 0.433044 0.256959 -0.255638 -0.660327 -0.384036 -0.448935 -0.161300 -0.243701 0.191918 0.100516 -0.286145 -0.653903 -0.259465 0.060909 0.644051 0.036393 -0.388708 0.195361 0.054512 -0.776117 0.507960 -0.058082 0.052890 -0.308697 -0.111881 0.132378 -0.041540 0.761516 0.027821 -0.053614 0.164010 0.856766 0.170637 0.242799 -0.134361 0.224746 0.119624 -0.413775 0.461088 -0.603794 -0.125937 0.332404 -0.097264 0.254296 -0.076600 0.177556 -0.215169 -0.443450 0.668648 -0.263781 -0.243788 0.007962 -0.226501 0.081882 0.334658 0.317646 -0.565337 0.013094 0.570005 -0.498764 0.373901 -0.570089 -0.252651 0.327777 -0.225129 -0.069828 0.520058 0.107797 -0.338960 -0.396465 0.632581 -0.228210 0.306483 0.241883 0.676429 0.248745 0.304152 -0.998214 -0.009207 -0.481530 0.317504 -0.327421 -0.139276 0.008905 0.091838 0.293751 -0.111687 0.685274 -1.135832 -0.502442 0.043576 0.344330 0.352330 -0.257097 0.410373 -0.075801 -0.520698 0.238123 -0.022170 -0.325056 -0.195764 -0.709152 0.993944 -0.068597 0.569650 0.091566 -0.204441 -0.541916 -0.769786 -0.854794 -1.175542 0.889924 -0.004895 0.357498 -0.023894 0.183976 -0.017931 -0.637085 -0.026675 -0.734529 
HCCDB-17.S22 0.484901 -0.242898 0.129657 -0.062191 -0.036146 -0.631718 0.753893 0.611441 -0.164712 -0.000263 0.000368 0.348642 -0.150070 0.304590 -0.757547 -0.190885 0.254796 -0.883249 -0.022355 -0.671398 -0.076805 0.521661 0.362712 0.699888 -0.087874 -0.219994 -0.156628 -0.241729 0.157338 0.213513 -0.348383 0.405872 0.915104 -0.521699 -0.568230 0.319263 -0.230279 -0.457521 -0.026979 -0.606161 0.257201 0.132603 0.419985 -0.580044 -0.039307 -0.063185 0.282069 0.648105 0.081838 0.050137 0.162992 0.156733 -0.049953 -0.129551 0.034584 -0.545675 0.365831 0.104375 -0.192559 0.072730 0.436245 -0.271649 0.039507 0.161473 0.630718 -0.484077 0.415010 0.010987 -0.103996 0.014615 -0.051136 0.419977 0.135761 0.157254 0.102063 0.318430 0.095994 -0.647953 0.634885 -0.502514 0.432534 0.309539 -0.145176 -0.485302 -0.446187 -0.437149 -0.230709 -0.238887 0.045192 0.247949 -0.487729 -0.746275 -0.176351 0.045487 0.631079 0.059761 -0.347475 0.075787 0.127152 -0.705472 0.386664 -0.130854 0.070960 -0.159651 -0.129526 0.183164 -0.068216 0.904391 0.028353 -0.112568 0.268907 0.731696 0.218017 0.110808 -0.110038 0.123127 0.056267 -0.502705 0.273751 -0.628719 -0.012619 0.305565 -0.145994 0.158288 -0.088070 0.068454 -0.264670 -0.508487 0.558676 -0.328456 -0.206533 0.076931 -0.277633 0.205023 0.364661 0.262445 -0.559858 0.010914 0.525605 -0.519801 0.367469 -0.749435 -0.357251 0.260522 -0.311568 -0.093934 0.614230 0.197474 -0.369080 -0.500265 0.569141 -0.095536 0.276564 0.231043 0.676561 0.199193 0.219832 -1.000802 0.047834 -0.527887 0.248940 -0.333537 -0.057787 -0.098885 -0.005941 0.142344 -0.112895 0.841884 -1.127507 -0.477494 0.057120 0.443986 0.251477 -0.377410 0.338932 -0.102429 -0.588362 0.283204 -0.059290 -0.343827 -0.219034 -0.776553 0.939521 0.063617 0.607647 -0.039754 -0.219481 -0.603703 -0.772991 -0.853920 -1.134162 0.905940 0.125261 0.328396 -0.051264 0.217874 -0.085891 -0.490972 0.075138 -0.615744 
HCCDB-17.S23 0.489897 -0.191409 0.063519 -0.050468 -0.064566 -0.687280 0.813803 0.636564 -0.106037 -0.016127 -0.036970 0.387494 -0.112438 0.439060 -0.752985 -0.272521 0.235838 -0.906133 -0.038038 -0.663920 -0.098033 0.476159 0.345641 0.814884 -0.088116 -0.220009 -0.075219 -0.245361 0.087820 0.074670 -0.321501 0.372917 1.006000 -0.479022 -0.538126 0.360994 -0.266168 -0.388209 -0.057101 -0.640385 0.178574 0.070466 0.347798 -0.427369 -0.054611 -0.052287 0.401928 0.781342 0.074603 0.035326 0.116355 0.158559 -0.044027 -0.116608 0.022778 -0.415362 0.449238 0.048047 -0.213931 0.149611 0.354416 -0.269534 -0.033248 0.108226 0.607729 -0.488831 0.347990 0.024277 -0.105000 -0.011201 0.020205 0.410430 0.206584 0.117847 -0.045545 0.307971 -0.013147 -0.671133 0.706300 -0.481208 0.456704 0.235802 -0.254832 -0.558877 -0.457197 -0.356667 -0.111938 -0.270513 0.154902 0.201019 -0.374984 -0.676634 -0.236934 0.020410 0.675149 0.069571 -0.560409 0.069476 0.011254 -0.817793 0.406107 -0.021767 0.165033 -0.234035 -0.078946 0.103967 -0.088104 0.765538 -0.076940 -0.121339 0.198361 0.733313 0.169833 0.173821 -0.047757 0.140109 0.130329 -0.534160 0.370576 -0.550977 -0.067851 0.249389 -0.129908 0.259086 -0.068027 0.091850 -0.224716 -0.467313 0.563961 -0.206899 -0.152187 0.055342 -0.249874 0.134413 0.353056 0.328015 -0.532751 -0.046372 0.542442 -0.508667 0.297762 -0.734609 -0.206718 0.206572 -0.249643 0.050515 0.556439 0.258406 -0.383250 -0.368465 0.614415 -0.224753 0.280662 0.283361 0.512596 0.197711 0.245825 -0.980232 0.060289 -0.505827 0.152355 -0.284682 -0.132204 -0.015170 -0.043376 0.174347 -0.096691 0.674435 -1.132710 -0.553368 0.053510 0.382084 0.208500 -0.419180 0.381046 -0.140171 -0.717252 0.173122 0.019056 -0.175853 -0.083065 -0.724940 1.029282 0.003700 0.637871 0.003406 -0.275057 -0.511907 -0.672697 -0.918828 -1.317004 0.870270 -0.025044 0.328985 -0.032656 0.129163 -0.079989 -0.628827 0.106622 -0.718231 
HCCDB-17.S24 0.415843 -0.327065 0.177427 -0.015769 -0.035899 -0.629488 0.758743 0.684938 -0.064492 0.097965 -0.091313 0.293465 -0.164199 0.302357 -0.781196 -0.223911 0.221784 -0.914212 -0.100407 -0.607557 -0.168166 0.485808 0.274002 0.795924 -0.135778 -0.182101 -0.127805 -0.297572 0.170240 0.260073 -0.337319 0.357679 0.977916 -0.512100 -0.542552 0.394969 -0.213549 -0.361751 0.075506 -0.509612 0.104240 0.196894 0.357709 -0.388835 -0.094150 0.087047 0.323810 0.723578 0.075422 0.092244 0.163757 0.256511 -0.057298 -0.000754 0.148205 -0.507810 0.360880 0.121286 -0.249401 0.249135 0.320580 -0.331489 0.028515 0.147228 0.553502 -0.438937 0.362641 0.038521 -0.116508 0.137908 0.104278 0.437150 0.012060 0.127780 0.026667 0.249774 0.037836 -0.606420 0.600901 -0.459942 0.393029 0.263888 -0.108840 -0.473454 -0.409593 -0.344763 -0.169763 -0.184961 0.153569 0.109414 -0.389362 -0.662431 -0.314925 -0.083882 0.763339 -0.035513 -0.360754 0.050143 0.001095 -0.779584 0.371650 -0.122869 0.117570 -0.209941 -0.084201 0.171471 -0.141298 0.753951 0.075457 -0.079996 0.296363 0.824092 0.113655 0.094956 0.083428 -0.022068 0.048271 -0.505420 0.417880 -0.514648 -0.022288 0.249404 -0.176574 0.165743 -0.183937 0.164647 -0.116100 -0.414056 0.663761 -0.239991 -0.138596 0.194753 -0.214809 0.169049 0.348126 0.459968 -0.533901 -0.031157 0.468543 -0.509684 0.370257 -0.540660 -0.166760 0.308628 -0.179903 0.020770 0.599829 0.119717 -0.348867 -0.445544 0.511179 -0.092513 0.311354 0.403393 0.582509 0.299107 0.230353 -1.055547 0.018039 -0.535889 0.268384 -0.216690 -0.140998 -0.152826 -0.026980 0.352671 -0.087888 0.781378 -1.147907 -0.481922 0.043340 0.315870 0.192989 -0.397862 0.415750 -0.097890 -0.691799 0.222071 0.004691 -0.246265 -0.122879 -0.714412 1.056576 0.117894 0.614875 -0.050952 -0.292213 -0.576601 -0.803860 -0.973965 -1.269265 0.902688 -0.017171 0.446508 -0.024994 0.219581 -0.027123 -0.600218 0.162876 -0.723639 
HCCDB-17.S25 0.461041 -0.252668 0.129516 0.058910 -0.026167 -0.658734 0.824592 0.678365 -0.086750 0.047555 -0.032218 0.354341 -0.117516 0.246382 -0.815784 -0.238064 0.276558 -0.950993 -0.015248 -0.599932 -0.177081 0.563217 0.220148 0.786091 -0.078358 -0.252017 -0.081470 -0.195724 0.109799 0.297986 -0.395673 0.329392 0.925186 -0.590257 -0.541178 0.410736 -0.230536 -0.463358 0.085240 -0.457229 0.095943 0.285330 0.383210 -0.325532 -0.100295 -0.098101 0.291502 0.729042 0.116043 0.100884 0.252191 0.155209 -0.150019 0.000043 0.063198 -0.441917 0.362841 0.070691 -0.316707 0.244338 0.308098 -0.310204 -0.023453 0.151363 0.628559 -0.498293 0.405009 0.146779 -0.074313 0.063577 -0.022930 0.454169 -0.060224 0.067546 0.040634 0.304461 0.009683 -0.670720 0.625097 -0.463116 0.339150 0.366878 -0.147672 -0.493922 -0.401134 -0.378554 -0.261320 -0.176105 0.207962 0.120034 -0.398927 -0.639859 -0.224466 -0.000422 0.797298 -0.067000 -0.385827 0.146051 -0.003946 -0.830226 0.356932 -0.157368 0.124056 -0.093897 -0.028989 0.057975 -0.084729 0.825678 -0.014277 -0.075922 0.293916 0.895600 0.226880 0.082190 0.057553 0.073431 0.057476 -0.482123 0.375220 -0.514975 -0.009556 0.282123 -0.095244 0.216036 -0.115669 0.164522 -0.124061 -0.320875 0.739879 -0.327985 -0.202970 0.189575 -0.138143 0.182241 0.393384 0.386181 -0.550012 0.045285 0.487873 -0.498694 0.460394 -0.533460 -0.196035 0.268396 -0.243365 0.015819 0.544992 0.033435 -0.294136 -0.481211 0.524566 -0.033951 0.262247 0.294326 0.598873 0.310189 0.275600 -0.941620 0.069947 -0.524160 0.220901 -0.208876 -0.145970 -0.094086 -0.018827 0.284941 -0.107651 0.714110 -1.093572 -0.497547 0.046126 0.355450 0.218124 -0.382578 0.355776 -0.031295 -0.651544 0.265979 0.034293 -0.238665 -0.145837 -0.778593 1.000283 0.144724 0.517734 -0.023787 -0.267922 -0.491833 -0.830397 -0.969851 -1.238715 0.871173 -0.057852 0.426270 -0.029299 0.212797 -0.176190 -0.545353 0.113333 -0.732594 
HCCDB-17.S26 0.424247 -0.203183 0.114352 -0.011695 -0.083571 -0.628260 0.780551 0.641941 -0.126515 -0.010976 -0.052383 0.368988 -0.120982 0.382088 -0.817863 -0.238530 0.295127 -0.971058 -0.011981 -0.602789 -0.170606 0.508273 0.260412 0.728336 -0.007431 -0.225113 -0.059059 -0.235390 0.081726 0.270526 -0.336166 0.358406 0.974012 -0.569688 -0.540191 0.367843 -0.202656 -0.440032 0.114517 -0.519055 0.115374 0.280774 0.353352 -0.446294 -0.032267 -0.099617 0.327103 0.677836 0.041669 0.140159 0.105568 0.217955 -0.169157 -0.015647 0.072384 -0.412900 0.302230 0.118675 -0.279320 0.208057 0.347968 -0.328578 -0.079737 0.157742 0.489610 -0.481537 0.421245 0.088759 -0.101787 -0.028680 0.053941 0.418919 -0.022096 0.076184 -0.047956 0.284842 0.061007 -0.740566 0.697967 -0.455588 0.371255 0.298361 -0.157908 -0.485082 -0.380099 -0.322752 -0.254160 -0.198419 0.223737 0.080015 -0.344099 -0.659032 -0.240004 -0.029244 0.761290 0.007983 -0.419476 0.109772 0.056626 -0.845446 0.412764 -0.088287 0.211819 -0.074079 -0.094161 0.126870 -0.142246 0.880364 0.028149 -0.117687 0.297377 0.904766 0.213828 0.130369 0.021256 0.033438 0.113997 -0.432589 0.438762 -0.507668 -0.032663 0.259909 -0.065531 0.169230 -0.229529 0.115706 -0.128414 -0.405671 0.747615 -0.252960 -0.260751 0.133434 -0.149487 0.196551 0.383326 0.292162 -0.563639 0.021042 0.430167 -0.351290 0.446189 -0.557658 -0.188324 0.321640 -0.291821 -0.050746 0.570935 0.083833 -0.240041 -0.421660 0.546306 -0.083910 0.246538 0.256681 0.617802 0.313085 0.330017 -0.972915 0.008929 -0.489204 0.212243 -0.222447 -0.134520 -0.122392 -0.018194 0.279873 -0.220753 0.717676 -1.166305 -0.475016 0.024351 0.415399 0.241159 -0.346011 0.360773 -0.019902 -0.671900 0.209919 0.002351 -0.291701 -0.115376 -0.709274 1.028597 0.146863 0.567615 -0.059848 -0.229479 -0.522167 -0.761194 -0.956574 -1.214315 0.948616 -0.022403 0.429506 -0.042434 0.189605 -0.162807 -0.564157 0.156942 -0.689247 
HCCDB-17.S27 0.419667 -0.241935 0.068353 0.056769 0.050891 -0.694923 0.756071 0.741233 -0.144803 0.027714 0.015184 0.288852 -0.066889 0.331494 -0.789134 -0.190634 0.328835 -1.026025 -0.060169 -0.532414 -0.123261 0.402330 0.310105 0.816527 -0.099642 -0.155907 -0.140768 -0.188725 0.116621 0.241429 -0.361596 0.336098 0.860045 -0.621978 -0.590445 0.425969 -0.243917 -0.390083 0.068481 -0.506546 0.228110 0.207476 0.374107 -0.433648 -0.121095 -0.098741 0.348873 0.740218 0.067860 0.149257 0.243796 0.166647 -0.080451 -0.030558 0.148995 -0.468740 0.370380 0.109045 -0.190558 0.118622 0.292577 -0.269374 -0.006581 0.154669 0.544579 -0.516627 0.379904 0.022289 -0.069727 0.072144 0.077500 0.500082 0.051046 0.175654 -0.074466 0.298536 0.023884 -0.676153 0.660928 -0.493940 0.357573 0.251483 -0.143348 -0.472734 -0.335823 -0.333019 -0.207911 -0.117814 0.183917 0.104322 -0.288467 -0.665949 -0.249583 0.062246 0.767505 0.034223 -0.423933 0.012234 -0.027113 -0.799207 0.418146 -0.090080 0.122153 -0.148460 -0.003436 0.102113 -0.092908 0.764557 0.000987 -0.148869 0.232896 0.902046 0.239598 0.147918 -0.018880 0.053994 0.110638 -0.443449 0.460765 -0.609942 -0.100809 0.256204 -0.168496 0.268903 -0.118499 0.146035 -0.151384 -0.460012 0.721976 -0.247835 -0.240027 0.044502 -0.114921 0.132056 0.357889 0.295544 -0.507765 -0.035467 0.505682 -0.487502 0.313857 -0.564915 -0.225709 0.281211 -0.227111 -0.025716 0.594063 0.150674 -0.338602 -0.472690 0.463059 -0.047121 0.259361 0.417015 0.519298 0.367771 0.325350 -1.023867 -0.022932 -0.526357 0.234949 -0.214932 -0.097554 -0.119433 0.022104 0.265885 -0.200151 0.707620 -1.175563 -0.493465 0.038437 0.374952 0.296872 -0.299622 0.393745 -0.012965 -0.677911 0.247543 0.053085 -0.288221 -0.156194 -0.721630 0.992432 0.090114 0.598742 0.015966 -0.286981 -0.544613 -0.781415 -0.961180 -1.192155 0.963367 -0.029432 0.361802 -0.021902 0.185406 -0.060493 -0.616671 0.125809 -0.728505 
HCCDB-17.S28 0.424638 -0.297954 0.127066 0.022380 -0.073794 -0.695398 0.715498 0.690702 -0.040569 0.045392 -0.058474 0.323713 -0.120316 0.359150 -0.769730 -0.190790 0.232077 -0.944623 0.043569 -0.601310 -0.139225 0.512522 0.199185 0.819369 -0.025260 -0.249342 -0.135497 -0.225518 0.078418 0.242155 -0.318782 0.354827 0.937537 -0.620650 -0.566347 0.393011 -0.239352 -0.345823 0.045618 -0.593985 0.091275 0.265816 0.374043 -0.393952 -0.060100 0.062345 0.298339 0.721908 0.027516 0.072855 0.162166 0.187810 -0.134215 -0.000207 0.103800 -0.475816 0.369281 0.087070 -0.217326 0.207561 0.343022 -0.314991 -0.050680 0.122941 0.577479 -0.428193 0.325164 0.098950 -0.094130 0.033704 0.080167 0.396706 0.009731 0.102155 0.007557 0.261189 0.031003 -0.747593 0.637368 -0.469519 0.358967 0.297453 -0.089847 -0.621313 -0.379900 -0.356268 -0.191370 -0.180740 0.229981 0.107829 -0.380241 -0.669460 -0.260358 -0.013871 0.761088 -0.042169 -0.353552 0.066902 -0.007049 -0.783833 0.399334 -0.078594 0.066250 -0.180882 -0.037192 0.131448 -0.029117 0.759167 0.015365 -0.058378 0.313907 0.752129 0.218381 0.090215 -0.002791 0.045313 0.055749 -0.456052 0.417174 -0.556062 -0.107248 0.285666 -0.083916 0.205345 -0.168901 0.237246 -0.086350 -0.419697 0.718862 -0.282521 -0.175535 0.144754 -0.151927 0.159836 0.396901 0.441389 -0.480923 -0.043365 0.460415 -0.534105 0.408121 -0.502723 -0.201730 0.275078 -0.244800 0.016081 0.541791 0.094690 -0.319163 -0.459222 0.536856 -0.130052 0.341728 0.283426 0.581561 0.249935 0.260169 -1.011237 0.037214 -0.418097 0.202280 -0.155898 -0.145976 -0.118200 -0.046319 0.282631 -0.160331 0.756223 -1.162109 -0.461866 0.118712 0.394657 0.124955 -0.366924 0.377180 -0.117566 -0.626882 0.292383 0.021781 -0.255291 -0.094348 -0.694710 0.983065 0.099541 0.553444 -0.048625 -0.405673 -0.536686 -0.783279 -1.003927 -1.207168 0.937831 -0.109527 0.414216 -0.008094 0.155404 -0.192062 -0.490791 0.173415 -0.762033 
HCCDB-17.S29 0.388263 -0.235172 0.105534 0.009119 -0.062683 -0.602413 0.728672 0.678612 -0.121182 -0.004718 0.032647 0.366925 -0.152957 0.238078 -0.803623 -0.197141 0.227217 -0.937259 -0.006503 -0.639192 -0.121064 0.527640 0.229209 0.733823 -0.047806 -0.256020 0.027911 -0.236062 0.100715 0.215583 -0.380104 0.415780 0.844636 -0.685061 -0.561765 0.406583 -0.161293 -0.438176 0.107336 -0.498603 0.123152 0.285424 0.414994 -0.467563 -0.104590 0.003638 0.248872 0.692439 0.063382 0.097875 0.178439 0.147082 -0.040962 0.089365 0.180283 -0.497506 0.346733 0.106382 -0.280651 0.153368 0.336380 -0.220403 -0.023226 0.148927 0.619120 -0.477432 0.419769 0.031480 -0.076541 0.117784 0.100333 0.525335 -0.055660 0.139507 0.073843 0.291136 0.049729 -0.634254 0.676122 -0.555416 0.312243 0.227938 -0.195611 -0.559935 -0.401139 -0.336409 -0.205654 -0.171169 0.142151 0.120378 -0.303301 -0.632103 -0.260918 -0.040923 0.734037 0.010894 -0.440854 0.188922 0.007701 -0.883442 0.397951 -0.133669 0.194932 -0.219025 -0.086192 0.093676 -0.115580 0.815163 0.085565 -0.116099 0.253137 0.869598 0.240596 0.126519 -0.047235 -0.000819 0.112549 -0.378891 0.376930 -0.562772 -0.034632 0.222933 -0.106323 0.225103 -0.085443 0.185634 -0.086576 -0.457529 0.717919 -0.290222 -0.205222 0.095533 -0.190013 0.137190 0.334877 0.348471 -0.525121 -0.018122 0.424911 -0.447955 0.409523 -0.620858 -0.310579 0.300430 -0.263972 -0.031251 0.571644 0.135133 -0.293508 -0.489360 0.502858 -0.130101 0.308744 0.289523 0.565330 0.298114 0.230653 -1.017531 0.030491 -0.448282 0.298811 -0.246049 -0.132882 -0.091209 0.031745 0.311210 -0.120370 0.694107 -1.129510 -0.484609 0.089355 0.438901 0.192786 -0.328986 0.415002 -0.012022 -0.619805 0.234754 0.005262 -0.334134 -0.123858 -0.674196 0.991208 0.047377 0.527537 -0.055590 -0.242817 -0.569756 -0.784248 -0.947014 -1.195330 0.948746 -0.033633 0.427514 0.039601 0.120065 -0.100686 -0.608210 -0.005279 -0.699564 
HCCDB-17.S3 0.447520 -0.281717 0.031199 -0.089352 0.001703 -0.720233 0.868467 0.623841 -0.044091 0.004277 0.024806 0.265050 -0.054369 0.298341 -0.771939 -0.224845 0.241214 -0.943662 -0.009678 -0.660324 -0.080541 0.545402 0.318851 0.818487 -0.151032 -0.199957 -0.071135 -0.221366 0.145079 0.144472 -0.405851 0.369346 1.073930 -0.516020 -0.619669 0.398446 -0.265551 -0.430355 0.031835 -0.484134 0.215453 0.118850 0.401564 -0.533706 -0.005311 -0.074712 0.298340 0.696849 0.124443 0.050293 0.100183 0.171647 0.034263 -0.083734 -0.047154 -0.509251 0.373844 0.069845 -0.265205 0.166016 0.372388 -0.364249 -0.016065 0.126949 0.534071 -0.445290 0.422868 0.058772 -0.097288 0.026223 -0.011841 0.402311 0.143723 0.073870 0.037519 0.294998 0.066631 -0.653301 0.628712 -0.480902 0.547283 0.191680 -0.194480 -0.541996 -0.372872 -0.407470 -0.156386 -0.224849 0.164592 0.226434 -0.407208 -0.603538 -0.287260 0.040069 0.655775 0.053078 -0.432945 0.156561 0.028859 -0.809861 0.399888 -0.050074 0.067568 -0.186584 -0.124148 0.151392 -0.042980 0.783661 -0.004398 -0.114764 0.264422 0.782111 0.136147 0.149449 -0.044074 0.080260 0.076442 -0.531929 0.401331 -0.591792 -0.038238 0.238977 -0.052401 0.119110 -0.083437 0.138168 -0.352872 -0.486867 0.630409 -0.316101 -0.216527 0.042540 -0.382765 0.214923 0.333453 0.307328 -0.478758 -0.024397 0.526832 -0.473147 0.371807 -0.676287 -0.251711 0.211799 -0.281798 -0.081020 0.574341 0.195475 -0.319366 -0.438925 0.503469 -0.116877 0.264994 0.317871 0.598326 0.161538 0.296747 -0.984281 0.017531 -0.468389 0.196675 -0.293440 -0.135136 0.001016 -0.040408 0.133959 -0.148972 0.804319 -1.104511 -0.445806 0.048187 0.438199 0.309804 -0.319717 0.401942 -0.135346 -0.634059 0.147487 0.009643 -0.321116 -0.088964 -0.656552 0.925595 0.048844 0.535756 -0.080056 -0.368115 -0.552867 -0.721298 -0.866267 -1.153535 0.855127 0.042267 0.306193 0.012610 0.264670 -0.156328 -0.648726 0.022616 -0.676990 
HCCDB-17.S30 0.336447 -0.229325 0.117232 0.069306 0.025686 -0.664189 0.683389 0.679031 -0.071692 0.012828 -0.025848 0.266998 -0.116829 0.308696 -0.828773 -0.201299 0.233366 -0.991232 0.016536 -0.574424 -0.165460 0.497603 0.193529 0.766676 -0.066298 -0.201730 -0.019149 -0.242104 0.104389 0.302484 -0.434433 0.378053 0.920815 -0.676846 -0.588365 0.437152 -0.180104 -0.400553 0.101521 -0.485596 0.159608 0.265244 0.335418 -0.479027 -0.061364 0.000186 0.304851 0.683382 0.047915 0.135536 0.264057 0.219480 -0.089334 0.036047 0.133655 -0.459186 0.352482 0.100743 -0.258442 0.226824 0.325194 -0.385175 -0.028621 0.128449 0.539178 -0.477437 0.446681 0.090746 -0.118993 0.067614 0.089189 0.474511 -0.045521 0.162854 0.019045 0.322126 0.019620 -0.625973 0.692230 -0.475906 0.368534 0.265746 -0.180096 -0.538319 -0.379689 -0.342537 -0.201532 -0.142087 0.214525 0.061688 -0.327188 -0.659811 -0.250805 -0.020134 0.747110 -0.025960 -0.340928 0.117723 0.036419 -0.782848 0.465668 -0.115361 0.176642 -0.119479 -0.127963 0.051442 -0.035060 0.806470 0.099045 -0.092394 0.303019 0.761996 0.195394 0.091279 0.038976 0.037236 0.008153 -0.412852 0.405552 -0.540406 -0.012579 0.276512 -0.114144 0.222561 -0.133662 0.156130 -0.135088 -0.446260 0.713909 -0.304729 -0.192635 0.098745 -0.205051 0.165560 0.404206 0.309984 -0.561553 -0.005844 0.471661 -0.482132 0.435404 -0.512111 -0.202463 0.227100 -0.204107 -0.041053 0.574122 0.069404 -0.306037 -0.469672 0.562856 -0.073565 0.309344 0.318725 0.583296 0.289418 0.298674 -1.017188 0.045966 -0.527346 0.268429 -0.168462 -0.120608 -0.082744 -0.007964 0.363565 -0.122450 0.722716 -1.120099 -0.478077 0.036515 0.386523 0.278549 -0.285105 0.397796 -0.077509 -0.667435 0.253436 -0.048828 -0.339239 -0.131254 -0.710312 1.015922 0.109018 0.562004 -0.072597 -0.285222 -0.537180 -0.769968 -0.903920 -1.261576 0.862078 -0.073792 0.460167 -0.012788 0.269256 -0.127970 -0.563420 0.093818 -0.758394 
HCCDB-17.S31 0.388659 -0.309152 0.119817 0.031234 0.012307 -0.701002 0.678230 0.746999 -0.115720 0.082407 0.005508 0.245125 -0.108133 0.328303 -0.772783 -0.222107 0.195291 -0.952216 -0.050074 -0.532946 -0.089623 0.526275 0.237606 0.830043 -0.039006 -0.283515 -0.103594 -0.234199 0.174499 0.311261 -0.374016 0.321435 0.949696 -0.578145 -0.503061 0.327935 -0.160218 -0.314443 0.070287 -0.535459 0.129936 0.272901 0.434369 -0.439046 -0.036374 0.052429 0.293417 0.704947 0.019312 0.094416 0.244970 0.239353 -0.135563 -0.043510 0.165071 -0.489510 0.334389 0.074544 -0.232945 0.162861 0.364499 -0.306831 -0.006451 0.103637 0.502372 -0.507059 0.419156 0.056272 -0.077360 0.007017 0.148560 0.428517 -0.124796 0.122429 0.030713 0.254657 0.003430 -0.613194 0.644455 -0.472460 0.295150 0.333959 -0.162612 -0.573609 -0.334974 -0.345531 -0.211624 -0.148616 0.191431 0.071414 -0.377860 -0.646374 -0.255058 -0.010012 0.656522 -0.021149 -0.373165 0.130535 0.011154 -0.779039 0.449485 -0.100580 0.112524 -0.167932 -0.080254 0.140378 -0.062981 0.774834 -0.054359 -0.109791 0.263213 0.832141 0.239601 0.033912 0.004838 0.057408 0.057179 -0.393074 0.401187 -0.568165 -0.056315 0.346500 -0.091259 0.246451 -0.142800 0.214978 -0.126754 -0.401354 0.775686 -0.266040 -0.177895 0.178242 -0.139487 0.218052 0.312301 0.337202 -0.541376 -0.057383 0.495098 -0.500132 0.321084 -0.581200 -0.245594 0.273804 -0.176585 -0.063467 0.572254 0.053174 -0.413111 -0.465880 0.530422 -0.029756 0.370221 0.291671 0.585650 0.306248 0.265038 -1.016917 -0.049429 -0.499983 0.186083 -0.188624 -0.156141 -0.124501 -0.058311 0.261199 -0.171608 0.797925 -1.142590 -0.483172 0.043557 0.403484 0.210422 -0.376199 0.307829 0.010276 -0.682082 0.282115 -0.039933 -0.402599 -0.140079 -0.762399 1.009296 0.145302 0.519788 -0.119036 -0.246545 -0.536393 -0.808137 -1.015604 -1.226287 0.949172 -0.025823 0.412879 -0.003295 0.185272 -0.108331 -0.547734 0.138936 -0.839145 
HCCDB-17.S32 0.402205 -0.298613 0.203524 0.039859 -0.074967 -0.758073 0.701375 0.732564 -0.047252 0.081246 -0.029296 0.368814 -0.095376 0.277867 -0.778376 -0.238059 0.282190 -1.006081 0.021906 -0.624595 -0.216852 0.534738 0.238433 0.776419 -0.062338 -0.181893 -0.108817 -0.290596 0.183593 0.268267 -0.284111 0.417012 0.971847 -0.639287 -0.617744 0.391579 -0.244878 -0.348108 0.054157 -0.594455 0.111313 0.273739 0.367333 -0.408565 -0.043693 0.051709 0.361699 0.663827 0.040004 0.087897 0.230494 0.245441 -0.068620 0.009448 0.100582 -0.489310 0.409880 0.141721 -0.270183 0.263415 0.348003 -0.271627 -0.096952 0.113837 0.584305 -0.430720 0.405255 0.064094 -0.080750 0.032754 0.096806 0.394380 0.043493 0.119676 -0.052781 0.344744 -0.006817 -0.583794 0.681862 -0.419803 0.356078 0.274395 -0.136167 -0.510995 -0.418707 -0.356763 -0.223168 -0.116902 0.222909 0.124591 -0.308946 -0.670651 -0.317762 0.049518 0.823083 -0.091243 -0.349572 0.128176 0.039260 -0.764888 0.421836 -0.180759 0.064372 -0.178242 -0.043031 0.137213 -0.142442 0.752348 -0.010344 -0.035353 0.242949 0.728603 0.235062 0.088196 -0.058928 0.051078 0.025101 -0.450604 0.454075 -0.508901 -0.071377 0.256411 -0.101202 0.294729 -0.168544 0.200214 -0.144236 -0.391196 0.637441 -0.264977 -0.246063 0.098713 -0.226748 0.153947 0.386090 0.363261 -0.449457 -0.033130 0.514064 -0.468174 0.392247 -0.568258 -0.149948 0.320742 -0.137711 -0.011573 0.547507 0.109485 -0.271299 -0.422816 0.405578 -0.074871 0.312487 0.288749 0.569959 0.253911 0.271423 -1.009756 -0.026496 -0.497200 0.287856 -0.190163 -0.143477 -0.145092 -0.019461 0.325615 -0.112948 0.769885 -1.116776 -0.467072 0.113931 0.428703 0.199272 -0.309105 0.386029 -0.071949 -0.637612 0.273073 -0.024017 -0.319800 -0.110265 -0.742521 1.017352 0.122960 0.606679 -0.023036 -0.338818 -0.513637 -0.740171 -0.949663 -1.171221 0.934486 -0.063819 0.450559 0.010471 0.170000 -0.167577 -0.541395 0.109879 -0.760968 
HCCDB-17.S33 0.393331 -0.197089 0.127172 -0.025249 -0.041004 -0.664670 0.695202 0.655688 -0.072308 0.057792 -0.041983 0.319594 -0.127856 0.288538 -0.746641 -0.261170 0.233795 -1.014989 -0.022913 -0.613779 -0.152892 0.466004 0.121812 0.801237 -0.092685 -0.180156 -0.090379 -0.215849 0.085379 0.247242 -0.343992 0.354384 0.919527 -0.638171 -0.520389 0.372020 -0.244105 -0.376747 0.019142 -0.535108 0.151899 0.247130 0.354452 -0.421533 -0.096076 0.059487 0.282766 0.731999 0.031334 0.175496 0.200978 0.256088 -0.022670 -0.000901 0.128206 -0.493688 0.418370 0.066174 -0.244112 0.252834 0.373137 -0.299016 0.010651 0.128602 0.580474 -0.465075 0.313400 0.066959 -0.118818 0.057724 0.085396 0.483120 0.045198 0.141331 -0.015111 0.268002 0.031970 -0.724924 0.689780 -0.504297 0.378169 0.285644 -0.164149 -0.512126 -0.403019 -0.349638 -0.165346 -0.153330 0.219426 0.057421 -0.329277 -0.644356 -0.293765 -0.018062 0.758611 -0.030185 -0.379836 0.123820 0.012343 -0.793619 0.439326 -0.161509 0.102686 -0.197075 -0.104454 0.123350 -0.097788 0.779715 -0.006254 -0.143169 0.279078 0.727008 0.155867 0.127651 -0.032057 0.055855 0.087550 -0.410015 0.394644 -0.548098 -0.085938 0.171669 -0.099232 0.213684 -0.185905 0.198014 -0.119405 -0.434547 0.728907 -0.268886 -0.177041 0.128881 -0.145306 0.211758 0.395474 0.356866 -0.542155 -0.059566 0.503613 -0.480211 0.330422 -0.577239 -0.210477 0.288365 -0.272826 -0.008877 0.596477 0.104267 -0.327072 -0.428720 0.480480 -0.076861 0.265084 0.303407 0.597372 0.322356 0.284222 -1.070939 0.010009 -0.546829 0.253171 -0.181243 -0.163717 -0.076984 0.012442 0.311078 -0.064906 0.716736 -1.209026 -0.507455 0.078701 0.391271 0.232709 -0.348762 0.388240 -0.124052 -0.641175 0.283320 -0.015508 -0.335655 -0.102054 -0.697305 1.019386 0.072861 0.535981 -0.079527 -0.322456 -0.565303 -0.800049 -0.999973 -1.248993 0.923596 -0.075952 0.442309 0.019798 0.234815 -0.104269 -0.519545 0.122791 -0.733960 
HCCDB-17.S34 0.410359 -0.242755 0.122017 -0.025662 0.048760 -0.606018 0.772981 0.715913 -0.063789 0.054045 -0.026721 0.252050 -0.171654 0.319945 -0.751065 -0.178516 0.254961 -0.992716 -0.026308 -0.620401 -0.122003 0.503747 0.219548 0.738630 -0.089149 -0.261760 -0.157843 -0.224346 0.106807 0.215197 -0.343225 0.326330 0.849772 -0.656073 -0.572741 0.365765 -0.224706 -0.412525 0.121755 -0.394690 0.014261 0.209966 0.349373 -0.458846 -0.142358 0.010315 0.246355 0.730795 0.042228 0.078867 0.195530 0.165169 -0.072450 0.020351 0.082093 -0.535738 0.425139 0.120320 -0.234977 0.192864 0.368610 -0.345002 0.012180 0.076678 0.532674 -0.397371 0.357849 0.127426 -0.056735 0.142399 0.084192 0.461134 0.029939 0.151191 0.061944 0.178139 0.035019 -0.676020 0.674235 -0.490597 0.373220 0.279335 -0.200259 -0.525330 -0.426138 -0.362532 -0.196188 -0.228991 0.190272 0.072210 -0.251856 -0.643346 -0.260853 -0.067578 0.789149 -0.036321 -0.403938 0.205031 -0.022203 -0.895359 0.386916 -0.221173 0.133521 -0.153799 -0.103011 0.104182 -0.089418 0.821660 0.071868 -0.088188 0.311145 0.804556 0.166474 0.169257 0.027572 0.004534 0.064007 -0.438520 0.376927 -0.610531 0.010088 0.283703 -0.133344 0.203731 -0.094131 0.235537 -0.136937 -0.489944 0.642552 -0.292023 -0.201959 0.124277 -0.229218 0.129504 0.333752 0.359910 -0.537492 -0.055593 0.467152 -0.473695 0.294418 -0.594011 -0.135208 0.328184 -0.226466 -0.034122 0.581642 0.086067 -0.318876 -0.452001 0.454960 -0.103813 0.133955 0.290035 0.611181 0.305209 0.235179 -1.068537 -0.001781 -0.522231 0.216810 -0.301067 -0.149897 -0.144866 -0.045149 0.328875 -0.188535 0.764341 -1.162240 -0.549320 0.067352 0.392375 0.279538 -0.343680 0.324901 -0.061507 -0.593512 0.264923 -0.010954 -0.314482 -0.147187 -0.746847 0.997909 0.104005 0.544251 -0.063949 -0.270385 -0.539125 -0.818268 -1.035413 -1.127119 0.959993 -0.091337 0.448878 0.066105 0.232374 -0.079254 -0.478893 0.039659 -0.739018 
HCCDB-17.S35 0.436124 -0.348929 0.194547 -0.026805 0.004586 -0.628422 0.741354 0.703789 -0.095074 0.153879 0.010122 0.237396 -0.195199 0.289837 -0.766524 -0.184985 0.206395 -0.930096 -0.054218 -0.602380 -0.152349 0.626661 0.209976 0.825675 -0.116355 -0.238897 -0.019982 -0.276384 0.165248 0.216244 -0.339195 0.418433 0.907158 -0.605768 -0.562264 0.399822 -0.244084 -0.342553 0.106605 -0.467840 0.127832 0.186962 0.389378 -0.452261 -0.080794 0.147093 0.283027 0.676703 0.035236 0.113118 0.284600 0.199437 -0.007696 0.039662 0.100671 -0.522750 0.344529 0.065345 -0.195205 0.157625 0.324948 -0.308528 0.086981 0.047521 0.518891 -0.418819 0.384824 0.055629 -0.131325 0.094976 0.080431 0.355506 0.027383 0.162995 0.044180 0.266408 0.049459 -0.669005 0.606953 -0.490023 0.375985 0.265719 -0.163451 -0.535463 -0.388153 -0.326954 -0.200108 -0.190705 0.126583 0.060710 -0.354321 -0.631659 -0.344397 -0.112080 0.803768 -0.093163 -0.325061 0.142829 -0.000033 -0.806129 0.339154 -0.071862 0.082479 -0.116453 -0.112572 0.043131 -0.145376 0.845543 0.027394 -0.102751 0.260884 0.794026 0.221391 0.101304 -0.040774 0.010885 -0.015260 -0.527295 0.419914 -0.627396 -0.027607 0.255598 -0.071494 0.181219 -0.124660 0.313502 -0.124141 -0.419004 0.679924 -0.252745 -0.174905 0.228134 -0.284936 0.255581 0.355900 0.497200 -0.555417 -0.062017 0.484699 -0.525651 0.288096 -0.552761 -0.181950 0.283276 -0.163352 0.020995 0.544550 0.020712 -0.336689 -0.384060 0.434929 -0.085434 0.316276 0.373207 0.546992 0.285154 0.198798 -1.028196 0.053195 -0.484690 0.271162 -0.225392 -0.077913 -0.176595 -0.070693 0.339428 -0.122303 0.783401 -1.153393 -0.499670 0.146367 0.412157 0.179162 -0.343376 0.385135 -0.104788 -0.644631 0.194522 0.009369 -0.303662 -0.051313 -0.766294 0.987426 0.184409 0.548004 -0.058986 -0.321616 -0.571853 -0.870434 -1.036361 -1.263269 0.930664 -0.089064 0.445617 0.049133 0.240255 0.035902 -0.553327 0.036102 -0.735490 
HCCDB-17.S36 0.438429 -0.250723 0.162157 -0.094106 0.087793 -0.607720 0.860807 0.653891 -0.068608 0.066980 -0.005454 0.229332 -0.144781 0.355890 -0.790933 -0.232469 0.260182 -0.912330 -0.054465 -0.684021 -0.061915 0.526391 0.247621 0.747243 -0.062028 -0.270323 -0.131825 -0.256203 0.125562 0.197094 -0.363999 0.381670 0.887124 -0.609986 -0.569818 0.452148 -0.247493 -0.417630 0.070127 -0.507818 0.083658 0.142473 0.352049 -0.401815 -0.131675 -0.011933 0.305004 0.744912 0.105064 0.054939 0.245040 0.174324 -0.050595 0.013519 0.087371 -0.476991 0.391690 0.043858 -0.219976 0.148118 0.335500 -0.259071 -0.024660 0.166398 0.512235 -0.453051 0.352481 0.068076 -0.125871 0.066186 0.081031 0.386701 0.041699 0.188244 0.027162 0.200823 0.085988 -0.631019 0.654523 -0.466220 0.329266 0.271172 -0.148821 -0.457395 -0.383303 -0.310282 -0.242571 -0.177194 0.134924 0.090715 -0.259752 -0.624394 -0.290724 -0.025823 0.768961 -0.034202 -0.403108 0.120555 0.068228 -0.845389 0.378434 -0.168195 0.147231 -0.179750 -0.094791 0.091953 -0.135777 0.848520 0.033003 -0.052916 0.269058 0.853003 0.211631 0.161144 -0.043683 0.032265 0.035820 -0.468023 0.474677 -0.637388 0.029815 0.232429 -0.125021 0.233049 -0.085183 0.299058 -0.101373 -0.467405 0.688884 -0.244404 -0.222896 0.170992 -0.250102 0.208878 0.356400 0.376335 -0.511755 -0.107617 0.563653 -0.510493 0.370190 -0.550097 -0.219462 0.249287 -0.092559 0.060145 0.602997 0.131054 -0.378028 -0.402097 0.474112 -0.147699 0.273537 0.298215 0.584887 0.303883 0.317330 -1.021337 -0.024389 -0.481339 0.246847 -0.263601 -0.134351 -0.182938 -0.027169 0.312594 -0.126497 0.764027 -1.094424 -0.486288 0.164004 0.430213 0.194131 -0.365613 0.450244 -0.124706 -0.653469 0.241299 0.011554 -0.313066 -0.170321 -0.731279 0.972293 0.115912 0.533455 -0.112518 -0.273139 -0.527800 -0.753275 -1.044134 -1.173990 0.920061 -0.078022 0.456012 0.007662 0.174365 0.001868 -0.621202 0.021184 -0.668566 
HCCDB-17.S37 0.350316 -0.117767 0.117664 0.043850 0.030341 -0.794968 0.818485 0.654729 -0.051951 0.029050 -0.132274 0.305559 -0.167826 0.318812 -0.761590 -0.210826 0.242461 -1.034741 -0.009825 -0.625131 -0.078970 0.485724 0.311262 0.705134 -0.046661 -0.236937 -0.128451 -0.262006 0.018141 0.168735 -0.449365 0.367164 0.897849 -0.653336 -0.622836 0.466777 -0.163072 -0.356095 0.161080 -0.469855 0.086137 0.241413 0.371727 -0.397556 -0.088833 -0.059101 0.257351 0.720260 0.028726 0.119225 0.249119 0.239467 -0.124799 -0.002768 0.121532 -0.393180 0.367025 0.057801 -0.210357 0.193404 0.265882 -0.322418 -0.050142 0.099007 0.560834 -0.532800 0.398142 0.114209 -0.068700 -0.036762 0.034758 0.476657 -0.024534 0.094383 -0.081179 0.300942 0.041336 -0.661437 0.738102 -0.461532 0.291696 0.240202 -0.202699 -0.552303 -0.350107 -0.366728 -0.184794 -0.216451 0.174521 0.061093 -0.302251 -0.622354 -0.225670 0.061855 0.780929 -0.067124 -0.379312 0.134504 0.102141 -0.823509 0.465067 -0.149206 0.089423 -0.046923 -0.091044 0.113784 -0.041169 0.821961 0.053240 -0.059748 0.258539 0.901525 0.231629 0.159888 0.043224 0.021269 0.024982 -0.469317 0.440321 -0.547402 0.029006 0.212299 -0.141947 0.245861 -0.111514 0.259685 -0.144586 -0.309651 0.732262 -0.336997 -0.274763 0.027827 -0.095452 0.188133 0.408088 0.314473 -0.546406 0.009338 0.514926 -0.376569 0.433611 -0.519573 -0.182741 0.307859 -0.322600 -0.071113 0.546077 0.046000 -0.261313 -0.426781 0.503028 -0.072233 0.273203 0.297992 0.563604 0.273069 0.357826 -0.968983 0.006588 -0.510650 0.262570 -0.259872 -0.195286 -0.052884 -0.007808 0.314083 -0.201132 0.677130 -1.121262 -0.501439 0.114685 0.463984 0.304815 -0.310875 0.404206 -0.067340 -0.588356 0.224921 0.014475 -0.378782 -0.163552 -0.725090 0.993454 0.087316 0.511022 0.052173 -0.251059 -0.503765 -0.745435 -0.996333 -1.176843 0.949321 -0.092990 0.430211 0.049810 0.198870 -0.067528 -0.540430 0.175254 -0.738765 
HCCDB-17.S38 0.387212 -0.237420 0.205118 0.002256 0.088921 -0.792955 0.760015 0.612212 -0.106784 0.054925 0.034403 0.372981 -0.007804 0.366235 -0.702999 -0.069096 0.285525 -0.942467 -0.137751 -0.558809 -0.146794 0.531014 0.310067 0.748570 -0.084483 -0.279257 -0.098066 -0.325659 0.258191 0.242351 -0.322133 0.230187 0.920945 -0.619756 -0.504064 0.382674 -0.260518 -0.414000 0.141995 -0.573711 0.102315 0.250748 0.353700 -0.457024 -0.004793 -0.005146 0.223588 0.661474 -0.007355 0.195954 0.214292 0.243023 -0.047811 -0.003194 0.197562 -0.517714 0.254639 0.088548 -0.244090 0.211032 0.377792 -0.332471 -0.114232 0.159270 0.579075 -0.442543 0.485458 0.147296 -0.119038 0.073485 0.025326 0.433104 0.030082 0.132089 0.119603 0.208705 0.022931 -0.620679 0.641300 -0.524899 0.371894 0.301615 -0.189183 -0.527175 -0.294049 -0.389561 -0.133272 -0.144920 0.202532 0.122555 -0.445730 -0.714911 -0.227977 0.015754 0.708371 -0.018179 -0.439502 0.111799 0.037345 -0.810701 0.439676 -0.236276 -0.011477 -0.131334 0.005795 0.189990 0.042821 0.909612 0.001044 -0.090880 0.356993 0.868946 0.243504 0.073765 0.049642 -0.056453 -0.000365 -0.395613 0.436362 -0.528416 -0.067853 0.213090 -0.147837 0.238183 -0.121247 0.186283 -0.091092 -0.343445 0.726523 -0.291447 -0.306696 0.091501 -0.153856 0.207354 0.419999 0.399589 -0.669443 0.049957 0.484814 -0.421847 0.428266 -0.446713 -0.263802 0.372040 -0.250851 -0.037169 0.504500 0.081385 -0.347932 -0.457730 0.551649 -0.082194 0.142353 0.255590 0.613366 0.280975 0.257856 -0.959431 0.048357 -0.493876 0.360127 -0.259917 -0.166851 -0.100630 -0.019085 0.295040 -0.199044 0.799456 -1.095041 -0.455191 0.158347 0.461931 0.271764 -0.270177 0.355755 -0.077677 -0.590206 0.246011 -0.011783 -0.408566 -0.206802 -0.674068 1.020345 0.224556 0.635946 -0.030720 -0.394294 -0.559768 -0.741661 -0.979586 -1.228434 0.942302 -0.024114 0.332806 0.100264 0.177378 -0.242997 -0.479678 0.170411 -0.728969 
HCCDB-17.S39 0.415457 -0.299187 0.113957 0.028830 0.004113 -0.668954 0.870854 0.742368 -0.141352 0.035482 -0.000954 0.302812 -0.144591 0.342259 -0.716231 -0.245672 0.300278 -1.024518 -0.145519 -0.580190 -0.130361 0.410738 0.281979 0.785655 -0.073298 -0.191940 -0.086653 -0.272989 0.059817 0.299946 -0.269950 0.344036 0.894669 -0.642958 -0.589967 0.363071 -0.165860 -0.403342 0.022110 -0.536167 0.176675 0.150050 0.410028 -0.366631 -0.107856 -0.111944 0.312123 0.689937 0.103653 0.101587 0.274568 0.210693 -0.018458 -0.060422 0.078756 -0.430020 0.352583 0.099937 -0.218867 0.179713 0.313536 -0.294440 -0.072686 0.270763 0.532161 -0.512785 0.395400 0.011330 -0.015214 0.014765 0.102895 0.451235 0.013870 0.171598 -0.062965 0.257049 0.117368 -0.663536 0.652255 -0.463133 0.335655 0.311993 -0.068789 -0.500374 -0.383340 -0.319449 -0.227666 -0.126075 0.205790 0.073750 -0.295414 -0.646293 -0.319731 0.054807 0.729417 0.016072 -0.412362 0.019217 0.085777 -0.829558 0.403560 -0.154090 0.073067 -0.118554 -0.045962 0.114220 -0.136298 0.809379 0.039296 -0.126914 0.252391 0.899969 0.270539 0.146221 -0.114724 0.096890 0.095929 -0.461234 0.440041 -0.606550 -0.051753 0.271901 -0.204932 0.206075 -0.185577 0.193848 -0.170385 -0.520892 0.737316 -0.270061 -0.198151 0.057712 -0.152702 0.108592 0.326716 0.241970 -0.547702 -0.015096 0.478721 -0.463464 0.366337 -0.607300 -0.209943 0.220075 -0.234187 0.017440 0.573639 0.087869 -0.334281 -0.488514 0.455557 -0.060626 0.201606 0.312019 0.520908 0.283128 0.404270 -1.007642 -0.054551 -0.456146 0.196975 -0.242876 -0.153449 -0.139893 -0.006496 0.287332 -0.188114 0.712183 -1.144683 -0.457045 0.071461 0.405290 0.258183 -0.369228 0.405448 -0.014108 -0.763799 0.292843 0.026193 -0.295133 -0.186039 -0.712264 0.981436 0.057500 0.560295 0.030964 -0.252549 -0.570485 -0.751445 -0.970104 -1.160811 0.884908 0.030557 0.361251 -0.069443 0.161234 -0.075022 -0.646076 0.152211 -0.760527 
HCCDB-17.S4 0.494921 -0.293567 0.095238 -0.137160 -0.037814 -0.700728 0.686458 0.642529 -0.106470 -0.049205 -0.054521 0.324634 -0.031813 0.240757 -0.776838 -0.342534 0.230534 -0.971520 0.020842 -0.522904 -0.121392 0.531837 0.255732 0.743667 -0.070157 -0.272930 -0.139707 -0.184123 0.138929 0.196159 -0.393841 0.341042 0.857035 -0.602257 -0.547140 0.415878 -0.194238 -0.399977 0.109151 -0.540498 0.158409 0.183819 0.416572 -0.475751 -0.116578 0.005898 0.289475 0.719367 0.067281 0.041350 0.118522 0.128997 -0.019820 0.069109 0.086054 -0.490398 0.382454 0.026812 -0.198829 0.146818 0.383259 -0.327311 -0.003312 0.131954 0.557683 -0.423698 0.341647 0.144436 -0.075768 -0.004937 0.056640 0.437822 0.038066 0.066108 0.145204 0.230141 0.019655 -0.570495 0.683784 -0.480141 0.421534 0.278886 -0.191433 -0.550383 -0.361764 -0.469223 -0.289364 -0.263058 0.065242 0.202796 -0.445724 -0.716233 -0.196559 0.056139 0.685691 -0.042021 -0.322430 0.146418 -0.000064 -0.804884 0.413161 -0.057041 0.095522 -0.205689 -0.179069 0.190873 -0.015603 0.819496 0.000185 -0.122797 0.278150 0.791303 0.166783 0.056187 -0.038572 0.075857 0.043083 -0.499023 0.295914 -0.596328 0.002560 0.291357 -0.101252 0.196641 -0.084937 0.128713 -0.198102 -0.463217 0.568046 -0.390927 -0.262055 0.096104 -0.268256 0.194969 0.439915 0.391254 -0.594340 0.053441 0.470762 -0.594566 0.376447 -0.714750 -0.301021 0.243220 -0.313658 -0.006489 0.490155 0.117362 -0.360941 -0.509803 0.536735 -0.150024 0.304594 0.311925 0.603622 0.264574 0.164600 -0.940018 0.022073 -0.516872 0.301538 -0.304875 -0.154085 -0.129014 -0.012553 0.173758 -0.140160 0.802503 -1.186265 -0.541634 0.074148 0.509685 0.140715 -0.354554 0.330642 -0.146852 -0.577628 0.151372 -0.008672 -0.364285 -0.169472 -0.762760 0.920052 0.068507 0.526315 -0.100990 -0.287646 -0.560323 -0.770198 -0.877204 -1.165789 0.873995 0.032429 0.348550 -0.063226 0.303931 -0.114348 -0.508475 0.031700 -0.687574 
HCCDB-17.S40 0.419883 -0.245543 0.183553 -0.005555 0.062330 -0.641299 0.805318 0.734769 -0.043477 0.026973 -0.043543 0.290252 -0.087519 0.270505 -0.777329 -0.222815 0.220061 -0.971992 0.011305 -0.514947 -0.151177 0.513129 0.192137 0.780788 0.000378 -0.180150 -0.096801 -0.246001 0.081850 0.221623 -0.357464 0.256844 0.869204 -0.695317 -0.514571 0.368027 -0.256376 -0.362754 0.076852 -0.479893 0.090968 0.277170 0.421006 -0.377087 -0.152014 0.073446 0.233275 0.695033 0.000245 0.096657 0.242902 0.177127 -0.082031 0.023401 0.232703 -0.540993 0.321240 0.043604 -0.231457 0.244324 0.307784 -0.322825 0.048236 0.098493 0.537233 -0.446336 0.329564 0.132273 -0.096078 0.063139 0.084963 0.516054 -0.038368 0.096573 0.027638 0.253839 -0.004630 -0.648100 0.663625 -0.495756 0.286087 0.307716 -0.226891 -0.581121 -0.328201 -0.392842 -0.183961 -0.212909 0.206624 0.084595 -0.272921 -0.630568 -0.259912 -0.002300 0.783769 -0.051194 -0.392511 0.126043 0.025823 -0.851655 0.483560 -0.192370 0.129774 -0.147905 -0.081216 0.086311 -0.023486 0.749600 0.027475 -0.135802 0.251263 0.878566 0.238262 0.149909 0.011908 0.105230 0.085080 -0.453798 0.458452 -0.510356 -0.091606 0.275998 -0.113318 0.224630 -0.079033 0.269215 -0.150354 -0.447264 0.700388 -0.333479 -0.253082 0.163862 -0.189415 0.122115 0.384311 0.405968 -0.574150 0.013006 0.490710 -0.430861 0.393199 -0.491475 -0.219458 0.341067 -0.182802 -0.011785 0.553800 0.033649 -0.373152 -0.514210 0.525704 -0.039033 0.228833 0.322565 0.605023 0.302541 0.285108 -0.965953 0.003227 -0.517256 0.180755 -0.224464 -0.155553 -0.104727 0.024381 0.288212 -0.191214 0.762948 -1.149475 -0.523833 0.068775 0.360077 0.277790 -0.293687 0.301987 -0.079120 -0.593913 0.340102 -0.032470 -0.369301 -0.131085 -0.712913 0.954848 0.093373 0.462008 -0.111049 -0.267329 -0.612616 -0.765579 -1.018896 -1.240138 0.920224 -0.063774 0.361142 -0.022756 0.246731 -0.137924 -0.508058 0.099389 -0.796591 
HCCDB-17.S41 0.394178 -0.198656 0.128597 0.046084 0.014672 -0.683842 0.759117 0.716134 -0.125084 0.040149 0.036966 0.317255 -0.091502 0.323290 -0.800571 -0.159663 0.289909 -1.006046 -0.053705 -0.641731 -0.128938 0.547297 0.286325 0.727158 -0.044760 -0.243855 -0.093253 -0.271718 0.159199 0.260125 -0.421714 0.313398 0.792331 -0.634194 -0.468870 0.419745 -0.160628 -0.367525 0.125278 -0.534157 0.079821 0.229364 0.430739 -0.551328 -0.110810 0.071746 0.284512 0.735897 0.071479 0.153810 0.113601 0.210592 -0.086337 0.020668 0.163724 -0.468694 0.246450 0.099116 -0.183335 0.278366 0.286953 -0.260617 -0.004165 0.085201 0.506641 -0.419775 0.414642 0.059609 -0.095795 0.175959 0.126009 0.463110 0.011610 0.154201 0.082261 0.287579 0.053125 -0.696754 0.671568 -0.551289 0.403849 0.277592 -0.177615 -0.549398 -0.311790 -0.421066 -0.149647 -0.184051 0.174302 0.107881 -0.311222 -0.631880 -0.245532 -0.010548 0.721386 -0.030911 -0.372743 0.180268 0.022537 -0.753296 0.407668 -0.175487 0.113156 -0.149540 -0.085921 0.109830 -0.046317 0.827268 0.082748 -0.087375 0.301685 0.848363 0.199388 0.115334 0.042428 0.019123 0.035380 -0.439249 0.388248 -0.551807 -0.115261 0.200658 -0.104519 0.194710 -0.097774 0.208790 -0.147929 -0.455216 0.708602 -0.297075 -0.152019 0.048098 -0.145102 0.134928 0.434618 0.448797 -0.642186 0.013902 0.474731 -0.358250 0.300062 -0.554453 -0.207332 0.317004 -0.196867 0.013047 0.588198 0.112103 -0.298171 -0.486622 0.480471 -0.039443 0.225496 0.318141 0.565720 0.337602 0.241972 -1.086051 -0.010033 -0.528248 0.287298 -0.263152 -0.106174 -0.117613 0.037619 0.336155 -0.149456 0.725909 -1.117799 -0.556455 0.043256 0.364711 0.322939 -0.270574 0.320414 -0.111628 -0.551448 0.271600 0.006977 -0.365722 -0.123635 -0.726606 0.981457 0.165942 0.584029 -0.085590 -0.289828 -0.524140 -0.807638 -1.016546 -1.224476 0.944664 -0.088409 0.433000 0.096253 0.248149 -0.171944 -0.575178 0.016292 -0.714673 
