240 200
HCCDB-4.S194 0.406318 -0.242149 0.103784 -0.021207 0.051865 -0.665895 0.910066 0.662422 -0.079551 0.094856 -0.087678 0.396944 -0.159711 0.376018 -0.776828 -0.211377 0.249389 -0.990593 -0.068343 -0.592796 -0.090800 0.394815 0.208744 0.811597 -0.041549 -0.194331 -0.089675 -0.292664 0.114222 0.274615 -0.340380 0.309322 0.878486 -0.567306 -0.646285 0.299050 -0.188963 -0.394277 0.045222 -0.481883 0.179524 0.119250 0.409093 -0.390823 -0.138934 -0.071780 0.208623 0.657311 0.080322 0.136391 0.190655 0.185971 -0.102409 -0.082830 0.115809 -0.414625 0.329024 0.077475 -0.221516 0.207558 0.302915 -0.342150 -0.056281 0.213439 0.455004 -0.440186 0.419056 0.021240 0.058257 0.062088 0.021289 0.493072 0.056677 0.031663 -0.005367 0.362746 0.070216 -0.691097 0.596137 -0.474472 0.404709 0.201366 -0.229590 -0.588180 -0.468490 -0.357695 -0.181525 -0.186150 0.230643 0.118279 -0.317279 -0.643902 -0.255015 0.036145 0.752870 0.009722 -0.437106 0.131347 -0.007777 -0.888814 0.456281 -0.072742 0.098458 -0.162517 -0.045656 0.183109 -0.136400 0.786621 0.084082 -0.114724 0.363587 0.807619 0.211263 0.183389 -0.136028 0.075681 0.063776 -0.442829 0.442777 -0.630353 -0.073940 0.275606 -0.166806 0.235603 -0.144942 0.195580 -0.191657 -0.339151 0.840949 -0.278664 -0.279341 0.048040 -0.180063 0.150153 0.379233 0.318865 -0.617001 0.041859 0.522755 -0.447170 0.383701 -0.519993 -0.298261 0.266732 -0.271989 0.032398 0.505950 0.067171 -0.353287 -0.388556 0.535924 -0.030475 0.270365 0.250533 0.565614 0.327490 0.326842 -0.957094 -0.026705 -0.521314 0.296661 -0.273191 -0.140580 -0.027704 0.059413 0.350841 -0.193953 0.692263 -1.135677 -0.465426 0.010536 0.494437 0.315661 -0.279602 0.453977 -0.021505 -0.646940 0.299485 0.067775 -0.229789 -0.210081 -0.725586 0.898595 0.014918 0.563856 -0.138792 -0.259942 -0.550249 -0.774807 -0.925398 -1.262317 0.811039 0.059936 0.399591 -0.012827 0.169756 -0.155076 -0.570747 0.087498 -0.720701 
HCCDB-4.S195 0.326164 -0.324210 0.027229 -0.008130 -0.090931 -0.611913 0.730845 0.682949 -0.093856 0.076041 -0.102169 0.250514 -0.083560 0.268223 -0.812293 -0.249121 0.250531 -0.956505 -0.003924 -0.548909 -0.059322 0.482672 0.262122 0.807566 -0.117109 -0.200809 -0.059239 -0.148460 0.135506 0.200524 -0.355180 0.416704 0.963571 -0.595114 -0.561411 0.380482 -0.218487 -0.375128 0.097280 -0.498897 0.100912 0.184329 0.429738 -0.405209 -0.124811 0.019536 0.324629 0.694632 0.047516 0.085455 0.230205 0.173515 -0.039709 -0.003224 0.179317 -0.495277 0.366909 0.096914 -0.263427 0.239382 0.475150 -0.340906 -0.004834 0.116824 0.556286 -0.422854 0.263731 0.072665 -0.150737 0.119412 0.131153 0.459374 -0.021931 0.084470 0.023799 0.330460 -0.005724 -0.674494 0.632686 -0.479058 0.389481 0.252433 -0.182055 -0.552782 -0.439088 -0.336913 -0.214698 -0.189249 0.178854 0.112888 -0.424721 -0.666337 -0.275356 -0.032367 0.762187 -0.021681 -0.396077 0.113652 -0.071976 -0.786786 0.386759 -0.092244 0.119490 -0.197028 -0.081045 0.094545 -0.200018 0.738149 0.010507 -0.139913 0.252813 0.728088 0.153401 0.061503 -0.025712 0.040728 -0.024028 -0.480864 0.438110 -0.559000 -0.068570 0.320391 -0.121367 0.186593 -0.127109 0.245773 -0.144574 -0.421173 0.710768 -0.357296 -0.154214 0.202622 -0.234248 0.251828 0.332310 0.346333 -0.592836 -0.070032 0.466255 -0.552809 0.334845 -0.574901 -0.210304 0.214134 -0.199835 -0.029513 0.589414 0.132670 -0.288336 -0.456995 0.569753 -0.115571 0.343658 0.365580 0.584900 0.250027 0.159314 -1.041355 0.051061 -0.503103 0.231738 -0.237923 -0.148727 -0.051060 0.023304 0.304024 -0.094119 0.771665 -1.156170 -0.500720 0.048671 0.377067 0.191635 -0.338144 0.338841 -0.105253 -0.610897 0.271987 -0.035383 -0.283068 -0.165095 -0.702788 1.025213 0.088438 0.559341 -0.057754 -0.334739 -0.593541 -0.766196 -0.960514 -1.258796 0.928558 -0.081932 0.412217 -0.006032 0.219640 -0.065920 -0.534136 0.067444 -0.739548 
HCCDB-4.S196 0.368082 -0.361250 0.096096 0.001393 -0.075583 -0.575867 0.704559 0.668163 -0.059504 0.068725 -0.070365 0.234012 -0.087021 0.336302 -0.744426 -0.249795 0.290508 -0.977885 -0.016630 -0.567148 -0.101936 0.417660 0.139789 0.812354 -0.108948 -0.211153 -0.042753 -0.235050 0.229733 0.279554 -0.369921 0.401290 0.942893 -0.560177 -0.617703 0.418744 -0.298457 -0.353308 0.141646 -0.481752 0.176519 0.181734 0.383000 -0.373125 -0.031778 -0.016279 0.293344 0.692516 -0.003090 0.148745 0.216581 0.216633 -0.082890 0.000686 0.114514 -0.535695 0.372035 0.089755 -0.217270 0.174119 0.414526 -0.328521 -0.027500 0.107204 0.516752 -0.452901 0.284145 0.128594 -0.139771 0.110809 0.117616 0.480043 -0.077337 0.069366 -0.015844 0.402696 0.026662 -0.605506 0.653315 -0.453117 0.376785 0.271311 -0.150488 -0.530044 -0.297420 -0.417619 -0.245251 -0.221419 0.205965 0.107980 -0.392512 -0.663017 -0.269268 0.005010 0.731939 0.010725 -0.375535 0.125636 -0.060927 -0.776191 0.340535 -0.129321 0.164205 -0.165704 -0.069903 0.137791 -0.163979 0.784012 0.033894 -0.104398 0.324689 0.769467 0.111294 0.090525 -0.014532 0.024162 0.001020 -0.459321 0.409104 -0.589785 -0.029907 0.310512 -0.152180 0.221372 -0.178210 0.227374 -0.167661 -0.473315 0.696552 -0.344972 -0.159193 0.167147 -0.266001 0.225894 0.350626 0.421219 -0.517136 -0.028647 0.447173 -0.482029 0.361026 -0.505069 -0.278530 0.319233 -0.176723 -0.028256 0.533969 0.112825 -0.256539 -0.412124 0.522967 -0.070509 0.346953 0.421663 0.622893 0.250540 0.176858 -1.030341 0.044339 -0.517734 0.207753 -0.274875 -0.144649 -0.096241 -0.012732 0.384787 -0.210451 0.752894 -1.155234 -0.493493 0.100121 0.439249 0.202124 -0.258223 0.356179 -0.073664 -0.640482 0.234961 -0.025996 -0.378611 -0.090274 -0.666827 1.069528 0.061830 0.560498 -0.174759 -0.251539 -0.536882 -0.771151 -1.001451 -1.228456 0.946168 -0.049158 0.415480 -0.023517 0.250948 -0.068143 -0.533511 0.102286 -0.732089 
HCCDB-4.S197 0.309434 -0.325574 0.120144 0.058961 -0.023709 -0.669474 0.731535 0.663854 -0.046534 0.013698 -0.087554 0.261498 -0.086413 0.287990 -0.781765 -0.249403 0.298320 -0.951152 -0.051255 -0.531858 -0.060382 0.495277 0.253269 0.856416 -0.058079 -0.155179 -0.030910 -0.251600 0.193283 0.209679 -0.441345 0.349798 0.945980 -0.633803 -0.572632 0.396895 -0.189052 -0.357552 0.093956 -0.472109 0.114947 0.234721 0.448893 -0.309987 -0.089459 -0.055826 0.346061 0.682224 0.052976 0.146101 0.219900 0.218555 -0.133819 -0.070760 0.137854 -0.498454 0.337454 0.096067 -0.284582 0.217988 0.315401 -0.420862 -0.057719 0.129394 0.545691 -0.437087 0.302828 0.163946 -0.070814 0.059798 0.063816 0.538136 -0.084678 0.146434 0.012278 0.364056 0.046283 -0.687657 0.643422 -0.441859 0.311642 0.252439 -0.204520 -0.514454 -0.388328 -0.302334 -0.267928 -0.171048 0.200700 0.049333 -0.411077 -0.653231 -0.209082 -0.018215 0.757164 -0.000741 -0.327165 0.141844 -0.002314 -0.771353 0.416304 -0.079302 0.118729 -0.183038 -0.067823 0.021313 -0.172243 0.838572 0.079638 -0.106234 0.285089 0.778003 0.099041 0.064480 0.011487 0.055401 -0.018217 -0.450754 0.460622 -0.592425 -0.055820 0.302489 -0.145269 0.229098 -0.132361 0.230781 -0.180920 -0.417710 0.667067 -0.304522 -0.187353 0.120375 -0.231448 0.167837 0.364687 0.318395 -0.522186 -0.045560 0.476788 -0.504436 0.445146 -0.595984 -0.204689 0.290401 -0.213917 -0.066980 0.563842 0.120000 -0.223079 -0.377905 0.562256 -0.116625 0.315165 0.324081 0.622732 0.213366 0.218122 -1.016368 0.075213 -0.563963 0.236592 -0.232524 -0.178797 -0.142747 -0.016160 0.342241 -0.168906 0.801804 -1.114184 -0.465015 0.033657 0.462833 0.212971 -0.328205 0.408879 -0.109880 -0.606403 0.193636 -0.043704 -0.329666 -0.219745 -0.747201 1.073832 0.083846 0.504486 -0.113469 -0.338486 -0.588444 -0.736739 -0.890002 -1.213896 0.894603 -0.072631 0.437652 0.001907 0.289585 -0.095902 -0.492783 0.152104 -0.770372 
HCCDB-4.S198 0.401080 -0.318223 0.110830 0.018429 0.064215 -0.625853 0.750695 0.692143 -0.173610 0.073612 -0.050641 0.210484 -0.115085 0.332633 -0.711089 -0.258119 0.301946 -0.995461 -0.018214 -0.640235 -0.090695 0.437659 0.238513 0.849622 -0.051397 -0.144212 -0.071211 -0.169621 0.114681 0.177029 -0.344255 0.360481 0.939253 -0.600526 -0.546656 0.372553 -0.260004 -0.426467 0.044698 -0.512198 0.228744 0.170751 0.393884 -0.411936 -0.114254 -0.046545 0.306750 0.673349 0.061848 0.156481 0.255282 0.167853 -0.052203 -0.042717 0.110339 -0.503233 0.390731 0.100305 -0.199729 0.141754 0.313018 -0.346237 -0.075266 0.113461 0.523829 -0.407198 0.349683 0.085772 -0.096573 0.036567 0.080132 0.501638 0.011176 0.154805 0.032531 0.327614 0.048686 -0.659529 0.680085 -0.466928 0.413444 0.240578 -0.121067 -0.507827 -0.342466 -0.362618 -0.328127 -0.168693 0.201051 0.053748 -0.346609 -0.656172 -0.244313 0.008886 0.738590 -0.021209 -0.362220 0.085107 0.057528 -0.825234 0.409960 -0.087355 0.104732 -0.181543 -0.067304 0.037314 -0.188901 0.832660 0.058537 -0.112760 0.267446 0.835706 0.209463 0.118182 -0.033906 0.113349 0.063448 -0.444167 0.429113 -0.557330 -0.026154 0.243842 -0.132282 0.222276 -0.141996 0.223814 -0.128762 -0.482481 0.685290 -0.280822 -0.261265 0.148458 -0.192917 0.196966 0.391922 0.297698 -0.527865 -0.025348 0.496794 -0.448262 0.384531 -0.568757 -0.204221 0.307463 -0.255476 -0.045998 0.643068 0.101078 -0.357989 -0.400686 0.468421 -0.111770 0.271076 0.342835 0.514725 0.242695 0.285529 -1.034562 0.026754 -0.515012 0.263067 -0.237666 -0.134151 -0.152517 -0.001434 0.291983 -0.179063 0.809965 -1.160453 -0.511513 0.066295 0.432952 0.308103 -0.305567 0.360158 -0.058078 -0.661697 0.222217 -0.007025 -0.270407 -0.126090 -0.735376 1.003326 0.068381 0.523030 -0.119448 -0.302427 -0.593115 -0.762916 -0.907673 -1.187735 0.908506 -0.016213 0.422196 -0.014458 0.211203 -0.177331 -0.472570 0.098178 -0.702989 
HCCDB-4.S199 0.366175 -0.346598 0.147741 0.008222 0.026396 -0.628143 0.788864 0.740234 -0.100483 0.085182 -0.040610 0.234430 -0.059837 0.283794 -0.743184 -0.204609 0.256926 -0.902526 -0.010684 -0.593549 -0.128812 0.568485 0.187400 0.780372 -0.126786 -0.183637 -0.059574 -0.235582 0.204105 0.166075 -0.403670 0.357041 0.863238 -0.615489 -0.587722 0.386027 -0.334947 -0.425288 0.113805 -0.500881 0.124157 0.192316 0.391729 -0.456907 -0.065056 0.059737 0.299403 0.652148 0.013224 0.128795 0.285315 0.119451 -0.097200 -0.007065 0.089986 -0.505198 0.328396 0.081857 -0.211036 0.178668 0.350878 -0.408394 -0.052050 0.058647 0.592087 -0.396115 0.391608 0.062426 -0.144543 0.008581 0.070975 0.498620 -0.077064 0.234277 0.042766 0.284159 -0.013489 -0.656225 0.650960 -0.485539 0.334938 0.262805 -0.152855 -0.564473 -0.365158 -0.451598 -0.313875 -0.144098 0.177558 0.051448 -0.393353 -0.628226 -0.264719 -0.005658 0.715516 -0.064994 -0.357621 0.126545 0.008595 -0.838450 0.394214 -0.105903 0.125707 -0.100815 -0.123953 0.038297 -0.174647 0.771471 0.031004 -0.046681 0.297337 0.811246 0.198157 0.106092 -0.023531 0.068731 0.046672 -0.450661 0.482300 -0.630474 -0.134514 0.250108 -0.050499 0.206123 -0.147696 0.207336 -0.113693 -0.397913 0.688558 -0.274825 -0.204580 0.158320 -0.266594 0.241773 0.378139 0.321905 -0.570706 -0.000169 0.489902 -0.500775 0.342788 -0.501338 -0.245381 0.231041 -0.140915 -0.070539 0.476878 0.066457 -0.395532 -0.414742 0.517167 -0.073105 0.247708 0.335618 0.560851 0.257972 0.177493 -1.063771 0.063678 -0.568770 0.215745 -0.219083 -0.173054 -0.179520 -0.188448 0.308522 -0.232826 0.752643 -1.142867 -0.452759 0.124919 0.428028 0.234512 -0.292138 0.339189 -0.059234 -0.659646 0.275389 -0.071181 -0.308459 -0.187252 -0.754173 0.961872 0.166719 0.493838 -0.101852 -0.278787 -0.571076 -0.776659 -0.916593 -1.200175 1.018212 -0.180444 0.410616 0.057639 0.219142 -0.068168 -0.514055 0.152414 -0.781712 
HCCDB-4.S200 0.398293 -0.198908 0.082036 -0.001182 -0.018370 -0.655674 0.791531 0.658273 -0.101457 0.079002 -0.086944 0.291691 -0.121413 0.338985 -0.817171 -0.249096 0.239288 -0.866454 -0.041978 -0.532453 -0.120323 0.485902 0.229931 0.809154 -0.126845 -0.225482 -0.095017 -0.221591 0.021933 0.224222 -0.362329 0.356676 0.867429 -0.577507 -0.633635 0.378250 -0.236085 -0.378229 0.053646 -0.458890 0.143454 0.164864 0.385794 -0.397723 -0.070554 -0.082942 0.328418 0.684511 0.030405 0.074916 0.155848 0.167144 -0.132881 -0.068132 0.136557 -0.510306 0.369253 0.066577 -0.244378 0.154045 0.376157 -0.267329 0.070245 0.131472 0.485281 -0.394976 0.379894 0.071651 -0.116205 0.057511 0.087749 0.491871 -0.016163 0.113382 -0.083974 0.331222 -0.050643 -0.662175 0.675004 -0.495338 0.375380 0.207729 -0.212629 -0.507337 -0.412141 -0.341898 -0.264409 -0.130208 0.228513 0.088456 -0.280883 -0.663737 -0.255467 0.022334 0.754366 -0.026320 -0.473768 0.096960 0.019384 -0.851288 0.472951 -0.069921 0.168482 -0.219830 -0.050513 0.114347 -0.148794 0.820265 0.057845 -0.193097 0.257627 0.800371 0.150980 0.124497 -0.043092 0.069013 0.108155 -0.445074 0.431840 -0.590141 -0.087533 0.249256 -0.072044 0.255816 -0.124884 0.111129 -0.143505 -0.420714 0.772907 -0.309671 -0.136340 0.111336 -0.221881 0.125535 0.349392 0.299079 -0.581524 -0.082944 0.508186 -0.468394 0.383983 -0.642113 -0.221822 0.241516 -0.257537 -0.062793 0.617245 0.113054 -0.324584 -0.400797 0.535490 -0.115589 0.317252 0.304209 0.614659 0.332348 0.261026 -1.082083 0.001331 -0.508285 0.203860 -0.253775 -0.165467 -0.059826 0.018058 0.299328 -0.139001 0.730065 -1.114208 -0.524990 -0.006995 0.425265 0.218285 -0.333345 0.417508 -0.038037 -0.614348 0.268567 0.002247 -0.248158 -0.151477 -0.727441 0.967184 0.001712 0.532999 -0.133508 -0.261413 -0.556421 -0.741134 -0.977224 -1.283284 0.902640 -0.050841 0.418426 -0.034293 0.183090 -0.104221 -0.571854 0.108011 -0.734912 
HCCDB-4.S201 0.351866 -0.253067 0.160976 -0.003352 0.080834 -0.676364 0.811893 0.709981 -0.061121 0.073862 -0.080769 0.279127 -0.086770 0.277321 -0.758096 -0.205186 0.245565 -0.956071 0.001682 -0.567760 -0.123665 0.542075 0.156301 0.724199 -0.078581 -0.251808 -0.038783 -0.272550 0.192614 0.280888 -0.461971 0.398846 0.895687 -0.623938 -0.509667 0.367919 -0.268967 -0.363256 0.124805 -0.475812 0.096934 0.247412 0.358694 -0.429960 -0.108111 0.043188 0.261350 0.628761 0.052407 0.161776 0.180344 0.198026 -0.129700 -0.008639 0.099259 -0.509095 0.350043 0.099128 -0.194456 0.250616 0.277205 -0.372874 0.048410 0.129270 0.502896 -0.452180 0.317535 0.171426 -0.084941 0.141528 0.129591 0.480406 -0.042072 0.119459 0.039170 0.309515 0.055713 -0.684977 0.652878 -0.451796 0.321953 0.244580 -0.184670 -0.518194 -0.369863 -0.401441 -0.270425 -0.199810 0.250947 0.106009 -0.296202 -0.625042 -0.264245 -0.020019 0.757407 -0.053520 -0.336380 0.184711 -0.021809 -0.820440 0.401960 -0.190016 0.135300 -0.132976 -0.087199 0.137199 -0.086740 0.816435 0.060622 -0.073711 0.248410 0.830420 0.164681 0.094386 0.007729 0.002929 0.078574 -0.453303 0.472583 -0.617737 -0.077090 0.289121 -0.097438 0.162269 -0.162489 0.280876 -0.101781 -0.402540 0.692731 -0.392456 -0.233915 0.192785 -0.210268 0.163741 0.330927 0.401860 -0.568084 0.019640 0.454754 -0.460628 0.392519 -0.453300 -0.183242 0.347989 -0.200161 -0.110581 0.523474 0.052305 -0.250650 -0.445617 0.547180 -0.010985 0.303846 0.380865 0.583718 0.316031 0.206858 -1.014425 0.007128 -0.543246 0.220481 -0.219583 -0.147517 -0.093026 -0.026089 0.362481 -0.227442 0.777225 -1.169567 -0.483195 -0.023637 0.396536 0.215242 -0.259305 0.384318 -0.087877 -0.585497 0.254476 0.008855 -0.314341 -0.137007 -0.730625 0.976451 0.093665 0.503146 -0.162056 -0.289916 -0.582903 -0.766804 -0.983364 -1.203373 0.912775 -0.169007 0.485904 -0.050193 0.345849 -0.131192 -0.481309 0.169060 -0.802726 
HCCDB-4.S202 0.379738 -0.191030 -0.014267 -0.049115 -0.011072 -0.710455 0.808632 0.660613 -0.087987 0.073606 -0.095235 0.353869 -0.144482 0.340976 -0.809136 -0.233246 0.232678 -0.926319 -0.026901 -0.601152 -0.163607 0.477985 0.202671 0.815009 -0.093509 -0.135904 -0.100781 -0.183901 0.028693 0.233148 -0.373139 0.411945 0.945531 -0.588871 -0.657057 0.311065 -0.209485 -0.457461 0.018668 -0.499517 0.155850 0.145295 0.384471 -0.366924 -0.073551 -0.091164 0.302765 0.692351 0.089278 0.111511 0.141600 0.182782 -0.099156 -0.058011 0.090241 -0.420594 0.378619 0.126928 -0.169596 0.172472 0.401210 -0.270139 -0.039170 0.245311 0.551929 -0.391515 0.336509 0.029620 0.011783 0.064540 0.095301 0.491745 0.025580 0.135912 -0.061401 0.341561 0.048022 -0.594921 0.718324 -0.494738 0.393426 0.257629 -0.206157 -0.536230 -0.413934 -0.376550 -0.234198 -0.180897 0.177965 0.173343 -0.251895 -0.610885 -0.251106 0.033322 0.740723 0.018119 -0.407585 0.101862 0.093012 -0.804791 0.464816 -0.057692 0.112718 -0.208330 -0.098092 0.204058 -0.126618 0.798619 0.103703 -0.096649 0.287609 0.871480 0.205903 0.182571 -0.091254 0.155337 0.095945 -0.514905 0.473101 -0.604447 -0.120575 0.282868 -0.132745 0.247311 -0.141770 0.189420 -0.203353 -0.391297 0.758673 -0.276513 -0.246611 0.038210 -0.194404 0.140121 0.296759 0.327922 -0.524811 -0.076509 0.488011 -0.492140 0.440618 -0.593005 -0.174101 0.225375 -0.248885 -0.015906 0.536399 0.096376 -0.263334 -0.429347 0.531502 -0.106885 0.330238 0.260224 0.603939 0.257958 0.367085 -0.995468 -0.052820 -0.438972 0.205112 -0.298177 -0.187390 -0.034049 0.049847 0.273315 -0.174691 0.653773 -1.115536 -0.515057 -0.027451 0.491343 0.320825 -0.354139 0.494816 -0.044845 -0.598105 0.271710 0.013345 -0.274163 -0.202919 -0.654509 0.950142 0.009405 0.545788 -0.060387 -0.207592 -0.480097 -0.730741 -1.019473 -1.227612 0.855503 -0.015970 0.313215 -0.054070 0.110012 -0.140400 -0.656043 0.142969 -0.706092 
HCCDB-4.S203 0.338199 -0.302440 0.119942 -0.013122 -0.030107 -0.607854 0.783507 0.673541 -0.036939 0.010449 -0.096899 0.260131 -0.147264 0.389356 -0.815956 -0.242214 0.244862 -0.943420 -0.028099 -0.600590 -0.102247 0.470688 0.161718 0.821653 -0.066562 -0.171787 -0.100452 -0.216424 0.144844 0.213939 -0.413328 0.428430 0.891808 -0.616156 -0.602002 0.366905 -0.236172 -0.359423 0.108466 -0.466880 0.111515 0.188933 0.368041 -0.402402 -0.054272 -0.082025 0.359050 0.690671 0.016100 0.154525 0.129911 0.180001 -0.135289 -0.087387 0.155457 -0.466585 0.415892 0.103490 -0.227437 0.247951 0.375219 -0.350394 -0.033438 0.123327 0.556192 -0.380939 0.328300 0.152871 -0.116069 0.009686 0.102977 0.480258 -0.045328 0.058902 -0.018945 0.339806 0.007945 -0.645850 0.642684 -0.421847 0.298375 0.259124 -0.142671 -0.510880 -0.354729 -0.334436 -0.239472 -0.166932 0.205589 0.115113 -0.388635 -0.615659 -0.235384 -0.021979 0.793727 -0.028220 -0.373802 0.116057 -0.023642 -0.819337 0.424042 -0.173134 0.133204 -0.178529 -0.116698 0.046208 -0.207225 0.794633 0.061487 -0.087540 0.331360 0.804638 0.126988 0.065499 -0.040396 0.020863 0.045088 -0.495678 0.511384 -0.552518 -0.031198 0.269618 -0.071401 0.189939 -0.121827 0.212287 -0.142037 -0.439510 0.680910 -0.269286 -0.188898 0.116309 -0.231267 0.286052 0.371695 0.347353 -0.551373 -0.058265 0.452808 -0.440017 0.436608 -0.581077 -0.201325 0.285683 -0.179133 -0.081362 0.570969 0.091398 -0.287617 -0.394015 0.519748 -0.095565 0.360498 0.345933 0.577701 0.296671 0.278040 -1.040959 0.062490 -0.502197 0.272220 -0.193345 -0.180113 -0.082305 -0.043882 0.290680 -0.174925 0.757202 -1.142634 -0.434325 -0.001546 0.381325 0.187356 -0.327897 0.410264 -0.093508 -0.707645 0.224267 -0.072985 -0.276978 -0.167767 -0.731682 1.057469 0.060385 0.523482 -0.106829 -0.337493 -0.558458 -0.721852 -0.898307 -1.228168 0.924744 -0.061555 0.406624 0.007100 0.219812 -0.060187 -0.512641 0.126425 -0.737154 
HCCDB-4.S204 0.363743 -0.375550 0.153014 0.038479 -0.002617 -0.610618 0.767912 0.722790 -0.049857 0.061280 -0.085142 0.319079 -0.097663 0.353506 -0.798957 -0.281892 0.322580 -0.987254 -0.052647 -0.641812 -0.173603 0.448712 0.224013 0.856728 -0.064659 -0.190529 -0.067249 -0.223290 0.238328 0.221717 -0.327123 0.421803 0.887942 -0.590888 -0.691661 0.339447 -0.255201 -0.369959 0.040941 -0.565960 0.180929 0.209544 0.401028 -0.360404 -0.090105 -0.006378 0.354081 0.671770 -0.018278 0.094077 0.203772 0.165062 -0.074464 -0.047115 0.168414 -0.457941 0.420129 0.149947 -0.210214 0.152536 0.370548 -0.290675 -0.028594 0.067940 0.520816 -0.431947 0.311033 0.152250 -0.142083 0.032953 0.090808 0.474755 -0.019141 0.126949 -0.027838 0.341261 -0.001233 -0.610887 0.684653 -0.484948 0.372553 0.289281 -0.170438 -0.554376 -0.392234 -0.380300 -0.208165 -0.229174 0.172658 0.118143 -0.293126 -0.672459 -0.292250 0.065726 0.800953 -0.016626 -0.420278 0.115240 -0.060977 -0.786383 0.449878 -0.044815 0.114066 -0.209489 -0.132084 0.127815 -0.159024 0.735911 0.014098 -0.128653 0.300094 0.790817 0.204808 0.114040 -0.011215 0.118036 0.058974 -0.479879 0.439676 -0.496796 -0.030035 0.238805 -0.079943 0.220819 -0.166029 0.160883 -0.106693 -0.352437 0.666015 -0.286160 -0.141439 0.186191 -0.228223 0.245889 0.342759 0.391776 -0.574849 -0.055164 0.506961 -0.498934 0.358367 -0.585129 -0.232836 0.239267 -0.159408 -0.066061 0.605935 0.146694 -0.313707 -0.438439 0.499493 -0.106085 0.344840 0.348324 0.597707 0.245554 0.185640 -1.051321 0.007462 -0.501121 0.258780 -0.214855 -0.143177 -0.062386 0.049144 0.301822 -0.133925 0.739259 -1.131477 -0.500344 0.035776 0.398768 0.199727 -0.321298 0.335046 -0.106055 -0.585035 0.225032 -0.004093 -0.327331 -0.213381 -0.711560 0.993154 0.095922 0.537095 -0.069600 -0.262730 -0.575168 -0.732577 -0.922835 -1.254618 0.977596 -0.059969 0.426779 -0.038427 0.208627 -0.149639 -0.583985 0.139146 -0.737883 
HCCDB-4.S205 0.501687 -0.140371 0.063128 -0.056063 0.064569 -0.670165 0.924006 0.696989 -0.176823 0.096838 -0.019631 0.402217 -0.177852 0.473199 -0.752546 -0.270645 0.295719 -0.898981 -0.004257 -0.634829 -0.097607 0.477015 0.390419 0.874834 -0.004925 -0.155633 -0.104702 -0.212989 0.025888 0.192875 -0.223905 0.373392 0.877915 -0.537163 -0.690899 0.315981 -0.214021 -0.494354 -0.025895 -0.517673 0.123017 0.000683 0.374610 -0.340551 -0.094649 -0.212403 0.320238 0.770994 0.153790 0.016881 0.156763 0.177060 -0.115244 -0.142565 0.120600 -0.365933 0.463372 0.090526 -0.191576 0.149070 0.313080 -0.118033 -0.069773 0.257955 0.572651 -0.415396 0.378989 -0.058307 0.043677 -0.025662 0.052537 0.402700 0.164242 0.064594 -0.159346 0.313019 -0.011483 -0.663811 0.655576 -0.468842 0.420971 0.307913 -0.205832 -0.536541 -0.460177 -0.260637 -0.219026 -0.064113 0.149793 0.094436 -0.204244 -0.681397 -0.221321 0.011826 0.781653 0.031105 -0.472325 0.064797 0.142247 -0.864499 0.442040 0.001422 0.157192 -0.133792 -0.054503 0.159951 -0.113440 0.766831 -0.015023 -0.125537 0.223942 0.920912 0.318191 0.255366 -0.130893 0.128419 0.163488 -0.544255 0.466901 -0.575158 -0.063829 0.217993 -0.152250 0.323602 -0.253740 -0.041689 -0.181006 -0.429931 0.846459 -0.163209 -0.172292 -0.023250 -0.141604 0.176270 0.325420 0.188971 -0.602561 -0.080012 0.589030 -0.452227 0.431231 -0.760376 -0.191726 0.199132 -0.322675 0.006055 0.544276 0.143088 -0.376809 -0.400150 0.478850 -0.109771 0.283729 0.217193 0.625629 0.257080 0.422366 -1.022775 -0.128116 -0.521379 0.234303 -0.300603 -0.121543 -0.039733 0.040946 0.205707 -0.196506 0.659244 -1.053953 -0.476979 0.043685 0.467815 0.378590 -0.372784 0.457312 -0.010571 -0.615555 0.307325 0.035754 -0.205313 -0.238231 -0.738557 0.955014 0.006904 0.577319 -0.039100 -0.188286 -0.586030 -0.737928 -0.970026 -1.213917 0.828109 0.099950 0.286343 -0.029306 0.036158 -0.088822 -0.715135 0.107704 -0.729643 
HCCDB-4.S206 0.415850 -0.287203 0.153588 -0.035161 0.038501 -0.651929 0.759734 0.655651 -0.095619 0.070746 -0.082418 0.234374 -0.097535 0.335687 -0.770334 -0.209470 0.235669 -0.942534 -0.001528 -0.592047 -0.155846 0.502663 0.164610 0.823493 -0.072594 -0.232028 -0.048516 -0.251904 0.113786 0.248091 -0.402387 0.397081 0.894514 -0.616278 -0.553567 0.385710 -0.251290 -0.313134 0.098316 -0.502414 0.144369 0.212731 0.392031 -0.392561 -0.055474 0.073526 0.320428 0.706935 -0.007272 0.112848 0.250675 0.219747 -0.027795 -0.032435 0.150243 -0.513518 0.374419 0.067017 -0.210301 0.185404 0.355219 -0.401122 0.012651 0.111593 0.622570 -0.353835 0.292802 0.173961 -0.177356 0.057751 0.129306 0.472704 -0.031421 0.124645 0.019712 0.332767 -0.041090 -0.640154 0.659345 -0.423071 0.381308 0.275118 -0.205932 -0.482914 -0.342225 -0.387004 -0.224667 -0.170876 0.191850 0.095976 -0.367973 -0.642695 -0.275593 -0.005976 0.731114 -0.073603 -0.358278 0.131886 0.024505 -0.756451 0.372672 -0.115207 0.125346 -0.134621 -0.047520 0.126070 -0.074172 0.803096 0.009671 -0.084170 0.311585 0.762291 0.163772 0.075667 0.033685 -0.003496 -0.007498 -0.481930 0.419308 -0.588001 -0.029484 0.255344 -0.126649 0.200668 -0.151247 0.225900 -0.080696 -0.462174 0.649407 -0.278329 -0.230835 0.194379 -0.232057 0.181942 0.369801 0.387861 -0.505460 -0.033514 0.502032 -0.494731 0.375969 -0.493945 -0.209192 0.259205 -0.224025 -0.058924 0.579090 0.085684 -0.260880 -0.448286 0.515232 -0.074907 0.367469 0.286820 0.593265 0.271948 0.240149 -1.032066 0.033625 -0.521355 0.363953 -0.211380 -0.178378 -0.114115 -0.034364 0.320941 -0.202492 0.765077 -1.161325 -0.463709 0.085683 0.462891 0.191747 -0.320860 0.346976 -0.127980 -0.639421 0.290903 -0.039565 -0.315543 -0.189338 -0.725202 1.054732 0.065357 0.511302 -0.035458 -0.293467 -0.612395 -0.751816 -0.934949 -1.237603 0.881084 -0.078233 0.377088 0.023729 0.198469 -0.163871 -0.465945 0.096061 -0.781708 
HCCDB-4.S207 0.423754 -0.322166 0.171990 -0.001188 -0.003083 -0.696805 0.756137 0.709449 -0.152026 0.082740 -0.053071 0.323563 -0.111427 0.336450 -0.718410 -0.215345 0.217814 -0.899733 -0.072251 -0.582313 -0.124095 0.555460 0.275725 0.775485 -0.063913 -0.196314 -0.081099 -0.279587 0.162447 0.247174 -0.325573 0.356676 0.879193 -0.621167 -0.557360 0.412062 -0.224761 -0.377925 0.082365 -0.507991 0.164372 0.199182 0.375595 -0.412779 -0.023523 -0.097434 0.305654 0.730863 0.090870 0.087698 0.248728 0.103837 -0.070678 -0.040193 0.094764 -0.507735 0.412168 0.057949 -0.187534 0.146598 0.309212 -0.296500 -0.070872 0.115549 0.597485 -0.406288 0.438411 0.053941 -0.044143 -0.000220 0.038334 0.460274 0.019392 0.106572 -0.024315 0.280871 0.109780 -0.666578 0.576682 -0.475548 0.420603 0.292676 -0.192539 -0.569543 -0.358515 -0.345961 -0.287072 -0.092705 0.183770 0.048759 -0.332516 -0.614536 -0.323576 0.014256 0.680734 0.021197 -0.362881 0.184170 0.052508 -0.770779 0.453421 -0.026105 0.055108 -0.178691 -0.024558 0.106492 -0.148241 0.816741 0.052651 -0.073176 0.227365 0.894811 0.267247 0.067381 -0.037531 0.111312 0.111347 -0.482951 0.449018 -0.641826 -0.077222 0.175146 -0.056070 0.237701 -0.136027 0.201511 -0.156830 -0.461576 0.733037 -0.166901 -0.208690 0.101316 -0.237259 0.153209 0.358271 0.291064 -0.509586 -0.033506 0.469344 -0.500383 0.380048 -0.529023 -0.154560 0.254267 -0.269576 -0.058729 0.539146 0.108632 -0.395801 -0.364697 0.490633 -0.108615 0.230269 0.302981 0.523816 0.310290 0.254117 -1.015285 -0.010920 -0.554650 0.222423 -0.319844 -0.173585 -0.170174 -0.037814 0.248526 -0.139010 0.740322 -1.152900 -0.450374 0.038264 0.406076 0.248977 -0.330297 0.375818 -0.076413 -0.653727 0.297397 0.019261 -0.322830 -0.198772 -0.723646 1.000352 0.087793 0.548340 -0.076944 -0.313575 -0.547582 -0.792726 -0.999910 -1.198163 0.946734 0.010506 0.356899 0.018460 0.103877 -0.084430 -0.583255 0.146793 -0.782146 
HCCDB-4.S208 0.402801 -0.284934 0.135782 -0.014105 0.010908 -0.680688 0.759099 0.681519 -0.127447 0.062099 -0.096352 0.368691 -0.129462 0.325139 -0.796401 -0.308409 0.265724 -0.902442 -0.007075 -0.581915 -0.152297 0.500324 0.207405 0.781468 -0.053172 -0.191984 -0.045370 -0.226843 0.108806 0.246889 -0.383393 0.324492 0.916094 -0.551626 -0.546739 0.321829 -0.255539 -0.420281 0.047795 -0.497079 0.103493 0.208715 0.357414 -0.377962 -0.074907 -0.034528 0.307830 0.740738 0.046845 0.053953 0.241987 0.145421 -0.058826 -0.045212 0.107656 -0.451090 0.381681 0.100998 -0.206795 0.229865 0.385166 -0.272186 0.012404 0.189536 0.629606 -0.408289 0.328154 0.059852 -0.103123 0.078600 0.080950 0.461326 -0.009293 0.113733 0.024513 0.313225 -0.056819 -0.648943 0.669757 -0.532388 0.303083 0.331765 -0.164366 -0.527637 -0.409810 -0.337526 -0.236925 -0.129426 0.223834 0.100852 -0.295814 -0.650639 -0.212548 -0.065523 0.730214 -0.058274 -0.353220 0.103047 0.016914 -0.753390 0.401704 -0.106588 0.126791 -0.156334 -0.008160 0.135051 -0.137379 0.786928 0.024406 -0.055291 0.335576 0.819403 0.206942 0.095143 0.020088 0.020614 0.065667 -0.533709 0.420421 -0.591971 -0.027362 0.278408 -0.120007 0.258501 -0.205391 0.181699 -0.128804 -0.456494 0.761676 -0.240002 -0.192550 0.236579 -0.191519 0.209202 0.339659 0.411675 -0.538629 -0.017955 0.527402 -0.525077 0.396456 -0.633691 -0.176482 0.258043 -0.151679 -0.042831 0.571630 0.050890 -0.338643 -0.472471 0.548751 -0.033776 0.301686 0.324035 0.558891 0.323248 0.214913 -0.996619 0.032148 -0.518135 0.259826 -0.261932 -0.120314 -0.163775 0.011642 0.250408 -0.119023 0.786202 -1.138465 -0.499837 0.054076 0.416691 0.263109 -0.367829 0.367997 -0.108298 -0.645507 0.317407 0.014207 -0.249982 -0.136677 -0.751096 0.995026 0.067179 0.541932 -0.096636 -0.210336 -0.559770 -0.750682 -0.914248 -1.254694 0.888541 -0.022522 0.341367 -0.004632 0.209443 -0.176268 -0.583130 0.143043 -0.739567 
HCCDB-4.S209 0.408248 -0.321619 0.086280 -0.098796 0.034105 -0.645455 0.774065 0.709477 -0.186614 0.066051 -0.066810 0.281800 -0.131664 0.407518 -0.820171 -0.322269 0.244275 -0.881758 -0.024332 -0.647596 -0.101914 0.442276 0.252377 0.782607 -0.044080 -0.202511 -0.129208 -0.227861 0.086785 0.236484 -0.279424 0.342000 0.886500 -0.554122 -0.594921 0.345018 -0.248652 -0.420031 0.032629 -0.507219 0.159432 0.101954 0.345855 -0.414868 -0.144146 -0.075760 0.388840 0.767612 0.076780 0.083409 0.230456 0.149442 -0.012058 -0.010124 0.069968 -0.443560 0.373413 0.107277 -0.199259 0.140536 0.408855 -0.199505 -0.040350 0.174057 0.527569 -0.379268 0.346205 0.077838 -0.138616 0.081712 0.064228 0.463060 0.072476 0.166968 -0.006537 0.345791 0.000669 -0.664966 0.651139 -0.497712 0.377082 0.271249 -0.232671 -0.522965 -0.425093 -0.297542 -0.190960 -0.167526 0.080167 0.095965 -0.277341 -0.643543 -0.250110 -0.017741 0.726083 -0.001184 -0.361342 0.066825 0.044200 -0.886605 0.378316 -0.097314 0.174546 -0.221430 -0.085779 0.108453 -0.130616 0.807854 0.019950 -0.102028 0.249770 0.814429 0.169976 0.122637 -0.025301 0.042889 0.083483 -0.494096 0.332979 -0.603366 -0.068632 0.199972 -0.092316 0.207107 -0.166123 0.146092 -0.169389 -0.476153 0.720287 -0.276579 -0.205564 0.181958 -0.205843 0.219331 0.387127 0.272049 -0.538724 -0.043617 0.466807 -0.502702 0.355009 -0.686702 -0.192287 0.237018 -0.236572 -0.035140 0.587105 0.139567 -0.361493 -0.458347 0.489665 -0.115418 0.332136 0.308195 0.613759 0.315235 0.286891 -1.075372 0.031005 -0.542982 0.272596 -0.255792 -0.159853 -0.092058 -0.014253 0.295785 -0.150527 0.720280 -1.141168 -0.551236 0.094533 0.411964 0.225869 -0.325939 0.373811 -0.090305 -0.628673 0.278486 0.018595 -0.277076 -0.152125 -0.701639 0.997587 0.014831 0.547801 -0.025141 -0.274826 -0.544029 -0.754576 -1.015918 -1.240605 0.900033 -0.021939 0.365750 -0.020450 0.171676 -0.088016 -0.549043 0.052925 -0.741747 
HCCDB-4.S210 0.391093 -0.197852 0.020767 -0.061329 0.027152 -0.733053 0.867102 0.626236 -0.124139 0.115114 -0.030486 0.427039 -0.179425 0.419705 -0.802707 -0.276510 0.315279 -0.877096 -0.060679 -0.625427 -0.141150 0.472533 0.245972 0.817528 -0.018225 -0.234225 -0.112776 -0.260324 0.011541 0.218614 -0.240130 0.344966 0.862531 -0.586118 -0.641487 0.332181 -0.150889 -0.417930 0.070772 -0.453857 0.148775 0.138854 0.404118 -0.387609 -0.028004 -0.176869 0.272578 0.710411 0.068907 0.129228 0.174506 0.218371 -0.081042 -0.042186 0.059203 -0.402118 0.394838 0.128702 -0.193479 0.177796 0.336702 -0.212586 -0.119394 0.292582 0.548451 -0.357698 0.426597 0.039570 0.001412 0.049808 0.059914 0.479924 0.100870 0.041634 -0.040804 0.349460 0.060841 -0.591069 0.653032 -0.492279 0.448047 0.220877 -0.231021 -0.564116 -0.418856 -0.312870 -0.178283 -0.134887 0.215056 0.171843 -0.266452 -0.642622 -0.271027 0.026367 0.752597 -0.046878 -0.428723 0.069086 0.026758 -0.867608 0.433419 -0.016533 0.028553 -0.193663 -0.085709 0.166128 -0.001728 0.855411 0.086048 -0.040776 0.233850 0.880134 0.227393 0.156856 -0.138983 0.052529 0.135699 -0.497218 0.493950 -0.549470 -0.147186 0.246198 -0.170883 0.269200 -0.221766 0.115036 -0.215153 -0.390789 0.822329 -0.271427 -0.244784 -0.007692 -0.195940 0.143984 0.319968 0.214935 -0.613856 0.034650 0.545546 -0.465362 0.428167 -0.638607 -0.190378 0.297096 -0.286994 0.008926 0.552838 0.073063 -0.406020 -0.415679 0.473584 -0.093043 0.267212 0.176767 0.571280 0.319016 0.377082 -0.977865 -0.076338 -0.452146 0.181934 -0.257813 -0.182119 0.024542 0.064621 0.279653 -0.173491 0.736887 -1.076344 -0.441136 -0.050485 0.461166 0.343552 -0.305141 0.482479 -0.020963 -0.632262 0.317569 0.046691 -0.231091 -0.141144 -0.652267 0.959531 -0.014229 0.594429 -0.033485 -0.232593 -0.531770 -0.772204 -0.995202 -1.250003 0.848863 0.054909 0.330594 -0.001331 0.125709 -0.094716 -0.639313 0.120962 -0.768675 
HCCDB-4.S211 0.374836 -0.319269 0.109611 0.016107 0.040221 -0.572920 0.782933 0.680173 -0.051322 0.037670 -0.113398 0.273562 -0.098247 0.258920 -0.838624 -0.219259 0.209938 -0.942776 -0.056874 -0.578576 -0.094534 0.496651 0.273758 0.744620 -0.107081 -0.176555 -0.004914 -0.236344 0.224092 0.229961 -0.426838 0.435968 0.947603 -0.631754 -0.594899 0.432797 -0.210386 -0.390161 0.141559 -0.468202 0.161955 0.209225 0.387482 -0.360422 -0.078727 -0.042063 0.351957 0.706713 0.013022 0.134863 0.238265 0.196533 -0.075585 0.044820 0.125083 -0.551895 0.322721 0.106895 -0.238331 0.178657 0.389947 -0.325294 -0.010961 0.089047 0.573347 -0.486977 0.364288 0.055852 -0.089919 0.056757 0.046745 0.551957 -0.038905 0.126634 0.025192 0.303691 0.070777 -0.644388 0.657074 -0.462524 0.365994 0.274342 -0.212352 -0.480598 -0.339292 -0.386103 -0.283068 -0.181291 0.208425 0.141991 -0.389205 -0.622987 -0.257487 0.032697 0.694279 0.018427 -0.367991 0.167952 0.023687 -0.792184 0.359257 -0.103724 0.168510 -0.154397 -0.090630 0.082853 -0.160775 0.803673 0.074146 -0.032331 0.274145 0.810693 0.220214 0.100351 -0.018192 0.043052 0.025921 -0.456503 0.514385 -0.683975 -0.048999 0.247232 -0.180898 0.243150 -0.074511 0.256950 -0.179936 -0.427981 0.684412 -0.322819 -0.188516 0.099860 -0.227204 0.151650 0.284573 0.347813 -0.517130 -0.005546 0.471456 -0.492176 0.406558 -0.527926 -0.222860 0.264359 -0.290454 -0.042377 0.536038 0.112476 -0.284043 -0.412474 0.503116 -0.108370 0.291763 0.344282 0.580483 0.278830 0.218648 -1.005628 0.012349 -0.479672 0.241476 -0.248618 -0.192101 -0.110713 -0.043122 0.341737 -0.163855 0.780203 -1.127433 -0.512207 0.024737 0.456605 0.182617 -0.294955 0.410140 -0.077111 -0.568215 0.246538 -0.027846 -0.349577 -0.198754 -0.718027 0.983993 0.048413 0.489070 -0.125541 -0.344436 -0.567345 -0.743439 -0.942565 -1.160872 0.990049 -0.091699 0.379438 -0.002096 0.217213 -0.065002 -0.512012 0.053497 -0.710739 
HCCDB-4.S212 0.376851 -0.287410 0.060962 -0.032875 -0.078952 -0.596114 0.738388 0.678560 -0.054363 0.015145 -0.106291 0.227040 -0.097673 0.396328 -0.743348 -0.237173 0.230572 -0.990916 -0.061656 -0.610260 -0.118337 0.408160 0.206604 0.829564 -0.134339 -0.241360 -0.045923 -0.145553 0.227591 0.204450 -0.391050 0.359105 0.931642 -0.587658 -0.634890 0.421914 -0.232240 -0.365227 0.089842 -0.515713 0.111516 0.223794 0.431511 -0.376373 -0.042399 0.037023 0.326846 0.738712 0.011095 0.155506 0.261125 0.208780 0.001740 0.004700 0.084321 -0.470680 0.420261 0.068693 -0.218005 0.215793 0.375582 -0.368742 0.044331 0.109135 0.553254 -0.462060 0.304726 0.134679 -0.159671 0.111598 0.103244 0.465241 -0.019972 0.108554 0.022432 0.333107 -0.005936 -0.621746 0.658599 -0.385851 0.338604 0.254446 -0.158904 -0.454755 -0.437967 -0.368645 -0.177233 -0.254536 0.229908 0.123490 -0.338200 -0.667450 -0.310195 -0.055920 0.743019 -0.016411 -0.440763 0.130711 -0.019284 -0.810212 0.345818 -0.115848 0.176515 -0.184041 -0.081781 0.104700 -0.164950 0.741086 0.010666 -0.102948 0.304714 0.729293 0.128333 0.092417 0.049620 0.026030 -0.037565 -0.438278 0.437760 -0.622021 -0.098699 0.250012 -0.138224 0.199647 -0.119591 0.238841 -0.154913 -0.436675 0.675257 -0.330246 -0.157707 0.175823 -0.211868 0.195607 0.366595 0.357349 -0.557765 -0.013833 0.435227 -0.496383 0.391382 -0.545321 -0.207047 0.261465 -0.171313 -0.050358 0.581523 0.111490 -0.243205 -0.424475 0.536068 -0.107501 0.369401 0.471862 0.580919 0.291427 0.215308 -1.049523 0.042163 -0.500796 0.224204 -0.270243 -0.195028 -0.089094 -0.031553 0.321750 -0.187541 0.796171 -1.195105 -0.489125 0.053596 0.399059 0.140646 -0.274692 0.334146 -0.107892 -0.618028 0.249356 -0.049865 -0.363224 -0.097232 -0.675959 1.036353 0.029430 0.558629 -0.141627 -0.298236 -0.560296 -0.748836 -1.011843 -1.218651 0.961701 -0.086220 0.438205 -0.008412 0.232127 -0.071890 -0.514352 0.126071 -0.748321 
HCCDB-4.S213 0.427916 -0.270386 0.070479 -0.012073 -0.018950 -0.655535 0.801921 0.727777 -0.074034 0.104618 -0.016479 0.298533 -0.147772 0.364433 -0.762085 -0.257885 0.283543 -0.971566 -0.060035 -0.615826 -0.133075 0.467633 0.275341 0.823266 -0.004077 -0.157936 -0.135101 -0.198140 0.084974 0.219663 -0.276779 0.368880 0.826485 -0.644497 -0.621381 0.364562 -0.201091 -0.424060 0.013861 -0.484931 0.208242 0.084475 0.420169 -0.417473 -0.069151 -0.156841 0.356757 0.705393 0.080836 0.153000 0.156705 0.143436 -0.141130 -0.123263 0.144660 -0.447383 0.417073 0.096566 -0.220712 0.104024 0.340782 -0.246902 -0.021367 0.171944 0.528206 -0.386154 0.359964 0.050499 -0.093919 0.061421 0.042170 0.480920 0.041124 0.147186 -0.090226 0.299108 -0.036532 -0.655527 0.685596 -0.522907 0.395332 0.238604 -0.205002 -0.534815 -0.457874 -0.301187 -0.214224 -0.172330 0.205462 0.146070 -0.198857 -0.632907 -0.238982 0.017943 0.828910 0.041375 -0.472306 0.086578 0.028697 -0.860164 0.465542 -0.014481 0.168106 -0.223240 -0.077836 0.076887 -0.203783 0.777958 0.059470 -0.145024 0.188043 0.880095 0.256460 0.178548 -0.107222 0.112679 0.132495 -0.497423 0.498455 -0.584869 -0.113996 0.257041 -0.157543 0.266372 -0.161173 0.082025 -0.146694 -0.412504 0.776798 -0.201927 -0.149598 0.071513 -0.179301 0.197765 0.360903 0.253142 -0.569906 -0.089631 0.529725 -0.515537 0.347794 -0.669663 -0.207296 0.225847 -0.311667 -0.031597 0.543272 0.162162 -0.325126 -0.353282 0.559421 -0.146838 0.271451 0.345204 0.537957 0.269798 0.279057 -1.001764 -0.023403 -0.483807 0.132084 -0.249554 -0.115917 -0.083263 0.057313 0.286471 -0.201552 0.689607 -1.126284 -0.471866 0.010130 0.412505 0.273948 -0.357657 0.457333 -0.030759 -0.555259 0.201939 0.061288 -0.286718 -0.239166 -0.753453 0.976874 -0.028279 0.547788 -0.044788 -0.257248 -0.589229 -0.751238 -0.976213 -1.175506 0.932799 -0.009291 0.284492 -0.002270 0.061852 -0.094874 -0.650607 0.149959 -0.730444 
HCCDB-4.S214 0.315349 -0.290982 0.078312 -0.016224 0.008043 -0.697040 0.765450 0.710560 -0.089433 0.067777 -0.088315 0.231643 -0.119935 0.300740 -0.782831 -0.290339 0.260747 -0.951224 -0.015773 -0.556427 -0.124399 0.483628 0.225857 0.806860 -0.099260 -0.204075 -0.057090 -0.281843 0.133207 0.237536 -0.385734 0.403818 0.987054 -0.638909 -0.551861 0.434643 -0.253779 -0.420449 0.065647 -0.506828 0.166585 0.164136 0.426429 -0.462126 -0.076115 -0.005043 0.268080 0.718869 0.009096 0.164842 0.230606 0.232819 -0.027135 -0.055612 0.146114 -0.498314 0.316621 0.088670 -0.190307 0.233184 0.391061 -0.345910 -0.010482 0.131643 0.538506 -0.444477 0.341571 0.100289 -0.102299 0.124578 0.076445 0.500218 -0.069905 0.131352 0.020853 0.312613 0.023972 -0.615300 0.650206 -0.460235 0.354035 0.281359 -0.138891 -0.523453 -0.374878 -0.325844 -0.208675 -0.195051 0.180832 0.099063 -0.379330 -0.556987 -0.265048 -0.022799 0.771425 -0.051554 -0.384184 0.126410 -0.014058 -0.824312 0.436379 -0.079292 0.114395 -0.178708 -0.061658 0.167163 -0.091619 0.773670 0.020015 -0.068123 0.287129 0.741188 0.158467 0.131256 -0.015739 0.059908 0.008355 -0.446946 0.444505 -0.545705 -0.051187 0.274142 -0.163374 0.214104 -0.143785 0.234203 -0.224033 -0.452310 0.671001 -0.342280 -0.185215 0.161288 -0.218260 0.179884 0.289429 0.373018 -0.553370 -0.007235 0.479878 -0.490555 0.380073 -0.572080 -0.169971 0.295805 -0.217913 -0.024387 0.586656 0.076476 -0.263301 -0.445322 0.504674 -0.075635 0.262044 0.343549 0.559680 0.224447 0.281208 -0.994113 -0.021253 -0.521598 0.263717 -0.288291 -0.182853 -0.110183 0.012133 0.273696 -0.150640 0.786301 -1.106082 -0.492278 0.010027 0.442766 0.242379 -0.277019 0.355938 -0.096449 -0.625556 0.260516 -0.011070 -0.311186 -0.120325 -0.756605 0.977576 0.089885 0.519083 -0.073718 -0.328998 -0.593320 -0.771932 -0.984918 -1.175448 0.931909 -0.047350 0.430570 -0.029065 0.210321 -0.100953 -0.530591 0.153452 -0.710668 
HCCDB-4.S215 0.437665 -0.292221 0.066150 -0.045246 0.050941 -0.649541 0.831509 0.674072 -0.135224 0.021246 -0.077932 0.302640 -0.144444 0.371906 -0.820087 -0.299962 0.267779 -0.880076 0.008816 -0.632839 -0.077694 0.470686 0.234568 0.768571 -0.117619 -0.252610 -0.043922 -0.213954 0.142860 0.221822 -0.385169 0.411366 0.968881 -0.568930 -0.616749 0.346321 -0.232230 -0.393238 0.028535 -0.526066 0.135361 0.134312 0.341477 -0.454653 -0.078169 0.003597 0.365636 0.762251 0.020946 0.124225 0.179607 0.219950 -0.011582 -0.040250 0.113597 -0.429552 0.370358 0.119405 -0.219553 0.145423 0.381632 -0.296730 -0.018005 0.161800 0.565944 -0.441326 0.325579 0.092202 -0.164361 0.058132 0.063783 0.481704 0.011270 0.093599 -0.053898 0.317788 -0.065745 -0.631577 0.686301 -0.471697 0.382699 0.271869 -0.208257 -0.476560 -0.415931 -0.320602 -0.137024 -0.191763 0.149876 0.110944 -0.313952 -0.643829 -0.264932 0.016690 0.742122 -0.009010 -0.449693 0.130474 0.021309 -0.798143 0.417067 -0.128471 0.234016 -0.213008 -0.047474 0.064376 -0.132874 0.758378 0.079201 -0.116390 0.251259 0.799632 0.137121 0.125476 -0.014443 0.063396 0.048048 -0.496804 0.418881 -0.604086 -0.122373 0.232310 -0.091300 0.245940 -0.114380 0.176894 -0.212334 -0.473421 0.657017 -0.202496 -0.188500 0.149330 -0.177164 0.214743 0.327476 0.317903 -0.508078 -0.055643 0.491416 -0.496758 0.427391 -0.630673 -0.179778 0.227093 -0.181921 -0.077131 0.610675 0.166116 -0.308467 -0.423374 0.574951 -0.131145 0.337250 0.359396 0.574207 0.330490 0.287590 -1.024478 0.029308 -0.520592 0.238498 -0.265484 -0.161998 -0.084550 0.007779 0.211835 -0.168903 0.711905 -1.163476 -0.527540 0.063441 0.411945 0.253875 -0.354940 0.362372 -0.066449 -0.638903 0.241021 -0.008096 -0.297422 -0.113711 -0.687376 1.007806 0.058790 0.597902 -0.044400 -0.310012 -0.569325 -0.695568 -1.047615 -1.209870 0.946632 -0.059557 0.364114 0.015142 0.157969 -0.089634 -0.540818 0.082367 -0.677405 
HCCDB-4.S216 0.454408 -0.270291 0.152115 -0.003483 -0.053749 -0.679564 0.673911 0.684804 -0.117077 0.084917 -0.041551 0.308659 -0.085323 0.433825 -0.790566 -0.201957 0.289545 -0.996521 0.016194 -0.573710 -0.156255 0.523501 0.229222 0.820746 -0.051465 -0.208678 -0.024971 -0.208033 0.089123 0.212637 -0.347414 0.386681 0.930634 -0.563652 -0.631019 0.329402 -0.253838 -0.436927 0.053970 -0.556865 0.125621 0.199702 0.373783 -0.373986 -0.058903 -0.015916 0.318310 0.728721 0.030926 0.140462 0.176730 0.248565 -0.047547 -0.023010 0.057662 -0.434106 0.354520 0.099754 -0.190083 0.117829 0.327515 -0.280015 0.008490 0.171458 0.595732 -0.416830 0.362390 0.097654 -0.104397 0.117528 0.046236 0.537535 0.052970 0.144756 0.017874 0.332430 0.023877 -0.598772 0.660169 -0.460028 0.338685 0.270220 -0.192849 -0.571567 -0.358353 -0.341279 -0.197844 -0.136085 0.154843 0.076214 -0.320279 -0.612409 -0.305338 -0.025081 0.767151 0.039904 -0.427118 0.108061 0.030993 -0.804881 0.405164 -0.131178 0.150825 -0.202706 -0.098892 0.133498 -0.100842 0.763031 0.003750 -0.091185 0.313254 0.840058 0.167649 0.141653 -0.007800 0.093257 0.024911 -0.413975 0.432527 -0.640765 -0.054627 0.188071 -0.096880 0.233655 -0.128272 0.223005 -0.181638 -0.437596 0.696059 -0.262022 -0.138899 0.170170 -0.185647 0.231199 0.361777 0.410833 -0.506530 -0.034528 0.496258 -0.425800 0.389662 -0.587100 -0.261734 0.266166 -0.216180 -0.055708 0.595259 0.095326 -0.237398 -0.411302 0.474715 -0.079238 0.310999 0.323754 0.630043 0.310839 0.258447 -0.995710 -0.004017 -0.432865 0.228412 -0.251006 -0.159017 -0.082558 -0.023383 0.279880 -0.151815 0.752235 -1.154125 -0.492095 0.091040 0.382371 0.210983 -0.390056 0.388536 -0.104151 -0.607781 0.241377 -0.008394 -0.358024 -0.085289 -0.721793 0.991887 0.136421 0.595120 -0.104350 -0.287273 -0.553033 -0.740569 -0.981123 -1.185523 0.896315 -0.038559 0.409314 -0.051463 0.214611 -0.137364 -0.598956 0.104638 -0.730612 
HCCDB-4.S217 0.383622 -0.308487 0.135540 -0.030133 -0.051517 -0.649219 0.732839 0.655601 -0.098653 0.090650 -0.014253 0.283145 -0.071874 0.392561 -0.788958 -0.234594 0.219820 -1.019278 -0.063691 -0.595292 -0.174900 0.538754 0.181467 0.764337 -0.074606 -0.195608 0.012349 -0.258225 0.163608 0.267151 -0.391667 0.326584 0.973206 -0.569075 -0.610389 0.367856 -0.276906 -0.391066 0.115818 -0.472499 0.121275 0.148303 0.399354 -0.412400 -0.050287 0.009063 0.294627 0.700830 0.008685 0.128431 0.275504 0.243187 -0.015760 -0.038957 0.070528 -0.562313 0.314386 0.113897 -0.269025 0.168778 0.345458 -0.333378 -0.032607 0.090608 0.541273 -0.451624 0.388811 0.061339 -0.112535 0.163917 0.057493 0.513917 -0.016700 0.082792 0.051499 0.292570 0.071130 -0.595999 0.558015 -0.400598 0.404913 0.246175 -0.185110 -0.505350 -0.348826 -0.415583 -0.163141 -0.145806 0.219902 0.071915 -0.420427 -0.669705 -0.266155 -0.042950 0.681867 0.003509 -0.312990 0.117909 -0.047679 -0.785735 0.383620 -0.148528 0.123987 -0.165150 -0.043429 0.170463 -0.116428 0.818465 0.079580 -0.036802 0.286337 0.789889 0.206713 0.093104 -0.007868 0.001775 -0.029273 -0.400183 0.389385 -0.561685 -0.101234 0.216420 -0.146102 0.197950 -0.151496 0.271540 -0.100946 -0.457823 0.688099 -0.346237 -0.213155 0.177829 -0.226180 0.234482 0.310443 0.406258 -0.501203 -0.002260 0.526618 -0.420573 0.375771 -0.521055 -0.283408 0.303851 -0.170463 -0.028667 0.629387 0.094142 -0.271775 -0.386369 0.499992 -0.043858 0.279967 0.358393 0.585499 0.285063 0.183159 -1.041480 0.016996 -0.537876 0.335388 -0.221219 -0.128084 -0.105785 -0.037823 0.262118 -0.190158 0.782618 -1.158168 -0.482233 0.060316 0.397363 0.252090 -0.264187 0.382511 -0.076730 -0.592515 0.280729 -0.066827 -0.326657 -0.092323 -0.643088 1.062683 0.132475 0.529543 -0.099579 -0.345341 -0.574927 -0.821097 -0.983050 -1.170076 0.930088 -0.023459 0.445998 0.010024 0.297073 -0.151563 -0.499083 0.083789 -0.753123 
HCCDB-4.S218 0.339056 -0.359606 0.153503 -0.016863 -0.066185 -0.626989 0.715086 0.724488 -0.019829 0.080972 -0.049421 0.244227 -0.127232 0.335290 -0.767797 -0.231759 0.280144 -0.974918 0.012386 -0.617318 -0.175938 0.450775 0.207748 0.789161 -0.071028 -0.164629 -0.028130 -0.182297 0.140795 0.291346 -0.373317 0.384166 0.980268 -0.592732 -0.595391 0.351643 -0.250711 -0.338973 0.116125 -0.559836 0.135669 0.277118 0.371997 -0.385749 -0.078566 0.025347 0.381478 0.712252 -0.071537 0.114139 0.260591 0.139814 -0.077017 -0.011559 0.168095 -0.500145 0.378320 0.118960 -0.244217 0.224204 0.367330 -0.295807 -0.051008 0.013533 0.595923 -0.416988 0.309986 0.084670 -0.167645 0.061458 0.094694 0.493875 -0.004489 0.104536 -0.011514 0.375634 0.018261 -0.598383 0.599730 -0.502372 0.362947 0.280002 -0.117180 -0.546605 -0.348808 -0.324325 -0.239554 -0.149553 0.183545 0.079977 -0.322459 -0.637316 -0.279365 -0.036735 0.732740 -0.057574 -0.325006 0.091212 0.013889 -0.819504 0.368124 -0.097086 0.152455 -0.164692 -0.076562 0.136727 -0.182774 0.799147 0.036242 -0.090422 0.306194 0.788838 0.168544 0.076635 0.032989 0.034709 0.029173 -0.421688 0.388136 -0.536168 -0.076910 0.199567 -0.064620 0.221906 -0.138504 0.237003 -0.190049 -0.475279 0.638246 -0.271283 -0.184117 0.261482 -0.195044 0.226098 0.389518 0.395234 -0.518812 -0.048227 0.457718 -0.530825 0.349521 -0.550170 -0.268334 0.312543 -0.136725 -0.085919 0.598980 0.089271 -0.336358 -0.411386 0.483688 -0.090367 0.369484 0.382840 0.565644 0.237003 0.271663 -0.994454 -0.008820 -0.579872 0.346938 -0.204262 -0.121722 -0.111890 -0.008803 0.320540 -0.175331 0.769127 -1.127990 -0.473417 0.092883 0.387511 0.188374 -0.350336 0.305823 -0.064778 -0.643033 0.235951 -0.042392 -0.271778 -0.171290 -0.779216 1.044308 0.107615 0.567099 -0.120210 -0.304656 -0.546961 -0.770132 -0.923840 -1.211075 0.959031 -0.047330 0.468254 0.010625 0.261852 -0.091197 -0.566204 0.079740 -0.760257 
HCCDB-4.S219 0.417098 -0.379970 0.106704 -0.032384 -0.012349 -0.641764 0.754547 0.671868 -0.104859 0.037906 -0.067115 0.300614 -0.104892 0.325178 -0.733533 -0.286041 0.166585 -0.928293 -0.013642 -0.566165 -0.029753 0.543562 0.114986 0.782592 -0.104202 -0.233933 -0.069736 -0.260740 0.104920 0.295099 -0.383810 0.317197 0.885988 -0.643939 -0.611037 0.359248 -0.199139 -0.381442 0.120922 -0.456690 0.128258 0.251216 0.439103 -0.459393 -0.113173 -0.002993 0.294414 0.668968 0.029895 0.126594 0.200592 0.135632 -0.122052 -0.068765 0.178494 -0.506172 0.379935 0.062435 -0.228533 0.178188 0.331104 -0.369269 0.051551 0.148570 0.587124 -0.357555 0.340888 0.122255 -0.085241 0.048124 0.146887 0.524550 -0.115029 0.062099 0.078890 0.347566 0.059964 -0.706649 0.621845 -0.472921 0.375899 0.313333 -0.151106 -0.497410 -0.346884 -0.389651 -0.254887 -0.182565 0.238232 0.051140 -0.311633 -0.629846 -0.296287 -0.096450 0.767026 -0.025631 -0.342622 0.161545 -0.028673 -0.847379 0.386416 -0.157491 0.151735 -0.130445 -0.094870 0.121445 -0.172504 0.785263 0.018972 -0.103466 0.314294 0.847364 0.182488 0.065469 -0.012822 0.065560 0.024865 -0.501186 0.464712 -0.561909 -0.036919 0.284358 -0.072929 0.186637 -0.144763 0.310017 -0.168138 -0.437202 0.709016 -0.327359 -0.210447 0.207485 -0.208112 0.166361 0.382061 0.337480 -0.567833 -0.007139 0.466332 -0.451849 0.363330 -0.503196 -0.224805 0.268121 -0.186477 -0.090358 0.539136 0.029989 -0.281609 -0.415935 0.528769 -0.062189 0.295851 0.347602 0.623008 0.358730 0.172941 -0.977921 -0.016794 -0.485206 0.284647 -0.220270 -0.164836 -0.135821 -0.004733 0.291964 -0.195331 0.752658 -1.141832 -0.494410 0.038391 0.416297 0.198532 -0.271917 0.294834 -0.074986 -0.607344 0.268055 -0.005659 -0.289326 -0.102008 -0.741857 0.962006 0.085480 0.499835 -0.166202 -0.281557 -0.598082 -0.808774 -0.931672 -1.195329 0.941915 -0.087259 0.396239 0.017823 0.224884 -0.068111 -0.508902 0.076706 -0.805593 
HCCDB-4.S220 0.330174 -0.282176 0.127235 0.054383 -0.039234 -0.608194 0.766498 0.640695 -0.101450 0.080273 -0.134724 0.205087 -0.114819 0.285406 -0.802409 -0.286700 0.224158 -0.964477 0.012729 -0.541374 -0.106873 0.526480 0.219851 0.832399 -0.177941 -0.170187 -0.041628 -0.226895 0.195331 0.263082 -0.365495 0.390337 0.949603 -0.590193 -0.566329 0.486727 -0.282482 -0.352346 0.095660 -0.499421 0.115997 0.188764 0.407426 -0.393369 -0.087936 -0.016853 0.343449 0.724293 0.017026 0.090139 0.250958 0.167997 -0.098926 -0.044367 0.117642 -0.521181 0.346405 0.096450 -0.221805 0.231004 0.356969 -0.383400 0.014476 0.098242 0.577002 -0.460994 0.357271 0.104473 -0.161392 0.089708 0.119711 0.522685 -0.037569 0.097384 0.034814 0.352105 0.006316 -0.595822 0.663774 -0.438957 0.371433 0.300884 -0.204985 -0.484250 -0.321255 -0.382232 -0.258315 -0.125942 0.245156 0.107937 -0.412327 -0.643669 -0.223476 0.007346 0.713474 -0.051965 -0.288800 0.139556 -0.029178 -0.746923 0.319751 -0.080184 0.089048 -0.184245 -0.048163 0.086937 -0.137878 0.796211 0.042853 -0.087817 0.363009 0.746129 0.123174 0.045067 0.034956 -0.004406 0.019771 -0.416058 0.411923 -0.598439 0.016237 0.301864 -0.113688 0.187996 -0.124181 0.229989 -0.171793 -0.408922 0.736800 -0.301558 -0.226285 0.199912 -0.210750 0.239130 0.336853 0.333615 -0.511743 -0.046807 0.484103 -0.515258 0.376838 -0.523135 -0.221761 0.345243 -0.168515 -0.078184 0.540796 0.078413 -0.265041 -0.437651 0.467076 -0.068227 0.283168 0.367795 0.587831 0.308484 0.146936 -1.063390 -0.022835 -0.530784 0.270680 -0.275196 -0.225496 -0.087635 -0.027940 0.305001 -0.120716 0.837053 -1.162260 -0.495623 0.047718 0.414561 0.235530 -0.280047 0.327390 -0.096185 -0.596695 0.275222 -0.074357 -0.351701 -0.145912 -0.708694 1.026497 0.035596 0.510578 -0.180631 -0.333591 -0.619055 -0.753664 -0.934937 -1.212401 0.902624 -0.065397 0.385955 0.002065 0.297603 -0.110274 -0.468987 0.116931 -0.819915 
HCCDB-4.S221 0.382240 -0.245180 0.041644 -0.030905 -0.013230 -0.644463 0.785966 0.732479 -0.110438 0.034419 -0.087838 0.274732 -0.131161 0.291363 -0.717875 -0.253074 0.270173 -0.907583 -0.089917 -0.581165 -0.098456 0.472745 0.255264 0.861737 -0.074746 -0.183442 -0.104856 -0.236564 0.090608 0.182721 -0.355124 0.313886 0.896529 -0.600797 -0.569577 0.328534 -0.222005 -0.426650 0.025251 -0.471303 0.164266 0.146256 0.402037 -0.436191 -0.109540 -0.050425 0.314187 0.712310 0.026643 0.130294 0.204827 0.191655 -0.066911 -0.105916 0.172983 -0.457995 0.391159 0.156034 -0.237163 0.136737 0.366766 -0.351266 0.023924 0.185012 0.547217 -0.394155 0.332319 0.058444 -0.159984 0.091313 0.079828 0.473972 -0.008791 0.089615 -0.012654 0.330101 -0.019237 -0.670910 0.667148 -0.497700 0.370149 0.245326 -0.228363 -0.502266 -0.428632 -0.371202 -0.290644 -0.149362 0.175873 0.131466 -0.295340 -0.695914 -0.225969 -0.017714 0.766972 -0.027468 -0.394412 0.071369 -0.018324 -0.815556 0.433236 -0.100554 0.099845 -0.195972 -0.057086 0.122215 -0.193748 0.812376 0.050538 -0.193262 0.242815 0.814707 0.185300 0.098718 -0.064096 0.050512 0.073383 -0.515217 0.392307 -0.552223 -0.096975 0.240933 -0.104979 0.229610 -0.195816 0.112184 -0.187766 -0.385984 0.718742 -0.305535 -0.163211 0.187663 -0.201359 0.177123 0.316803 0.291428 -0.567116 -0.094549 0.491137 -0.426682 0.387180 -0.659127 -0.219751 0.281621 -0.252919 -0.090631 0.557143 0.063836 -0.338115 -0.457049 0.536621 -0.071490 0.270934 0.346175 0.615895 0.321009 0.283634 -1.031381 -0.020461 -0.530178 0.229916 -0.236299 -0.172576 -0.032784 0.038340 0.293555 -0.124351 0.718286 -1.132275 -0.485892 0.025005 0.402418 0.226285 -0.365160 0.389414 -0.056204 -0.605585 0.271788 0.032410 -0.255098 -0.171676 -0.772535 0.976782 0.046152 0.566843 -0.099722 -0.244055 -0.552878 -0.750357 -0.995327 -1.229637 0.896613 -0.027565 0.410323 0.012937 0.241219 -0.101343 -0.533547 0.087164 -0.824972 
HCCDB-4.S222 0.340945 -0.360155 0.184102 -0.112204 -0.003865 -0.588320 0.757493 0.729979 -0.076138 0.131023 -0.076467 0.248221 -0.125082 0.288524 -0.764996 -0.268916 0.314993 -0.903248 -0.045191 -0.565717 -0.100638 0.525094 0.205866 0.783183 -0.107946 -0.225443 -0.024874 -0.189074 0.231430 0.251339 -0.338594 0.397584 0.904761 -0.578222 -0.666814 0.405370 -0.208830 -0.407849 0.132774 -0.481137 0.159178 0.197080 0.363238 -0.387535 -0.115572 0.020826 0.313529 0.726071 0.043866 0.067898 0.233952 0.187181 -0.125333 0.038050 0.116445 -0.578266 0.348410 0.116956 -0.240454 0.203559 0.366693 -0.319503 -0.050861 0.119349 0.497828 -0.404119 0.353958 0.089187 -0.099000 0.123230 0.097865 0.499200 -0.101913 0.179035 0.067562 0.369519 0.031956 -0.680069 0.591081 -0.437179 0.310853 0.279020 -0.176101 -0.549814 -0.425281 -0.381004 -0.275855 -0.236748 0.184941 0.032932 -0.340074 -0.691480 -0.233727 -0.032585 0.785841 -0.031637 -0.318299 0.143733 -0.037090 -0.809427 0.373296 -0.134179 0.093395 -0.149966 -0.142877 0.102412 -0.189577 0.817067 -0.010091 -0.043593 0.291273 0.771169 0.139626 0.080342 -0.005053 0.068285 0.041492 -0.469572 0.433104 -0.577635 -0.055929 0.231221 -0.086273 0.246916 -0.163481 0.271268 -0.095069 -0.432345 0.684944 -0.339641 -0.170445 0.227317 -0.307501 0.221256 0.331011 0.361432 -0.551022 -0.037989 0.396871 -0.494427 0.340885 -0.572629 -0.230842 0.307039 -0.139372 -0.042733 0.498004 0.075057 -0.308181 -0.413550 0.479109 -0.086975 0.318533 0.385492 0.565348 0.239719 0.199014 -1.024651 -0.023675 -0.529390 0.282167 -0.298151 -0.183710 -0.121863 -0.011462 0.340657 -0.199552 0.788471 -1.142148 -0.474006 0.079498 0.386159 0.187010 -0.284747 0.433587 -0.058874 -0.553009 0.253113 -0.025031 -0.274530 -0.193073 -0.724187 0.970292 0.115199 0.537262 -0.116329 -0.271792 -0.651964 -0.787365 -0.982927 -1.207713 0.988163 -0.087909 0.473606 0.026277 0.263960 -0.037001 -0.534242 0.049044 -0.738919 
HCCDB-4.S223 0.319304 -0.304139 0.179247 -0.005205 -0.066958 -0.543060 0.724281 0.708082 -0.030470 0.122471 -0.045847 0.226723 -0.100869 0.247647 -0.755985 -0.244394 0.233045 -0.985896 -0.021234 -0.574018 -0.147012 0.495680 0.169710 0.774910 -0.085131 -0.215153 -0.029716 -0.263660 0.176204 0.270981 -0.335416 0.382200 0.969720 -0.551724 -0.662156 0.426429 -0.235571 -0.357496 0.085634 -0.481743 0.171449 0.320077 0.375662 -0.384278 -0.050977 0.008690 0.333414 0.704416 0.005813 0.089114 0.262486 0.203984 -0.070979 -0.034645 0.218350 -0.511683 0.376713 0.148114 -0.208085 0.284726 0.326119 -0.415791 -0.015263 0.139048 0.536050 -0.432435 0.374481 0.128407 -0.157591 0.093075 0.140393 0.458906 -0.029357 0.101840 0.015862 0.305613 0.053267 -0.639194 0.698383 -0.458171 0.359218 0.295303 -0.156852 -0.561764 -0.364515 -0.359212 -0.297556 -0.185994 0.222776 0.093843 -0.369522 -0.579693 -0.264490 -0.040437 0.786160 -0.071909 -0.307228 0.082490 -0.037663 -0.794126 0.392750 -0.196109 0.125009 -0.205496 -0.043479 0.107416 -0.153502 0.789407 0.008479 -0.057069 0.310889 0.742906 0.156646 0.073922 0.013790 -0.030586 0.012109 -0.483827 0.415308 -0.576638 -0.000327 0.235855 -0.101460 0.239708 -0.096432 0.238437 -0.150845 -0.442637 0.687072 -0.393978 -0.217236 0.212549 -0.212501 0.241727 0.399887 0.365102 -0.536447 -0.004057 0.499955 -0.491523 0.335698 -0.576792 -0.242827 0.324536 -0.122534 -0.120156 0.601965 0.065060 -0.285758 -0.391040 0.447184 -0.079090 0.362128 0.370619 0.541960 0.308270 0.182896 -1.051969 -0.005834 -0.553567 0.250373 -0.218853 -0.121263 -0.079612 -0.038667 0.316925 -0.175668 0.757708 -1.130397 -0.451472 -0.006121 0.373853 0.154719 -0.295997 0.408937 -0.098975 -0.579339 0.262013 -0.039285 -0.347821 -0.170437 -0.738929 1.004337 0.102928 0.496044 -0.137940 -0.291299 -0.564773 -0.818931 -0.940659 -1.227319 0.915186 -0.099329 0.450964 -0.002575 0.312506 -0.037730 -0.467610 0.118176 -0.797557 
HCCDB-4.S224 0.388878 -0.148801 0.048751 -0.060390 0.044786 -0.739693 0.824881 0.690375 -0.088737 0.064183 -0.074150 0.363647 -0.104972 0.340148 -0.787621 -0.214323 0.293397 -0.902799 -0.020785 -0.613170 -0.142906 0.478946 0.302712 0.795704 0.016021 -0.279802 -0.102188 -0.244656 0.000100 0.175558 -0.358706 0.321197 0.876125 -0.555950 -0.580567 0.300610 -0.204717 -0.438313 0.058650 -0.490270 0.102160 0.144590 0.356634 -0.392727 -0.091995 -0.086613 0.345834 0.703720 0.130464 0.049928 0.167352 0.211226 -0.109368 -0.051613 0.120746 -0.414130 0.367451 0.162571 -0.240864 0.159368 0.321378 -0.182272 0.008203 0.186370 0.522536 -0.412530 0.344842 0.039213 -0.072594 0.052025 0.107362 0.480811 0.037112 0.097498 -0.051797 0.331171 0.003163 -0.616029 0.690579 -0.489041 0.357705 0.278411 -0.237801 -0.590654 -0.440370 -0.351148 -0.247577 -0.138686 0.200568 0.046092 -0.148640 -0.650840 -0.252787 -0.017231 0.768741 0.000235 -0.396361 0.117859 0.056212 -0.823989 0.447163 -0.054221 0.119893 -0.226390 -0.064649 0.147793 -0.110079 0.858934 0.069184 -0.087440 0.284427 0.909204 0.265711 0.075414 -0.127826 0.098185 0.167707 -0.463352 0.484146 -0.532377 -0.033136 0.265498 -0.050605 0.284433 -0.206660 0.173078 -0.169798 -0.380975 0.792967 -0.299441 -0.240462 0.100065 -0.163128 0.141254 0.306118 0.268745 -0.634008 0.001315 0.504101 -0.407457 0.380073 -0.657563 -0.129726 0.285777 -0.306676 -0.093353 0.514384 0.086383 -0.406708 -0.413881 0.475000 -0.135026 0.251143 0.254976 0.532074 0.268348 0.316328 -1.042935 -0.007554 -0.503418 0.258690 -0.261556 -0.118412 -0.091360 -0.005370 0.332369 -0.198714 0.701735 -1.088428 -0.501527 0.046648 0.456446 0.350251 -0.367800 0.353157 -0.001054 -0.574861 0.320122 0.020038 -0.262857 -0.164030 -0.736293 0.944670 0.011533 0.525775 -0.066400 -0.150892 -0.537603 -0.783272 -1.026764 -1.193805 0.929292 -0.030903 0.376917 -0.072823 0.173308 -0.152637 -0.565987 0.111617 -0.784958 
HCCDB-4.S225 0.460652 -0.229201 0.160525 -0.003266 -0.009556 -0.679320 0.760737 0.699858 -0.021916 0.070576 0.018420 0.298515 -0.069963 0.325459 -0.719133 -0.173073 0.334241 -0.982769 0.026126 -0.606143 -0.096776 0.547864 0.188771 0.717692 -0.075362 -0.181737 -0.049023 -0.198221 0.119843 0.220336 -0.366081 0.382726 0.915632 -0.596126 -0.600224 0.385337 -0.247255 -0.404148 0.132935 -0.482809 0.106363 0.245154 0.344811 -0.438225 -0.063369 -0.019461 0.342237 0.748472 0.035057 0.090942 0.276572 0.160400 -0.074888 -0.008137 0.099826 -0.506769 0.342355 0.072410 -0.143243 0.190895 0.242622 -0.371317 -0.011921 0.104319 0.584038 -0.417981 0.394603 0.146332 -0.058124 0.144517 0.174867 0.468212 -0.060260 0.124918 0.047152 0.306725 0.070354 -0.649096 0.695989 -0.462141 0.357259 0.226054 -0.129613 -0.624312 -0.379445 -0.420604 -0.242315 -0.167082 0.200120 0.086339 -0.337437 -0.611223 -0.201548 -0.052165 0.712246 -0.090880 -0.266872 0.173828 0.065424 -0.789166 0.383928 -0.154284 0.176625 -0.149088 -0.056428 0.063410 -0.084074 0.795238 0.089221 -0.068364 0.283071 0.882954 0.153559 0.100929 -0.009061 -0.035819 0.063161 -0.436254 0.382069 -0.664386 -0.022734 0.189481 -0.114764 0.227837 -0.114627 0.236788 -0.116983 -0.424843 0.695399 -0.324449 -0.244474 0.120831 -0.296786 0.235115 0.315949 0.375899 -0.590295 0.015942 0.424189 -0.444338 0.297764 -0.509559 -0.215105 0.301071 -0.219067 -0.058263 0.492035 0.055679 -0.313763 -0.379078 0.440424 -0.040912 0.178593 0.344462 0.608492 0.303192 0.230575 -1.105566 -0.021338 -0.482821 0.223427 -0.281660 -0.195415 -0.157654 -0.019113 0.353773 -0.288189 0.749748 -1.119337 -0.485154 0.020384 0.385298 0.169764 -0.367795 0.355855 -0.173031 -0.576375 0.215386 -0.085459 -0.340233 -0.190974 -0.777318 0.975754 0.098621 0.506637 -0.071759 -0.332202 -0.535669 -0.819067 -1.028143 -1.169911 0.953483 -0.044392 0.483490 -0.019609 0.209600 -0.085783 -0.514270 0.100656 -0.775588 
HCCDB-4.S226 0.386129 -0.317788 0.128439 -0.039606 0.065781 -0.628372 0.835305 0.658704 -0.102097 0.055734 -0.075004 0.257531 -0.117679 0.366502 -0.755088 -0.225659 0.237451 -0.994951 -0.018664 -0.557516 -0.151916 0.423200 0.186396 0.783413 -0.087232 -0.136263 -0.047898 -0.278211 0.165520 0.240557 -0.411749 0.315816 0.954755 -0.605304 -0.552958 0.387717 -0.237559 -0.346780 0.122035 -0.531146 0.176891 0.178586 0.367208 -0.395216 -0.129501 -0.023158 0.199266 0.726888 0.058090 0.173439 0.238699 0.171636 -0.050361 0.018515 0.140154 -0.489435 0.318480 0.118814 -0.222425 0.173130 0.259147 -0.379174 -0.048622 0.118882 0.556227 -0.403442 0.310840 0.125865 -0.058201 0.052681 -0.028241 0.483699 0.038191 0.142680 0.056002 0.356915 0.059524 -0.701538 0.609093 -0.489717 0.392703 0.282789 -0.147097 -0.591317 -0.344296 -0.347476 -0.167621 -0.173800 0.185367 0.062661 -0.392042 -0.628253 -0.304439 0.033745 0.730912 0.005077 -0.364256 0.167913 0.007437 -0.831707 0.407178 -0.159884 0.081442 -0.145307 -0.046662 0.122194 -0.106421 0.812674 0.062604 -0.085665 0.264139 0.817371 0.179029 0.151565 -0.037766 0.044554 0.003078 -0.425878 0.498789 -0.608527 -0.123994 0.240790 -0.110745 0.238158 -0.099713 0.257891 -0.176194 -0.397942 0.718981 -0.252006 -0.227045 0.147196 -0.169867 0.136490 0.377710 0.353844 -0.534935 0.009852 0.541443 -0.443363 0.350233 -0.451340 -0.222853 0.254541 -0.271211 0.026007 0.538795 0.049016 -0.310446 -0.397010 0.488724 0.004030 0.275061 0.341559 0.594141 0.299046 0.295707 -0.954844 0.049529 -0.557922 0.295268 -0.281538 -0.174504 -0.089851 -0.096827 0.287820 -0.248059 0.780976 -1.137318 -0.452552 0.074150 0.459749 0.277684 -0.261241 0.432326 -0.068260 -0.601824 0.272274 -0.026246 -0.336929 -0.152370 -0.678103 0.938691 0.086403 0.474309 -0.108973 -0.341940 -0.622233 -0.764694 -0.942307 -1.227990 0.830224 0.011816 0.406824 -0.037019 0.259828 -0.117279 -0.511329 0.118256 -0.740639 
HCCDB-4.S227 0.375228 -0.263671 0.057124 -0.020853 0.027261 -0.604358 0.702435 0.683164 -0.074646 0.043680 -0.023595 0.259236 -0.107606 0.301597 -0.727509 -0.253434 0.282504 -1.016996 -0.015863 -0.572054 -0.064345 0.485544 0.234001 0.750274 -0.123400 -0.134589 -0.078311 -0.166297 0.148874 0.221115 -0.372721 0.399739 0.917579 -0.647497 -0.553939 0.375871 -0.259570 -0.387491 0.078163 -0.506938 0.148052 0.227844 0.387784 -0.419746 -0.117484 0.032943 0.305292 0.717081 -0.008194 0.142328 0.278910 0.248113 0.022510 0.004689 0.149794 -0.534549 0.359769 0.149524 -0.242692 0.127431 0.372993 -0.342610 -0.001628 0.079520 0.593333 -0.399180 0.325776 0.112994 -0.155837 0.162683 0.102148 0.532881 -0.039606 0.191599 0.072679 0.314912 0.040719 -0.689514 0.670377 -0.431158 0.334896 0.303437 -0.212368 -0.491795 -0.402582 -0.392603 -0.199744 -0.239216 0.196709 0.057892 -0.332558 -0.630266 -0.293124 -0.019954 0.754039 0.042123 -0.406624 0.160068 -0.017394 -0.836487 0.343658 -0.147022 0.154008 -0.218165 -0.063837 0.089613 -0.139037 0.751532 0.077538 -0.056944 0.279929 0.759752 0.139694 0.076101 -0.016150 0.028344 0.034370 -0.489470 0.443760 -0.616616 -0.085724 0.265457 -0.124517 0.182908 -0.111797 0.297289 -0.133164 -0.491534 0.622618 -0.271058 -0.239302 0.168589 -0.209634 0.190425 0.350802 0.388608 -0.514273 -0.011728 0.481770 -0.436491 0.328521 -0.518456 -0.198191 0.258213 -0.258355 -0.076349 0.643331 0.151821 -0.291433 -0.434526 0.500025 -0.019858 0.307821 0.328879 0.614317 0.320270 0.202905 -1.043189 0.105891 -0.553329 0.270822 -0.220516 -0.176901 -0.144025 -0.041779 0.308188 -0.188568 0.757369 -1.180717 -0.507008 0.122851 0.407258 0.224031 -0.271209 0.363409 -0.098997 -0.620095 0.277557 0.018170 -0.329216 -0.154778 -0.652597 1.006400 0.109309 0.560632 -0.042503 -0.334018 -0.613509 -0.766709 -0.984603 -1.171561 0.969472 -0.102304 0.392850 0.054337 0.268706 -0.138978 -0.495112 0.073077 -0.750226 
HCCDB-4.S228 0.401220 -0.378030 0.153995 -0.061791 0.003409 -0.654104 0.702106 0.704771 -0.156871 0.100472 -0.031778 0.245145 -0.101308 0.324372 -0.744783 -0.280893 0.304921 -0.898544 0.024872 -0.587938 -0.065407 0.573577 0.231950 0.791750 -0.114114 -0.206049 -0.069802 -0.239762 0.171136 0.217353 -0.304419 0.373669 0.896661 -0.605167 -0.639705 0.433646 -0.275303 -0.342378 0.133476 -0.429445 0.122008 0.161606 0.364047 -0.401097 -0.071556 0.014227 0.316636 0.785306 -0.006764 0.136840 0.270830 0.192595 -0.035868 0.015007 0.083545 -0.538555 0.355406 0.104147 -0.172045 0.135213 0.373227 -0.292624 -0.028143 0.062913 0.542518 -0.428197 0.343157 0.065172 -0.088620 0.091067 0.135695 0.458576 0.000271 0.138108 0.057808 0.290582 0.027099 -0.635328 0.608137 -0.468770 0.361422 0.280373 -0.158504 -0.560695 -0.433104 -0.364907 -0.249545 -0.124987 0.175447 0.026075 -0.348322 -0.625078 -0.256165 -0.030181 0.796524 -0.096059 -0.351088 0.143784 0.008195 -0.844107 0.374014 -0.122182 0.175497 -0.127770 -0.091465 0.035215 -0.121582 0.831464 0.007614 -0.057160 0.261884 0.791095 0.178995 0.065046 -0.054336 -0.009246 0.010990 -0.564209 0.462915 -0.566757 0.005025 0.260551 -0.102489 0.200886 -0.146015 0.273535 -0.131286 -0.489525 0.656963 -0.253521 -0.187572 0.158780 -0.218048 0.270705 0.394688 0.400905 -0.556192 -0.059471 0.445315 -0.457534 0.343564 -0.570421 -0.221935 0.280157 -0.224572 -0.049595 0.559876 0.053264 -0.278551 -0.440090 0.465960 -0.089459 0.298732 0.318309 0.599729 0.309441 0.208815 -1.064244 0.018691 -0.549542 0.247729 -0.290219 -0.219003 -0.141989 -0.032082 0.326832 -0.131295 0.720191 -1.125791 -0.541088 0.075666 0.426900 0.197129 -0.278618 0.340454 -0.087681 -0.593580 0.246226 -0.030349 -0.261346 -0.099937 -0.718736 1.025948 0.069744 0.526999 -0.036590 -0.326002 -0.546850 -0.810750 -0.961419 -1.266017 0.912204 -0.094195 0.415834 0.015867 0.240830 -0.074901 -0.493094 0.113860 -0.757116 
HCCDB-4.S229 0.343904 -0.401449 0.105580 -0.015627 0.005065 -0.632487 0.758424 0.706130 -0.105680 0.078329 -0.067259 0.220984 -0.144355 0.290152 -0.703809 -0.252848 0.228443 -0.978234 -0.054169 -0.623648 -0.096916 0.430905 0.225787 0.834231 -0.107361 -0.178989 -0.051114 -0.236486 0.206972 0.241019 -0.366096 0.356260 0.949049 -0.624598 -0.525468 0.394749 -0.267815 -0.360974 0.078457 -0.427569 0.195922 0.206665 0.369151 -0.386371 -0.071580 -0.027460 0.265547 0.665707 0.059328 0.209899 0.258168 0.185419 -0.006989 0.008529 0.138310 -0.437348 0.298841 0.092627 -0.239874 0.141559 0.332591 -0.369078 -0.009850 0.072249 0.597877 -0.452741 0.325976 0.046228 -0.079379 0.099299 0.049427 0.480309 -0.015600 0.162432 0.006424 0.301550 0.077957 -0.672436 0.610723 -0.460228 0.373942 0.236291 -0.133234 -0.503737 -0.339160 -0.340098 -0.281109 -0.173915 0.172678 0.068048 -0.355845 -0.654664 -0.274227 0.033360 0.783098 0.017483 -0.359948 0.102485 -0.003299 -0.815581 0.346807 -0.101102 0.119548 -0.152640 -0.072538 0.142456 -0.233173 0.811651 0.038727 -0.055718 0.276824 0.790810 0.167899 0.115410 -0.064381 0.015790 0.002191 -0.461413 0.470133 -0.622823 -0.100672 0.264174 -0.126975 0.210615 -0.151520 0.255091 -0.135415 -0.455232 0.740524 -0.308965 -0.185672 0.212592 -0.136514 0.149318 0.365812 0.373998 -0.538711 0.000190 0.485743 -0.488514 0.326452 -0.538241 -0.243286 0.259737 -0.217843 -0.083844 0.522471 0.097869 -0.334884 -0.424960 0.437435 -0.018076 0.300981 0.448074 0.575328 0.283148 0.213880 -0.936660 -0.011366 -0.543575 0.299259 -0.221637 -0.132249 -0.085667 -0.016060 0.324037 -0.164111 0.836328 -1.171445 -0.488730 0.059880 0.496863 0.228468 -0.246401 0.432123 -0.013809 -0.638715 0.257938 0.019382 -0.264940 -0.170422 -0.767505 0.961709 0.091827 0.554599 -0.058326 -0.334679 -0.585477 -0.834563 -0.950753 -1.219517 0.912347 -0.042528 0.361454 0.024831 0.276664 -0.068870 -0.463013 0.161106 -0.756552 
HCCDB-4.S230 0.415518 -0.303812 0.124136 -0.026131 0.006955 -0.649282 0.786324 0.723060 -0.049529 0.141681 -0.085012 0.274420 -0.095428 0.362209 -0.792327 -0.320763 0.288721 -0.939222 -0.015194 -0.569903 -0.214970 0.422011 0.237327 0.807052 -0.075113 -0.184138 -0.039683 -0.223574 0.104454 0.181731 -0.286172 0.397619 0.899240 -0.556768 -0.668206 0.378521 -0.209958 -0.427993 0.046701 -0.515298 0.139256 0.174148 0.355126 -0.383358 -0.030715 -0.053851 0.354892 0.697489 0.052999 0.039806 0.237771 0.163906 -0.084455 -0.068349 0.121000 -0.479717 0.425055 0.142387 -0.231822 0.176481 0.422618 -0.280193 -0.022732 0.110608 0.552112 -0.454161 0.329022 0.063165 -0.125114 0.075689 0.083488 0.459844 0.004342 0.059334 -0.042600 0.323068 -0.017731 -0.564954 0.665015 -0.428294 0.377238 0.269638 -0.098057 -0.599941 -0.391125 -0.388734 -0.223735 -0.182157 0.188904 0.131392 -0.299665 -0.644453 -0.297393 -0.020246 0.771374 -0.004539 -0.400661 0.061454 0.015850 -0.797952 0.419794 -0.097711 0.159780 -0.127110 -0.059400 0.091164 -0.165466 0.748660 0.002036 -0.124349 0.285579 0.825002 0.232541 0.141272 0.016486 0.075918 0.052140 -0.497627 0.405064 -0.627936 -0.098740 0.245152 -0.121020 0.243237 -0.160797 0.146692 -0.178440 -0.417543 0.744794 -0.280288 -0.163677 0.154794 -0.204653 0.201308 0.362473 0.361968 -0.601483 -0.077787 0.471525 -0.526753 0.379222 -0.612139 -0.223005 0.238125 -0.184029 0.003587 0.566975 0.072021 -0.291007 -0.427788 0.514706 -0.124422 0.359595 0.319493 0.588516 0.246911 0.255322 -0.992209 0.039993 -0.490217 0.236468 -0.274383 -0.128919 -0.050032 0.002494 0.320168 -0.137546 0.745051 -1.121099 -0.495007 0.013493 0.417707 0.153142 -0.338270 0.330369 -0.073591 -0.663648 0.228950 -0.007178 -0.243413 -0.185690 -0.733002 0.973343 0.033076 0.587249 -0.103837 -0.297117 -0.560936 -0.721439 -0.978481 -1.243886 0.897429 -0.000097 0.395323 -0.077820 0.125817 -0.098238 -0.573445 0.069925 -0.755743 
HCCDB-4.S231 0.394061 -0.293233 0.090734 -0.013682 0.062181 -0.713542 0.757582 0.760160 -0.082629 -0.000133 -0.052786 0.271880 -0.116869 0.331418 -0.788609 -0.232112 0.244815 -0.902377 -0.076268 -0.537016 -0.046366 0.465997 0.292261 0.836734 -0.071571 -0.180969 -0.085782 -0.184275 0.138973 0.199791 -0.345859 0.386382 0.897299 -0.649656 -0.569313 0.380014 -0.207434 -0.394638 0.066302 -0.441691 0.145955 0.224508 0.359523 -0.390924 -0.069963 -0.045550 0.351724 0.663987 0.050420 0.134134 0.225918 0.240829 -0.070233 -0.052564 0.176163 -0.546345 0.389081 0.098131 -0.277262 0.176715 0.355475 -0.284433 0.011086 0.115355 0.523743 -0.441963 0.383818 0.097215 -0.115708 0.081194 0.076104 0.532869 -0.027663 0.140025 -0.011722 0.337736 0.031981 -0.618408 0.665470 -0.451715 0.365135 0.253642 -0.161720 -0.531806 -0.377211 -0.365936 -0.260524 -0.150456 0.164180 0.080414 -0.338970 -0.611844 -0.227713 0.063027 0.692404 -0.007345 -0.369781 0.133816 0.028726 -0.830968 0.387868 -0.127574 0.142608 -0.167385 -0.054385 0.053200 -0.189360 0.753173 0.085901 -0.056189 0.257024 0.777398 0.153309 0.070138 -0.066755 0.068304 0.049948 -0.515777 0.417153 -0.599468 -0.062252 0.262477 -0.092227 0.232550 -0.113326 0.177888 -0.214884 -0.456804 0.723795 -0.303424 -0.196424 0.151952 -0.254819 0.154233 0.335305 0.305317 -0.498859 -0.043218 0.507877 -0.532489 0.425024 -0.575220 -0.196771 0.268760 -0.272199 -0.045941 0.568746 0.101515 -0.308928 -0.460539 0.524348 -0.116041 0.332959 0.295351 0.564642 0.192801 0.260246 -1.061281 0.099560 -0.475641 0.250723 -0.242395 -0.138254 -0.121984 -0.024290 0.283269 -0.182503 0.695816 -1.135880 -0.505088 0.037855 0.438150 0.220172 -0.335781 0.398779 -0.063321 -0.659819 0.242862 0.010980 -0.338356 -0.201489 -0.755547 0.991204 0.069844 0.572075 -0.088088 -0.260168 -0.628515 -0.739614 -0.943090 -1.223196 0.923368 -0.064787 0.453466 0.013736 0.217002 -0.154600 -0.531149 0.130342 -0.728027 
HCCDB-4.S232 0.417181 -0.229470 0.022598 -0.026324 0.061476 -0.616766 0.843675 0.692337 -0.170257 0.042756 -0.063635 0.279296 -0.108241 0.359434 -0.802747 -0.244122 0.293786 -0.932716 0.008053 -0.640919 -0.181834 0.437102 0.249696 0.837383 -0.062209 -0.195483 -0.081749 -0.187688 0.065943 0.204270 -0.301639 0.358626 0.959761 -0.572984 -0.654611 0.361984 -0.214620 -0.459891 0.082446 -0.499872 0.130531 0.088277 0.334832 -0.377923 -0.073198 -0.183773 0.304721 0.781673 0.113204 0.093350 0.169455 0.169060 -0.170920 -0.072572 0.080688 -0.414720 0.353784 0.125655 -0.210636 0.204273 0.334193 -0.242147 -0.075625 0.189073 0.521508 -0.374806 0.439083 0.085851 0.006932 0.054942 0.122701 0.476332 0.063117 0.113840 -0.132128 0.359877 -0.004871 -0.677149 0.619329 -0.457770 0.434928 0.270017 -0.181221 -0.547406 -0.409227 -0.356117 -0.209212 -0.160146 0.125715 0.131344 -0.286644 -0.664602 -0.255752 -0.046115 0.755064 0.024718 -0.442255 0.088788 0.011879 -0.818334 0.456099 -0.011315 0.139862 -0.202823 -0.083052 0.183849 -0.151106 0.766600 0.046232 -0.139435 0.289798 0.867642 0.253432 0.163231 -0.077356 0.106468 0.161546 -0.446164 0.466967 -0.575623 -0.098217 0.292146 -0.135407 0.253031 -0.156101 0.097105 -0.130095 -0.443085 0.787899 -0.246552 -0.236310 0.054582 -0.200174 0.188572 0.370939 0.283478 -0.594502 -0.065616 0.514011 -0.451057 0.407316 -0.677767 -0.185434 0.244100 -0.262564 -0.046461 0.603993 0.131076 -0.348454 -0.458025 0.554075 -0.085210 0.274496 0.243675 0.572164 0.340120 0.320922 -1.024967 -0.069205 -0.458342 0.254385 -0.258501 -0.163815 -0.055578 0.049076 0.277582 -0.163432 0.712596 -1.072366 -0.459942 0.014100 0.490887 0.341131 -0.352975 0.448371 -0.055464 -0.634610 0.260665 -0.009728 -0.276481 -0.157283 -0.681448 0.930986 0.052779 0.528988 -0.051931 -0.202661 -0.549393 -0.715385 -0.973227 -1.188317 0.847444 -0.028208 0.347814 -0.033667 0.105533 -0.045077 -0.656210 0.121871 -0.765070 
HCCDB-4.S233 0.381222 -0.328250 0.110694 -0.025491 -0.003753 -0.663824 0.743076 0.711562 -0.100323 0.022266 -0.037253 0.281325 -0.078720 0.356289 -0.716763 -0.309498 0.276571 -1.001086 -0.056726 -0.602925 -0.175173 0.477567 0.227851 0.803184 -0.079333 -0.184974 -0.059984 -0.208903 0.110847 0.138374 -0.374002 0.362094 0.948068 -0.575844 -0.567218 0.348413 -0.263336 -0.361313 0.060694 -0.581652 0.148701 0.199534 0.343887 -0.398387 -0.106424 0.032820 0.337834 0.762314 0.036901 0.112611 0.216661 0.175493 -0.040745 -0.038386 0.147145 -0.477062 0.386227 0.092227 -0.190967 0.181471 0.375873 -0.259512 -0.005168 0.084540 0.599616 -0.374927 0.347157 0.085832 -0.202859 0.081426 0.103348 0.479273 -0.036296 0.141258 0.004343 0.330616 -0.007634 -0.625961 0.663899 -0.428500 0.384577 0.236124 -0.155052 -0.533871 -0.336366 -0.378102 -0.214265 -0.193582 0.214019 0.096496 -0.290778 -0.616189 -0.283379 -0.022300 0.760754 -0.027465 -0.394714 0.097790 0.000305 -0.767410 0.370010 -0.132648 0.141145 -0.214350 -0.060258 0.090521 -0.126837 0.794213 -0.016435 -0.057870 0.295038 0.790540 0.151154 0.116905 0.036629 0.039772 0.026154 -0.429041 0.428212 -0.548108 -0.043074 0.202705 -0.116361 0.238172 -0.116573 0.253921 -0.160569 -0.472666 0.643283 -0.300559 -0.163583 0.205416 -0.253960 0.191891 0.386776 0.392125 -0.608065 -0.028829 0.484403 -0.471676 0.334359 -0.582402 -0.203379 0.324900 -0.151298 -0.030244 0.595963 0.150461 -0.259856 -0.401338 0.477336 -0.137344 0.392048 0.359683 0.531305 0.277622 0.330472 -1.030679 0.022760 -0.565198 0.258695 -0.262481 -0.133773 -0.105534 -0.019606 0.284595 -0.130734 0.758342 -1.133355 -0.484286 0.098283 0.367855 0.183327 -0.268966 0.328554 -0.119273 -0.632438 0.245882 -0.053234 -0.348070 -0.164098 -0.749736 1.014320 0.110903 0.455976 -0.060562 -0.330072 -0.525366 -0.750869 -0.992017 -1.211191 0.911580 -0.076679 0.426166 -0.037850 0.243478 -0.137866 -0.520433 0.091194 -0.765529 
HCCDB-4.S234 0.407655 -0.311625 0.124178 0.021894 -0.022231 -0.712756 0.747422 0.678260 -0.041417 0.068803 -0.136144 0.254260 -0.150519 0.330155 -0.722483 -0.267415 0.262643 -0.942698 -0.004699 -0.630697 -0.143645 0.511068 0.180749 0.850794 -0.115095 -0.131799 -0.102774 -0.256452 0.142950 0.299840 -0.363505 0.374041 0.910891 -0.636216 -0.512353 0.333859 -0.262152 -0.363537 0.076353 -0.428042 0.111906 0.199732 0.395082 -0.421488 -0.062119 0.033559 0.292699 0.749969 -0.014695 0.160100 0.272646 0.200960 -0.055925 -0.069798 0.132818 -0.460313 0.362255 0.053133 -0.224192 0.227815 0.359851 -0.346716 -0.018849 0.078375 0.581796 -0.401186 0.346064 0.147347 -0.138891 0.076191 0.105901 0.494945 -0.025399 0.058655 -0.012680 0.325231 -0.020200 -0.666497 0.646559 -0.500564 0.332098 0.221259 -0.144299 -0.542519 -0.384698 -0.365813 -0.214639 -0.121041 0.256495 0.081047 -0.393287 -0.601080 -0.221445 -0.003338 0.720529 -0.051630 -0.300198 0.116064 0.028362 -0.780576 0.352715 -0.125901 0.131561 -0.184016 -0.037966 0.095641 -0.137269 0.751323 0.051008 -0.131426 0.306171 0.752104 0.140713 0.053968 -0.005072 0.019218 0.036673 -0.448274 0.412697 -0.578355 -0.051167 0.244959 -0.039789 0.166347 -0.168602 0.182643 -0.100037 -0.438285 0.703446 -0.313578 -0.215567 0.218676 -0.213056 0.242722 0.400757 0.357153 -0.525574 -0.047861 0.528987 -0.516385 0.400247 -0.550659 -0.216769 0.273944 -0.179307 -0.046644 0.580001 0.051355 -0.322529 -0.408149 0.562292 -0.088635 0.285781 0.352033 0.602843 0.302204 0.188428 -0.986200 0.063369 -0.523631 0.234432 -0.215409 -0.156220 -0.116822 -0.052061 0.319950 -0.157140 0.815541 -1.161368 -0.447429 0.089858 0.474015 0.196167 -0.353434 0.376232 -0.087551 -0.644081 0.300458 -0.011589 -0.282648 -0.189156 -0.717859 1.072437 0.092524 0.538843 -0.038652 -0.340635 -0.568511 -0.769615 -0.936863 -1.193741 0.866194 -0.018761 0.409358 0.041876 0.265961 -0.194750 -0.518308 0.159392 -0.779239 
HCCDB-4.S235 0.356686 -0.264051 0.117798 -0.016062 0.010456 -0.621966 0.797543 0.715855 -0.150015 0.089595 -0.027208 0.223759 -0.107649 0.321643 -0.759178 -0.202528 0.261547 -0.964296 -0.072367 -0.613212 -0.092414 0.494315 0.239207 0.776851 -0.060083 -0.155734 -0.080540 -0.175407 0.104801 0.261392 -0.364704 0.317988 0.937749 -0.626311 -0.562743 0.424504 -0.230599 -0.407304 0.077917 -0.482252 0.195587 0.144738 0.390046 -0.412331 -0.064373 -0.045938 0.316714 0.698719 0.042809 0.142103 0.280183 0.107594 -0.059680 -0.063111 0.096845 -0.495668 0.397565 0.110804 -0.217797 0.142438 0.346764 -0.339351 -0.031673 0.142523 0.591602 -0.426129 0.388599 0.100863 -0.043827 0.031922 0.097283 0.493996 0.002028 0.150270 -0.050587 0.326099 0.070580 -0.660548 0.649297 -0.477079 0.400931 0.295787 -0.128257 -0.501863 -0.325185 -0.391596 -0.214487 -0.159072 0.207829 0.074978 -0.326115 -0.585839 -0.264274 0.042818 0.734901 0.056392 -0.381951 0.090749 0.037660 -0.819718 0.404136 -0.097730 0.153423 -0.172651 -0.082116 0.097476 -0.169419 0.828559 0.103801 -0.126029 0.303673 0.837653 0.178885 0.120121 -0.014807 0.054269 0.057799 -0.474640 0.482120 -0.641856 -0.101922 0.232225 -0.088217 0.245001 -0.074255 0.211098 -0.169335 -0.466606 0.668437 -0.283061 -0.243322 0.101526 -0.196642 0.148680 0.379434 0.336157 -0.514292 -0.004539 0.428838 -0.463614 0.332099 -0.565686 -0.203288 0.255263 -0.248832 -0.007469 0.579283 0.111316 -0.307319 -0.430330 0.454107 -0.074831 0.275335 0.374692 0.537954 0.335829 0.317319 -0.960557 -0.069915 -0.538844 0.257935 -0.240188 -0.173193 -0.127532 -0.050385 0.255684 -0.194339 0.764998 -1.182593 -0.540595 0.102341 0.443417 0.270660 -0.279093 0.345945 0.009839 -0.620347 0.255860 0.004722 -0.282059 -0.125746 -0.750898 0.973356 0.092026 0.502239 -0.027747 -0.306962 -0.569701 -0.794953 -0.929042 -1.148192 0.932082 -0.031692 0.350294 -0.004105 0.209155 -0.103991 -0.511846 0.087546 -0.753663 
HCCDB-4.S236 0.398234 -0.298789 0.237221 -0.019878 0.059267 -0.653966 0.770338 0.666787 -0.052148 0.036564 0.019777 0.253343 -0.098622 0.313916 -0.805912 -0.192784 0.211960 -0.940537 0.014442 -0.580473 -0.026769 0.576268 0.148552 0.738051 -0.080354 -0.190734 -0.033302 -0.248159 0.158947 0.274691 -0.366299 0.305818 0.934832 -0.632332 -0.635398 0.379719 -0.244946 -0.391329 0.087362 -0.469706 0.120034 0.233836 0.349732 -0.426316 -0.102024 0.014210 0.315145 0.771933 0.039767 0.117190 0.254448 0.217168 -0.087544 -0.010402 0.056162 -0.516350 0.287700 0.083464 -0.169684 0.151110 0.303041 -0.391021 -0.016837 0.067637 0.568711 -0.403670 0.405285 0.038391 -0.078466 0.138204 0.084720 0.452464 -0.010820 0.163144 0.052574 0.249543 0.048236 -0.689526 0.657572 -0.512759 0.317325 0.256478 -0.169666 -0.553317 -0.381614 -0.406013 -0.315890 -0.182153 0.210137 -0.020153 -0.338585 -0.617288 -0.239222 -0.033841 0.674111 -0.001851 -0.277040 0.207467 -0.048218 -0.786165 0.360404 -0.190469 0.110361 -0.129966 -0.037647 0.097811 -0.155832 0.809010 0.054614 -0.027720 0.248299 0.828424 0.203942 0.058396 -0.065591 0.015912 0.060383 -0.373431 0.397696 -0.615578 -0.026519 0.211236 -0.093971 0.205744 -0.097507 0.257370 -0.156655 -0.440940 0.740551 -0.279999 -0.289967 0.163959 -0.245320 0.199320 0.355259 0.394727 -0.560120 -0.038809 0.461203 -0.459741 0.353549 -0.508880 -0.221100 0.290533 -0.249139 -0.064783 0.536443 0.089186 -0.303922 -0.364844 0.478669 0.012300 0.190109 0.330367 0.686875 0.313824 0.260633 -1.056767 0.001349 -0.515662 0.270227 -0.260451 -0.191794 -0.177824 -0.054126 0.351561 -0.234985 0.811284 -1.114702 -0.446803 0.062018 0.473679 0.166188 -0.376554 0.442297 -0.079535 -0.557323 0.311008 -0.054586 -0.313405 -0.166116 -0.741757 1.001689 0.072684 0.507042 -0.120348 -0.264058 -0.577749 -0.732369 -0.950111 -1.177943 0.966559 -0.101600 0.415777 -0.002724 0.257425 -0.121228 -0.490375 0.075656 -0.790913 
HCCDB-4.S237 0.360507 -0.353773 0.137345 0.010836 0.018787 -0.543638 0.761400 0.688246 -0.083843 0.076376 -0.059267 0.231592 -0.060101 0.278268 -0.690972 -0.200883 0.231076 -0.992108 -0.072996 -0.595711 -0.084784 0.444568 0.217590 0.870829 -0.144934 -0.205445 -0.035654 -0.170976 0.132911 0.302275 -0.359925 0.337503 0.953780 -0.586012 -0.540421 0.434223 -0.289755 -0.381299 0.098486 -0.449588 0.184657 0.174745 0.391710 -0.409926 -0.098838 -0.070631 0.295819 0.688370 0.076327 0.098056 0.267085 0.168386 -0.036838 -0.006743 0.160335 -0.486576 0.409224 0.051614 -0.210683 0.152304 0.323703 -0.380062 0.032849 0.145047 0.570204 -0.471472 0.325786 0.060379 -0.105816 0.103315 0.105709 0.504655 -0.050388 0.136792 -0.019225 0.322058 0.034173 -0.667650 0.650009 -0.505299 0.412718 0.244286 -0.134674 -0.489780 -0.347693 -0.388979 -0.283325 -0.229974 0.253770 0.096070 -0.400359 -0.661128 -0.286701 -0.000940 0.771548 0.026264 -0.372653 0.059644 0.032067 -0.788825 0.359898 -0.119191 0.110179 -0.144479 -0.071486 0.071606 -0.163290 0.831221 0.017590 -0.039099 0.285246 0.750420 0.108244 0.127502 0.012975 -0.009135 0.013358 -0.460889 0.462159 -0.630848 -0.075492 0.296384 -0.134154 0.194475 -0.104115 0.236224 -0.136315 -0.472820 0.718131 -0.329965 -0.217832 0.141816 -0.203332 0.136794 0.365916 0.341907 -0.566342 0.035694 0.463754 -0.519459 0.375806 -0.518464 -0.244169 0.302969 -0.191936 -0.058207 0.521700 0.088233 -0.275686 -0.438274 0.512726 -0.032344 0.272101 0.404478 0.584549 0.309184 0.250479 -1.009318 0.033825 -0.493867 0.255723 -0.207520 -0.199032 -0.106414 0.000656 0.334464 -0.211059 0.803681 -1.185989 -0.502513 0.074603 0.458630 0.228746 -0.307365 0.424946 0.017507 -0.613239 0.212250 0.034745 -0.260976 -0.162634 -0.746600 1.008376 0.081245 0.525506 -0.104001 -0.259263 -0.610432 -0.795950 -0.950387 -1.140996 0.937479 -0.050543 0.400618 0.016468 0.267933 -0.139459 -0.503083 0.158967 -0.697283 
HCCDB-4.S238 0.393091 -0.216599 0.064207 0.047513 0.078971 -0.773225 0.887295 0.664433 -0.091675 0.102357 -0.119383 0.405495 -0.139844 0.325946 -0.776239 -0.282397 0.290991 -0.976979 -0.004511 -0.597039 -0.068874 0.488262 0.346997 0.799987 -0.052610 -0.173233 -0.082960 -0.218824 0.066067 0.217763 -0.278262 0.338389 0.877329 -0.600515 -0.603727 0.330958 -0.261292 -0.428195 0.005802 -0.561188 0.112958 0.124757 0.395373 -0.350486 -0.068330 -0.139070 0.355264 0.733604 0.097235 0.083629 0.144351 0.252344 -0.182967 -0.111596 0.085894 -0.386632 0.390692 0.122109 -0.218128 0.138205 0.303313 -0.237097 -0.024456 0.174552 0.505602 -0.431330 0.345408 0.074092 0.036685 0.005362 0.102488 0.503158 0.012951 0.051633 -0.160633 0.289747 0.043981 -0.660195 0.643080 -0.492427 0.340663 0.259603 -0.206688 -0.539847 -0.458113 -0.342399 -0.219557 -0.148653 0.175332 0.123095 -0.309641 -0.614960 -0.210766 0.067985 0.792466 -0.005247 -0.414882 0.100231 0.036504 -0.813066 0.443203 -0.065837 0.158416 -0.069336 -0.015688 0.070185 -0.146169 0.749782 0.019584 -0.151180 0.241416 0.925129 0.326419 0.117871 -0.098815 0.129689 0.206157 -0.575356 0.500873 -0.537762 -0.026990 0.242836 -0.143193 0.337496 -0.174078 0.060462 -0.131022 -0.368474 0.819634 -0.232726 -0.157596 0.005008 -0.155229 0.191787 0.339558 0.284046 -0.557953 -0.159788 0.507781 -0.494702 0.432550 -0.730994 -0.205173 0.227976 -0.254356 -0.042375 0.509036 0.139854 -0.324840 -0.399919 0.529987 -0.058707 0.272769 0.286516 0.654698 0.255395 0.356030 -1.052604 -0.035019 -0.506601 0.142626 -0.345890 -0.194297 -0.071989 -0.000634 0.266404 -0.154276 0.674966 -1.087144 -0.486872 -0.036789 0.451953 0.303986 -0.396410 0.416248 -0.025211 -0.652745 0.230222 -0.017261 -0.240521 -0.211041 -0.826616 1.050300 -0.007236 0.548870 -0.058854 -0.255106 -0.532489 -0.716676 -0.923306 -1.195313 0.854448 -0.012088 0.389965 -0.057800 0.108738 -0.031407 -0.599893 0.154045 -0.782274 
HCCDB-4.S239 0.395508 -0.247260 0.040590 0.001365 0.027429 -0.685942 0.801248 0.667849 -0.104144 0.063797 -0.043950 0.309532 -0.115588 0.366870 -0.707462 -0.253105 0.286936 -0.903748 -0.048767 -0.623199 -0.144063 0.526856 0.237173 0.759573 -0.056356 -0.171315 -0.039337 -0.219513 0.170097 0.203923 -0.342986 0.357178 0.926602 -0.619661 -0.506311 0.359074 -0.188611 -0.400067 0.148686 -0.472092 0.186379 0.186018 0.372917 -0.425427 -0.077555 -0.076010 0.260780 0.651616 0.033267 0.228977 0.165929 0.176710 -0.072945 0.072067 0.116234 -0.451879 0.374049 0.098113 -0.236735 0.162365 0.358896 -0.436345 -0.060093 0.119492 0.577451 -0.385807 0.405240 0.063755 -0.068177 0.135705 0.064760 0.521184 0.008479 0.139015 0.000496 0.351397 0.039727 -0.615715 0.654325 -0.458305 0.428687 0.278801 -0.153210 -0.513120 -0.376951 -0.368208 -0.197986 -0.139681 0.185692 0.054213 -0.394541 -0.679520 -0.306905 0.068447 0.713926 -0.007619 -0.369581 0.143884 -0.085056 -0.839036 0.419561 -0.127513 0.045173 -0.162903 -0.089656 0.144837 -0.059646 0.825217 0.059709 -0.058574 0.223502 0.853243 0.210553 0.103887 -0.086166 0.061294 0.052883 -0.382548 0.476667 -0.594081 -0.111727 0.287013 -0.129914 0.239106 -0.161039 0.193730 -0.098130 -0.428155 0.744095 -0.292616 -0.265147 0.109804 -0.177761 0.164600 0.373371 0.313410 -0.572817 0.043088 0.473257 -0.461505 0.388327 -0.515473 -0.202574 0.379632 -0.213613 -0.075732 0.532633 0.089050 -0.371345 -0.388734 0.448379 -0.042563 0.254712 0.340401 0.600055 0.276217 0.286451 -1.027866 0.000026 -0.539663 0.278684 -0.245928 -0.161394 -0.068652 0.039403 0.272616 -0.180373 0.825842 -1.139284 -0.458120 0.067753 0.475564 0.197405 -0.246508 0.416217 -0.064065 -0.548631 0.261214 0.010133 -0.286304 -0.251876 -0.697877 0.972262 0.081399 0.573548 -0.071367 -0.284699 -0.594145 -0.807258 -0.969139 -1.257860 0.873596 0.024151 0.416324 0.069564 0.221855 -0.191235 -0.542621 0.151187 -0.752618 
HCCDB-4.S240 0.350171 -0.264560 0.090897 -0.012873 -0.007329 -0.696762 0.804354 0.665197 -0.057031 0.012908 -0.075615 0.323610 -0.062251 0.303786 -0.798092 -0.246782 0.252871 -0.951540 -0.001750 -0.572425 -0.131245 0.517662 0.231993 0.785206 -0.042196 -0.237876 -0.045697 -0.223198 0.089120 0.257373 -0.379975 0.363289 0.936085 -0.576148 -0.541836 0.360753 -0.219306 -0.427973 0.121127 -0.487905 0.110127 0.223499 0.317934 -0.399904 -0.027235 -0.027348 0.263218 0.713444 0.043148 0.111355 0.219180 0.178016 -0.093395 0.015279 0.053418 -0.463214 0.352534 0.152751 -0.248202 0.173370 0.343213 -0.316267 -0.020188 0.050870 0.540319 -0.459732 0.371688 0.133198 -0.101797 0.109000 0.114150 0.523171 -0.115338 0.129287 0.039077 0.335527 0.026447 -0.618153 0.663543 -0.442289 0.303875 0.221152 -0.144486 -0.523191 -0.417756 -0.436403 -0.214775 -0.232088 0.231961 0.091392 -0.331998 -0.638049 -0.208964 -0.016976 0.764466 -0.067272 -0.395999 0.159763 -0.006034 -0.824037 0.361461 -0.157472 0.176860 -0.147526 -0.067999 0.108767 -0.160491 0.807379 0.070938 -0.053025 0.276460 0.888581 0.198604 0.059666 -0.056600 0.012345 0.057284 -0.435864 0.435329 -0.560983 -0.056160 0.272187 -0.123191 0.189236 -0.172178 0.229973 -0.151580 -0.486880 0.744471 -0.345100 -0.223881 0.073807 -0.231180 0.116279 0.333466 0.347143 -0.509313 -0.035028 0.451346 -0.405970 0.412774 -0.622882 -0.196821 0.284517 -0.218399 -0.092817 0.560991 0.130019 -0.290066 -0.451106 0.464970 -0.093856 0.276437 0.292413 0.564078 0.298500 0.244421 -1.020137 0.018317 -0.517527 0.241961 -0.270642 -0.162160 -0.102478 -0.045968 0.345013 -0.176105 0.749004 -1.140116 -0.495282 -0.042718 0.432856 0.216333 -0.283743 0.391122 -0.055107 -0.604186 0.177812 -0.044344 -0.291537 -0.116293 -0.745810 0.984702 0.124004 0.501275 -0.065051 -0.247876 -0.587833 -0.804810 -0.954278 -1.163525 0.890927 -0.030413 0.467295 -0.025699 0.313773 -0.099483 -0.524505 0.160852 -0.757138 
HCCDB-4.S241 0.331110 -0.305756 0.074338 0.007472 0.003543 -0.615262 0.695519 0.681407 -0.062522 0.106246 -0.061581 0.246101 -0.071607 0.267998 -0.783217 -0.220121 0.265194 -0.990890 0.012878 -0.660463 -0.083973 0.479289 0.257236 0.769160 -0.028486 -0.153834 -0.061566 -0.173378 0.172941 0.210853 -0.308658 0.435247 0.927978 -0.589507 -0.554287 0.359477 -0.267605 -0.361136 0.085902 -0.545010 0.135580 0.218954 0.392499 -0.415530 -0.090405 0.038275 0.269874 0.679352 -0.018089 0.081046 0.223825 0.192331 0.043782 -0.002518 0.134629 -0.477769 0.353818 0.047671 -0.168304 0.133748 0.343746 -0.358488 -0.036072 0.099501 0.582996 -0.401248 0.366925 0.108736 -0.110325 0.129000 0.064181 0.460231 0.009025 0.079309 -0.004203 0.403872 0.007668 -0.649104 0.640769 -0.441892 0.389115 0.242261 -0.117345 -0.544604 -0.389217 -0.401480 -0.210631 -0.142935 0.168662 0.115875 -0.353029 -0.669463 -0.225364 -0.005103 0.762650 -0.075919 -0.345449 0.114493 0.021966 -0.876861 0.387873 -0.101787 0.101595 -0.219833 -0.101788 0.181576 -0.172968 0.825237 0.034018 -0.090942 0.237900 0.760613 0.100279 0.130479 -0.017141 0.057837 0.014861 -0.442877 0.478753 -0.623460 -0.079161 0.288413 -0.119980 0.239854 -0.125906 0.241398 -0.070496 -0.458840 0.635184 -0.297261 -0.249687 0.281928 -0.253591 0.229105 0.376649 0.384641 -0.532729 -0.028240 0.489867 -0.481879 0.321599 -0.550507 -0.157028 0.368211 -0.189138 -0.082144 0.628144 0.073009 -0.275459 -0.441523 0.515943 -0.050608 0.323106 0.360652 0.605838 0.291435 0.183816 -1.030928 0.027964 -0.493074 0.324215 -0.243721 -0.133008 -0.116344 0.031938 0.316460 -0.225657 0.841874 -1.129026 -0.476701 0.076835 0.452726 0.254188 -0.306973 0.388035 -0.115572 -0.592469 0.297174 -0.026993 -0.341830 -0.067079 -0.725484 0.959443 0.118588 0.498413 -0.148331 -0.277127 -0.612583 -0.793193 -0.986590 -1.190175 0.892907 -0.004505 0.393015 0.040026 0.297852 -0.089079 -0.469821 0.018320 -0.822872 
HCCDB-4.S242 0.400534 -0.214155 0.110253 -0.035673 0.049828 -0.752894 0.823203 0.667698 -0.141510 0.028916 -0.066374 0.321816 -0.119474 0.410506 -0.815469 -0.256528 0.248878 -0.916201 -0.059987 -0.638466 -0.108930 0.497645 0.282999 0.847476 -0.043367 -0.202441 -0.045905 -0.190226 0.045645 0.234582 -0.372664 0.322013 0.927123 -0.544280 -0.573566 0.287804 -0.231313 -0.323805 0.079060 -0.554057 0.096279 0.112843 0.377736 -0.422545 -0.117029 -0.111911 0.357343 0.639001 0.034571 0.118282 0.202949 0.174827 -0.110101 -0.128507 0.116656 -0.453789 0.368521 0.118806 -0.173775 0.219389 0.377914 -0.240756 -0.077204 0.166293 0.554784 -0.359060 0.326241 0.079387 -0.123428 -0.014798 0.114570 0.464081 -0.021831 0.099286 -0.037495 0.346409 0.036084 -0.587060 0.631648 -0.487429 0.438627 0.253741 -0.270227 -0.525478 -0.481316 -0.272438 -0.253033 -0.062852 0.159075 0.079170 -0.234029 -0.673696 -0.251985 0.015066 0.692124 0.041608 -0.368819 0.026997 0.054121 -0.854700 0.455760 -0.051342 0.124044 -0.164659 -0.018550 0.111121 -0.075990 0.781712 0.005116 -0.150241 0.304361 0.826798 0.211476 0.052401 -0.097679 0.117855 0.128535 -0.470432 0.441055 -0.539189 -0.092068 0.267640 -0.121065 0.240919 -0.167801 0.116635 -0.184881 -0.368302 0.813679 -0.223697 -0.187465 0.143977 -0.195445 0.118531 0.324293 0.296399 -0.581933 -0.056635 0.522974 -0.500534 0.307176 -0.666517 -0.190445 0.256033 -0.222598 -0.011179 0.564660 0.166292 -0.347291 -0.457825 0.541352 -0.145377 0.351912 0.276003 0.572775 0.307516 0.305816 -1.014300 0.015432 -0.511469 0.218768 -0.207310 -0.115195 -0.099077 -0.002433 0.273827 -0.103974 0.751365 -1.058582 -0.509384 0.060196 0.410343 0.249312 -0.392780 0.383344 -0.018291 -0.642564 0.272238 -0.002792 -0.227239 -0.142197 -0.767095 0.983874 0.017345 0.591758 -0.072734 -0.271935 -0.587364 -0.749093 -1.030091 -1.317178 0.861575 -0.027041 0.381414 -0.032536 0.128229 -0.183017 -0.643352 0.116323 -0.721088 
HCCDB-4.S243 0.439254 -0.231467 0.148469 0.014802 0.028551 -0.681006 0.811550 0.693764 -0.164298 0.049310 0.015763 0.267331 -0.077451 0.345951 -0.756923 -0.239477 0.286002 -0.942116 -0.049868 -0.609675 -0.129894 0.440812 0.264826 0.812162 -0.063046 -0.197777 -0.046947 -0.242698 0.112750 0.202449 -0.313500 0.340631 0.927041 -0.595653 -0.507356 0.320422 -0.196130 -0.455810 0.031306 -0.500526 0.209018 0.113057 0.359180 -0.442587 -0.098932 -0.075285 0.292752 0.747475 0.129994 0.135117 0.265676 0.207083 -0.100300 -0.064282 0.179131 -0.485087 0.335802 0.124336 -0.249055 0.127159 0.309650 -0.281312 -0.041679 0.142072 0.554347 -0.455159 0.413465 0.076079 -0.064664 0.014127 0.024193 0.494625 -0.000620 0.125731 -0.055558 0.367077 0.062568 -0.655550 0.660790 -0.484128 0.415516 0.308247 -0.168116 -0.481624 -0.353523 -0.349162 -0.233136 -0.187253 0.133151 0.066352 -0.284750 -0.637274 -0.233626 0.027163 0.742894 0.046888 -0.429320 0.080670 0.066209 -0.862022 0.406888 -0.054840 0.151477 -0.159377 -0.081148 0.102762 -0.169645 0.772690 0.096972 -0.097983 0.226344 0.849603 0.187127 0.080252 -0.077065 0.100387 0.081049 -0.443930 0.472308 -0.619391 -0.102899 0.218142 -0.097719 0.266096 -0.160999 0.153910 -0.126640 -0.484865 0.744085 -0.267813 -0.269572 0.110226 -0.200292 0.160451 0.348124 0.306148 -0.551145 -0.041711 0.444723 -0.471416 0.333546 -0.607064 -0.218345 0.261671 -0.261560 -0.000728 0.590169 0.150165 -0.385962 -0.351905 0.433960 -0.085100 0.274940 0.345043 0.546664 0.329146 0.323890 -1.013317 -0.039283 -0.551401 0.301501 -0.297693 -0.118037 -0.112142 -0.015833 0.222349 -0.238423 0.788582 -1.102407 -0.503596 0.058194 0.481987 0.362378 -0.278204 0.384250 -0.070513 -0.638232 0.273397 0.023450 -0.297394 -0.124977 -0.818110 0.927068 0.099942 0.542121 0.012451 -0.262501 -0.606236 -0.765888 -0.919369 -1.200584 0.899145 -0.032010 0.344134 0.006126 0.136478 -0.100503 -0.597267 0.137448 -0.755244 
HCCDB-4.S244 0.318164 -0.257598 0.228103 -0.010581 0.033519 -0.728853 0.818935 0.702126 -0.079209 0.054904 -0.066726 0.354792 -0.122396 0.314621 -0.742471 -0.275414 0.180395 -0.914346 -0.025369 -0.618255 -0.124098 0.572941 0.186076 0.718053 -0.089333 -0.224126 -0.091504 -0.274649 0.180883 0.254918 -0.362603 0.332776 0.928996 -0.619049 -0.546820 0.371790 -0.273394 -0.323697 0.100240 -0.477329 0.108320 0.159031 0.400938 -0.385636 -0.073397 -0.017069 0.277406 0.671297 0.009748 0.102686 0.276912 0.121600 -0.099988 0.030660 0.077239 -0.532920 0.301674 0.092160 -0.177487 0.166923 0.327614 -0.342287 -0.019342 0.121593 0.594043 -0.405132 0.398863 0.083045 -0.097064 0.000315 0.050433 0.486356 0.012837 0.112290 0.011358 0.296942 0.119013 -0.698511 0.622910 -0.475141 0.341306 0.308392 -0.204140 -0.519462 -0.362148 -0.378740 -0.266963 -0.175367 0.154250 0.030799 -0.310125 -0.626998 -0.295601 0.043450 0.644249 -0.042400 -0.335734 0.146408 0.069621 -0.808206 0.424860 -0.082513 0.040395 -0.169589 -0.039404 0.148912 -0.100865 0.785466 0.120475 -0.035062 0.185519 0.842167 0.234490 0.066954 -0.044274 0.114309 0.051484 -0.416068 0.503554 -0.642849 0.015377 0.274778 -0.084618 0.225557 -0.093145 0.242254 -0.134049 -0.379749 0.748811 -0.196319 -0.302726 0.114146 -0.195060 0.146416 0.370915 0.337176 -0.522069 -0.024874 0.487138 -0.460239 0.355392 -0.475444 -0.204367 0.264672 -0.254632 0.003374 0.520782 0.012804 -0.398969 -0.371622 0.509277 -0.050024 0.228767 0.342861 0.600477 0.293647 0.225284 -0.978382 -0.010419 -0.570279 0.248847 -0.247095 -0.169418 -0.177728 -0.094111 0.319567 -0.186227 0.774623 -1.111823 -0.420326 0.071515 0.436189 0.249561 -0.368697 0.451196 -0.077232 -0.553257 0.306186 0.030418 -0.279895 -0.197919 -0.729026 1.003312 0.057189 0.510957 -0.080379 -0.319114 -0.568252 -0.787414 -0.927769 -1.239366 0.911892 -0.029709 0.384875 0.043632 0.195869 -0.128270 -0.574824 0.126654 -0.760378 
HCCDB-4.S245 0.378552 -0.277549 0.104519 0.002819 0.027462 -0.621062 0.754276 0.642549 -0.080993 0.118895 -0.094774 0.227538 -0.110838 0.328545 -0.764671 -0.253376 0.240513 -0.962340 -0.013360 -0.613610 -0.153771 0.472640 0.177942 0.863245 -0.159247 -0.211114 -0.060965 -0.223409 0.175276 0.284012 -0.428744 0.358057 0.911794 -0.560101 -0.562384 0.336693 -0.258695 -0.419295 0.062642 -0.471055 0.147492 0.183966 0.346035 -0.372057 -0.071079 -0.047980 0.302153 0.733203 0.067135 0.149743 0.249836 0.161234 -0.089892 -0.107750 0.100047 -0.475884 0.358629 0.067311 -0.208264 0.270393 0.328103 -0.392465 -0.071175 0.130805 0.553510 -0.424840 0.394306 0.104722 -0.113322 0.040419 0.046060 0.505548 -0.045383 0.095800 0.001412 0.272417 0.006197 -0.676973 0.634627 -0.444945 0.336198 0.256175 -0.183456 -0.515481 -0.391763 -0.405887 -0.253892 -0.153778 0.242315 0.118171 -0.401258 -0.661903 -0.230285 -0.045806 0.687326 -0.057247 -0.332192 0.056337 -0.012807 -0.768289 0.397075 -0.100698 0.111635 -0.178245 -0.071604 0.049908 -0.105645 0.764100 0.030970 -0.061541 0.333925 0.752955 0.144028 0.123799 -0.022844 0.016343 0.026158 -0.425371 0.411979 -0.608112 -0.069592 0.286446 -0.075389 0.178105 -0.234785 0.182899 -0.140845 -0.410210 0.789961 -0.296701 -0.188672 0.207019 -0.213056 0.213285 0.290512 0.334739 -0.486495 -0.035131 0.495911 -0.505753 0.381621 -0.538215 -0.254800 0.249434 -0.173658 -0.082612 0.521660 0.088246 -0.320170 -0.433023 0.547488 -0.116045 0.290424 0.352144 0.601566 0.279640 0.230062 -1.036941 -0.024095 -0.507542 0.242930 -0.257759 -0.128367 -0.052440 -0.009834 0.261208 -0.155368 0.751522 -1.175502 -0.468738 0.033223 0.433752 0.241451 -0.323824 0.409023 -0.036083 -0.643785 0.304951 0.022591 -0.304596 -0.145563 -0.700384 1.022637 0.104298 0.512472 -0.098260 -0.316358 -0.547583 -0.753751 -0.992606 -1.249250 0.904435 -0.043785 0.406008 -0.041063 0.285093 -0.080133 -0.533447 0.145457 -0.741701 
