228 200
HCCDB-13.S101 0.431843 -0.240119 0.147184 -0.026727 0.056910 -0.649386 0.792590 0.666913 -0.193900 -0.022164 -0.099232 0.345434 0.052817 0.390349 -0.891394 -0.177055 0.266744 -0.981972 -0.068102 -0.598293 -0.095911 0.521123 0.323686 0.654461 -0.045850 -0.359074 -0.011310 -0.133890 0.228525 0.275570 -0.354209 0.270051 0.934167 -0.649142 -0.464862 0.313794 -0.235673 -0.353450 0.148812 -0.520601 0.092947 0.128020 0.333098 -0.450931 -0.118620 -0.040116 0.450255 0.669409 0.050666 0.146535 0.202676 0.312806 -0.039499 0.117543 0.136294 -0.454226 0.285636 -0.000211 -0.276643 0.242244 0.279574 -0.292621 -0.176071 0.130321 0.640022 -0.399720 0.364660 0.116166 -0.140377 -0.052046 -0.065399 0.488347 0.018593 0.179549 0.012896 0.288577 0.020944 -0.544583 0.445928 -0.360620 0.433645 0.239709 -0.208964 -0.569941 -0.396066 -0.287646 -0.282407 -0.085054 0.145323 0.115482 -0.408819 -0.741488 -0.172619 -0.128222 0.737860 -0.011051 -0.276258 0.025432 0.032337 -0.729144 0.450378 -0.108741 0.116137 -0.225344 0.056709 0.017372 -0.016813 0.826561 0.006453 -0.119617 0.224737 0.890320 0.219521 0.033229 -0.060058 0.098633 0.207376 -0.326353 0.358840 -0.601283 -0.024835 0.190683 -0.136932 0.170636 -0.073528 0.194610 -0.179171 -0.386203 0.860152 -0.201506 -0.173121 0.117380 -0.282463 0.202561 0.362803 0.422074 -0.563231 0.068194 0.596668 -0.430619 0.385129 -0.559169 -0.312990 0.190720 -0.284652 0.023524 0.554742 0.125493 -0.323016 -0.491316 0.555267 -0.179294 0.367388 0.273593 0.608341 0.383574 0.258443 -1.109611 -0.041992 -0.586091 0.343452 -0.297364 -0.192156 -0.079917 0.053942 0.312205 -0.255903 0.657496 -1.049951 -0.453321 0.120471 0.349496 0.361767 -0.311100 0.418548 -0.170032 -0.641740 0.218016 -0.084460 -0.324096 -0.120839 -0.740162 1.048665 0.179138 0.588167 -0.022336 -0.380063 -0.550158 -0.758422 -0.995001 -1.210126 0.944410 -0.128490 0.330024 0.048493 0.099934 -0.151816 -0.552394 0.137318 -0.680919 
HCCDB-13.S103 0.354009 -0.330688 0.098861 0.024605 0.087301 -0.672939 0.770910 0.727100 -0.134822 0.019820 0.019566 0.254422 -0.053910 0.386626 -0.744616 -0.189969 0.184738 -1.035468 -0.039322 -0.616630 -0.070654 0.543451 0.313408 0.726854 -0.147053 -0.181033 -0.026427 -0.271363 0.263699 0.259695 -0.490990 0.340914 0.993426 -0.623503 -0.492042 0.335571 -0.240784 -0.377875 0.175638 -0.478345 0.108889 0.185228 0.439490 -0.471255 -0.044372 -0.010124 0.242475 0.628833 0.123028 0.158170 0.353024 0.127919 -0.073634 0.049237 0.090030 -0.617612 0.293186 0.049730 -0.242664 0.196538 0.325078 -0.283092 -0.103737 0.040463 0.612933 -0.408432 0.417693 0.157697 -0.173630 0.047663 0.094414 0.579684 0.148685 0.188717 0.173869 0.325453 0.131451 -0.672389 0.708629 -0.513691 0.377423 0.256139 -0.258687 -0.536123 -0.328066 -0.308857 -0.319907 -0.200144 0.134668 -0.009633 -0.277847 -0.719046 -0.299692 0.030509 0.676978 0.057560 -0.385541 0.259561 0.047688 -0.827202 0.492403 -0.043886 0.124549 -0.196886 -0.051212 0.101479 -0.044454 0.770746 0.133328 -0.109283 0.261005 0.848137 0.260673 -0.042163 -0.085285 0.199963 0.110915 -0.353877 0.422368 -0.656418 -0.177034 0.138142 -0.057305 0.191179 -0.043524 0.252001 -0.200210 -0.373759 0.745318 -0.176034 -0.266815 0.077194 -0.209410 0.145474 0.287691 0.285272 -0.528051 0.065404 0.466474 -0.503184 0.394766 -0.455446 -0.247663 0.346653 -0.347401 0.005706 0.497684 0.108492 -0.408769 -0.517220 0.425282 -0.123668 0.254144 0.305169 0.578429 0.302531 0.224165 -0.973427 -0.022106 -0.463102 0.195136 -0.227766 -0.157407 -0.260608 -0.033116 0.339180 -0.083040 0.709801 -1.145277 -0.591315 0.079815 0.462991 0.228014 -0.189959 0.326916 -0.088794 -0.559172 0.270891 -0.019692 -0.391611 -0.245281 -0.772261 0.811187 0.076775 0.516504 -0.126392 -0.279938 -0.706136 -0.658369 -0.970613 -1.224359 0.865785 -0.040063 0.301011 0.013669 0.198650 -0.155146 -0.521968 0.224376 -0.737939 
HCCDB-13.S104 0.377988 -0.318131 0.043765 0.061429 -0.041374 -0.722276 0.832816 0.682438 -0.110130 -0.056504 -0.016798 0.238002 -0.165701 0.335277 -0.790356 -0.332715 0.257426 -0.942808 0.047980 -0.560228 -0.096386 0.511046 0.193900 0.719963 -0.125256 -0.176381 0.020639 -0.190176 0.113532 0.261625 -0.342559 0.285847 0.934601 -0.584982 -0.483478 0.324465 -0.333743 -0.396310 0.028852 -0.605175 0.051117 0.133894 0.326225 -0.432542 -0.066256 -0.087678 0.305118 0.722451 -0.007703 0.106404 0.163303 0.239017 0.046773 -0.086768 0.084521 -0.399050 0.337290 0.055347 -0.241297 0.162221 0.393530 -0.287074 -0.076198 0.138514 0.544974 -0.454877 0.318607 0.133543 -0.099736 0.152333 0.073941 0.486419 0.105707 0.129009 0.043038 0.317323 -0.060181 -0.581765 0.584824 -0.450775 0.379377 0.252931 -0.129706 -0.607715 -0.365418 -0.433771 -0.157464 -0.197414 0.160419 0.138303 -0.333630 -0.628842 -0.278818 0.002451 0.765265 -0.045706 -0.360003 0.085187 -0.023640 -0.816848 0.395839 -0.054841 0.194368 -0.181336 -0.051299 0.180262 -0.063813 0.791725 0.017401 -0.079476 0.271440 0.767079 0.159791 0.224489 -0.083178 0.060221 0.112831 -0.441615 0.372807 -0.505357 -0.103043 0.267511 -0.165677 0.239541 -0.116356 0.200908 -0.212017 -0.486955 0.738709 -0.284588 -0.230023 0.204217 -0.152009 0.105312 0.290116 0.440807 -0.541365 0.052486 0.555627 -0.475585 0.387344 -0.615327 -0.231810 0.172600 -0.246775 -0.011774 0.645810 0.085319 -0.333894 -0.413298 0.555691 -0.103718 0.362984 0.296897 0.536374 0.331540 0.273788 -1.087448 0.050073 -0.519977 0.311247 -0.276615 -0.154594 -0.086602 -0.006403 0.235242 -0.140584 0.763623 -1.132352 -0.488646 -0.018591 0.393715 0.288264 -0.237537 0.315881 -0.060037 -0.699755 0.239204 -0.015063 -0.376888 -0.094281 -0.676565 1.034852 0.102880 0.484600 0.035247 -0.370218 -0.499193 -0.823134 -1.020738 -1.158504 0.983294 -0.059666 0.338846 -0.053192 0.149332 -0.175611 -0.588574 0.096164 -0.735388 
HCCDB-13.S106 0.429030 -0.183509 0.130459 -0.021598 0.001226 -0.622142 0.781047 0.690659 -0.183915 0.003459 0.018092 0.282634 -0.104014 0.370666 -0.689316 -0.060537 0.206975 -1.024906 -0.111166 -0.575187 -0.150202 0.539863 0.216891 0.838472 -0.046120 -0.277313 -0.098412 -0.280068 0.140241 0.194432 -0.472272 0.291466 0.930796 -0.585021 -0.477199 0.394489 -0.269306 -0.321247 0.136610 -0.490300 0.106206 0.197025 0.410622 -0.552917 -0.004327 -0.045964 0.144409 0.713738 0.012779 0.025529 0.369476 0.072614 -0.061471 0.128061 0.217059 -0.492277 0.285111 0.031796 -0.296251 0.211653 0.344046 -0.253053 0.012935 0.064842 0.519293 -0.294256 0.377183 0.170528 -0.109449 -0.003449 0.169272 0.619364 0.037879 0.155769 0.103486 0.337249 0.018741 -0.739881 0.610632 -0.452174 0.466112 0.284892 -0.297373 -0.498899 -0.382200 -0.402605 -0.316735 -0.072238 0.207649 0.036091 -0.252012 -0.673866 -0.205590 0.018724 0.744459 -0.100169 -0.418414 0.145716 -0.017666 -0.789562 0.546201 -0.102449 0.118757 -0.241135 -0.176280 0.163023 0.022910 0.818241 0.114085 -0.119277 0.305710 0.842482 0.176244 0.106733 -0.120395 0.094701 0.039168 -0.402039 0.409275 -0.626690 -0.056875 0.215934 -0.029308 0.154078 -0.034736 0.213572 -0.185027 -0.481298 0.723214 -0.196146 -0.283581 0.195419 -0.198117 0.111228 0.339761 0.251205 -0.628738 0.046796 0.572373 -0.323359 0.419469 -0.436772 -0.199597 0.342467 -0.278662 -0.126744 0.594154 0.080875 -0.366981 -0.435187 0.434055 -0.079346 0.168034 0.274864 0.562785 0.291381 0.198665 -0.916267 0.019879 -0.593492 0.243863 -0.222280 -0.174502 -0.101411 -0.015370 0.349851 -0.176087 0.687326 -1.093930 -0.608175 0.034079 0.452890 0.395618 -0.239715 0.263518 -0.059253 -0.599301 0.308164 0.008535 -0.371518 -0.154459 -0.851341 0.875180 0.110443 0.546993 -0.147957 -0.242134 -0.440585 -0.784693 -0.954527 -1.157148 0.887477 -0.020907 0.337546 0.027216 0.249707 -0.180339 -0.477173 0.016303 -0.783829 
HCCDB-13.S108 0.314994 -0.370417 0.053636 0.058562 0.003810 -0.654578 0.806867 0.700698 -0.017019 0.004870 -0.152184 0.278196 -0.071178 0.345798 -0.757099 -0.282216 0.343953 -0.932489 -0.029407 -0.622895 -0.073179 0.429077 0.253546 0.733226 -0.086149 -0.115779 -0.047166 -0.108664 0.130824 0.177365 -0.491763 0.234369 0.973899 -0.564101 -0.599371 0.339706 -0.261058 -0.368905 0.052132 -0.499424 0.189533 0.210231 0.384170 -0.449633 -0.181393 0.019178 0.346763 0.753857 0.016436 0.169819 0.209470 0.167344 -0.018551 -0.053764 0.166922 -0.465930 0.340244 0.092907 -0.158365 0.186246 0.268427 -0.312277 -0.020625 0.046644 0.562518 -0.428124 0.297012 0.089866 -0.095925 0.102409 0.033215 0.637524 0.015199 0.050297 -0.064067 0.340241 -0.031109 -0.688811 0.704263 -0.555184 0.417209 0.131120 -0.079642 -0.525512 -0.306025 -0.404306 -0.169608 -0.165524 0.165144 0.103498 -0.348563 -0.598207 -0.237514 0.000078 0.687540 -0.087900 -0.334321 0.133206 -0.081834 -0.702302 0.439477 -0.118327 0.167101 -0.184649 -0.074150 0.092045 -0.040595 0.741953 0.015941 -0.033669 0.314597 0.896895 0.170672 0.079293 -0.006000 0.064841 0.201294 -0.471725 0.510875 -0.556785 -0.127029 0.234845 -0.181279 0.226692 -0.081400 0.161538 -0.137671 -0.354796 0.638191 -0.261587 -0.264456 0.066972 -0.235612 0.116614 0.413350 0.356766 -0.548936 0.082603 0.533281 -0.374381 0.305493 -0.649336 -0.195567 0.236739 -0.145350 0.058261 0.567465 0.089556 -0.406582 -0.428062 0.551678 -0.014174 0.277203 0.319875 0.568873 0.267279 0.299420 -1.010932 0.083172 -0.553278 0.291245 -0.209702 -0.097045 -0.181841 0.000311 0.306115 -0.188611 0.762310 -1.156385 -0.505737 0.040394 0.434420 0.308457 -0.475710 0.339614 -0.120709 -0.644356 0.155137 -0.079968 -0.282032 -0.113665 -0.699308 0.950187 0.037951 0.535309 -0.049010 -0.320198 -0.497693 -0.747234 -0.979854 -1.191329 0.886577 0.021120 0.442620 0.001261 0.222899 -0.202102 -0.534992 0.160364 -0.851138 
HCCDB-13.S109 0.463480 -0.229606 0.096874 0.020260 -0.033664 -0.632768 0.820947 0.689448 -0.104128 -0.038723 -0.125822 0.314460 -0.138292 0.313803 -0.764381 -0.263386 0.158713 -0.979158 0.008256 -0.595273 -0.056695 0.576826 0.235534 0.706649 -0.000390 -0.166670 -0.016368 -0.223158 0.109399 0.212529 -0.285184 0.375879 0.863124 -0.612400 -0.451537 0.276198 -0.189183 -0.443392 0.049833 -0.461641 0.173156 0.139164 0.425225 -0.394136 -0.080729 -0.099055 0.333692 0.685842 0.001356 0.019881 0.240035 0.268501 -0.067291 0.014666 0.110320 -0.399476 0.408913 0.148644 -0.246083 0.092476 0.421228 -0.255482 -0.055120 0.209301 0.589732 -0.462826 0.322900 0.072649 0.005437 0.154983 0.066433 0.524388 0.024451 0.139604 -0.036348 0.248018 0.068908 -0.657293 0.595566 -0.417586 0.307681 0.224703 -0.155935 -0.608529 -0.397517 -0.417258 -0.222092 -0.087292 0.205051 0.143292 -0.359582 -0.610932 -0.281535 -0.016804 0.776393 -0.019277 -0.353404 0.031432 -0.005114 -0.932748 0.365097 -0.105635 0.344514 -0.191305 -0.025176 0.170442 -0.126909 0.884497 0.061315 -0.081207 0.302773 0.855278 0.166179 0.206582 0.024112 0.024369 0.040946 -0.486618 0.503571 -0.545129 0.004581 0.279987 -0.202622 0.290064 -0.082338 0.127798 -0.264029 -0.488206 0.756950 -0.365772 -0.145101 0.100641 -0.165895 0.224722 0.347189 0.364766 -0.533391 0.057575 0.530342 -0.446221 0.374528 -0.675247 -0.210607 0.250311 -0.250355 -0.049632 0.617789 0.053146 -0.281852 -0.322012 0.562387 -0.007313 0.288045 0.280235 0.584349 0.509746 0.341366 -1.059444 0.028053 -0.435027 0.296467 -0.289568 -0.169775 -0.050993 0.082082 0.224801 -0.217541 0.665936 -1.018301 -0.448653 -0.033225 0.436618 0.336498 -0.289331 0.458458 -0.124984 -0.671832 0.249979 0.021807 -0.336217 -0.077618 -0.602105 0.934185 0.069816 0.568186 -0.056694 -0.277724 -0.622802 -0.840243 -0.976587 -1.129626 0.921023 -0.095013 0.294026 -0.061697 0.154295 -0.140321 -0.609866 0.045776 -0.735172 
HCCDB-13.S11 0.366430 -0.251493 0.043362 -0.023867 0.029922 -0.753174 0.737030 0.764983 -0.041202 0.184477 -0.001033 0.298699 -0.064006 0.366872 -0.814918 -0.164593 0.263916 -1.108978 0.044291 -0.692805 -0.071384 0.488298 0.220907 0.699990 0.025117 -0.140348 -0.055416 -0.187264 0.160300 0.225414 -0.363603 0.357040 0.978257 -0.465245 -0.540165 0.227484 -0.286393 -0.307348 0.098232 -0.596942 0.282386 0.300123 0.422563 -0.393001 -0.165976 0.134721 0.402720 0.731493 0.015587 0.173606 0.247184 0.176275 -0.028574 0.092213 0.193926 -0.540126 0.355124 0.118199 -0.290872 0.163292 0.254160 -0.269435 -0.057894 -0.010220 0.565256 -0.322567 0.311381 0.173128 -0.135009 0.074071 0.084319 0.581576 0.006064 0.106884 -0.098834 0.273346 -0.003323 -0.638442 0.734918 -0.524782 0.408545 0.312433 -0.132608 -0.606821 -0.331364 -0.297680 -0.224783 -0.285383 0.113423 0.015048 -0.238288 -0.647662 -0.353160 0.032829 0.770659 -0.195975 -0.437473 0.139972 0.063395 -0.711441 0.520089 -0.148072 0.128839 -0.230198 -0.180734 0.083495 -0.080150 0.812536 0.063218 -0.087215 0.311959 0.848993 0.165483 0.078233 -0.004969 -0.076992 0.072079 -0.443008 0.399301 -0.487794 -0.102518 0.148618 0.048876 0.230257 -0.064626 0.367317 -0.017833 -0.267660 0.682226 -0.237901 -0.235082 0.126740 -0.157834 0.123110 0.326143 0.291877 -0.537919 -0.128922 0.584842 -0.298795 0.380627 -0.592234 -0.239987 0.193564 -0.089149 -0.148357 0.501880 0.126666 -0.279735 -0.419137 0.456413 -0.088114 0.319878 0.309817 0.569365 0.195091 0.253314 -1.075120 -0.004710 -0.501356 0.304241 -0.258980 -0.034449 -0.173375 -0.085068 0.323960 -0.209330 0.787851 -1.280324 -0.563717 0.106970 0.342111 0.197355 -0.367380 0.357735 -0.101688 -0.610418 0.226125 -0.010317 -0.439691 -0.073263 -0.814511 0.966495 0.112875 0.390226 -0.148778 -0.311548 -0.601922 -0.717261 -0.969060 -1.164195 1.022250 -0.029074 0.375132 0.026867 0.247400 -0.219733 -0.444599 0.142373 -0.871750 
HCCDB-13.S110 0.490447 -0.300199 0.151583 -0.035503 -0.063210 -0.690196 0.800630 0.653032 -0.209178 0.028756 -0.121846 0.276504 -0.154974 0.322240 -0.773213 -0.287660 0.322712 -0.892851 0.044812 -0.644044 -0.117127 0.452970 0.313108 0.823563 -0.036516 -0.110578 0.004025 -0.235370 0.076987 0.242380 -0.253302 0.298939 0.945152 -0.570975 -0.525526 0.277960 -0.155506 -0.447433 0.090198 -0.553234 0.083148 0.334631 0.344877 -0.428236 -0.144461 -0.147355 0.279996 0.630515 0.020183 0.201329 0.133937 0.134128 -0.147155 0.020215 0.054923 -0.483255 0.331237 0.216264 -0.370721 0.186775 0.319451 -0.302350 -0.043354 0.175544 0.631721 -0.401802 0.353168 0.133378 -0.060665 0.002686 0.035289 0.562319 -0.027194 0.178969 -0.050568 0.286180 0.050027 -0.527385 0.645005 -0.441516 0.390743 0.271028 -0.099761 -0.497961 -0.448458 -0.434841 -0.240038 -0.222889 0.127061 0.109032 -0.240724 -0.669805 -0.264187 -0.068700 0.843227 -0.010862 -0.329587 0.013116 0.003194 -0.924074 0.389522 -0.095178 0.133781 -0.232123 -0.022560 0.037935 -0.278344 0.834733 0.151222 -0.078551 0.160527 0.827232 0.255273 0.118811 -0.070954 -0.009781 0.060418 -0.471054 0.475708 -0.563275 -0.064172 0.297188 -0.174200 0.244885 -0.162478 0.069725 -0.191947 -0.475911 0.749744 -0.362409 -0.301456 0.187794 -0.235375 0.096239 0.405325 0.286442 -0.635674 -0.079604 0.519931 -0.384527 0.481782 -0.598949 -0.180694 0.267618 -0.327167 -0.043661 0.613399 0.005307 -0.339254 -0.501176 0.448419 -0.022739 0.245643 0.205908 0.540537 0.320625 0.297209 -0.958073 0.024568 -0.524602 0.244201 -0.257461 -0.143735 -0.066357 -0.020161 0.233497 -0.109165 0.839137 -1.128246 -0.470667 0.051596 0.456151 0.275871 -0.327498 0.376861 -0.024000 -0.657225 0.310992 -0.077300 -0.267275 -0.108815 -0.772601 0.961130 0.167587 0.548134 -0.040975 -0.164789 -0.610580 -0.756214 -0.908928 -1.072956 1.003226 0.096653 0.292646 -0.009941 0.202034 -0.123747 -0.565985 0.070166 -0.704491 
HCCDB-13.S111 0.448773 -0.286536 0.113764 -0.062283 0.102419 -0.773298 0.942019 0.636259 -0.135702 -0.033997 -0.149851 0.295524 -0.040782 0.413990 -0.751846 -0.259469 0.164371 -0.896647 -0.150582 -0.537269 -0.071697 0.622056 0.290491 0.690700 -0.183885 -0.180862 -0.001015 -0.200856 0.151071 0.154232 -0.350693 0.293767 0.904994 -0.707313 -0.578811 0.282719 -0.176895 -0.443595 0.099197 -0.568595 0.048735 0.089469 0.409727 -0.302022 -0.044541 0.016969 0.236232 0.601431 0.149524 0.180350 0.246850 0.350791 -0.100622 -0.087928 0.143024 -0.410028 0.360943 0.147419 -0.238677 0.169787 0.344121 -0.308351 -0.146612 0.162396 0.594846 -0.428713 0.312209 0.116743 -0.125181 0.002702 -0.013136 0.491924 0.008088 0.069406 0.012509 0.241210 0.077566 -0.561179 0.565946 -0.380695 0.393464 0.241821 -0.291451 -0.563468 -0.331722 -0.344004 -0.283141 -0.119853 0.256965 0.019606 -0.413789 -0.568241 -0.208789 -0.038773 0.741915 0.029011 -0.288200 -0.054422 0.073917 -0.853238 0.525167 -0.075335 0.118703 -0.171312 0.011593 0.118222 -0.067516 0.813943 -0.008671 -0.096601 0.180374 0.921413 0.183971 0.119667 0.023170 0.106871 0.179130 -0.471485 0.538423 -0.490933 -0.046536 0.252992 -0.137561 0.307565 -0.173785 0.106560 -0.125920 -0.399857 0.775234 -0.256514 -0.190491 0.112401 -0.269787 0.089511 0.290952 0.342045 -0.540636 0.025577 0.533458 -0.537053 0.399098 -0.694631 -0.237453 0.254432 -0.364776 -0.043929 0.539094 0.073729 -0.296630 -0.462198 0.566224 0.006647 0.337845 0.271521 0.670997 0.306086 0.312514 -0.964509 -0.014441 -0.577784 0.238402 -0.224428 -0.114758 -0.053693 -0.034426 0.283215 -0.219222 0.678677 -1.131216 -0.402912 -0.040504 0.362666 0.366135 -0.302320 0.430492 -0.107416 -0.742143 0.256783 -0.161205 -0.281674 -0.150330 -0.701935 0.908689 -0.013235 0.550124 -0.094235 -0.284699 -0.647467 -0.762559 -0.972252 -1.201040 0.891799 -0.000154 0.456112 -0.078692 0.140987 -0.204114 -0.592578 0.204814 -0.784042 
HCCDB-13.S113 0.296434 -0.396448 0.094587 -0.102381 0.106595 -0.674786 0.801007 0.675381 -0.052091 0.047453 -0.177311 0.259009 -0.160849 0.396588 -0.795986 -0.313204 0.228833 -0.972954 0.028658 -0.576007 -0.075182 0.506671 0.269398 0.768447 -0.090884 -0.264088 -0.088535 -0.195390 0.200030 0.182692 -0.363429 0.383811 0.904998 -0.581020 -0.558433 0.372058 -0.223572 -0.309806 0.056687 -0.488910 0.094757 0.147885 0.362396 -0.440550 -0.085248 0.025409 0.365252 0.728047 0.057404 0.027626 0.294944 0.166294 -0.028685 -0.013006 0.092284 -0.458779 0.377328 0.091929 -0.164374 0.124180 0.457007 -0.242329 0.008329 0.149881 0.604341 -0.396922 0.375013 0.072603 -0.202894 0.094076 0.197805 0.460338 0.037714 0.084663 0.013689 0.380016 0.032732 -0.662522 0.632914 -0.440523 0.344807 0.254267 -0.230931 -0.556139 -0.420331 -0.319124 -0.225999 -0.208429 0.135971 0.055269 -0.267737 -0.692738 -0.253717 0.053270 0.725598 0.019933 -0.443073 0.165253 0.023102 -0.819817 0.375371 -0.008841 0.186110 -0.175884 -0.034903 0.074318 -0.189456 0.747146 0.013654 0.001726 0.264674 0.849196 0.120524 0.118441 -0.041352 0.053456 0.036859 -0.373203 0.421017 -0.549705 -0.011095 0.262907 -0.143164 0.172989 -0.109156 0.201437 -0.160806 -0.507993 0.643565 -0.193995 -0.112736 0.173019 -0.231251 0.279303 0.236284 0.420816 -0.502263 -0.073227 0.509512 -0.541647 0.337951 -0.578741 -0.245445 0.263326 -0.209530 -0.136951 0.623394 0.191315 -0.319444 -0.424025 0.485044 -0.155202 0.318006 0.401347 0.579362 0.334301 0.241462 -0.984729 0.023356 -0.475346 0.219378 -0.267045 -0.166026 -0.080001 0.019806 0.196551 -0.220988 0.746380 -1.115421 -0.477945 0.161007 0.373035 0.125432 -0.393698 0.445153 -0.154922 -0.650405 0.306431 0.038231 -0.358404 -0.177714 -0.730450 0.955085 0.122340 0.635253 -0.056812 -0.259457 -0.533956 -0.757004 -1.024125 -1.194099 0.907144 -0.081971 0.355803 0.002310 0.179889 -0.113510 -0.553036 0.082045 -0.670637 
HCCDB-13.S115 0.400283 -0.338353 0.071989 -0.096542 0.036378 -0.544405 0.689524 0.689712 -0.056892 0.046440 -0.042535 0.321883 -0.228961 0.452181 -0.810445 -0.298707 0.298244 -0.937135 0.078881 -0.624698 -0.137327 0.440997 0.213507 0.759225 -0.015703 -0.183343 -0.131732 -0.219090 0.113805 0.208505 -0.323246 0.400515 0.910570 -0.600558 -0.636382 0.396062 -0.334635 -0.433970 0.037131 -0.448804 0.162927 0.197048 0.304033 -0.374475 -0.001515 -0.021728 0.293338 0.729734 0.062594 0.059401 0.226455 0.227195 -0.063875 -0.083769 0.064897 -0.548966 0.333442 0.140823 -0.252274 0.034415 0.341058 -0.363816 -0.016394 0.213447 0.573709 -0.454273 0.406561 0.017725 -0.091236 0.133057 0.252506 0.464789 0.023906 0.087887 -0.033754 0.329214 -0.033671 -0.662060 0.670497 -0.463846 0.387887 0.276872 -0.129064 -0.500745 -0.407358 -0.393824 -0.189269 -0.185886 0.176029 0.083237 -0.304243 -0.619507 -0.236410 0.002392 0.626701 0.039591 -0.340751 0.170634 -0.022035 -0.860422 0.349819 -0.142769 0.196721 -0.110755 -0.021253 0.111367 -0.150877 0.831581 0.052946 -0.074649 0.336272 0.766116 0.171114 0.118861 0.012390 0.034838 0.000524 -0.478247 0.484932 -0.581079 -0.081373 0.315450 -0.168174 0.209347 -0.179116 0.115165 -0.160083 -0.565814 0.623335 -0.249616 -0.236402 0.182643 -0.244217 0.255330 0.342516 0.220865 -0.442610 -0.038775 0.489445 -0.521481 0.364827 -0.538206 -0.202141 0.302791 -0.257267 -0.116498 0.545515 0.162457 -0.260566 -0.366566 0.583196 -0.085173 0.283008 0.374751 0.593352 0.357788 0.216566 -0.958503 0.043896 -0.437217 0.218591 -0.191076 -0.077835 -0.073055 -0.002492 0.348439 -0.183345 0.861776 -1.161398 -0.553786 0.068697 0.413392 0.232096 -0.316439 0.360368 -0.135453 -0.641092 0.321489 0.036188 -0.249302 -0.156148 -0.701152 0.980791 0.068751 0.553900 -0.076282 -0.240103 -0.606396 -0.716185 -0.883159 -1.256971 0.923278 -0.080100 0.343112 -0.001966 0.198347 -0.070420 -0.584897 0.063666 -0.713288 
HCCDB-13.S116 0.408718 -0.164930 0.172136 -0.022999 0.007980 -0.606023 0.776416 0.699822 -0.217077 -0.025352 -0.019737 0.315603 -0.092007 0.366499 -0.705735 -0.099257 0.203021 -0.984973 -0.109928 -0.565668 -0.153960 0.554730 0.225673 0.811741 -0.113137 -0.256906 -0.156631 -0.252597 0.134932 0.210587 -0.382795 0.314295 0.944434 -0.570730 -0.471865 0.455567 -0.285662 -0.343566 0.136038 -0.494456 0.122070 0.180760 0.440448 -0.563290 -0.056655 -0.025375 0.114930 0.721960 0.028897 0.054791 0.339100 0.105306 -0.098757 0.120995 0.211864 -0.467174 0.309777 0.033513 -0.299600 0.217760 0.335801 -0.263996 -0.012609 0.097386 0.496006 -0.283962 0.413507 0.150401 -0.076016 0.035279 0.148032 0.557062 0.025136 0.143353 0.077946 0.308905 -0.017338 -0.717520 0.611506 -0.481382 0.449079 0.290054 -0.312005 -0.523479 -0.381863 -0.409574 -0.319229 -0.124462 0.203552 0.072446 -0.317980 -0.671831 -0.237701 0.035614 0.705031 -0.118501 -0.471116 0.159473 -0.039897 -0.804234 0.458429 -0.112932 0.142276 -0.259272 -0.118480 0.174266 -0.003316 0.824774 0.125675 -0.137847 0.273100 0.808378 0.197070 0.153274 -0.156840 0.073920 0.052052 -0.431882 0.339934 -0.591917 -0.032210 0.288424 -0.035243 0.210027 -0.096462 0.235156 -0.200732 -0.446777 0.764367 -0.259969 -0.273152 0.209466 -0.198397 0.068557 0.353162 0.213943 -0.613131 0.049593 0.549569 -0.331939 0.428773 -0.469230 -0.151971 0.335793 -0.259680 -0.138133 0.584375 0.113067 -0.380126 -0.455832 0.483069 -0.071721 0.212921 0.308077 0.573568 0.296667 0.226891 -0.902864 0.010798 -0.586258 0.258383 -0.256930 -0.174964 -0.081779 -0.092165 0.322165 -0.161276 0.672326 -1.070827 -0.630655 0.039200 0.474681 0.381085 -0.297213 0.225956 -0.062391 -0.533945 0.317004 0.034336 -0.325749 -0.131085 -0.851747 0.863360 0.099417 0.530120 -0.193038 -0.156012 -0.502599 -0.743037 -0.951981 -1.187825 0.867431 -0.043569 0.333339 0.012419 0.230907 -0.229332 -0.481437 0.013339 -0.846425 
HCCDB-13.S118 0.383709 -0.347553 0.048790 -0.017394 0.095197 -0.667227 0.716236 0.666141 -0.119313 0.041393 -0.110584 0.269791 -0.131943 0.331681 -0.716617 -0.335329 0.285777 -0.960799 0.029699 -0.528724 -0.122795 0.446223 0.282272 0.736468 -0.062273 -0.217354 -0.046324 -0.239291 0.128894 0.155012 -0.321255 0.295430 0.888382 -0.572649 -0.489973 0.440583 -0.239554 -0.388291 0.057295 -0.514015 0.133732 0.281784 0.304735 -0.446750 -0.151927 0.009554 0.330173 0.675181 0.013952 0.091179 0.297076 0.139297 -0.037137 0.028171 0.206638 -0.545940 0.429508 0.154176 -0.183417 0.186694 0.468217 -0.210461 -0.012178 0.079591 0.575227 -0.339941 0.415682 0.163804 -0.249779 0.143823 0.105269 0.469386 0.091442 0.185764 0.060752 0.424156 0.030838 -0.689633 0.678173 -0.532775 0.455913 0.274242 -0.189724 -0.524593 -0.306599 -0.411084 -0.168323 -0.131906 0.105132 0.068034 -0.296278 -0.665151 -0.285288 0.033611 0.742972 -0.019322 -0.298171 0.102955 -0.044789 -0.814577 0.434020 -0.073522 0.045665 -0.301541 -0.069993 -0.001799 0.018313 0.790649 0.046674 -0.061058 0.255492 0.713030 0.150958 0.054473 -0.007959 0.047718 0.070042 -0.528326 0.363997 -0.608358 -0.018914 0.181377 -0.115211 0.192057 -0.022328 0.169334 -0.235600 -0.461096 0.648205 -0.252332 -0.216270 0.232404 -0.119850 0.225509 0.359883 0.351625 -0.608155 -0.056563 0.510078 -0.547648 0.353228 -0.582759 -0.199310 0.218613 -0.252644 -0.108763 0.634869 0.169207 -0.328727 -0.465795 0.561691 -0.079996 0.334434 0.315654 0.551700 0.307397 0.201149 -1.037047 0.124027 -0.578885 0.271584 -0.260959 -0.114760 -0.187032 0.039488 0.227825 -0.053499 0.786540 -1.147028 -0.545925 0.091869 0.383906 0.263251 -0.271613 0.336300 -0.172334 -0.648522 0.300628 -0.019546 -0.385594 -0.163307 -0.729115 0.971082 0.054515 0.522501 0.006896 -0.327050 -0.527142 -0.820786 -0.964087 -1.156034 0.941228 -0.059453 0.347729 -0.021041 0.215387 -0.101231 -0.524042 0.014665 -0.758397 
HCCDB-13.S120 0.453451 -0.212315 0.172388 0.057837 -0.011577 -0.649627 0.863425 0.672033 -0.129674 0.009907 -0.043622 0.329682 -0.046880 0.296523 -0.790178 -0.222902 0.298581 -1.008296 -0.170622 -0.580709 -0.150666 0.404027 0.278345 0.732241 -0.146999 -0.098834 0.016360 -0.231719 0.160147 0.257488 -0.250528 0.412043 0.904971 -0.507656 -0.536000 0.279083 -0.244117 -0.406337 0.021474 -0.444083 0.159007 0.115269 0.358746 -0.359688 0.035583 -0.118614 0.279083 0.733472 0.013791 0.121738 0.238940 0.228620 -0.090342 0.026196 0.114206 -0.433347 0.303616 0.161255 -0.332958 0.197350 0.326831 -0.304960 -0.187133 0.242861 0.587825 -0.471059 0.385175 0.062646 -0.017383 0.030688 0.029213 0.524753 -0.018532 0.155574 -0.096569 0.315056 0.120499 -0.692139 0.615564 -0.417356 0.376567 0.260973 -0.067887 -0.444021 -0.382829 -0.387942 -0.297799 -0.164512 0.208713 0.145198 -0.447663 -0.712244 -0.175296 0.080511 0.774973 0.155811 -0.316074 -0.048116 0.041688 -0.821753 0.396592 -0.071041 0.152655 -0.211930 0.006131 0.143059 -0.210923 0.890762 0.083681 -0.038178 0.345994 0.845975 0.225107 0.110456 -0.068569 -0.023654 0.095366 -0.476153 0.480981 -0.608013 -0.041670 0.278254 -0.173077 0.293013 -0.232272 0.113971 -0.176860 -0.447293 0.752611 -0.253498 -0.305349 0.070251 -0.203074 0.127422 0.383767 0.292770 -0.535286 0.056030 0.426614 -0.453919 0.422035 -0.590256 -0.209195 0.359190 -0.259658 0.112672 0.615402 0.179569 -0.389668 -0.389579 0.418165 0.009840 0.261125 0.298119 0.509523 0.355456 0.318200 -1.018802 -0.060937 -0.505176 0.280329 -0.296614 -0.166742 -0.118266 -0.072363 0.297984 -0.249259 0.806757 -1.039992 -0.452794 0.057957 0.534197 0.355525 -0.278462 0.427105 0.027909 -0.651188 0.267918 0.062868 -0.176081 -0.135439 -0.715760 0.955797 0.081963 0.537776 0.014058 -0.315962 -0.630336 -0.812450 -0.886814 -1.205888 0.970234 0.028239 0.276357 -0.066949 0.231677 -0.135779 -0.616294 0.109714 -0.736662 
HCCDB-13.S121 0.418521 -0.292806 0.129646 -0.059552 0.132248 -0.717693 0.763221 0.662547 -0.055016 -0.054088 -0.098090 0.240419 -0.127457 0.371929 -0.775349 -0.249906 0.227837 -0.928974 -0.014104 -0.532405 -0.148124 0.510637 0.229899 0.838347 -0.103661 -0.159069 -0.021542 -0.166662 0.139699 0.226370 -0.338596 0.380153 0.930414 -0.600823 -0.615463 0.350565 -0.250884 -0.384575 0.095702 -0.485567 0.168998 0.196171 0.355383 -0.343658 -0.090998 -0.061669 0.215178 0.632214 0.080166 0.181687 0.379115 0.225648 0.025956 0.025187 0.126836 -0.454756 0.330759 0.124089 -0.228560 0.039820 0.313141 -0.301242 -0.095250 0.146075 0.637083 -0.436084 0.395646 0.101825 -0.047208 -0.027784 0.021462 0.508732 0.074774 0.132522 -0.148758 0.424560 0.062901 -0.604475 0.708655 -0.459496 0.376480 0.206271 -0.130682 -0.488066 -0.282027 -0.295872 -0.279668 -0.171474 0.090488 0.124800 -0.395467 -0.598891 -0.253839 0.079408 0.724998 0.124846 -0.367096 0.118141 0.072915 -0.887647 0.358253 -0.126073 0.153657 -0.128736 -0.136784 0.079691 -0.172360 0.821364 0.052633 -0.074582 0.210873 0.798224 0.134581 0.107654 -0.037175 0.067032 0.064388 -0.438000 0.406113 -0.709987 -0.138436 0.309512 -0.180934 0.194216 -0.166630 0.057569 -0.050916 -0.532380 0.700425 -0.248574 -0.242680 0.115113 -0.215556 0.213640 0.386002 0.282764 -0.456180 -0.014952 0.555890 -0.477270 0.413335 -0.582252 -0.271779 0.301382 -0.283596 -0.082898 0.618085 0.132055 -0.389062 -0.394661 0.433429 -0.184414 0.387335 0.370844 0.508893 0.285526 0.311491 -1.035146 -0.006259 -0.417398 0.257867 -0.191025 -0.151953 -0.133236 -0.006442 0.274180 -0.173600 0.857739 -1.130773 -0.404684 0.053563 0.426400 0.395009 -0.252013 0.434432 -0.004049 -0.669483 0.181929 -0.017569 -0.255075 -0.199662 -0.692841 1.012652 0.130251 0.478815 0.003613 -0.322774 -0.637750 -0.842393 -0.933533 -1.243286 0.960384 -0.017690 0.319280 0.017538 0.220335 -0.036126 -0.563478 0.141127 -0.712399 
HCCDB-13.S123 0.488595 -0.164592 0.089687 0.066192 -0.033424 -0.643506 0.767371 0.671732 -0.138220 0.004823 -0.107752 0.296071 -0.150853 0.284851 -0.843216 -0.205187 0.152484 -0.968865 -0.007675 -0.593524 -0.038178 0.522638 0.222528 0.728748 -0.078230 -0.246936 0.020623 -0.230334 0.058032 0.239789 -0.350224 0.402369 0.874216 -0.718995 -0.469110 0.309653 -0.221985 -0.460862 -0.000541 -0.519171 0.085501 0.200270 0.393161 -0.386199 -0.019168 -0.037759 0.339676 0.749527 -0.013746 0.137043 0.272504 0.328131 0.004155 -0.096159 0.121580 -0.564859 0.355099 0.102965 -0.149054 0.071971 0.380220 -0.205255 -0.096309 0.198252 0.531907 -0.447454 0.260152 0.104118 -0.018852 0.153580 -0.035958 0.517455 0.045684 0.130736 0.075051 0.357247 0.078083 -0.576462 0.583335 -0.438363 0.325953 0.222079 -0.210801 -0.598785 -0.386288 -0.373307 -0.151754 -0.198173 0.160578 0.083695 -0.239636 -0.654473 -0.231856 -0.033553 0.708119 0.027237 -0.333642 0.085181 0.005745 -0.878305 0.476046 -0.039074 0.287124 -0.251084 -0.084202 0.192756 -0.048168 0.856210 0.038082 -0.078268 0.168566 0.813653 0.174441 0.125476 -0.029562 0.127649 0.115639 -0.364624 0.388947 -0.617682 0.023163 0.286539 -0.146173 0.291554 -0.084490 0.203873 -0.254447 -0.447962 0.791231 -0.252930 -0.166028 0.125401 -0.210177 0.122967 0.373007 0.451809 -0.536516 -0.020145 0.588863 -0.519071 0.360695 -0.645306 -0.214553 0.220153 -0.383198 0.019444 0.667166 0.030453 -0.282409 -0.364103 0.563337 -0.018400 0.239799 0.347758 0.663032 0.424150 0.322872 -0.998574 0.012974 -0.528904 0.365854 -0.287844 -0.145164 -0.039688 0.035112 0.330132 -0.218027 0.674270 -1.076948 -0.442517 0.022377 0.459842 0.301981 -0.289232 0.445200 -0.127897 -0.586268 0.186825 -0.030242 -0.299212 -0.096328 -0.677081 0.945903 0.120977 0.550563 -0.081181 -0.280651 -0.622929 -0.815258 -1.061631 -1.102958 0.930745 -0.107199 0.307105 0.029758 0.183547 -0.141292 -0.659934 0.058208 -0.697992 
HCCDB-13.S125 0.373524 -0.358586 0.211258 0.013659 0.075118 -0.620486 0.749168 0.746495 -0.149073 0.131820 -0.049157 0.176236 -0.172667 0.404217 -0.794491 -0.154965 0.221088 -0.792988 -0.098205 -0.630722 -0.162861 0.562317 0.139900 0.779987 -0.109250 -0.168017 -0.090734 -0.219011 0.116501 0.220372 -0.317157 0.346642 0.832012 -0.675680 -0.633596 0.374167 -0.207902 -0.389466 0.200034 -0.490731 0.200192 0.176587 0.451702 -0.411768 -0.029814 -0.093613 0.312723 0.722286 0.066215 0.138638 0.388814 0.096375 -0.027608 -0.029784 0.145698 -0.579277 0.281357 0.086352 -0.101589 0.168232 0.267112 -0.270593 -0.014416 0.080052 0.592545 -0.327697 0.424031 0.079827 -0.033264 -0.034508 0.050863 0.413294 0.013338 0.151362 -0.045732 0.307903 0.010673 -0.553605 0.627601 -0.498113 0.369369 0.332682 -0.225908 -0.518396 -0.470591 -0.286268 -0.288568 -0.156328 0.130247 -0.066872 -0.356063 -0.578114 -0.221338 0.050600 0.656355 -0.038852 -0.408085 0.185919 -0.028761 -0.672016 0.447311 -0.134011 0.070293 -0.111546 -0.034252 0.056615 -0.184830 0.864011 0.055714 -0.075147 0.273421 0.874686 0.309646 0.106080 -0.069896 0.060671 0.038965 -0.471290 0.459176 -0.633964 -0.152933 0.267038 -0.094084 0.138625 -0.163494 0.234953 -0.081253 -0.444120 0.764304 -0.204903 -0.143744 0.171357 -0.199021 0.167790 0.386042 0.349593 -0.486520 -0.086406 0.478309 -0.549537 0.391960 -0.534016 -0.162789 0.262356 -0.348878 0.004484 0.589902 0.040328 -0.388507 -0.426313 0.540411 -0.113206 0.290271 0.242286 0.588622 0.236103 0.212459 -1.026860 -0.026766 -0.548832 0.177651 -0.191658 -0.151941 -0.124368 -0.056911 0.199726 -0.195395 0.737010 -1.129130 -0.447440 0.068715 0.431311 0.204005 -0.351715 0.492573 -0.026849 -0.584447 0.182818 -0.023022 -0.242721 -0.212643 -0.794180 0.967158 0.128155 0.442876 -0.023567 -0.272896 -0.713975 -0.816532 -0.940449 -1.284564 0.953229 -0.102929 0.420209 0.033892 0.184278 -0.080810 -0.554332 0.149269 -0.878010 
HCCDB-13.S126 0.405977 -0.376839 0.156732 -0.102992 0.126807 -0.636174 0.740440 0.670202 -0.132453 0.196216 -0.120437 0.262647 -0.227014 0.444326 -0.814238 -0.261349 0.324597 -0.876094 0.063628 -0.603230 -0.133220 0.478301 0.268998 0.818253 -0.080830 -0.244870 -0.106004 -0.304957 0.204343 0.228391 -0.320558 0.408992 0.923435 -0.663650 -0.601251 0.373494 -0.274248 -0.242736 0.078096 -0.492194 0.092050 0.124438 0.385366 -0.462492 -0.088980 0.077570 0.300596 0.666338 0.090576 0.095031 0.316985 0.167708 -0.077606 0.085840 0.073385 -0.509789 0.318504 0.190956 -0.143415 0.104784 0.410702 -0.292762 -0.068200 0.100447 0.541799 -0.357152 0.376014 0.029752 -0.186840 0.119052 0.189079 0.409824 0.068638 0.218694 0.016537 0.423687 -0.125332 -0.675485 0.690205 -0.412372 0.356617 0.327792 -0.246944 -0.522298 -0.432412 -0.286651 -0.221808 -0.187728 0.173916 0.023498 -0.307043 -0.621043 -0.262924 0.058124 0.762639 0.028241 -0.393742 0.076061 -0.014330 -0.784104 0.343151 -0.089409 0.139859 -0.164386 0.010601 0.052474 -0.192368 0.780265 0.073270 -0.122300 0.186830 0.871036 0.129338 0.105516 -0.059380 -0.010845 -0.051325 -0.458764 0.378646 -0.562394 -0.122110 0.172727 -0.138545 0.215797 -0.076263 0.300445 -0.113868 -0.498363 0.639064 -0.201459 -0.233838 0.160668 -0.175641 0.276654 0.331312 0.369778 -0.576707 -0.105120 0.392174 -0.503987 0.369487 -0.569659 -0.273050 0.244578 -0.264221 -0.031224 0.564498 0.127176 -0.228081 -0.369117 0.486553 -0.123449 0.319404 0.396912 0.644116 0.194424 0.207760 -1.027977 0.083744 -0.454608 0.209616 -0.275202 -0.110323 -0.218164 0.068019 0.439479 -0.158523 0.843791 -1.234092 -0.518427 0.134902 0.461398 0.172592 -0.349998 0.430910 -0.149689 -0.510061 0.260886 0.021803 -0.350103 -0.265106 -0.671661 1.075282 0.121381 0.679868 -0.052818 -0.214205 -0.539563 -0.751859 -0.986800 -1.148684 0.997393 -0.036998 0.424994 0.016661 0.267030 -0.085854 -0.531198 0.098593 -0.766697 
HCCDB-13.S128 0.351110 -0.379816 0.098468 -0.041519 0.064763 -0.642089 0.700823 0.713870 -0.167910 0.166731 -0.050256 0.243835 -0.212359 0.457020 -0.689971 -0.323038 0.322429 -0.891707 0.007588 -0.622844 -0.121483 0.515677 0.243226 0.778124 -0.086246 -0.182645 -0.190333 -0.163090 0.062765 0.176500 -0.320450 0.328383 0.877705 -0.638394 -0.584132 0.308607 -0.340650 -0.406509 0.043506 -0.459560 0.089589 0.256110 0.380683 -0.459680 -0.121078 -0.012261 0.331894 0.647001 0.018177 0.067612 0.275396 0.212264 -0.059999 -0.066317 0.124458 -0.536165 0.395603 0.173473 -0.146127 0.081717 0.380331 -0.335318 0.002915 0.100833 0.601463 -0.287153 0.433467 0.095952 -0.239550 0.126816 0.076025 0.494481 0.028834 0.122440 0.010735 0.323860 0.014896 -0.636114 0.704661 -0.527759 0.445430 0.307276 -0.104700 -0.562624 -0.394691 -0.389292 -0.217755 -0.247167 0.103518 0.015364 -0.304176 -0.706804 -0.273490 -0.002226 0.806947 -0.006676 -0.392379 0.161537 -0.049363 -0.859174 0.411452 -0.090895 0.126447 -0.200448 -0.126058 -0.011521 -0.152978 0.720253 0.031613 -0.110400 0.295811 0.839646 0.102781 0.108330 -0.010237 0.056904 0.078878 -0.416978 0.506516 -0.530347 -0.134990 0.200862 -0.017503 0.163174 -0.158215 0.292273 -0.119117 -0.460700 0.621825 -0.227000 -0.156304 0.127281 -0.232601 0.181687 0.365767 0.336835 -0.536888 -0.039475 0.528927 -0.457152 0.280348 -0.625953 -0.209051 0.248230 -0.220038 -0.032730 0.584743 0.072350 -0.284647 -0.336309 0.503874 -0.048898 0.252137 0.290416 0.553222 0.279730 0.198442 -1.030270 -0.014231 -0.521562 0.322168 -0.163381 -0.174522 -0.188753 0.025834 0.301780 -0.171068 0.764937 -1.202056 -0.552179 0.113057 0.374311 0.281316 -0.285112 0.377192 -0.145760 -0.598809 0.225613 0.061331 -0.374556 -0.085695 -0.722893 1.011204 0.092739 0.557761 -0.028137 -0.284118 -0.597034 -0.771788 -0.988798 -1.194860 0.963637 -0.079665 0.358784 0.064881 0.298149 -0.095124 -0.562326 0.083445 -0.830674 
HCCDB-13.S13 0.389540 -0.263350 0.048234 0.024201 -0.030292 -0.643506 0.703881 0.668240 -0.168670 0.063258 -0.078238 0.220464 0.007017 0.375927 -0.786984 -0.268790 0.257936 -1.023326 0.005426 -0.598418 -0.145173 0.474655 0.248096 0.759770 -0.093821 -0.145215 -0.034525 -0.237305 0.038182 0.168330 -0.527234 0.318515 0.839072 -0.638538 -0.534874 0.344990 -0.280036 -0.334529 0.121380 -0.555267 0.097127 0.270028 0.406405 -0.474816 -0.170894 -0.025041 0.294499 0.723818 -0.001722 0.152270 0.229362 0.057115 -0.045464 0.028210 0.195354 -0.464539 0.273363 0.116983 -0.189811 0.176350 0.320433 -0.279005 0.017546 0.074480 0.539465 -0.349249 0.319774 0.151501 -0.163605 0.113046 0.084406 0.557817 0.062532 0.134693 0.036384 0.376739 -0.002548 -0.648577 0.673243 -0.500038 0.447597 0.129981 -0.113981 -0.559094 -0.309503 -0.475593 -0.192902 -0.222587 0.127305 -0.021186 -0.283876 -0.715932 -0.209676 0.026470 0.721824 -0.106691 -0.361674 0.097612 0.046881 -0.714281 0.438310 -0.119061 0.079842 -0.309022 -0.092784 0.116662 0.051534 0.741645 0.103919 -0.101694 0.251064 0.762087 0.177850 0.025731 -0.005008 0.026412 0.014175 -0.493937 0.336369 -0.594865 -0.144620 0.229372 -0.034043 0.244121 -0.026607 0.226291 -0.131736 -0.399817 0.628176 -0.380214 -0.260592 0.156755 -0.195970 0.197008 0.399937 0.350251 -0.633633 -0.033483 0.531477 -0.500537 0.342437 -0.630859 -0.192557 0.190338 -0.118270 -0.110387 0.645552 0.217150 -0.352048 -0.429682 0.563993 -0.104377 0.300022 0.333875 0.582212 0.243494 0.185536 -0.960572 0.060147 -0.538297 0.379085 -0.221784 -0.031637 -0.196655 0.028083 0.309655 -0.084757 0.790084 -1.159330 -0.618341 0.070936 0.308294 0.198425 -0.291399 0.308274 -0.107666 -0.582672 0.241574 -0.034944 -0.372787 -0.128005 -0.706066 1.035902 0.111345 0.480974 -0.058351 -0.335822 -0.567053 -0.753339 -1.042476 -1.215816 0.989700 0.027250 0.377698 -0.011531 0.207928 -0.138754 -0.538152 0.149682 -0.746655 
HCCDB-13.S130 0.541954 -0.229685 0.180931 -0.075461 -0.036111 -0.786724 0.821951 0.607054 -0.098131 -0.083175 -0.148548 0.309974 -0.187181 0.302183 -0.796399 -0.212722 0.174014 -0.868147 -0.021859 -0.576210 -0.120797 0.590042 0.229473 0.618183 -0.097641 -0.172501 -0.020291 -0.179490 0.081726 0.256062 -0.334231 0.422365 0.850548 -0.737014 -0.467683 0.297454 -0.146277 -0.434299 -0.001651 -0.571517 0.034114 0.152588 0.374901 -0.275313 -0.034128 -0.050710 0.416212 0.694220 0.014315 0.075279 0.240024 0.352822 -0.025610 -0.082934 0.084691 -0.436724 0.371509 0.123557 -0.234420 0.140623 0.371617 -0.291454 -0.122568 0.169857 0.628328 -0.523984 0.213076 0.049160 -0.055894 -0.017824 -0.067029 0.526301 0.077836 0.071047 -0.153749 0.271492 0.031809 -0.572880 0.555081 -0.374312 0.267180 0.218091 -0.188180 -0.677423 -0.407697 -0.313563 -0.171291 -0.227614 0.224321 0.134111 -0.365463 -0.632536 -0.213917 -0.010597 0.678396 0.068554 -0.323126 0.099438 0.115703 -0.850713 0.413271 -0.115066 0.197900 -0.240659 -0.032816 0.199516 -0.180845 0.835770 0.051459 -0.021234 0.226478 0.906068 0.175474 0.166060 -0.005272 0.089140 0.113076 -0.392067 0.543824 -0.641716 0.010308 0.268840 -0.176460 0.239357 -0.171657 0.090442 -0.252904 -0.464383 0.778954 -0.310108 -0.161010 0.090985 -0.266504 0.155218 0.406883 0.392598 -0.508510 -0.009446 0.581402 -0.508202 0.378891 -0.717554 -0.179060 0.160024 -0.337191 -0.048232 0.561081 0.042183 -0.311953 -0.384274 0.560033 -0.042332 0.363501 0.334292 0.596321 0.433990 0.310682 -1.012282 -0.044018 -0.457050 0.381500 -0.317235 -0.162902 0.021637 -0.013080 0.219796 -0.241217 0.760449 -1.043176 -0.458011 0.054378 0.465769 0.370255 -0.325533 0.399256 -0.040110 -0.630088 0.304774 -0.088898 -0.258487 -0.118039 -0.608389 0.992251 0.108510 0.462426 0.025608 -0.244182 -0.702571 -0.812861 -1.072504 -1.181463 0.926511 -0.042412 0.388537 -0.126705 0.074654 -0.111601 -0.818436 0.074136 -0.651211 
HCCDB-13.S132 0.313043 -0.398998 0.115837 -0.148946 0.111691 -0.630131 0.812594 0.675486 -0.162485 0.104459 -0.086332 0.258818 -0.112417 0.430395 -0.779524 -0.256685 0.363050 -0.908867 -0.021204 -0.561673 -0.145230 0.525820 0.167850 0.754185 -0.082368 -0.251141 -0.125221 -0.181791 0.188534 0.158236 -0.436709 0.377024 0.902914 -0.661723 -0.650860 0.369919 -0.278257 -0.382966 0.103223 -0.489279 0.167171 0.108129 0.286430 -0.483364 -0.149743 0.018315 0.316467 0.737274 0.125440 0.071396 0.321322 0.121300 -0.075730 -0.003728 0.059910 -0.473883 0.439130 0.103997 -0.098894 0.183434 0.498419 -0.291743 0.034260 0.110634 0.561278 -0.279699 0.386970 0.148848 -0.245594 0.059767 0.114843 0.402354 0.012108 0.181174 0.067854 0.360396 -0.022179 -0.650659 0.697005 -0.449483 0.384106 0.326129 -0.186718 -0.440140 -0.455055 -0.284903 -0.230882 -0.174635 0.133758 0.003494 -0.328058 -0.622386 -0.228138 0.015655 0.775834 0.102729 -0.489841 0.215707 0.062168 -0.780196 0.367746 -0.119194 0.146075 -0.190910 -0.031795 -0.033578 -0.176394 0.841301 0.015734 -0.006698 0.218322 0.923595 0.115791 0.077879 -0.013354 -0.063207 0.051970 -0.437407 0.388261 -0.575296 -0.065451 0.147412 -0.127307 0.097046 -0.122014 0.259347 -0.139292 -0.445316 0.659807 -0.154848 -0.173648 0.210485 -0.256047 0.327138 0.351124 0.298951 -0.567841 -0.128033 0.451595 -0.464533 0.339022 -0.500716 -0.288334 0.308631 -0.220476 -0.108858 0.641609 0.124630 -0.266498 -0.442770 0.505742 -0.121504 0.199869 0.279891 0.574071 0.221374 0.267259 -1.082529 0.066129 -0.548811 0.164364 -0.321181 -0.191326 -0.097226 0.008624 0.329485 -0.178815 0.778724 -1.293103 -0.479679 0.153388 0.430361 0.202119 -0.313107 0.447744 -0.038447 -0.548580 0.290775 0.002746 -0.343586 -0.172026 -0.685716 1.071982 0.157350 0.687865 -0.032376 -0.227862 -0.493458 -0.771217 -0.930271 -1.122838 0.946799 -0.055893 0.371189 0.087296 0.265123 -0.123409 -0.511059 0.099988 -0.755540 
HCCDB-13.S134 0.290205 -0.179018 0.152110 0.017192 -0.021009 -0.598427 0.690180 0.677138 -0.086189 0.054106 -0.148058 0.250444 -0.067155 0.386028 -0.725001 -0.256726 0.325900 -0.997110 -0.005698 -0.653928 -0.102292 0.475106 0.139350 0.770020 -0.034337 -0.228358 -0.075123 -0.269789 0.093698 0.258647 -0.363948 0.298171 0.943623 -0.623216 -0.625876 0.346493 -0.188125 -0.376395 0.064135 -0.529332 0.193898 0.314461 0.288772 -0.488682 -0.090888 -0.105060 0.421479 0.680072 0.083719 0.174113 0.182761 0.146712 -0.190723 -0.020075 0.046744 -0.447540 0.384569 0.182705 -0.086761 0.192585 0.269839 -0.360212 -0.118368 0.074070 0.637127 -0.498145 0.399014 0.174134 -0.138091 0.073321 0.019860 0.482552 -0.057365 0.141551 0.009804 0.339030 0.082161 -0.616252 0.693153 -0.369121 0.354616 0.243959 -0.112918 -0.589220 -0.389760 -0.464758 -0.267044 -0.162483 0.209373 -0.001826 -0.282038 -0.588616 -0.153235 -0.039408 0.739725 -0.132023 -0.351036 0.129172 0.052685 -0.818446 0.493129 -0.059809 0.222996 -0.198535 0.003175 0.077841 -0.048390 0.784975 0.175077 -0.129165 0.270702 0.860599 0.242128 0.086237 -0.037546 0.008152 0.172747 -0.479107 0.382118 -0.624742 0.001604 0.305535 -0.023738 0.175772 -0.100732 0.284312 -0.056106 -0.468553 0.777759 -0.305441 -0.286899 0.217532 -0.295578 0.247265 0.444678 0.277952 -0.623796 -0.059749 0.544468 -0.461479 0.428496 -0.518542 -0.188102 0.239737 -0.234011 -0.085895 0.519732 0.160640 -0.228082 -0.491502 0.473626 -0.102982 0.185153 0.285890 0.665026 0.289973 0.295555 -1.023108 0.104319 -0.523397 0.202331 -0.279586 -0.162624 -0.092894 -0.019161 0.195279 -0.208195 0.794125 -1.111679 -0.404079 0.013553 0.423417 0.210146 -0.335056 0.381947 -0.040487 -0.690641 0.258851 -0.059615 -0.319412 -0.146287 -0.766005 0.956146 0.139875 0.451710 -0.095060 -0.224341 -0.458627 -0.692590 -0.940078 -1.189762 0.839287 -0.062710 0.482948 0.072789 0.165704 -0.142830 -0.462102 0.257161 -0.782862 
HCCDB-13.S135 0.346815 -0.383699 0.049761 -0.035523 0.121948 -0.685807 0.821675 0.749464 0.009957 0.015057 -0.175561 0.240665 0.055596 0.284934 -0.761409 -0.202824 0.278537 -0.973298 -0.071737 -0.682528 -0.067217 0.472091 0.165909 0.803659 -0.181127 -0.219268 0.019163 -0.122915 0.254145 0.063062 -0.412567 0.193522 0.918949 -0.544133 -0.595698 0.352729 -0.347287 -0.439216 0.098666 -0.472682 0.151615 0.161483 0.382176 -0.421089 -0.177893 0.015001 0.327964 0.643966 0.117115 0.164204 0.253958 0.205482 -0.101708 -0.002807 0.073919 -0.480259 0.407326 0.070174 -0.314685 0.273792 0.324621 -0.284549 -0.143692 0.074678 0.601290 -0.322244 0.444361 0.105739 -0.112685 -0.021139 0.086854 0.475070 0.023994 0.195027 0.041423 0.291949 -0.117337 -0.574991 0.768833 -0.542794 0.430677 0.337846 -0.175296 -0.527552 -0.338422 -0.321807 -0.364871 -0.172861 0.071853 0.129738 -0.210896 -0.630896 -0.181590 -0.015596 0.684583 -0.006540 -0.384400 0.180447 0.121434 -0.750559 0.457317 -0.145594 0.169636 -0.078495 -0.000062 0.014817 -0.189729 0.751304 0.041646 -0.170405 0.287210 0.841883 0.122601 0.020581 -0.067164 0.065947 0.034610 -0.545272 0.482581 -0.639473 -0.027583 0.241505 -0.024702 0.209516 -0.052184 0.133014 -0.151166 -0.454318 0.669171 -0.254699 -0.252662 0.060064 -0.218541 0.234952 0.327791 0.256872 -0.566411 -0.077581 0.478344 -0.396693 0.322150 -0.552580 -0.260598 0.308011 -0.233383 -0.120302 0.524730 0.175584 -0.386313 -0.471572 0.482236 -0.116020 0.331748 0.338914 0.555779 0.271738 0.264773 -1.040717 0.066829 -0.598416 0.206982 -0.188241 -0.216137 -0.133382 -0.147061 0.301366 -0.136496 0.685937 -1.125922 -0.446787 0.065652 0.265533 0.236016 -0.346159 0.320972 -0.112239 -0.609288 0.316200 -0.049557 -0.323707 -0.144799 -0.807689 1.148862 0.073642 0.610808 -0.028047 -0.337202 -0.537662 -0.763434 -0.883572 -1.216412 0.957053 0.043267 0.425494 -0.018856 0.174637 -0.184251 -0.408799 0.211350 -0.737841 
HCCDB-13.S137 0.319097 -0.303795 0.088804 -0.087418 0.005715 -0.620283 0.818366 0.818917 -0.054664 0.063706 -0.103852 0.139194 -0.091920 0.314194 -0.741110 -0.261115 0.158159 -0.928338 0.002760 -0.633434 -0.153943 0.544713 0.180264 0.703484 -0.147066 -0.117174 -0.077602 -0.143363 0.162752 0.184790 -0.319521 0.272784 0.766749 -0.628289 -0.600488 0.339456 -0.244971 -0.360172 0.236956 -0.533590 0.018473 0.169528 0.362684 -0.390932 -0.058124 -0.054658 0.355508 0.646393 0.044508 0.095885 0.199298 0.163165 0.017895 -0.069123 0.174392 -0.527756 0.396522 0.085724 -0.214743 0.156922 0.433960 -0.229947 -0.096863 0.109050 0.550492 -0.369747 0.394636 0.105987 -0.152471 0.030065 0.038421 0.423123 0.025581 0.138078 0.091004 0.340663 -0.047973 -0.590253 0.688907 -0.496404 0.372652 0.304835 -0.192721 -0.576774 -0.236330 -0.382092 -0.294047 -0.295832 0.119622 0.049960 -0.255548 -0.716477 -0.206028 -0.018851 0.796375 -0.062093 -0.337283 0.074863 0.090142 -0.744684 0.446554 -0.046218 0.189127 -0.242094 -0.116862 0.101339 -0.082761 0.831015 0.055016 -0.071776 0.251497 0.866588 0.192366 0.119123 -0.042827 -0.038007 0.133208 -0.506420 0.459654 -0.611307 0.001773 0.213221 0.014300 0.194305 -0.191384 0.190473 -0.160422 -0.421790 0.693784 -0.236904 -0.227901 0.162234 -0.278064 0.196738 0.446785 0.298407 -0.522265 -0.052192 0.490724 -0.442992 0.326713 -0.631076 -0.185137 0.247174 -0.287570 -0.036496 0.598306 0.097748 -0.400345 -0.396299 0.481827 -0.075174 0.379757 0.317776 0.476428 0.249233 0.201367 -1.129317 0.035526 -0.578261 0.362706 -0.233567 -0.232240 -0.116483 -0.052924 0.293713 -0.053133 0.782112 -1.167138 -0.470234 0.145133 0.408047 0.189560 -0.244350 0.363793 -0.024353 -0.626802 0.174596 -0.095333 -0.288114 -0.177096 -0.703065 1.029654 0.055116 0.455470 0.013656 -0.258964 -0.508106 -0.818078 -0.933984 -1.213922 0.904647 -0.053176 0.439646 -0.052341 0.165142 -0.113676 -0.545355 0.153055 -0.829949 
HCCDB-13.S138 0.403333 -0.353889 0.185387 -0.076131 0.091099 -0.634854 0.840067 0.623289 -0.115027 0.181531 -0.154960 0.245047 -0.242960 0.395642 -0.821971 -0.240255 0.349956 -0.833421 0.005458 -0.568069 -0.120649 0.449453 0.211574 0.787715 -0.080387 -0.339699 -0.104085 -0.146733 0.241322 0.206967 -0.376120 0.426598 0.924359 -0.624539 -0.599951 0.361102 -0.230822 -0.314518 0.022567 -0.537160 0.085208 0.165426 0.327223 -0.442867 -0.060058 0.035992 0.336073 0.753077 0.096721 0.061331 0.306944 0.226602 -0.035861 0.090657 0.084122 -0.479837 0.371702 0.129754 -0.184980 0.050357 0.423383 -0.301045 -0.031288 0.092881 0.583242 -0.380733 0.401775 0.147160 -0.158561 0.020875 0.126609 0.400739 0.022998 0.149770 -0.044173 0.367449 0.007388 -0.598476 0.644082 -0.426650 0.271322 0.279783 -0.208216 -0.511954 -0.406637 -0.314199 -0.206614 -0.132999 0.148599 0.050801 -0.314295 -0.657246 -0.234552 0.039651 0.712332 0.107184 -0.392488 0.050715 0.082738 -0.750041 0.422697 -0.084411 0.120709 -0.214322 -0.024610 0.017309 -0.229276 0.782681 0.009434 -0.081805 0.203861 0.837220 0.178002 0.127070 -0.035554 -0.042090 0.024782 -0.418435 0.443738 -0.554306 -0.145816 0.205725 -0.154019 0.165910 -0.136211 0.140859 -0.147813 -0.420379 0.724485 -0.218524 -0.158024 0.197200 -0.232493 0.234180 0.410093 0.341315 -0.491750 -0.060225 0.515734 -0.547609 0.360472 -0.536291 -0.255517 0.309638 -0.269604 -0.068418 0.578704 0.128814 -0.215622 -0.391838 0.480498 -0.066731 0.330363 0.394223 0.646503 0.249832 0.270175 -1.049268 -0.050905 -0.540012 0.278422 -0.278278 -0.138241 -0.114698 0.018534 0.272608 -0.236262 0.809897 -1.203010 -0.451024 0.192119 0.360730 0.158490 -0.279048 0.387499 -0.097897 -0.603470 0.255633 0.102062 -0.401124 -0.148565 -0.638461 1.073431 0.091085 0.642939 0.001338 -0.157565 -0.550580 -0.774141 -1.000535 -1.256386 0.937544 -0.060672 0.469061 -0.024009 0.208493 -0.174249 -0.569461 0.119701 -0.729064 
HCCDB-13.S140 0.333574 -0.137578 0.143360 -0.099082 0.029162 -0.599566 0.882409 0.766207 -0.102845 -0.007152 -0.172639 0.397777 -0.148099 0.315563 -0.744222 -0.068100 0.284921 -1.077382 -0.015310 -0.655290 -0.184756 0.447526 0.189227 0.816363 -0.090998 -0.265340 -0.020270 -0.224529 0.144472 0.215202 -0.396212 0.298444 0.967860 -0.614022 -0.534318 0.364716 -0.250060 -0.378642 0.009519 -0.509194 0.078984 0.339150 0.357338 -0.444730 0.005817 -0.180616 0.390131 0.664667 0.160020 0.080006 0.319295 0.157057 -0.230127 0.023144 -0.022353 -0.425377 0.418113 0.146878 -0.214960 0.266780 0.276610 -0.342478 -0.097477 0.120210 0.576487 -0.455687 0.495225 0.195534 -0.196560 -0.075547 0.016144 0.474190 -0.062112 0.119690 0.046994 0.389677 0.107188 -0.619939 0.614900 -0.343302 0.283854 0.246343 -0.167727 -0.485763 -0.406330 -0.420134 -0.289473 -0.066501 0.107757 0.034974 -0.216731 -0.656696 -0.238932 0.036425 0.745843 -0.094785 -0.377232 0.158714 0.027733 -0.954969 0.385053 -0.028594 0.040485 -0.206480 -0.061202 0.214649 -0.129143 0.871921 0.099697 0.040570 0.251817 0.789969 0.101522 0.059733 -0.047875 -0.041050 0.196940 -0.437770 0.359867 -0.592479 -0.010909 0.280353 -0.040931 0.178031 -0.169534 0.207590 -0.031154 -0.326689 0.844126 -0.337544 -0.231306 0.238837 -0.143554 0.050865 0.387633 0.297815 -0.651882 0.024550 0.617078 -0.372923 0.449008 -0.480597 -0.218169 0.363390 -0.283936 0.107175 0.530148 0.015553 -0.311079 -0.450073 0.453691 -0.151218 0.118541 0.185098 0.562948 0.270410 0.224117 -0.937338 -0.037886 -0.516599 0.276836 -0.303549 -0.084153 -0.111148 -0.025251 0.309511 -0.105664 0.738301 -1.105206 -0.482031 0.119731 0.511683 0.263752 -0.272013 0.381842 0.014709 -0.594440 0.269380 0.047720 -0.341380 -0.223889 -0.832155 1.031751 0.209348 0.529105 -0.081667 -0.159310 -0.524580 -0.703184 -0.954010 -1.109513 0.926798 -0.066661 0.367487 0.078920 0.328733 -0.179550 -0.491629 0.080803 -0.696078 
HCCDB-13.S142 0.376127 -0.353748 0.117499 -0.101509 0.113845 -0.593685 0.650703 0.703372 -0.153855 0.102491 0.077667 0.356050 -0.174364 0.434035 -0.714870 -0.208665 0.332827 -0.983381 0.028370 -0.592164 -0.075976 0.561107 0.168245 0.792067 -0.036338 -0.269137 -0.070657 -0.188312 0.157568 0.201682 -0.341652 0.298472 0.867041 -0.524492 -0.693968 0.335797 -0.371604 -0.443647 0.097808 -0.469354 0.098760 0.154720 0.441282 -0.528705 -0.113124 0.000091 0.263223 0.716221 0.022061 -0.000762 0.316135 0.152471 -0.147138 -0.055321 -0.017524 -0.504371 0.364223 0.000249 -0.145273 0.165609 0.304021 -0.243502 0.051973 0.086930 0.630191 -0.381893 0.534080 0.117967 -0.121231 0.054887 0.098961 0.421706 -0.045598 0.186939 0.178941 0.334379 -0.128483 -0.577309 0.684760 -0.466389 0.394752 0.285902 -0.223006 -0.521906 -0.345888 -0.451607 -0.285151 -0.188486 0.145922 0.021290 -0.337453 -0.644159 -0.271792 0.051886 0.862410 0.033342 -0.348900 0.230137 -0.064246 -0.869905 0.296969 -0.078084 0.098106 -0.088679 -0.079262 -0.028527 -0.148463 0.788407 -0.010228 -0.075045 0.327051 0.788891 0.217532 0.084847 -0.108566 0.003557 0.078236 -0.474304 0.468958 -0.632623 -0.026101 0.299464 -0.058187 0.169757 -0.177178 0.269176 -0.137834 -0.446007 0.621362 -0.233098 -0.194761 0.222182 -0.255738 0.187695 0.414609 0.327454 -0.572196 -0.143759 0.501590 -0.448597 0.364038 -0.506082 -0.276700 0.302494 -0.227980 -0.009148 0.554078 0.050721 -0.341642 -0.371537 0.437869 -0.047640 0.191181 0.281716 0.516555 0.298001 0.084013 -1.099491 0.128598 -0.505162 0.222723 -0.289121 -0.217859 -0.248686 -0.013407 0.362119 -0.126129 0.792288 -1.136314 -0.509709 0.102200 0.365913 0.292473 -0.267535 0.420753 -0.121692 -0.554846 0.264472 0.016852 -0.307195 -0.123185 -0.805572 0.976017 0.155395 0.611842 0.015438 -0.237002 -0.525328 -0.811379 -1.023450 -1.189726 0.983507 -0.019541 0.396594 0.100104 0.262013 -0.062123 -0.429526 0.030670 -0.839849 
HCCDB-13.S144 0.427458 -0.355914 0.189266 -0.093063 0.075749 -0.555888 0.803052 0.619860 -0.200534 0.114254 -0.047038 0.195158 -0.186562 0.393764 -0.660987 -0.307808 0.240932 -0.866035 -0.004945 -0.602905 -0.141746 0.556391 0.276127 0.786790 -0.091509 -0.250667 -0.078382 -0.216011 0.176606 0.251176 -0.170766 0.315434 0.858253 -0.613354 -0.526666 0.282480 -0.241578 -0.431345 0.045673 -0.489294 0.103729 0.137228 0.401031 -0.416933 -0.062243 -0.116447 0.411508 0.766648 0.017408 0.008192 0.251230 0.193088 -0.082135 -0.036631 0.084075 -0.473865 0.401051 0.146505 -0.226766 0.161338 0.410687 -0.253250 -0.084227 0.137668 0.493813 -0.278448 0.400926 0.029901 -0.059164 -0.072868 0.034291 0.421199 0.032505 0.090100 -0.005062 0.345965 0.047854 -0.640672 0.558825 -0.471159 0.403878 0.354932 -0.278996 -0.613534 -0.403139 -0.336068 -0.180486 -0.193060 0.208420 0.041064 -0.343652 -0.677532 -0.279828 -0.028216 0.807049 0.022069 -0.336245 0.092632 -0.022938 -0.903933 0.284391 0.021747 0.107367 -0.218420 -0.070406 -0.005767 -0.188737 0.831037 -0.007854 -0.047933 0.281137 0.847887 0.267306 0.077481 -0.086339 0.050165 0.053496 -0.424697 0.464745 -0.619064 -0.017207 0.222721 -0.054585 0.276768 -0.246760 0.171379 -0.183717 -0.414994 0.818919 -0.256058 -0.096033 0.191750 -0.356168 0.216483 0.349197 0.336496 -0.617527 -0.037790 0.567075 -0.544006 0.393269 -0.676431 -0.278397 0.201085 -0.244361 0.018746 0.579249 -0.009259 -0.377489 -0.406130 0.543314 -0.040120 0.230563 0.342457 0.574560 0.361226 0.195941 -1.105433 -0.074112 -0.563738 0.298045 -0.251607 -0.288646 -0.044508 0.008085 0.211856 -0.229165 0.764064 -1.081917 -0.465656 0.114617 0.432294 0.204303 -0.351438 0.449471 -0.082118 -0.509388 0.244815 0.055616 -0.327959 -0.149079 -0.723154 1.010769 0.019986 0.561758 -0.037726 -0.231502 -0.616835 -0.752679 -1.024253 -1.220450 0.871446 -0.081796 0.405212 -0.043333 0.200469 -0.006821 -0.576245 -0.022820 -0.772111 
HCCDB-13.S146 0.349429 -0.340733 0.050834 0.004258 -0.032373 -0.764709 0.727504 0.745386 -0.177516 -0.038135 0.028465 0.344560 -0.103194 0.342889 -0.720842 -0.326193 0.352146 -0.974080 -0.009719 -0.625721 -0.023161 0.482297 0.176620 0.936234 -0.096222 -0.120551 0.032380 -0.171853 0.098086 0.140612 -0.266039 0.367354 1.030253 -0.570433 -0.585827 0.344443 -0.341906 -0.433392 0.022750 -0.589094 0.117049 0.219863 0.424081 -0.378885 -0.034521 0.056531 0.184033 0.701699 -0.036013 0.077077 0.189505 0.308184 -0.015799 -0.181032 0.150444 -0.535773 0.332088 0.014298 -0.259506 0.065299 0.381090 -0.297721 -0.111208 0.068835 0.599956 -0.445076 0.333279 0.197000 -0.273467 0.000325 0.150500 0.549175 0.066636 0.114069 0.003206 0.362310 0.046236 -0.562522 0.651684 -0.544371 0.511395 0.320581 -0.075055 -0.566401 -0.347759 -0.386875 -0.259762 -0.141263 0.155150 0.118131 -0.296805 -0.669524 -0.296171 -0.106518 0.743516 0.040483 -0.455989 0.143805 -0.031718 -0.843277 0.382422 -0.099845 0.034521 -0.191894 -0.073569 0.058673 -0.075010 0.690647 0.145607 -0.121677 0.411488 0.696483 0.092337 0.071900 0.044068 0.146764 0.154651 -0.481692 0.492451 -0.514973 -0.036911 0.182666 -0.040089 0.105120 -0.013204 0.176587 -0.158721 -0.348105 0.670395 -0.296708 -0.124648 0.142522 -0.148234 0.220276 0.378193 0.350440 -0.654208 -0.004485 0.477280 -0.543959 0.365625 -0.581702 -0.242625 0.333050 -0.081824 -0.029389 0.541612 0.187721 -0.382115 -0.438366 0.499777 -0.112635 0.293318 0.252236 0.500929 0.238539 0.249571 -0.968369 0.018499 -0.371336 0.254212 -0.244709 -0.221272 -0.123053 -0.098062 0.228941 -0.106117 0.717803 -1.092081 -0.531338 0.108975 0.425248 0.252317 -0.378756 0.353154 -0.117756 -0.614633 0.334068 0.014866 -0.360722 -0.119457 -0.725504 0.981909 0.125663 0.584845 -0.176948 -0.342951 -0.550260 -0.723169 -0.875333 -1.247429 1.007137 -0.037319 0.447200 -0.050452 0.210440 -0.092596 -0.528921 0.132459 -0.773111 
HCCDB-13.S148 0.511840 -0.204075 0.063104 0.018791 0.026131 -0.677474 0.772745 0.670118 -0.129929 0.019136 -0.050522 0.258756 -0.060762 0.431622 -0.705969 -0.141997 0.221770 -1.059053 -0.027501 -0.672017 -0.048608 0.557542 0.259078 0.830435 -0.026148 -0.269183 0.081738 -0.306241 0.155913 0.228750 -0.476329 0.356174 0.938489 -0.662404 -0.479984 0.319359 -0.132606 -0.368805 0.125353 -0.453943 0.053209 0.215910 0.326965 -0.445458 -0.146152 -0.101941 0.277720 0.593354 0.120836 0.126402 0.236843 0.296026 0.050878 -0.092570 0.038045 -0.422788 0.366837 0.066207 -0.156984 0.160742 0.309679 -0.319120 -0.116761 0.118033 0.503205 -0.449826 0.290442 0.200006 -0.110233 0.215764 0.119012 0.540910 0.009844 0.109973 0.082817 0.327568 -0.024363 -0.671127 0.611845 -0.475719 0.430729 0.167168 -0.156968 -0.617613 -0.340158 -0.375408 -0.144107 -0.118439 0.134966 0.136485 -0.334442 -0.629678 -0.231186 -0.009302 0.669709 -0.071808 -0.348475 0.043197 0.066590 -0.771762 0.394398 -0.086971 0.097912 -0.258754 -0.175942 0.217985 -0.004215 0.825872 -0.020560 -0.099772 0.228698 0.852210 0.125120 0.214217 -0.013200 0.166228 0.197371 -0.386494 0.364944 -0.583968 -0.122587 0.210377 -0.234322 0.167054 0.070262 0.267076 -0.182885 -0.480081 0.799642 -0.401100 -0.182832 0.078875 -0.208366 0.091211 0.307881 0.362001 -0.556136 0.069333 0.567137 -0.400594 0.418546 -0.435919 -0.318706 0.346403 -0.239827 -0.063525 0.612952 0.051089 -0.239698 -0.459791 0.538381 -0.057506 0.244517 0.260730 0.589604 0.286780 0.365230 -1.013757 -0.025216 -0.467392 0.221513 -0.329303 -0.116633 -0.065343 0.032692 0.286929 -0.183831 0.709240 -1.128952 -0.493326 0.048644 0.409615 0.359295 -0.198498 0.435250 -0.083255 -0.597851 0.292179 0.022231 -0.403248 -0.022146 -0.595123 0.919448 0.095992 0.561848 -0.017585 -0.277844 -0.532601 -0.760301 -1.028123 -1.187999 0.981111 -0.050447 0.338694 0.018477 0.369945 -0.133726 -0.543256 0.097821 -0.780224 
HCCDB-13.S15 0.406204 -0.299830 0.115098 0.111267 0.154756 -0.857214 0.735071 0.694478 -0.054109 0.049580 -0.103040 0.127128 -0.056635 0.388387 -0.668552 -0.207740 0.273695 -1.045388 -0.052850 -0.519319 -0.098801 0.553625 0.263946 0.895418 -0.044076 -0.186279 -0.063603 -0.266057 0.101043 0.323429 -0.474388 0.270138 0.930388 -0.757496 -0.529831 0.347140 -0.258633 -0.355783 0.058171 -0.542043 0.068318 0.148758 0.398918 -0.462673 -0.084406 -0.064571 0.276551 0.629771 0.088916 0.073450 0.371054 0.164677 -0.187549 -0.039785 0.103312 -0.505771 0.305547 0.129843 -0.329163 0.236199 0.412046 -0.478511 -0.053737 0.166315 0.540746 -0.388566 0.330736 0.297327 -0.164069 0.069471 0.007720 0.554329 -0.022194 0.154065 -0.012710 0.333976 0.056313 -0.717242 0.610761 -0.475958 0.447806 0.223657 -0.125152 -0.536062 -0.342613 -0.391496 -0.289634 -0.088627 0.218244 -0.001560 -0.260997 -0.702500 -0.262046 0.096480 0.749133 -0.048390 -0.366997 0.037493 0.090167 -0.810747 0.421890 -0.067409 -0.015264 -0.147684 0.002187 0.127212 -0.068347 0.805358 0.175268 -0.084916 0.175731 0.820521 0.202442 0.122361 -0.032194 0.136758 0.069615 -0.335767 0.381105 -0.560273 -0.005020 0.319688 -0.062690 0.201314 -0.095457 0.298849 -0.049327 -0.418884 0.761575 -0.306882 -0.206374 0.103823 -0.146914 0.102352 0.411102 0.251850 -0.556921 0.084118 0.496999 -0.477749 0.385318 -0.541923 -0.233428 0.252751 -0.211853 -0.122358 0.626689 0.020077 -0.359404 -0.452743 0.411641 -0.175500 0.186702 0.213070 0.618584 0.231656 0.243555 -0.927807 0.092812 -0.536485 0.226794 -0.220032 -0.132634 -0.129030 -0.048868 0.304812 -0.150866 0.811746 -1.127772 -0.466689 0.125382 0.437916 0.318130 -0.373133 0.385527 -0.090301 -0.625654 0.270179 -0.020238 -0.324004 -0.196441 -0.741836 0.930866 0.132486 0.518146 -0.059484 -0.233060 -0.594302 -0.641879 -0.951223 -1.158389 0.814060 -0.013149 0.317867 0.024730 0.227183 -0.302417 -0.494973 0.207972 -0.709884 
HCCDB-13.S150 0.330261 -0.356492 0.116848 -0.058828 -0.011741 -0.616714 0.762350 0.660507 -0.137560 0.096972 -0.112911 0.225697 -0.080890 0.275705 -0.650479 -0.281619 0.336728 -0.946659 0.027970 -0.594812 -0.156450 0.366689 0.323190 0.825371 -0.065655 -0.262204 -0.061080 -0.221522 0.218073 0.135553 -0.164083 0.349462 1.010472 -0.586700 -0.585977 0.412764 -0.392862 -0.365720 -0.031285 -0.497925 0.145708 0.159775 0.333589 -0.394698 -0.002580 -0.025910 0.370575 0.719107 0.040424 0.030439 0.353812 0.122717 -0.110020 0.004494 0.094624 -0.591819 0.345910 0.094249 -0.267422 0.235536 0.430187 -0.228882 -0.061593 0.128294 0.543283 -0.401084 0.385314 0.085615 -0.237705 0.095201 0.172298 0.371364 0.010335 0.169301 0.018252 0.386802 -0.018363 -0.627158 0.656091 -0.549344 0.512130 0.386017 -0.151631 -0.529875 -0.453355 -0.361483 -0.269446 -0.069823 0.181629 0.028664 -0.383486 -0.721322 -0.223778 0.035924 0.764659 -0.101283 -0.388320 0.158953 -0.080697 -0.775196 0.370132 -0.011968 0.054715 -0.201374 0.043850 0.039589 -0.139990 0.853823 0.082346 -0.100864 0.216655 0.751519 0.225365 0.022884 -0.080567 -0.021215 -0.033687 -0.399110 0.412040 -0.500032 -0.076593 0.306724 -0.026014 0.147394 -0.213559 0.217838 -0.037006 -0.361403 0.673253 -0.218335 -0.262664 0.232954 -0.151315 0.328952 0.420917 0.373358 -0.627841 -0.151543 0.494666 -0.437492 0.310998 -0.555628 -0.252844 0.288406 -0.176248 -0.131976 0.657276 0.167183 -0.367339 -0.386335 0.441155 -0.126676 0.354490 0.449070 0.574162 0.188802 0.209147 -1.023351 -0.020650 -0.566075 0.168978 -0.220669 -0.070866 -0.144664 -0.046372 0.308628 -0.136974 0.818581 -1.144404 -0.434793 0.164541 0.409381 0.183423 -0.318716 0.336182 -0.051817 -0.634582 0.303275 -0.049286 -0.293918 -0.215409 -0.842029 0.985489 0.200954 0.618456 -0.106067 -0.341580 -0.596213 -0.690742 -0.957970 -1.264929 0.902515 -0.006253 0.331355 0.068739 0.172864 -0.124747 -0.511769 0.126992 -0.769779 
HCCDB-13.S151 0.496065 -0.298313 0.174508 -0.039704 -0.034203 -0.575562 0.803435 0.686765 -0.121314 0.094563 -0.072546 0.278228 -0.165545 0.254667 -0.763173 -0.211553 0.265069 -0.956794 -0.041126 -0.591382 -0.140217 0.477893 0.182829 0.757616 -0.028319 -0.192996 -0.042918 -0.226950 0.058559 0.182812 -0.327752 0.335243 0.932900 -0.569658 -0.450636 0.338340 -0.249141 -0.380510 0.052301 -0.463560 0.152774 0.257356 0.377180 -0.416610 -0.062581 0.002288 0.342085 0.714653 0.029811 0.115182 0.245079 0.188885 -0.050054 0.002278 0.231694 -0.466504 0.416453 0.213572 -0.280214 0.236065 0.378112 -0.227238 -0.023384 0.086558 0.593007 -0.390888 0.301327 0.090574 -0.137298 0.044982 0.089923 0.477245 0.027592 0.146865 0.065790 0.342707 0.024533 -0.658935 0.619544 -0.513178 0.391025 0.293417 -0.150211 -0.558547 -0.382291 -0.400590 -0.211562 -0.166603 0.176461 0.015472 -0.265721 -0.582876 -0.260732 -0.027916 0.776227 -0.060576 -0.376069 0.018843 -0.033247 -0.807555 0.429337 -0.058668 0.134970 -0.282427 -0.056788 0.113942 -0.141418 0.781989 0.077662 -0.040548 0.223293 0.731322 0.180290 0.121036 -0.058248 0.060547 0.075084 -0.544390 0.363412 -0.613788 0.006819 0.275510 -0.020534 0.284189 -0.109301 0.204296 -0.256012 -0.463120 0.747676 -0.227022 -0.186749 0.302224 -0.161190 0.106846 0.439917 0.391068 -0.656740 -0.044279 0.606447 -0.505499 0.359661 -0.678645 -0.206251 0.267109 -0.291641 -0.033283 0.602929 0.156537 -0.355652 -0.383676 0.534997 -0.073201 0.309707 0.316027 0.580578 0.319283 0.237159 -0.989939 0.025502 -0.573005 0.336003 -0.303344 -0.084684 -0.122665 0.020332 0.264110 -0.109923 0.804870 -1.096665 -0.528949 0.030278 0.399607 0.288902 -0.343230 0.275782 -0.074530 -0.582384 0.287137 0.030495 -0.280458 -0.140343 -0.757028 0.982164 0.131980 0.434226 -0.081791 -0.244548 -0.589465 -0.883270 -1.037933 -1.179154 0.921204 -0.016899 0.337761 -0.041838 0.269383 -0.178065 -0.555811 0.032932 -0.733109 
HCCDB-13.S152 0.388196 -0.285604 0.063985 -0.009857 0.018509 -0.683111 0.760353 0.631845 -0.092666 -0.043414 -0.123079 0.252549 -0.093771 0.390188 -0.743938 -0.291424 0.242776 -0.975331 -0.008370 -0.674426 -0.052146 0.478767 0.206666 0.810257 -0.078234 -0.182394 -0.122513 -0.198218 0.036173 0.219459 -0.493998 0.366642 0.921010 -0.562694 -0.551679 0.358105 -0.248064 -0.356122 0.019096 -0.507279 0.135655 0.159801 0.349147 -0.413501 -0.074660 0.018876 0.339000 0.771099 0.062681 0.091996 0.149809 0.248667 -0.038725 -0.095783 0.118215 -0.437390 0.355686 0.092146 -0.250078 0.159116 0.329334 -0.332251 0.033763 0.130610 0.516528 -0.428027 0.286812 0.038169 -0.070638 0.156057 0.068248 0.571586 0.073592 0.084331 0.017471 0.264553 0.040814 -0.649150 0.643213 -0.477402 0.334134 0.214148 -0.210249 -0.556522 -0.381599 -0.347287 -0.111419 -0.228782 0.172287 0.172498 -0.276531 -0.617134 -0.283371 -0.002168 0.726110 -0.027099 -0.385167 0.094135 -0.017678 -0.881113 0.424187 -0.150424 0.212220 -0.214071 -0.096900 0.129283 -0.113964 0.724498 0.104081 -0.130439 0.284933 0.778209 0.028054 0.173614 -0.023740 0.119935 0.018519 -0.472765 0.431933 -0.544452 -0.097610 0.202519 -0.150273 0.253238 -0.018170 0.247398 -0.198454 -0.415141 0.676681 -0.303864 -0.216065 0.082649 -0.154829 0.164540 0.317146 0.382847 -0.581650 0.025028 0.491667 -0.443250 0.324886 -0.620291 -0.100302 0.283074 -0.259682 0.000431 0.637445 0.124709 -0.257471 -0.390751 0.586475 -0.132174 0.300418 0.250851 0.541723 0.343062 0.313468 -0.991618 0.079939 -0.531771 0.303806 -0.309198 -0.108962 -0.045278 -0.002147 0.319881 -0.121487 0.708211 -1.213070 -0.570353 0.028993 0.414368 0.257852 -0.289271 0.300375 -0.159620 -0.627507 0.257490 -0.035721 -0.323461 -0.146734 -0.653414 1.050927 0.065213 0.514744 -0.082560 -0.298397 -0.534964 -0.780609 -1.070030 -1.163127 0.961863 -0.078500 0.354601 0.063296 0.189708 -0.191348 -0.619748 0.122587 -0.713379 
HCCDB-13.S154 0.344755 -0.178882 0.094576 0.048284 0.090864 -0.758032 0.838245 0.702801 -0.013201 -0.079130 -0.111252 0.258593 -0.129812 0.232461 -0.780836 -0.216834 0.141187 -0.902214 -0.050545 -0.681980 -0.146961 0.471359 0.205770 0.823548 -0.186967 -0.137166 -0.115142 -0.107491 0.169808 0.182284 -0.304558 0.407661 0.752220 -0.674616 -0.567978 0.382758 -0.202205 -0.388514 0.047287 -0.481215 0.095445 0.224747 0.352756 -0.391397 0.025487 -0.084273 0.364518 0.726179 -0.021555 0.074160 0.271719 0.153229 -0.191079 0.065152 0.234997 -0.593582 0.358872 0.074954 -0.155529 0.295592 0.192652 -0.303033 -0.097673 0.141863 0.590150 -0.406713 0.381132 0.073050 -0.095354 0.064215 0.106569 0.546256 0.007531 0.087049 -0.086095 0.334142 0.019311 -0.675213 0.709021 -0.462353 0.270368 0.250795 -0.296701 -0.684319 -0.378556 -0.406940 -0.337085 -0.193665 0.157935 0.063798 -0.341078 -0.583887 -0.197298 0.115838 0.642341 -0.042188 -0.308444 0.076353 -0.024108 -0.839287 0.387875 -0.137482 0.169363 -0.223223 -0.073990 0.077263 -0.101123 0.743016 0.097015 -0.089662 0.318033 0.865627 0.239686 0.101514 -0.023956 0.023349 0.132111 -0.435552 0.478142 -0.714004 0.016912 0.309298 -0.043308 0.207126 -0.087001 0.100513 -0.021086 -0.479284 0.734362 -0.312793 -0.275181 0.155282 -0.241725 0.206778 0.421275 0.317005 -0.626156 -0.065165 0.536770 -0.487140 0.358406 -0.563483 -0.146425 0.238719 -0.286288 -0.005451 0.579208 0.109077 -0.245957 -0.395343 0.536006 -0.000001 0.348407 0.175400 0.554260 0.259847 0.223318 -1.078591 0.079336 -0.540425 0.351547 -0.234116 -0.183552 -0.105421 -0.036441 0.186336 -0.182015 0.640522 -1.118845 -0.449856 0.040057 0.462869 0.231627 -0.280443 0.410435 -0.070577 -0.672412 0.123224 -0.061052 -0.299019 -0.177429 -0.860705 0.875538 0.062140 0.467792 -0.060132 -0.343591 -0.557100 -0.714065 -0.972806 -1.234990 0.865631 -0.136293 0.377410 0.050309 0.194780 -0.033781 -0.501914 0.066631 -0.740150 
HCCDB-13.S156 0.350980 -0.273359 0.132620 -0.027821 0.022456 -0.707715 0.804291 0.737794 -0.185610 0.055581 -0.097728 0.372323 -0.073918 0.397929 -0.804222 -0.299539 0.289348 -0.956374 -0.029725 -0.613064 -0.144139 0.436312 0.217992 0.855347 -0.043593 -0.106678 -0.034415 -0.246020 0.109176 0.197194 -0.242229 0.333791 0.986835 -0.505774 -0.542081 0.457822 -0.305567 -0.409392 0.059432 -0.481617 0.136325 0.263968 0.375169 -0.365661 -0.068563 0.069530 0.282272 0.715923 0.008334 0.116326 0.221488 0.198895 0.000257 -0.043382 0.135967 -0.528502 0.346431 0.125784 -0.244037 0.197036 0.409591 -0.265744 -0.044462 0.098244 0.607246 -0.456030 0.354313 0.213037 -0.273599 -0.008366 0.093801 0.468082 0.059372 0.123034 -0.028616 0.384856 -0.024535 -0.589015 0.644378 -0.494143 0.449308 0.254066 -0.207704 -0.496172 -0.304213 -0.363462 -0.138729 -0.109346 0.111434 -0.018563 -0.337425 -0.663378 -0.322440 -0.001016 0.713597 -0.028493 -0.438329 0.136387 -0.065033 -0.820887 0.454716 -0.055250 0.047122 -0.205960 -0.038627 0.069923 -0.073399 0.743623 0.033086 -0.111082 0.360678 0.726228 0.160217 0.077003 0.054381 -0.064633 -0.004438 -0.456570 0.403801 -0.527779 -0.055782 0.258784 -0.085110 0.226751 -0.022634 0.152282 -0.152236 -0.416594 0.658321 -0.251112 -0.088823 0.232591 -0.126703 0.210509 0.363752 0.438621 -0.608232 -0.051908 0.468641 -0.611110 0.317560 -0.637780 -0.210517 0.276987 -0.192817 -0.107755 0.640145 0.161007 -0.307598 -0.513271 0.520136 -0.129115 0.381842 0.358576 0.504151 0.236935 0.213371 -0.915731 0.086665 -0.529099 0.214258 -0.216459 -0.145389 -0.020249 -0.007472 0.264893 -0.054522 0.806088 -1.187732 -0.437984 0.093045 0.424673 0.242801 -0.325620 0.349230 -0.121196 -0.675733 0.332911 -0.028370 -0.268840 -0.178285 -0.674476 1.008050 0.106467 0.563890 -0.010134 -0.366645 -0.644075 -0.728953 -0.986333 -1.344459 1.005139 -0.017737 0.381986 -0.001533 0.146516 -0.130246 -0.563374 0.175926 -0.754506 
HCCDB-13.S157 0.340278 -0.383199 0.085013 -0.063086 0.159663 -0.604299 0.791948 0.680378 -0.129326 0.178089 -0.086296 0.341693 -0.188719 0.416855 -0.750857 -0.295242 0.396143 -0.915683 -0.006999 -0.622084 -0.088953 0.541374 0.203656 0.721612 -0.106561 -0.197758 -0.094990 -0.146739 0.263463 0.256974 -0.294300 0.400211 0.932428 -0.636033 -0.696819 0.267293 -0.331189 -0.314429 0.109163 -0.448191 0.186149 0.111852 0.329814 -0.398677 -0.061253 -0.026993 0.340785 0.827049 0.092325 0.112087 0.293584 0.199996 -0.078841 0.069126 0.054783 -0.468797 0.320457 0.053478 -0.186769 0.171950 0.383555 -0.145510 -0.033657 0.183645 0.576336 -0.378117 0.406258 0.037627 -0.189647 0.069742 0.100733 0.472321 -0.023875 0.190595 0.051430 0.429836 -0.060267 -0.634579 0.621623 -0.396850 0.340219 0.248549 -0.177694 -0.593819 -0.412666 -0.419760 -0.273805 -0.181689 0.199021 -0.062249 -0.390782 -0.615277 -0.234153 0.022772 0.723974 -0.093834 -0.357482 0.189643 -0.041019 -0.800594 0.376494 -0.065875 0.138888 -0.122823 -0.046216 0.031312 -0.177882 0.801258 0.002994 -0.098130 0.343374 0.834642 0.158059 0.120002 -0.046070 0.005772 0.080258 -0.546792 0.468035 -0.569307 0.052309 0.214407 -0.057256 0.127424 -0.147219 0.249679 -0.130360 -0.484049 0.676018 -0.200385 -0.228920 0.231932 -0.316597 0.178500 0.337783 0.366544 -0.506904 -0.011284 0.521971 -0.399046 0.263853 -0.609368 -0.294388 0.215176 -0.127903 0.014955 0.477531 0.068286 -0.458200 -0.369978 0.438881 -0.139404 0.352723 0.389328 0.624248 0.316365 0.210290 -0.998683 0.044539 -0.476940 0.214374 -0.258014 -0.088126 -0.166327 0.018607 0.270311 -0.180415 0.782106 -1.118155 -0.500225 0.130636 0.376320 0.178184 -0.303632 0.446392 -0.102267 -0.583653 0.206785 0.026633 -0.266936 -0.095832 -0.700821 0.968297 0.107363 0.574100 -0.032212 -0.213791 -0.587510 -0.803593 -0.997779 -1.275819 0.936234 -0.068974 0.448507 -0.027163 0.226156 0.020209 -0.569143 0.159188 -0.801954 
HCCDB-13.S159 0.567377 -0.140665 0.221617 -0.063129 0.084781 -0.672751 0.928402 0.648682 -0.063045 -0.036232 -0.127515 0.305789 -0.175408 0.357465 -0.772057 -0.081898 0.148425 -0.985314 -0.101357 -0.663963 -0.182991 0.492395 0.264358 0.627324 -0.048790 -0.209247 -0.003799 -0.211399 0.105323 0.109972 -0.242717 0.309600 0.742135 -0.774357 -0.516437 0.173045 -0.092680 -0.385844 -0.036500 -0.514655 0.217416 0.054810 0.321184 -0.213995 -0.010923 -0.091673 0.345042 0.728641 0.061573 0.121522 0.337059 0.332085 0.002229 -0.001133 0.097139 -0.323452 0.472953 0.098708 -0.185780 0.253333 0.318889 -0.257394 -0.252684 0.167715 0.616476 -0.542259 0.314452 0.004968 0.007046 -0.016432 -0.196105 0.499132 0.097652 -0.010429 -0.040219 0.266742 0.181952 -0.649651 0.485911 -0.372265 0.298325 0.190742 -0.269395 -0.711682 -0.339238 -0.322140 -0.144785 -0.245886 0.253898 0.097690 -0.430978 -0.582288 -0.250995 -0.074480 0.773821 0.102160 -0.374980 0.017019 0.128352 -0.902523 0.377989 -0.058790 0.189743 -0.207380 -0.032572 0.293389 -0.141422 0.950876 -0.033412 0.007581 0.182806 0.819577 0.227605 0.227023 -0.074739 0.095399 0.144997 -0.350969 0.519776 -0.561705 0.045032 0.243863 -0.295582 0.270028 -0.164086 0.105053 -0.185330 -0.428826 0.888802 -0.289431 -0.263436 -0.001823 -0.276532 0.148263 0.494039 0.431978 -0.588115 0.142883 0.694549 -0.427222 0.357768 -0.676042 -0.159180 0.198735 -0.410959 0.159980 0.569780 -0.081812 -0.354716 -0.272558 0.497461 0.011948 0.318786 0.259096 0.742669 0.426197 0.371881 -0.987566 -0.106296 -0.587413 0.420477 -0.402985 -0.290907 0.043475 -0.020644 0.251904 -0.380463 0.740688 -1.041204 -0.312619 0.045403 0.485559 0.429947 -0.307431 0.479735 0.071704 -0.579931 0.329558 0.092139 -0.249671 -0.084350 -0.547281 0.945928 0.088205 0.635616 0.035798 -0.297722 -0.758478 -0.850617 -1.053541 -1.240978 0.757641 -0.045905 0.376815 0.054730 0.115161 -0.182569 -0.802443 -0.004352 -0.775309 
HCCDB-13.S160 0.445585 -0.213862 0.117015 -0.123902 -0.039527 -0.606950 0.842159 0.652980 -0.014939 -0.035205 -0.128229 0.363571 -0.245843 0.331929 -0.842301 -0.246103 0.172124 -0.875467 -0.034944 -0.621063 -0.078261 0.511056 0.264125 0.653345 -0.060312 -0.235969 -0.113916 -0.224841 0.108786 0.236126 -0.306718 0.452860 0.843027 -0.667252 -0.488256 0.267811 -0.088589 -0.403720 -0.015509 -0.515425 0.114541 0.083920 0.327354 -0.300378 -0.008022 -0.049985 0.420984 0.756911 -0.027945 -0.002693 0.194881 0.289732 -0.052559 -0.107534 0.154422 -0.478672 0.432587 0.143832 -0.215798 0.145899 0.463164 -0.292724 -0.099695 0.184281 0.613481 -0.474010 0.247749 -0.012836 -0.057372 0.000509 0.116574 0.436709 0.039058 0.109655 -0.047207 0.275575 0.100438 -0.601608 0.546033 -0.424877 0.230059 0.357507 -0.233648 -0.585190 -0.437491 -0.316207 -0.114709 -0.166640 0.227183 0.083033 -0.424759 -0.548835 -0.167655 -0.073667 0.658253 0.057200 -0.314404 0.064764 0.143168 -0.901261 0.374644 -0.059632 0.256542 -0.161712 -0.014648 0.135359 -0.236520 0.863210 0.045981 -0.033210 0.233377 0.857123 0.136588 0.187689 -0.069482 0.081611 0.112426 -0.410075 0.444846 -0.660334 0.008041 0.245312 -0.234316 0.279568 -0.276944 0.023670 -0.218199 -0.529228 0.740044 -0.286820 -0.170079 0.198944 -0.268166 0.228340 0.318512 0.371649 -0.489799 0.032820 0.565759 -0.570440 0.382409 -0.731056 -0.172093 0.232195 -0.391047 -0.023560 0.560643 0.059480 -0.303196 -0.389954 0.567964 -0.024321 0.349789 0.340412 0.590944 0.429685 0.362140 -0.974523 -0.043783 -0.459569 0.313655 -0.339850 -0.161102 0.016117 -0.016587 0.197346 -0.261337 0.847588 -1.079324 -0.454755 0.050989 0.482669 0.211363 -0.296307 0.357461 -0.069976 -0.685750 0.395031 0.023381 -0.254059 -0.163816 -0.646186 1.001001 0.105802 0.600011 -0.041375 -0.285096 -0.716825 -0.848359 -1.038539 -1.158182 0.937904 0.009658 0.331456 -0.049263 0.085272 -0.099258 -0.671108 -0.028967 -0.676690 
HCCDB-13.S162 0.365242 -0.452415 0.018742 -0.017232 -0.003775 -0.775310 0.762274 0.740681 -0.159991 0.084799 -0.013153 0.278411 -0.056796 0.254504 -0.823938 -0.272911 0.274721 -0.888106 -0.055025 -0.584044 -0.016770 0.471907 0.337597 0.840841 -0.098672 -0.052217 -0.064883 -0.169924 0.059366 0.270326 -0.315818 0.324895 1.069587 -0.503515 -0.564392 0.247205 -0.214030 -0.400683 0.066760 -0.527696 0.041589 0.177304 0.302377 -0.415386 -0.077438 0.051072 0.312160 0.649327 0.086908 0.048734 0.256459 0.189208 -0.056761 -0.062742 0.085089 -0.491584 0.299818 0.108747 -0.415446 0.131244 0.285069 -0.412232 -0.081937 0.235913 0.678433 -0.381548 0.317128 0.128383 -0.123496 0.083797 0.067004 0.504507 0.006213 0.174264 -0.030959 0.325915 -0.009422 -0.624054 0.608777 -0.473395 0.342827 0.338670 -0.050021 -0.482737 -0.389247 -0.318801 -0.162908 -0.037451 0.149122 0.039664 -0.352039 -0.654913 -0.294212 0.055427 0.680809 0.046233 -0.398539 0.222099 0.078239 -0.844427 0.502263 -0.057374 0.118774 -0.251899 -0.140846 0.037502 -0.193053 0.772774 0.098276 -0.220884 0.216462 0.881377 0.142329 -0.026794 0.032225 0.030615 0.088211 -0.442395 0.460797 -0.548681 -0.121585 0.239144 -0.072848 0.177160 -0.215831 0.184487 -0.262701 -0.385955 0.610685 -0.231411 -0.154398 0.251145 -0.185054 0.227861 0.256648 0.386680 -0.600972 -0.036999 0.346125 -0.541430 0.435563 -0.617399 -0.247183 0.379222 -0.281211 -0.152748 0.517518 0.108262 -0.441310 -0.484956 0.540876 -0.120905 0.342348 0.341487 0.540586 0.186798 0.243973 -0.975414 0.059174 -0.471143 0.115675 -0.249711 -0.069541 -0.142917 -0.133390 0.249334 -0.074418 0.811545 -1.259643 -0.338070 0.102555 0.410140 0.165755 -0.326271 0.223392 -0.071419 -0.705121 0.253098 -0.051436 -0.304040 -0.073088 -0.633987 1.038121 0.021835 0.536316 -0.099781 -0.273713 -0.546492 -0.687306 -0.888098 -1.275267 0.970919 0.156719 0.455601 0.064811 0.303981 -0.151537 -0.551371 0.148394 -0.751183 
HCCDB-13.S164 0.411238 -0.187728 0.122492 0.032748 0.062301 -0.654394 0.775591 0.705058 -0.107310 0.061390 -0.118099 0.330188 -0.091267 0.328144 -0.779093 -0.179168 0.340813 -0.921985 -0.046332 -0.635469 -0.136781 0.494559 0.180264 0.768883 -0.047452 -0.219748 -0.089311 -0.234194 0.247014 0.205536 -0.424065 0.436057 0.851426 -0.584757 -0.702744 0.359116 -0.188086 -0.312986 0.132603 -0.525590 0.144384 0.181610 0.374978 -0.439234 -0.071683 -0.041581 0.431837 0.753202 0.004920 0.143264 0.286918 0.269070 -0.030201 -0.017691 0.118758 -0.509722 0.287847 0.176421 -0.100575 0.280508 0.445029 -0.192202 0.032933 0.121853 0.605068 -0.544024 0.356623 0.062307 -0.223254 0.048329 0.046128 0.475500 0.002530 0.230757 -0.014115 0.429299 0.031178 -0.550245 0.540485 -0.438826 0.344247 0.173694 -0.283407 -0.547462 -0.381072 -0.304262 -0.168245 -0.085949 0.186024 0.121036 -0.322005 -0.585633 -0.187777 0.020207 0.674311 0.038856 -0.337072 0.118007 0.000507 -0.771468 0.390225 -0.065166 0.171673 -0.208922 -0.072560 0.170528 -0.111817 0.938948 0.126368 -0.069685 0.270288 0.792777 0.189559 0.020946 0.046915 0.015976 0.114175 -0.417135 0.380895 -0.593579 -0.026022 0.229546 -0.106836 0.209653 -0.134173 0.198198 -0.193507 -0.472428 0.721112 -0.236828 -0.165841 0.194019 -0.153149 0.122531 0.247167 0.470685 -0.562388 -0.050669 0.462333 -0.474790 0.368447 -0.548112 -0.294904 0.295883 -0.253147 -0.015155 0.583561 0.185712 -0.392611 -0.373950 0.600269 -0.114965 0.383727 0.320296 0.599438 0.213656 0.289959 -0.944515 0.067904 -0.521934 0.285805 -0.305493 -0.155439 -0.069183 0.044037 0.189002 -0.154807 0.853337 -1.063803 -0.479363 0.039443 0.444145 0.360008 -0.255461 0.411055 0.014176 -0.712132 0.304756 -0.021706 -0.269466 -0.131380 -0.689416 0.979874 0.101874 0.595403 -0.081170 -0.271540 -0.515938 -0.751724 -0.957578 -1.267129 0.882994 -0.014739 0.368996 0.033182 0.188523 -0.180159 -0.641962 0.156850 -0.737388 
HCCDB-13.S166 0.485714 -0.099115 0.137824 -0.038954 -0.015024 -0.693728 0.812743 0.630384 -0.114249 0.013466 -0.124478 0.346920 -0.138999 0.333800 -0.821552 -0.196958 0.185307 -0.934851 -0.033539 -0.580239 -0.093080 0.583023 0.174490 0.647934 -0.068313 -0.223920 0.009967 -0.293141 0.053926 0.276876 -0.320583 0.550201 0.851739 -0.728934 -0.498783 0.256157 -0.113761 -0.412935 -0.027665 -0.439641 0.193836 0.034354 0.336163 -0.242520 -0.004593 -0.045329 0.406704 0.722417 0.000697 0.096585 0.176198 0.337162 -0.057310 -0.218903 0.046672 -0.435771 0.428642 0.120316 -0.164374 0.115117 0.393339 -0.280860 -0.036202 0.191216 0.541527 -0.503630 0.211872 0.006391 0.037985 0.182603 -0.036375 0.480232 0.059706 0.080633 -0.068834 0.218504 0.007671 -0.582063 0.530759 -0.444508 0.358605 0.273921 -0.222577 -0.634078 -0.340848 -0.367450 -0.090571 -0.124166 0.213680 0.200101 -0.386224 -0.558797 -0.239907 0.048827 0.693718 -0.079694 -0.257310 0.037454 0.105340 -0.876626 0.412126 -0.061921 0.147856 -0.155240 -0.063127 0.302878 -0.121326 0.851472 0.023291 -0.046025 0.228299 0.848834 0.172815 0.250371 -0.068177 0.196168 0.116602 -0.434882 0.524453 -0.655849 -0.008278 0.277834 -0.303412 0.324892 -0.120994 0.143316 -0.239692 -0.402128 0.766344 -0.328664 -0.213105 0.035068 -0.201677 0.136384 0.337993 0.382716 -0.570776 0.088729 0.602360 -0.488831 0.359986 -0.579344 -0.171353 0.238075 -0.341997 -0.004323 0.579233 -0.037119 -0.296003 -0.312649 0.564141 -0.016192 0.276886 0.275394 0.605222 0.411903 0.407796 -0.981150 -0.059559 -0.523582 0.419128 -0.345671 -0.169571 0.032003 0.043442 0.281531 -0.348121 0.720685 -1.142992 -0.471932 -0.038986 0.474199 0.379577 -0.345804 0.521124 -0.104103 -0.638764 0.214320 -0.056473 -0.227974 -0.133867 -0.584514 1.003867 -0.013560 0.640179 -0.010593 -0.212124 -0.679486 -0.934769 -1.069876 -1.172455 0.893707 -0.090767 0.291198 -0.015044 0.155981 -0.114923 -0.784850 0.090803 -0.690080 
HCCDB-13.S168 0.307438 -0.379994 0.112192 -0.076440 0.072455 -0.526544 0.659689 0.647257 -0.176516 0.064751 -0.014347 0.204668 -0.160333 0.343057 -0.766712 -0.168536 0.217897 -0.933279 -0.034313 -0.578928 -0.051243 0.583957 0.235306 0.833203 -0.104497 -0.149354 -0.184294 -0.205273 0.170562 0.297241 -0.327706 0.288557 0.845348 -0.784256 -0.731521 0.330026 -0.241826 -0.379062 0.215813 -0.383765 0.052635 0.172755 0.403124 -0.502035 -0.110859 0.023898 0.328170 0.738219 0.032973 0.171954 0.325145 0.057944 -0.117062 0.003167 0.173140 -0.575128 0.385629 0.101553 -0.211620 0.118098 0.392533 -0.312118 -0.024399 0.020262 0.482559 -0.371405 0.430009 0.124244 -0.063374 0.014408 0.032100 0.456336 -0.020699 0.242214 0.109584 0.255947 0.045268 -0.615062 0.587537 -0.552331 0.334909 0.379108 -0.251031 -0.495657 -0.299603 -0.429779 -0.313479 -0.251217 0.248966 -0.062317 -0.199722 -0.650305 -0.272656 0.002138 0.755620 -0.046043 -0.404022 0.188149 0.020129 -0.754173 0.419379 -0.106665 0.192858 -0.110175 -0.164175 0.020732 -0.173426 0.743071 0.100486 -0.110276 0.296971 0.857114 0.260311 0.038430 -0.096529 0.074830 0.102021 -0.379723 0.432446 -0.627556 -0.009690 0.289510 -0.037667 0.176672 -0.042333 0.273876 -0.102819 -0.458079 0.718862 -0.296215 -0.204865 0.130357 -0.241016 0.196302 0.351506 0.288230 -0.516153 -0.144277 0.561766 -0.541846 0.308524 -0.486194 -0.245446 0.225853 -0.299137 -0.061896 0.569708 0.078654 -0.442302 -0.450280 0.453499 -0.036072 0.162330 0.254349 0.729686 0.313822 0.234764 -1.101235 -0.090852 -0.560581 0.203200 -0.190456 -0.205986 -0.188167 -0.026427 0.291918 -0.193571 0.614976 -1.087558 -0.517770 0.054222 0.388275 0.240100 -0.300665 0.489739 -0.048701 -0.614712 0.312882 0.062462 -0.417062 -0.293638 -0.720082 0.909339 0.066993 0.524825 -0.016568 -0.264961 -0.622234 -0.776242 -1.065968 -1.127908 0.988726 -0.108411 0.435607 -0.057138 0.086452 0.022320 -0.474398 0.049488 -0.862329 
HCCDB-13.S17 0.357968 -0.334410 0.054088 -0.009088 0.044782 -0.618828 0.751250 0.720869 -0.083733 0.062045 -0.005522 0.270026 -0.155607 0.414621 -0.657362 -0.262603 0.331030 -1.052775 0.046981 -0.606861 -0.132372 0.447510 0.249442 0.743481 -0.058042 -0.184846 -0.106982 -0.213204 0.134024 0.149514 -0.332772 0.336866 0.955835 -0.553316 -0.546183 0.424936 -0.306610 -0.371572 -0.021068 -0.466558 0.188695 0.155861 0.334614 -0.451778 -0.083084 -0.007346 0.247541 0.644911 0.062321 0.091650 0.302871 0.083507 -0.020923 -0.057034 0.157923 -0.578457 0.328923 0.099323 -0.226247 0.197394 0.442958 -0.326268 0.050396 0.097426 0.539476 -0.340062 0.426087 0.109366 -0.211697 0.109834 0.139370 0.481958 -0.015251 0.159247 0.065737 0.374266 -0.045534 -0.692894 0.649286 -0.553231 0.459105 0.434707 -0.169098 -0.517451 -0.409477 -0.401940 -0.138552 -0.142889 0.178203 0.057456 -0.288556 -0.727801 -0.315199 0.038618 0.781248 -0.044108 -0.392326 0.131264 -0.057124 -0.867424 0.341644 -0.118783 0.038516 -0.271950 -0.093956 0.086452 -0.116584 0.773878 0.067981 -0.112465 0.222171 0.784390 0.116145 0.078894 -0.039743 0.066942 -0.045855 -0.469485 0.294964 -0.553743 -0.250677 0.243813 -0.047436 0.156438 -0.137294 0.299288 -0.107346 -0.466258 0.518271 -0.224555 -0.230077 0.222195 -0.152795 0.284657 0.331936 0.302634 -0.515910 -0.047034 0.501235 -0.460711 0.349630 -0.640898 -0.291459 0.224081 -0.190959 -0.163708 0.649506 0.196255 -0.287828 -0.405928 0.419749 -0.073097 0.334601 0.339502 0.581082 0.249397 0.206668 -1.042955 0.091838 -0.509054 0.183696 -0.166356 -0.137509 -0.152276 0.002911 0.289922 -0.110611 0.803637 -1.240611 -0.493864 0.109341 0.402198 0.211062 -0.262998 0.331099 -0.160617 -0.601053 0.345507 0.017936 -0.425587 -0.214387 -0.719137 1.026379 0.154705 0.540890 0.007578 -0.373350 -0.617168 -0.832394 -1.006657 -1.217553 0.895874 0.015963 0.283821 0.060613 0.283886 -0.062662 -0.496207 0.102803 -0.682032 
HCCDB-13.S170 0.426281 -0.223893 0.098021 -0.047798 0.026052 -0.545441 0.753973 0.672672 -0.099073 0.036828 -0.049345 0.231817 -0.099458 0.412949 -0.780063 -0.211254 0.226878 -0.967051 0.027238 -0.535613 -0.165767 0.451685 0.189193 0.734235 -0.093049 -0.177670 -0.027861 -0.221668 0.051725 0.252305 -0.343114 0.394511 0.922243 -0.674752 -0.577108 0.337080 -0.192209 -0.402172 0.016835 -0.470064 0.149849 0.209824 0.374602 -0.371557 0.009632 0.022626 0.330878 0.694085 -0.018378 0.130917 0.263742 0.189165 -0.016696 -0.059797 0.146787 -0.495005 0.376444 0.220661 -0.190569 0.188886 0.357332 -0.191912 -0.053479 0.091938 0.586551 -0.398515 0.348904 0.121258 -0.179170 0.069040 -0.067878 0.527776 0.018458 0.095609 -0.075375 0.313195 0.007029 -0.643297 0.566485 -0.466555 0.380986 0.175266 -0.230489 -0.565383 -0.377443 -0.362762 -0.137320 -0.123507 0.206336 0.108981 -0.264373 -0.605129 -0.365389 -0.015610 0.723890 0.070165 -0.350020 0.086603 -0.015752 -0.741906 0.503730 -0.050029 0.155834 -0.225163 0.028456 0.064493 -0.005178 0.836189 0.001727 -0.105693 0.275818 0.823155 0.152156 0.179234 -0.018019 0.045075 0.065692 -0.346036 0.436258 -0.570178 -0.046766 0.223084 -0.023678 0.206604 -0.175833 0.182845 -0.115912 -0.490206 0.728750 -0.254222 -0.263185 0.157187 -0.248749 0.132710 0.311565 0.374722 -0.522255 0.010440 0.567649 -0.593362 0.327344 -0.549999 -0.151571 0.166156 -0.226591 0.009684 0.565896 0.130321 -0.403709 -0.309083 0.584222 -0.049956 0.371664 0.242311 0.666003 0.332231 0.301543 -1.043608 0.046739 -0.579316 0.175638 -0.229243 -0.039275 -0.004447 -0.047065 0.268519 -0.254644 0.756643 -1.212295 -0.389479 0.033030 0.370264 0.343133 -0.383896 0.386243 0.011306 -0.624440 0.255852 -0.078147 -0.195531 -0.125413 -0.660593 0.895873 0.018835 0.517924 -0.032490 -0.366032 -0.580463 -0.837171 -1.092739 -1.209078 0.909620 -0.005327 0.528975 -0.002489 0.215287 -0.192478 -0.555734 0.092615 -0.828733 
HCCDB-13.S171 0.430339 -0.241649 0.123740 -0.013363 0.064835 -0.680554 0.757229 0.498678 0.106833 -0.023288 -0.158997 0.347302 -0.171895 0.431676 -0.818886 -0.118745 0.169732 -0.935312 -0.068715 -0.661838 -0.202401 0.479081 0.195823 0.749300 0.022623 -0.194306 -0.024953 -0.249337 0.059865 0.302306 -0.512046 0.368911 0.742149 -0.707449 -0.530052 0.387794 -0.177806 -0.437239 0.083156 -0.546610 0.228765 0.140099 0.422068 -0.274338 -0.045890 -0.070848 0.386925 0.700549 0.046632 0.066187 0.278471 0.244371 -0.194444 -0.060924 0.162755 -0.510931 0.361859 0.059844 -0.102484 0.237344 0.292474 -0.306359 -0.123909 0.107021 0.514838 -0.480955 0.347707 0.096639 0.048355 0.033636 0.015095 0.552948 0.102516 0.151206 -0.034885 0.329779 0.025445 -0.600718 0.739682 -0.458886 0.332998 0.169470 -0.191211 -0.659723 -0.445397 -0.345312 -0.287022 -0.273429 0.196601 0.067719 -0.263110 -0.510615 -0.267003 -0.045964 0.632615 0.051848 -0.292856 0.097857 0.075142 -0.839443 0.388192 -0.130687 0.265792 -0.088303 0.056354 0.080737 -0.219542 0.737807 0.083827 0.069583 0.190117 1.013283 0.223117 0.166092 -0.037345 0.125751 0.268696 -0.315941 0.405742 -0.637882 -0.042760 0.270279 -0.195296 0.261490 -0.120918 0.202702 -0.049847 -0.477557 0.877432 -0.175309 -0.130614 0.125839 -0.241913 0.166050 0.414777 0.365980 -0.313761 0.097914 0.557605 -0.497933 0.450957 -0.603680 -0.181789 0.258585 -0.268597 0.025035 0.512008 0.020340 -0.209535 -0.439834 0.516575 0.060423 0.161965 0.241785 0.534198 0.343840 0.399206 -1.022596 -0.002384 -0.547652 0.286304 -0.291132 -0.238073 0.010910 0.016492 0.338766 -0.197385 0.741330 -1.229450 -0.543345 0.007172 0.412566 0.258174 -0.349380 0.476077 -0.166617 -0.654013 0.242574 0.022408 -0.256829 -0.165203 -0.683001 1.052072 -0.012450 0.553057 -0.070868 -0.313220 -0.601187 -0.719009 -0.993750 -1.229835 0.842390 -0.089683 0.320646 -0.033318 0.112063 -0.090883 -0.563276 0.133589 -0.689450 
HCCDB-13.S173 0.547494 -0.231013 0.176521 -0.124727 0.034732 -0.644173 0.826508 0.646261 -0.031900 -0.007815 -0.070097 0.347618 -0.244534 0.184310 -0.802647 -0.257643 0.138527 -1.017009 -0.015677 -0.626651 -0.173912 0.499088 0.285165 0.731437 -0.066935 -0.196868 0.018494 -0.115384 0.047357 0.246190 -0.259103 0.331444 0.835271 -0.678060 -0.554717 0.320355 -0.126596 -0.411882 0.037248 -0.466643 0.069775 0.119076 0.323696 -0.383865 -0.047170 -0.171503 0.392954 0.705065 0.092526 0.094342 0.245191 0.212609 -0.060843 -0.013019 0.125326 -0.393322 0.452530 0.128164 -0.259677 0.126732 0.333025 -0.327637 -0.117201 0.194512 0.539804 -0.505028 0.305102 0.059561 -0.073358 -0.029245 0.013229 0.520154 0.035539 0.039643 0.007695 0.272525 0.101297 -0.664072 0.665378 -0.454947 0.284514 0.208547 -0.194148 -0.582404 -0.369579 -0.375075 -0.228753 -0.164802 0.244706 0.102945 -0.333476 -0.601721 -0.241363 -0.101042 0.788749 0.067925 -0.281801 0.018481 0.209836 -0.907703 0.369248 -0.063464 0.164986 -0.201995 -0.056294 0.202304 -0.210176 0.853540 -0.003920 -0.087293 0.173225 0.809591 0.302945 0.241528 -0.030140 0.128033 0.143862 -0.442765 0.572638 -0.637405 0.015695 0.296403 -0.252674 0.227930 -0.081211 0.032974 -0.187959 -0.433995 0.858109 -0.388660 -0.227932 0.072302 -0.280152 0.062064 0.445993 0.241601 -0.639946 0.008197 0.612561 -0.489576 0.371943 -0.622523 -0.131601 0.188336 -0.349589 0.041563 0.575357 -0.044920 -0.347710 -0.402602 0.442483 0.057743 0.271050 0.342037 0.611107 0.409947 0.341165 -1.065530 -0.067299 -0.520285 0.336949 -0.290458 -0.233485 0.023214 -0.100396 0.215365 -0.269798 0.674974 -1.023662 -0.515365 0.055162 0.479225 0.290136 -0.335858 0.411425 0.073951 -0.598117 0.285673 -0.002724 -0.262733 -0.176737 -0.650201 0.864293 0.054784 0.560546 -0.041288 -0.282118 -0.614399 -0.728649 -0.968943 -1.202402 0.940653 -0.014545 0.382174 0.000580 0.145001 -0.198579 -0.642255 0.086771 -0.738202 
HCCDB-13.S175 0.401839 -0.348292 0.107944 -0.111558 0.064844 -0.565565 0.816259 0.580760 -0.152638 0.024552 -0.095115 0.280480 -0.192278 0.428277 -0.822497 -0.249628 0.292285 -0.856498 0.061996 -0.547866 -0.131708 0.549634 0.250329 0.725300 -0.042402 -0.269573 -0.101706 -0.215226 0.179004 0.201625 -0.391791 0.359489 0.881557 -0.658520 -0.639953 0.393502 -0.225410 -0.315991 0.049173 -0.437277 0.079918 0.118476 0.361425 -0.396396 -0.098306 0.112863 0.356151 0.700904 0.124933 0.138806 0.329818 0.214553 -0.048885 0.086715 0.058778 -0.486342 0.372990 0.182678 -0.098508 0.079433 0.459853 -0.281281 -0.075605 0.143431 0.585181 -0.360795 0.362661 0.054639 -0.168203 0.109438 0.102295 0.443889 0.042548 0.206243 0.051140 0.300154 -0.012821 -0.491141 0.600776 -0.483997 0.254190 0.271073 -0.245079 -0.525157 -0.453259 -0.307766 -0.309942 -0.210215 0.170847 0.013852 -0.302572 -0.677692 -0.224138 0.001664 0.658327 0.079022 -0.401608 0.108951 0.048498 -0.815601 0.448467 -0.102875 0.161922 -0.191883 -0.048672 0.026398 -0.179747 0.785981 0.088113 -0.034322 0.231968 0.832475 0.181885 0.083937 -0.131812 -0.017989 0.030506 -0.404594 0.424065 -0.631940 -0.004529 0.252161 -0.158540 0.234378 -0.148737 0.260786 -0.190936 -0.544249 0.730477 -0.162454 -0.185358 0.162972 -0.214621 0.211365 0.335962 0.367458 -0.443165 -0.068692 0.434583 -0.582904 0.371343 -0.573770 -0.241027 0.303984 -0.350141 -0.043799 0.594790 0.091326 -0.347050 -0.346947 0.532034 -0.150681 0.340918 0.332440 0.686551 0.292784 0.193855 -0.990437 0.099173 -0.463236 0.286840 -0.350830 -0.183092 -0.101325 -0.009961 0.338226 -0.183708 0.824597 -1.113883 -0.477615 0.129297 0.493973 0.181564 -0.327649 0.401798 -0.049639 -0.585761 0.263929 0.036490 -0.374466 -0.255120 -0.720010 1.022300 0.190918 0.669382 -0.062557 -0.185732 -0.606928 -0.791191 -1.002052 -1.236763 0.913322 -0.107730 0.397275 -0.069969 0.175137 -0.063250 -0.560425 0.098294 -0.701854 
HCCDB-13.S177 0.395803 -0.291541 0.138784 -0.086719 -0.082217 -0.613882 0.671668 0.810519 -0.176660 0.130478 0.013552 0.223667 -0.026321 0.380910 -0.741099 -0.248954 0.326616 -1.001791 -0.049213 -0.548733 -0.130193 0.468714 0.266774 0.663150 -0.103835 -0.177927 -0.115187 -0.217305 0.172622 0.217960 -0.427571 0.299631 0.865094 -0.599925 -0.656659 0.446243 -0.274981 -0.480717 0.170917 -0.490340 0.123335 0.110067 0.333576 -0.480615 -0.057413 0.027076 0.311793 0.577087 0.115778 0.084198 0.333802 0.113403 -0.100292 -0.036801 0.118123 -0.519083 0.405594 0.046990 -0.191150 0.064138 0.428700 -0.363442 -0.075345 0.053209 0.513215 -0.338396 0.443414 0.093755 -0.040470 0.072043 0.067697 0.431776 0.015528 0.189336 0.038036 0.294869 -0.004487 -0.616946 0.739865 -0.508569 0.302977 0.254861 -0.229831 -0.505510 -0.351240 -0.415348 -0.296416 -0.323937 0.134197 0.041110 -0.245889 -0.692814 -0.116157 -0.032881 0.843415 0.027409 -0.429056 0.116783 0.116692 -0.848679 0.379340 -0.081465 0.106521 -0.171232 -0.131854 0.059193 -0.156723 0.811766 0.089366 -0.049150 0.287120 0.883483 0.232845 0.045273 -0.050792 0.038530 0.045259 -0.418275 0.454413 -0.682214 -0.097483 0.186698 -0.007290 0.172819 -0.182514 0.111148 -0.113320 -0.381086 0.702789 -0.308223 -0.239522 0.170911 -0.248192 0.284915 0.373670 0.245508 -0.608932 -0.081243 0.435944 -0.513565 0.222735 -0.692635 -0.115762 0.323531 -0.328397 -0.092495 0.541979 0.081673 -0.434878 -0.505095 0.395285 -0.019175 0.235109 0.263489 0.596915 0.300358 0.192494 -1.010166 0.101332 -0.589273 0.264309 -0.298017 -0.282415 -0.153234 -0.046254 0.282815 -0.245996 0.691028 -1.131413 -0.452180 0.139869 0.465157 0.231987 -0.340502 0.377513 -0.053547 -0.546189 0.251747 -0.148461 -0.304119 -0.157688 -0.769903 0.934040 0.082329 0.459216 0.016773 -0.185125 -0.519086 -0.695801 -1.014134 -1.190683 0.967589 -0.054594 0.469364 0.021700 0.155606 0.011699 -0.512189 0.088492 -0.762355 
HCCDB-13.S180 0.381793 -0.322220 0.207012 -0.032465 0.083356 -0.612248 0.713679 0.680485 -0.188828 0.181087 0.044540 0.208648 -0.167112 0.324889 -0.768419 -0.234426 0.263942 -0.898559 -0.082973 -0.615016 -0.094793 0.554912 0.276239 0.778737 -0.042310 -0.294508 -0.162627 -0.314836 0.159115 0.389841 -0.315720 0.284917 0.823682 -0.557750 -0.570414 0.309362 -0.205271 -0.406505 0.096098 -0.509857 0.163150 0.105998 0.423342 -0.445021 -0.053189 -0.035915 0.270430 0.672589 0.020251 0.040148 0.238102 0.165887 -0.168691 0.097767 0.143343 -0.524071 0.325582 0.085682 -0.149430 0.178775 0.264460 -0.259760 -0.070790 0.095278 0.508471 -0.330354 0.469539 0.162511 -0.085890 -0.029121 0.110187 0.380992 -0.035738 0.080126 0.032429 0.322806 0.071132 -0.675299 0.567237 -0.607835 0.316711 0.260023 -0.199051 -0.552746 -0.357384 -0.349867 -0.288793 -0.258373 0.180878 -0.129898 -0.243066 -0.691846 -0.215664 -0.019450 0.746793 -0.077466 -0.402898 0.069322 -0.025037 -0.902817 0.393009 -0.018474 0.137684 -0.148903 -0.142748 0.091984 -0.068174 0.833238 0.095578 -0.114823 0.300612 0.864347 0.141624 0.056459 -0.054592 0.062138 0.056173 -0.463544 0.444900 -0.641695 0.065294 0.167289 -0.047440 0.110283 -0.147380 0.286971 -0.053406 -0.388430 0.872238 -0.217472 -0.237142 0.261182 -0.276155 0.212030 0.328659 0.369123 -0.604302 -0.102213 0.492062 -0.507778 0.370255 -0.596617 -0.244846 0.401383 -0.218149 0.046081 0.548304 0.051733 -0.450894 -0.359778 0.387346 -0.022532 0.176561 0.310810 0.658598 0.303110 0.175367 -1.136589 -0.066478 -0.504057 0.402545 -0.358659 -0.153804 -0.112148 0.042357 0.330519 -0.293295 0.717863 -1.104739 -0.507513 0.161240 0.461298 0.134902 -0.333931 0.462153 -0.106576 -0.409108 0.255555 0.007719 -0.338019 -0.127906 -0.841141 0.948500 0.023547 0.557453 -0.119521 -0.099469 -0.578637 -0.732899 -0.998432 -1.226806 0.870608 -0.192632 0.431682 0.025508 0.299072 0.008575 -0.535482 0.068045 -0.705373 
HCCDB-13.S181 0.501405 -0.326982 0.125166 0.116091 0.060690 -0.636627 0.799299 0.639426 -0.057526 -0.061148 -0.121819 0.324689 -0.163118 0.306087 -0.768703 -0.052576 0.191950 -0.970306 -0.099182 -0.548442 -0.045046 0.479974 0.240797 0.714171 -0.079818 -0.085534 0.002418 -0.264303 0.139227 0.227161 -0.400737 0.382001 0.867453 -0.744255 -0.519042 0.312075 -0.215922 -0.351314 0.092264 -0.494234 0.189816 0.136883 0.361122 -0.260318 -0.051501 -0.046692 0.408139 0.815375 0.138262 0.155701 0.284293 0.220776 -0.034016 0.017464 0.161522 -0.446307 0.360278 0.071917 -0.103333 0.096620 0.300122 -0.307296 -0.214107 0.166743 0.551718 -0.492811 0.236361 0.028500 -0.006691 0.016833 0.051115 0.557247 0.068209 0.115503 0.032496 0.296682 0.046558 -0.537351 0.700160 -0.474107 0.352988 0.184103 -0.359424 -0.599209 -0.449825 -0.342812 -0.370130 -0.145047 0.102749 0.030422 -0.354733 -0.584805 -0.253783 0.046635 0.541988 0.190623 -0.312502 0.067145 0.023627 -0.857584 0.388646 -0.035906 0.233749 -0.197247 -0.068036 0.081697 -0.289493 0.793496 0.103640 0.018819 0.167310 0.944999 0.235638 0.151005 -0.036723 0.133206 0.117839 -0.458298 0.547571 -0.676850 -0.073279 0.218256 -0.259358 0.282073 -0.055031 0.125618 -0.206192 -0.526794 0.784135 -0.197587 -0.190540 -0.011503 -0.182342 0.061576 0.426694 0.362984 -0.461002 0.047650 0.451821 -0.517039 0.453471 -0.547788 -0.204023 0.288827 -0.400991 0.116958 0.453485 0.047890 -0.325659 -0.495825 0.534211 -0.155110 0.171978 0.335001 0.613170 0.406859 0.319936 -0.939191 -0.052216 -0.394469 0.241764 -0.437545 -0.184276 -0.062009 -0.067810 0.334947 -0.223002 0.806686 -1.172527 -0.492916 0.058559 0.523218 0.363896 -0.277643 0.420820 -0.027785 -0.622311 0.147047 0.080667 -0.328775 -0.129688 -0.699862 0.947680 0.009822 0.546663 -0.013837 -0.363900 -0.608699 -0.715576 -1.070855 -1.145043 0.994869 0.024478 0.201714 0.029821 0.075370 -0.146238 -0.641160 0.092612 -0.685506 
