225 200
HCCDB-6.S1 0.393051 -0.297771 0.210766 -0.083280 0.037640 -0.645385 0.762929 0.655580 -0.098355 0.003582 -0.069966 0.400048 -0.159466 0.468119 -0.720299 -0.131088 0.249179 -0.955685 0.134479 -0.634077 -0.265045 0.444179 0.289951 0.692076 -0.019552 -0.289502 -0.061378 -0.188457 -0.057746 0.313682 -0.358428 0.303847 0.950341 -0.470874 -0.494343 0.402545 -0.221263 -0.350511 0.190425 -0.504689 0.133885 0.399587 0.404041 -0.448876 0.067902 0.026780 0.339479 0.744710 0.109200 0.145376 0.161223 0.240188 -0.200911 -0.084162 0.039174 -0.274274 0.290494 0.160172 -0.159075 0.149839 0.346858 -0.393929 0.174543 0.165561 0.488811 -0.402578 0.250555 -0.004582 -0.133561 0.078652 -0.048684 0.532443 -0.121476 0.031133 -0.061842 0.388586 0.091554 -0.555684 0.519303 -0.546636 0.378241 0.327984 -0.067857 -0.687114 -0.456787 -0.503157 -0.159495 -0.093071 0.196074 0.026150 -0.305716 -0.609048 -0.209582 0.006948 0.777692 -0.164028 -0.258946 0.332925 0.188647 -0.900082 0.240486 -0.034878 0.009666 -0.223723 0.005738 -0.007715 -0.164968 0.835679 -0.102338 -0.175077 0.326542 0.882709 0.260454 0.089783 0.027754 -0.045477 0.084779 -0.441573 0.295880 -0.599246 -0.145702 0.434345 -0.061248 0.266556 -0.253044 0.302262 -0.134237 -0.397508 0.948274 -0.335011 -0.149223 0.235126 -0.257149 0.202077 0.424388 0.213879 -0.553953 -0.053530 0.534683 -0.280585 0.415258 -0.613683 -0.182140 0.240783 -0.392152 -0.133999 0.635792 -0.004038 -0.413269 -0.376413 0.384446 -0.169197 0.311747 0.229680 0.527003 0.266462 0.240144 -1.029437 -0.123392 -0.297151 0.158839 -0.324024 -0.153351 -0.065668 -0.205325 0.286886 -0.227848 0.737479 -1.228164 -0.630124 0.045096 0.455448 0.166976 -0.385121 0.377361 -0.007819 -0.741860 0.243437 -0.128987 -0.449742 -0.138151 -0.764561 1.001147 0.241249 0.455004 -0.138038 -0.245322 -0.562526 -0.722043 -0.937879 -1.069273 0.952913 -0.032631 0.382228 -0.007540 0.313018 -0.186218 -0.541444 0.158777 -0.765729 
HCCDB-6.S100 0.366039 -0.417681 0.059187 -0.106828 0.252642 -0.601061 0.760540 0.683349 -0.249456 0.270263 0.032919 0.069933 -0.246538 0.500199 -0.752583 -0.324897 0.333999 -0.910801 0.188670 -0.531258 0.012323 0.459966 0.179383 0.766983 -0.168954 -0.241105 -0.114821 -0.058704 0.109060 0.183249 -0.428172 0.379346 1.041713 -0.563330 -0.581086 0.431139 -0.323238 -0.319228 0.166007 -0.513871 0.054429 0.160533 0.476421 -0.543155 -0.047718 0.138384 0.319203 0.655507 0.098711 -0.002406 0.326920 0.169645 -0.075504 -0.091970 -0.054160 -0.365981 0.535376 0.000401 -0.225286 0.201134 0.453289 -0.170739 -0.056185 0.121349 0.475079 -0.216728 0.370867 0.166356 -0.231844 0.088382 0.233995 0.314513 -0.111999 0.182061 0.093446 0.358914 -0.094338 -0.740020 0.688890 -0.417643 0.374379 0.266414 -0.256427 -0.452428 -0.400485 -0.304209 -0.278310 -0.004876 0.114283 0.076285 -0.430086 -0.636864 -0.131167 -0.025298 0.721312 0.040867 -0.347463 0.348736 0.029312 -0.814971 0.283612 -0.048797 0.244404 -0.090318 -0.203607 0.058633 -0.078938 0.764217 -0.000651 -0.101172 0.248439 0.849373 0.145687 0.079553 0.095690 0.018915 -0.101313 -0.547889 0.529287 -0.605207 -0.101064 0.253428 0.046010 0.239430 -0.217446 0.267123 -0.208887 -0.341575 0.595149 -0.229995 -0.270645 0.286345 -0.258094 0.271436 0.364931 0.283218 -0.629989 0.015945 0.500637 -0.446858 0.324832 -0.634050 -0.243937 0.239536 -0.282411 -0.057571 0.655674 0.122048 -0.289650 -0.328798 0.472854 0.007481 0.277213 0.258189 0.488207 0.294133 0.279454 -1.053553 0.277191 -0.513450 0.257005 -0.297987 -0.248226 -0.197171 0.068168 0.388888 -0.157831 0.782971 -1.177349 -0.415637 0.157960 0.464325 0.039572 -0.194725 0.483763 0.008578 -0.572718 0.272316 -0.057326 -0.202011 -0.131876 -0.559671 0.922679 0.020224 0.601343 0.060342 -0.166947 -0.541673 -0.857369 -1.065988 -1.185142 0.946045 -0.110162 0.457569 -0.100936 0.199645 -0.004483 -0.491692 -0.078030 -0.968310 
HCCDB-6.S112 0.217465 -0.250385 0.016429 -0.042311 0.043867 -0.753609 0.627089 0.801348 -0.105454 0.152606 -0.047163 0.310168 -0.079480 0.437881 -0.654222 -0.060624 0.326083 -0.950796 -0.140409 -0.653674 0.086469 0.511359 0.495186 0.732459 -0.119846 -0.087328 0.020831 -0.283715 0.260063 0.367066 -0.416807 0.312790 0.908324 -0.595822 -0.565928 0.406355 -0.312017 -0.411948 0.120308 -0.483176 0.226765 -0.035866 0.350396 -0.507361 0.094975 0.008736 0.277977 0.670162 0.036432 0.104137 0.296097 0.189564 -0.252557 -0.084996 0.177354 -0.496173 0.285225 0.166466 -0.271735 0.266847 0.221045 -0.271484 -0.131738 0.139340 0.574340 -0.299777 0.412801 0.091180 -0.134558 0.036693 -0.024089 0.624735 0.155310 -0.003129 -0.007278 0.382013 -0.101199 -0.684085 0.683199 -0.530676 0.468863 0.139179 -0.194235 -0.614623 -0.231534 -0.386481 -0.211984 -0.061022 0.114913 0.070838 -0.361569 -0.695655 -0.204571 -0.128910 0.813091 -0.009027 -0.276619 0.276694 -0.140510 -0.752470 0.468485 -0.139651 0.220927 -0.043678 -0.006302 0.157730 0.063964 0.865764 0.097521 -0.160536 0.391310 0.797155 0.132632 -0.035742 -0.024297 0.023069 0.030460 -0.432365 0.438822 -0.530130 0.038597 0.083542 -0.159812 0.301652 -0.196626 0.200789 -0.159333 -0.492098 0.699755 -0.183292 -0.331163 0.037480 -0.151251 0.072557 0.487152 0.155199 -0.487912 0.115570 0.487203 -0.390276 0.353503 -0.446870 -0.245976 0.159579 -0.223547 -0.079671 0.470022 0.031933 -0.327075 -0.369191 0.427744 -0.082900 0.083653 0.355650 0.654536 0.367238 0.420566 -1.017938 0.154774 -0.513969 0.186758 -0.218173 -0.158808 -0.062821 0.089096 0.384055 -0.120161 0.727075 -1.112967 -0.557550 0.011303 0.468512 0.274619 -0.291328 0.329552 -0.033770 -0.390040 0.229582 0.136516 -0.277351 -0.090713 -0.646114 1.157543 0.056880 0.652695 -0.040575 -0.452157 -0.412319 -0.840141 -0.913947 -1.289946 0.911364 -0.043692 0.408038 0.151076 0.275123 -0.177420 -0.667887 0.219551 -0.871731 
HCCDB-6.S113 0.285448 -0.217597 0.147353 -0.025491 -0.022499 -0.632043 0.895617 0.829331 -0.108755 0.047655 0.054230 0.295310 -0.175890 0.305636 -0.831583 -0.049541 0.214470 -0.852330 0.053052 -0.613623 -0.136365 0.468340 0.334885 0.645633 -0.003483 -0.174200 -0.262251 -0.376990 0.222017 0.178704 -0.518879 0.163959 0.953480 -0.547836 -0.750767 0.382918 -0.181829 -0.235820 0.186338 -0.452925 0.137362 0.146723 0.369348 -0.386774 -0.198358 -0.104044 0.430835 0.728604 0.200206 -0.068930 0.184870 0.078579 -0.227509 -0.126345 0.153705 -0.845084 0.343227 0.058732 -0.146507 0.285868 0.191854 -0.308733 -0.076928 0.008539 0.441519 -0.410104 0.418616 0.059205 -0.041041 0.035532 0.068420 0.599478 0.126943 0.208960 0.122195 0.216613 0.082073 -0.614013 0.619876 -0.398335 0.312870 0.097699 -0.449230 -0.412190 -0.259525 -0.360261 -0.214263 -0.261562 0.041452 0.261038 -0.288709 -0.799567 -0.266461 -0.027861 0.687994 -0.118725 -0.346552 0.457217 -0.103304 -0.807575 0.370678 0.006967 0.137943 -0.168029 -0.059908 0.265259 -0.260997 0.938497 0.182459 -0.192029 0.239789 1.051247 0.265004 -0.182238 -0.055848 0.062711 0.080513 -0.289625 0.630493 -0.727903 -0.025563 0.288019 -0.186385 0.192629 -0.150034 0.246202 -0.242116 -0.302197 0.915479 -0.325672 -0.399971 -0.107103 -0.169354 0.122197 0.316047 0.130462 -0.743140 0.101388 0.637107 -0.565102 0.189147 -0.458241 -0.042244 0.282135 -0.255675 0.030988 0.426166 -0.052103 -0.389700 -0.419719 0.608751 0.159933 0.199018 0.238036 0.628295 0.351459 0.200784 -1.007289 -0.072300 -0.484276 0.289356 -0.176206 -0.182706 -0.144456 0.056783 0.219113 -0.226998 0.679894 -1.020854 -0.464804 0.003429 0.497213 0.212214 -0.270973 0.430197 -0.065978 -0.647186 0.284819 -0.042123 -0.280730 -0.169041 -0.619006 0.966964 -0.132757 0.561409 -0.104632 -0.223423 -0.560657 -0.491314 -0.829128 -1.282320 0.953742 -0.242288 0.465907 0.058283 0.075828 -0.237881 -0.555537 0.109602 -0.777423 
HCCDB-6.S114 0.397414 -0.131607 0.202103 -0.189615 -0.050167 -0.708495 0.732557 0.695658 -0.092700 0.078611 -0.173667 0.216863 -0.110055 0.292272 -0.689726 -0.352439 0.336351 -1.173170 0.029508 -0.594184 -0.052756 0.405714 0.301648 0.753110 -0.101792 -0.251848 -0.116051 -0.337239 0.130952 0.194635 -0.334236 0.351672 1.035504 -0.530111 -0.513093 0.058351 -0.314766 -0.392516 0.063541 -0.450771 0.289367 0.285332 0.376617 -0.316181 0.057862 0.005094 0.341186 0.732482 0.124707 0.031302 0.187332 0.055409 -0.174467 0.001647 0.116472 -0.555214 0.352811 0.133153 -0.355093 0.109277 0.287974 -0.337829 0.049726 0.078870 0.544048 -0.532894 0.433896 0.138010 -0.097965 -0.049845 0.094459 0.494253 -0.191658 0.112554 -0.023518 0.222513 0.022951 -0.554086 0.673694 -0.582916 0.330598 0.285136 -0.049165 -0.489895 -0.448644 -0.391379 -0.237651 -0.189418 0.145654 0.069538 -0.193874 -0.644390 -0.137334 -0.029283 0.754524 -0.023398 -0.198721 0.195981 0.052424 -0.869267 0.240416 0.034533 0.076193 -0.176651 -0.187279 0.016261 -0.107666 0.699952 0.027655 -0.176636 0.290050 0.714144 0.200105 -0.020737 -0.052301 0.074006 0.051744 -0.474741 0.390519 -0.522912 0.037299 0.296998 -0.102303 0.243768 -0.266454 0.305047 -0.162860 -0.366864 0.945764 -0.427434 -0.163827 0.148009 -0.180066 0.207048 0.300735 0.369607 -0.505001 -0.037000 0.464554 -0.424850 0.330814 -0.494206 -0.173999 0.274713 -0.181275 -0.080817 0.595426 0.059818 -0.432517 -0.454495 0.469330 -0.113712 0.283301 0.355068 0.473212 0.402336 0.223935 -1.019732 0.043645 -0.404190 0.146704 -0.284369 -0.161059 -0.175850 0.063461 0.179523 -0.194904 0.850437 -1.211309 -0.603558 -0.010469 0.416701 0.276864 -0.383626 0.385107 -0.032456 -0.564733 0.338089 0.012639 -0.345337 -0.110110 -0.808985 0.938116 0.058626 0.589157 -0.128335 -0.262027 -0.623779 -0.813463 -0.941114 -1.050501 1.011928 -0.032616 0.398340 -0.021798 0.296945 -0.258135 -0.439722 0.154157 -0.760718 
HCCDB-6.S115 0.537721 -0.268130 0.179156 0.023436 0.036571 -0.593967 0.675823 0.745417 -0.019286 0.000408 -0.198289 0.319733 -0.118838 0.464210 -0.914380 -0.180294 0.341138 -0.983733 0.010368 -0.742698 -0.133150 0.505789 0.240784 0.846200 -0.035053 -0.158972 -0.047131 -0.149315 0.112440 0.357274 -0.377392 0.442296 0.803848 -0.748649 -0.661809 0.373783 -0.277858 -0.382351 0.212986 -0.558962 0.131437 0.165088 0.386589 -0.407107 0.015441 -0.047859 0.444676 0.831820 0.068095 0.000740 0.188642 0.233606 -0.013590 -0.085986 0.195269 -0.522219 0.317013 0.264130 -0.166286 0.200461 0.291146 -0.269774 0.021873 0.233815 0.617672 -0.339192 0.164322 0.129501 -0.097599 0.119263 0.177587 0.379796 0.019112 0.123128 0.022338 0.333339 0.093092 -0.531980 0.569778 -0.291260 0.351757 0.150219 -0.138351 -0.704759 -0.350147 -0.389975 -0.235549 -0.287353 0.113781 0.013940 -0.346722 -0.592379 -0.141162 0.023758 0.623031 0.064920 -0.305082 0.159221 0.008697 -0.791133 0.356590 -0.150478 0.138930 -0.139205 0.010362 0.046834 -0.097775 0.724293 0.184377 -0.110589 0.386365 0.857594 0.264217 0.058592 -0.074856 0.066478 0.177794 -0.388396 0.382470 -0.468129 0.134241 0.180404 -0.096850 0.260394 -0.122173 0.307145 -0.045817 -0.504812 0.708803 -0.220304 -0.142720 0.192072 -0.292569 0.217410 0.446338 0.293470 -0.444373 0.054485 0.377028 -0.634912 0.483400 -0.528157 -0.336713 0.277098 -0.159276 -0.009475 0.476306 0.131125 -0.282295 -0.581262 0.573105 -0.026408 0.346606 0.278898 0.587709 0.447721 0.161122 -1.109782 -0.050582 -0.405994 0.264219 -0.285088 -0.222842 -0.250536 -0.030879 0.310360 -0.046710 0.725277 -1.143882 -0.588798 0.150953 0.301708 0.145708 -0.320983 0.427281 -0.249341 -0.683600 0.238293 -0.032683 -0.349189 -0.166218 -0.604386 1.042838 0.163380 0.526872 -0.083741 -0.220246 -0.481628 -0.792495 -0.872135 -1.271785 0.927429 -0.026954 0.370446 -0.154552 0.229140 -0.058374 -0.706560 0.216264 -0.672245 
HCCDB-6.S116 0.508444 -0.145703 -0.091726 0.101992 -0.079286 -0.737980 0.912669 0.695071 -0.234825 0.102132 -0.094385 0.205797 -0.315032 0.400538 -0.665637 -0.185442 -0.001914 -1.084476 -0.159577 -0.508039 -0.225779 0.666980 0.289863 0.805283 -0.091325 -0.481365 -0.053207 -0.314070 0.361800 0.328741 -0.692241 0.436740 0.909555 -0.450525 -0.605226 0.355518 -0.126790 -0.564915 0.262887 -0.401959 0.084221 0.110783 0.395791 -0.199727 -0.006572 -0.223813 0.130081 0.868406 0.070120 0.079252 0.130691 0.236024 -0.091944 -0.169014 0.029091 -0.387281 0.356393 0.090857 -0.376975 0.237694 0.361846 -0.068285 -0.229462 -0.044163 0.830104 -0.409434 0.341755 -0.036074 -0.124464 0.007429 -0.042312 0.479293 0.039551 0.113614 -0.013512 0.191351 0.092461 -0.510583 0.560353 -0.505354 0.493831 0.307475 -0.235300 -0.525007 -0.360366 -0.398234 0.065235 0.046926 0.182001 0.023862 -0.106384 -0.474996 -0.350565 -0.116335 0.649626 -0.076099 -0.407700 0.060626 0.110036 -0.788958 0.287361 0.020720 0.278126 -0.181949 0.085287 0.080131 -0.209387 0.778095 -0.143384 -0.027126 0.337847 0.870247 0.416168 0.147179 -0.051747 0.136101 0.007904 -0.477330 0.963240 -0.652908 0.000412 0.289771 -0.021068 0.177447 -0.060618 0.416069 -0.235573 -0.445280 0.618556 -0.249851 -0.081463 0.133146 -0.302139 0.172102 0.320934 0.115079 -0.627496 0.003127 0.640966 -0.410100 0.246922 -0.882372 -0.194302 0.395285 -0.404348 0.049156 0.588817 0.007789 -0.391881 -0.619448 0.398677 0.065485 0.260338 0.415305 0.558266 0.474684 0.073750 -1.048547 -0.040410 -0.658616 0.105629 -0.409400 -0.212742 -0.130931 -0.156578 0.144585 -0.276458 0.755306 -1.267802 -0.313804 0.089268 0.388362 0.365222 -0.225951 0.495023 -0.090604 -0.703351 0.293937 0.198883 -0.487695 -0.139708 -0.731620 0.857709 0.136399 0.488548 0.156860 -0.162712 -0.612930 -0.765366 -1.130655 -1.264868 1.051887 -0.216923 0.434375 0.053418 0.060395 0.035957 -0.579059 0.075508 -0.880821 
HCCDB-6.S117 0.372564 -0.232280 -0.078880 0.012554 -0.071497 -0.646380 0.706328 0.761016 -0.185802 0.123760 -0.084843 0.260195 -0.045801 0.292996 -0.714845 -0.308374 0.262714 -1.063508 -0.011527 -0.575334 -0.021417 0.489318 0.176244 0.871650 -0.206662 -0.105433 0.014677 -0.060905 0.042611 0.188520 -0.327327 0.514967 0.833750 -0.494489 -0.778209 0.233479 -0.144832 -0.359824 -0.062868 -0.408770 0.050636 0.155639 0.393283 -0.344993 -0.072956 -0.102296 0.232160 0.598743 -0.123928 0.112703 0.117341 0.284262 -0.088331 -0.119818 0.154116 -0.444575 0.325356 0.084800 -0.328034 0.084952 0.494107 -0.219238 0.006251 0.259621 0.646567 -0.437219 0.321993 0.085274 -0.015485 0.294529 0.178195 0.518731 0.093585 0.061576 -0.036986 0.293638 -0.056813 -0.605997 0.698912 -0.462516 0.413704 0.281966 -0.200919 -0.530357 -0.474722 -0.466543 -0.122910 -0.231485 0.138945 0.247583 -0.210814 -0.733707 -0.175791 0.027147 0.927104 -0.046124 -0.380663 0.137303 0.011357 -0.901921 0.418278 -0.019594 0.271241 -0.291289 -0.114965 0.190383 -0.201501 0.739446 0.060175 -0.195887 0.463599 0.740255 0.202815 0.231830 0.011808 0.185042 0.098202 -0.418969 0.622290 -0.542473 -0.122466 0.266100 -0.159043 0.333023 -0.078014 0.026502 -0.187805 -0.532211 0.586553 -0.360888 -0.087282 0.092836 -0.056101 0.279706 0.338485 0.340411 -0.584490 -0.110797 0.574999 -0.578675 0.253304 -0.649038 -0.199212 0.226762 -0.251494 -0.032853 0.653128 0.035174 -0.284978 -0.255372 0.605699 -0.022617 0.233331 0.300942 0.566887 0.398370 0.276269 -1.038811 0.055935 -0.493341 0.148480 -0.257453 -0.167866 -0.022680 0.110571 0.441777 -0.167393 0.663871 -1.094859 -0.502725 -0.031414 0.388907 0.167241 -0.249946 0.440322 0.027640 -0.580758 0.318200 0.026034 -0.366485 -0.252457 -0.649625 0.910656 0.159962 0.559199 0.093528 -0.282359 -0.532793 -0.872534 -0.940580 -1.275191 1.043043 -0.062080 0.343716 0.085743 0.207870 -0.063330 -0.559787 0.049762 -0.810253 
HCCDB-6.S118 0.432735 -0.202319 0.072632 -0.026864 0.013199 -0.705933 0.759338 0.701679 -0.128686 -0.019708 -0.032976 0.276020 -0.058744 0.436013 -0.749000 -0.293090 0.251262 -0.905134 0.018056 -0.689625 -0.142804 0.484645 0.306916 0.811681 -0.029672 -0.129126 -0.037934 -0.237953 0.114559 0.141181 -0.279217 0.245157 0.848793 -0.631933 -0.500978 0.395702 -0.306990 -0.374344 0.030530 -0.534401 0.093675 0.238472 0.432886 -0.468374 -0.010034 -0.014906 0.326104 0.730914 -0.018430 0.022679 0.244413 0.265015 -0.062900 -0.146399 0.151669 -0.466204 0.365189 0.133044 -0.222523 0.165402 0.400347 -0.301074 0.067988 0.079790 0.628099 -0.416361 0.356085 0.036241 -0.174158 0.123645 0.070429 0.562907 0.066900 0.192803 -0.044215 0.333227 0.043770 -0.619122 0.624381 -0.512041 0.269886 0.322408 -0.153538 -0.452605 -0.468265 -0.404181 -0.198144 -0.351268 0.245075 0.078207 -0.310748 -0.705531 -0.301468 -0.135311 0.749267 0.034075 -0.455991 0.049617 -0.076429 -0.866093 0.450664 -0.088760 0.091054 -0.237159 -0.136137 0.084449 -0.135107 0.813765 -0.005981 -0.075182 0.225921 0.717633 0.037014 0.164481 0.083460 0.013131 0.017495 -0.388856 0.378191 -0.606617 -0.063467 0.280896 -0.062864 0.239668 -0.109643 0.230928 -0.157662 -0.437834 0.722737 -0.295301 -0.135955 0.145833 -0.215235 0.089282 0.270605 0.370371 -0.556314 -0.004005 0.415092 -0.510734 0.279660 -0.528581 -0.107190 0.231699 -0.182414 -0.088076 0.621160 0.117308 -0.258590 -0.340190 0.534944 -0.129835 0.298307 0.207672 0.527027 0.341420 0.198110 -1.024824 0.055287 -0.523375 0.189179 -0.342441 -0.282009 -0.090781 -0.058190 0.286779 -0.146709 0.677345 -1.201457 -0.568973 0.111029 0.398078 0.347279 -0.339087 0.262168 -0.147163 -0.587957 0.362424 -0.040452 -0.377331 -0.196753 -0.634100 1.021851 0.051776 0.518276 -0.025973 -0.361073 -0.537089 -0.745951 -1.036797 -1.151242 0.987683 -0.026481 0.433836 0.033679 0.305814 -0.114392 -0.493481 0.147849 -0.803298 
HCCDB-6.S119 0.381223 -0.009039 -0.103080 0.116332 0.074225 -0.731024 0.936855 0.690852 -0.204659 0.103323 0.064482 0.340092 -0.310902 0.396314 -0.735551 -0.295387 0.180607 -1.034644 -0.064965 -0.540852 -0.266502 0.705951 0.348310 0.751413 -0.061367 -0.432318 -0.023573 -0.371530 0.184251 0.303442 -0.551876 0.393161 0.813615 -0.534330 -0.578435 0.314369 -0.076626 -0.554251 0.121977 -0.371196 0.095503 0.214830 0.428513 -0.158765 -0.009158 -0.244621 0.146787 0.827491 -0.000545 0.198524 0.123974 0.302472 -0.146897 -0.206451 0.024826 -0.359829 0.446680 0.087385 -0.330788 0.186711 0.460075 -0.123601 -0.165575 0.155518 0.690301 -0.459949 0.296366 -0.038110 -0.045372 0.074509 -0.074179 0.409890 0.136651 -0.055404 0.014559 0.245912 0.026439 -0.511400 0.619875 -0.394534 0.538871 0.379070 -0.237989 -0.594841 -0.365223 -0.291187 -0.006390 0.038261 0.333011 0.072267 -0.325853 -0.578523 -0.244519 -0.062986 0.718717 -0.062789 -0.414811 0.048366 0.103864 -0.720523 0.348928 0.030770 0.110603 -0.130465 0.125507 0.269485 -0.106634 0.771822 -0.028744 -0.032884 0.454101 0.809453 0.233359 0.147268 -0.116628 0.098513 0.203359 -0.486911 0.862852 -0.493668 -0.018815 0.212993 -0.125505 0.340920 -0.124916 0.196216 -0.208520 -0.447671 0.732593 -0.295279 -0.126768 0.062541 -0.249801 0.183531 0.324844 0.213626 -0.649923 0.007357 0.592273 -0.474655 0.369262 -0.899459 -0.357465 0.442108 -0.308486 -0.008229 0.440495 -0.092955 -0.218947 -0.476771 0.324360 0.014212 0.082001 0.342074 0.640039 0.604178 0.129564 -1.111359 -0.095581 -0.668511 0.279205 -0.390399 -0.191605 0.045076 -0.085655 0.179833 -0.309315 0.946263 -1.261214 -0.386165 -0.019170 0.482253 0.433984 -0.290448 0.452956 0.094025 -0.635886 0.327288 0.097522 -0.387585 -0.110876 -0.760143 0.852238 0.125528 0.577849 0.112126 -0.097013 -0.569578 -0.926609 -1.095975 -1.286599 0.975180 -0.131312 0.376540 0.062312 0.082390 -0.017927 -0.593155 0.196227 -0.969680 
HCCDB-6.S120 0.252287 -0.387487 0.158303 0.016512 0.003810 -0.693960 0.799926 0.898972 -0.087999 0.186501 -0.202001 0.268155 -0.123924 0.281599 -0.698405 -0.338998 0.145201 -0.901607 -0.044552 -0.682057 -0.130948 0.440380 0.175129 0.732202 -0.202540 -0.133275 -0.145331 -0.232512 0.194738 0.164696 -0.274581 0.428131 0.897023 -0.560976 -0.533407 0.339535 -0.185039 -0.295243 0.106511 -0.403223 0.273478 0.183930 0.313234 -0.281112 -0.030375 -0.010755 0.335150 0.680491 0.059337 0.071697 0.275326 0.112508 -0.154417 -0.038688 0.135700 -0.383873 0.351387 0.085541 -0.277725 0.155483 0.273906 -0.294107 -0.014864 0.112852 0.608016 -0.477576 0.397878 0.010041 0.016527 0.021206 0.132847 0.611331 0.077441 0.105710 -0.122668 0.313774 0.100143 -0.744655 0.737247 -0.577119 0.377491 0.288911 -0.185696 -0.354949 -0.412714 -0.316883 -0.292108 -0.212554 0.022957 0.098245 -0.372932 -0.673102 -0.329797 0.037581 0.733850 0.097228 -0.346732 0.072162 0.112394 -0.791172 0.497777 -0.071821 0.163007 -0.076491 -0.048504 0.081368 -0.220179 0.865679 0.094662 -0.063876 0.288828 0.901457 0.267869 0.166428 -0.107524 -0.070908 -0.006292 -0.514817 0.651627 -0.615922 -0.069221 0.241746 -0.097975 0.190421 -0.182699 0.102071 -0.155460 -0.500896 0.659566 -0.134269 -0.220722 0.096286 -0.132361 0.092074 0.384821 0.262721 -0.570022 -0.093971 0.476313 -0.582270 0.363287 -0.517224 -0.162028 0.292244 -0.224244 0.028667 0.532462 0.223715 -0.445071 -0.378401 0.520503 -0.068758 0.335651 0.323850 0.563663 0.225919 0.180343 -1.047171 0.047579 -0.547660 0.236834 -0.232729 -0.065115 -0.062877 -0.086758 0.308909 -0.241701 0.943939 -1.049843 -0.311798 -0.045912 0.499113 0.218871 -0.230054 0.485362 0.005066 -0.701072 0.145497 0.024729 -0.269556 -0.124886 -0.780728 0.971518 -0.154728 0.494373 -0.086631 -0.370877 -0.487454 -0.693764 -0.959376 -1.132580 1.008936 -0.146193 0.338292 0.123658 0.144836 0.005391 -0.533344 0.162780 -0.709436 
HCCDB-6.S121 0.505530 -0.355101 0.067359 -0.076729 0.157028 -0.561554 0.658003 0.784500 -0.209896 0.065619 -0.015945 0.162557 -0.137999 0.533104 -0.712587 -0.152985 0.252733 -0.987223 0.050532 -0.594054 -0.006493 0.417108 0.246382 0.780394 -0.037638 -0.132329 -0.174338 -0.149787 0.210834 0.117118 -0.389960 0.423972 0.845791 -0.536247 -0.684583 0.462129 -0.368043 -0.333710 0.128978 -0.391375 0.177713 0.126184 0.416535 -0.478280 -0.167304 0.008521 0.270890 0.712121 0.077019 0.023253 0.278127 0.010374 -0.225507 -0.050778 -0.008835 -0.494448 0.369558 0.007302 -0.283230 0.167604 0.417430 -0.192567 -0.021070 0.060008 0.389331 -0.248969 0.297984 0.075956 -0.176108 0.124213 0.256968 0.333908 -0.021672 0.189670 0.143673 0.361521 -0.165515 -0.615612 0.605614 -0.342503 0.411390 0.247486 -0.218628 -0.547875 -0.371758 -0.381152 -0.195434 -0.160072 0.003703 -0.011972 -0.300346 -0.788540 -0.306349 -0.040664 0.815711 0.063626 -0.344636 0.226595 -0.006535 -0.912960 0.285087 -0.134767 0.192928 -0.092670 -0.146672 0.038941 -0.085674 0.664665 0.077024 -0.030257 0.475810 0.741597 0.234756 0.126257 -0.094426 0.093453 0.065361 -0.464261 0.619037 -0.741563 -0.071499 0.215739 -0.119512 0.202718 -0.155096 0.360876 -0.168571 -0.426783 0.609783 -0.277220 -0.206287 0.178777 -0.216714 0.269118 0.327144 0.252267 -0.538061 -0.069848 0.535470 -0.533556 0.384683 -0.636245 -0.362007 0.253753 -0.253262 -0.157402 0.691016 0.165347 -0.307099 -0.449622 0.523680 -0.112111 0.236152 0.254314 0.595562 0.377172 0.216873 -1.098177 0.206395 -0.502808 0.174403 -0.320782 -0.299671 -0.083952 0.186280 0.341367 -0.046426 0.822541 -1.161279 -0.556681 0.130679 0.435760 0.056456 -0.337534 0.543658 -0.112181 -0.495495 0.273687 -0.072787 -0.361917 -0.082414 -0.727330 0.981441 0.040831 0.649126 -0.063733 -0.148075 -0.535355 -0.800852 -1.021072 -1.048669 0.918427 -0.079813 0.545589 0.061370 0.266563 -0.068184 -0.535109 -0.151579 -0.898727 
HCCDB-6.S122 0.491273 -0.298781 0.128049 0.014101 -0.077196 -0.691603 0.685116 0.700768 -0.141238 0.159235 -0.076478 0.365920 -0.197940 0.295727 -0.769660 -0.215801 0.384014 -0.932823 -0.022732 -0.678764 -0.151139 0.558483 0.136850 0.835835 -0.090916 -0.110683 -0.079868 -0.272584 0.085404 0.152551 -0.256474 0.292531 0.981623 -0.564633 -0.463420 0.366870 -0.065231 -0.412200 0.060792 -0.497939 0.297357 0.123039 0.367958 -0.541668 -0.269268 -0.144532 0.207015 0.557999 0.079453 0.156572 0.239663 0.044722 -0.084852 0.084560 0.101846 -0.408641 0.340061 0.138531 -0.246270 0.122011 0.325538 -0.407611 -0.097410 0.168110 0.576247 -0.444810 0.380861 0.096334 -0.045458 0.129123 0.022172 0.447726 0.085813 0.047486 -0.038834 0.427649 0.205571 -0.662810 0.587669 -0.487286 0.505715 0.245708 -0.148708 -0.608022 -0.348310 -0.264816 -0.259546 -0.106308 0.198829 -0.029148 -0.434668 -0.666748 -0.353583 -0.087252 0.828654 0.018325 -0.349904 0.129781 -0.015811 -0.833325 0.344991 -0.068681 0.162541 -0.245620 -0.001734 0.313578 -0.094384 0.807847 0.099472 0.024623 0.192950 0.870105 0.228214 0.220274 -0.124658 -0.017425 0.026049 -0.355201 0.372726 -0.540209 -0.127770 0.219472 -0.165133 0.288830 -0.126427 0.171974 -0.159347 -0.490424 0.723710 -0.238189 -0.262046 0.004987 -0.071186 0.049637 0.354230 0.337489 -0.570882 0.114468 0.458375 -0.325634 0.405465 -0.548334 -0.285167 0.274142 -0.285855 -0.012922 0.607728 0.034970 -0.371222 -0.339074 0.374751 -0.025793 0.228639 0.307819 0.548467 0.395429 0.200654 -1.047162 -0.039469 -0.573911 0.279719 -0.165251 -0.051270 -0.005471 -0.010819 0.294077 -0.123822 0.847239 -1.040448 -0.388217 0.056864 0.487845 0.350820 -0.332100 0.395270 0.022141 -0.485810 0.277359 0.016708 -0.179134 -0.164098 -0.617634 0.954896 0.082708 0.535376 0.049382 -0.424569 -0.584872 -0.824894 -0.971389 -1.235206 0.824660 0.076693 0.468808 -0.023473 0.224686 -0.094490 -0.600095 0.119539 -0.809379 
HCCDB-6.S123 0.360610 -0.269011 0.135772 0.015455 0.150043 -0.611920 0.926205 0.547581 -0.266968 0.034080 -0.137881 0.395928 -0.170966 0.311802 -0.884717 -0.200197 0.271486 -1.115923 0.034269 -0.472073 -0.256173 0.716969 0.286252 0.733534 -0.073202 -0.333799 -0.124009 -0.292595 0.054347 0.153966 -0.458718 0.394774 0.946896 -0.734575 -0.340262 0.239107 -0.123339 -0.442135 0.225937 -0.440525 0.135054 0.242526 0.306122 -0.338544 -0.112253 -0.099729 0.237713 0.775362 0.086100 -0.028549 0.231664 0.381245 0.054477 -0.115255 0.002675 -0.548067 0.401847 -0.051950 -0.386490 0.100792 0.419020 -0.422969 0.021896 0.043685 0.540009 -0.405325 0.432142 -0.100191 0.070705 0.017557 0.006865 0.556008 0.133495 0.154205 0.086201 0.218545 0.205174 -0.583212 0.629820 -0.420457 0.198243 0.166840 -0.367880 -0.672155 -0.341219 -0.360356 -0.430615 -0.199701 0.311074 0.064059 -0.277888 -0.653653 -0.190243 0.009810 0.595130 -0.067832 -0.410862 -0.088073 0.018006 -0.684193 0.751332 0.036995 0.197499 -0.130294 0.031744 0.353421 0.021073 1.012195 0.052123 -0.082851 0.041418 0.910370 0.034188 -0.064144 -0.123253 0.154568 0.268433 -0.406684 0.516184 -0.531568 -0.137949 0.355710 -0.305892 0.256920 0.025168 0.176829 -0.194207 -0.357212 0.769670 -0.261200 -0.179498 0.027894 -0.206526 -0.015717 0.372510 0.336641 -0.499782 0.064539 0.561322 -0.522683 0.283823 -0.420501 -0.170428 0.281964 -0.218751 -0.163619 0.378118 -0.316927 -0.185595 -0.365429 0.421622 0.004294 0.330095 0.249196 0.608196 0.375257 0.146189 -1.009309 -0.236006 -0.458956 0.311022 -0.291104 -0.134841 -0.019646 0.014783 0.261054 -0.475661 0.858680 -1.150997 -0.431368 0.008670 0.535559 0.504528 -0.408766 0.473353 -0.065271 -0.653542 0.379707 0.055591 -0.305892 -0.069867 -0.674574 0.873450 0.105167 0.513059 -0.092692 -0.353571 -0.492816 -0.676197 -0.944885 -1.236440 1.053849 -0.188955 0.375525 0.025244 0.214435 -0.046331 -0.592127 0.170501 -0.747903 
HCCDB-6.S124 0.335541 -0.245107 0.139777 0.004050 -0.003793 -0.697358 0.778438 0.566315 0.001246 0.039537 -0.195311 0.465657 -0.105235 0.306532 -0.758729 -0.246800 0.267461 -1.100528 0.029535 -0.607690 -0.115536 0.542398 0.172538 0.574709 0.038350 -0.357431 -0.028033 -0.189106 -0.028568 0.088483 -0.323926 0.414279 0.850975 -0.525153 -0.432008 0.346965 -0.126531 -0.397029 0.088468 -0.429367 0.069339 0.251580 0.374210 -0.237383 -0.089297 -0.265674 0.329653 0.812609 0.161177 0.096440 0.125443 0.260439 -0.113479 -0.093555 -0.075501 -0.423213 0.377991 0.074110 -0.273633 0.193959 0.338991 -0.335549 0.007943 0.141474 0.565153 -0.540249 0.322782 0.063606 0.029272 0.296086 0.069126 0.387896 0.045570 0.078778 0.085515 0.119899 0.033321 -0.508554 0.669107 -0.515323 0.271830 0.160185 -0.343958 -0.761245 -0.512151 -0.484928 -0.191507 -0.230357 0.315634 0.226408 -0.328764 -0.668270 -0.212023 -0.103332 0.868497 -0.002829 -0.226011 0.176363 0.036875 -0.821823 0.523867 0.022565 0.167920 -0.185339 0.038134 0.255372 -0.048982 1.035786 0.204132 0.036473 0.223873 0.908121 -0.051475 0.124337 -0.188121 -0.214486 0.272019 -0.385441 0.370245 -0.586419 0.024728 0.333178 -0.299931 0.296787 -0.128652 0.108274 -0.267275 -0.405975 0.935668 -0.291961 -0.097397 0.084608 -0.173453 0.168211 0.399363 0.380977 -0.760560 0.001099 0.661183 -0.402430 0.487923 -0.439453 -0.122480 0.225215 -0.299890 -0.113549 0.385403 -0.066212 -0.115656 -0.434649 0.447130 -0.250458 0.143463 0.121426 0.581827 0.430873 0.113144 -0.981563 -0.276762 -0.542308 0.190248 -0.446517 -0.134003 0.090139 0.074625 0.278151 -0.466898 0.789324 -0.985077 -0.425967 -0.081475 0.653311 0.420913 -0.260129 0.456825 -0.190190 -0.529869 0.331758 0.027648 -0.373717 -0.202990 -0.802223 0.984753 0.122235 0.515183 0.027433 -0.181602 -0.598920 -0.802766 -1.021786 -1.174502 0.956642 -0.016629 0.503290 -0.020068 0.102240 -0.032472 -0.435593 0.106349 -0.863376 
HCCDB-6.S125 0.413798 -0.267185 0.184653 -0.011252 -0.003419 -0.689593 0.670788 0.758022 -0.025227 0.008393 0.002308 0.194780 -0.090190 0.315482 -0.707494 -0.242466 0.303739 -0.976880 -0.020273 -0.580584 -0.108723 0.492072 0.339982 0.876029 0.040636 -0.032293 -0.125884 -0.194759 0.109764 0.216204 -0.442612 0.276857 0.984898 -0.453391 -0.621322 0.266587 -0.407332 -0.420877 0.003414 -0.513036 0.164532 0.220066 0.356945 -0.364169 -0.074555 0.000682 0.362368 0.797950 -0.011264 0.078986 0.222128 0.223910 -0.275476 -0.124775 0.246986 -0.613565 0.341385 0.079376 -0.223302 0.260154 0.348874 -0.160599 0.031416 0.058571 0.557742 -0.487427 0.489839 0.102144 -0.301428 -0.043704 0.194482 0.397189 -0.003443 0.200464 -0.030598 0.252761 -0.122602 -0.574712 0.632200 -0.547466 0.485035 0.420926 -0.122050 -0.384102 -0.404481 -0.371705 -0.239475 -0.025071 0.222034 0.016883 -0.377415 -0.609576 -0.131808 0.018911 0.630540 -0.216243 -0.357715 0.255931 0.085404 -0.743193 0.284633 -0.189928 0.095203 -0.157699 -0.024265 -0.053495 -0.091049 0.696834 0.109863 -0.156623 0.475417 0.723472 0.352302 0.003190 0.056226 0.085820 0.059093 -0.505749 0.482899 -0.524649 0.027457 0.308540 -0.044181 0.120772 -0.275177 0.270069 -0.139038 -0.426810 0.847024 -0.378575 -0.200440 0.338359 -0.278511 0.425220 0.280538 0.286484 -0.623955 -0.120356 0.536541 -0.400474 0.441557 -0.603658 -0.159561 0.393378 -0.171805 -0.014492 0.687939 0.233101 -0.409878 -0.487909 0.529307 -0.081661 0.368120 0.429708 0.526879 0.376044 0.192866 -1.031365 0.130574 -0.493382 0.192664 -0.304253 -0.070687 -0.151254 0.068511 0.252867 -0.088772 0.758345 -1.102873 -0.503761 0.144467 0.307628 0.283987 -0.313193 0.223652 -0.165912 -0.632323 0.262966 -0.011279 -0.170635 -0.013958 -0.815446 1.159414 0.081295 0.554818 -0.090320 -0.267724 -0.643270 -0.769924 -0.969992 -1.311973 0.759255 0.009870 0.323613 0.010945 0.219648 -0.273486 -0.440903 0.022571 -0.838888 
HCCDB-6.S126 0.391995 -0.092396 0.083029 -0.068226 0.109143 -0.574773 0.817738 0.574771 0.018996 0.052019 -0.108331 0.342023 -0.122358 0.316348 -0.816471 -0.144260 0.149245 -0.897170 0.034700 -0.608404 -0.111307 0.437757 0.071772 0.694103 -0.003522 -0.139150 -0.042261 -0.289287 0.147795 0.314045 -0.284207 0.307604 0.829840 -0.741418 -0.631421 0.376178 -0.128844 -0.184280 0.015560 -0.578545 0.332666 0.153807 0.300493 -0.392776 -0.067298 0.007599 0.150005 0.684766 0.026856 0.079632 0.303019 0.213170 -0.085185 0.044909 0.087396 -0.374590 0.369087 -0.007006 -0.143780 0.101403 0.442430 -0.347473 -0.017346 0.100599 0.560041 -0.406362 0.246603 0.121410 0.139775 0.096801 -0.044597 0.481967 0.273430 -0.015051 0.022014 0.296699 0.128636 -0.688803 0.546248 -0.474316 0.366847 0.405761 -0.257312 -0.728249 -0.426882 -0.390237 -0.138362 -0.252852 0.211208 -0.006974 -0.326674 -0.491898 -0.406790 -0.072891 0.841646 -0.051605 -0.395802 0.364757 -0.147026 -0.868758 0.459942 -0.071415 0.183022 -0.152352 -0.070315 0.232123 -0.035290 0.758696 0.109569 0.042918 0.306144 0.952265 0.147145 0.281332 -0.189235 0.023204 0.059381 -0.509170 0.338522 -0.691454 -0.045984 0.215908 -0.124565 0.293021 0.020407 0.280883 -0.185139 -0.315548 0.769167 -0.011925 -0.249558 -0.014886 -0.245465 0.224051 0.353215 0.278060 -0.460412 0.016886 0.533238 -0.410882 0.502779 -0.409375 -0.256362 0.276712 -0.153234 0.061985 0.595699 0.006787 -0.376631 -0.323645 0.453857 -0.020104 0.351178 0.342385 0.646376 0.415297 0.286888 -0.978208 0.014171 -0.685871 0.215921 -0.406328 -0.140617 0.082275 -0.014339 0.423046 -0.288558 0.865134 -1.182231 -0.474381 -0.022646 0.384290 0.413119 -0.311290 0.473570 -0.091191 -0.550584 0.341205 0.003772 -0.261074 -0.154986 -0.479055 0.857413 -0.108555 0.537529 -0.023906 -0.451209 -0.527714 -0.787982 -0.891588 -1.444964 0.777434 0.111471 0.387089 -0.079384 0.114804 -0.212248 -0.586600 0.030177 -0.828334 
HCCDB-6.S127 0.415309 -0.258112 0.257891 -0.055649 -0.132369 -0.668697 0.772984 0.583073 -0.111355 0.045518 -0.028699 0.322458 -0.091140 0.419512 -0.705530 -0.298343 0.342824 -0.946592 0.023179 -0.605196 -0.038992 0.444294 0.115757 0.651020 -0.158960 -0.070416 -0.012321 -0.197042 0.161740 0.180518 -0.276522 0.399327 0.820950 -0.488044 -0.811290 0.239294 -0.277308 -0.279206 0.095379 -0.562914 0.042760 0.250841 0.305817 -0.480508 -0.036940 -0.039448 0.345135 0.595854 -0.116748 0.019547 0.174570 0.140259 0.095649 -0.041983 0.216361 -0.422804 0.329138 0.200882 -0.200416 0.244074 0.550640 -0.279986 0.121854 0.138788 0.577299 -0.379943 0.293247 -0.032873 -0.096856 0.012679 0.153303 0.471158 -0.009735 0.047773 0.033086 0.430458 -0.080511 -0.608605 0.706783 -0.499036 0.401675 0.256130 -0.209643 -0.552151 -0.438511 -0.416029 -0.136871 -0.198561 0.262430 0.090685 -0.253609 -0.778224 -0.243373 -0.000577 0.735745 0.008867 -0.473063 0.054706 -0.040216 -0.832478 0.467720 -0.060637 0.112973 -0.394119 -0.031390 0.158239 -0.061694 0.809535 -0.084701 -0.092062 0.258815 0.780849 0.211140 0.074718 0.049721 -0.029760 -0.001771 -0.532751 0.277879 -0.635425 -0.077279 0.297337 -0.115729 0.418129 -0.129254 0.065741 -0.200933 -0.430763 0.631319 -0.476361 -0.173366 0.252153 -0.334768 0.220002 0.418797 0.433439 -0.562762 -0.002247 0.414537 -0.482388 0.348072 -0.550420 -0.110447 0.280833 -0.241679 -0.156327 0.592457 0.141259 -0.358780 -0.385273 0.538389 -0.042979 0.385273 0.420928 0.670331 0.281905 0.162735 -1.009788 -0.050140 -0.513403 0.406046 -0.279151 -0.218992 -0.213874 -0.061018 0.057389 -0.199415 0.727250 -1.083957 -0.560610 -0.014001 0.467815 0.187313 -0.323331 0.326815 -0.093755 -0.559883 0.223326 -0.092810 -0.355545 -0.166868 -0.666063 0.997973 0.087476 0.533305 -0.001762 -0.253859 -0.572052 -0.734509 -0.846114 -1.114854 0.836927 -0.003685 0.418867 0.016468 0.150618 -0.107994 -0.614394 0.027960 -0.889473 
HCCDB-6.S128 0.318478 -0.225660 0.130729 0.002572 -0.029495 -0.807999 0.830778 0.667179 -0.130150 0.080246 0.002347 0.426963 -0.175351 0.375040 -0.765118 -0.165919 0.219151 -0.880479 -0.070891 -0.688932 -0.160937 0.256213 0.223508 0.684831 -0.118239 -0.089371 -0.067154 -0.155407 0.346441 0.146440 -0.275257 0.256308 1.015375 -0.733981 -0.560334 0.386705 -0.265932 -0.088201 0.071067 -0.476410 0.297427 0.094808 0.307404 -0.418324 -0.094798 -0.000584 0.309942 0.477757 0.029661 -0.016630 0.286778 0.180867 -0.206473 0.097971 0.108166 -0.493349 0.266765 0.146270 -0.177578 -0.040586 0.370725 -0.309028 -0.090042 0.121963 0.594390 -0.402852 0.508152 0.132399 0.150816 -0.007228 0.104621 0.512600 -0.020016 -0.024222 -0.054122 0.327755 0.181588 -0.628264 0.656492 -0.578414 0.480231 0.212988 -0.217978 -0.574118 -0.318947 -0.479506 -0.291759 -0.198618 0.080381 0.110242 -0.379693 -0.766044 -0.278683 -0.002614 0.618723 -0.121300 -0.371863 0.312799 -0.001638 -0.803459 0.477989 -0.069223 0.136222 -0.084649 -0.110897 0.083096 -0.218437 0.607071 0.043848 0.114890 0.151766 0.858328 0.262639 0.127805 -0.150440 -0.010468 -0.008540 -0.419920 0.481931 -0.688067 -0.225537 0.108120 -0.214266 0.454489 -0.103296 0.097889 -0.172552 -0.379891 0.794958 -0.081597 -0.414270 0.072451 -0.064938 0.086221 0.500912 0.296937 -0.525359 0.162110 0.398864 -0.440174 0.344301 -0.560438 -0.174376 0.374224 -0.412125 0.138341 0.563912 0.163895 -0.445922 -0.482446 0.530347 0.004646 0.233980 0.441345 0.720307 0.366109 0.305247 -1.082699 -0.182432 -0.523047 0.269603 -0.345145 -0.140210 -0.121265 0.028101 0.261191 -0.082225 0.845025 -1.093051 -0.396639 0.160138 0.378838 0.246845 -0.334855 0.452378 -0.064301 -0.506883 0.194754 0.125923 -0.199609 -0.242478 -0.792684 1.031230 0.072281 0.555412 -0.164409 -0.451974 -0.535263 -0.617869 -1.011543 -1.190841 0.854521 0.008193 0.228454 0.118410 0.046951 -0.136178 -0.539087 0.163113 -0.698462 
HCCDB-6.S129 0.431419 -0.412674 0.162045 0.071549 0.109927 -0.805818 0.691666 0.723255 -0.162882 0.042004 0.011128 0.272221 -0.178923 0.303818 -0.735200 -0.065272 0.225696 -0.933078 -0.112085 -0.622146 -0.051901 0.449360 0.152006 0.872479 -0.060999 -0.097312 -0.030196 -0.177150 0.147683 0.187602 -0.345388 0.250273 0.939708 -0.581016 -0.548315 0.336731 -0.382020 -0.330289 0.032544 -0.579062 0.099107 0.249114 0.337635 -0.532613 -0.141706 -0.001294 0.293223 0.655657 0.037090 0.105683 0.241559 0.083950 -0.187499 -0.140251 0.216516 -0.445942 0.402684 0.218144 -0.284422 0.327450 0.422923 -0.214422 -0.065097 0.154702 0.531007 -0.405675 0.402591 0.150989 -0.133733 -0.049409 0.089164 0.366470 -0.173171 0.139046 -0.050339 0.314102 -0.146194 -0.664870 0.593425 -0.418321 0.385682 0.423730 -0.092672 -0.506448 -0.463696 -0.451012 -0.270181 -0.045208 0.072452 0.088989 -0.275485 -0.621568 -0.344210 -0.020732 0.638203 -0.131169 -0.317571 0.084842 -0.048947 -0.853552 0.370156 -0.086597 0.116648 -0.290365 -0.169106 -0.071397 -0.088818 0.711198 0.102638 -0.022575 0.206024 0.584553 0.287849 0.025768 0.141338 0.109954 0.165500 -0.574297 0.280272 -0.539649 -0.086808 0.444724 -0.047050 0.194895 -0.276097 0.362098 -0.102940 -0.550966 0.773900 -0.385051 -0.236378 0.386281 -0.137905 0.274634 0.291900 0.278771 -0.596336 -0.129235 0.426895 -0.462459 0.424523 -0.644369 -0.305721 0.394644 -0.224907 -0.095102 0.634153 0.167938 -0.355382 -0.518128 0.479504 -0.121249 0.224426 0.264789 0.521176 0.359642 0.394636 -1.034874 0.144688 -0.511140 0.090616 -0.228546 -0.165289 -0.182475 -0.076353 0.238135 -0.092290 0.746261 -1.186197 -0.432829 0.147667 0.260605 0.281914 -0.203057 0.337218 0.146843 -0.504674 0.250926 -0.005979 -0.157305 -0.035340 -0.639961 1.156440 0.081766 0.439159 -0.151610 -0.243427 -0.638459 -0.841693 -1.018958 -1.220292 0.881340 -0.059468 0.217467 0.000445 0.191217 -0.178269 -0.455173 0.126896 -0.830939 
HCCDB-6.S13 0.329908 -0.241306 0.217761 0.029038 -0.039234 -0.693287 0.802552 0.640257 -0.040903 0.034975 -0.035713 0.236488 -0.088382 0.461394 -0.699491 -0.328392 0.100296 -0.949225 -0.030343 -0.501181 -0.049533 0.356103 0.268664 0.833242 -0.133669 -0.133062 -0.066694 -0.236083 0.109054 0.243440 -0.340496 0.224800 0.961629 -0.698413 -0.758788 0.468510 -0.205810 -0.363483 0.069721 -0.453431 0.201153 0.278037 0.286553 -0.388542 -0.038486 0.006643 0.364951 0.738725 0.115722 0.083693 0.251327 0.162576 -0.090275 -0.044969 0.066798 -0.450091 0.366191 0.155665 -0.206189 0.261394 0.271877 -0.394165 0.038971 0.091672 0.610456 -0.481148 0.319248 0.202054 -0.158205 0.082085 0.024314 0.423448 -0.099199 0.151023 -0.050434 0.336789 -0.013955 -0.615151 0.665924 -0.427700 0.315292 0.258920 -0.121053 -0.535427 -0.448157 -0.399476 -0.067592 -0.301475 0.235637 -0.022588 -0.247681 -0.608188 -0.201553 0.038226 0.799478 0.010204 -0.272520 0.185356 0.223098 -0.898416 0.388230 -0.079544 0.101694 -0.192762 -0.057226 0.041166 -0.146355 0.879005 0.097099 -0.137773 0.367237 0.744664 0.282714 0.216735 0.001970 0.180418 -0.124581 -0.412280 0.308908 -0.568511 -0.061618 0.241876 -0.210832 0.176715 -0.118661 0.214161 -0.141708 -0.438375 0.736949 -0.308499 -0.167312 0.074352 -0.297084 0.180416 0.339204 0.278664 -0.508128 -0.050414 0.521462 -0.416496 0.416409 -0.634252 -0.162739 0.284069 -0.036594 -0.155365 0.715903 0.188174 -0.114143 -0.426603 0.530376 -0.167271 0.308024 0.205834 0.631843 0.113018 0.421728 -1.072529 0.098338 -0.545325 0.271939 -0.241716 -0.147946 -0.041142 0.032818 0.303010 -0.107608 0.871736 -1.165282 -0.587771 0.107296 0.418507 0.029889 -0.323185 0.390948 -0.101028 -0.557179 0.229087 -0.128067 -0.464620 -0.329025 -0.619029 1.069132 0.042216 0.468951 -0.053314 -0.253759 -0.503426 -0.749166 -0.911953 -1.170471 0.792468 0.071872 0.342001 0.002100 0.143027 -0.148559 -0.508759 0.130010 -0.841839 
HCCDB-6.S130 0.466645 -0.282974 0.033885 0.044368 0.048365 -0.736414 0.713683 0.715513 -0.106448 0.109551 -0.032214 0.328854 -0.126676 0.350906 -0.778547 -0.324132 0.271698 -0.959165 -0.030741 -0.610853 -0.212940 0.426107 0.223395 0.834388 -0.118572 -0.132308 -0.029738 -0.243292 0.177885 0.224008 -0.254594 0.341668 0.919169 -0.504663 -0.411498 0.289811 -0.298432 -0.422331 -0.037245 -0.537253 0.108253 0.135527 0.450655 -0.384451 -0.104327 -0.003481 0.290995 0.602898 -0.013685 0.218765 0.173804 0.137909 -0.052553 -0.021112 0.243770 -0.479609 0.273289 0.047324 -0.323916 0.245981 0.483529 -0.193808 -0.135543 0.006913 0.536498 -0.463324 0.437303 0.156872 -0.081833 -0.007270 0.127545 0.580131 -0.005925 0.082023 0.053338 0.365047 0.043819 -0.700948 0.717234 -0.476735 0.521170 0.282709 -0.115904 -0.539290 -0.273909 -0.377795 -0.340646 -0.166725 0.185147 0.003328 -0.441618 -0.657711 -0.359294 0.031705 0.774664 -0.021984 -0.357898 0.139427 0.095042 -0.763171 0.338414 -0.098076 0.221769 -0.057058 -0.025633 0.086022 -0.304104 0.728657 0.032017 -0.033590 0.215599 0.695833 0.151943 0.203262 -0.152782 0.043574 0.045598 -0.443365 0.405383 -0.679796 -0.138694 0.178147 -0.179124 0.247073 -0.138331 0.220602 -0.095274 -0.629174 0.639391 -0.189670 -0.335091 0.254992 -0.103485 0.121931 0.387716 0.355444 -0.459936 -0.024909 0.540895 -0.472003 0.395401 -0.683353 -0.308084 0.234140 -0.282055 -0.010303 0.635776 0.200436 -0.352748 -0.380368 0.429546 -0.005502 0.271868 0.439676 0.520203 0.205533 0.354256 -1.085357 -0.047313 -0.569476 0.278230 -0.185283 -0.100082 -0.032995 -0.096598 0.188919 -0.174105 0.930995 -1.188374 -0.449922 0.093454 0.407717 0.343944 -0.245010 0.325425 0.046173 -0.481837 0.348086 0.001023 -0.229415 -0.156197 -0.743754 1.071008 0.078539 0.607471 0.096069 -0.406350 -0.722275 -0.831619 -1.037080 -1.215441 1.020128 -0.077735 0.337912 0.185664 0.117317 -0.002586 -0.523047 0.093778 -0.693274 
HCCDB-6.S14 0.456681 -0.237927 0.023358 -0.090412 -0.129287 -0.554172 0.794039 0.617169 -0.025759 0.079567 -0.118783 0.381325 -0.121690 0.490586 -0.764112 -0.474349 0.184801 -0.854186 -0.039289 -0.561111 -0.099739 0.336867 0.182495 0.782074 -0.196499 -0.200538 0.008929 -0.170325 0.037973 0.243327 -0.301566 0.379542 0.809397 -0.510687 -0.748515 0.424526 -0.109129 -0.389083 0.069840 -0.459340 0.099857 0.160613 0.317458 -0.304575 0.005216 0.049225 0.344525 0.923536 -0.045010 0.032772 0.055868 0.248179 -0.008523 -0.127151 0.038763 -0.369482 0.324428 0.154143 -0.235111 0.144965 0.409114 -0.367914 0.123133 0.150159 0.604136 -0.539620 0.143892 -0.105658 -0.090672 0.109807 0.053790 0.432027 0.044771 0.030884 -0.106622 0.311595 -0.021990 -0.630162 0.671109 -0.487619 0.327552 0.407816 -0.312782 -0.460688 -0.425418 -0.370734 -0.007287 -0.242465 0.259875 0.125136 -0.276148 -0.565709 -0.312383 -0.030953 0.810875 0.087920 -0.362746 0.114692 0.080007 -0.950437 0.387890 -0.096274 0.090936 -0.131303 0.042824 0.156779 -0.249642 0.876473 -0.069087 -0.158969 0.427291 0.742017 -0.077455 0.237044 -0.013448 0.114805 0.005754 -0.505295 0.413880 -0.619030 -0.190003 0.295723 -0.157310 0.325502 -0.060031 0.010436 -0.202352 -0.501838 0.700022 -0.305181 -0.067476 0.106494 -0.227313 0.224845 0.344175 0.296355 -0.652665 0.009052 0.504448 -0.522414 0.302980 -0.623585 -0.151615 0.231349 -0.187921 -0.013601 0.557463 0.127255 -0.137156 -0.397679 0.704947 -0.089578 0.425386 0.455759 0.506717 0.272238 0.345415 -1.051342 0.004207 -0.511882 0.154763 -0.300775 -0.157679 0.007193 -0.080660 0.328055 -0.206225 0.661281 -1.249304 -0.609241 0.006334 0.524579 0.179803 -0.384049 0.444331 -0.152923 -0.704460 0.270045 -0.159354 -0.292943 -0.237578 -0.638989 1.095780 -0.031259 0.571625 -0.019498 -0.172663 -0.633517 -0.763443 -1.019648 -1.318911 0.859941 -0.098888 0.402091 -0.143758 0.143693 -0.047175 -0.649253 0.163314 -0.800435 
HCCDB-6.S141 0.581757 -0.130895 -0.090763 -0.085269 0.049049 -0.794854 0.771062 0.616454 -0.207635 0.154722 -0.168986 0.307100 -0.049805 0.256215 -0.855278 -0.342545 0.070148 -1.010553 -0.092943 -0.540690 -0.231375 0.634992 0.085629 1.054772 0.007643 -0.256503 -0.149466 -0.278856 0.218552 0.428860 -0.452468 0.447124 1.101848 -0.619744 -0.591490 0.351794 -0.116146 -0.419253 0.113262 -0.374393 0.131302 -0.075304 0.510211 -0.410508 -0.210488 -0.029614 0.211021 0.622665 -0.134192 0.106574 0.164905 0.158724 -0.298316 0.000443 0.202081 -0.544132 0.413503 0.104513 -0.294181 0.224924 0.531575 -0.110438 -0.252219 0.054556 0.560268 -0.285149 0.474202 0.016925 -0.108906 -0.190554 0.242760 0.612350 0.070800 0.117623 -0.142296 0.254192 0.134599 -0.583163 0.819237 -0.500204 0.325479 0.192734 -0.143069 -0.426506 -0.331964 -0.399561 -0.179301 -0.147358 0.196250 0.050924 -0.525433 -0.603606 -0.163894 -0.016071 0.867060 -0.012818 -0.569110 -0.004966 -0.097846 -0.692950 0.446822 -0.119918 0.434789 -0.070431 -0.068440 0.153744 -0.117435 0.582497 -0.069646 -0.023792 0.349863 0.845666 0.382316 0.123032 -0.145682 0.137503 0.385114 -0.493576 0.639236 -0.639011 -0.130046 0.172575 -0.272132 0.270640 -0.010572 0.142038 -0.306507 -0.497306 0.531313 -0.204177 -0.444043 0.163036 -0.125403 0.285991 0.351318 0.347890 -0.534865 -0.008590 0.485685 -0.515295 0.329650 -0.951805 -0.191932 0.512025 -0.535195 0.115845 0.305862 0.216297 -0.416225 -0.462668 0.533267 -0.001112 0.448666 0.389019 0.632750 0.164135 0.116478 -0.953851 0.098267 -0.402422 0.340976 -0.286338 0.019450 -0.003523 0.134188 0.320112 -0.173531 0.753496 -1.179569 -0.281584 0.052703 0.360577 0.368996 -0.540513 0.459044 -0.052381 -0.585138 0.367011 0.216966 -0.137723 -0.069459 -0.832444 0.931193 0.004645 0.492348 0.011074 -0.382590 -0.720085 -0.743886 -0.904378 -1.204373 1.044422 -0.254442 0.357558 -0.153799 0.135360 0.059288 -0.474872 -0.043884 -0.564352 
HCCDB-6.S142 0.657593 -0.153794 -0.098918 -0.212432 0.184568 -0.657978 0.780790 0.627126 -0.308722 -0.048914 -0.245320 0.102301 0.074829 0.337942 -0.788539 -0.202759 0.008874 -1.096834 -0.019897 -0.584409 -0.253666 0.549935 0.032836 1.020193 0.180123 -0.444157 -0.106723 -0.360624 0.086210 0.415188 -0.497380 0.500633 1.006980 -0.764381 -0.638866 0.455902 -0.142762 -0.225812 0.086836 -0.466984 0.138559 -0.105947 0.566981 -0.444209 -0.309831 0.104401 0.417936 0.520648 -0.051685 0.056380 -0.029996 0.206883 -0.230697 0.013771 0.254234 -0.476347 0.403264 -0.059969 -0.065271 0.321065 0.365206 -0.127662 -0.187601 -0.071425 0.560192 -0.166142 0.417339 0.156742 -0.083593 -0.031738 0.195720 0.586967 0.173309 0.051355 -0.169530 0.284804 0.083058 -0.760511 0.837303 -0.544701 0.303448 0.051674 -0.183236 -0.471167 -0.365681 -0.649168 0.120917 -0.225821 0.303469 0.041534 -0.413544 -0.592037 -0.341443 -0.053752 0.896593 -0.031435 -0.756112 0.014125 -0.215385 -0.641833 0.394748 -0.216954 0.402692 -0.196151 -0.196824 0.246753 -0.123671 0.432414 -0.015095 -0.108394 0.136482 0.859570 0.300890 0.176416 -0.057653 0.196336 0.289254 -0.494825 0.515668 -0.648800 -0.305463 0.118514 -0.230288 0.300992 0.068031 0.357731 -0.346677 -0.420992 0.680480 -0.274247 -0.438432 0.107431 -0.217260 0.279722 0.212042 0.495620 -0.509052 -0.119732 0.636348 -0.386525 0.492718 -0.809353 -0.211142 0.483755 -0.383372 0.035603 0.402102 0.081186 -0.425435 -0.526723 0.433896 -0.093945 0.333996 0.274044 0.723565 0.278464 0.078460 -1.059950 0.161470 -0.274330 0.253660 -0.217460 -0.000485 0.105442 0.260516 0.351778 -0.140172 0.797966 -1.181151 -0.321685 0.069423 0.171361 0.282595 -0.494593 0.408054 -0.073344 -0.584748 0.288733 0.192436 -0.139595 -0.026565 -0.714559 0.934583 0.080669 0.532799 0.088138 -0.236485 -0.782348 -0.699180 -0.891449 -1.086873 1.009505 -0.235216 0.473530 -0.183895 0.152872 -0.132179 -0.502232 0.024876 -0.680993 
HCCDB-6.S143 0.501260 -0.233267 0.197498 -0.045865 0.265230 -0.661937 1.034134 0.556785 -0.032121 0.133550 -0.103408 0.218783 0.110153 0.244035 -0.910897 -0.146697 0.502464 -0.907388 0.114138 -0.582702 -0.128785 0.475981 0.148286 0.667782 0.057324 -0.210210 -0.052262 -0.372937 0.072900 0.300876 -0.516328 0.317655 0.872740 -0.661081 -0.557010 0.347188 -0.118968 -0.418238 -0.023194 -0.380258 0.165922 0.104347 0.437355 -0.588372 -0.257981 0.070808 0.201269 0.570082 0.242553 0.125873 0.151104 0.141086 -0.205584 -0.030990 0.129145 -0.549727 0.308262 0.039808 -0.045242 0.201878 0.224796 -0.446145 -0.118019 -0.017508 0.623514 -0.255088 0.364675 0.411226 0.016128 -0.046007 -0.194438 0.354275 0.139225 0.278381 0.066202 0.351130 -0.045935 -0.669525 0.604245 -0.418415 0.399762 0.275137 -0.239287 -0.563687 -0.172141 -0.350756 -0.088803 -0.155783 0.146758 0.054190 -0.484889 -0.658188 -0.134806 -0.040577 0.711925 -0.181777 -0.314797 0.147464 -0.225390 -0.650395 0.357699 -0.089531 0.069828 -0.086953 0.033276 0.097176 -0.118394 0.915837 0.086132 0.122191 -0.002846 0.918281 0.130030 0.180773 -0.023704 -0.001580 0.118519 -0.526721 0.376718 -0.642511 -0.192646 0.195206 0.036661 0.182389 0.015487 0.181184 -0.160231 -0.428352 0.642348 -0.267997 -0.260229 0.108499 -0.266215 0.024571 0.366573 0.261054 -0.659281 0.111829 0.409310 -0.643475 0.458044 -0.555707 -0.258682 0.396957 -0.167178 -0.073475 0.720598 0.042317 -0.346321 -0.560762 0.664750 -0.024740 0.105344 0.110601 0.531202 0.217224 0.395525 -0.834451 -0.098871 -0.647079 0.142170 -0.094443 -0.078881 0.059206 0.090902 0.395695 -0.293785 0.819665 -1.027567 -0.546485 -0.018167 0.332629 0.251159 -0.200779 0.373894 -0.007667 -0.559326 0.437798 -0.249659 -0.225021 -0.154410 -0.708604 0.935939 0.002480 0.501463 -0.149003 -0.242297 -0.730929 -0.925916 -0.874995 -1.310785 0.772122 -0.080008 0.382230 -0.098846 0.252427 -0.320697 -0.412027 -0.056810 -0.938624 
HCCDB-6.S144 0.349427 -0.452270 0.177223 -0.083901 -0.043758 -0.650169 0.855228 0.706287 -0.070450 0.160318 -0.079302 0.254725 -0.161192 0.348790 -0.680687 -0.286850 0.193087 -1.002960 -0.113825 -0.570250 -0.173847 0.514705 0.179109 0.728619 -0.252136 -0.054241 0.006976 -0.258052 0.144866 0.319349 -0.249257 0.461069 0.935394 -0.551660 -0.591699 0.427733 -0.250093 -0.278967 0.022218 -0.548737 0.228552 -0.034183 0.281345 -0.292815 -0.076381 -0.051587 0.254369 0.679876 0.193390 0.087472 0.293339 0.204208 0.002034 -0.085929 0.138885 -0.513103 0.319939 0.087657 -0.189703 0.100816 0.415673 -0.290798 -0.122885 0.112973 0.547002 -0.550293 0.414402 0.067054 0.075663 -0.038060 0.098900 0.521821 0.234264 0.018253 -0.072307 0.412486 0.251939 -0.804223 0.697620 -0.578266 0.339127 0.325705 -0.180950 -0.565079 -0.364887 -0.254847 -0.410470 -0.096887 0.233607 0.101536 -0.428719 -0.445076 -0.244365 -0.040930 0.795233 0.002614 -0.277092 0.092593 0.255911 -0.883253 0.505660 -0.104134 0.250549 -0.036138 -0.097535 0.112456 -0.158401 0.857397 0.097324 -0.022030 0.363778 0.942846 0.078744 0.217980 -0.110457 -0.054474 -0.036194 -0.549170 0.467967 -0.569703 -0.078734 0.162897 -0.133576 0.261373 -0.055340 0.080175 -0.086620 -0.541800 0.670796 -0.144002 -0.197891 0.211119 -0.202167 0.134933 0.316469 0.223046 -0.512190 -0.122272 0.405975 -0.570135 0.553744 -0.539949 -0.104478 0.330520 -0.281135 -0.040615 0.444887 0.205809 -0.356099 -0.346136 0.556832 -0.077869 0.294530 0.314809 0.570497 0.187413 0.320803 -1.010208 -0.036723 -0.565770 0.236305 -0.315127 -0.075769 -0.086873 -0.103322 0.293381 -0.376138 0.808812 -1.045247 -0.450074 0.107625 0.442315 0.233379 -0.124492 0.531570 -0.062133 -0.495404 0.215775 0.051698 -0.239503 -0.210729 -0.669275 0.906300 -0.091157 0.486549 -0.172474 -0.346301 -0.486194 -0.712771 -0.893610 -1.243356 0.962312 -0.028786 0.367370 -0.056603 0.131156 0.045460 -0.605612 0.057131 -0.607264 
HCCDB-6.S145 0.517724 -0.301080 0.171820 -0.114523 0.023761 -0.624720 0.692657 0.669128 -0.036106 0.017760 -0.124024 0.386856 -0.210229 0.356266 -0.749722 -0.268159 0.270721 -0.953451 -0.073766 -0.707615 -0.263172 0.477156 0.185537 0.801358 -0.137345 -0.160149 -0.070426 -0.203793 0.194816 0.133313 -0.290051 0.380196 0.987886 -0.451907 -0.543349 0.247793 -0.279241 -0.343605 0.025281 -0.528296 0.031849 0.203314 0.371218 -0.346571 -0.057246 -0.046865 0.429688 0.700414 0.020495 0.071511 0.171794 0.047075 -0.086331 0.029523 -0.008769 -0.431492 0.328877 0.251359 -0.332288 0.183162 0.469845 -0.299960 0.028062 0.174719 0.506001 -0.534385 0.460479 0.039298 -0.142887 0.078314 0.209131 0.448954 -0.131613 0.064151 -0.038295 0.363892 0.005994 -0.573322 0.634003 -0.453606 0.407836 0.263453 -0.134548 -0.567497 -0.500221 -0.401920 -0.186042 -0.069678 0.156480 0.036391 -0.311192 -0.696757 -0.275391 -0.046577 0.812339 -0.028833 -0.355843 0.065377 0.034764 -0.874926 0.394341 -0.138274 0.095254 -0.209801 -0.188238 0.188680 -0.225825 0.749940 -0.033081 -0.078263 0.244152 0.591524 0.236183 0.036537 0.018386 0.001952 0.165216 -0.497059 0.355340 -0.649297 -0.068445 0.380046 -0.220949 0.330012 -0.293771 0.113686 -0.060948 -0.406508 0.800797 -0.336608 -0.092413 0.275863 -0.239130 0.111289 0.359861 0.296003 -0.578444 -0.161959 0.477633 -0.432316 0.371741 -0.563334 -0.226784 0.310419 -0.162694 -0.001745 0.619500 0.254172 -0.321459 -0.478067 0.516276 -0.108044 0.284424 0.279359 0.495454 0.302139 0.263623 -1.026696 -0.015928 -0.526031 0.189999 -0.343829 -0.151029 -0.041591 -0.093648 0.141955 -0.115653 0.811746 -1.108794 -0.508000 0.032987 0.437113 0.242938 -0.320882 0.408884 -0.073523 -0.644759 0.296240 -0.076274 -0.326811 -0.189168 -0.725661 1.053260 0.061132 0.452147 -0.110622 -0.188827 -0.563264 -0.808835 -0.969737 -1.042640 1.058298 0.072193 0.359155 0.003408 0.245782 -0.129215 -0.592158 0.005690 -0.737007 
HCCDB-6.S147 0.374665 -0.362846 0.027070 -0.161308 0.017952 -0.624057 0.762857 0.600534 -0.171847 0.172959 -0.138788 0.351451 -0.099215 0.344829 -0.815683 -0.416566 0.333436 -0.808927 -0.006611 -0.573515 -0.071531 0.528716 0.301817 0.779228 -0.057999 -0.226702 -0.092266 -0.212664 0.234473 0.184278 -0.263322 0.316651 0.860207 -0.498926 -0.622233 0.366112 -0.196656 -0.353634 -0.028768 -0.368401 0.055524 0.019083 0.308567 -0.472333 -0.135384 0.021125 0.392417 0.878327 -0.082406 -0.033704 0.201208 0.080541 -0.143974 0.041908 0.072786 -0.480231 0.398601 0.135569 -0.283406 0.214863 0.432750 -0.193958 -0.025709 0.122924 0.558498 -0.361201 0.346281 0.007965 -0.112794 0.057691 0.239595 0.444219 -0.001276 0.068711 -0.003356 0.223093 -0.128702 -0.689018 0.716931 -0.445374 0.400595 0.347672 -0.199482 -0.513061 -0.402856 -0.315396 -0.207793 -0.151602 0.196888 0.102272 -0.326530 -0.778824 -0.209125 -0.032532 0.780405 -0.020777 -0.404403 0.091679 -0.053556 -0.871149 0.407087 -0.039688 0.087443 -0.147121 0.108382 0.068234 -0.331367 0.783406 -0.064292 -0.070706 0.372951 0.823434 0.079658 0.102229 -0.134383 -0.021378 0.081484 -0.517242 0.444970 -0.547814 -0.118456 0.272904 -0.098414 0.204334 -0.192402 0.137489 -0.076484 -0.475228 0.668870 -0.221399 -0.084497 0.224189 -0.256249 0.431468 0.339262 0.390035 -0.545797 -0.046823 0.485283 -0.503430 0.229827 -0.643084 -0.223245 0.251500 -0.127424 -0.019628 0.506509 0.257391 -0.121634 -0.325503 0.526761 -0.045717 0.430307 0.440979 0.591447 0.298754 0.219046 -1.086788 -0.018536 -0.490617 0.260232 -0.161291 -0.140600 -0.047949 0.002724 0.282558 -0.197891 0.810038 -1.180322 -0.437087 0.189612 0.426301 0.144304 -0.423797 0.368041 -0.121243 -0.660573 0.322508 0.060185 -0.219917 -0.056559 -0.633370 1.151727 0.132064 0.620953 0.071059 -0.299420 -0.470561 -0.747202 -1.060624 -1.286951 0.853056 -0.064094 0.410529 -0.026022 0.156241 -0.038945 -0.577480 -0.042985 -0.759574 
HCCDB-6.S148 0.301329 -0.387365 0.029011 -0.072644 -0.043083 -0.621322 0.658935 0.859467 -0.177914 -0.028741 -0.110967 0.382211 -0.043336 0.376456 -0.823244 -0.251178 0.305145 -0.934758 -0.086017 -0.705345 -0.202466 0.607711 0.394160 0.770965 -0.257927 -0.072042 -0.141702 -0.282164 0.037389 0.224894 -0.296291 0.321094 0.838228 -0.569944 -0.602683 0.393585 -0.368237 -0.307401 0.196917 -0.564927 0.067944 0.130898 0.275573 -0.546925 -0.178170 0.028589 0.418365 0.677674 0.004311 0.115989 0.150947 0.215361 -0.158096 -0.136113 0.157071 -0.389087 0.300359 0.133934 -0.279124 0.220457 0.314230 -0.398895 -0.103634 0.178002 0.476696 -0.233729 0.260069 0.099932 -0.045357 0.224812 0.102007 0.623286 0.076443 0.122693 0.073583 0.229692 0.016879 -0.618760 0.629617 -0.518264 0.478057 0.256705 -0.147526 -0.549011 -0.518982 -0.420030 -0.151146 -0.164216 0.075427 0.199656 -0.417589 -0.776585 -0.227377 -0.088441 0.684202 0.038160 -0.221004 0.176446 -0.054712 -0.729103 0.441770 -0.150719 0.072051 -0.373786 -0.019783 -0.002563 -0.100893 0.893723 -0.038501 -0.295302 0.279927 1.035650 0.057433 -0.038322 -0.135956 -0.026962 0.318010 -0.310985 0.484187 -0.605776 -0.097015 0.190340 -0.068354 0.221267 -0.205469 0.040844 -0.199810 -0.431815 0.558520 -0.237551 -0.231112 -0.058111 -0.381976 0.140657 0.349611 0.363125 -0.583824 0.101655 0.574965 -0.342063 0.285036 -0.374083 -0.158935 0.126138 -0.247898 -0.144030 0.556568 0.108450 -0.218511 -0.334473 0.510683 -0.176697 0.153496 0.248002 0.506223 0.311508 0.241884 -1.054549 0.055563 -0.526677 0.144983 -0.187795 -0.085431 -0.123891 -0.051047 0.263623 -0.212360 0.761018 -1.178260 -0.522197 -0.037818 0.362067 0.179567 -0.303478 0.269674 -0.064291 -0.551970 0.286447 -0.019386 -0.229169 -0.152088 -0.580818 1.014889 -0.062327 0.655562 -0.024135 -0.315382 -0.557023 -0.656913 -0.931967 -1.283761 0.968400 -0.043007 0.683335 0.045214 0.146004 -0.131976 -0.620184 0.090132 -0.823143 
HCCDB-6.S149 0.334010 -0.293049 0.229509 0.075195 0.036106 -0.631666 0.648964 0.760667 -0.134761 0.086052 -0.006294 0.187753 -0.106142 0.395283 -0.697466 -0.182583 0.336076 -0.936654 0.041901 -0.685292 0.001195 0.463281 0.268064 0.766042 -0.251519 -0.165190 -0.132564 -0.263059 0.159329 0.303851 -0.398721 0.261996 0.892383 -0.632617 -0.588031 0.369783 -0.311353 -0.440057 0.100039 -0.450480 0.264567 0.048512 0.427806 -0.416708 -0.044319 -0.071459 0.307434 0.737134 0.139995 0.167846 0.405668 0.122629 -0.187220 0.113904 0.058200 -0.645080 0.251625 0.086916 -0.083708 0.112827 0.221951 -0.271298 -0.167275 0.057428 0.741438 -0.408740 0.538075 0.118034 -0.234246 0.034811 -0.027122 0.504785 0.019073 0.141887 -0.013601 0.297808 0.003120 -0.591412 0.540452 -0.445820 0.356016 0.271805 -0.127234 -0.459474 -0.261698 -0.320695 -0.356547 -0.153870 -0.010027 -0.051635 -0.348097 -0.624759 -0.205810 -0.014686 0.668206 -0.184711 -0.402331 0.151310 0.010410 -0.852468 0.359241 -0.037126 0.166070 -0.147424 -0.091327 -0.046403 -0.110410 0.830773 -0.011423 -0.022359 0.355827 0.874708 0.303505 0.105534 -0.120984 -0.018581 0.037982 -0.487983 0.450509 -0.685807 0.006477 0.215970 0.010080 0.071088 -0.190172 0.183876 -0.129284 -0.417875 0.653777 -0.267326 -0.230541 0.112350 -0.167938 0.150217 0.396383 0.364309 -0.444484 0.035248 0.357576 -0.379389 0.472965 -0.571352 -0.283709 0.168178 -0.410076 0.092858 0.511604 0.192695 -0.401902 -0.532774 0.587690 -0.023835 0.222516 0.338998 0.495980 0.349156 0.224961 -1.022496 0.101523 -0.437197 0.270180 -0.222003 -0.020472 -0.157731 -0.132646 0.239347 -0.116578 0.746777 -1.170183 -0.536569 0.142288 0.227837 0.025943 -0.195336 0.387794 -0.173213 -0.663541 0.191326 0.033310 -0.376278 -0.273913 -0.802057 0.895750 0.186101 0.494319 -0.061318 -0.264049 -0.662032 -0.890438 -1.056114 -1.289956 0.931843 -0.036009 0.434023 0.019832 0.236681 0.015364 -0.505596 0.067611 -0.884409 
HCCDB-6.S15 0.400622 -0.395745 0.111327 -0.073849 -0.075709 -0.577148 0.796849 0.639063 -0.181138 0.201775 -0.012349 0.266222 -0.269497 0.483997 -0.759476 -0.262632 0.310857 -0.736589 0.123770 -0.582926 -0.043101 0.328348 0.284545 0.742329 -0.192668 -0.178692 -0.165816 -0.187886 0.073833 0.212907 -0.278031 0.367122 0.897175 -0.505842 -0.718718 0.490254 -0.196719 -0.422822 0.108766 -0.429291 0.073722 0.141834 0.257274 -0.447634 0.027115 0.051600 0.318294 0.866703 0.014246 0.019735 0.159902 0.116829 -0.213098 -0.107912 -0.056848 -0.312299 0.294715 0.154289 -0.224152 0.187804 0.453780 -0.321744 -0.052919 0.217840 0.535206 -0.438099 0.362201 0.004369 -0.274106 0.095982 0.208434 0.361710 -0.116265 0.099115 -0.033222 0.296171 -0.125253 -0.542985 0.661353 -0.520767 0.353910 0.386889 -0.220868 -0.512427 -0.498148 -0.351097 -0.136777 -0.155837 0.242863 0.244994 -0.189414 -0.713403 -0.217192 0.046560 0.731418 0.034936 -0.344031 0.290133 0.143216 -0.966430 0.313034 -0.243121 0.033869 -0.174958 -0.008475 -0.029769 -0.305592 0.849482 -0.088393 -0.097351 0.383700 0.819003 0.123730 0.265262 0.018583 0.110877 -0.018109 -0.420881 0.475062 -0.596109 -0.042278 0.384492 -0.118988 0.219974 -0.204519 0.206674 -0.063862 -0.530757 0.680516 -0.286675 -0.171982 0.211211 -0.366484 0.331632 0.300194 0.292686 -0.551486 -0.067854 0.465482 -0.481548 0.385658 -0.702172 -0.274947 0.264836 -0.092889 -0.095355 0.686424 0.156920 -0.275573 -0.410299 0.517890 -0.010362 0.350446 0.398181 0.483412 0.275381 0.299276 -1.082536 0.031761 -0.426641 0.203239 -0.265252 -0.146270 -0.208188 -0.102936 0.268404 -0.139618 0.798779 -1.145443 -0.563338 0.189494 0.500131 0.120416 -0.306344 0.421736 -0.099939 -0.557022 0.270103 -0.103408 -0.288392 -0.223079 -0.610162 1.052585 0.049124 0.564825 -0.014643 -0.221318 -0.632638 -0.735300 -1.137652 -1.230868 0.997518 -0.129735 0.330271 -0.069869 0.146996 0.099675 -0.504371 0.054150 -0.875712 
HCCDB-6.S150 0.316415 -0.304525 0.156555 -0.001411 -0.028233 -0.785422 0.848674 0.526298 0.025904 0.106597 -0.162295 0.342232 -0.068742 0.275481 -0.769817 -0.287977 0.320880 -0.961149 -0.004385 -0.642314 -0.008931 0.579702 0.184602 0.705008 -0.133062 -0.125585 -0.163453 -0.244862 0.105117 0.234782 -0.173387 0.219248 0.792354 -0.551658 -0.651596 0.267235 -0.268021 -0.470912 0.021444 -0.591460 0.201075 0.204147 0.307125 -0.320524 -0.054472 -0.031811 0.288150 0.674523 0.056761 0.098504 0.205448 0.156174 -0.104275 -0.000534 0.182914 -0.523335 0.404196 0.040988 -0.193999 0.134550 0.268712 -0.207168 -0.109679 0.036554 0.585883 -0.483139 0.306556 0.254407 -0.146275 -0.151355 -0.005599 0.484802 -0.029576 0.107097 -0.069718 0.354269 0.049634 -0.521746 0.850579 -0.437332 0.406808 0.262901 -0.321453 -0.520827 -0.337441 -0.343154 -0.294388 -0.162296 0.153511 -0.019221 -0.500395 -0.543359 -0.262781 -0.021747 0.770463 -0.119476 -0.386061 0.267610 0.094397 -0.830231 0.385804 -0.163502 0.141737 -0.154634 -0.059739 -0.064319 -0.032615 0.803747 0.056568 -0.023886 0.294858 0.796920 0.195059 0.070573 0.049086 -0.053201 -0.015504 -0.605667 0.420247 -0.548588 0.031611 0.294411 -0.163499 0.212376 -0.096222 0.194318 -0.115083 -0.428938 0.829281 -0.327216 -0.240683 0.134158 -0.333979 0.161877 0.397933 0.361562 -0.324111 -0.161605 0.555882 -0.334159 0.422724 -0.546140 -0.196638 0.240384 -0.336389 -0.054224 0.684986 0.193781 -0.210569 -0.415084 0.489965 0.006338 0.306309 0.470137 0.487325 0.233009 0.453690 -1.037891 0.006085 -0.585632 0.217321 -0.236605 -0.143517 -0.176761 -0.090605 0.375165 -0.098859 0.794235 -1.054169 -0.602707 -0.087990 0.429234 0.389475 -0.216529 0.298420 -0.072021 -0.590453 0.268495 -0.018442 -0.300526 -0.067905 -0.786819 1.139348 -0.053336 0.418966 -0.121240 -0.218957 -0.550184 -0.879302 -0.935463 -1.168546 0.861989 -0.067915 0.295803 0.037648 0.288598 -0.226984 -0.493402 0.051296 -0.877723 
HCCDB-6.S151 0.462412 -0.317968 0.128002 -0.059192 -0.043644 -0.706105 0.740732 0.667841 -0.016856 -0.014205 -0.023048 0.257090 -0.073608 0.475826 -0.759222 -0.328156 0.249507 -0.918108 -0.008447 -0.631912 -0.139510 0.379893 0.289405 0.867400 -0.119441 -0.163671 0.003101 -0.230428 0.224753 0.130803 -0.313369 0.283977 0.995798 -0.472676 -0.648401 0.390708 -0.295513 -0.343008 0.026267 -0.529915 0.022765 0.226917 0.319410 -0.377350 -0.064900 0.027521 0.371055 0.754945 -0.053037 0.066330 0.255291 0.159362 -0.012066 -0.012536 0.096173 -0.477503 0.375330 0.090340 -0.283654 0.154476 0.371001 -0.258214 0.065990 0.221468 0.616238 -0.511395 0.353974 0.063408 -0.180431 0.133995 0.137564 0.454305 -0.130747 0.146445 -0.015689 0.324104 -0.043973 -0.555875 0.652632 -0.458364 0.417648 0.267579 -0.179854 -0.443835 -0.420871 -0.426973 -0.165143 -0.181113 0.227236 0.064125 -0.385000 -0.688341 -0.278019 -0.038657 0.709393 0.058284 -0.366643 0.140135 -0.034535 -0.781082 0.409522 -0.152865 0.061009 -0.204469 -0.028658 0.050474 -0.175052 0.737256 0.001982 -0.074586 0.314372 0.750206 0.118770 0.123770 0.071026 0.095752 -0.008727 -0.434865 0.295328 -0.593923 -0.134610 0.211519 -0.162538 0.231910 -0.121548 0.164741 -0.145932 -0.502492 0.725622 -0.368011 -0.236500 0.236598 -0.159333 0.199589 0.324330 0.393427 -0.525922 0.020017 0.414580 -0.481014 0.404923 -0.597266 -0.281946 0.151462 -0.105176 -0.127965 0.643809 0.228666 -0.303528 -0.531862 0.682128 -0.081287 0.441133 0.448131 0.509450 0.252776 0.269955 -1.053328 0.085970 -0.490943 0.242058 -0.338113 -0.185852 -0.077387 -0.042678 0.243826 0.005061 0.695281 -1.148694 -0.557736 0.155178 0.294201 0.195204 -0.311716 0.308862 -0.069279 -0.674984 0.272352 -0.124072 -0.315416 -0.132987 -0.616163 1.134968 0.089651 0.627008 -0.057833 -0.239762 -0.576991 -0.759464 -0.967116 -1.205222 0.957096 -0.018418 0.393481 -0.120171 0.120180 -0.147927 -0.548915 0.081446 -0.815507 
HCCDB-6.S152 0.404660 -0.283775 0.246561 -0.175563 0.170362 -0.537983 0.716488 0.575712 -0.183441 -0.058109 -0.115976 0.296199 -0.132418 0.341443 -0.795987 -0.285635 0.360814 -0.824887 -0.018396 -0.531990 -0.110077 0.548456 0.136628 0.714669 -0.152009 -0.204608 -0.048278 -0.205156 0.047972 0.194120 -0.378615 0.268101 0.831257 -0.489322 -0.658403 0.467612 -0.288500 -0.512319 0.104449 -0.480043 0.070208 0.175908 0.295839 -0.468712 -0.153866 -0.113985 0.302448 0.961789 0.073096 0.095383 0.270186 0.082428 -0.180567 0.029354 -0.046427 -0.489265 0.294221 0.042563 -0.210766 0.269096 0.365762 -0.259470 -0.079489 -0.083156 0.422093 -0.223864 0.307993 0.095154 0.007595 0.028204 0.133096 0.577934 -0.085984 0.023209 0.224769 0.253207 -0.061317 -0.570565 0.671634 -0.478155 0.342585 0.297775 -0.267491 -0.665759 -0.407988 -0.344431 -0.194128 -0.248731 0.284451 -0.164848 -0.194243 -0.649872 -0.162869 -0.118540 0.881820 -0.047627 -0.416539 0.282240 0.028491 -0.916526 0.418027 -0.078260 0.124932 -0.062274 -0.187654 0.001070 -0.108813 0.826796 0.102758 -0.092826 0.138091 0.744026 0.130030 0.123878 -0.021630 0.118047 0.060362 -0.575550 0.244808 -0.681350 0.033629 0.253628 -0.082583 0.122052 -0.093656 0.288575 -0.207444 -0.396832 0.793761 -0.363542 -0.260531 0.305643 -0.439535 0.164176 0.370319 0.355471 -0.704103 -0.164983 0.569966 -0.460583 0.463526 -0.534546 -0.176669 0.154719 -0.251782 -0.107124 0.462784 0.050475 -0.297725 -0.478424 0.446857 -0.181809 0.220951 0.352171 0.603365 0.272504 0.160122 -1.081724 -0.131616 -0.504810 0.304792 -0.246155 -0.173317 -0.067706 0.111023 0.210245 -0.258371 0.634364 -1.111487 -0.532258 -0.000507 0.512853 0.289405 -0.387419 0.325821 -0.136145 -0.540017 0.289457 0.127902 -0.282917 -0.091570 -0.822726 1.049286 0.028468 0.563152 -0.094140 -0.129957 -0.601475 -0.891057 -1.090533 -1.026029 0.914892 -0.051452 0.418496 -0.112487 0.239425 -0.130782 -0.592247 0.004761 -0.764413 
HCCDB-6.S158 0.390419 -0.248795 0.036095 -0.076880 0.041468 -0.664155 0.670345 0.581964 -0.035140 -0.041546 -0.162340 0.328035 -0.049852 0.310204 -0.719550 -0.292651 0.345109 -0.965680 0.065680 -0.631547 -0.014458 0.408012 0.267881 0.877564 -0.043398 -0.017503 -0.045104 -0.246917 0.113666 0.241619 -0.329565 0.378239 0.910798 -0.782163 -0.635923 0.302067 -0.175289 -0.316844 -0.019526 -0.654578 0.151884 0.198008 0.254754 -0.482213 -0.012207 0.012245 0.271629 0.647587 0.015836 0.126633 0.175198 0.299372 0.047782 -0.036126 0.120369 -0.459779 0.329949 0.142683 -0.153895 0.133804 0.405174 -0.351206 -0.091106 0.230655 0.612246 -0.529465 0.381417 0.192733 -0.145651 0.199972 0.093985 0.506854 0.007778 0.182785 0.066020 0.293274 0.000364 -0.709089 0.749443 -0.365543 0.389205 0.258641 -0.100679 -0.521263 -0.382955 -0.332771 -0.213852 -0.228441 0.255719 -0.020612 -0.285101 -0.678364 -0.351602 0.060731 0.712877 -0.005821 -0.398382 0.028412 -0.033830 -0.961691 0.499450 -0.197711 0.048124 -0.263150 -0.135065 0.116859 -0.171612 0.820773 0.098272 -0.176267 0.272517 0.657130 0.034099 0.231513 -0.009423 0.120152 0.028116 -0.357009 0.365003 -0.640754 -0.082584 0.237839 -0.233326 0.239482 -0.216691 0.203711 -0.063446 -0.499755 0.688302 -0.328682 -0.220605 0.236262 -0.142203 0.186316 0.270016 0.397139 -0.496058 -0.157643 0.488377 -0.535113 0.492741 -0.597314 -0.188127 0.216091 -0.314511 -0.041519 0.647824 0.185783 -0.216734 -0.414079 0.555969 -0.044885 0.212574 0.298300 0.637432 0.323369 0.283993 -1.035926 -0.001683 -0.453483 0.300807 -0.238546 -0.181734 -0.063382 0.036676 0.174476 -0.065391 0.824825 -1.013751 -0.588102 0.140524 0.388399 0.193678 -0.295130 0.434075 -0.087875 -0.602315 0.314034 0.055741 -0.353003 -0.164472 -0.598906 0.993672 0.130336 0.531563 -0.034270 -0.263955 -0.591257 -0.699622 -0.892064 -1.153821 0.961854 -0.026942 0.381122 0.157376 0.161309 -0.204805 -0.582366 0.226969 -0.790391 
HCCDB-6.S164 0.525283 -0.095097 0.007707 -0.037279 0.223484 -0.683819 0.732513 0.666454 -0.154413 -0.130663 -0.065057 0.273295 0.093926 0.327543 -0.860080 -0.322279 0.101181 -1.039325 0.068188 -0.482060 -0.087690 0.825961 0.178516 1.060950 -0.034589 -0.292920 -0.071009 -0.243789 0.169973 0.347924 -0.510476 0.478367 0.919336 -0.793460 -0.607130 0.441099 -0.012040 -0.381821 0.052431 -0.322718 0.025191 0.020619 0.611903 -0.539081 -0.175295 -0.012733 0.267964 0.658538 0.039979 -0.007157 0.103846 0.337477 -0.051773 0.035933 0.201930 -0.530645 0.428537 0.059660 -0.200805 0.184916 0.388007 -0.216485 -0.166746 0.169188 0.526831 -0.282669 0.433612 0.120321 -0.109118 -0.041041 0.081042 0.622920 0.095691 0.121407 -0.077525 0.309723 -0.011330 -0.558987 0.673290 -0.595575 0.259783 0.130744 -0.307577 -0.502271 -0.314689 -0.537849 -0.177054 -0.097345 0.212511 0.160559 -0.409610 -0.689868 -0.249395 -0.050494 0.907240 0.030910 -0.665823 -0.061116 -0.244692 -0.723865 0.388735 -0.199572 0.326107 -0.127198 -0.119746 0.097370 -0.164778 0.732221 0.012886 -0.024909 0.108091 1.001861 0.298317 0.208100 0.011890 0.183165 0.292309 -0.424747 0.496322 -0.761833 -0.226379 0.143383 -0.179564 0.252946 0.148898 0.176351 -0.259446 -0.462290 0.513086 -0.355241 -0.471853 0.068124 -0.240526 0.172272 0.279195 0.358127 -0.585532 -0.045983 0.571438 -0.428076 0.341773 -0.680561 -0.215316 0.508803 -0.499697 -0.084000 0.509496 0.051476 -0.430200 -0.411195 0.458852 -0.073141 0.489416 0.304471 0.744980 0.236355 0.146969 -0.921784 0.035525 -0.448871 0.272023 -0.206497 -0.046949 -0.132110 0.136031 0.326781 -0.327387 0.611805 -1.031290 -0.508299 -0.046698 0.334107 0.336933 -0.505511 0.359758 -0.069899 -0.576727 0.519046 0.214093 -0.346642 -0.064521 -0.737227 0.757757 0.139951 0.460957 -0.011375 -0.325472 -0.733224 -0.713538 -0.863939 -1.094864 1.016434 -0.146081 0.451288 -0.063028 0.042122 -0.189771 -0.430468 -0.043917 -0.697762 
HCCDB-6.S165 0.503256 -0.223761 0.000064 -0.189611 0.209404 -0.629962 0.683067 0.735358 -0.259794 -0.044930 -0.273626 0.026400 -0.002066 0.283402 -0.654096 -0.328558 0.032593 -1.093912 -0.050882 -0.467688 -0.177412 0.485720 0.009926 1.184032 0.120349 -0.220508 -0.185544 -0.274302 0.168234 0.364528 -0.475584 0.566389 0.995218 -0.753037 -0.604671 0.364375 -0.265081 -0.193686 -0.010163 -0.379524 0.088867 0.031843 0.371717 -0.470772 -0.216961 0.116664 0.399264 0.653966 -0.126878 0.178577 0.173233 0.223766 -0.240050 0.027851 0.224322 -0.358480 0.477756 0.013670 -0.085743 0.265321 0.378799 -0.195420 -0.203170 0.214519 0.501384 -0.206286 0.471613 0.139901 -0.245667 -0.274733 0.055077 0.631377 0.067584 0.069360 -0.322544 0.429005 -0.142067 -0.751486 0.736492 -0.472029 0.451919 0.118577 -0.109576 -0.406362 -0.268335 -0.529659 -0.139988 -0.107922 0.330496 0.079077 -0.479835 -0.549375 -0.349837 0.006689 0.843002 -0.042526 -0.647401 -0.193599 -0.177775 -0.682129 0.357835 -0.136425 0.278334 -0.227436 -0.154511 0.173702 -0.170447 0.613529 -0.092945 -0.049559 0.191543 0.852142 0.300029 0.278636 0.064967 0.147488 0.206723 -0.497425 0.407811 -0.647882 -0.154529 0.095493 -0.094755 0.220891 -0.068127 0.134205 -0.328456 -0.324459 0.699206 -0.218824 -0.441644 0.307827 -0.244826 0.319594 0.364951 0.476818 -0.585616 -0.155372 0.586276 -0.442505 0.509526 -0.828776 -0.214458 0.525003 -0.324069 0.053254 0.377737 0.304383 -0.510705 -0.356528 0.400920 -0.046356 0.514970 0.300757 0.714996 0.233153 0.066888 -1.026617 0.282481 -0.335460 0.336311 -0.225609 -0.039782 -0.049203 0.024736 0.271628 -0.116177 0.755057 -1.191584 -0.279881 0.079328 0.326388 0.176927 -0.548346 0.444050 -0.050757 -0.765430 0.286773 0.308511 -0.154975 -0.109386 -0.808671 0.974487 0.075005 0.483166 0.082448 -0.372292 -0.711189 -0.695303 -0.868053 -1.160252 0.933909 -0.233927 0.402203 -0.097124 0.154915 -0.072554 -0.415338 0.096104 -0.649209 
HCCDB-6.S166 0.391583 -0.339264 0.150042 -0.056819 0.036543 -0.654490 0.800171 0.732647 0.018276 0.118722 -0.045350 0.304284 -0.084312 0.285606 -0.816032 -0.220482 0.324045 -1.048880 -0.005733 -0.614004 -0.114247 0.397280 0.126503 0.853365 -0.035593 -0.187009 -0.088069 -0.177141 0.215934 0.212855 -0.256096 0.380085 1.000521 -0.513514 -0.723917 0.290099 -0.270447 -0.468278 0.041629 -0.665869 0.114235 0.203090 0.275561 -0.386645 -0.025414 0.038279 0.301466 0.783051 0.001838 -0.059301 0.096399 0.217695 -0.069006 -0.079838 0.119860 -0.434805 0.431487 0.161306 -0.237793 0.227100 0.262406 -0.292315 -0.159546 0.004989 0.612811 -0.333617 0.442103 0.056397 -0.106852 -0.098133 0.221040 0.423717 -0.050588 0.058306 -0.049199 0.251523 -0.050247 -0.573839 0.797674 -0.347553 0.224692 0.338623 -0.066560 -0.595467 -0.326655 -0.356290 -0.375647 -0.255621 0.314864 0.113977 -0.219117 -0.701398 -0.164396 -0.039337 0.785813 -0.168408 -0.327192 0.156743 0.057394 -0.902187 0.326720 -0.192124 0.199351 -0.283222 -0.160439 0.117408 -0.182448 0.723658 0.044002 -0.047055 0.303620 0.744704 0.217677 -0.020372 -0.005598 0.116136 0.172965 -0.419656 0.465126 -0.407765 0.141227 0.216078 -0.024887 0.220466 -0.166277 0.210916 -0.055922 -0.436751 0.882606 -0.366162 -0.199856 0.266237 -0.373554 0.192662 0.334063 0.297675 -0.554473 -0.067882 0.542830 -0.458153 0.466375 -0.605923 -0.281237 0.252539 -0.090853 -0.107946 0.464831 0.163514 -0.249729 -0.502445 0.488808 -0.112970 0.431572 0.275018 0.527304 0.264235 0.345210 -0.882131 -0.196199 -0.463614 0.291383 -0.395200 -0.150430 -0.163552 -0.159660 0.104738 -0.197536 0.654233 -1.134360 -0.537644 0.099567 0.408941 -0.004109 -0.347765 0.387396 0.034395 -0.472952 0.259636 -0.163910 -0.394897 -0.152502 -0.926494 1.077875 0.025263 0.420618 -0.223525 -0.366001 -0.583430 -0.752709 -0.934301 -1.088025 0.807666 -0.074083 0.413694 -0.073611 0.252498 -0.138750 -0.589003 0.109768 -0.861993 
HCCDB-6.S167 0.386502 -0.446564 0.164211 -0.054058 -0.019460 -0.696984 0.691554 0.794988 -0.012888 0.063641 0.040195 0.309826 -0.033536 0.393425 -0.722661 -0.376513 0.201213 -0.981132 -0.012765 -0.579173 -0.099888 0.431521 0.248767 0.869854 0.007486 -0.163740 -0.084519 -0.252471 0.146634 0.285060 -0.223839 0.405821 0.922978 -0.628062 -0.833600 0.377304 -0.389478 -0.387438 -0.079039 -0.666060 0.107746 0.098573 0.266329 -0.348167 -0.068285 0.028316 0.410680 0.659362 -0.072858 0.118049 0.171332 0.114550 -0.220484 -0.097595 0.032099 -0.471785 0.335638 0.102303 -0.188673 0.149187 0.339292 -0.255669 -0.122800 0.051102 0.538662 -0.410924 0.274104 0.110253 -0.271518 0.093408 0.242893 0.362412 -0.000844 0.033720 -0.104634 0.430287 -0.111752 -0.578422 0.728274 -0.401958 0.466379 0.263348 -0.143399 -0.636574 -0.282455 -0.336670 -0.142624 -0.099024 0.048472 0.092708 -0.237488 -0.623016 -0.345576 0.018041 0.778098 -0.051232 -0.365696 0.152744 -0.002755 -0.782326 0.420532 -0.210325 0.117814 -0.144180 -0.112484 0.162381 -0.174574 0.718262 -0.040829 -0.100820 0.459487 0.651384 0.127824 0.052479 0.137598 0.144044 -0.039441 -0.408536 0.451402 -0.594103 0.012189 0.231756 -0.099468 0.260727 -0.185423 0.151053 -0.020197 -0.391489 0.706428 -0.442314 -0.131526 0.327002 -0.296262 0.158770 0.221668 0.365486 -0.566823 -0.104944 0.439390 -0.500629 0.436649 -0.566008 -0.243474 0.249301 0.056573 -0.017777 0.695611 0.155171 -0.194842 -0.532964 0.496116 -0.097906 0.419932 0.470582 0.490021 0.246432 0.392518 -1.038041 -0.011799 -0.467070 0.263128 -0.254223 -0.069218 -0.010933 0.001494 0.370471 -0.089445 0.828327 -1.256219 -0.488500 0.178460 0.441197 0.109946 -0.335982 0.321438 -0.214195 -0.481726 0.285787 -0.068871 -0.248579 -0.168315 -0.715324 1.088357 0.135134 0.506484 -0.055499 -0.166730 -0.539484 -0.806544 -0.880847 -1.272752 0.840260 0.098153 0.388747 -0.046900 0.247026 -0.221558 -0.664087 0.008819 -0.800586 
HCCDB-6.S168 0.462920 -0.347521 0.055904 -0.085809 0.015724 -0.709591 0.676028 0.663659 -0.111169 -0.036307 -0.083341 0.341284 -0.117229 0.390194 -0.851726 -0.394577 0.263833 -0.961229 -0.045498 -0.635753 -0.192354 0.466755 0.189025 0.765627 -0.093506 -0.068372 -0.081352 -0.190883 0.128488 0.232117 -0.298232 0.341037 0.945642 -0.609895 -0.537090 0.393490 -0.173036 -0.371812 0.105920 -0.455555 0.104674 0.168427 0.348678 -0.502884 -0.242456 -0.008999 0.289836 0.596692 0.022874 0.171822 0.245228 0.075734 -0.006278 0.065533 0.115056 -0.455880 0.414142 0.099795 -0.222493 0.168395 0.314082 -0.318768 0.006274 0.107064 0.648425 -0.401528 0.402355 0.127877 -0.051398 0.153033 0.058325 0.523135 0.145164 0.114481 -0.053123 0.303180 0.076007 -0.652058 0.630374 -0.470331 0.348908 0.256640 -0.072274 -0.475222 -0.496696 -0.326793 -0.249001 -0.227408 0.208348 0.011748 -0.299173 -0.678132 -0.296274 -0.035856 0.804538 0.052714 -0.376491 0.079463 0.009232 -0.901583 0.444776 -0.167500 0.128345 -0.194788 -0.159769 0.049969 -0.160083 0.806727 0.033103 -0.024025 0.286782 0.780761 0.195290 0.221444 -0.059197 0.114340 0.005137 -0.537005 0.467238 -0.594746 -0.119229 0.231696 -0.161683 0.213012 -0.128075 0.181927 -0.209532 -0.531789 0.674936 -0.336446 -0.212352 0.200493 -0.135616 0.186680 0.340248 0.276193 -0.433685 0.035213 0.408984 -0.399178 0.412840 -0.544715 -0.289301 0.258118 -0.330855 -0.089840 0.668358 0.147258 -0.296400 -0.438555 0.481621 0.007595 0.462426 0.226341 0.552539 0.270847 0.294582 -1.020057 0.119275 -0.452366 0.362522 -0.229720 -0.076626 -0.053971 0.069916 0.253565 -0.110136 0.756222 -1.067562 -0.526548 -0.005374 0.428978 0.370768 -0.294019 0.339034 -0.151030 -0.622220 0.287317 -0.053080 -0.342731 -0.183151 -0.678055 0.904074 0.136949 0.471078 -0.024502 -0.297083 -0.593094 -0.806894 -0.964197 -1.129820 0.914668 0.093892 0.291642 -0.011900 0.196568 -0.191439 -0.565430 0.082952 -0.691620 
HCCDB-6.S169 0.397493 -0.283323 0.149505 -0.013068 -0.007901 -0.702387 0.833816 0.568138 -0.233485 -0.041137 -0.086307 0.423008 0.085004 0.424726 -0.909757 -0.261916 0.324000 -1.034057 -0.111093 -0.524915 -0.084231 0.715630 0.209354 0.783535 -0.061367 -0.265567 -0.084591 -0.254054 0.112208 0.193989 -0.501108 0.329294 0.964397 -0.677578 -0.534998 0.339727 -0.143454 -0.515769 0.142568 -0.589453 0.174678 0.160910 0.375244 -0.399059 -0.020394 -0.164774 0.361693 0.711900 0.181503 0.082841 0.183388 0.147044 0.110712 0.094623 0.026902 -0.373824 0.295874 0.142713 -0.238560 0.108942 0.550263 -0.393069 -0.050451 0.234029 0.569750 -0.354815 0.411983 0.019300 -0.124270 0.085531 -0.091765 0.517941 0.072190 0.149705 -0.021381 0.429277 0.180598 -0.491905 0.558639 -0.390625 0.265266 0.198484 -0.267173 -0.586804 -0.364609 -0.308494 -0.187293 -0.200888 0.228686 0.078740 -0.235228 -0.645616 -0.149271 0.085007 0.727698 -0.106658 -0.283847 -0.094310 -0.008941 -0.770430 0.546966 -0.010918 0.203810 -0.145379 0.076930 0.171113 -0.155676 0.982945 0.095146 -0.208575 0.198017 0.968175 -0.001534 -0.039716 -0.120427 -0.079831 0.022032 -0.323650 0.234083 -0.337370 -0.032513 0.203989 -0.086213 0.250200 -0.060333 0.047592 -0.200788 -0.334237 0.861474 -0.364735 -0.183161 0.285816 -0.207373 0.054787 0.407925 0.461890 -0.560810 0.139648 0.593639 -0.496849 0.499990 -0.594776 -0.168546 0.223261 -0.324864 -0.170752 0.199565 -0.182487 -0.388551 -0.271400 0.465123 -0.218496 0.457011 0.336828 0.604473 0.195154 0.074369 -1.102937 -0.230286 -0.617787 0.278800 -0.257638 -0.086212 -0.059216 0.039411 0.253316 -0.361323 0.801986 -1.113498 -0.604586 0.032347 0.341381 0.301879 -0.425555 0.392398 -0.036363 -0.585393 0.290902 0.063281 -0.376704 -0.067423 -0.912571 1.049043 0.129364 0.423122 -0.006119 -0.210302 -0.670968 -0.719291 -0.853700 -1.143611 0.862810 -0.082672 0.380586 -0.184367 0.266932 -0.126922 -0.601496 0.106896 -0.667934 
HCCDB-6.S170 0.440262 -0.319610 0.280802 0.173030 -0.068485 -0.765517 0.716697 0.649703 -0.344291 0.095776 -0.071183 0.329251 -0.085999 0.455509 -0.810282 -0.097976 0.225715 -0.890793 0.010327 -0.646032 -0.170333 0.566776 0.368487 0.820763 -0.128626 -0.299627 -0.034375 -0.367964 0.214306 0.124127 -0.329382 0.284270 1.017427 -0.462572 -0.406670 0.335379 -0.279921 -0.433009 0.153117 -0.475962 0.258290 0.185854 0.411241 -0.544738 -0.072328 -0.146791 0.433733 0.619468 0.202978 0.060865 0.246134 0.033419 -0.090017 0.071084 0.154101 -0.526700 0.350035 0.219234 -0.133402 0.273829 0.215991 -0.324029 -0.039484 0.100424 0.692294 -0.287211 0.514328 0.028159 -0.141847 -0.055723 0.051989 0.496377 -0.077165 0.326313 0.033018 0.196273 0.134580 -0.601930 0.585369 -0.448038 0.324801 0.218904 -0.209141 -0.595689 -0.394028 -0.382928 -0.252261 -0.221882 0.031974 -0.020070 -0.254466 -0.588002 -0.271766 -0.005794 0.709527 -0.097182 -0.439693 0.211393 -0.038356 -0.779709 0.383962 -0.045777 0.064856 -0.224505 -0.147576 0.062493 -0.055201 0.872181 0.075665 -0.051001 0.194829 0.892104 0.255184 -0.056251 -0.019580 -0.017293 0.084833 -0.339184 0.310837 -0.530403 -0.151353 0.224466 -0.075920 0.252071 -0.034665 0.208558 -0.068765 -0.335345 0.790521 -0.271164 -0.307695 0.131687 -0.193940 0.150447 0.406592 0.370679 -0.603258 -0.055808 0.397137 -0.484326 0.358135 -0.513470 -0.069917 0.374682 -0.353568 0.006346 0.469748 -0.013286 -0.375183 -0.430730 0.389534 -0.161101 0.224873 0.301740 0.768155 0.239266 0.213269 -1.057207 -0.076193 -0.489107 0.142252 -0.288715 -0.223427 -0.211872 -0.057594 0.234207 -0.262119 0.653488 -1.223847 -0.437959 0.029645 0.328288 0.235503 -0.245247 0.421014 -0.153451 -0.459525 0.174576 -0.104885 -0.445598 -0.229711 -0.609993 0.939544 0.122944 0.408610 -0.138128 -0.217650 -0.662113 -0.747067 -1.003764 -1.148411 0.976180 -0.001900 0.575152 -0.037549 0.295026 -0.149781 -0.508585 0.134379 -0.822075 
HCCDB-6.S171 0.468679 -0.335596 0.244904 -0.029891 0.053878 -0.613021 0.822936 0.650181 -0.303955 -0.025858 -0.172537 0.459932 -0.130198 0.294199 -0.924837 -0.367299 0.322769 -0.973237 -0.052000 -0.607307 -0.010887 0.634923 0.352108 0.776447 0.024561 -0.327218 -0.053586 -0.287881 0.070606 0.211807 -0.373538 0.347801 0.979109 -0.628514 -0.506027 0.409180 -0.280721 -0.427352 0.160907 -0.543086 0.030458 0.234265 0.280053 -0.550188 -0.103757 -0.073252 0.524318 0.620794 0.332187 -0.029894 0.260117 0.099942 -0.053393 -0.035864 -0.001660 -0.461275 0.361522 0.208303 -0.285363 0.175736 0.333653 -0.273329 -0.047758 0.114833 0.525888 -0.338224 0.292409 0.073211 -0.106961 0.209508 0.053503 0.518502 -0.102316 0.176090 0.180931 0.349761 0.054121 -0.538173 0.546423 -0.416692 0.312150 0.264819 -0.176927 -0.439862 -0.450168 -0.381790 -0.207562 -0.142296 0.198827 -0.026429 -0.268129 -0.618926 -0.267499 -0.123766 0.725368 -0.057335 -0.565753 0.006049 0.043454 -0.856158 0.398524 -0.119430 0.154192 -0.226954 -0.099258 0.149705 -0.288983 0.806963 -0.094927 -0.215841 0.145516 0.837147 0.172324 -0.042950 -0.098655 0.075493 0.105663 -0.293998 0.379576 -0.647440 -0.005909 0.422721 -0.178095 0.252294 -0.016569 0.030708 -0.100536 -0.528303 0.678089 -0.358571 -0.214401 0.236561 -0.263223 0.151587 0.322651 0.296214 -0.624012 -0.008718 0.528564 -0.437937 0.373669 -0.630941 -0.177924 0.205735 -0.146592 -0.070787 0.555963 0.014429 -0.361093 -0.438107 0.300295 -0.150951 0.205305 0.242768 0.683952 0.331802 0.129783 -0.979281 0.118848 -0.491088 0.280046 -0.273808 -0.127202 0.027416 0.009867 0.040121 -0.125583 0.802280 -1.036542 -0.383556 0.048472 0.343389 0.395629 -0.451632 0.327938 -0.016571 -0.626750 0.308275 0.058789 -0.325562 -0.039535 -0.762626 0.938048 0.114350 0.532291 -0.048404 -0.234233 -0.610013 -0.757869 -1.005489 -0.951102 0.994625 0.044338 0.415649 -0.019093 0.164283 -0.130594 -0.531251 0.038095 -0.690785 
HCCDB-6.S172 0.347040 -0.292469 0.115201 0.156491 -0.061171 -0.802506 0.877245 0.703582 -0.190563 0.085943 -0.013147 0.225060 -0.182448 0.339322 -0.658516 -0.116513 0.182727 -0.903062 -0.033078 -0.762056 -0.196384 0.392693 0.114625 0.669219 -0.143029 -0.068765 -0.117283 -0.316793 0.140251 0.067363 -0.243410 0.144812 0.999341 -0.569077 -0.464546 0.363541 -0.304048 -0.254270 0.168526 -0.500895 0.300778 0.220954 0.350722 -0.565857 -0.205558 -0.071697 0.337131 0.368261 -0.007817 0.096566 0.331819 0.149972 -0.217780 0.003159 0.132034 -0.595597 0.471994 0.109653 -0.087145 0.178120 0.215080 -0.362754 -0.070192 0.029583 0.506751 -0.360282 0.429621 0.152377 -0.102013 0.030843 -0.052824 0.562001 0.068457 0.015467 -0.146317 0.299699 0.192093 -0.646277 0.518413 -0.537777 0.422457 0.164378 -0.285788 -0.626571 -0.246967 -0.410232 -0.415015 -0.272686 0.060278 0.025100 -0.436160 -0.758455 -0.342896 -0.096454 0.614261 -0.091495 -0.408226 0.210936 0.000361 -0.796948 0.442018 0.058325 0.123031 -0.118614 -0.125249 0.247164 -0.136250 0.663095 -0.026076 0.032255 0.247652 0.805860 0.349434 0.057629 -0.097862 0.025214 0.126999 -0.404829 0.469514 -0.771000 -0.183482 0.190983 -0.172324 0.271208 -0.121092 0.218654 -0.151236 -0.365325 0.766655 -0.122814 -0.484268 0.074331 -0.143225 0.096757 0.370992 0.436035 -0.618689 0.008122 0.371036 -0.479788 0.242012 -0.502468 -0.152799 0.331958 -0.344035 0.101801 0.529071 0.034229 -0.429517 -0.346058 0.545611 -0.131760 0.153238 0.361042 0.648626 0.313402 0.434038 -1.129436 -0.091451 -0.606602 0.314044 -0.330013 -0.204636 -0.212469 0.004588 0.306019 -0.113371 0.752302 -1.168359 -0.387564 0.050691 0.380523 0.142842 -0.334010 0.547356 -0.083206 -0.551427 0.208080 0.033183 -0.139943 -0.230923 -0.707119 0.932734 0.043574 0.505854 -0.082077 -0.362200 -0.554636 -0.577021 -1.062510 -1.271918 0.862123 0.052983 0.323712 0.199151 0.129623 -0.203401 -0.559309 0.120090 -0.777403 
HCCDB-6.S173 0.433893 -0.328220 0.192990 -0.259337 0.114834 -0.564898 0.724121 0.682483 -0.227037 0.163566 -0.000067 0.168179 -0.202193 0.243674 -0.743566 -0.253237 0.372067 -0.781827 0.017507 -0.537613 -0.006243 0.385753 0.326224 0.788044 -0.085010 -0.245259 -0.105461 -0.338823 0.225597 0.216144 -0.317526 0.332164 0.996325 -0.544322 -0.635313 0.411102 -0.364536 -0.374883 -0.022688 -0.459332 0.131500 0.051651 0.301692 -0.367095 -0.183720 -0.110250 0.362401 0.783587 0.035461 0.036902 0.309778 -0.014225 -0.240190 0.079393 0.072345 -0.719485 0.361323 0.112468 -0.253918 0.140234 0.415310 -0.211864 -0.052675 0.143080 0.555841 -0.328761 0.403880 0.139741 -0.059722 -0.041432 0.196369 0.394351 -0.081941 0.098265 -0.001679 0.273844 -0.127861 -0.698086 0.527679 -0.537167 0.495764 0.275980 -0.198497 -0.504599 -0.458876 -0.290641 -0.238830 -0.045799 0.039936 0.119649 -0.322038 -0.652709 -0.170310 0.086936 0.693332 -0.087811 -0.316826 0.144487 0.070153 -0.911422 0.264721 -0.143699 0.176534 -0.115339 0.056511 0.064268 -0.262163 0.886228 0.045708 -0.152953 0.358545 0.807113 0.132235 0.118040 -0.086467 0.071290 0.029705 -0.493258 0.329922 -0.654922 -0.011273 0.172442 -0.048921 0.092505 -0.226784 0.227768 -0.010077 -0.420067 0.740058 -0.206297 -0.183440 0.414872 -0.205371 0.424295 0.292662 0.408862 -0.550824 -0.131340 0.465597 -0.473815 0.475006 -0.654247 -0.226514 0.284109 -0.103344 -0.092731 0.593094 0.265183 -0.272826 -0.363799 0.409727 -0.104043 0.353425 0.471391 0.593731 0.282570 0.236351 -1.098136 0.056349 -0.419161 0.273137 -0.240648 -0.144288 -0.126750 -0.033024 0.244485 -0.165628 0.764480 -1.206183 -0.388155 0.295367 0.436129 0.092891 -0.389161 0.335896 -0.212606 -0.578285 0.289691 0.033173 -0.281935 -0.081245 -0.806545 1.042888 0.199808 0.552656 -0.101745 -0.187516 -0.648723 -0.758449 -1.083485 -1.317894 0.744500 -0.032890 0.282716 0.016509 0.155575 -0.082849 -0.533199 -0.002044 -0.800550 
HCCDB-6.S185 0.451401 -0.322936 0.061160 -0.211609 0.060303 -0.554092 0.725410 0.800034 0.020054 -0.004478 -0.215886 0.214856 -0.063138 0.189037 -0.663845 -0.335983 0.123006 -1.013796 0.015621 -0.588636 -0.072342 0.565488 0.115097 1.075770 -0.138271 -0.289209 -0.162910 -0.295189 0.176808 0.152148 -0.379249 0.371769 0.954865 -0.546838 -0.630788 0.417514 -0.351698 -0.504915 0.042888 -0.438986 0.090381 -0.037480 0.437088 -0.503443 -0.127065 -0.029905 0.260678 0.565393 -0.058776 0.124156 0.249912 0.242443 -0.304220 -0.008002 0.135905 -0.484632 0.450531 0.081618 -0.169890 0.260625 0.377380 -0.225130 -0.108301 0.161387 0.510202 -0.433415 0.461736 0.145951 -0.219092 0.081921 0.164780 0.465531 -0.030263 0.137192 -0.039088 0.442044 -0.097710 -0.585464 0.681492 -0.562566 0.283609 0.120380 -0.307904 -0.419745 -0.315060 -0.381968 -0.147063 0.044718 0.276933 0.168644 -0.412329 -0.598234 -0.282197 -0.045635 0.953382 -0.073872 -0.400745 0.112703 -0.042118 -0.823371 0.389726 -0.064842 0.139047 -0.221686 -0.142206 0.141875 -0.157118 0.600436 -0.006300 -0.231569 0.303257 0.703169 0.285040 0.297534 0.078893 0.152231 0.212995 -0.540432 0.375795 -0.630410 -0.117705 0.230902 -0.159778 0.254713 -0.036301 0.145611 -0.194848 -0.421228 0.618155 -0.328689 -0.391153 0.240736 -0.220647 0.247036 0.373599 0.495369 -0.682863 -0.104246 0.601384 -0.438125 0.350033 -0.679100 -0.229710 0.473575 -0.222338 0.061049 0.510259 0.224047 -0.434746 -0.431044 0.465592 0.039945 0.319395 0.500837 0.608793 0.278361 0.234706 -1.035110 0.033000 -0.477630 0.110588 -0.247879 -0.044033 -0.010498 0.012491 0.254106 0.004223 0.643440 -1.093360 -0.364598 0.036540 0.189446 0.341328 -0.486376 0.310759 0.035340 -0.468721 0.352003 0.153713 -0.319029 -0.247153 -0.799179 1.036532 -0.021288 0.563386 -0.041410 -0.367067 -0.674149 -0.815835 -0.951324 -1.121639 0.941082 0.018855 0.365919 -0.037152 0.284289 -0.124593 -0.403489 0.015540 -0.718282 
HCCDB-6.S186 0.499015 -0.087416 0.006516 -0.200380 0.255499 -0.692209 0.733093 0.691267 -0.330905 -0.032769 -0.202997 0.124114 -0.033410 0.261631 -0.768649 -0.248838 0.001950 -1.203970 -0.025262 -0.638939 -0.118461 0.583136 -0.058747 1.108659 0.125669 -0.299498 -0.016550 -0.257591 0.190203 0.343208 -0.491882 0.483619 0.978196 -0.770196 -0.668031 0.485283 -0.258439 -0.427821 0.116529 -0.332019 0.063579 0.002914 0.480336 -0.394735 -0.201037 0.107395 0.408375 0.651878 0.109975 0.075774 0.122222 0.308060 -0.155110 -0.009766 0.154299 -0.440599 0.537804 0.106391 -0.009146 0.287689 0.382874 -0.046913 -0.176320 0.176798 0.525643 -0.208544 0.392184 0.195901 -0.088716 -0.038475 0.006644 0.557681 0.060137 0.027724 -0.273742 0.382977 0.093091 -0.663252 0.665114 -0.441595 0.336165 0.075025 -0.193343 -0.565032 -0.385453 -0.696261 -0.008762 -0.201878 0.238360 0.064492 -0.393771 -0.546816 -0.223294 -0.116188 0.912721 -0.025640 -0.628088 -0.108955 -0.149152 -0.629564 0.325002 -0.122558 0.444435 -0.179952 -0.140093 0.232234 -0.056770 0.657914 -0.079496 0.030107 0.169191 0.908933 0.347511 0.175117 0.008120 0.071882 0.355699 -0.448923 0.346593 -0.638389 -0.133243 0.128573 -0.305679 0.290046 0.125468 0.317097 -0.273647 -0.302273 0.563974 -0.412862 -0.320227 0.196317 -0.148818 0.281914 0.285980 0.445211 -0.596939 -0.040294 0.545738 -0.319612 0.440069 -0.791320 -0.115029 0.472783 -0.552308 0.026777 0.478576 0.097596 -0.492530 -0.420869 0.501302 -0.131514 0.337943 0.272522 0.730190 0.311030 0.240564 -1.059735 0.154464 -0.330478 0.310308 -0.295644 0.025888 -0.026341 0.218728 0.368135 -0.188191 0.673214 -1.147734 -0.284056 0.020118 0.244450 0.228371 -0.462483 0.400317 -0.120111 -0.582630 0.286287 0.277260 -0.197362 -0.004012 -0.702652 0.970513 0.119562 0.433112 0.137156 -0.232808 -0.669756 -0.810467 -0.891244 -1.109786 0.920083 -0.171982 0.517126 -0.034509 0.152133 -0.004483 -0.570452 0.070020 -0.603442 
HCCDB-6.S187 0.443938 -0.274771 0.071475 -0.041648 0.053555 -0.730645 0.748594 0.737441 -0.108348 0.015532 -0.068788 0.198174 -0.077374 0.339273 -0.775557 -0.426300 0.253247 -1.023947 0.007333 -0.654430 -0.201995 0.540026 0.119045 0.770327 -0.085326 -0.214750 -0.105561 -0.152944 0.092892 0.155249 -0.356217 0.282264 0.889630 -0.563658 -0.540918 0.264863 -0.287104 -0.389291 -0.043811 -0.646892 0.090594 0.114921 0.461628 -0.435894 -0.167130 0.040243 0.347835 0.649952 -0.028395 0.095704 0.240998 0.038312 0.020627 0.047212 0.156810 -0.450254 0.401542 0.075886 -0.251094 0.158060 0.414326 -0.330380 0.082485 0.253513 0.599093 -0.401676 0.334430 0.121960 -0.074891 0.188770 0.159012 0.493140 -0.072798 0.150055 0.021822 0.316464 -0.059457 -0.663895 0.628500 -0.469274 0.344171 0.313273 -0.071988 -0.514485 -0.384770 -0.416394 -0.178782 -0.173987 0.222991 0.044731 -0.387616 -0.692594 -0.291640 -0.028292 0.797440 -0.017856 -0.318365 0.082427 0.013982 -0.937668 0.413305 -0.144621 0.153130 -0.192968 -0.105709 0.139458 -0.161510 0.754723 0.067035 -0.133242 0.299646 0.720579 0.207755 0.225033 -0.060378 0.032173 0.091045 -0.468957 0.448184 -0.549675 -0.102300 0.259866 -0.070550 0.248933 -0.203953 0.174702 -0.260539 -0.440282 0.704300 -0.350555 -0.114452 0.206901 -0.087528 0.208106 0.331957 0.306631 -0.545080 -0.021224 0.560026 -0.447067 0.319891 -0.599471 -0.239156 0.244417 -0.249763 -0.062477 0.681956 0.132377 -0.340284 -0.345724 0.554130 -0.109692 0.368214 0.303757 0.579971 0.384563 0.258307 -1.040890 0.004161 -0.480330 0.231006 -0.339168 -0.088372 -0.062588 -0.008962 0.289827 -0.159156 0.731177 -1.105227 -0.531160 0.148838 0.473314 0.252307 -0.245023 0.301835 -0.060072 -0.741827 0.284938 -0.025284 -0.362139 -0.035415 -0.586504 0.906996 0.070180 0.463069 -0.119810 -0.283186 -0.506385 -0.725966 -0.939623 -1.187315 0.952184 0.055452 0.366479 0.053602 0.130534 -0.206854 -0.511715 -0.002529 -0.696937 
HCCDB-6.S188 0.469141 -0.238305 -0.017578 -0.035060 0.164521 -0.477037 0.737939 0.634197 -0.138083 -0.096620 -0.107658 0.375016 -0.201074 0.328882 -0.902986 -0.106618 0.282020 -1.068255 -0.043908 -0.600805 -0.114640 0.561438 0.210712 0.885310 -0.090249 -0.323216 0.030321 -0.091635 0.069879 0.272965 -0.538749 0.410314 0.792568 -0.832249 -0.494195 0.309099 -0.166207 -0.464962 0.035295 -0.422544 0.177773 0.190443 0.383064 -0.472440 0.053254 0.043165 0.246129 0.797167 -0.040140 0.138354 0.359295 0.306028 -0.006009 -0.030225 0.132416 -0.424569 0.257563 0.059563 -0.129914 0.143461 0.398136 -0.556076 -0.121733 0.181008 0.584107 -0.218177 0.467680 0.095070 -0.042734 0.240384 0.036495 0.666398 0.065695 0.101242 0.184932 0.361433 0.064171 -0.809897 0.465324 -0.555926 0.399586 0.237184 -0.248530 -0.572278 -0.256792 -0.493481 -0.260513 -0.133207 0.214797 0.173230 -0.203568 -0.727257 -0.194198 -0.085191 0.656220 0.062764 -0.408733 0.007004 0.014519 -0.668169 0.522857 -0.015251 0.229778 -0.231944 -0.026474 0.141309 -0.192848 0.840938 0.181627 -0.156014 0.220677 0.869843 0.034692 0.114808 -0.121904 -0.002086 0.174207 -0.232321 0.256846 -0.602624 -0.082370 0.205709 -0.081972 0.144262 -0.180242 0.162825 -0.150133 -0.209421 0.716342 -0.088052 -0.259858 0.147965 -0.346257 0.214526 0.458053 0.427690 -0.542068 0.064669 0.613600 -0.343920 0.357059 -0.415232 -0.202369 0.234778 -0.294299 -0.202217 0.483670 -0.007693 -0.347558 -0.288082 0.396956 -0.077469 0.202678 0.333012 0.570055 0.285243 0.147676 -0.946241 -0.166202 -0.507354 0.318021 -0.218573 0.023589 0.019042 0.087851 0.273795 -0.235356 0.645386 -1.233041 -0.658818 0.097564 0.448174 0.382577 -0.521591 0.355356 -0.085688 -0.699032 0.415384 0.082882 -0.343558 -0.109035 -0.699150 0.947187 0.141903 0.628449 -0.203219 -0.451901 -0.534978 -0.609449 -0.990226 -1.275385 1.033045 -0.070512 0.443082 0.031599 0.177482 0.037830 -0.589332 0.114120 -0.613291 
HCCDB-6.S189 0.535670 -0.237631 0.117182 -0.042631 0.109938 -0.462905 0.710511 0.577813 0.038338 -0.083981 -0.110587 0.423639 -0.202491 0.389191 -0.897110 -0.157972 0.151318 -1.096477 -0.061989 -0.594006 -0.058977 0.551996 0.164067 0.729053 -0.005618 -0.272487 0.018147 -0.292584 0.029901 0.251297 -0.592461 0.465978 0.839100 -0.795814 -0.581035 0.394145 -0.151184 -0.381165 0.075174 -0.493093 0.171626 0.121251 0.420947 -0.447197 -0.135687 0.011605 0.191730 0.719564 0.116601 0.093656 0.363935 0.128654 0.108148 0.019537 0.180411 -0.417607 0.378743 -0.021034 -0.066429 0.144923 0.465546 -0.321855 -0.063163 0.184009 0.520807 -0.283755 0.304684 0.142728 0.065054 0.122805 -0.012981 0.451629 0.111485 0.043270 0.228071 0.350654 0.028477 -0.675889 0.572795 -0.432635 0.430367 0.250025 -0.329060 -0.738155 -0.375055 -0.314081 -0.145768 -0.077593 0.218793 0.065937 -0.415749 -0.545356 -0.198809 -0.107612 0.625803 -0.014519 -0.431210 0.188471 -0.138843 -0.847320 0.485430 -0.139794 0.228974 -0.199444 -0.066335 0.156014 -0.100211 0.920689 0.263931 0.001827 0.189045 0.802550 0.145310 0.168921 -0.179065 -0.018047 0.156824 -0.462063 0.354200 -0.625080 -0.097507 0.287768 -0.197057 0.253110 -0.087828 0.278348 -0.141120 -0.381767 0.639196 -0.132766 -0.088475 0.053670 -0.316152 0.298964 0.366194 0.286935 -0.600396 0.002045 0.512721 -0.558762 0.502659 -0.549444 -0.253320 0.338713 -0.263449 -0.062458 0.550051 -0.031035 -0.201207 -0.448159 0.509951 -0.197232 0.287189 0.152960 0.603734 0.360170 0.230749 -0.908978 -0.107260 -0.584269 0.231757 -0.314563 -0.016192 0.025861 0.185656 0.384714 -0.265838 0.743259 -0.993374 -0.528432 0.015602 0.475122 0.422937 -0.329497 0.316862 -0.131533 -0.609758 0.368795 0.038576 -0.318236 -0.112800 -0.530503 0.956402 -0.061397 0.491153 -0.113748 -0.361876 -0.522964 -0.871749 -0.999947 -1.231169 0.884676 0.022304 0.427716 -0.097287 -0.022870 -0.185213 -0.544217 -0.040466 -0.771884 
HCCDB-6.S19 0.333122 -0.310571 0.056726 -0.039645 -0.100959 -0.644870 0.823047 0.704553 -0.012609 0.080762 -0.047714 0.254256 -0.112357 0.474652 -0.723741 -0.404487 0.195160 -0.922370 0.073073 -0.569591 0.023733 0.441428 0.271024 0.789127 -0.078589 -0.206328 -0.118360 -0.328705 0.075056 0.147260 -0.416496 0.412863 0.991661 -0.592661 -0.723807 0.306743 -0.289788 -0.317746 0.177843 -0.547251 0.075332 0.194822 0.355873 -0.440777 -0.059401 0.001573 0.305086 0.734316 0.028229 0.043376 0.175269 0.122496 0.032242 -0.037684 0.242656 -0.376207 0.401353 0.145391 -0.199951 0.128262 0.209844 -0.158832 0.098112 0.112157 0.605936 -0.527407 0.148277 0.099558 -0.240881 0.135540 0.243624 0.451411 -0.093243 0.013767 -0.025603 0.349580 -0.122617 -0.598342 0.659324 -0.481513 0.391289 0.234735 -0.172217 -0.537890 -0.353943 -0.393265 -0.084128 -0.255967 0.108225 0.191961 -0.242420 -0.517953 -0.341499 0.078495 0.793654 -0.110144 -0.314778 0.206640 -0.095263 -0.889678 0.304800 -0.267528 0.154452 -0.059327 -0.094752 0.045104 -0.061131 0.701200 -0.049416 -0.241490 0.370125 0.702861 0.135208 0.245682 0.080790 0.028381 -0.112269 -0.483376 0.369051 -0.627283 -0.053838 0.247368 -0.048404 0.201075 -0.150331 0.067188 -0.173141 -0.458250 0.619709 -0.408445 -0.087697 0.244466 -0.176483 0.328762 0.230118 0.227806 -0.675213 -0.013067 0.471614 -0.478382 0.414754 -0.625120 -0.220626 0.214644 -0.078112 -0.132944 0.725568 0.240490 -0.202477 -0.418352 0.584041 -0.201203 0.481036 0.438391 0.521133 0.367678 0.322636 -1.003858 0.136255 -0.484640 0.206079 -0.295818 -0.134341 -0.065111 -0.082176 0.349100 -0.016281 0.813160 -1.132155 -0.581075 0.072769 0.446484 0.099964 -0.190191 0.351396 -0.122820 -0.713060 0.246446 -0.051139 -0.292449 -0.113764 -0.668705 0.966219 0.122757 0.556438 -0.084676 -0.282892 -0.658417 -0.859959 -1.098762 -1.166822 0.943905 -0.003641 0.313181 0.021648 0.161808 -0.121246 -0.587647 -0.056022 -0.821574 
