1941 200
1 0.114902 0.003340 -0.036622 0.079538 0.019054 0.017160 0.151784 -0.002958 -0.093027 0.036631 -0.061761 0.143921 0.284550 0.000051 0.238133 0.132614 -0.030157 -0.006210 -0.004578 0.146223 -0.134396 0.058506 -0.074291 0.080184 0.107855 0.200326 -0.173234 -0.043475 -0.005413 -0.035770 -0.214852 0.136668 0.059788 0.000951 0.053895 -0.120265 0.071368 -0.002160 -0.002903 -0.022289 0.064175 -0.121190 0.057523 -0.067423 -0.086184 -0.024767 -0.062343 -0.033082 -0.017192 0.056519 0.113211 0.006773 0.110145 -0.025999 -0.063402 0.014904 0.059303 0.015744 -0.012140 0.007691 -0.007981 0.016435 0.066639 0.068612 0.028476 -0.004172 0.096998 0.162793 0.018240 0.054097 0.246881 0.074274 -0.007013 0.023690 0.007310 -0.058088 0.006821 -0.034909 -0.098892 -0.041924 0.054578 -0.027658 0.129397 -0.163417 -0.056406 0.171238 -0.053202 0.090976 -0.106046 0.162370 0.001628 0.035319 0.191350 -0.204287 0.051462 0.079223 0.059384 0.018391 0.004734 -0.019254 0.166683 -0.084924 0.009276 0.052367 -0.030854 -0.051543 0.118485 0.000495 -0.001313 0.072852 0.106741 0.067805 0.070720 0.210121 0.091342 0.060777 -0.003554 -0.011203 0.001545 -0.075834 -0.012269 0.073593 0.154255 0.100063 -0.087015 -0.064660 -0.034636 0.204185 0.173597 0.061109 0.025350 0.129915 -0.113909 -0.083437 -0.076893 0.018504 0.117953 -0.056811 0.074780 -0.101850 0.054893 0.205356 -0.013019 0.057517 -0.117578 -0.061059 -0.005597 0.028341 0.178436 0.054245 -0.015464 0.137419 -0.051920 0.023459 0.060615 -0.003664 0.031401 -0.048183 -0.023304 0.065308 0.074116 0.014420 -0.055446 0.104453 -0.015496 0.008244 0.040178 0.130904 -0.102830 -0.010894 -0.266729 -0.031753 0.184429 -0.122389 -0.090345 -0.077918 0.034513 -0.153504 -0.067827 -0.027196 -0.064998 -0.276759 0.022183 -0.031399 -0.087500 0.034670 0.034758 -0.090173 0.099396 -0.000483 0.060690 0.116370 -0.010648 0.089509 0.075376 -0.109496 0.109591 -0.134658 -0.092832 0.075280 
10006 -0.266050 -0.261673 -0.355929 -0.207076 0.083943 0.313003 -0.388080 -0.025502 -0.104494 0.285111 -0.347521 0.027421 -0.149935 -0.509521 0.380737 -0.199083 -0.268671 -0.396689 -0.014421 0.318975 0.006316 -0.326316 -0.320402 -0.064820 0.363170 0.054795 -0.182775 -0.423984 0.156763 0.383536 -0.099195 -0.063125 0.035016 -0.244929 0.011777 0.190394 -0.602796 -0.452804 -0.159800 0.427618 -0.512453 -0.052723 0.227679 -0.425573 -0.617904 0.590783 0.222343 -0.061567 0.012040 0.023227 0.110890 0.145230 0.283059 0.194243 -0.073259 0.366394 0.304331 -0.032315 -0.109894 0.068398 0.313633 0.074549 -0.070572 0.348921 0.490919 0.905334 -0.223339 0.020347 0.514986 0.284000 0.365278 -0.450893 0.547954 0.102174 -0.408735 -0.750394 -0.369118 0.092998 0.230530 0.424003 -0.047606 -0.026637 -0.399685 0.294833 -0.322165 0.025588 -0.367015 -0.123674 -0.435039 -0.012524 -0.314316 -0.111754 -0.422782 -0.794878 -0.159594 -0.103082 0.177576 0.003296 -0.320455 0.365436 -0.013024 0.471787 -0.127301 0.116241 -0.378620 0.101501 0.083333 0.065146 0.061702 0.424525 0.590646 0.761049 -0.319811 0.337652 -0.579325 -0.332783 -0.439351 -0.520120 0.444195 -0.334511 0.272794 -0.223835 -0.235084 0.286574 0.081955 -0.182314 0.258381 -0.275642 -0.027151 0.345949 -0.283411 -0.075577 0.925990 -0.632296 -0.458310 -0.097351 0.436451 -0.116272 0.217171 0.591483 -0.464213 0.418870 0.059718 0.128794 0.233292 -0.037464 -0.329909 -0.132299 -0.080051 0.018287 -0.025898 -0.073633 0.231141 -0.691348 -0.235329 -0.015613 -0.016106 -0.196940 0.040822 0.484914 -0.151860 0.351918 0.442070 0.127053 0.244854 0.562784 -0.312486 0.088779 0.214461 0.344031 -0.214251 -0.094890 0.277131 0.361592 -0.117261 -0.142815 0.183095 0.030152 -0.082408 -0.771882 -0.042608 0.065338 -0.656072 0.115026 0.413457 -0.327098 0.385459 -0.061384 -0.197034 -0.142352 0.196150 -0.200282 0.183972 -0.349039 0.310832 -0.290083 0.077684 -0.445287 0.292844 0.478727 
100128893 -0.796878 -0.643847 -0.295189 -1.780806 0.945028 0.221725 -1.558959 0.071309 -1.020514 -0.433640 0.287715 0.703473 0.465399 0.285264 0.402554 0.336254 0.172648 0.365549 0.313607 -0.121539 0.283521 -0.572458 -0.948129 0.528590 -0.423593 1.485711 0.244501 -0.309737 -0.726043 0.023631 0.229543 -0.207577 -0.283235 -0.260794 -0.422043 -1.221331 0.880160 -0.593768 -0.601171 -0.467522 -1.014354 -1.438353 -0.741410 -0.203656 0.688197 0.426967 -0.952338 -0.390499 1.206870 1.554665 0.100816 -0.137105 0.726667 -0.200702 0.265149 1.161044 1.572752 0.969340 0.580324 1.313859 0.401769 -0.570936 -0.378610 -0.141694 0.612257 0.400324 0.005771 1.122362 -1.071356 -0.483715 0.696378 -0.442079 -0.800552 -0.393661 0.312996 -0.652289 0.550380 -0.234263 -0.964041 -1.233469 -0.589530 0.298824 -0.480807 -0.001347 -0.437836 0.970050 -0.006679 1.420574 -0.246734 0.457390 -1.903323 -0.126875 0.671774 0.418196 -0.925234 0.303479 0.977422 -0.480882 0.281381 1.027058 -1.158049 -1.492432 -0.107203 0.470672 -0.293387 0.128259 -0.045917 -1.049025 -1.025211 -1.333418 -0.323330 -0.553055 1.308434 0.399047 -0.610843 0.146222 -1.009581 -0.537092 0.359353 -0.917897 0.090014 0.443939 0.289140 0.261516 0.071275 -1.143062 -1.056473 0.922224 -0.406190 -0.629804 -0.638389 -0.396323 1.029491 -0.496357 0.730215 0.473239 0.060481 0.760469 -0.881031 -0.576489 -0.248983 -0.139635 0.079609 0.844833 1.326105 -1.420805 -0.167546 -0.865143 1.568427 0.558657 -0.578507 0.251035 0.591029 0.290983 -1.102504 -0.296576 -0.290574 -0.431467 0.511158 0.848607 0.602386 0.363970 0.390122 0.336210 -0.112474 -0.170480 0.793372 0.573993 -0.476986 -0.336121 -0.258821 -0.045632 -0.376528 -0.105490 0.157443 -0.210867 0.910738 -0.356724 0.310680 -1.146323 -0.604668 -0.046291 -1.417954 -0.198599 -0.086494 -0.387145 -0.869486 0.210245 -0.131879 0.504484 0.401371 -1.164960 -0.079411 -0.155904 0.930008 0.070293 -1.059860 1.674551 0.558655 0.052177 
10017 -0.468923 -0.033076 1.104725 0.589169 -0.526173 0.586772 -0.424820 -0.269539 -1.863581 0.491402 0.578009 0.820930 1.193595 -0.323660 -0.370363 0.383825 0.362591 1.025198 0.768738 -0.402358 0.047146 0.089822 -0.990507 0.515437 0.746184 -0.101113 0.217581 0.297489 0.001450 -0.062875 -1.048916 0.404898 0.131388 0.705557 -1.930496 0.910913 1.608077 -0.347215 0.077163 -0.837770 -0.195128 -0.320567 0.871952 0.287757 1.233796 -0.336577 -0.344357 0.101019 -1.381028 -0.252172 -0.415571 -0.662673 -0.225646 0.159475 0.702958 0.505161 1.154508 -0.177530 -0.002477 1.528740 -0.060024 -0.414778 0.127804 0.568693 0.423148 -0.185837 0.521095 0.992393 -0.500145 -0.560974 0.376486 -1.073887 -1.049210 -1.367861 -0.295980 0.316865 1.664684 -0.549916 -0.594053 -0.204354 0.198646 0.712419 -0.066418 -0.511112 0.686862 -0.698137 0.047340 0.587928 0.240167 0.212495 -0.042949 0.574450 0.742080 -1.104548 0.562622 1.249919 -0.289816 -0.674404 -0.224649 0.301380 0.049650 0.731938 0.246952 0.543859 0.451782 0.291167 -0.196039 0.546402 1.384640 0.563267 -0.188699 1.230037 -0.649490 -0.360786 -0.397020 0.647622 0.654857 0.335283 0.159826 -0.171856 0.426091 0.286399 -0.325950 0.185787 -0.472654 -0.502083 -1.054673 0.466367 0.311964 0.264866 -0.774477 1.228218 -0.464436 -0.690514 0.412940 0.259926 0.172831 -0.142956 -0.766218 -0.405789 0.126094 -0.291672 0.015328 0.090461 0.046380 -0.154792 -0.910269 0.365913 -0.312575 -0.423209 0.100920 0.665438 -0.361885 0.018337 -0.045512 -0.639677 -0.723261 -0.184215 -0.987754 0.702388 0.212995 -0.271570 0.550799 -0.998485 1.099493 0.372865 -0.203034 -0.465180 -0.109077 -0.931653 -1.641924 0.479157 0.482249 -0.464484 0.835956 -0.109790 -0.999297 -0.221287 1.257641 -1.487435 -1.416165 -0.140668 0.585627 0.378978 0.254251 -0.037307 0.035642 -0.136162 1.488974 -0.668653 0.475499 0.238566 0.970782 -0.793961 0.450819 0.518809 0.035229 -0.367072 -0.570839 0.269007 
100306951 0.185217 -0.760550 0.045827 -2.102000 -0.171598 0.051794 -1.461921 -0.649108 -0.546381 -0.093507 -0.304460 -0.060192 -0.866134 -0.306952 -0.542015 -0.072882 -1.408286 0.264825 -0.334939 -1.508919 0.805586 1.117050 0.288321 0.485687 0.145708 1.428431 0.430107 1.517432 -1.116971 -0.510698 0.098122 -1.071173 0.203313 -0.306883 -0.470612 0.981160 -0.409675 -0.953706 0.697081 0.575592 -0.499284 -0.657456 -0.004736 -0.151651 -0.528676 -0.157531 -0.199224 0.974676 0.927451 1.017327 0.768173 0.365646 1.360577 -0.491532 -0.284332 0.639124 1.013159 0.364823 0.021354 0.167897 0.406922 0.562389 0.242014 -0.558217 0.512135 0.960559 -0.354713 0.041449 -0.376427 0.551034 -1.616735 0.711946 -0.180263 0.409617 -1.012288 -0.109531 0.631147 -0.609942 0.565101 -0.142857 -0.661166 -0.143554 -0.178780 -0.307390 0.979594 0.531561 -0.697992 -0.604249 -0.729683 -0.505863 -0.679048 -1.063168 0.102685 0.501626 0.733349 -1.640081 0.013844 -0.779120 0.803769 -0.004261 -0.392430 0.201892 -0.618119 0.340388 0.506559 0.421578 0.504028 -0.223499 -0.650932 0.733731 0.513694 0.003943 -0.372931 -0.360231 -0.246666 -1.592010 -0.542848 0.234166 -0.465709 -0.515785 0.915703 -0.415248 0.652978 0.721782 1.040706 0.220658 0.953472 -0.351318 0.151768 -0.114631 0.303888 -0.552362 0.145245 0.303987 -0.267053 0.712907 -0.771632 0.450905 -1.177642 0.806291 1.025952 -1.521775 1.107250 1.468043 0.168904 -0.745340 -0.816494 0.138527 -1.535922 0.298307 -1.030419 -0.608786 -0.029978 -0.117014 -0.409567 -0.257726 -0.639840 0.367094 -0.398760 0.512284 0.475013 -0.033376 -0.162090 -0.202365 -0.478789 -1.011587 -0.300532 0.506340 0.402479 -1.150486 -0.171100 0.856507 -1.391059 0.408872 -0.672531 -1.176823 0.250745 -0.879096 1.093957 0.008240 -1.798483 -0.217027 1.276965 0.965704 -0.399790 1.005714 1.202270 -0.282472 0.307355 0.770530 0.089500 0.679281 0.340246 0.928330 -0.021060 -0.238540 -0.168096 0.912742 -0.804233 -0.525641 
100423062 0.163181 -0.558214 0.272613 -0.122601 -0.122720 0.256682 -0.228287 0.229013 0.216655 -0.170892 0.183190 0.203261 0.439159 -0.092015 0.332625 0.029596 -0.021660 -0.136896 0.262018 -0.083870 -0.305350 0.101890 0.310103 -0.134062 -0.639777 0.097352 -0.334488 -0.423485 -0.168079 0.042935 -0.330401 -0.432411 0.149016 -0.433615 0.149789 -0.526837 -0.235324 0.074162 -0.046596 0.257706 0.075346 -0.052331 -0.289767 0.199356 -0.391010 0.051042 0.092946 -0.126911 -0.131511 0.320744 0.193365 0.142662 0.187803 0.261802 -0.301008 0.225844 0.227452 0.215414 0.399992 0.643913 0.420200 0.154237 0.323084 0.372687 0.218956 0.193395 -0.150298 -0.108969 -0.192498 -0.267860 -0.144831 -0.069318 0.196258 -0.331885 -0.073467 0.088769 0.288560 -0.026756 -0.089360 -0.121201 0.303685 -0.062233 -0.195705 0.242434 0.629377 0.251465 -0.098615 0.017904 0.767796 0.727827 -0.017704 0.336882 -0.007557 0.393334 -0.412478 0.384732 -0.117134 0.349719 -0.141748 0.034894 0.050624 0.075281 -0.075433 -0.210973 0.151135 -0.007206 0.005151 0.265330 -0.033097 0.466345 -0.483728 0.452336 -0.268657 0.654583 -0.132251 -0.012257 -0.120477 -0.346391 0.202420 -0.430980 0.401196 0.325798 -0.456306 0.393508 0.164901 0.404910 0.284918 0.159162 0.028812 0.309692 0.409785 -0.257893 0.081536 0.068908 0.225597 0.164231 -0.055629 -0.093915 0.259734 -0.057646 -0.228156 0.535851 -0.138558 0.260322 0.230834 -0.057728 -0.625664 -0.015867 -0.372003 0.540758 -0.280348 -0.095647 0.254182 -0.115764 -0.527858 -0.343019 -0.052599 0.056117 -0.160009 0.370299 0.079538 0.440766 0.242433 -0.651348 0.068539 -0.122501 -0.517070 -0.075844 -0.191289 -0.121741 -0.092183 0.230842 -0.243452 0.105306 -0.058659 -0.369766 0.174261 -0.049494 0.331545 -0.147530 -0.440129 -0.518181 0.222369 0.367242 0.122172 -0.116084 -0.286692 0.294129 0.037339 0.463453 0.307452 0.201141 -0.208787 -0.062534 -0.119232 0.371194 -0.004524 -0.235173 0.205189 0.275101 
100505738 1.224458 -0.457373 0.706300 -0.098488 0.401556 -0.129756 0.082638 -0.491884 0.507355 -0.109116 -0.088242 0.549001 -0.301432 0.697493 -1.239447 -0.386471 0.741202 -1.022411 -0.042168 -1.107510 -0.212752 1.565269 0.432449 -0.185555 0.716647 0.230434 -1.914930 0.137497 0.960651 -0.633893 -0.947129 -0.245916 -0.609771 1.199921 0.459670 0.460252 0.910863 0.888775 1.472198 0.741274 0.235423 -0.816301 -0.974761 -0.674452 0.205184 0.690934 -0.174890 -0.421551 0.988948 0.018123 0.160934 -0.630823 0.196727 -0.266452 -0.519528 0.874620 -0.492894 1.094505 -0.240295 1.150352 0.415496 -0.827927 -0.952450 -0.140711 0.674830 0.872047 -0.344213 -0.155730 -0.278117 -0.588354 -0.932779 1.116910 0.404891 0.496499 1.565013 1.090520 -0.738543 -0.801305 0.416887 -0.138294 -0.158635 0.681801 0.798933 -0.146208 -0.033613 0.760650 -0.431530 -0.848738 0.012801 -0.282613 -0.130394 -0.835182 0.154450 -0.598287 0.485690 0.038799 -0.634979 0.458201 -0.000355 0.356735 1.387802 -0.315381 0.019220 1.466995 0.239279 0.386728 0.097561 -0.695602 -0.435159 1.278468 -0.188744 -0.473247 0.051188 0.756961 -0.204355 0.752521 -0.029437 -1.029054 0.019160 -0.778603 0.190209 0.176940 0.326015 0.588086 0.032078 0.437318 -0.091107 0.812511 0.648438 -0.434864 0.382276 0.657073 -1.019528 0.168194 0.666823 0.110235 -0.183149 0.414773 -0.822364 0.526386 -0.237884 0.854579 -0.296640 0.093369 0.816355 -0.576848 -1.306026 0.227815 0.478610 1.296342 -1.106214 -0.105440 1.073423 -0.162902 0.576623 0.120900 -0.948452 -1.557788 -0.720121 0.400561 0.883965 0.198498 0.215257 0.145053 -0.624309 0.224347 -0.189033 -0.150252 0.081419 0.183837 -1.073028 -0.554408 -0.721270 -0.618321 -0.151386 0.380021 -0.036598 -0.351539 0.028577 -1.203827 -1.463913 -0.210647 -0.602721 -1.326153 0.650083 -0.000144 0.122409 0.485413 1.237811 0.456719 0.961596 0.333833 -0.822773 -0.900361 -0.814285 0.350566 0.840725 0.712341 1.677327 0.482901 
100505854 -0.865819 0.312589 -0.110454 -0.997574 0.251904 1.195130 -0.432597 -0.736291 0.072375 0.701144 0.189956 -0.197350 -0.188952 -0.097399 0.895282 0.820343 0.883443 -1.063859 0.689206 0.251199 0.358392 0.604325 -0.481297 0.262478 -0.338029 0.525240 -1.419955 0.507662 0.790653 0.460806 -0.781149 -0.282211 0.666118 -0.643591 0.009333 0.256379 -0.810820 -0.298764 0.990819 1.103826 0.593328 -1.212563 -0.070836 0.842031 0.814865 0.623382 -0.864826 0.033132 -0.016955 0.075231 1.268787 0.089148 0.702907 0.648273 0.078102 0.207789 1.048278 0.779953 0.543018 1.129585 0.825631 -0.214195 -0.456153 -1.114468 0.405319 -0.230279 -1.755216 -0.910326 0.448205 0.485940 0.929624 0.016364 0.213928 -0.993700 0.952475 -0.173963 0.160165 -0.166324 -0.354318 1.009868 0.324010 -0.887030 0.230056 0.355339 0.439601 0.789525 -0.351446 0.201784 -0.572724 -1.312667 -0.590855 0.187758 0.814752 -0.575903 0.110381 0.890049 0.457893 1.036693 0.308376 -0.112770 0.600733 -1.039051 1.747892 -1.315611 0.997689 -0.382353 0.726509 -0.339737 0.016890 -0.428629 -1.074312 -0.454004 0.254148 -0.120210 0.219108 0.110978 0.038201 -1.509364 -0.001147 -0.553962 0.243022 -0.954949 -0.262083 0.316018 -0.296024 0.703504 1.460068 0.475121 -0.464570 -0.186377 -0.394244 -0.364370 -0.342343 -1.038689 0.341354 1.012557 1.125981 -0.423438 -0.555311 0.262139 -0.290655 -0.337755 0.763914 0.285199 -0.987565 -1.023096 -1.083482 0.145816 0.221245 -0.592384 -0.636219 1.206063 -0.464981 -0.207362 0.539539 0.224473 -1.499151 -0.573049 -0.328764 0.530057 1.395219 -0.783103 -0.345409 0.239663 -0.610339 -1.069463 0.801156 0.106243 0.841726 0.696921 -0.350174 -0.360427 -0.612425 0.540966 -0.165909 -0.710940 -0.053774 -0.515589 -0.028150 0.626405 -0.353560 -0.127094 0.715502 0.926337 -0.548700 0.228037 -1.182952 0.230425 -0.006399 0.352356 0.328976 -0.302982 -0.337553 0.772625 -0.083142 -0.067699 0.475437 -0.566369 -1.113662 -0.016142 
100506233 -0.860190 0.097961 0.654053 -0.667925 -0.733906 -0.910249 1.040745 -0.660543 -1.081695 -0.004971 -0.946585 0.162685 -0.653670 -0.976163 0.751922 0.422969 0.504255 0.358145 1.383556 -0.406650 0.708925 -0.156846 0.384847 -1.070628 -0.877768 2.788886 -0.450317 0.448348 0.124468 -0.590917 -1.415888 0.675011 -0.121197 0.982057 -0.834724 1.153291 0.485869 0.035860 -0.829137 -0.448602 -0.775650 1.429172 0.172780 -0.381758 -0.646603 1.377376 -0.537035 -1.000198 -0.457237 -0.768719 0.937870 -0.203688 0.147982 0.254502 0.654536 -0.032756 1.080078 0.368162 0.656123 0.507073 -0.578552 -2.299517 0.677435 0.379646 0.888075 0.593883 -2.584930 -0.878119 0.634505 0.193220 0.109895 -1.675997 1.194193 -1.642171 -2.288334 -0.732143 -1.177901 0.413677 -0.228635 0.246340 -1.920768 0.778393 0.684148 0.346303 1.331103 1.240280 0.142450 0.605664 0.802667 0.478694 0.046485 -0.166772 0.111005 -0.171466 1.038256 0.036936 0.684091 1.510427 -0.989446 -0.363187 1.276254 0.801556 -0.189294 0.681137 -1.025982 0.919936 0.560405 -0.773247 0.866013 0.156657 0.311517 -0.082000 0.167127 -0.209585 0.412950 0.145872 1.244917 0.040642 0.269005 -0.796634 -0.253818 -0.304519 -1.088888 -0.000849 -0.525512 1.159978 -0.168990 2.096967 -0.646082 0.803074 0.207595 0.175897 -0.750208 -0.392516 -0.699489 0.679546 -0.503128 -0.914364 0.626237 1.474466 0.699726 0.012661 0.176951 1.399822 -2.538871 0.137602 -0.655315 -0.485462 0.467819 -1.555345 0.381918 0.523954 -0.431494 -0.254401 -0.096688 0.080425 -0.423320 -1.537860 -0.827009 -1.369398 0.692353 -0.139554 1.154628 -0.108302 -0.005457 -0.524210 -0.183321 0.610526 0.096247 -1.301465 0.926475 -1.389181 -0.822810 -0.163644 -0.592738 1.336200 0.179489 0.486715 -0.194781 1.015132 -1.147432 -0.140470 0.154735 0.655501 0.646929 -0.899479 -0.212621 0.284363 0.166985 0.016207 -1.104587 -0.208937 -1.222051 -0.317225 0.693401 -0.069127 -0.613114 0.645691 1.268186 -0.578387 
100506365 -0.007342 0.064731 0.017978 -0.032901 -0.091335 0.040788 0.031422 -0.019189 -0.118449 0.088774 -0.032745 0.010651 0.120567 0.021292 0.111010 -0.010491 -0.111695 -0.089228 0.096675 0.124801 -0.086949 -0.054531 -0.173134 0.074975 0.112057 0.105805 -0.180333 -0.193676 0.001421 0.003481 -0.151344 -0.037542 -0.166100 0.031820 0.071365 -0.071126 0.014024 -0.126747 -0.023195 0.030370 0.047174 -0.106626 0.071509 0.120112 0.009030 0.081476 -0.007401 -0.003324 -0.112024 0.067459 -0.097113 0.058313 0.001893 0.106482 0.050630 0.195515 0.081318 0.018602 -0.056128 -0.015112 0.039788 -0.032470 -0.148703 0.095178 0.037350 0.158223 -0.038463 0.025460 0.042397 -0.041382 0.014018 0.056545 -0.016085 0.098699 0.106770 0.062736 0.011284 -0.010276 0.029452 -0.018987 0.071365 0.110219 -0.030377 -0.009275 -0.104395 0.131131 -0.079707 0.021348 0.029794 0.073721 -0.049442 -0.031027 0.107839 -0.093647 0.071389 0.062858 -0.025973 -0.033245 0.038673 -0.073811 0.089918 -0.035112 -0.221350 0.078884 0.043514 0.056062 0.108625 -0.032498 0.005534 0.029075 -0.006443 0.082263 -0.053920 0.010640 -0.051970 0.028806 0.082994 -0.110837 0.055629 0.027330 -0.059366 -0.059018 0.141965 0.214717 -0.201291 -0.102238 -0.111502 -0.015281 0.176268 -0.001250 -0.060211 -0.045590 -0.039562 -0.067102 0.055705 0.044263 0.031058 -0.099285 -0.087472 -0.080199 0.147100 0.115718 0.047570 0.171413 -0.088697 -0.161001 -0.084616 0.124709 0.191188 -0.110693 0.072399 0.108445 -0.020264 0.174344 -0.091088 -0.105027 -0.066540 -0.022224 0.015935 0.155684 -0.065609 -0.221069 -0.029271 -0.022609 -0.018645 0.034652 0.009921 0.142999 0.089385 -0.054347 -0.101458 0.138771 -0.008118 -0.061209 0.021802 -0.080149 -0.175049 -0.097460 0.099580 -0.134171 -0.030159 -0.051744 0.003883 0.054417 0.028711 -0.052955 -0.072610 0.091624 -0.068312 -0.037795 0.107724 0.021418 -0.079084 0.048352 -0.045106 -0.238777 -0.048558 -0.030895 -0.044394 0.182451 
100506581 -0.621846 0.027399 0.377495 -0.258139 0.102822 0.615796 1.296128 0.231078 -1.109243 -0.468580 -0.152283 -0.397796 -0.000474 -0.352128 0.312211 -2.035738 0.716851 -1.226179 0.060139 -0.827642 -0.344636 -0.706495 -0.098734 0.922232 0.640105 0.106392 -0.753083 -0.167715 0.434834 0.390713 0.310810 0.981244 1.493215 -1.235279 -0.850688 0.566843 1.528566 0.095707 -0.026905 -0.914693 0.191589 0.076893 -1.408861 0.616383 -0.180115 0.763244 -0.247561 -0.865219 -0.379967 0.657616 -0.865701 2.035973 -0.172542 0.315191 0.330960 0.274268 -0.060467 1.103416 -0.194917 0.839181 -0.529954 -0.957667 -0.309412 0.918007 -0.003435 -1.397601 -0.259335 0.958725 -1.547004 0.148311 1.135860 0.186147 -0.191779 -0.371393 -1.062411 -0.170221 -0.212331 -0.684870 0.993707 -0.562573 0.054261 -0.167012 1.175677 -0.953573 -0.540934 -0.588616 -0.725171 0.552559 -0.574315 -0.747142 0.224947 -0.666468 -0.242392 -0.362429 -0.660659 0.132822 0.921972 0.168487 -0.545912 0.060766 1.020153 -0.666741 0.861943 0.614342 0.692635 0.659795 0.576502 -1.179189 0.267171 -0.007088 1.341104 -1.016624 0.126673 0.680026 -0.085715 0.275182 0.072706 -0.081708 -0.527947 -1.308946 -0.350821 0.318862 0.845237 1.667540 -0.702180 -1.629712 -0.333527 0.267898 -0.593880 0.672276 0.391901 1.044316 0.837424 -1.420803 -0.083496 -0.354547 -0.068592 -0.440962 -0.308111 -0.121237 0.668902 -0.568583 1.061231 -0.310062 0.313394 0.412030 0.167506 -0.245967 0.907129 0.783092 -0.270346 0.732111 -0.016565 -1.087768 -0.139590 0.787003 -0.567548 -0.063953 -0.067096 0.772397 0.366638 -1.358492 -0.802056 -0.052621 0.294746 -0.195857 1.710010 -0.784499 -0.702932 -0.015038 -0.089578 -0.167077 0.216648 -0.711936 -1.261711 -0.569964 0.350273 0.408379 -0.313229 0.492820 -1.073896 0.398623 -0.451869 0.021096 -0.671308 -0.234163 0.372007 -0.563866 -0.093311 0.168454 -0.152937 -0.821192 -0.651999 0.228744 0.005373 -0.798098 0.142417 -0.207366 -0.431252 0.990414 
100506713 0.482534 0.206952 0.161529 0.602750 0.206607 -0.189129 0.352673 -0.322525 -1.175802 0.272640 0.057990 0.552516 1.086619 0.566866 0.534593 0.971453 -1.031378 0.341315 0.287141 0.346627 -0.175155 1.078795 0.188189 -0.164857 0.657213 0.041579 -0.984897 0.747546 0.443452 -0.795931 -0.434378 0.742775 0.137383 -0.541611 0.343458 0.016555 -0.061669 0.177705 -0.208127 -1.012176 0.698700 -1.400256 -0.249323 -0.815646 1.580286 1.299944 0.497822 -0.184604 -0.343300 -1.172040 0.535994 -0.069360 0.292812 0.783484 -0.554415 -0.757385 0.117989 0.620969 -0.193086 1.163414 -0.256699 0.892394 -0.334564 0.179750 -0.311066 -0.433547 0.198851 -1.058391 -1.131665 -0.454457 -0.472001 0.429040 0.531687 -0.491735 0.182906 -0.425636 -0.486435 -0.024238 -0.830725 0.279014 1.655785 -0.149049 -0.180532 -1.203008 -0.522416 -1.175964 1.073375 0.529668 0.150736 0.064925 0.714447 -0.243674 -0.267390 0.017555 -0.346841 -1.042190 0.443546 1.211930 0.178381 -0.045031 0.537789 0.143313 0.872005 0.435122 -0.439955 -0.354433 -0.445539 0.393240 -0.351537 1.384418 1.552146 0.342744 1.181782 0.029727 -0.233906 0.181282 -0.364632 -0.184377 0.104122 0.859138 -0.083233 -0.147566 0.806675 0.828405 0.467013 -0.350297 0.597331 -0.057506 -0.262371 -0.693941 -0.259590 0.306280 -1.005165 -0.371490 -1.083621 0.517104 0.824373 0.167645 0.021852 -0.715993 0.323895 -0.156049 -0.125529 0.270606 -0.172065 -0.761804 0.492267 0.297087 -0.735512 -0.110148 -1.281818 0.810296 0.904785 0.126589 0.557439 -0.262990 -0.406689 0.842319 -0.587792 0.673435 1.013163 0.053725 0.459812 -0.949929 -0.814083 0.624849 0.507841 -0.699062 -0.126668 -1.045810 -2.230721 0.064794 0.133099 1.003260 -0.988170 -1.096161 -0.026472 -0.827311 -0.214239 -0.733751 -0.355293 0.947709 -0.817590 0.217836 0.354355 -0.517273 -0.855522 -0.557745 -0.512836 -0.448382 -0.193566 -0.108124 -1.366806 -0.080355 1.380443 1.025756 -0.867511 -0.200310 -0.833880 1.249608 
100506930 0.799834 -0.340528 0.952333 0.036257 0.436901 -0.145650 -0.563631 -0.112977 1.034179 -0.351813 -0.572264 0.316550 0.723152 0.226903 0.075193 0.310542 -0.528173 0.404895 -0.251163 1.121497 -0.206638 0.556114 -0.485575 1.248131 -0.161579 -0.215646 0.135842 -0.549018 -0.326815 -1.091436 0.494374 0.710328 -0.356884 0.377858 -0.592895 0.633006 -0.304692 -0.221387 -0.373322 -0.666690 -0.886459 0.017694 -0.678447 -0.368671 0.305942 1.450067 -0.876808 0.040955 0.628330 0.890269 0.273716 -0.213592 0.539074 0.719624 -0.904930 1.898961 0.928645 1.139598 -0.011585 -0.120538 0.100645 -0.440733 -0.598164 2.157426 -0.314088 -0.428131 -0.603878 -0.117315 0.369548 -0.431363 0.091953 0.203692 -0.061946 -0.641845 -0.110948 0.738927 -0.554239 0.380774 0.181136 1.508445 -0.314601 0.072926 0.237701 -0.490326 0.007097 -0.344270 -0.196609 0.293947 0.289502 0.020405 1.534694 0.457476 -0.027710 0.610298 -0.062226 0.057428 0.832553 -0.072833 -0.080952 -0.980124 -0.132216 -1.181229 0.720997 -0.129434 -0.637139 0.191030 0.378692 0.594485 1.200186 0.306429 0.144826 -0.472173 -0.715228 -1.037827 1.154712 0.656305 0.797123 0.045804 0.737258 0.606375 0.644806 -0.761763 -1.393435 0.014319 -0.022020 0.779838 -0.520039 -0.281689 1.032351 0.093106 1.602407 1.793446 -1.442014 -0.720766 -0.296942 0.483567 -0.072854 -0.503682 -0.356256 -0.901985 -0.253417 0.109048 0.513244 0.317906 -0.324798 -1.651523 0.081032 -0.126876 -0.161933 -0.614337 -0.076278 -0.928028 -0.158453 -0.296462 1.090405 0.475361 -1.252050 -0.205884 0.931494 0.594568 -0.078526 -0.466808 -0.153087 0.029700 -0.125703 0.802657 0.730058 0.087182 -0.892280 -0.779771 -0.936859 -0.755653 0.170965 -0.108186 -0.397180 -1.343433 0.724710 -0.008655 2.095756 1.855084 -0.256110 1.171642 -0.400104 -0.462871 -0.020515 -0.695183 -0.722341 1.232233 -0.957951 -0.184750 -0.720305 -0.239006 0.201666 -0.086773 -0.472590 0.134411 -0.204940 -0.137413 -0.401884 0.161432 
100507436 -1.500243 -1.377765 -0.472240 -0.634116 0.535809 0.934748 -0.479759 -0.623163 -0.338790 -0.427528 -0.271108 0.046043 0.616169 1.360843 -0.707536 0.535144 1.693084 0.808357 0.644218 1.335424 1.016168 0.122607 -1.869363 0.359408 -0.179172 -0.260068 -0.845389 0.132689 -0.631286 0.378771 -0.255288 -0.364468 -0.234396 -1.500078 -0.921229 -0.497281 0.096105 -1.107624 -0.398767 -0.619219 1.445442 -1.904483 -1.103808 -0.595303 0.837807 0.148646 -1.419212 0.461310 -1.148573 -0.869363 1.212791 -1.196899 0.431678 -0.092127 0.596838 -1.302515 0.768324 0.859881 -1.424205 1.864580 1.159131 0.041026 1.253932 0.335335 0.165293 0.440314 -0.730521 0.476351 -0.790970 -2.592773 -0.688849 0.090310 -0.046466 1.360704 -1.231332 0.345156 0.286948 0.919578 1.603052 -0.956445 -0.165473 0.292290 0.835251 -0.414971 -0.573092 0.314295 -0.525304 -0.732237 0.829514 1.109824 0.548833 0.652327 -0.507194 -0.556754 0.166825 1.226620 1.436499 -0.620214 -1.440359 -0.130048 0.530080 0.827509 0.469191 0.898374 1.954186 1.308024 -1.221453 -0.283838 0.538471 0.501998 -0.280421 0.763424 0.885347 0.724252 0.220391 1.354234 0.185828 -0.500582 0.089644 -0.452527 0.109097 -0.235008 1.125313 -0.151456 1.546408 1.477158 0.672920 1.178452 -0.278947 -0.319550 -1.285261 1.195005 -1.501006 1.015369 -1.139678 0.646290 0.042316 0.012277 0.751347 -0.552942 -0.831988 -0.742268 0.793497 2.202823 -1.180524 -0.908611 -0.650261 -0.917381 -2.554579 -1.044702 -1.706246 1.185497 -0.999913 0.613415 0.390910 0.164160 0.226497 -0.326016 0.458189 0.499851 -0.100926 0.753046 1.063820 1.233980 0.362499 -0.470699 -1.207259 -2.062193 -0.371101 -0.717414 0.330532 0.338545 0.263980 -0.314414 -0.053606 0.896093 -0.294339 -0.701611 0.100141 0.041814 -0.572788 -0.726746 1.168168 1.120256 -0.237308 -0.177674 -0.057009 1.784714 -0.522122 -0.184402 -0.577046 1.896415 -1.588267 -0.125277 -1.121021 -0.868647 0.654855 0.647588 -0.572740 -0.983294 
100507463 -1.439300 0.013563 -0.757688 -0.856522 0.729027 0.204649 -0.044055 1.136486 0.398225 0.138911 0.359537 -0.404123 1.356110 0.020089 -1.061835 -0.641630 0.742112 -0.153460 0.189568 0.309470 0.833913 -0.312971 0.491935 -0.043760 0.042392 -0.123769 -0.587266 0.361919 0.011150 -0.279803 1.032202 0.044647 0.864323 0.720273 0.290993 0.586709 -0.445930 -0.318007 -0.162017 -0.203391 -0.485477 0.829381 0.904743 1.249986 1.201435 1.021720 0.023511 0.897229 -1.026493 -0.720275 0.402669 -1.809584 0.544936 0.503709 -0.196451 1.644644 0.757433 0.637041 -0.658890 0.111216 -0.696102 0.249032 1.672669 0.064183 0.079045 1.043145 0.640700 0.297273 0.788379 -0.046610 -0.136136 0.796837 -0.592165 -0.391774 -0.663490 0.280884 -1.285239 0.002154 0.053633 -0.078149 0.218168 -0.609307 -0.073673 0.576956 0.502283 -0.734322 -0.072272 0.318165 -0.565567 0.749268 -0.904152 0.102257 -0.168729 -0.204057 -0.109216 -0.668086 0.095031 -0.478130 -0.183210 -0.949771 0.682783 0.440246 -0.017134 -0.288997 0.401984 -0.425289 0.437310 -0.214453 -0.218187 1.070890 0.335045 0.488968 0.603625 0.215944 -1.399809 -0.491754 -1.308828 -0.440679 -0.705611 -0.173165 0.594324 0.537825 -0.889533 -1.278945 -0.074875 0.082230 -0.584013 0.726837 -0.149472 -0.000368 -0.028274 -0.286804 -1.077884 0.431816 -0.881976 0.134621 -0.163747 -0.629912 0.382229 -0.377335 -0.139871 -0.318576 0.742815 -0.175298 0.525218 -0.067151 -0.488519 0.975388 0.574493 -0.497301 -0.387571 0.208753 0.815865 0.365508 0.523961 0.962340 0.631505 0.291714 -0.765713 0.821934 0.682011 -0.418169 0.245504 -1.030475 -1.198965 -0.291518 -0.290446 -0.871368 0.365819 0.566505 -0.193140 0.776858 -1.289817 -0.078393 0.296051 0.164994 -1.411986 1.942292 0.483380 0.056202 -1.191501 -0.645115 -0.886696 -0.251760 -0.941131 0.369097 -0.232651 -0.200955 -0.137558 -1.805841 1.045781 0.350731 1.044019 0.211959 0.374518 -0.719473 0.131822 0.163728 -0.153526 0.161396 
100507588 0.158653 -0.394085 0.470119 0.329075 -0.024027 -0.187592 -0.308585 -0.655185 1.799501 -0.612144 -0.223375 0.469072 -0.313791 -0.222870 -0.212759 0.387344 0.291684 -0.783843 0.336973 0.083886 0.718054 -0.732867 -0.172205 -0.889645 -0.970076 1.711371 -0.505370 -0.163979 -0.966806 0.170380 -0.737851 -0.109594 -0.327109 -0.430728 -0.514763 -0.262913 0.552458 0.932829 0.610116 0.393283 0.148382 -0.019222 -0.501676 0.079243 0.645046 1.614574 0.746001 0.636960 -1.894181 -0.667747 0.796304 -0.562489 -1.574672 0.342944 1.261716 1.019742 -0.283184 0.550277 1.195799 0.054481 1.150245 0.543679 -0.189388 0.666800 0.352807 1.157730 -0.938197 -0.374794 -0.139009 0.018849 0.674434 -0.571151 -1.000058 -0.511579 0.826576 -0.325556 0.237479 -0.278524 0.202078 -0.867413 -0.501681 0.229833 0.151359 0.073988 -0.660168 -0.371815 0.118087 0.069423 -0.447879 0.055661 0.319223 0.832965 0.168548 -0.422610 0.258102 0.151702 1.014368 -0.585955 -1.562626 0.592423 -0.319108 -1.041196 0.001845 0.390033 -0.130066 0.052127 -0.538526 -0.515809 -0.017659 -0.061641 -0.753342 1.033350 1.219566 0.309211 0.010633 0.754993 -0.459766 -0.565571 0.303009 0.006004 -0.350241 0.010719 -0.452521 1.415337 0.572311 0.413181 0.341048 1.279643 0.343844 -0.180857 -0.291238 -0.198129 -0.059672 0.428051 0.110888 -0.016557 2.384624 -0.270460 -0.019600 -0.078426 1.042420 -0.263447 -0.351467 -0.079962 -0.518153 -0.393221 -0.147333 0.110455 0.957983 -0.687395 -0.826830 0.714026 0.351830 -1.127213 -0.138427 0.982787 -0.325412 -0.233371 -1.284860 -1.011857 0.059795 0.839447 0.253460 0.068087 0.518111 -1.025066 0.109856 0.468748 -0.094178 -0.094954 0.088231 0.796038 -0.111895 -0.324159 0.198652 -0.072187 0.141650 0.312820 -0.416664 -1.304162 -1.069286 -1.396652 0.728928 0.335954 -0.044658 -0.807772 -1.231553 0.297695 -1.290268 -0.498924 1.139199 -0.074101 -0.724447 -0.902809 0.174722 -0.681785 -0.086487 0.118742 0.266293 -0.055427 
10054 -1.537974 0.069376 -0.252766 -0.000011 0.671919 1.161176 -1.099645 1.100745 0.195622 0.344146 -1.185608 0.520812 0.481341 0.550198 -0.038503 0.041540 0.456054 -0.408505 0.894657 0.625383 1.614819 0.019830 -0.207342 1.918293 -0.452584 0.761379 0.044009 0.683023 0.398890 0.358888 -0.843675 -0.910934 -0.955365 -0.722145 -1.225259 -1.016183 -0.478482 0.477051 0.836229 -0.286264 -0.312761 -1.244186 -0.777510 0.204570 -0.169144 0.034277 -1.345523 -0.162185 1.884329 0.372400 0.252552 0.097073 -0.036273 -0.587365 0.994632 0.633323 -0.017449 -0.102247 -0.404696 -0.393584 1.002879 -1.540510 -0.472012 -0.093207 -0.539292 0.154815 0.827869 -0.463288 -0.463123 -0.609408 0.517273 -0.066461 0.454463 -0.322107 -0.104812 0.501909 -0.038794 -0.287803 0.834151 -0.288093 -1.177917 -0.056689 0.284247 0.971039 0.121693 -0.987546 -0.085515 0.040207 0.505787 0.776204 -0.498039 1.257631 1.001403 0.063861 1.028768 0.462757 0.399177 0.341365 0.050635 -0.230848 0.684884 -0.733318 0.129922 -0.875514 -0.509804 0.787998 0.131686 -0.604595 0.635794 0.215850 0.232428 0.786240 0.292404 0.029605 0.542608 1.302698 0.006290 -0.311790 -0.010872 -0.572477 0.090107 -0.146693 0.502900 0.291260 0.563703 1.168456 1.146094 1.029604 1.235563 0.120807 -0.257609 0.105009 0.337580 -0.583525 -0.591436 0.298243 -0.729339 -0.421628 0.566862 0.492551 1.208942 1.030537 0.798322 0.281126 0.195213 0.281519 -0.112941 -1.148062 -0.088163 0.262267 -0.110341 1.365760 0.196411 -0.358465 1.875487 -0.786068 -0.878957 0.733978 -1.845676 -0.358689 0.852759 -0.339636 0.645728 0.421092 0.308045 -0.745530 0.484942 -0.093117 0.839911 0.192820 -0.336143 0.107685 -0.416282 0.487608 -0.172156 1.606349 -1.077654 0.071223 0.130775 0.335186 0.990172 0.359865 0.884998 -0.311584 -0.124153 0.560232 -1.189428 -0.989954 -0.470976 1.065082 0.080347 -0.870774 0.267597 0.284064 1.479096 0.129348 -0.307688 -0.776723 1.225755 -0.179672 
10056 -0.242038 0.003084 0.348060 -0.424898 -1.235084 0.163127 -0.722566 -1.459250 -0.794877 0.058191 -0.303438 -0.455799 0.747100 -0.404533 1.252395 -0.539494 0.142771 0.772172 -0.115056 1.386470 0.427651 -0.085228 -0.490421 -0.150200 0.568478 -0.134709 -0.083888 -0.184024 -0.440275 0.216091 -0.189663 -1.218651 -0.713792 1.184052 0.571903 -0.948765 -0.659415 0.240962 0.190367 0.950043 -1.062319 -0.579049 0.169380 0.248899 0.990770 1.220624 -0.571299 -1.015388 0.195921 0.723485 0.780420 -0.513982 0.727377 0.839395 -0.018240 0.853231 0.477235 1.491025 -0.232286 0.779807 0.830027 -0.391063 0.316896 0.502274 0.956764 -0.383196 0.221284 -0.702939 -0.789018 0.332177 1.402878 -0.900453 -0.329337 0.097249 -0.693070 -0.036931 -0.182569 0.486497 0.131516 0.950784 1.563793 0.020217 -0.822698 -0.114610 -0.421354 0.672376 -0.259163 1.282996 -0.366018 0.223366 -0.345817 0.721476 -0.020297 0.247706 -0.125629 -0.548893 -0.548451 0.500953 0.206932 1.101771 -0.529865 -0.093898 -0.361493 -0.058766 1.165189 0.574335 0.845835 0.686226 -0.577548 0.333692 0.133417 0.169080 -0.284954 -0.436395 0.574611 -0.141045 -0.333691 0.092396 -0.558445 0.210868 0.097088 0.268934 0.511147 0.629550 0.073639 -0.899970 -0.793630 0.496213 0.600501 1.182316 -0.154903 -0.525063 -0.219564 -0.396240 -0.487872 0.230115 -0.678197 -0.397644 -0.324506 -0.467007 -0.276664 0.465471 -0.122863 1.145059 0.403755 -0.747562 -0.203276 -0.806781 0.573102 -0.436666 0.394952 -0.229513 0.459110 1.475330 -0.121542 -1.321898 0.818253 0.659418 -1.310535 -0.470843 -0.072604 0.281473 -0.060630 1.270294 -0.087262 -0.209783 0.643326 -0.949317 -0.533112 0.177589 -0.209677 0.641379 -0.417035 0.717427 0.131157 -0.105149 0.117105 -0.260564 0.057102 -0.320711 -0.723698 -0.354219 1.245086 -0.252410 -0.554063 -0.516454 -1.519931 0.891971 -0.633394 -0.618165 0.558307 0.897308 0.200045 0.158875 0.977862 0.235823 0.096473 2.436054 -0.210447 0.904081 
10062 0.061384 0.081817 0.290911 0.577277 0.112477 -0.128757 0.306565 -0.620892 -0.484438 0.281250 -1.178306 -1.220133 -0.319026 -1.127838 0.422716 -0.981576 0.044087 0.647482 0.393569 -0.000818 -1.010194 -0.683500 -0.128524 -0.127440 0.243788 0.320008 0.132814 -0.165213 -0.450289 0.673488 -0.028419 0.410015 0.161640 -0.521587 -0.843194 -0.364059 0.170364 0.109315 0.525862 -0.326365 -0.849053 0.211609 -0.729181 -0.655232 -0.636222 -0.333844 0.071652 0.591500 -0.516956 -0.156530 0.211097 -0.076171 0.673719 0.018439 -0.580535 0.017969 -0.913648 0.818745 -0.322095 -0.314192 0.031341 -0.573811 -0.917694 0.234087 0.249504 0.223015 0.177548 -0.974757 -0.268791 -0.061931 -0.447709 -0.274525 0.428627 0.396060 -0.094801 -0.338884 -0.147016 0.202290 0.187046 0.543217 0.111486 0.184097 0.035774 0.319991 -0.522993 -0.096905 -0.231384 0.565328 -0.192934 0.030199 -0.032256 0.548853 0.325406 -0.883958 -0.234702 0.271683 0.387966 0.440027 -0.220520 -0.114117 0.119667 -0.334546 -0.304098 0.876683 0.289514 -0.278730 0.658762 -1.012366 0.501394 0.814717 0.033403 0.270324 0.187323 -0.072037 0.261921 0.395171 -0.675631 -0.139994 0.394033 0.309865 0.744332 0.147248 0.677067 0.596857 -0.719288 -0.014228 -0.070157 0.557235 0.937524 -0.886369 -0.236498 0.691793 -0.144882 -0.501492 0.023095 -0.003102 -0.306993 -0.199665 0.064122 -0.760804 -0.613014 -0.096530 0.161473 0.291044 -0.369570 -0.209241 -0.800053 -0.493069 0.487457 -0.211765 -0.332549 0.273555 -0.627894 -1.156976 -0.145930 -0.594701 -0.265918 0.483715 0.644681 0.245050 -0.274599 -0.254206 0.178771 -0.535340 -0.180046 -0.642425 -0.256936 -0.863938 -0.283475 -0.139820 -0.253710 0.263143 -0.136448 0.349602 -0.398768 -0.425325 -0.017622 -0.726015 0.541751 0.450507 -0.463248 -0.067756 0.342570 -0.214841 -0.113309 -0.315228 -0.222312 0.154645 1.280708 0.870232 -0.546728 0.211049 -0.035482 -0.675190 0.187133 0.277361 -0.458153 0.553148 -0.271839 -0.304726 
100652853 0.974886 0.527738 0.628606 0.742537 0.863590 0.401837 -2.208511 0.407903 -0.277404 0.400891 -0.399216 -1.730752 0.087779 -1.035298 0.544078 0.347490 -0.217871 1.062470 -0.080455 0.273368 0.988398 1.262528 0.056304 1.153461 0.960902 0.733099 -0.032554 -0.360392 -0.463845 0.455756 0.100945 -0.179101 -0.948123 -0.976881 1.351292 -0.868612 0.670465 -0.682124 0.812264 0.043161 0.080495 0.691046 0.405747 0.419955 1.298420 1.111927 -0.607545 -0.432163 0.225010 -0.504528 0.771791 -1.748326 0.431779 -0.193943 -0.722416 1.163548 0.410482 0.421595 -0.246865 1.185791 1.168242 0.653689 0.788333 0.184188 0.157917 0.605066 -0.663746 -0.285082 -0.158843 0.657424 0.588631 -0.450983 0.911350 -0.398833 -0.640366 1.097760 -0.937544 0.271571 0.480593 0.532256 0.015324 0.618111 0.822300 0.988574 -0.821483 -0.433935 -0.527098 0.882363 -0.257772 0.599398 0.582638 0.349855 -0.109685 -0.307266 0.285509 -0.862815 -0.335863 0.042185 0.640800 -0.033943 -0.174205 0.031603 0.440970 0.397067 -0.987951 0.578226 0.326443 0.039697 -0.135429 0.718069 -0.230638 0.607883 -0.315093 -0.238250 0.265134 -1.020853 0.566844 0.352645 0.052852 -0.644683 -0.114108 0.570011 0.490771 0.369901 0.028114 0.079921 -0.139404 -0.017957 0.627213 0.560405 -0.503380 0.586342 -0.629102 0.308220 -0.838078 -1.120201 -0.204451 0.325775 -0.895448 0.893522 0.234185 1.289288 0.532473 -0.600978 0.969732 -0.148497 -0.111277 -0.468061 0.191053 -1.627566 -1.094895 0.295935 -0.088651 -0.058556 -0.362954 -0.141454 0.616543 -0.222946 -0.912554 -0.840513 0.085083 -0.452976 0.408541 -0.389523 -1.125043 1.000072 -0.097457 0.261134 -0.303008 0.002381 0.359477 -0.354616 -0.612308 0.724964 -0.101553 -0.241590 -1.124898 0.453593 0.150368 0.222986 -1.209414 1.014926 0.251728 -0.369967 -0.077766 -0.757032 -0.124815 0.190440 -0.740273 0.882974 -0.405690 0.152701 0.938092 -0.189814 -0.309874 -0.162713 -1.277549 0.376272 0.482498 -0.670813 
10073 -1.198300 -1.380575 -2.076676 -0.626518 -0.520296 -0.840923 -1.266825 0.280315 0.221229 -0.413144 -0.640446 -1.441912 0.534886 1.220413 -0.716911 -1.522689 -0.280042 0.180304 0.265245 0.337038 0.452495 -0.572217 -0.805293 0.282852 1.344970 0.344145 -0.526818 0.487847 0.355969 -1.076288 -0.308803 0.924011 -0.932516 -0.618906 -0.216230 0.580818 1.560515 -0.116170 1.011461 0.166895 1.387320 -0.219773 -0.226659 -0.466504 0.509180 0.582317 -2.194614 0.087320 -0.764882 0.008752 2.141914 -0.791977 -1.096359 1.018286 0.305336 -0.134976 -1.448782 -0.140043 -0.277583 0.883434 0.883252 0.021365 -1.574548 -0.270737 0.244854 -0.688841 0.610478 0.285082 -0.709788 -0.475230 0.858274 0.534427 -0.449330 -0.742029 0.196484 -0.605823 -0.555140 -0.855021 0.832904 0.891130 0.601904 1.264721 0.655461 -0.168503 0.638639 -1.598010 -0.551113 1.492747 -0.278699 0.510612 0.984567 0.153106 0.290734 -1.447596 -0.028615 1.898926 1.264342 -1.002175 -0.152369 -0.100399 1.156458 -1.083883 0.355527 0.240098 1.109760 0.634988 -0.948197 -0.303276 -1.166279 0.571134 0.461158 1.013030 0.832129 0.724239 0.529872 1.566974 -0.136564 0.508459 -1.015231 -1.233187 1.173635 -1.069005 0.409333 0.328947 -0.186311 1.011478 0.731557 0.906123 -0.184441 -1.564711 -1.426728 2.132541 -1.432328 0.041096 0.142758 0.876399 -0.987192 -0.502288 0.139601 -0.503047 -0.801952 -0.053893 -0.762505 0.340598 0.667360 0.834518 0.190352 -0.305936 0.487246 -1.159185 1.060872 0.045609 1.707440 -0.203731 -0.267646 0.281477 -1.091466 -0.030618 0.273995 -1.645902 0.066787 -0.451880 0.054664 -1.289814 -0.308027 -0.284950 -0.007868 -0.878998 -0.150042 -0.544318 -0.433337 -1.941714 0.528753 -1.616710 -0.132885 -0.984149 -0.759288 -0.837678 -0.945099 -0.713527 -1.826300 -0.061426 -0.827777 -0.113318 -0.261441 -0.240258 0.943061 -0.622908 -0.501518 -2.030190 1.001744 0.559494 0.311762 -0.143973 -1.688156 0.205012 -0.470864 0.679044 -0.899766 -0.519719 
100874043 -0.343819 -0.640479 0.306815 -0.306043 -0.253290 -0.121637 -1.141824 0.714811 -0.685565 0.106512 -0.625556 -0.697399 1.216671 -1.262834 -0.001182 -0.112030 -0.354847 0.599533 -0.224417 -0.078649 0.028733 0.169153 -1.163402 -0.392667 0.648190 -0.600649 -0.420974 0.454508 -0.088686 0.593946 0.868535 -0.111766 0.004818 -0.365251 -0.233097 -0.268037 -0.062481 0.237788 -0.248379 1.313716 -0.236158 0.363301 -1.723400 0.789665 -0.050341 0.367073 -0.556550 0.578370 -0.039227 -0.509174 0.874653 -0.121951 -0.250645 1.013712 -1.404841 -0.405193 -0.000387 0.199776 -0.731076 -0.307404 0.129699 -0.426006 -0.740144 0.622866 -0.664049 -0.355215 -0.074732 -0.659853 -0.326657 -0.457255 0.375935 -0.487095 -0.836342 -0.662119 -1.288086 -0.654163 -0.662769 -0.863400 0.921713 -1.280461 0.844487 -0.472784 -0.986220 -0.363880 -0.047397 0.068853 0.208928 0.487595 0.061376 -0.227643 -1.248294 -0.716791 0.629370 0.326493 0.801055 0.293736 -0.450207 1.900400 -0.442981 0.986058 0.785320 -0.726025 0.822784 -0.282820 -0.973125 1.318211 -0.427370 -0.485446 -1.619947 1.476945 -0.457437 -1.156734 -0.077236 1.231526 -0.575625 0.576556 -0.808591 0.395734 1.165676 0.544644 -0.409596 -0.821005 0.051568 0.578142 0.486021 -0.471093 1.691410 0.387792 1.286838 0.529954 -0.079360 0.320648 0.565267 -1.134264 0.958119 0.877896 0.502558 0.533271 -0.076705 0.098996 -0.531905 1.067683 0.581357 -1.127401 -0.632666 -0.347600 0.053466 -1.057032 0.958464 -1.278066 -0.609411 -0.131492 -0.513946 0.571412 0.204715 0.452831 0.698353 -0.074767 -0.305685 0.553847 0.550724 0.005487 0.640800 0.292828 -1.014786 0.203246 -0.651177 0.387168 0.851162 1.397905 0.605794 0.543998 -0.028490 -0.139328 -0.129143 -0.167091 0.691558 -0.907118 -0.315499 0.184236 -0.107125 -0.896146 0.024564 -0.320449 0.451625 -0.483467 0.268453 -1.422236 -0.720184 0.529492 -0.104423 0.466284 -0.379932 -0.279971 0.178418 -0.080411 0.122693 2.374291 -0.342624 0.156216 
10090 0.215546 0.530282 0.781889 -1.761372 -0.350057 0.366986 -0.347220 -0.002601 -1.345684 0.657547 -0.615592 1.170000 0.702308 -0.218647 1.580494 -0.044074 0.088027 -0.042198 0.329167 -0.319684 0.442201 0.721171 -0.252441 -0.607419 1.157504 0.716628 0.045133 -0.421250 -0.018169 -0.014822 -0.400787 -0.028045 0.634927 -0.109738 0.154793 0.366698 0.441006 -0.114139 0.253133 -0.266972 0.200335 -0.359779 -0.636627 0.394790 0.292968 -0.350687 -1.223910 -1.007627 0.399662 0.262726 -0.744707 -0.272058 0.227438 0.840624 -0.005158 -0.912409 2.338436 0.328823 -0.850930 -0.077613 0.030811 -0.582364 -1.276031 0.917120 0.197519 1.072703 -0.801425 0.255835 0.451381 -0.604303 -1.156494 0.053062 0.759313 0.660990 -1.146518 -0.151747 0.160957 -0.870166 -0.134343 -0.592446 -0.787485 -0.519236 0.767174 0.064667 0.362823 -0.190195 -1.131867 0.567982 -0.677846 1.141487 -0.613744 -0.558953 0.541339 -0.014311 1.488459 1.048978 -0.559704 0.234883 -1.405384 -0.649756 -0.996911 -1.297817 -0.781959 0.754662 1.162686 0.510447 0.455290 0.634089 0.156748 0.151118 -0.313525 -0.435069 -0.211697 0.703448 -0.208124 0.894212 -0.428313 0.377652 -0.437172 -0.062644 -0.945629 0.636041 0.702771 -0.479708 -0.632376 0.521691 -0.780536 -0.214885 0.484484 -0.113320 0.450552 -0.016612 -1.379001 -0.936920 0.353890 0.134382 -0.491160 0.160591 -1.210335 -1.168087 0.832227 0.454245 1.035256 -0.679873 0.390362 -0.264718 -0.211583 -0.384484 0.084603 -0.578342 0.052488 -0.203487 -0.607918 -0.245290 -0.544541 0.587564 -0.678723 -0.024957 0.185516 -0.725842 -0.327001 0.375250 -1.105835 0.360653 0.340593 0.246488 0.912086 1.205454 -0.968560 -0.868205 -0.480387 -0.141495 -0.062359 -0.399074 -0.405775 -0.881337 0.163468 0.426430 0.759036 -0.725338 -0.156212 0.052241 -0.220244 1.234666 0.200158 -0.499881 0.588084 -1.219600 1.109650 -0.051932 0.255556 0.432582 -0.213856 -0.899999 1.296487 -0.339381 -0.065198 -0.127654 -0.923940 1.020236 
10092 -0.018636 0.002385 -0.002670 0.026682 -0.024363 0.120694 0.029786 0.016110 -0.137022 0.016056 0.018187 0.063413 0.100003 0.088746 0.022329 -0.020645 -0.018385 -0.094421 0.067102 0.011666 -0.037393 -0.021452 -0.016635 -0.009996 0.103737 0.115168 0.016690 0.000996 0.079162 -0.063741 -0.178390 0.012138 -0.060938 -0.075930 0.072609 -0.068152 0.061033 -0.041786 -0.090869 0.074349 0.138817 -0.043648 0.090470 0.027943 0.000908 0.047294 0.007212 -0.068230 -0.007966 0.050666 -0.003142 0.077856 -0.013816 0.102205 0.099086 0.074081 0.066574 0.037934 -0.020419 0.059197 0.027271 0.065587 0.042749 0.077426 0.018820 0.081051 0.087129 -0.049791 -0.008320 0.063606 0.001101 0.027893 -0.034550 0.072156 0.130327 -0.003400 0.051930 -0.007292 -0.047434 0.031448 0.119768 -0.071423 0.034151 -0.011793 -0.029545 0.162414 -0.067478 -0.017409 0.036100 0.075256 0.087430 0.013339 0.029195 -0.162337 0.014878 -0.006244 0.025871 0.103982 0.059859 0.055021 0.028714 -0.008650 -0.157870 -0.037882 -0.025194 0.001183 0.097943 -0.086729 0.019179 0.102230 0.010137 0.124361 -0.042528 0.004148 -0.047621 0.009937 0.029748 -0.087778 0.039483 -0.032950 0.073016 -0.007915 0.143048 0.078895 -0.043514 -0.054820 0.032724 0.168763 0.122811 -0.021935 -0.056998 0.082483 -0.036665 -0.093759 -0.015506 0.108516 -0.076586 -0.072839 0.004846 -0.072923 0.043301 0.143105 0.051616 0.065211 -0.031807 -0.140117 -0.088551 0.006754 0.129090 -0.051268 -0.005847 0.116443 0.053878 0.116674 -0.052892 0.067073 -0.000345 -0.058323 -0.122096 0.127498 0.056252 -0.030779 -0.011386 -0.025319 -0.009623 0.039717 -0.022584 0.087846 -0.008028 -0.070295 -0.108013 0.106116 -0.020434 -0.085482 -0.080776 0.049115 0.045425 -0.128396 -0.014127 0.020038 -0.029700 0.020313 -0.008778 0.113052 -0.067064 -0.000010 0.036080 -0.020433 -0.040663 -0.015102 0.045587 -0.007038 -0.010016 0.087312 0.030841 -0.053219 -0.080599 0.050934 -0.104687 0.042745 
10093 -0.673529 -0.041174 0.058185 0.097132 0.086493 -0.017092 0.192808 -0.028625 -0.266492 -0.397780 0.187104 -0.218435 -0.194300 -0.044400 0.052397 0.246456 -0.087169 -0.037908 -0.246676 0.334330 0.463169 -0.256679 -0.127044 0.510484 -0.159210 -0.208893 -0.062240 0.124604 0.413140 -0.549955 -0.391620 -0.387191 0.412200 -0.027184 0.411295 0.492965 0.065912 0.085300 -0.340568 0.231988 -0.069571 -0.643436 -0.479775 0.118400 0.210552 0.270727 -0.004597 -0.459681 -0.120724 -0.344538 0.123937 -0.237562 -0.260582 0.207023 -0.108952 0.188132 0.623910 0.653476 0.060880 -0.088826 -0.175812 -0.545830 0.039143 -0.408833 0.273260 -0.282958 -0.003104 -0.248359 -0.083865 -0.257171 -0.133674 -0.117917 0.231866 -0.159658 0.567218 -0.051739 0.158357 0.224563 -0.312487 -0.014057 -0.387646 0.026676 -0.143998 -0.104149 -0.632118 -1.082144 0.001989 0.301726 0.150682 0.163334 -0.695670 -0.663281 0.044028 -0.088221 -0.154671 -0.295818 -0.222787 -0.888794 -0.695537 -0.221024 0.441995 -0.042840 0.378582 0.016108 -0.189650 0.384066 0.025370 -0.304957 0.698790 -0.051037 -0.171896 0.545648 0.415667 0.586141 -0.605409 -0.176716 -0.298521 0.062995 0.200310 -0.491937 0.322326 -0.281416 -0.056502 0.109467 -0.116804 0.058202 -0.043083 -0.256568 0.115768 -0.067288 0.021092 0.411092 -0.090327 0.407744 -0.415184 0.156316 0.306139 0.017486 0.005502 -0.291870 -0.028103 0.200492 -0.126029 0.199693 -0.192724 -0.273313 -0.160932 -0.403413 -0.191578 -0.490323 -0.231555 -0.411633 0.199281 0.183410 -0.142099 0.089788 0.508784 0.309750 -0.474965 0.096995 -0.075692 -0.721654 0.056192 -0.278625 -0.258516 0.093456 -0.036011 0.384361 -0.103623 0.032791 -0.256053 0.557992 0.063787 -0.129061 0.079508 -0.234424 0.319497 -0.336941 -0.122294 -0.353796 -0.038098 -0.751506 0.029384 -0.254812 -0.689534 -0.313162 0.188313 -0.468231 -0.822615 0.052233 0.143540 -0.102860 0.070873 -0.363457 -0.224561 -0.197026 0.759538 0.279832 -0.580881 0.590143 
10094 -0.055752 -0.000369 -0.005279 -0.020661 -0.207708 0.061438 -0.044547 0.098366 -0.173985 0.060595 -0.142779 -0.082051 0.085604 0.045434 -0.108153 -0.202278 0.026676 -0.108655 0.020347 -0.012130 -0.023908 -0.118094 -0.114656 -0.015501 0.152623 0.073580 -0.089906 0.051705 0.019459 0.010375 -0.212494 -0.074167 0.008945 0.128764 0.077598 -0.004866 0.033795 0.065740 -0.108494 0.164618 -0.000802 0.053909 -0.010055 0.080394 0.161361 0.050230 -0.050367 -0.125045 -0.018049 0.030392 0.061194 0.018028 -0.032044 -0.009207 -0.043317 0.034738 0.064113 0.140808 0.083781 0.178732 0.134696 0.095190 0.032834 0.164692 0.052052 0.138251 0.160570 0.155734 -0.021912 0.103732 -0.105476 0.020826 0.009996 -0.041657 -0.079988 0.061380 -0.040057 -0.031264 -0.083055 0.064786 0.105346 -0.139977 -0.103226 0.126549 -0.017373 0.195492 0.009737 0.010042 0.028576 0.130847 0.016834 -0.062832 0.038601 -0.012766 0.049493 -0.026576 0.086070 0.027973 0.105003 0.021061 0.011828 0.001792 -0.161945 0.010537 -0.013864 0.011647 0.185716 -0.034194 0.013113 0.065098 -0.048448 0.127950 -0.039236 0.011777 0.015701 -0.076406 0.088851 -0.085234 -0.020339 0.054605 0.178146 0.132563 0.142990 0.121233 0.019442 0.079882 -0.115897 0.324103 0.065069 0.048412 -0.052452 -0.055806 -0.189639 -0.033797 -0.062434 0.169123 -0.032168 0.064936 0.069108 -0.028846 -0.089740 0.193653 -0.023189 0.130487 0.006108 -0.052319 -0.066676 -0.068295 0.084457 -0.014055 -0.052469 -0.004310 0.063565 -0.027699 0.092135 0.070106 -0.056922 0.126720 -0.129467 0.092310 0.057647 -0.054696 0.038247 0.095045 -0.020542 0.088108 0.095775 0.141307 -0.080848 -0.107303 -0.079680 0.106189 -0.085850 -0.179305 0.071986 -0.000103 0.083610 -0.165492 -0.074784 0.071756 -0.039734 0.073071 0.041009 0.134636 -0.083986 -0.124113 0.039838 0.025713 0.048805 -0.064689 0.107069 -0.030031 0.042389 0.064115 0.071691 -0.115256 -0.106884 0.107806 -0.098752 0.028070 
10095 -0.974661 0.559284 0.018648 -0.084313 0.241998 -0.079891 -0.194623 -0.272632 0.378747 1.071660 0.083415 -0.299705 0.689792 -0.716855 0.175269 -0.914775 0.570169 0.979506 -0.361223 0.038720 -0.175689 -0.370790 -0.984173 0.450410 0.863105 0.250638 -0.181470 0.459364 0.353566 -0.036581 0.032576 0.339515 0.497336 -0.146113 -0.206961 0.756976 1.193202 0.433247 1.047582 0.165473 -0.573100 -0.383605 0.725801 0.134296 -0.558263 -0.998668 -1.617491 -0.227940 0.034716 0.795675 1.201220 -0.013475 0.010030 0.110361 -0.094647 0.462737 0.228222 0.962033 -0.233077 0.050153 -0.083349 -0.020686 0.518046 0.552073 1.057138 -0.263765 -0.761590 -0.783554 0.234246 1.461698 -0.083852 0.366155 -0.467393 -0.701201 -0.610050 -0.122681 -0.608726 -0.387133 -0.535653 0.931556 0.666701 0.502418 0.096003 0.370267 0.200010 0.489738 0.490528 -0.205162 -0.733125 -0.157651 0.596358 0.290813 -0.570985 0.136798 -0.833097 0.366182 -0.182298 0.006036 -0.350982 -0.340657 0.078210 0.314402 0.271845 -0.842050 -0.151939 -0.476186 -1.072448 0.060808 0.989472 0.525958 0.044287 1.141634 0.296750 -0.159988 0.037445 -0.319877 1.249942 -0.036709 0.812027 0.357802 0.406130 0.237812 -0.342341 0.208398 0.906866 -0.227789 -0.017288 0.864567 -1.043544 1.245226 -0.505850 0.424053 0.133661 0.132302 -0.757616 0.729802 -0.912607 0.031559 0.478490 -0.380008 -0.365411 -0.606794 -0.023912 1.158300 -0.124954 -0.418500 -0.922261 -0.063319 0.011802 -0.390160 -0.185346 0.288679 -0.011940 1.005131 0.464754 -0.659931 -0.052973 0.114556 -0.079067 -0.532892 1.157974 1.023351 -0.232955 0.451341 -0.244489 0.079684 -0.115421 -0.749203 0.651116 0.492142 -1.687884 0.466939 -0.066997 0.321687 -0.163558 -0.085152 -0.082005 -0.799455 -0.038438 0.174544 -0.062909 -0.258195 0.001760 0.854359 -0.975679 -1.643671 0.084396 0.303535 -0.668384 -0.152737 0.252015 0.927690 -0.026407 0.537771 0.486035 -0.291886 -0.729248 -1.182694 -0.733451 0.415425 
10096 -0.037276 -0.184063 0.324742 0.040576 -0.025100 0.166403 -0.096479 -0.049413 -0.017579 0.190424 0.015548 0.055633 0.061050 -0.007387 -0.010230 -0.046047 -0.024447 0.002418 0.002671 0.020761 -0.037593 -0.002917 0.096337 -0.043758 0.100098 0.233847 -0.203829 0.064067 -0.046798 -0.147886 -0.119385 0.149771 0.135590 -0.267928 0.067580 -0.168020 0.122433 -0.270219 -0.091351 -0.004146 0.198807 -0.027019 0.134706 0.119421 0.175791 0.059292 -0.029854 -0.172389 0.030984 0.147893 0.076199 0.002913 -0.062044 -0.068924 0.112670 0.044815 0.029444 0.252021 0.127094 -0.023204 0.149167 -0.011751 0.023348 -0.054681 -0.008563 0.139259 -0.061900 0.087423 0.008221 0.000403 0.064297 -0.151884 0.067447 0.173006 0.162818 -0.090740 0.043412 0.018815 0.037121 -0.039767 0.141845 0.070961 -0.163485 -0.018190 0.032956 0.031785 0.074977 0.152926 0.087205 0.293803 -0.067572 0.044457 -0.171447 -0.018036 -0.250521 0.076137 0.074152 0.059912 0.002065 -0.000930 0.155250 -0.203283 -0.506866 -0.081300 -0.160783 -0.016156 0.018682 -0.130823 -0.061676 0.207551 -0.068473 0.062944 -0.113693 0.164126 0.033914 -0.160976 -0.025641 0.054415 0.034924 -0.098620 0.037414 -0.008061 0.036314 0.185545 0.185886 0.082436 0.118508 0.157702 0.164001 -0.160430 0.178302 0.208237 0.068621 -0.025361 -0.245271 0.005102 -0.020617 -0.007002 0.003605 0.102547 0.097946 0.056120 0.112605 0.153834 -0.080999 -0.163347 -0.166694 0.068904 0.258392 0.030009 0.159946 -0.046966 0.130611 0.134622 -0.007087 -0.126844 0.047629 0.037089 -0.149589 0.065972 0.012163 -0.014522 -0.115587 -0.008398 0.022298 -0.134522 0.113007 -0.095058 -0.024473 -0.102354 -0.172500 0.200839 0.102736 -0.102612 -0.106847 0.059165 -0.074575 -0.096827 0.072506 -0.028976 0.040377 0.133166 0.056987 0.066711 0.205191 0.003771 -0.002290 -0.044947 -0.048239 0.270868 0.152533 0.024666 -0.060756 0.089431 -0.019873 0.041155 -0.052950 0.118031 0.011963 -0.122930 
100996485 -0.620144 -0.740907 -0.082184 -0.674848 -0.028573 -0.473428 -2.161750 0.286419 0.422670 -0.650358 -1.159694 -0.769898 0.796310 -0.777704 0.104519 -0.383828 0.249369 0.334971 0.831640 -1.097212 -1.168022 -0.229934 -0.247067 0.255566 0.210947 0.574204 0.255336 0.299443 -0.466305 -0.243982 -0.254233 0.613245 0.222362 -1.373346 0.152319 -1.092151 -0.020980 -0.485924 0.860377 0.016471 -0.423831 1.182506 -0.873737 0.021020 -0.658606 0.397932 0.179982 -0.359105 0.129036 0.547904 0.037729 -0.239347 0.113387 -0.723401 1.223816 0.989581 -0.269560 0.404942 -0.748129 0.124480 -0.159677 -0.640660 0.475718 0.015803 0.199008 0.251168 -0.440282 -0.001595 -0.096306 0.081876 -0.165193 0.444361 0.544962 -0.305522 -0.746667 -0.354589 1.018045 0.465674 -0.190552 1.267290 -0.607943 -0.807666 -0.725275 -0.038460 0.485475 0.823216 -0.481844 -0.256713 -0.327536 -1.296635 0.303194 0.028709 0.807380 -1.072076 0.049684 -0.123548 -0.000548 -0.400583 0.603055 0.554186 0.080194 -0.207103 -0.322750 0.776109 -0.489492 0.331019 1.008683 -0.682641 -0.274791 0.460053 0.007745 0.192233 0.775395 -0.271189 -0.244253 0.561370 -0.916380 -1.103435 0.888449 -0.329091 1.104907 -0.788682 -1.433252 0.494075 0.045922 0.234046 -1.271599 0.637934 -1.052289 1.155800 -0.365106 0.392781 -0.582292 0.731500 -0.994085 -0.131298 -1.261193 0.201268 1.096849 -1.334167 0.326578 -0.116030 0.202764 -0.212311 -1.809154 -0.064500 0.115303 0.810330 -0.824531 -1.153584 0.953520 -0.375532 0.290368 0.917436 -0.995787 -0.565763 0.677165 -0.386273 -0.192674 1.063068 -0.288994 0.174752 0.013785 0.341043 -0.543296 -0.103337 0.911580 0.790642 -0.331788 0.011060 -1.309198 0.735042 -0.437830 -1.551332 0.363155 -0.136021 0.208565 -0.627972 -0.831696 1.770594 -0.995286 -0.836841 0.038336 -0.795982 -0.512169 -1.163498 -0.736505 0.093205 -0.164959 0.841387 -0.816034 0.896536 -0.217618 -0.065376 0.441680 -0.187278 0.560964 0.312839 -0.313565 0.920675 
10102 0.019227 -0.129550 0.083408 -0.126021 -0.360959 1.062049 -1.110885 -0.371582 0.712801 0.284238 -0.917027 -0.180691 0.470043 0.854475 0.028912 0.086632 -0.156219 0.507833 -0.237680 -0.885796 -0.734820 2.044312 -0.401437 0.126053 -0.639281 1.324167 0.765734 0.483069 -1.266788 -0.153240 -1.182400 -0.355757 0.576594 0.321515 -1.387075 -0.673619 -0.636578 0.001659 -0.724135 -0.121473 -0.650030 -0.377090 0.488114 0.199049 0.526964 0.788849 -0.037058 -0.829377 -0.276462 -0.447219 0.126960 -0.714020 0.642038 0.598996 0.194402 -0.150505 0.821332 0.952412 0.522519 0.863791 0.545632 -0.894232 0.073306 0.797619 -0.483092 -0.503632 0.483087 0.219778 0.140718 -0.802118 0.484622 0.826382 -0.419333 1.806349 -0.073105 -0.048548 -0.537606 -1.165911 1.018056 0.131480 -0.332218 0.968278 -0.928555 1.169151 0.445990 0.216623 0.026057 1.100934 -0.256208 -0.165176 0.210069 -1.271977 0.040732 0.583318 -0.805377 -0.643115 0.088954 -0.301327 -1.151484 -1.535533 -0.388579 0.272105 -0.294638 -0.468069 0.274793 0.643470 -0.826782 -0.611390 0.436249 -0.164865 0.009331 0.323103 0.002708 -0.280080 1.173676 -0.513404 0.017339 0.103720 0.175087 -0.664145 -0.769497 1.518680 -0.198633 0.219402 0.564655 0.336305 -1.172540 1.280587 0.839793 -0.399929 0.138595 0.427783 -1.062246 1.245821 -0.293364 0.278653 -0.085828 -0.615118 0.185201 -0.118243 0.069097 -0.323528 1.103548 0.827977 -0.391881 0.804177 -0.008152 -0.847254 0.569427 -1.095032 0.238209 0.100287 0.406626 0.131946 0.497046 0.135004 0.349120 -0.014271 -0.994536 0.370443 -0.653675 -0.803336 0.297620 -0.647791 -0.865553 0.669694 -2.015369 -0.425150 0.372736 -1.264761 -0.668224 0.244751 -0.609767 0.486173 -1.052273 0.344721 -1.835320 -0.055603 -0.482141 0.252882 0.018057 -1.326808 0.324721 -0.154997 0.027535 -0.277069 -0.286684 -0.461739 -0.164849 0.756655 0.970311 -0.402830 0.871463 -0.202787 0.366825 0.068296 0.712039 1.008975 -0.276978 0.439677 
10105 -0.691149 1.096911 1.277013 0.449265 0.072472 -0.273767 0.616728 0.158491 -0.112960 0.855187 0.993754 -0.988457 0.190084 -0.453209 0.140681 0.311404 0.378247 0.450681 1.580530 -0.255576 -0.594261 0.258640 -0.138233 -0.476186 0.675074 1.012982 0.589988 -0.410081 1.037178 -0.839040 -0.207682 -0.012982 0.166939 0.688865 -0.884675 0.678632 -0.210421 1.248090 0.166413 -0.513753 -0.412819 -0.307961 0.471160 0.312620 0.757304 0.278626 0.252398 -0.154245 -0.305113 -1.072545 0.749705 1.526075 -0.175954 -0.245473 -0.584648 -0.326028 1.308094 0.987615 -0.272701 0.748019 1.241051 -0.434795 -0.845537 -1.213961 0.516721 1.220303 0.254074 1.004760 1.290093 -1.337502 0.133103 0.694803 -0.342075 -0.230685 0.514793 0.551537 0.616000 0.099468 0.000610 1.137770 0.215505 0.496111 0.045721 0.862941 0.243763 -0.457528 -0.468371 0.875324 -0.331890 -0.230773 1.079242 -1.415667 0.836390 0.028267 -0.183626 0.158399 -0.310862 0.286916 -0.278255 0.403982 0.140374 -1.438694 -1.341918 -0.064101 0.306783 0.331175 -0.038444 -0.657572 -0.027019 1.865242 0.776038 -0.381431 -0.087084 0.180834 0.319829 0.331701 -0.426258 0.746333 1.175516 -0.688715 -0.644167 -0.464433 0.001953 0.643929 0.464535 -0.018986 -0.620549 0.169126 -0.299437 -0.204633 0.879648 -0.786588 -1.037452 0.077274 -1.274503 1.155777 0.134705 -0.822418 -1.387921 1.246890 -0.160328 0.129536 -0.103551 0.442234 -0.598722 0.269563 -0.561756 0.439847 0.048982 -0.664033 -0.886297 0.773636 0.314818 -1.180944 -0.577675 -0.419480 -0.584209 0.614234 -0.081053 -0.558419 -1.038410 0.359691 -0.374152 -1.070350 0.665938 0.649993 -0.376427 -0.263370 0.577978 0.692563 0.640360 -0.595792 0.473384 -0.139386 -0.634274 -1.101432 -1.078809 -1.837169 0.642812 -1.165265 -0.946564 0.758706 0.789080 -1.144615 -0.262978 -0.209735 0.265510 0.258900 0.227401 -0.463644 1.043066 0.616709 0.409177 -0.360465 0.930597 0.470533 0.491461 0.655009 -0.196002 -0.319019 
10109 -0.126815 -0.038802 -0.031270 -0.027870 -0.051469 0.014709 0.076429 0.010295 -0.205967 0.046199 -0.121877 -0.082561 0.114035 0.042766 0.044987 -0.023130 -0.019648 0.045234 0.051264 0.011312 -0.001609 -0.090537 0.061391 -0.029175 0.111370 0.147379 -0.071433 -0.053378 0.151357 0.091832 -0.102394 0.002431 -0.143652 -0.092758 0.037321 -0.152269 -0.018971 -0.023920 -0.003500 0.050432 0.106758 -0.127576 0.125907 0.048619 -0.026226 0.064312 -0.015273 -0.073279 0.072512 -0.004390 0.096088 -0.030010 -0.024844 0.182831 0.082077 0.095009 0.067970 0.004816 0.001858 -0.065076 0.124875 -0.044096 -0.044854 0.186573 0.109529 0.033558 -0.069683 0.009470 -0.061641 0.107748 0.017904 0.132196 0.012967 0.136294 0.087373 -0.217106 0.028319 0.134770 -0.016111 0.069317 0.014346 0.009827 0.000163 -0.050655 -0.063388 0.070035 -0.060873 0.053698 -0.114366 0.024249 0.079722 -0.115892 -0.073997 -0.026635 0.040657 0.014653 -0.027359 -0.052855 -0.062283 0.091186 -0.047508 -0.008940 -0.028757 -0.050213 -0.014622 -0.016336 0.043795 -0.052938 -0.040605 -0.025365 -0.008635 0.074553 0.078165 0.053873 -0.041261 -0.031192 0.036869 0.017288 -0.014428 -0.047594 0.113820 0.071461 0.079605 0.092884 -0.026828 -0.011416 -0.055031 0.108303 0.177926 0.062133 0.039060 0.043295 -0.062447 -0.040749 0.121051 0.108486 -0.052241 -0.030893 0.004619 -0.125842 0.084349 0.102446 0.182641 0.028242 -0.090251 0.010900 -0.114111 0.107479 0.149440 -0.064565 0.057916 -0.063593 -0.022043 0.107997 -0.026621 0.107086 0.104067 -0.008087 -0.052900 0.106185 0.042754 -0.125329 0.027872 0.076335 0.045110 -0.025308 -0.153198 0.103408 -0.043457 -0.054178 -0.090400 0.048217 0.054901 -0.010381 0.031114 -0.094169 -0.075628 -0.020077 0.102278 -0.055856 -0.107193 -0.014788 -0.130152 0.222086 0.021401 0.015542 0.106648 -0.069738 0.024938 0.018447 0.100152 -0.108126 -0.009630 0.059229 0.060776 -0.110074 0.084318 -0.000363 0.074885 0.187948 
10116 -0.295843 0.663700 -0.651871 -0.112077 -0.158901 -0.756037 -1.773843 -0.026954 -0.756650 -0.060767 0.312113 0.287936 0.293895 -0.615838 -1.099163 -0.826429 0.291168 0.620113 -0.642547 0.058675 0.078497 0.840461 0.181227 -0.242934 -0.243583 0.981770 -0.129759 -0.853575 0.505786 0.628291 -1.207591 0.780617 0.622168 -0.597598 -0.629284 -0.642815 0.582417 -0.111701 0.306834 -0.915915 0.501434 0.483822 -0.987240 1.879170 -0.339811 0.394695 0.220715 0.753928 0.590955 0.627535 0.855645 1.469170 0.704520 1.146548 -0.306676 0.402324 0.378230 1.002402 -0.912032 0.672617 0.651549 0.806143 -0.342027 -0.007985 0.421537 0.364478 0.643833 -0.365402 0.018637 -1.105429 0.843904 0.048930 -0.129000 -0.139674 -1.639919 -0.111379 0.266343 -0.276352 -0.505777 1.266241 -0.005707 1.022430 -0.041062 -1.133666 0.340283 -0.244844 -1.562316 1.440259 0.433906 -0.328690 -0.337501 0.098722 -0.438546 -1.365848 -1.039115 0.851106 -1.280925 -0.375554 0.525768 -0.552319 -0.854043 -0.145766 -0.059875 0.331201 -0.952245 1.471184 1.248866 0.067854 -0.310676 -0.918064 -0.112603 -0.612374 0.374890 -0.844595 -1.177583 -0.003352 -0.494436 -0.702781 0.129631 0.482118 1.196233 -2.120286 -0.205839 0.520825 0.214746 -0.736775 0.253915 -0.671989 -0.013900 0.005738 0.372230 -0.644799 0.033015 0.558707 -0.357870 0.655505 -0.318169 0.078389 -0.374069 -0.734713 0.691603 -0.501893 0.598695 0.721586 -1.021415 -0.280919 1.631078 0.096433 -0.977347 -0.993890 0.244315 -0.884463 0.097129 -1.222845 -0.165492 -0.270920 0.037746 -0.133163 0.675990 1.180327 0.569646 0.573694 -1.755811 -0.140879 -0.360409 -0.216301 -0.988166 0.690616 0.092178 0.889286 -0.244073 -0.257804 -0.422122 0.430415 -0.003080 1.190844 -0.671101 0.622743 1.062022 -0.275358 -1.152363 0.319943 -0.183428 -1.462664 0.212801 -0.860115 -0.778885 -0.966267 0.050927 -0.157411 0.332487 1.303172 -0.325640 -0.098565 0.232000 1.697832 0.052447 -0.904531 -0.203028 0.424987 
10121 0.628332 -0.638532 0.404782 0.176878 -0.098231 -1.362323 0.813627 0.335019 -0.816436 0.975596 -1.287275 -0.000007 0.693249 0.049221 -0.476470 0.323508 -0.335728 0.583927 0.475278 -0.533831 0.278966 0.244270 0.660531 0.199481 0.954955 1.241832 -0.817799 1.606758 -0.610474 -0.523162 0.904530 0.226727 -0.205842 -0.359909 -0.129493 1.117647 0.029203 0.673656 -0.428710 0.392055 -0.338101 -0.294220 -0.888392 0.092627 0.350080 0.544332 -0.781548 0.787301 0.274334 0.421459 1.631416 0.122365 0.958970 0.837063 1.273914 0.355866 -0.387744 0.524465 0.480816 0.912760 0.941258 0.547214 -0.586938 -1.482036 1.148614 -1.147389 0.066638 -0.312144 -0.935859 -0.801033 0.911935 0.669757 0.469606 1.505589 0.105704 -0.695793 -0.218066 0.269324 0.557105 -0.455978 2.028650 -1.142869 0.277718 0.184907 -0.957518 -0.002079 -0.642366 0.531507 -0.872115 0.884533 -0.084284 -0.243201 -0.312375 -0.558883 0.655939 -0.586434 -0.055290 -0.821507 -0.851858 -0.012960 0.513841 -0.029775 -0.581332 -0.904059 -0.106194 -0.593415 -0.644478 -0.816336 -0.194939 -0.063050 0.105625 0.960521 0.446494 0.138937 0.864284 0.137997 -0.238881 0.393130 0.334015 -0.406674 0.078268 0.350444 -0.182444 1.463428 -1.053061 -1.016676 0.530882 0.399256 0.684372 0.753702 -1.075483 0.592363 1.134899 1.081403 -0.331016 1.051012 0.936303 0.806243 0.485016 0.398866 0.338317 -0.215564 1.039793 1.076488 -1.030081 0.029496 -0.177058 0.792814 -0.029172 -0.380738 0.337746 1.076417 -0.060472 0.607858 -0.749249 0.692580 1.720846 -0.324230 0.812474 0.205553 0.023274 -0.053285 0.249793 0.381804 -0.701070 0.137668 -0.102114 0.784132 0.939460 -0.474475 -1.701708 0.136923 0.235003 -0.877357 0.223288 -0.678564 0.783376 -0.518842 0.435309 0.903140 -1.125062 -0.777019 0.580859 -0.094198 0.984815 -0.031796 -0.058462 -0.638300 0.566986 1.425789 0.639524 -0.992008 0.609463 0.578772 0.228759 -0.800047 -0.136541 0.117635 -0.348355 -0.075193 
10124 0.042998 -0.096695 0.011364 0.031506 -0.028322 0.140080 -0.034078 -0.001604 -0.176986 0.018972 -0.040871 0.059935 0.070673 0.111537 0.023868 -0.016177 0.007176 -0.093229 -0.000064 0.019418 0.057255 0.077242 0.006677 -0.018872 0.035294 0.134448 -0.061690 -0.115359 0.033711 0.063341 -0.173858 0.096134 -0.126867 -0.039032 0.074038 -0.060762 0.025941 -0.059663 -0.072467 0.062492 0.163492 -0.093193 0.031075 0.029579 -0.051547 0.079615 -0.031205 -0.107653 -0.057984 0.048040 -0.048500 0.104638 0.011445 0.028070 0.037421 0.045299 0.057325 0.033590 -0.036169 0.072370 0.138411 0.045836 -0.009041 0.080249 -0.001223 0.117231 -0.002218 -0.002182 -0.011905 0.003423 -0.026500 0.029085 -0.037294 0.051516 0.103260 -0.002471 0.060966 -0.011550 -0.083466 0.039225 0.074846 -0.009234 -0.084846 -0.018050 0.026947 0.093911 -0.034413 -0.018990 0.061644 0.066527 0.065809 0.058917 0.072102 -0.161365 0.026415 -0.043821 -0.000597 0.071589 0.024693 0.035192 -0.133904 0.009832 -0.066380 -0.081802 -0.045716 0.038964 0.116063 -0.028684 0.029814 0.033666 0.021306 0.127822 0.069249 0.040537 -0.065353 -0.059936 0.010918 -0.077185 -0.031050 0.015734 0.025087 0.061259 0.062153 0.064457 -0.048149 0.029008 -0.073120 0.079412 0.117654 -0.071855 -0.106042 0.115758 -0.051595 0.002266 -0.047729 0.063291 0.031784 -0.116682 0.003518 -0.054345 0.129591 0.126534 0.087380 0.069070 -0.053972 -0.087860 -0.039433 0.064516 0.177115 -0.010134 0.023269 0.046934 0.115021 0.052090 -0.029335 0.074057 -0.005085 -0.021005 -0.085420 0.092500 0.016606 -0.087798 -0.002953 -0.039612 -0.013563 0.069501 -0.014529 0.100288 -0.107739 -0.053845 -0.057517 0.036502 0.069161 -0.134960 -0.026343 0.117681 0.052330 -0.090633 -0.005986 0.038269 -0.044214 -0.054144 0.077930 0.207336 -0.074133 0.055896 -0.000515 0.034217 0.013520 -0.008940 0.064586 -0.040023 -0.072131 -0.011841 0.074551 -0.097624 0.000676 0.013403 0.015388 0.065355 
10135 0.050889 -0.164787 0.071734 -0.035786 -0.041582 0.139733 -0.139564 0.108501 -0.096160 -0.183983 -0.104467 -0.036520 0.056053 -0.014224 0.265454 0.026961 0.069631 -0.079180 0.005289 -0.004454 -0.026579 -0.026620 -0.234634 -0.086187 0.115768 0.205102 0.032760 -0.143890 0.123460 0.035183 -0.040177 -0.060535 0.063686 0.173607 -0.052349 0.048806 0.099084 -0.151094 0.166960 -0.020229 0.211324 -0.209987 -0.074328 -0.005444 0.077086 0.041469 0.334695 -0.094434 0.041809 -0.075874 -0.073859 0.012746 -0.030257 0.128608 0.066153 0.036350 -0.315216 0.085340 -0.189064 0.359489 0.168022 0.256559 -0.148189 0.209940 -0.125411 0.280556 0.013305 0.009486 -0.070455 0.015390 -0.001846 0.279419 0.188810 0.097232 0.109326 -0.278825 0.167955 -0.057791 -0.016367 0.085171 0.104511 0.058866 -0.065326 -0.207332 0.096864 -0.062072 0.010416 -0.166258 -0.102858 0.051107 0.072980 0.201101 -0.132182 -0.130361 0.019083 0.166373 0.015516 0.252152 0.100158 0.053013 0.164024 -0.052727 -0.111560 0.146835 -0.007781 0.186503 0.110263 0.071769 -0.044324 0.044369 0.160713 0.363536 -0.172681 0.024415 -0.141653 0.147300 -0.320253 -0.100776 0.165445 0.007680 -0.088004 -0.154083 -0.217167 0.112439 -0.092063 0.114231 -0.083040 0.126479 0.150882 -0.015867 -0.077576 0.292280 0.153197 0.123880 -0.266887 -0.149655 0.044228 -0.289656 0.080233 -0.075803 0.162110 0.180132 -0.009046 -0.142883 -0.127407 -0.058551 0.015790 -0.011498 0.180630 -0.007429 0.051059 0.061338 -0.001869 0.169424 -0.042656 -0.039414 0.122113 -0.053246 0.073808 0.243269 0.157681 -0.194847 0.096538 -0.032072 0.229137 0.162438 -0.249646 0.055049 -0.151149 -0.081245 0.010996 -0.168460 0.008330 -0.074449 -0.260924 -0.072432 -0.061370 -0.140521 -0.146301 0.171689 -0.155487 -0.042135 -0.080298 0.170938 -0.014958 0.201775 -0.085083 0.030082 0.097872 0.078769 0.141821 0.036750 -0.128047 -0.179955 0.011268 -0.072017 -0.026111 -0.012009 -0.133228 -0.020164 
10138 -0.542010 0.278126 -0.460847 -0.168045 0.098919 -0.256918 -0.614084 -0.429558 0.127859 -0.269694 0.428813 -0.140194 0.114813 -0.047998 0.027041 -0.014593 -0.421092 0.048283 0.402104 0.646516 0.182279 -0.872169 -0.059228 0.411565 0.362259 -0.370670 0.408426 -0.218829 0.070791 0.133911 -0.164574 0.384803 -0.020774 0.151383 -0.140418 0.308525 -0.249928 0.062686 0.195459 -0.582940 -0.083594 -0.846644 0.047108 0.052580 0.303989 0.365043 -0.145344 -0.711340 0.346729 -0.068009 0.499783 -0.005016 -0.025184 0.431674 -0.381525 0.220807 0.462054 0.494981 -0.091122 0.323739 0.026193 -0.392122 0.120429 -0.261087 0.822731 0.613331 0.096689 -0.395299 -0.433195 -0.372115 -0.132905 0.620525 0.321985 0.490418 -0.527440 0.053429 -0.172301 0.348174 -0.019242 0.339367 0.317270 0.191830 0.224186 -0.485139 -0.348308 -0.158540 -0.161706 0.345508 0.116135 -0.114567 -0.242190 0.524128 -0.047732 -0.089041 0.139873 -0.506028 0.412841 0.149126 0.445837 -0.006540 0.379900 -0.335144 -0.444766 0.430566 0.116739 0.792030 0.336092 0.295850 -0.032767 -0.352274 0.252155 0.209592 0.458763 0.294235 -0.267069 -0.110235 0.058138 0.291526 0.158059 -0.008577 0.134712 -0.199467 0.116331 0.584264 0.172042 0.518104 0.130155 0.086675 -0.034662 -0.588942 0.171978 0.411471 -0.006764 -0.286695 -0.080880 -0.417204 -0.262004 -0.493922 0.232574 -0.236792 -0.034112 0.301634 -0.089689 0.211403 -0.009440 0.085496 -0.799191 -0.168202 -0.114011 0.399405 -0.400658 0.038046 -0.283210 -0.141920 0.383564 0.155103 0.208516 0.302251 -0.959835 0.557477 -0.259609 0.064056 -0.084566 -0.377081 -0.114285 0.330464 0.098691 -0.122118 -0.023895 0.268199 -0.055679 0.216066 0.113777 0.178197 0.114292 0.006976 -0.246362 -0.246258 -0.179759 -0.393131 0.321591 -0.106910 0.073550 -0.091160 -0.058951 0.879295 -0.142193 0.335388 0.399119 -0.343895 0.157944 0.386035 0.373269 0.266463 0.288904 -0.315113 -0.181601 0.485397 -0.076132 0.180817 
10139 -0.428148 -1.019040 0.941258 -0.580031 0.209256 -0.408957 -0.390814 0.273710 -0.130769 -0.162697 -0.835117 -0.101744 1.221244 0.539858 0.117577 -0.928439 0.676561 0.091966 -0.278282 0.088269 -2.284147 0.563004 -1.299034 -0.214123 -0.144520 0.947548 -0.403081 -0.741001 -0.020218 -1.052891 0.913006 0.811376 1.722342 -0.152520 -0.358088 -0.354461 -0.303045 0.935431 -0.464790 0.003674 -0.015195 -0.151140 -2.112009 -0.541740 0.223479 1.028556 -0.653253 0.499276 -0.811332 0.099631 1.492368 0.383565 0.753717 0.581008 -0.543294 0.902619 -0.473643 0.142706 0.165934 0.930581 0.450002 0.091444 0.824072 -0.217030 -0.941720 0.767932 0.699228 0.516361 0.717472 0.158772 -0.164992 -0.155400 0.182060 -0.378704 -0.296897 -1.066174 -0.451958 0.628111 0.680628 0.080284 -0.022748 0.667144 -0.368089 0.914074 0.636773 -0.154049 0.515451 0.985349 0.149533 0.730621 0.778250 -0.552381 0.006259 0.107351 0.434649 -0.997081 -0.193869 0.074064 -0.238237 0.652684 -0.713164 -0.683786 0.223196 -0.299517 -0.786700 -0.252448 -0.091511 0.683231 0.808435 0.006809 0.179519 0.785802 -0.373224 1.055296 -0.529497 -0.191477 -0.377805 -0.313027 0.940782 0.161957 0.775262 0.590836 -0.483703 -0.125973 0.032104 -0.438237 -0.066681 0.024153 0.010181 -0.013664 -0.399863 -0.350160 0.246977 0.570945 0.860172 -0.836768 -0.077205 1.440852 0.959322 -0.248216 -0.263549 -0.805774 0.263099 0.542663 0.675477 0.398085 -2.280363 -0.877842 -0.157834 0.564702 -0.680970 0.608601 0.509167 0.467511 0.250554 -0.803917 -0.104838 0.732597 -1.361084 0.820980 1.578443 -1.087147 -0.537007 -0.016744 0.501425 -1.114120 0.019862 0.045071 0.717760 0.086520 -0.123568 0.595456 -1.574757 0.586268 -1.240092 -0.591259 -0.351983 -0.342425 -0.104425 -0.660072 -0.652248 -0.461831 0.123908 -0.083629 0.027188 -0.592691 -0.763708 -0.410273 -0.080665 1.745385 0.199083 0.578426 0.103530 -0.366560 -0.338257 -0.941073 0.155521 0.756236 0.120939 -0.359997 
10146 0.053142 0.045833 -0.051273 0.087862 0.032865 0.150235 0.037363 -0.013796 -0.131445 -0.008619 0.050746 0.143864 0.130693 -0.074191 0.085309 0.000977 -0.047308 -0.074343 0.064988 0.029901 0.024445 0.061225 -0.197517 0.009163 0.025089 0.147994 -0.080739 -0.024046 0.020323 -0.109602 -0.168250 0.132488 0.067958 -0.066058 0.217884 -0.076233 0.053851 -0.055294 -0.035720 0.084794 0.079689 0.063804 0.063927 -0.082093 0.018947 0.100860 -0.043904 -0.029127 -0.078850 0.051537 -0.012587 0.110745 -0.012515 0.136071 0.049071 0.041408 0.000785 0.076028 -0.059613 0.071728 0.119380 -0.017400 -0.001055 0.054237 -0.042032 0.091803 0.066496 0.008993 0.017622 0.019989 -0.007473 -0.066206 -0.000049 -0.046632 -0.048517 -0.017098 0.073317 -0.050331 0.048318 0.031781 0.059742 -0.095023 -0.084195 -0.069603 0.054316 0.048549 -0.102235 0.098303 0.056726 0.099988 -0.006547 0.016110 -0.006519 -0.116546 -0.016063 -0.001317 -0.064467 0.132993 -0.077409 0.082745 0.000008 -0.064015 -0.056465 -0.016778 0.079152 0.027449 0.111382 0.014777 0.041704 0.095259 -0.008513 0.250031 -0.012036 0.040229 -0.084301 0.042558 0.053712 -0.068330 -0.033237 -0.023546 0.035698 -0.021828 0.004605 -0.039212 -0.093793 -0.006635 -0.002384 0.141698 0.110275 -0.024338 -0.048064 0.086556 -0.058742 -0.086388 -0.101961 0.079441 0.030133 -0.031986 0.117109 -0.014120 0.132637 0.151330 -0.061799 0.043012 -0.078698 -0.020842 -0.010573 -0.004668 0.171737 -0.014482 -0.083288 -0.000923 -0.025863 0.070538 0.011266 0.059374 0.038899 0.003264 -0.047426 0.067824 -0.024676 -0.164683 -0.085023 0.018330 0.046932 0.116545 -0.075899 0.186453 -0.038536 -0.021831 -0.044261 0.166981 -0.011432 -0.043621 -0.114539 0.088654 0.040905 -0.039420 -0.056165 0.022294 -0.045192 -0.005209 -0.027573 0.080903 -0.038812 -0.041722 -0.033985 -0.015121 -0.001165 0.060629 -0.044688 0.021600 0.031309 0.064759 0.010106 -0.024778 -0.041310 -0.021866 -0.071437 -0.035367 
10150 0.189686 -0.191039 0.108294 -0.181984 0.242915 0.155591 -0.067220 -0.015525 0.476493 -0.028323 -0.128282 0.332084 0.242714 -0.078434 -0.004087 -0.461109 -0.177420 0.213778 0.176177 0.161662 -0.289620 0.339884 0.330093 -0.113995 -0.313969 -0.058032 -0.146288 -0.337849 0.457105 0.128098 0.446455 0.147546 -0.130550 0.143668 -0.151163 0.150647 -0.958863 -0.379584 -0.186238 0.351698 0.502607 -0.740376 0.329932 -0.217576 -0.194431 0.066603 0.084563 -0.240411 0.376882 0.354626 0.164594 -0.032714 0.156214 0.460065 0.111707 0.017841 -0.090438 0.473211 0.392840 0.327238 0.019809 -0.159331 0.099311 0.095167 0.513547 0.434854 0.123655 -0.101331 0.365243 -0.056814 0.341235 -0.107051 -0.419430 0.274400 0.002544 -0.379749 -0.047182 -0.091805 -0.226596 0.084300 -0.048893 0.429464 0.112749 0.365113 0.213079 -0.289821 -0.054671 0.183850 0.165631 0.354476 0.068624 -0.281563 -0.040927 -0.394344 -0.229421 0.232203 -0.107690 0.317858 -0.467679 0.149340 0.302112 0.161272 -0.233458 -0.308165 0.037737 -0.022689 -0.161369 0.343527 -0.193334 0.249514 -0.716449 0.177243 -0.036695 0.448013 0.128498 -0.145264 -0.032758 0.014356 0.303703 -0.073018 0.189955 0.001907 0.020660 -0.202391 -0.521402 0.740710 0.223808 -0.036751 0.209207 0.438026 0.150530 0.281264 -0.526627 -0.258263 -0.668921 -0.057967 -0.060314 0.201324 0.073284 -0.101468 -0.753723 0.123554 -0.111406 0.235179 -0.157386 -0.068201 -0.296636 0.196318 -0.076069 -0.435126 -0.139239 0.155045 0.040812 0.273131 -0.023553 0.180676 0.467987 0.385765 -0.216582 -0.025506 0.631858 -0.587508 0.047962 0.109898 0.339420 0.335062 -0.678493 0.047412 0.077534 -0.047155 0.052016 0.204561 -0.256329 0.301313 0.053346 -0.013766 -0.886341 -0.019905 -0.041155 0.054846 -0.516070 0.213571 0.133989 -0.814719 -0.031176 -0.106360 0.050323 -0.327402 -0.572097 0.200527 0.327908 -0.376593 0.120488 -0.006109 -0.002489 0.361085 -0.403071 0.631453 0.381505 -0.046929 
10153 -0.161589 -0.381214 0.085655 0.502235 0.115596 0.037240 -0.567500 0.422429 0.269775 0.299437 0.199372 0.132551 0.369349 0.186377 -0.175266 -0.268212 -0.013140 -0.105350 0.104723 -0.316724 0.494241 0.289108 -0.173721 0.121162 0.039218 0.495125 0.547816 0.130694 -0.391588 0.008184 -0.271621 -0.047898 0.477060 -0.383392 0.011328 0.053439 0.031449 0.298020 -0.103283 0.059078 -0.247337 -0.524193 0.453964 -0.096151 0.306292 0.136872 0.048098 -0.296139 0.246590 0.207999 -0.134059 0.126513 -0.169459 0.300961 -0.294400 -0.553493 0.305280 0.534635 0.270736 -0.017310 0.679620 0.081048 0.023754 0.064074 0.302063 0.009741 0.101736 -0.122910 -0.440099 0.251067 0.280086 -0.304016 -0.247548 0.035565 0.405872 -0.107999 -0.515281 0.291432 0.088233 0.049309 0.036414 -0.039222 -0.482007 0.542625 -0.233818 0.126620 0.314287 0.087251 0.168899 0.481221 0.045366 -0.146004 -0.156759 -0.178267 0.019790 0.260348 -0.034732 0.121157 -0.104118 -0.013604 0.317948 0.368720 -0.376023 0.215682 -0.163334 0.894421 0.248105 -0.278392 -0.096722 0.401323 -0.070637 -0.037986 0.013954 0.506027 0.383691 -0.274835 0.113875 -0.237821 0.568960 -0.338185 -0.101511 0.535623 -0.483200 -0.192978 -0.203333 -0.297175 -0.310323 1.062627 0.022394 -0.292735 -0.121253 0.117858 -0.392996 -0.308124 0.188901 0.472770 0.539646 -0.216235 0.575144 0.001499 0.839776 0.294349 0.115502 0.518462 -0.120688 -0.197604 -0.956380 -0.321316 -0.201780 0.021847 -0.102014 -0.637581 -0.055830 0.528372 0.085074 -0.274580 0.337290 0.347628 0.267866 -0.148468 -0.096350 -0.233875 0.130042 0.157482 0.247792 0.496968 -0.084755 -0.285413 -0.191100 0.778354 -0.182328 0.219571 -0.284596 -0.075312 0.170292 -0.778328 0.039778 0.044866 -0.074639 -0.095070 -0.522463 0.290544 0.325567 0.030911 0.105809 0.256801 0.275588 -0.327510 0.467103 -0.025884 -0.107105 -0.247775 -0.337174 0.316615 -0.343984 -0.126066 -0.917116 0.220457 -0.295797 -0.086269 
10155 0.560557 0.116945 0.137323 1.040986 -0.303073 -0.095312 -1.085734 -0.423448 0.402949 0.831250 -0.068943 -0.819324 -0.165924 -1.282295 0.008549 -0.190777 0.343343 0.343018 -0.431423 -0.323879 -0.430318 -0.445442 0.257566 -0.312863 0.709473 0.583387 -0.391339 1.961857 -0.217791 -0.065870 0.128405 0.322502 -0.302972 -0.455261 -0.559464 0.269073 0.625669 -0.931024 1.172078 0.272939 -0.756976 0.722954 -1.368107 -0.508739 -0.104098 1.451921 -0.066410 0.518492 0.882183 -0.188394 0.304306 -0.508027 -0.692386 0.223334 0.866212 1.150284 0.120222 0.463797 -0.186231 0.208256 0.088195 0.287476 -0.857077 -0.058895 -0.134321 0.777380 -0.603311 0.982533 -0.095273 -0.546625 -0.041045 -0.301510 0.910305 -0.290732 0.932723 1.553876 0.824699 -0.002297 -1.091852 -0.724466 0.561788 0.168873 0.620031 -0.715421 -0.213458 1.065457 -0.256859 -0.260407 -0.885040 1.391428 0.383830 -0.303255 0.169396 0.110410 -0.713903 -0.106620 1.317670 0.405401 1.003988 -0.038086 0.657690 0.268845 0.231274 0.260858 0.558042 0.134671 -0.475963 0.002468 -1.340830 0.413143 0.479755 -0.015967 0.937266 -0.145249 0.041016 -0.021777 0.623156 1.648623 -0.008697 -0.541929 1.378883 0.433994 -1.140168 1.104501 0.328448 -0.778383 0.039031 0.028969 -0.382538 -0.678416 0.202516 1.239291 -1.088352 1.711164 -0.110169 -0.189456 0.863660 0.824536 -0.931981 -0.233141 0.111958 -0.168966 -1.012483 1.163963 0.730821 -0.345558 -0.895609 0.498427 -0.520443 -0.038987 0.155583 1.126593 1.004463 -0.599985 -1.511877 0.695227 0.025119 -0.351136 0.350237 0.589720 0.906629 0.844375 -0.575773 0.210723 -0.465096 0.647196 0.718510 -0.147029 -0.024770 0.717669 0.400705 0.461878 -0.711049 0.576745 -0.254206 -1.457875 -0.106645 -0.166600 -0.658223 -0.589150 -0.662689 0.091278 0.629064 0.039630 -0.164728 1.386877 -0.835416 -0.305716 -0.175389 0.649768 -0.436731 0.289545 -0.319235 -0.054156 -0.167735 2.218271 0.043939 -0.508586 1.242269 0.625228 
10157 0.227222 -0.242379 0.082168 0.169707 0.279393 0.124922 -0.173459 -0.140281 -0.226143 -0.166712 0.118237 0.333466 0.210467 -0.126940 0.330702 -0.282299 0.017079 0.394617 -0.179303 0.275577 0.049698 0.159674 -0.205436 0.026356 0.151680 0.400620 -0.221609 0.213080 0.184693 0.290489 -0.253819 0.089258 0.268419 0.096481 -0.007408 0.153405 -0.209261 -0.065977 -0.256138 0.166829 0.043501 -0.405632 -0.310159 -0.634147 -0.053511 0.276803 -0.074397 0.035532 -0.182261 -0.067855 0.344634 -0.026029 0.302918 0.101497 -0.044465 -0.043445 0.010988 0.033765 -0.062220 -0.051298 0.122759 -0.195460 0.169750 0.276243 0.143146 0.223611 0.205096 -0.003555 0.122046 -0.325085 0.223162 0.292838 -0.157349 -0.166888 -0.142166 -0.175416 0.037312 -0.170630 -0.281543 0.199983 -0.263449 -0.176118 0.371708 -0.438303 -0.183842 0.197990 -0.005987 0.204231 -0.131534 0.241028 -0.238805 0.202942 0.239215 0.097441 0.540787 0.506961 -0.104611 0.058989 0.061471 -0.026009 0.308879 -0.026707 0.264682 0.046950 0.513834 -0.359959 0.068164 0.074181 0.100454 0.295964 -0.114870 -0.131202 -0.031763 0.459881 -0.232664 0.259460 -0.129269 0.284161 -0.112523 0.015378 0.066125 0.257963 -0.021609 0.189601 -0.024420 -0.132420 -0.049184 0.260065 -0.037028 -0.227015 -0.156756 -0.099288 -0.137298 0.057868 -0.092121 0.046053 0.099763 0.333111 0.240639 0.200311 0.176613 0.376943 0.166078 0.268663 -0.482298 -0.072272 0.138034 0.145829 -0.307842 -0.240524 -0.100376 0.306376 -0.243186 0.050909 -0.176272 0.135511 0.068990 -0.141806 -0.227322 -0.141919 -0.061917 0.128987 -0.107588 0.049808 -0.295738 0.167527 -0.090165 -0.072988 -0.087755 -0.051676 -0.189714 -0.008895 -0.137634 -0.142722 0.370628 0.078956 0.050669 0.113082 0.265905 -0.070859 -0.211536 -0.540305 -0.071957 0.000026 -0.145250 0.215647 -0.094617 -0.371800 0.386424 0.172511 0.075522 0.152610 0.011409 0.419665 0.193731 -0.022774 -0.204194 -0.247321 0.057821 -0.325914 
10159 -0.075074 -0.159798 0.135357 0.047294 -0.058066 0.226991 0.076522 -0.082273 -0.170027 0.251507 -0.039216 0.149916 0.168311 0.131971 0.076461 0.002411 0.031315 -0.062534 0.015624 0.218350 -0.123188 0.059687 -0.080414 -0.031378 0.110146 0.197499 -0.113927 -0.043595 -0.021507 0.120743 -0.160600 0.084950 -0.006056 -0.123126 0.074866 -0.120155 -0.001560 -0.192075 -0.067007 0.062374 0.062058 -0.130342 0.134311 -0.160226 -0.184190 0.189838 0.040666 -0.054788 -0.039826 -0.095971 0.054323 0.202503 -0.027860 0.022909 0.067183 -0.068978 0.098427 0.180577 -0.023821 0.072513 0.015270 0.085473 0.002940 0.047917 0.022451 0.102913 0.080349 0.113872 0.124607 0.087211 0.185786 -0.121861 0.002813 0.027931 0.175637 0.009448 0.079705 0.068537 0.011910 -0.071410 0.161460 -0.004855 -0.124359 -0.012919 0.020776 0.090940 0.034033 0.076706 -0.062107 0.014365 -0.096026 -0.012949 0.007043 -0.079237 0.134044 0.159174 -0.119841 0.017008 0.002002 -0.034806 0.033796 0.058329 -0.110002 0.135665 -0.061038 0.003553 0.141734 0.069245 -0.170176 0.091811 0.045701 0.043197 -0.059093 0.046264 0.229576 0.060480 0.050348 -0.112748 -0.023494 0.025041 0.028432 -0.036073 0.005470 0.165653 -0.054079 -0.127644 -0.036408 0.099755 0.113662 -0.056524 0.017911 0.027289 -0.154283 -0.127936 -0.085820 0.048229 0.006619 -0.106674 -0.035855 -0.085938 -0.039119 0.066881 -0.013323 0.120275 -0.170015 0.024001 0.019820 -0.085801 0.110636 -0.047755 -0.049429 -0.042501 -0.110283 0.128635 -0.103953 0.104738 -0.027342 0.093837 -0.051786 0.129794 0.116884 -0.069459 0.001463 -0.034128 -0.096876 0.116571 0.081349 -0.000615 -0.072391 -0.011993 -0.083478 0.019070 -0.039396 -0.043304 -0.074751 0.012832 -0.052476 -0.166884 -0.013356 -0.175027 -0.112274 -0.093524 0.139314 0.043310 -0.098280 0.077785 0.046030 0.004147 0.047574 -0.000722 -0.059440 -0.078111 0.036699 0.091372 0.028390 -0.087771 0.004867 -0.008322 -0.027998 0.111800 
10162 0.222457 -0.157591 0.432364 0.514707 -0.641608 -0.204816 0.291432 0.553822 -0.173793 0.265664 -0.696555 0.192698 0.472745 0.570779 0.715252 -0.247785 -0.347956 1.369367 0.722166 0.388098 -0.714748 1.100863 -0.096015 0.669768 -0.557139 0.682677 -1.320422 -0.291491 0.057019 0.686021 1.677147 -0.054576 0.350441 1.408284 0.053832 1.137910 -0.378902 -0.860674 -1.008728 0.429450 0.091351 -0.893557 -1.631759 0.743442 0.594696 0.943727 -0.473810 -0.264975 -0.128417 1.443144 0.055975 -0.087854 -0.374953 0.274062 0.084950 0.663639 0.529761 1.943032 -0.777227 -0.215559 1.038592 -1.000719 -0.380538 0.242490 -0.029898 -0.429052 0.517446 -0.401217 0.320038 -0.568755 1.860455 -0.304564 0.228850 -0.479552 -1.045494 -1.546257 -0.385737 0.173620 -0.780184 -1.071906 0.325061 -0.058251 0.352021 0.168089 -0.530464 -0.962512 -0.939575 0.477017 -0.226018 0.543467 0.759819 -0.170502 1.498973 -0.100800 0.914475 0.512585 -0.874705 -0.822366 0.592947 -0.120763 0.458067 -0.322111 -1.072051 0.158564 -0.297630 0.691941 0.420355 0.695691 0.099991 -0.003762 0.890644 0.882737 -0.099765 0.028179 -0.328640 0.146030 -0.092840 -0.204154 -0.954572 -1.577502 0.463657 0.220517 -0.183385 -0.142674 0.508980 0.736829 -0.550366 -0.228197 0.416782 -1.242625 0.640637 1.777821 -0.674454 0.506701 0.264582 -0.230815 -0.302294 0.368549 0.846105 -0.117848 0.289351 -0.255858 1.121520 1.264854 -0.644538 -0.183634 -0.538867 0.253156 0.729558 1.277832 -0.572009 0.428613 0.739329 1.051047 0.576504 -0.498681 -1.007174 0.387260 0.174064 -1.705315 -1.091167 -0.321791 -1.172287 -0.831776 -0.321495 0.662240 0.845649 0.645741 0.247816 -0.441393 -1.324449 0.603832 -1.637157 0.753208 0.895854 0.460149 -0.208453 1.282467 0.433081 0.791101 0.664037 -0.530671 -0.379153 0.183752 -0.296793 -0.854460 -0.170071 0.028350 0.402551 -0.021452 -1.006927 -1.153113 1.491856 0.329320 -1.061991 0.482009 -0.559658 -0.510993 -1.961005 0.113901 
10166 -1.219524 1.048197 -0.337555 -1.438015 0.153650 0.243400 0.740570 0.282366 -0.381433 0.848342 -0.761308 -0.765272 0.629732 0.183086 0.227335 -0.366763 -0.517912 0.897736 0.897837 -0.324886 1.345824 0.300441 -1.196690 1.056592 0.353303 -0.822345 -0.366464 1.057746 0.540580 0.125891 0.354425 0.841418 -1.258100 1.103325 -0.401090 1.367777 -0.666679 0.508579 -0.268055 -0.111419 0.856066 -0.026418 0.870318 -0.283852 1.042790 -0.373053 -0.666840 -0.948292 -1.363395 0.796234 0.509445 0.056404 1.967356 0.642730 1.170868 0.524149 0.699991 0.679106 -0.852496 0.306050 0.220897 -0.255731 -1.172379 0.613315 -1.025795 2.195818 -0.654745 -0.346488 0.608045 0.371000 0.173422 0.766141 0.012202 -0.622503 -0.674976 0.675101 -0.736718 -0.250324 0.625433 -0.125956 1.073583 0.062981 0.536804 0.406330 -1.100155 0.266928 0.425389 0.205271 0.127466 -0.006293 -0.072929 -0.875556 -0.626020 -0.741825 -0.433090 -1.590028 1.024951 1.165734 1.179823 -1.399865 -0.590533 0.380277 0.118769 0.140049 -0.050773 1.483802 0.199101 -0.997503 -0.051078 1.069633 1.078260 0.257752 0.230798 0.291731 0.174311 0.157429 0.651460 -0.152662 -0.002415 -0.254699 -0.208442 -1.550203 0.902850 0.660884 0.126791 1.347112 0.642186 0.621363 -0.337294 0.935432 1.256684 0.500562 0.676474 -0.416738 -0.233135 -0.193531 -0.028860 0.499755 -0.221652 0.441842 0.506769 -0.599619 0.210379 1.008564 -0.168737 -1.044233 -0.089770 0.493936 0.233559 -0.186297 -0.723687 0.433071 2.077570 -0.262008 -0.162886 -0.604300 -0.162350 0.524277 -0.666513 0.027367 -1.173992 1.633617 0.886834 -0.217074 -0.197982 0.018470 0.223215 0.709991 -0.523854 -0.915629 -0.675457 -0.021500 -0.670738 0.273246 -0.261085 -0.408995 -0.018434 -0.093085 -0.555799 0.441134 -0.201637 -0.420563 0.381745 0.732686 0.677820 -0.402914 0.426982 -0.618687 -0.159091 -0.144344 0.652410 -0.031559 0.604540 -0.029553 0.481065 -0.773725 -0.008466 0.545348 -0.138261 0.843006 
10171 -0.255193 -0.170886 1.138482 -0.020442 -1.194139 0.095351 -0.262953 -0.414333 0.230753 0.305097 0.599524 0.074927 0.143056 0.053343 0.423278 -0.281556 -0.380473 0.394202 -0.247169 0.299900 -1.017768 -0.518763 -0.918521 -0.348591 0.737852 -0.036550 -0.731225 0.003779 0.738804 0.163213 0.884747 -0.414905 -0.290283 0.000288 -0.715110 0.041623 -0.355903 0.106738 -0.005962 -0.200375 0.080803 -0.779976 -0.048134 -0.450959 -0.588890 0.514805 -0.956491 -0.653768 0.275679 -0.235296 0.162371 -0.026408 0.144402 -0.228029 0.002465 0.856274 -0.386769 -0.044553 -0.137098 0.107808 -0.584155 -0.462876 0.406539 -0.100530 0.102854 0.265428 -0.372581 0.808676 0.265218 -0.051281 0.268170 -0.797872 0.174893 -0.180893 0.623247 -0.611708 -0.111168 -0.231072 0.470521 0.899938 0.204786 -0.510940 -0.447893 -0.079694 0.242201 -0.157126 -0.380643 0.005314 -0.870186 0.558507 -0.333133 -0.050512 1.243308 0.726568 0.404582 -0.325802 -0.251163 -0.996127 -0.367573 0.965269 0.858129 0.067694 -0.175799 0.416604 0.444580 -1.173309 0.589982 1.047696 0.260577 0.288336 -0.322079 0.409915 0.760811 0.769452 0.189848 0.228598 -0.242228 0.112699 -0.324630 -0.782772 0.970429 0.100057 0.292515 -0.386117 0.015178 0.624391 0.113044 0.683216 1.375329 0.746238 0.536807 0.060648 -0.107193 -0.745912 -0.150848 -0.083297 0.688724 -0.196559 -0.197074 -1.672183 0.754249 -0.787845 0.233280 0.102957 -0.090624 0.660877 0.070986 0.119715 0.527864 -0.287222 -0.029085 0.618925 0.848074 -0.078726 -0.161073 0.312762 -0.709060 -0.517364 -0.549156 -1.129348 0.250939 -0.163537 -0.263367 0.806994 0.435507 0.244633 -0.741501 -0.184578 -0.218792 0.151707 -1.143628 0.227296 -0.693819 -0.138431 0.391936 0.033639 -0.274218 0.080554 0.126821 -1.031792 -0.670952 -0.861758 0.159167 0.346420 0.313165 -0.428127 -0.000919 -0.752919 -0.336748 1.106752 -0.117578 0.268097 0.703764 -0.304236 1.012199 -0.233565 -0.359685 0.138905 0.071466 0.024925 
10179 0.095622 1.354236 -0.099674 -0.160448 -0.346752 -0.115131 0.143381 -0.159093 0.108633 0.663363 0.147692 0.149503 0.096960 -0.257414 0.487168 0.798431 -0.060401 0.491720 0.293737 -1.332233 0.092692 -0.039157 0.283942 0.080318 0.702376 0.323358 -0.316754 0.447019 1.160207 -0.298342 0.711169 -0.077539 -0.030550 0.014988 0.257750 0.004352 1.666242 0.069819 0.258414 -0.590941 0.233419 -0.614601 -0.966034 -0.266881 0.844483 0.665711 -0.688794 0.714970 -0.855139 -0.687019 -1.349640 0.006974 -0.540758 -0.526356 -0.630960 1.714793 -0.863135 -0.141751 1.011377 0.145101 0.237053 -0.074985 0.219686 1.151334 -0.307376 1.385436 -0.102808 0.740022 0.061917 -0.199764 1.365305 -0.411267 -0.471588 -0.875818 -0.369077 -0.364151 -0.665381 -0.414780 0.118400 -0.113683 -0.404625 -0.275525 -0.446613 0.017302 -0.585654 -0.310263 -0.685566 0.284336 -0.924251 0.122755 0.523224 0.117784 0.209525 -0.477566 0.164965 0.950037 -0.693640 0.646058 -1.038857 -0.254175 0.529125 -0.245387 -0.818109 0.008284 0.181800 -0.268091 0.659792 0.752071 -0.326232 0.405181 0.624432 -0.104173 0.910282 0.008862 -0.457052 1.287590 -2.325290 0.931023 0.176324 0.246082 1.052454 -0.585607 -0.165755 -0.099727 -1.089529 0.370753 -0.721763 0.986284 -0.097985 0.311478 -0.642070 -0.936093 0.172782 -0.130315 0.211710 -0.256773 -1.010581 0.668517 -0.637531 -0.441580 -0.020425 0.665589 0.328448 0.028919 -0.680308 0.703842 -1.546094 1.009852 -0.500411 -0.623553 -0.750432 0.474631 0.207669 -0.707865 0.073146 0.111340 0.267259 -0.895633 -0.620271 0.029111 -0.663371 -1.215058 0.013700 -0.578129 -0.424318 0.037456 0.188977 -0.502073 0.377147 0.556053 0.190322 -0.076063 -0.985196 -1.457889 0.419446 0.244018 -0.614787 0.791369 -0.540899 -0.021738 -0.208628 0.543390 0.634519 0.052046 0.769019 -0.360693 -0.396369 0.551217 0.717194 -1.058535 -0.121419 0.029464 -1.050006 0.163667 0.293707 -0.114829 0.642483 -1.088773 -0.215765 0.088457 
101928158 -1.308668 -0.285338 -1.053538 0.338233 0.552740 -0.470802 0.252011 -0.312117 -0.626822 -0.272825 -0.345668 -1.213117 0.031859 -0.149693 -0.227871 0.764478 0.112836 -0.747127 0.237633 0.152119 0.397291 0.536911 -0.871385 0.158314 1.183118 0.370496 -0.439769 0.821543 0.271135 -0.683633 -0.403437 1.065249 0.437903 -0.293269 1.836405 -0.788120 0.429295 -0.325692 0.516933 -0.057552 1.636345 0.169072 -0.161274 0.558383 0.367142 1.210461 0.903523 -0.381246 -0.615182 0.865785 0.732669 0.310389 0.682641 0.820566 -0.302226 -0.349079 0.106399 0.040590 -1.005312 -0.151631 -0.735285 -0.254989 0.942557 0.565131 0.341263 0.086169 -0.390727 0.273879 -0.295765 -0.325500 -0.436183 1.149526 0.410051 0.462410 -0.874713 0.074799 0.287020 0.719774 0.920034 0.935210 0.426288 -1.588504 0.671165 0.628197 0.562412 -0.315730 0.091719 0.973440 -0.459894 -1.043934 0.006324 0.120260 -1.364185 0.025632 0.964133 -0.765204 0.431742 0.046923 0.289207 0.131860 1.527693 -0.085247 1.425642 0.259585 0.144296 0.920578 0.097769 -0.149529 -0.555441 -0.112607 -0.593183 -0.344715 0.461880 0.569529 1.014888 -0.216580 -0.611948 0.057980 0.179303 0.180437 0.144544 -0.235908 0.530637 0.999811 0.349031 0.197588 0.422341 1.360962 0.642091 0.367922 0.951803 0.213816 -1.306438 0.280617 1.223837 -0.399042 0.166226 -0.839350 -0.338502 0.271387 -0.067455 -0.682514 -0.832689 0.727919 -0.079535 -1.228737 -1.276695 0.349879 0.644183 -1.398598 -0.344931 -0.453199 -0.479913 -0.693656 1.195308 1.134469 -0.958317 0.466546 -0.975130 -0.168689 -0.430175 -0.420339 -2.075968 -0.565782 0.220545 0.458152 0.062600 -0.229817 -0.549059 0.137581 0.166156 0.605635 -0.624086 0.025786 -0.325665 0.078873 -0.393719 0.390381 1.222426 0.116855 -1.510887 0.256768 0.043107 -0.724685 0.543367 -0.254175 0.907668 -0.326917 -0.743785 -1.041838 0.318737 -1.010142 -0.286187 -0.475124 0.836139 -0.304835 -0.244249 0.556345 0.286144 0.263871 
101928527 -0.139979 -0.236216 0.993524 0.503511 -0.623908 -0.229862 -0.454587 -0.627858 0.181707 0.236778 -2.118960 -0.565550 -0.441571 -0.974786 0.853264 -0.389276 0.347887 0.556003 0.820363 -0.013890 -0.297128 0.825722 1.088747 0.111264 0.236715 0.849684 -0.120163 -1.808314 0.411745 -0.523958 -0.485065 1.063910 -0.055299 -0.452974 -0.583428 0.267022 -0.683340 -0.551050 -0.162116 1.269128 -0.309377 0.299092 0.962279 0.059615 1.149832 0.776304 1.081780 -1.147923 -0.138568 0.112977 1.016470 -0.630205 -0.298276 -0.098817 -0.036118 0.929043 1.467890 0.607095 -0.305682 -1.350846 0.375289 2.200451 -0.520284 0.593400 -0.212781 -1.056639 -0.381709 -1.489665 -0.912036 -0.458369 -0.165783 0.077759 0.052292 0.018845 -2.719497 0.814158 0.622685 -0.094012 -0.175961 1.046519 -1.020046 -0.424847 0.643542 -1.139475 0.520942 -0.518809 0.758336 -0.023111 -0.268320 0.464027 -0.459617 -0.901837 -0.378007 0.096496 -0.514010 -0.182856 -0.341838 -0.743051 -0.496462 -0.331334 -0.293726 -0.825339 0.707711 -0.144884 0.669356 0.466036 2.791081 -1.287484 0.695984 -0.063916 0.615308 0.159524 0.693242 1.217206 0.982694 1.531585 -0.670822 0.495252 0.700726 0.095486 -0.150273 1.476826 1.329419 0.863369 -1.431088 0.731388 -0.714034 0.497071 1.473707 -0.521794 0.991870 1.964189 -0.877994 0.414516 -1.805841 0.113553 1.019233 -0.294121 0.099537 -0.706810 0.321670 0.936463 -1.081403 -0.250615 1.218005 0.158176 -1.017894 -0.929395 -0.230344 -1.370334 -0.250488 1.692506 -1.000544 0.066715 0.739288 -0.556083 -0.794026 -0.263438 1.005633 -1.240883 0.588710 0.424784 0.071358 -1.893371 -0.861755 0.403349 0.167848 -0.000416 -0.242032 1.022320 -0.312533 1.815445 -0.735514 1.402883 1.330626 -0.773592 -0.612429 -1.758335 -0.459395 -1.306285 -0.361657 0.803014 0.410957 1.665220 0.591660 -0.529597 -0.832034 -0.043787 0.390120 -0.940418 -0.081148 0.072429 0.738975 0.150942 0.027381 0.667333 -0.413323 0.142925 0.772656 -0.904368 
101928858 1.749919 -0.840404 -0.382032 -1.078774 0.198074 -0.496804 -0.758876 0.441051 -0.417049 0.358474 -0.024824 0.991982 1.241383 -1.382387 -1.200975 -0.509926 0.098957 0.070965 0.588296 0.094225 0.629928 0.592224 0.797239 -0.142542 0.576605 -0.360877 1.316853 0.362212 0.352282 0.493075 1.587634 -0.282343 -0.379184 -0.692283 -0.756284 -1.309489 0.529433 -1.095225 0.500013 0.525034 -0.161477 0.324283 1.393937 1.377388 0.794951 0.300611 1.072331 -1.373630 -0.162133 1.037857 1.605491 0.898862 -0.552190 0.128546 -0.443072 -0.445949 1.194750 2.080494 -0.608124 -0.331975 -0.611872 -0.862926 -1.290906 0.758684 -0.655923 0.362910 0.524512 -0.313300 1.597292 -0.532733 0.041839 0.689925 1.073412 -1.086829 -2.024015 -2.231931 -0.026056 -0.390450 0.856695 0.175531 0.399440 0.635713 -0.341097 -0.306468 -0.955094 -0.182208 -0.990251 -0.506586 0.345166 0.639342 -0.425141 -0.951388 0.644626 -1.254538 -0.964480 1.196212 1.833318 1.796407 -0.222540 -1.997667 0.255296 -0.980888 1.313189 -0.261838 0.036619 -0.216317 0.752035 -0.649406 -0.421180 -0.262831 -0.902072 2.305903 0.467521 0.157642 -1.815709 -1.095802 -0.598146 -0.988538 -0.318940 -1.547983 -0.354378 2.316735 -0.472303 0.874647 0.765734 -0.653703 -0.812461 1.828065 1.926123 1.660662 0.496818 0.649199 -1.247463 0.382183 -0.761050 0.216529 -0.126731 0.175353 0.132491 -2.099377 0.295948 1.439455 -0.699912 -0.021516 -0.479357 -2.856199 -1.238679 -0.715468 -0.115349 -0.649457 1.250583 -0.171555 -0.067732 0.479768 -1.720250 0.445410 -1.002185 -1.270813 0.139411 -0.070602 0.059973 -0.042181 0.630109 -0.501243 0.682763 -0.888337 -0.404926 -0.807240 0.852534 -1.208573 0.898819 0.990033 0.170776 -0.427757 -0.214922 -0.134793 0.109547 1.149802 0.699242 -0.990383 0.328920 0.849798 -0.189439 -0.516909 1.007177 -0.757623 0.497359 -0.160183 -1.295687 1.295441 0.705858 -0.653436 -0.007808 -0.096856 1.031731 -0.782343 0.335722 0.882023 -0.032015 -0.361568 
101929243 0.603685 0.338406 2.120004 1.218845 0.337566 -0.601388 -0.097147 1.435395 -0.475943 -0.867068 -0.541341 -0.238022 0.227986 -0.213717 1.094449 1.144710 -0.308259 0.132565 1.135269 -0.444992 0.730679 -1.560241 -0.854960 -1.643081 1.168632 1.239526 0.934181 -0.046976 -0.163582 0.545837 -0.511338 -0.331772 0.277214 -0.982265 -0.606399 0.586929 -0.847182 1.407727 1.621481 -0.223332 0.440857 -0.498604 -0.729213 -0.273735 0.258703 0.658588 0.014489 -0.452815 -0.839011 -0.100176 0.336831 0.463592 0.020067 -0.397843 2.037956 0.357670 0.691795 0.588276 0.000807 -0.134869 0.499748 0.711550 -0.699573 1.344360 0.887886 -0.299574 -0.558951 1.730205 0.182084 -0.084502 -0.922544 0.927634 -1.654789 -0.596280 -0.311731 -0.257009 -0.275036 -0.856611 0.655245 -0.405763 -0.607242 -0.209390 -0.672248 0.161595 -0.893360 0.335351 0.028798 0.124374 0.438275 0.597150 0.030216 0.713086 0.267472 -0.973210 -0.225995 0.807153 -1.147739 -1.222035 0.798618 0.495027 0.030066 -0.731422 -1.641310 0.248430 -0.151128 0.824721 -0.365149 -1.171588 0.159717 0.019428 0.074492 1.285163 0.764223 1.366874 -0.379035 0.873716 -0.686417 0.222043 -0.684084 -0.823931 0.019563 0.087982 -0.180956 -0.075697 0.689634 0.078299 0.731273 0.561992 0.743741 1.542563 0.830108 1.018181 0.714217 -0.207031 -0.009792 -0.518578 0.114537 -1.131947 -0.661496 0.429274 -0.017121 -0.211316 1.205910 -0.113360 -0.892528 -0.989366 0.140750 0.058118 -0.408223 0.020691 -0.459271 -0.201419 0.422713 0.660776 1.404740 -0.863311 0.302824 -1.275989 0.314715 -0.813460 0.174996 0.239657 -1.009646 -0.968157 0.909160 0.967343 1.339223 1.784623 0.464047 -1.095068 -0.113258 0.660972 1.379443 1.474019 0.601354 -0.918336 -0.913122 -1.771122 0.749166 -0.661594 -0.991279 -0.436502 1.395027 0.280008 0.079145 0.198916 1.498776 -0.893973 0.730765 -0.137825 -0.695329 -0.532965 0.110879 0.527598 0.198811 0.261302 0.481173 -1.258046 1.875978 0.097259 
