2157 200
AAACCTGAGACACTAA 0.735609 1.291436 0.416524 0.285482 1.923453 1.848951 -0.465156 -0.912693 1.545015 -2.358473 0.780896 -0.536197 0.137672 -0.062615 0.549991 0.448188 -1.317263 1.130431 -1.677775 -0.578546 0.229794 -3.101126 1.318074 1.241352 -2.025237 -2.138938 -2.186702 -2.357821 -1.707586 -1.168710 -0.590365 -0.313253 -0.185575 1.100359 0.749012 2.638617 -1.152418 1.911780 -2.374055 -1.015810 1.726597 -0.951813 -1.344456 -1.996563 1.516436 -3.276866 1.220488 -1.926597 2.067433 -0.866652 -0.452040 -0.673866 -0.690827 -0.779051 -0.943702 -0.120851 0.819371 -0.268842 -0.873105 0.057267 -1.840508 -0.324768 1.486025 -0.037767 0.513475 -0.388631 0.274769 3.538828 1.609444 -0.554931 -3.717366 -0.511031 1.293786 2.027783 1.645284 -1.258475 0.789581 0.083215 -1.072254 -0.680447 -0.997532 1.076649 1.639347 -1.346021 -0.637880 -0.294173 0.153713 0.524216 0.004465 0.046642 1.258574 0.152130 2.111754 2.681288 0.732342 -1.315835 -2.409968 0.072150 0.330534 0.817446 -0.775768 1.322346 -1.673260 0.822698 -1.063741 0.256173 0.354764 1.416587 -0.473860 -1.152223 -0.877175 -1.100464 0.574368 0.533872 1.174762 -2.151959 -1.481962 1.171139 -1.146836 0.688032 -0.440461 0.241922 1.035945 -0.058826 -0.106061 0.049317 0.277041 -1.377551 0.248684 -0.852885 1.039852 0.139377 0.693395 -1.006735 0.234674 1.096398 0.671257 -0.149031 -1.433584 1.211155 -1.039584 -0.829124 -3.155017 -0.363248 0.160300 -0.446870 0.925521 -0.196072 1.487059 1.013843 -0.090642 -1.649665 -0.565989 0.814734 -0.230152 0.751267 1.710446 1.937835 0.327930 0.518848 -1.298697 0.878100 -0.700536 -0.987195 -0.634220 -0.727466 0.762122 1.171798 0.902557 0.246101 0.698234 -1.380500 -0.226189 -1.509785 -0.555316 -0.174022 0.580171 3.424742 -0.851230 -0.560184 1.569973 -0.343225 1.016713 -0.216851 0.605904 0.461130 3.331681 -0.048646 -0.684962 0.245271 -0.478949 -0.659169 -1.442688 -0.523748 -0.611716 1.346568 0.007156 -0.786032 -0.744790 0.522233 
AAACCTGGTCAAACTC -0.859802 0.125207 -0.090442 0.708340 0.508492 -0.098349 1.976239 -1.893288 -0.238451 -0.855096 -0.133643 -1.710859 -0.149079 -1.823278 -0.824093 -0.673037 0.115723 0.062631 -0.300021 0.926042 -0.888604 0.152663 -0.181118 -0.610713 0.607355 0.401798 -0.071313 -0.043155 -0.869136 -1.753662 0.295178 0.731172 0.673442 0.512961 0.769968 0.571208 -0.600499 1.432151 0.542233 -1.896574 1.294579 -0.022876 -0.398986 0.102347 0.100769 -1.742568 -0.815152 0.988676 -0.161354 -0.184534 0.293496 1.070338 -0.375622 0.235283 -0.521112 -1.500833 0.699970 -0.626940 0.744554 0.618292 -1.225224 0.381114 0.168923 0.127573 -0.705698 -0.812295 -0.903459 1.075360 -0.339428 0.970478 -1.037951 0.397273 0.099127 0.278266 1.212574 1.427757 0.623733 1.563439 0.204680 0.642348 -0.964869 1.285458 -0.409739 0.932044 2.520636 -0.308127 -1.139140 0.493679 1.200011 -0.804454 -0.119942 -0.507420 1.108409 -1.291613 0.076518 -0.949421 -0.845833 -0.329556 0.655033 1.443179 0.153428 1.089571 1.106744 -0.860914 0.615808 1.209358 0.365213 -0.146898 0.565838 -2.851037 -0.146762 -0.697060 -0.575212 -0.545606 -0.433164 0.138906 -0.202054 -0.420580 0.369680 0.134651 -0.465378 -1.272537 -0.107223 -0.286859 -0.041207 -1.019419 0.831252 0.021433 0.506341 -0.284368 1.645717 -0.964714 -0.039579 0.977607 0.857244 0.339335 0.173179 0.037960 -1.715055 -0.841435 0.278055 -1.214968 0.792027 0.026865 -0.239794 0.222248 -1.156027 0.617345 -0.474778 0.406431 1.020615 -0.840088 0.258558 -0.721911 0.406070 -1.170026 0.239805 1.173540 -0.655349 -0.507554 0.309129 0.695427 0.531630 0.050512 -0.372463 -2.046218 -1.577478 -0.860817 0.640358 1.012070 0.530266 0.412389 0.914378 -0.095889 1.721258 -2.866751 0.283666 -0.083331 1.055264 -0.382318 0.907425 1.334086 -0.057457 0.329588 0.968975 -0.328479 0.361943 0.760405 0.238589 0.822647 -1.691604 0.429074 0.544979 0.319668 0.105860 0.292426 -1.398431 -0.141821 0.066618 -1.109495 
AAACCTGTCGGTTAAC -0.957395 2.059982 -0.268273 0.317389 -2.289886 -0.225347 2.807554 -0.722313 -0.439356 -1.281008 -0.255490 0.125329 -0.872190 -0.869925 -0.446729 -0.221395 -0.255615 -0.532943 0.932602 1.001817 -0.222354 -0.141061 1.147043 1.332569 -1.625484 -0.845678 -1.047754 0.673630 0.231127 -0.874451 0.981450 -0.688494 -2.633591 -2.498460 2.310198 -0.529865 -0.774639 0.692424 0.043991 -1.097424 0.867609 -0.368913 1.974375 -0.409766 0.413358 -3.023551 1.084732 0.287141 -1.066796 0.309050 -0.380241 0.321700 0.592562 -0.475715 1.269317 -0.427273 -0.632897 -1.343730 0.460921 -1.407369 -0.085360 -0.133512 -0.013798 1.031067 0.177055 -1.919983 2.412509 0.468947 -2.517360 -0.499072 0.372198 0.315131 -0.446679 0.887576 -1.122549 -1.665100 -2.121568 0.496451 1.220693 -1.141823 1.285175 0.241253 0.847844 1.526328 1.399559 -2.237012 1.564690 -0.674986 1.378740 -0.302074 0.271916 0.254201 -0.618150 0.150001 0.111132 -0.543224 1.040698 -0.038914 -0.333619 -0.615684 1.357750 0.769892 1.741686 -2.026718 0.477510 0.815826 -0.861695 1.536876 0.162662 -0.572215 -0.352369 -2.365432 -0.833306 -0.235114 1.548944 -0.925230 -0.588850 1.201483 -0.005412 0.014467 -0.872364 0.396271 0.514050 0.325893 1.027731 0.314987 2.335112 -0.393305 0.275999 1.255245 1.924611 -0.733968 0.486724 0.797330 1.488960 -0.920119 -0.757476 -0.327412 0.225036 0.903684 0.289417 0.014012 -0.751814 2.195439 -0.857942 1.708954 -0.751649 0.607980 -0.191870 -0.296119 2.317959 0.208515 -2.251595 1.092171 -1.705555 0.639747 -0.362449 -1.418489 1.441275 -1.210107 0.825485 -0.974730 -0.468941 1.250525 -0.796393 0.758685 0.291665 1.257605 -0.095315 -1.003607 0.365667 -0.647271 1.809240 0.302814 -0.504400 2.171049 3.391838 -0.178032 -0.483284 0.711586 1.456162 1.870788 0.436396 0.015232 -1.660174 -0.038281 -1.658923 1.253877 -0.921495 -0.390817 1.064937 0.097455 -1.508793 1.424334 -0.464761 -0.111647 -0.249456 -0.360554 -0.030837 -0.344788 
AAACCTGTCTTGGGTA -0.328387 1.689517 -0.067084 0.697906 0.249838 1.768062 0.896314 -0.138928 -2.374434 0.678802 0.560444 1.181296 -0.558519 1.750477 1.734074 -0.190861 -1.047249 -2.310032 -1.264527 0.283894 -0.125489 -0.314714 0.149082 -0.230910 1.393855 0.406298 -0.028532 0.871639 -0.364422 1.015924 1.200970 -1.305536 0.836332 -0.938404 1.222750 0.450001 -0.514634 0.586273 -0.224123 0.115483 -0.540870 0.015859 2.770749 -1.696826 0.210377 -1.909066 -0.192894 -0.890643 1.978492 -1.788412 -2.022250 -0.775990 0.247078 0.990357 -0.991891 -1.180460 -0.483795 -1.760717 0.975325 -1.409943 -1.149323 2.005720 -1.885887 -2.423535 -0.339828 0.692096 -0.631309 1.563781 0.963186 0.048553 -0.532989 -0.402040 0.921276 3.740177 -1.014078 -0.933461 2.529013 0.265522 0.511300 -0.084689 0.256161 -0.444476 1.838528 -0.805202 -1.229874 1.201195 0.447535 0.438835 -0.727883 -0.467744 0.937419 1.478202 0.600059 2.464695 1.083910 1.090377 -2.262311 0.026337 -1.124490 -0.533615 -0.321075 -0.246356 2.115988 -1.284191 1.320282 -2.144397 0.951015 0.754056 -0.136095 -1.736872 -1.089436 -0.806947 -0.739532 0.126915 0.525438 0.165447 0.023867 -0.071533 -0.418934 1.844832 0.836011 1.313466 1.143247 -1.009429 -0.037285 0.406398 -0.074227 -1.411302 0.969792 0.419225 1.105312 0.154514 1.337091 -0.771271 1.730973 -2.604982 1.109334 0.421315 -0.381066 -0.046992 -0.121577 0.197279 -0.445950 -0.733506 2.392143 -0.738086 -0.539490 -1.358861 0.302532 0.431061 0.640906 -1.812026 -0.088638 0.702590 -2.216008 -0.467473 1.059075 0.009640 0.687105 1.147114 0.429795 0.144897 0.932033 0.324099 0.670862 -0.371429 -0.390280 -0.197860 -1.724578 0.840958 0.262682 0.864207 1.290556 0.824813 0.641677 0.398254 -1.156071 0.967389 -0.755580 2.309098 0.583076 2.102507 1.212313 -2.620560 1.124384 -0.176994 0.999298 2.086225 1.110900 2.534029 -1.139183 -1.465625 0.430796 0.623166 -0.445656 1.678147 -0.186175 0.372402 0.042173 -2.471416 
AAACGGGGTAGTAGTA -0.286772 0.735497 0.581353 -0.280238 -0.739358 0.727384 1.264412 -0.450726 0.015616 1.071555 1.620727 -0.815159 0.005837 0.221007 -0.619282 -0.702520 -0.938064 -0.023154 -0.593898 0.025831 -2.336715 -0.721356 1.111338 -0.331794 -0.273220 -1.077752 -1.830990 1.540570 -0.009115 0.004983 0.102439 0.304011 -0.781983 -0.352821 1.633279 0.102161 1.431680 0.420759 -0.459887 0.129663 0.281072 -1.240121 1.811130 1.459900 -0.533894 -2.320411 -0.019392 2.814693 -0.581521 -0.298080 1.949105 -0.372525 0.665462 -0.971028 0.010463 -1.784744 -1.452506 -0.605881 1.124988 -0.179617 -0.009847 -1.262302 1.465327 0.139561 1.050542 -1.196680 -0.799974 0.489060 0.705249 -0.507026 0.590398 -1.319462 -1.615208 0.426541 0.317698 1.953130 0.662842 1.686406 -0.492807 -0.471782 -1.221796 -0.920355 -0.365943 1.543064 0.965664 0.757050 1.397154 -0.176115 -0.292830 -1.359546 -0.130289 -1.096150 -1.626770 1.217273 1.077141 1.809868 -2.549860 -1.001763 1.615762 2.419671 -0.549751 0.397542 -0.084246 -0.576330 0.142334 -1.193037 1.023321 0.594749 1.177989 0.417237 1.042981 -0.809070 -1.756361 0.868712 0.452832 0.852639 0.428381 0.807068 2.183776 1.152803 -0.961410 0.772746 1.487711 -0.539517 0.288758 -0.325507 -1.465590 -0.401767 -0.868507 0.126909 -0.263933 -1.082255 0.005212 0.860630 0.053753 -2.500584 -1.210243 -0.271198 -0.404006 -0.494009 -0.235946 1.108452 -0.850822 1.092918 1.938923 0.538908 -0.432040 1.401497 0.312909 1.495009 0.634068 -0.283110 0.728110 0.474690 -0.869408 -1.207862 0.358829 0.366257 1.281401 -1.752212 0.018629 -2.010599 0.008530 -0.010007 -1.269477 -1.011916 0.197324 0.628591 -2.323011 -0.647554 0.376639 -0.723179 -1.025646 -0.210003 1.048904 -1.679688 0.787407 0.493528 -1.706657 1.135505 1.020801 0.776115 -1.730547 0.805983 -0.723468 -0.803403 -0.423005 1.808663 -0.350155 -0.287373 -1.215358 -0.273363 0.393781 1.614135 -0.081248 0.106167 -0.084737 -1.338636 0.406004 -1.126878 
AAACGGGTCACATAGC -0.788458 -0.033867 -0.557384 -0.899181 -1.011785 0.822500 0.360836 -0.680965 -1.126519 0.263896 -0.688341 -1.222792 0.696923 -0.008102 -0.938400 0.064575 -0.875315 -1.519715 -0.762088 0.236186 0.837461 0.199651 1.186067 -0.458720 -1.072760 -0.674833 0.687778 0.729378 -1.487391 -1.689350 1.015817 -0.693291 -0.115220 -1.429230 -2.459720 -1.002290 -0.308586 1.422575 0.161486 1.043911 -0.366665 0.905681 -0.441972 -0.311595 0.361063 -0.957851 0.312597 -0.891028 0.016401 -1.553502 -1.575345 -0.182888 0.060638 -0.175048 0.507610 -0.675624 0.258397 -0.387027 0.183331 -0.091676 -0.107566 -0.838799 -1.954742 0.715654 -0.462147 0.479185 0.218810 0.381186 -1.773940 -1.163500 0.122028 -0.026990 -0.717808 -1.210186 1.179836 0.962429 -0.743391 1.269682 -0.431147 1.449229 -0.348383 -0.839518 0.381522 0.380266 1.606368 0.203405 0.088508 -1.760175 1.616863 -1.123050 0.349071 -1.849881 -0.028565 0.138146 0.522860 -0.169257 -2.056882 1.360863 -0.577957 0.269993 -0.043860 1.224014 -0.426596 -0.914309 1.209070 -1.859453 -0.451684 2.907627 -0.179517 0.272476 -0.870836 0.346319 0.908660 -1.989428 0.287713 0.461350 0.130197 -0.098968 -1.435384 0.584554 -0.774561 1.043181 -1.246487 -1.978151 -0.025920 -1.172279 1.331766 0.287524 -1.473131 -1.054237 0.376306 -0.930072 0.594443 1.022028 0.963481 0.592548 -1.546532 0.345355 0.019705 -1.858851 -0.776367 -0.321395 0.966468 1.198167 0.264071 1.010064 0.470219 -0.502190 0.587101 1.178228 0.085179 -1.472598 0.548768 0.280553 -0.592997 1.292225 0.795003 0.168304 0.927452 0.385647 -0.830071 2.239965 -0.224226 0.251826 -0.790113 -0.668760 0.126857 -0.664335 -1.600379 1.677752 -1.345479 0.819968 -1.315394 -0.655070 -0.283093 -1.257313 2.129327 1.298347 -0.233685 0.041447 2.438983 -0.750809 0.562421 0.671626 1.001739 0.397679 -1.056797 1.107741 -0.679856 0.017398 -0.136449 0.249133 -0.850822 -0.064428 1.961482 0.208006 -0.675277 -1.767541 0.011475 -0.686681 
AAACGGGTCTTTAGTC 2.183802 -0.741515 0.652546 -0.061469 -1.992733 0.351217 0.672165 -2.320293 1.034605 1.796263 2.571524 -1.336807 -1.863621 1.329496 -0.151783 0.494494 -1.783306 -0.341424 -1.552590 0.052026 -2.714541 -1.768297 3.014160 -1.816675 -0.000782 -1.552209 -2.518243 -0.230524 -0.970023 0.398861 1.467380 2.446490 -1.579571 1.076902 0.626889 0.851992 0.112161 0.599341 0.633671 1.671896 -2.934562 1.760861 -0.542266 1.091956 1.077426 -0.949417 0.684267 -0.199187 -0.603312 0.535066 -2.284504 0.897410 -0.074227 0.868891 -0.447260 -0.388194 0.298216 -0.501921 1.824718 1.437369 -1.778760 -3.106551 0.433318 -1.796122 2.408247 -0.106965 0.081385 1.404589 -1.305799 1.518245 -0.344660 -2.005537 1.085222 2.894028 1.601274 0.958513 0.045011 -0.497578 -1.578829 -0.135357 0.515467 -0.659491 -0.906419 -0.980241 -0.150860 1.180575 1.839039 -0.763988 0.586721 -3.492290 -0.455619 1.009923 -0.479405 0.006963 0.218850 -1.708943 -0.400860 2.295777 0.583591 2.712811 -2.263717 3.058751 2.397074 -3.190497 0.517605 0.660781 -1.041566 0.059149 -3.397266 -2.804001 1.467243 -0.251577 0.914543 -0.119683 -0.329293 0.283156 -0.581206 -1.529964 -1.997369 -0.039618 -0.308254 0.868752 0.942725 0.209351 0.445207 -2.243094 0.425501 -1.203380 2.752189 -0.419978 0.252817 -1.099380 0.118549 0.938982 1.903916 0.538573 -0.325077 -0.105595 -0.417921 -0.359880 -0.560190 -2.394162 -1.096744 -0.485853 1.388975 -0.476016 -0.841911 0.418545 0.985878 0.924737 0.626224 -0.012160 1.446462 1.367597 1.482788 -0.351113 -0.333799 0.108984 1.309630 0.578497 0.353172 1.762912 -0.926290 -2.788089 1.850412 -0.472600 -1.338439 -0.412577 0.525508 2.112514 -0.047954 0.103594 0.356920 1.725194 -0.899932 2.987197 1.121654 0.656580 -0.912952 0.702240 0.422828 1.272142 0.181365 1.624579 1.361500 -0.799702 3.638049 3.219515 -2.154584 0.797857 -1.297796 -1.126833 0.301881 1.917735 -4.109822 0.489614 1.558310 -1.763160 0.832956 -0.800397 
AAAGATGCATTAGGCT -0.130823 -0.463589 -0.233775 0.131774 0.455398 -0.331399 0.590773 -1.223304 1.551166 0.435064 1.576255 -0.342920 0.939934 -0.176230 0.205810 0.974439 0.033735 2.277714 -0.320380 -0.362766 -0.519025 0.298173 -0.100627 0.873941 0.131729 0.451408 -0.276995 0.418565 -0.611922 -0.041592 -0.377158 -0.836277 -0.477487 1.720983 0.635746 0.017654 0.423360 1.237518 0.455166 -0.831790 -0.816484 1.275905 0.062005 -0.895967 0.408915 -0.858281 -0.006953 0.165384 -1.021935 0.105110 0.686777 0.415755 -0.430957 0.316424 0.477965 -0.623423 -0.716781 0.230606 0.443059 -0.486075 0.637256 -0.580906 0.419870 -0.639668 0.014338 -1.324001 -0.181883 0.873715 0.383587 0.402140 0.935956 -1.168991 0.412996 0.898036 -0.070022 -1.073678 0.366368 0.131432 0.376439 0.545577 1.340362 0.235157 1.319218 0.596562 -0.225015 -0.099871 0.879552 -0.464721 -0.678310 -0.134177 -0.318056 0.456153 -0.099138 0.060598 -0.102057 -0.589687 0.928032 -0.307059 0.611717 0.194273 0.021980 -0.094149 -0.083350 0.119035 0.150155 -0.943418 -0.707892 0.462877 1.098211 -0.599416 1.268375 -0.124060 0.968360 -0.258470 1.240144 -0.351254 -0.316655 -0.368826 -0.582791 1.291972 -0.258879 0.626016 -0.406572 -0.053490 0.353306 0.037785 -0.067783 -1.167787 -0.155326 0.067862 0.721279 -0.839660 0.631099 -0.957241 1.511397 -0.829150 0.788258 0.200150 -0.229098 -0.655123 0.082441 -1.065838 0.152489 -1.459825 0.484286 0.684887 -0.684254 -0.465815 -0.589021 -0.380416 -0.381335 -0.734459 -0.336281 1.717881 -0.238478 1.576941 0.830689 0.071124 0.965981 -0.498656 -0.623343 0.313977 0.131435 -0.163435 0.288180 -1.112924 -0.039862 -0.666910 -0.526864 0.809070 0.328858 -1.866436 -0.642019 -0.101905 0.853302 -0.171587 0.287088 1.520073 -0.866298 0.127642 1.189839 0.196973 -0.215272 0.293480 0.556324 -0.463084 0.285779 0.642671 1.501891 -0.942383 1.524610 -0.139518 0.246583 1.347484 -0.435487 0.193618 0.308173 0.374745 -0.136090 -0.447293 
AAAGATGGTAAATGTG 1.639260 0.092602 0.300508 0.533833 -2.144226 -1.423700 1.469127 -0.073636 0.327622 -0.143480 -0.031049 0.599574 -0.706932 0.183618 1.521846 -0.518933 -0.812246 1.220088 -0.958965 -0.832140 -1.127063 -1.446170 1.007028 -0.822676 -1.190638 0.597579 0.117703 0.872080 -0.616628 1.533360 0.152872 -1.485277 0.674487 -0.151225 1.277744 0.480636 -0.207032 0.024164 -0.192313 0.008113 -0.309567 1.155290 0.749792 -0.949970 0.322322 -2.072641 0.037439 0.579058 -0.051566 -1.527979 0.022157 -0.501916 1.122571 -0.862156 -0.644424 -0.251668 -1.474843 0.510457 0.045506 -0.648088 0.257657 0.826152 0.220623 0.671165 0.076697 -1.594681 -0.509916 -0.359044 0.174905 1.500524 -0.921921 -1.007653 0.178188 -0.256778 -0.215993 -0.640943 0.440388 -0.103908 -0.099582 -0.692442 0.439132 1.111634 -0.230918 0.178855 -0.169242 0.054327 0.778686 -1.123775 0.974795 -0.832959 1.244955 0.264549 0.253836 0.852776 -0.143310 -0.686978 -0.275365 -0.284071 0.889586 0.439376 -0.059450 0.501786 -0.072279 -0.646079 0.972709 -1.082005 0.358789 0.515906 -0.201496 0.149198 0.942508 -1.321017 -0.623438 -1.114245 -0.583878 -0.639037 0.795044 0.166522 0.722465 0.219182 0.266134 1.252194 -0.489457 -0.545652 0.001875 -1.185716 0.162335 -0.759064 -0.848355 -0.838358 0.676976 -0.261524 -0.776824 -0.225128 -0.284141 -0.474343 0.743255 -0.516849 0.102945 -1.002332 -0.936268 0.928276 -0.894843 0.000311 1.506053 0.116929 1.021361 1.186061 -0.357086 -0.016481 0.297466 -0.698662 0.324335 1.249439 0.272170 -0.071374 -0.699403 -0.285947 0.592388 0.197103 0.748890 -0.122701 0.703926 0.935310 0.249616 1.293360 0.013623 1.187506 -1.944811 -0.760260 0.991606 -0.464344 0.097108 0.924076 0.161620 -0.401592 0.840497 -0.555825 -0.083417 0.184493 -1.152878 -0.160672 -0.241552 0.110659 2.273770 1.777858 0.870556 0.376016 0.833559 0.463823 -0.081614 -1.173772 -0.917538 0.361995 -0.571196 -0.446180 -0.093720 0.837262 1.229227 -1.961179 
AAAGATGTCGCATGAT 0.605887 -0.991580 0.010224 -1.129454 -1.178239 -0.679477 0.725145 -1.904935 1.413677 1.029106 -0.763421 -2.899052 -0.511248 1.892334 -0.233207 1.695868 0.175517 -1.157293 -0.401390 -0.598476 -0.627901 -0.723492 2.217853 -0.131705 -0.100550 -1.631899 -0.411166 -0.685329 2.188976 -0.141227 0.146849 -1.056345 -1.236864 0.107392 -0.846590 -0.165432 -1.736975 1.256797 0.001350 -1.110641 -2.028074 -0.418495 1.891963 0.262079 2.668817 -0.832068 0.588676 -0.582662 1.308238 0.637810 -1.338354 0.203627 -0.399780 -2.032815 0.325790 -4.459985 0.439184 0.274394 2.584597 0.168672 0.500440 -2.001651 -0.617545 1.998212 -1.285609 0.220685 1.293038 -0.336257 -2.056166 -0.736850 -2.309834 0.875521 -0.670276 -0.283639 1.988141 0.330245 -0.192936 0.240955 -0.214105 0.557274 0.855121 0.481151 -0.130850 0.077176 1.627863 0.290956 -0.721036 -1.374636 -0.782995 -0.219692 0.503774 0.292956 0.395355 -0.090350 1.263810 -1.600714 -3.261438 1.000832 1.332687 1.049719 0.132481 0.001576 0.374947 -1.476896 0.134010 -0.703559 0.609384 -1.790953 1.452187 -1.867730 0.806352 1.209436 -1.346861 -0.685572 0.118940 -0.173011 1.621082 0.972426 -1.363138 -0.089049 0.789671 -1.330346 -1.156192 -1.437930 -0.585372 -2.043687 -0.442485 0.119931 0.221162 0.970596 0.403310 -0.442439 -1.132395 2.165607 -2.083645 -0.483798 0.098426 0.625886 -0.099861 1.302506 -1.839804 -0.917679 -1.018015 -0.794771 0.562528 1.881053 -0.710601 -1.348218 0.453965 0.883735 0.953567 -1.219394 0.674174 1.568203 -1.493662 -2.818713 1.486429 1.214917 1.297399 -0.210853 2.137049 0.598582 1.076678 -0.493930 1.533007 0.025893 -2.397476 0.478721 -1.216815 -0.037834 -2.277990 -1.382029 1.113698 1.044254 -1.087521 0.265111 -1.773320 -0.177795 -0.685944 0.010202 2.614214 2.013876 -0.918153 0.193773 1.151586 1.031560 -0.105851 1.804422 -0.818129 -0.557646 0.196636 -0.301970 0.395550 1.186515 -0.011784 -1.315112 0.963172 -2.490257 -0.235743 0.092471 
AAAGCAAAGAACAACT -0.720300 1.698194 1.147985 -0.585552 0.589019 -1.731802 1.912246 1.312608 0.616122 -0.445751 0.868268 -0.492015 -0.781208 -0.091665 0.029483 0.148998 -0.702398 1.424512 -1.359991 0.243183 -0.609746 -2.224760 1.819776 -0.059406 -0.230681 -1.993669 -1.219750 -1.614858 -1.827679 -0.560586 -2.262106 -0.656273 -0.648709 1.016330 -0.206191 -0.765747 0.605412 1.464509 1.137782 -1.497917 -0.041355 -1.052261 0.175158 -0.697587 0.303780 -1.311297 -0.876189 0.624736 -0.013702 1.524718 -0.756724 0.618185 1.469873 -2.262825 -1.129982 -0.812776 1.552635 -1.786595 2.052828 -1.562699 0.888343 2.621720 1.810752 -1.222417 -1.195617 -2.010325 0.077401 0.772482 -0.672707 -0.268637 -2.491462 -0.190142 -0.486195 0.807314 0.938236 -0.176836 0.205748 1.961298 0.305370 -0.392326 -0.349675 -1.782518 -0.239281 0.137985 -0.083127 0.222771 0.936314 -0.691336 -1.180623 -0.232657 -0.422179 -0.391320 0.138783 0.047580 0.356215 -0.154846 -0.175991 -0.001162 0.596892 -1.323497 -2.153963 -0.598790 0.338739 -0.028169 0.248587 -2.204296 0.455774 1.429866 1.228967 -2.282133 -0.712093 0.627393 -2.129031 -0.631078 -0.597304 0.003352 2.399577 0.512065 -0.365710 -0.621358 0.776114 0.017032 0.508359 0.946219 -0.672091 0.363990 0.591421 0.374698 0.251481 0.512735 1.191142 -1.169373 -0.624202 1.669959 0.875660 -0.926431 -0.314205 0.199312 0.217306 0.561310 -0.230299 -1.035666 0.910752 -1.179284 -0.110971 0.902355 0.108733 1.674563 0.339386 2.322393 -1.121091 -1.415358 -0.969957 0.762931 -0.593133 0.271044 -1.979265 -0.420414 -1.925373 -0.738467 -0.620185 -0.603083 -1.254998 0.615117 0.040101 0.123303 -1.109179 -0.188716 -1.946536 0.914845 -1.526072 -0.924330 1.399666 -0.532855 1.534201 0.586769 -0.242196 -1.302612 2.033548 0.040056 1.373368 1.799964 -0.177137 -0.218669 -0.567423 0.156521 0.351321 -0.271277 -0.077070 -0.778569 -0.570078 2.538228 -0.824662 -1.005426 -0.621687 1.226581 -0.253549 -0.833197 -1.178074 -1.067468 
AAAGCAACAATGAATG -0.507895 0.281611 0.404293 -0.052416 0.245461 -0.214936 0.327954 0.377753 0.343714 -0.180904 -0.141215 -1.202478 -0.014407 -0.287889 -0.121422 0.280237 -0.222564 0.019007 -0.306214 0.076662 -0.356875 -0.014892 -0.003641 -0.406564 -0.412315 -0.065369 0.519066 -0.162861 -0.014226 0.963658 0.079002 -0.022855 0.202207 0.636910 0.215402 0.385344 -0.382349 0.032658 0.271653 -0.292177 0.164782 0.517689 -0.004335 0.369167 0.245763 -0.575812 0.126143 0.222888 -0.004783 0.402108 -0.933286 -0.125731 -0.125713 -0.583424 0.220355 -0.713522 -0.004291 0.008209 -0.350095 -0.080756 -0.731047 0.224037 0.222353 -0.106006 0.398880 -0.225136 -0.326187 0.406615 0.030750 -0.448746 -0.953396 0.279287 0.001185 0.463395 -0.383664 0.535474 0.307049 -0.426877 -0.083642 0.486107 -0.247133 0.470427 -0.024818 0.015925 0.000616 -1.073031 0.055111 0.153573 0.560752 -0.284274 -0.272274 0.124658 -0.556995 0.357369 0.078871 -0.356387 -0.565651 0.027794 0.286658 -0.091315 -0.346675 -0.095601 -0.529724 -0.167955 0.143972 0.380333 -0.362373 -0.090941 0.416920 -0.766142 0.174540 0.198369 -0.267538 -0.141806 0.467727 -0.870400 -0.048262 0.315350 0.260717 -0.046703 0.059789 -0.110930 0.356036 -0.065094 0.180870 0.073939 -0.280023 -0.565120 -0.412869 -0.333063 0.240965 -0.480980 0.172159 0.449678 0.027759 -0.160189 -0.546982 0.365811 -0.733172 -0.067314 -0.455663 -0.130258 -0.373983 -0.209133 0.024718 0.267466 0.208145 0.386396 -0.306792 0.321647 -0.329139 -0.058839 -0.564472 -0.585209 -0.249478 -0.397699 -0.603373 0.029667 -0.214504 -0.240420 -0.460665 0.690716 0.857404 -0.188827 -0.581269 -0.417097 -0.653515 -0.061049 0.366953 -0.401398 0.295299 -0.446883 -0.093056 0.084628 0.214263 0.076788 -0.308092 0.220340 0.401046 0.017905 0.400901 -0.163947 -0.332772 -0.155023 0.222079 -0.520500 -0.274153 0.278243 -0.668109 0.013883 -0.478550 -0.052795 -0.007308 -0.250606 -0.040065 0.431091 -0.240563 -0.285246 -0.824260 -0.119852 
AAAGCAACACATAACC 1.140069 0.192934 1.625279 -0.411401 -0.956293 0.046203 2.175196 -0.356360 -1.677720 0.946295 0.023272 0.863541 -0.250783 -1.157285 -1.664149 0.754409 -1.534076 -0.702588 0.340107 -0.107976 -1.556217 0.208983 2.082492 1.460689 -0.037920 1.253415 -0.908949 -0.782148 0.395613 -1.285705 -1.473721 0.739952 0.897356 1.447634 1.279421 -0.316372 0.433403 0.969070 -0.328130 0.532094 0.160694 0.658814 1.036419 -1.297202 -0.089875 -1.847852 -1.342621 0.550421 2.062589 0.141716 -0.382399 0.196590 0.859577 -0.192518 0.782012 -1.873437 -1.894819 1.499957 1.476874 -0.043029 -1.450707 0.756307 1.441583 -2.097865 -1.853961 -1.597899 0.371970 0.282425 -0.469161 -0.133752 -3.322354 -0.785237 -1.446363 -0.230393 0.869009 -0.087038 -2.345216 -2.425187 0.822611 -0.023152 1.198101 -0.367539 0.444257 1.799184 1.569810 0.178300 1.863506 -2.194974 1.927878 0.108489 0.785800 0.969194 3.525839 -1.120674 0.095109 0.409035 -0.885772 -0.522316 1.017460 -1.063072 0.988685 0.037282 3.429341 -1.613931 1.559411 -1.791790 -1.080291 1.670452 1.197784 -1.119285 1.497596 -2.479645 2.203457 0.830634 0.700774 -0.309432 2.012633 0.417385 -2.023267 1.638777 -0.717553 -0.222189 -1.163624 -0.432595 0.218197 0.742299 -0.429665 -2.051899 0.801951 1.586778 0.153623 -2.943918 2.184271 1.691520 -0.715035 -0.789488 -1.234538 1.643315 -0.121065 0.786850 -0.274950 0.167093 -1.400553 -1.545288 2.185172 0.752824 0.219334 1.467007 0.497862 -0.747573 0.523151 -0.205150 0.473292 0.249243 0.525391 0.470586 1.680746 0.237193 -1.441559 0.746001 -0.967394 -0.294985 -0.409751 -1.363367 0.759991 0.217207 -2.852342 -1.490893 0.003417 0.789314 -2.266716 -1.161528 1.108425 1.040426 0.930972 2.002052 -0.524310 -0.613852 -0.249916 0.954925 1.594403 -1.369620 1.438373 -0.708336 0.360673 1.446172 -0.489483 0.091590 1.930007 -0.206253 -0.202386 2.092872 -0.054320 0.791770 -1.179428 0.621066 1.936536 0.239696 0.476902 -1.685530 
AAAGCAACAGGCTGAA 1.121064 0.121616 -0.704804 -0.253186 -0.076364 0.235047 -0.528335 -0.590594 0.262248 0.391256 1.233938 -0.216506 -0.400871 -0.127310 -0.007279 -0.827907 0.327521 -0.300226 -0.917999 -0.021815 0.197824 -0.212054 0.354824 0.055826 0.006343 0.026773 0.578800 0.207179 -0.223276 -0.507878 0.732043 0.133681 -0.184342 0.309935 0.659715 0.347805 1.065867 1.290158 0.147952 -0.006656 -0.751794 0.425181 0.077633 -1.223490 0.101659 0.112094 0.082897 -0.488503 0.335417 -0.179376 0.022101 0.297299 0.474502 0.422780 -0.078617 -0.261153 -0.894326 -1.992736 0.268528 -0.255481 -0.023912 0.063910 -0.071706 -0.499322 -0.598018 -0.463532 -0.262604 1.222705 -0.510552 1.150694 0.413348 0.046809 1.151507 0.398048 0.167485 -0.008681 -0.567001 -0.236188 -1.080445 -0.056633 -0.270467 1.036453 1.024037 0.101135 0.072556 -0.663812 0.465024 -0.525547 -0.990034 -0.709453 -0.560726 -0.193280 -0.719317 0.716357 -0.444957 -0.100073 0.202765 -0.148640 0.410479 -0.639185 0.035842 0.146309 0.761043 -0.890498 0.146320 -0.441312 -0.865991 -0.468491 -0.515872 -1.214872 -1.169436 -1.284137 0.662077 0.872421 0.045486 -0.137497 -0.601964 0.448888 0.335055 0.106551 -0.990708 0.755173 0.345471 -0.035535 -0.216992 -0.566644 -0.849317 -0.795560 -1.170374 -0.528914 0.160288 -0.612203 0.054350 -0.320350 -0.228160 0.300905 -0.057057 0.023120 -0.124062 -0.409819 0.314238 -0.490740 0.699396 -0.051048 0.188198 0.433118 0.122290 -0.327710 0.430842 0.425463 0.461799 -0.040056 0.009251 -0.358733 -0.011493 -1.079320 -0.485186 -0.073742 0.362289 -0.079314 -0.021574 0.074426 0.159281 -0.207884 -0.297234 -0.074176 0.139761 -0.608529 -0.300222 -0.118223 -0.000366 0.386737 -0.262725 0.277551 -0.156213 0.411397 0.058385 -0.380280 -0.772623 -0.457015 -0.752014 -0.152924 -0.429340 -0.228874 -0.054313 0.505112 0.107328 0.474370 -0.137165 0.246272 0.136025 -0.172487 0.510790 0.063042 -0.218210 0.216322 0.304495 -0.627955 0.102493 -0.616584 
AAAGCAATCAATAAGG -0.028085 1.612638 3.876354 0.397947 -0.655324 -1.452551 2.106379 2.108197 -1.149048 1.414965 -0.855540 0.156223 -1.579046 1.174655 -0.874531 1.438018 -4.226890 -1.131884 -0.690209 -0.540950 1.275650 0.111374 -1.574715 -0.601782 0.014720 -3.315497 0.235259 -0.096076 0.802339 -0.127134 2.218178 0.135808 -2.027810 1.814186 -0.609458 0.098814 -0.729455 2.146921 -0.564253 -0.516188 -0.860095 0.857277 1.741710 -0.852214 0.427508 -0.792434 -0.317575 -1.066568 0.742716 -1.385409 -1.969300 2.691595 -0.490231 -0.775812 -2.170363 -0.573229 -2.159939 -0.243374 1.958881 1.423513 -0.322827 -2.589663 0.827202 -0.272486 -2.252558 -1.320787 3.346160 0.709477 1.107267 2.309648 -1.449244 0.831302 -0.259436 2.301909 -1.332786 -0.765610 1.732614 1.083782 -0.749750 -0.542628 1.639201 -0.021628 -1.299866 -0.046959 0.997647 0.346305 1.077351 -1.655085 0.187694 1.440269 2.325911 -1.478165 0.651948 -0.046953 0.013343 -1.116965 -2.109869 -1.672420 -1.370654 0.882620 1.003585 0.751896 -0.015440 -0.597761 -1.014233 -2.419093 0.287704 -0.238260 0.899047 -0.165694 -0.184411 -0.790997 -3.659564 0.391571 0.141718 -1.261098 1.769892 0.012012 -0.429910 1.885737 -1.753905 1.339094 1.203789 -1.389080 -1.594485 -1.410968 -0.759152 -0.078835 -0.737152 -0.952843 1.601834 -0.183856 0.302874 -0.625297 1.561149 -0.979440 -0.431345 -1.130707 1.406293 0.292587 -0.167520 -0.476911 -2.610132 -2.037967 0.141780 2.837794 -0.820973 -2.787569 0.968393 1.098426 0.956948 -1.782025 1.917334 -1.788140 -1.259183 -0.065856 1.054748 0.799922 0.639442 1.059868 -3.547340 -2.311091 -1.740833 -1.365794 0.151416 -0.745523 -0.982288 -0.304787 -0.256750 0.633700 1.578649 1.985274 -0.124433 1.065623 2.297959 1.106191 0.176730 1.640135 0.770684 -0.948189 0.618594 1.338314 -0.027883 1.125957 -0.252965 1.476804 -0.364445 0.296113 1.186039 -0.164005 0.495436 0.995437 -0.263026 -0.385791 -1.988997 -0.074466 1.010577 -1.696112 -0.084896 0.277769 
AAAGCAATCTACCAGA 1.053149 -0.102427 -0.593499 -1.914199 -0.133224 -0.704718 -0.247167 1.142653 -0.076077 -2.120253 0.404216 -0.124756 -1.089196 0.863583 -0.057282 -0.684064 0.287232 -2.320902 0.017370 -1.534521 2.484744 -0.858594 1.124809 1.173934 0.096824 0.349927 -0.829410 -1.008132 -1.338534 -0.728449 1.412421 0.254992 -2.999389 2.108619 0.021047 -1.619215 -0.924716 0.597988 0.695717 -1.912168 0.724095 0.678702 2.082090 0.399974 -0.472523 -0.426554 1.592787 -0.698608 -1.739533 0.449201 -0.438859 3.028531 0.131624 -0.710308 -0.853818 -0.435463 -0.040020 -4.483264 2.237179 -2.688813 -2.586777 0.021106 -0.905925 1.668445 1.037399 3.658941 0.676854 -1.721115 2.326195 2.972600 -1.927109 -1.250837 -0.999755 2.873722 -0.156600 -0.214437 -0.926087 -0.724267 -0.496804 -1.295556 0.147570 -1.236299 -0.144042 -1.042891 0.404858 -0.029403 -0.187113 -1.648902 1.408563 0.657421 1.682352 -1.050228 -0.853524 -0.138665 0.230664 -0.571216 -0.537503 2.120180 1.897796 -0.939792 0.734293 2.304213 2.065911 0.497353 1.441152 -0.016757 -2.397843 -1.457709 -1.033094 -0.246327 -1.129736 -0.895231 -0.844473 -0.307192 0.637141 -1.039755 -0.097519 1.791159 -0.532879 -0.932840 -1.391172 1.017413 0.752866 -2.613653 1.016332 -3.035278 0.859185 -1.964274 -1.457312 1.415597 -0.448830 -3.069942 0.681153 0.557394 0.394055 0.548506 -0.625746 1.206827 -1.098304 -0.995012 -1.486939 -1.764947 0.326702 0.015205 0.017813 2.895671 -1.525797 2.022929 2.104127 -0.716460 1.188259 0.198222 0.296641 2.213947 -1.887282 -0.532671 0.179160 1.077848 0.310208 -0.866849 0.859232 0.995681 0.588790 0.261873 1.308981 0.732277 0.510300 0.155816 0.995969 -0.547450 1.357860 -1.652780 -1.971158 -2.184186 2.785971 2.050515 -0.702907 2.506534 -1.453540 0.456181 0.988452 -0.298690 0.645747 1.665133 0.348628 -0.852118 1.317601 -0.864672 -1.091094 -1.056882 -0.251047 -1.363401 -1.371780 1.806875 -2.250576 0.280404 0.267688 0.526963 0.221520 0.223853 
AAAGTAGAGGTGATAT 2.969480 0.656648 0.569164 0.403590 -0.051398 -0.837862 1.181678 -0.567399 0.961511 -1.510951 2.590345 -1.049894 -2.485514 -0.527672 -1.365389 -0.943589 -0.651739 -0.358734 -1.610530 -0.943469 -0.263727 -0.125745 1.997690 -1.108571 -1.013099 -2.147072 -0.711630 0.905227 -1.153345 -0.188805 -0.935394 -1.409966 -1.266050 1.048719 2.177321 1.021598 1.109089 -0.291263 -0.408116 -0.042436 1.645532 0.668952 1.707046 0.955790 -0.361386 -0.650260 -1.059057 -0.202585 -0.093503 0.098171 -0.694716 1.814217 -0.244083 -2.253664 -2.083476 -1.067127 -1.332411 -2.548647 -2.238904 -0.654540 -0.989367 0.813205 -0.960416 -0.287196 1.371325 1.480310 -0.143957 -0.762907 -0.215553 1.683907 0.536215 0.708027 -2.943191 -2.904308 1.706965 0.168484 -0.658045 -0.469958 0.418094 0.678584 1.449300 -1.633257 1.124225 0.553943 -0.061568 -0.640421 1.971598 -2.676609 1.354845 -2.950247 -0.054516 -3.061713 -1.076710 3.586366 -0.124650 -1.006553 1.359992 1.430556 2.503943 -0.500943 -0.766119 3.420151 0.294855 0.391217 -1.057947 -0.708463 0.957520 -0.323573 -2.058709 -0.279661 1.359376 0.674448 -1.097839 -0.261087 0.270379 -1.391599 0.203019 1.697652 0.908760 -0.555265 0.163921 -1.550728 2.202869 -1.195130 0.634545 1.491713 1.197471 0.657479 -1.587098 -1.298900 -0.317839 1.287295 1.936567 1.474273 -0.153788 0.475180 -0.454283 -0.427523 0.066200 0.533435 2.355548 -1.354898 -0.499246 1.407899 -1.162076 3.346515 0.760612 0.405518 1.239220 -1.511783 0.545132 -0.575948 0.226292 0.831790 1.645088 -0.595291 -0.065380 0.018585 0.568023 -1.780784 0.221409 -2.237926 -1.631004 -1.116828 -0.527809 -1.070893 -0.895368 0.483214 -1.177962 1.909102 -0.754828 0.963987 -1.798511 -1.626836 -0.144236 2.163823 1.701913 0.835802 -1.460470 1.720749 2.078765 1.238005 -1.178186 1.608737 -1.782087 -2.100239 -1.059821 -0.082608 -0.901920 -0.809552 -1.310436 -0.500345 -0.305999 -0.467291 -0.799102 0.902647 0.788458 0.761457 -0.216185 -2.118690 
AAAGTAGCAACACCTA 0.274773 -0.818698 0.678684 -0.018874 1.493701 -0.568121 0.226634 0.444155 0.008236 -0.352662 0.899134 0.377168 0.087410 0.144236 -0.132664 1.529489 -0.188801 0.486306 -0.254599 1.281138 1.378577 -1.764826 1.040519 -0.204720 0.353587 -0.711668 0.524063 0.843610 -0.615921 0.830023 -0.712852 -0.564030 0.109177 -0.366279 0.296422 -1.445258 0.814671 0.469162 1.160305 -0.489495 -1.229778 0.479860 1.063107 0.232547 -0.385830 -0.584105 0.349604 0.123603 -0.335945 0.202659 -0.184379 0.302122 0.615067 0.382976 -1.006197 -0.313099 -1.025291 -1.330874 0.257558 -0.727266 0.895427 0.184282 0.163060 -0.259001 0.242982 -0.328426 0.419829 -0.343692 -0.404972 -0.584634 0.015002 -0.236521 -0.819895 0.487336 0.625963 -1.647277 -0.740327 0.300991 0.120491 -1.750383 -0.376302 -0.426463 -0.479472 -1.535044 -0.416278 -0.849374 0.655274 -0.610191 0.604393 -0.560836 -0.361234 1.157333 -0.316361 -0.188146 -0.716455 -0.460484 -0.088920 -0.573760 0.461091 -1.412896 0.552189 0.609013 1.046573 0.032437 0.150584 0.248648 -0.003471 0.186051 0.354567 0.119262 -0.246378 -1.802515 -1.175736 0.933422 0.747042 -1.067796 0.356772 0.667780 0.675778 0.608510 0.607701 0.832954 -0.066293 -0.361693 0.236951 -1.084467 0.786811 -0.319451 -0.133897 -0.674418 0.208629 -1.597961 -0.522675 0.404955 -0.370986 -0.281876 -1.211841 -0.357158 -0.061659 -0.831599 0.368553 0.517632 0.016552 -0.373787 -0.111220 1.548768 0.326007 0.852369 0.967255 0.089171 -1.193747 -0.681899 -1.129904 -0.257815 -0.140997 -0.846903 0.355765 0.448105 1.480963 -0.480148 0.119000 -0.626953 -1.040658 -0.353487 0.223403 0.121747 0.077033 -0.678332 0.249181 0.849094 0.070168 -1.106108 0.036448 1.877204 -0.392220 0.407930 -0.747142 0.485277 0.689262 0.146545 1.369369 0.497504 -0.215606 -0.697995 0.529111 -0.257539 -1.017679 0.311294 -0.740215 -1.205675 -0.558281 1.690722 0.733603 1.064259 0.695712 -0.002215 0.241219 -1.470604 0.488532 0.420526 
AAAGTAGCATCCCACT -0.444941 0.770247 0.023773 -0.013685 0.034187 -0.219656 -0.174608 0.111082 0.663549 0.016156 -0.053965 -0.871013 -1.287141 -0.551636 -0.498314 -0.501970 -0.558011 0.526595 0.085617 0.044889 -0.369038 0.006160 -0.014950 -0.161807 0.007333 -0.608574 0.267120 -0.846584 0.258937 0.511115 0.271295 0.223095 -0.499797 0.213347 0.050701 -0.513890 0.418943 0.833043 1.042786 0.135483 0.566003 0.633614 -0.500033 0.282485 0.190613 -0.114343 -0.465061 0.269713 -0.173806 -0.068126 -1.078274 0.207524 0.037300 -0.029043 -0.479457 -0.265872 -1.097667 -0.605743 0.149493 -0.111826 0.621746 0.523937 0.575954 -0.141594 0.010792 -0.101929 0.464492 -0.447163 -0.098494 0.493435 -0.775695 -0.053352 0.250201 -0.150147 0.853601 0.635242 -0.606340 0.606098 0.611911 0.475961 -0.032045 0.112914 0.431305 0.973779 0.028782 -0.067416 0.243442 -0.916469 0.171467 -0.451833 0.030322 0.283639 -0.101811 0.446405 0.849150 0.307636 0.488261 -0.298054 -0.838402 -0.400572 -0.121479 0.340842 -0.135838 -0.537133 -0.108829 -0.065482 0.236054 0.172910 0.307558 -0.172579 0.111201 -0.284933 0.094359 -0.584497 0.597021 -0.290429 -0.587599 0.121982 -0.107731 -0.408158 0.497687 0.769494 0.289043 -0.222230 0.282551 0.375758 -0.325624 0.075844 -0.934877 -0.170593 0.326952 0.472577 0.265099 -0.075246 0.064742 -0.037798 -0.197867 0.076513 0.600260 -0.631792 -1.216386 -0.173396 -0.767177 -0.881168 0.820596 0.489520 -0.109742 0.279634 -0.452410 0.087774 0.446116 0.370608 -0.423864 -0.821658 -0.472587 -0.030888 0.579103 0.784851 0.431683 -0.249548 0.287442 0.175984 -0.458276 -0.823774 0.063145 -0.542466 -0.585841 -0.608690 0.157896 -0.060588 0.885568 0.747445 0.018113 0.191180 0.302585 0.006486 0.223867 0.423345 0.737081 0.824558 0.741146 0.321723 -0.189316 -0.050427 0.499536 -0.719481 0.168641 0.041654 -0.291656 0.113072 -0.147820 -0.136930 0.004017 -0.716281 -0.146386 0.230200 -0.268429 -0.088807 -0.294740 -0.397311 
AAAGTAGGTAGGACAC 2.066585 -1.266683 0.263317 1.095661 -1.400714 0.616239 2.567509 -0.950425 -0.483510 0.184670 -0.181459 2.585283 -0.377582 0.165034 2.756593 -0.423888 0.065699 1.106971 -0.266380 -0.747268 0.189398 -0.207257 0.191134 1.780088 -1.511839 2.650468 0.741276 0.385936 -0.580034 -0.751565 -0.080199 0.603742 -0.515758 0.860847 0.115690 1.569960 -2.164036 0.302956 0.198122 0.487640 1.023242 -1.859546 2.901506 -0.597737 0.116842 -1.325066 -0.228698 1.056273 1.687157 -1.349112 -1.917181 2.275578 1.349917 -0.331877 -1.632837 -0.930431 -1.901057 -1.947001 0.604209 1.065608 0.907461 0.619648 1.753981 1.180675 1.125009 -1.052765 1.675145 1.543630 0.083823 1.716363 -0.459884 2.821424 -1.253142 -0.641121 2.125022 0.422968 -0.827838 0.733288 -0.529236 -0.367836 2.852780 -2.003509 -0.201753 -0.067747 1.870006 0.656714 1.169978 -0.725964 0.889062 -1.718599 -0.734722 0.314834 -1.405718 1.627946 1.449802 -1.783633 1.340818 -1.683027 1.479266 -0.954263 -1.598259 1.342022 0.066851 1.532149 -0.197933 0.971678 -2.405529 -0.562662 -0.476943 -0.070501 -0.100665 -2.863101 -2.534182 0.599621 -0.428276 0.008020 0.447765 -0.635088 1.467005 1.038246 -1.503293 1.080581 0.797611 -0.166001 0.850586 -0.020482 0.214206 -0.950756 1.071360 -0.104819 -0.575639 -3.869306 -0.871561 1.008252 1.524269 -2.149098 -1.574847 0.728768 1.180214 1.895721 -3.058025 -0.725245 -0.617920 -0.983791 0.239894 -0.685597 -0.551082 0.017477 1.765010 1.287414 0.925508 0.018415 -0.664879 -1.774781 0.477268 0.859412 1.882349 1.876018 -0.263571 -0.898937 1.574645 1.708880 -0.492325 -0.361421 0.694404 -0.314253 0.380391 1.493576 -0.059054 2.826905 2.461845 -0.555857 -0.012861 3.316305 0.140319 0.224429 0.790840 -0.987402 1.058779 0.434450 1.431131 1.257021 0.007011 0.625267 -1.187045 1.297064 1.263437 0.363474 0.494623 0.423696 -0.915877 -1.641795 -0.113674 2.938035 -1.837767 1.534564 1.032336 0.078263 -0.209163 -0.277768 
AAATGCCCAATGGAAT 0.188501 0.027430 -0.478491 0.204705 -0.542120 -1.078175 1.454810 1.929617 1.378481 1.481451 4.040832 -0.282730 -2.320506 0.516037 -0.966958 -1.412196 2.333997 1.137056 -2.024960 0.623166 -2.768197 0.401921 1.232505 1.244944 -0.541235 -1.051699 -2.762766 -2.361919 -0.076129 -0.274437 -1.204288 -0.371632 -1.382066 -1.245333 1.995238 -0.147843 -0.850591 2.094305 0.752842 2.589005 0.436126 -0.224269 1.626583 -0.033620 -1.861132 -0.512811 -2.163523 0.945380 0.058475 -0.290067 -1.725644 -0.597775 -1.089920 -0.450298 -1.095802 -4.450086 -1.301352 -0.844696 -0.049790 0.505103 -0.337062 0.970140 1.251647 2.982719 -0.118344 0.519416 -0.677231 -2.669362 -0.048252 -0.799653 -1.511513 0.886517 -2.761371 -1.625254 2.378966 -0.753919 -0.290427 -1.314830 0.047305 1.438024 -1.106195 2.571647 2.126416 -1.456005 2.018090 -0.327644 -2.128850 -1.621247 1.376986 -1.741767 0.413525 0.280882 -4.349437 0.204674 0.993218 -1.924244 -1.463487 0.716225 0.735244 3.039935 -0.933932 1.164015 0.683055 0.968205 -0.535553 -1.688218 -1.714137 0.960607 -0.199852 -2.256492 -1.682575 0.119887 -3.334466 -1.710686 1.229636 1.250086 2.556186 -2.048597 -1.902617 0.216989 -0.961284 1.289398 1.746127 -0.669957 0.017244 -1.479702 0.052377 -2.026666 -2.089704 -0.844760 -0.022509 -0.879015 1.154870 -0.899232 -1.563611 -2.275856 0.340800 -2.013134 -0.285858 1.835289 -1.263846 1.138519 0.189268 1.256066 -0.128053 1.939451 0.500816 0.261500 -0.722694 -0.488349 -0.009278 -0.306051 -0.979606 -0.110387 0.000995 -0.719887 1.491660 -0.754753 -0.512816 -1.463288 0.392940 2.101721 0.739747 -2.823949 1.591641 -0.351895 1.015610 0.107389 1.677797 -0.310976 0.930235 -1.753591 2.247310 1.959501 0.661422 0.432523 -0.060350 3.088555 -2.137956 1.691607 -0.465093 1.371208 0.404144 0.784767 1.736766 1.919014 -1.341230 0.986314 0.327135 -0.623123 -0.504901 0.686481 0.944963 -0.178804 3.068948 0.538994 -0.465865 -0.297122 2.019128 -2.874220 
AAATGCCGTAAATACG 1.295847 -0.277599 -0.054389 1.608568 0.597492 -0.937630 1.679406 0.544243 -0.641513 0.124787 -0.315425 0.782172 -0.610226 0.855933 1.892188 -0.321727 -0.005190 -1.284495 -1.103676 -0.193536 -0.552050 0.164714 -0.014463 0.277897 0.319464 -1.051151 0.591230 1.188362 -0.294196 -1.735192 -0.245862 -0.522851 -0.008192 0.231717 0.458015 0.471630 0.453918 0.515957 0.116695 -0.346957 -0.671588 0.018470 0.508319 0.447471 -1.501927 0.417336 -0.008803 -0.535493 0.278409 0.361741 -0.511736 -0.334919 -0.816528 0.461149 -0.372751 -0.731642 -1.332381 -0.964510 0.055635 -0.419028 1.136305 -0.880120 0.604481 -0.550512 0.249947 -0.185113 0.869610 0.374851 -0.397219 1.901142 1.890190 -1.160148 0.621213 -0.466311 -0.700297 -0.252940 0.169582 -0.460977 -0.532167 -0.785643 -1.180965 -1.331291 -1.125445 1.070446 -0.455184 0.364662 -1.163375 -1.509655 0.222337 0.096138 0.408650 -0.055637 -0.529767 -0.720103 0.153720 0.045577 -0.286130 0.040113 1.029926 0.155259 1.168803 1.640691 1.341665 0.678151 0.471805 -0.455575 -1.982934 -0.303615 0.261788 -0.988327 -0.142775 -1.399201 -0.331166 -0.111684 -0.918336 -0.786466 -0.092863 -0.011527 -0.306981 0.245763 -0.521364 -0.195574 0.279765 -1.247496 -1.459420 0.289115 -1.148325 0.169788 -0.625085 0.787996 0.514014 -1.015666 -1.133774 1.392530 -0.276214 -0.154048 0.130361 0.458165 0.529960 0.814239 -0.384456 -0.201491 0.898218 -1.941753 -0.276002 1.248840 1.258188 0.816943 0.507147 1.174126 0.963520 -0.498459 -0.440095 0.465822 -0.216091 -0.029086 0.889929 0.550750 0.695171 -1.976036 -0.534917 0.553661 0.425567 1.140609 -0.274606 0.321465 -0.431629 -0.334538 0.874792 0.449929 -0.052553 -0.262026 1.245304 0.669716 -1.212200 0.054656 -0.201618 -0.055576 0.309222 -0.346548 0.217476 0.703130 0.201587 -0.188895 0.674300 -0.138432 -1.420061 1.223741 0.095682 1.044820 -0.131026 0.311169 0.634254 0.234994 -0.319177 1.809511 0.293364 0.146522 0.637205 -0.582306 
AAATGCCTCGAACGGA 0.370046 0.852699 -0.071145 1.429590 -0.070950 -0.855841 0.001782 0.472115 -0.978821 1.194710 -1.102132 -0.171366 -0.350400 0.241934 -0.097995 -0.056482 1.532633 -0.290397 -1.493050 -0.932095 0.012398 -1.343320 1.390253 -0.613384 -0.010146 -0.450358 0.911488 0.949686 0.561509 -0.465776 -0.059531 -1.587975 1.704113 -0.813424 0.681066 1.376408 -0.950691 0.277006 0.537530 0.390254 1.526757 0.547575 0.181042 0.902525 0.477144 -1.413441 0.388860 -0.259554 0.265244 -0.301443 -0.616846 0.206037 -0.583210 0.501344 1.762035 -1.674665 0.664062 -0.184782 -0.522388 -1.113404 -0.634213 -0.612748 0.065772 -0.003145 -2.083342 -0.119207 -0.439681 -0.142137 -0.336764 0.061345 -0.484288 -0.259123 -0.577535 0.009505 0.668579 0.382010 0.849954 1.782322 0.662793 -1.095132 0.828758 0.554132 -0.254318 1.573212 1.453989 0.487804 0.293472 -1.334985 1.363474 -0.947629 -1.252557 0.295710 0.738015 0.776510 -0.259746 0.833211 -2.084864 1.217532 -0.868666 -0.380793 0.973272 0.364845 1.115523 0.063076 1.388435 -0.343435 -1.438565 0.412244 -0.669581 0.697409 -0.464366 0.339149 -0.473548 -0.688380 0.950016 0.339070 -1.087643 0.565506 -0.783234 0.065400 -0.061160 0.280534 0.231630 -1.381869 -1.664129 -0.322019 -1.161456 -0.997744 -0.006406 -0.499674 0.188813 0.078722 0.596205 -0.264631 0.191445 0.452692 0.633467 -0.229156 -0.981801 0.328286 -0.690552 -0.302838 -0.806208 -0.484357 0.376887 -0.642254 -0.396666 0.916181 0.615811 -0.192235 1.506981 -0.019979 -0.844353 -0.020856 -1.426646 -0.244421 -0.334972 0.495899 0.210852 -1.011503 -0.377129 0.165385 0.285421 -1.505135 -0.681368 0.021842 0.892916 0.158152 0.499347 0.714433 1.119516 0.035378 -1.120261 -1.587614 -0.029752 -0.647133 0.291687 1.213419 1.611620 1.909211 0.879539 1.423596 -0.159844 0.993991 0.616791 -0.481550 -0.234644 -0.430346 -0.676283 -0.235965 -0.892177 0.536036 0.962100 -0.320758 0.283627 1.202502 1.177338 -1.151100 -0.354698 -1.193459 
AAATGCCTCTACTATC 1.409670 -0.069244 -0.451427 -0.367661 -0.880437 -0.858508 1.708740 -0.022084 0.084303 -1.410547 -0.450099 0.151358 0.655135 0.198260 1.043064 -0.507606 1.016221 -0.070248 -0.292589 -0.674185 -0.186088 -0.782379 1.349799 1.640331 -0.682775 0.404072 -1.106009 0.409254 -0.800741 -1.053427 0.582910 1.029372 0.535168 0.511043 0.828129 -0.720114 0.079850 0.853631 0.649221 -0.439045 0.546576 0.529440 0.717406 -0.146750 -0.148518 -0.888917 -0.763583 -0.165635 1.075432 -0.283441 -0.654830 0.409991 0.247967 0.440536 -0.783644 -0.412645 1.398371 -1.297044 0.503549 -1.135607 -0.207208 -0.222192 -0.316858 -0.091906 -0.196128 0.252427 1.434054 -0.249119 -0.391578 1.412864 1.038588 0.016393 -1.101719 0.285170 0.566625 -1.530516 -0.990470 2.505848 0.355070 0.286018 1.846783 -0.550752 0.065157 0.352290 1.249641 0.488968 0.731701 -1.439149 0.100655 0.363855 -0.171931 -0.306986 0.035314 -0.321581 0.291118 0.215722 -0.076422 -0.451510 -0.090423 -0.640591 0.253384 0.387090 1.093227 0.463846 -0.237203 -0.301970 -0.937594 0.904784 -1.075073 -2.072311 -0.357408 -0.570983 -0.278325 -1.446042 0.316692 -0.007852 -0.185320 0.414141 1.529429 0.514586 0.857529 0.481456 0.224624 -0.167885 0.164219 0.164613 2.231823 -0.408962 -1.639469 -0.410095 0.314720 -1.299928 0.417502 0.856289 1.126467 -0.877275 -2.098155 0.947270 -0.363480 1.052099 1.283822 -0.263248 0.398904 0.634323 0.208928 0.345958 0.346870 0.646892 0.517368 -0.333961 -0.592461 -0.186725 0.103884 0.471475 -0.226248 -1.000823 1.503559 0.171874 0.341383 -1.451509 0.071139 0.639207 -0.013723 -1.379872 -0.656398 -0.500662 0.001127 0.209553 0.812217 -0.100772 0.502829 -0.866159 -0.028708 -0.518519 0.631630 0.478782 1.300177 -0.433123 -0.409398 0.280371 0.144007 -0.018654 -0.066920 -0.539235 -1.029313 -1.240281 -0.233025 0.236129 -0.157691 -0.924636 -0.447225 0.109482 0.624511 0.038521 -1.167306 0.654337 -0.313383 -0.533839 0.923310 0.814184 
AACACGTAGTCCCACG 0.050730 -0.146472 0.158092 -0.134510 0.530919 -0.323111 0.222995 -0.518326 0.304890 0.071007 0.131913 -0.448549 -0.422289 0.249561 0.369944 -0.209186 -0.139670 -0.148217 -0.123798 -0.513261 0.364574 -0.079197 0.180436 0.003742 0.360405 -0.480953 -0.292823 -0.296884 -0.956492 -0.334856 0.002302 0.593140 0.143787 0.302042 0.303528 0.046041 -0.075493 0.032478 -0.255052 -0.701529 0.108640 -0.328244 -0.067577 -1.064612 0.184796 -0.956954 -0.150866 0.073151 0.022699 0.376275 0.235365 -0.914240 0.516383 -0.244432 0.171087 -0.254425 -0.150991 -0.301717 -0.121655 -0.505738 -0.080125 -0.072596 -0.091642 0.101887 -0.509058 -0.813433 -0.128535 -0.217121 0.027870 0.902557 0.028235 -0.716041 -0.674329 0.166696 -0.350231 -0.288955 -0.100326 0.352436 -0.051011 -0.156298 -0.095284 -0.435644 -0.102295 -0.393753 -0.108701 -0.364830 0.561316 0.472169 0.186741 -0.146705 -0.429065 -0.459228 -0.111304 0.800103 0.301932 0.267362 -0.064421 -0.241137 0.202244 -0.133412 -0.209488 0.015295 -0.432007 0.121947 0.472128 0.264870 0.117879 -0.139584 -0.012440 0.264108 0.089704 -0.413692 -0.292335 -0.615840 -0.017040 -0.438868 -0.458265 -0.178138 0.786344 0.427100 0.374789 -0.526130 0.033496 -0.257090 0.378558 -0.110900 0.740947 -0.397602 0.038634 0.199849 -0.055314 -0.009943 0.487363 0.155068 0.587489 -0.529579 0.153193 0.571106 -0.146372 0.081973 0.097044 -0.885295 -0.954516 -0.091513 0.525877 0.385538 0.221083 0.048483 -0.117546 0.313151 0.240861 -0.317466 -0.643065 -0.478311 -0.725959 -1.036960 0.150890 0.393475 0.190067 0.628891 -0.518896 0.098679 0.588837 -0.395791 0.524838 -0.015606 0.060701 -0.965108 -0.527812 0.379485 0.402699 -0.039308 0.436111 0.658731 -0.135071 -0.079790 0.362108 0.164923 0.382717 0.240814 0.667667 0.109606 -0.300995 -0.301848 -0.505576 0.005945 -0.020211 -0.296223 -0.256799 0.603548 -0.594737 -0.328788 -0.285717 -0.285830 -0.401211 -0.271712 -0.384298 0.018020 0.023673 -0.549356 
AACACGTCAGCTGCTG -0.830841 0.402743 -0.926655 0.962402 0.989022 -0.206938 0.513531 0.311931 1.158267 0.036907 0.309659 1.905852 0.840049 0.903871 -0.343519 0.349626 -0.502080 -2.835632 -0.137836 -0.705263 0.064816 -0.901735 -1.531176 -0.737007 -0.746595 -1.060058 -0.801090 -0.562289 0.694712 0.388890 -0.863083 0.264471 -0.916114 -1.856353 0.671763 2.788782 -1.418837 0.622996 1.480196 0.298021 0.039563 -0.708688 0.576786 2.012815 -0.910678 -1.706738 -0.160086 1.681027 -0.851094 -1.128035 -2.372933 0.784624 -1.936815 -0.087304 0.034984 -1.846072 1.374723 -0.239458 1.723329 -1.142997 -3.243246 -1.914505 0.297863 -1.328031 -1.116259 0.292228 0.820917 -1.979877 0.833585 0.553686 -0.390068 -1.449203 0.669940 2.088395 1.381771 -0.325432 -0.079283 -1.045261 1.828187 -0.503987 1.132729 -1.350463 -0.253050 -1.422360 1.852363 0.617013 -2.604045 -1.250603 2.416570 -0.439728 0.334102 0.346209 -0.755840 -0.218810 0.399372 1.202022 0.698320 2.235628 0.245748 0.069197 -1.538112 1.851070 1.448057 -0.049958 -0.845541 0.318377 -1.673051 0.789162 -0.176340 -0.319415 0.298913 -0.538444 -1.734351 -2.199795 1.940139 -1.978862 0.401628 -0.258495 -0.621640 1.324898 -1.049323 0.412914 1.997735 1.351979 -0.143330 0.248355 -0.006248 -2.605642 -1.180677 -0.203037 -0.550004 -0.262846 0.016271 -0.469602 0.418548 -0.523457 2.063291 0.281069 1.423703 -0.654715 -0.843556 -0.911146 -0.513177 -2.071548 -1.027220 -1.288185 -0.839818 -1.723633 -0.621417 2.733021 1.481188 0.073403 0.112209 1.071297 -1.273715 -0.623755 0.236682 0.086115 0.513243 -0.392439 0.987286 1.797104 -0.907606 0.451927 -0.413448 -1.885043 -1.462765 -0.661192 2.135461 2.631764 0.689241 -2.655850 -1.368035 0.146920 0.598028 0.445430 1.889612 0.237310 -1.229164 1.080519 0.920221 0.669839 0.877947 0.599850 -0.184457 1.138358 0.751072 -0.500200 0.607609 -0.056256 -0.243433 -0.384803 -1.934573 -0.147600 -0.214917 0.804441 1.062947 -0.826797 0.366821 -0.779059 
AACACGTGTCCGAAGA -0.473938 -0.924858 -0.071602 0.478619 1.092343 0.306029 1.236761 0.378296 0.529704 -0.322614 0.266285 0.636083 -0.705676 -0.655449 -1.226787 -0.026583 -0.000888 -0.054855 -1.410825 0.335270 -0.792590 -0.703795 -0.449714 0.143697 0.246327 0.916673 0.333806 -0.744787 -0.220491 -0.066699 -0.388118 -0.985570 -1.046222 -0.598379 -0.116333 0.596213 0.207546 0.934325 0.531683 0.592852 -0.491795 0.093098 -0.084066 -0.961324 -1.019947 0.698748 0.021806 0.200999 0.421330 0.613016 0.100707 -0.529725 0.769844 -1.499891 -1.074298 -0.605137 -0.648194 -0.262078 -0.904339 -1.306629 -0.979815 0.044957 -0.081882 -0.585420 0.208586 -0.335666 0.641701 -0.045176 0.588393 -0.418626 -0.118265 -0.669258 -0.270867 0.271830 -0.107929 -0.841237 -0.664960 -0.461472 0.367181 -0.981227 -0.309039 0.717240 0.734891 0.651490 -0.182708 1.005083 -0.150227 -1.370342 -0.577494 0.081783 -1.343588 -0.672931 -0.186919 0.013962 1.021334 -1.557391 0.188496 -0.707983 0.581299 0.318354 -0.234760 -0.542938 0.963862 0.678291 -0.214055 -0.406148 -0.012140 0.510946 1.119265 -0.161345 0.409570 -1.653831 -0.010537 -0.362742 1.389588 -0.330199 -1.016077 0.608560 -0.412876 0.967306 -0.521612 -0.183185 -0.566226 -1.178354 -0.804477 -1.165073 0.498756 -0.453289 0.801606 -0.128017 0.814055 -0.387107 0.991023 0.274113 0.366643 -1.837062 -0.148288 0.403982 0.101279 -0.655573 -0.383606 -0.302061 -0.488815 -0.657156 0.532870 0.539681 -0.724634 -0.129200 -0.847055 0.727880 -0.807606 -1.261491 -0.559022 -0.325427 -0.079535 -0.793914 -0.532075 0.098496 0.830477 0.090261 1.175473 -1.399084 -0.305129 -0.468313 -0.688058 -1.299132 -0.132004 -0.304818 0.096269 1.169702 0.141491 -0.686652 0.046695 1.090610 -1.524086 -1.091365 1.384214 0.861724 1.064175 0.034284 0.850588 -0.498393 -0.166082 0.555354 0.177300 0.193021 -0.640896 -0.907674 0.992808 -0.072391 0.210496 0.167601 0.263301 1.490220 -0.535768 0.076655 0.517367 0.360343 0.992210 -0.361954 
AACACGTTCCCAAGTA 0.039350 0.409018 1.460831 0.801846 -0.979622 -0.460264 0.132284 -1.931640 -0.077124 -0.690536 -0.677705 0.248816 -0.848067 -0.478999 -0.210586 -1.178723 -1.696250 -1.551523 -0.195102 -1.251683 -0.036573 -0.709965 0.029206 0.865658 1.165738 -1.080019 -0.448076 1.361966 0.047264 -0.548168 -0.606705 0.053304 -0.169032 1.086987 -0.891033 -0.833450 -0.163779 0.107537 1.547364 -0.414693 -0.986941 1.155267 1.177501 1.054304 -0.848326 -1.470044 0.341907 -1.467774 -0.299911 -0.971876 -0.247680 -0.209310 -0.081558 -3.134816 -2.206098 -2.078994 0.332637 -2.087615 -0.145818 0.306304 -2.206158 0.076188 1.919744 1.136601 -0.677810 -1.124257 1.382295 -0.334352 1.243107 0.349512 -0.276497 0.367116 -0.683336 0.958838 1.257796 -0.738661 0.421019 3.207547 -1.183031 -0.345540 -0.617990 -0.348127 -0.156109 -1.050686 -1.452615 0.065959 0.225320 -1.377248 -0.804589 -1.541608 -1.759484 -1.226596 0.218047 -0.172943 -0.797256 1.296255 -0.060324 -0.146016 -0.914745 1.074560 1.390066 0.637849 -0.226660 -1.538257 1.396203 0.073490 0.553491 0.824915 -1.094241 -0.093908 -0.216191 1.080664 -0.218067 -0.231655 1.060410 -1.509378 -0.538706 -0.459405 0.337280 0.930585 -1.453822 -1.565996 -0.143662 -0.171050 0.661527 -0.948043 -1.300873 -0.345611 -0.690469 -0.285324 0.950210 -0.872981 -0.647855 0.107970 -0.240023 -1.012872 -0.890202 -1.210250 -0.454370 -0.195305 0.037648 0.534453 0.725811 -0.070136 0.258276 1.052775 -2.761112 -1.257213 -0.574495 1.977895 1.288940 -0.684577 -0.421107 -1.081662 0.512288 0.362518 -1.057260 -0.583666 0.089682 -0.678030 -1.369679 -0.334070 0.216491 -0.575535 -1.046429 0.010435 0.060320 -0.899525 0.356484 0.974469 0.390767 -0.351238 0.179102 0.661024 -0.730631 1.005730 0.747735 -0.459831 -0.693777 2.082000 2.359437 -1.280154 -0.287844 0.176974 0.321352 -0.537685 0.393032 1.103589 -0.557462 -0.390892 -2.178947 1.629582 -1.191370 0.991374 -0.557034 -1.392726 0.755959 -0.280634 0.382025 0.212810 
AACACGTTCGTCGTTC 1.237214 3.337466 0.414802 0.126397 -1.452533 -0.239740 1.653750 -0.416491 -0.852084 1.259149 0.850816 -1.479790 0.159844 0.048750 0.345444 -1.011980 0.513524 -1.714463 -0.384036 0.511352 2.540121 0.293509 2.498137 0.730874 0.848421 1.633685 -0.296470 0.797430 -0.799725 -1.461287 -1.658331 1.250327 0.639418 -1.384093 0.494775 -0.572354 0.708202 -0.190254 -1.256059 -0.276963 -0.517521 -0.660093 3.077469 -1.165710 0.819581 -2.862816 -0.540108 -0.524434 1.794371 -0.344140 -1.056214 -1.808847 0.568209 -0.560484 -0.167021 -3.616095 -1.710830 0.565612 -1.341019 -1.508584 -2.383913 0.168025 0.211134 0.594751 -0.470609 -1.970123 -1.290598 1.016266 1.885173 2.455102 -1.285088 1.091053 0.381890 -0.615759 1.608456 -0.969654 -0.004415 -0.462995 -0.091787 -0.340573 0.941267 0.078230 0.179583 0.830737 1.444150 -2.567457 -0.311542 0.320871 0.294636 1.411426 -0.295686 0.659820 -2.151156 -0.497967 -0.392682 -1.875083 1.419259 0.010835 -0.402475 1.514538 0.712171 0.793587 0.736519 -0.060522 1.184659 -1.949633 -0.389471 1.692710 -1.447505 -0.184751 -0.962446 -2.842380 0.736244 -0.122246 -0.807088 1.048827 -0.330560 -1.966223 -0.779218 -1.635139 1.164631 0.778208 2.363712 0.977604 0.473821 -1.107783 0.969564 -0.703610 1.209175 0.692450 2.087772 -1.097670 1.070559 0.764949 3.084745 -2.351088 -1.175491 1.377371 1.452175 1.150519 1.192231 -0.399121 -1.093542 -0.365453 1.617619 2.035224 -0.031374 -0.345853 2.081088 0.475083 0.382243 -0.563418 2.433405 -1.029898 -1.345030 -0.799011 -0.216380 0.562871 -1.621989 0.523448 -1.175170 -0.588404 0.069413 0.525602 -0.724817 -0.569556 -0.562402 -0.651579 0.181128 1.709933 1.640024 -0.631949 2.816296 -1.001212 0.548408 -0.452819 1.053585 -0.341574 -0.791475 1.227093 2.627323 -0.455776 -0.344174 -1.236960 1.646397 -0.604001 -0.701321 2.820961 -1.277540 0.292809 -1.662169 -0.895806 -0.088014 -0.974525 -0.057172 -2.383207 -0.123174 -0.883181 -0.659003 -2.763501 
AACACGTTCTAACTGG 0.939701 -1.016129 -1.243902 -0.047709 -0.864024 -0.309831 1.242102 -0.048403 1.513203 -0.339346 2.026717 0.266789 -1.104466 1.166247 -1.085305 -0.170900 0.890059 -0.354623 -1.487073 0.598248 0.514033 -0.073366 0.431958 -1.820544 0.067543 -0.399574 -0.216970 -0.951076 -0.555654 0.021789 -0.065917 -0.157819 -0.842873 0.090731 0.531483 0.359160 -0.262306 1.834080 -0.578951 -0.611399 0.304733 0.391604 3.186134 0.927787 0.260940 -2.892540 0.169526 -1.309645 -0.557039 0.610096 1.280125 0.658960 -0.104612 0.719890 -0.193137 -2.351362 -0.484351 -0.441227 -0.235757 0.943735 -0.101518 -0.464913 -0.099236 -0.057273 1.236714 0.897742 -0.887042 0.469530 1.354303 -1.028152 0.208099 0.106836 0.579345 0.342365 1.236349 -0.149935 -1.114009 0.966530 0.034214 0.222008 1.418732 0.136075 -0.186836 -1.143463 0.769037 1.332125 0.440686 -2.165072 0.292724 -0.587960 0.730740 -0.001492 0.672195 1.696711 -0.518637 0.651170 -0.660449 -2.134358 -1.578461 0.146656 0.521052 2.174361 1.461499 -1.570404 1.718470 0.459810 0.710890 0.777532 -0.233159 -0.131859 2.782752 0.290925 0.317555 -1.969905 -0.058895 0.153598 -0.662882 -0.565757 0.803761 -0.835946 1.047061 1.246192 1.369605 -0.145729 -0.873949 1.022657 -0.608408 0.016430 0.679107 -0.459987 0.837065 -3.556606 1.067870 -0.964787 1.774040 -0.582866 -2.008478 -0.386620 -0.402739 -0.854119 -1.514189 -0.484786 -0.602025 -0.282839 1.258515 1.711190 1.012201 -1.009009 -0.947130 0.256102 1.414888 -2.629786 -1.475016 0.599550 -1.579763 -2.864089 0.043588 -0.500396 2.296865 0.763556 0.353640 1.549590 -0.540445 1.763204 -0.964663 0.312814 0.257503 -0.339770 1.183990 0.126075 -1.720037 -0.296636 -0.069079 -1.246400 0.195129 -1.165244 1.709876 0.011055 1.005893 0.628695 0.961514 0.923285 0.271315 -0.727943 0.788165 1.612796 1.412605 0.429824 -1.986017 -1.805071 -1.911098 -1.707474 0.907799 -0.681136 -2.149973 -1.839583 0.503700 1.138192 -0.300068 0.662293 
AACCATGAGTCGTACT -0.356257 -0.553711 -1.322158 0.005399 -0.404863 0.185663 -0.543903 -1.841373 0.954940 1.838874 -0.524055 0.317359 -0.608634 0.664064 1.340044 0.006162 -0.485681 -0.584840 0.969852 0.307706 3.246025 -1.325523 0.520424 1.505269 -2.496523 -2.714769 -0.890101 -0.389379 -2.398755 -1.602213 1.848535 1.301624 0.187328 0.508673 2.337031 2.298215 -1.093197 0.573536 -2.092470 1.008451 0.422710 -1.076373 0.010396 1.439802 -0.286089 -3.611345 -0.921355 0.346203 -0.896792 -1.081217 -1.177323 0.174163 0.905663 -0.641974 -1.280203 0.065273 -0.275480 -0.476562 0.273520 -0.737847 1.348123 -1.586360 0.261257 1.074656 -0.240833 0.039413 1.684721 0.876685 0.646633 0.437637 0.326224 -1.403856 -0.122437 1.479910 1.361694 -0.592923 1.895758 0.864828 -1.349220 -0.443520 1.031215 -0.692341 -1.219871 0.674436 0.641627 -0.368847 0.873602 -1.612402 1.955462 -1.624160 1.178205 -0.448209 0.042341 1.523825 -0.613941 1.471197 -0.634019 1.833708 -0.098978 0.052792 -1.819557 0.636368 -1.389877 0.213486 1.360044 -1.716052 -2.159981 0.114017 1.079229 -0.118567 0.379262 -1.307501 0.235565 -0.688971 0.116585 1.021896 -1.187250 -1.506632 0.061670 1.779823 -0.964713 4.410156 -1.192538 -1.672387 -0.285805 -0.968543 0.641089 -2.321464 3.397466 1.043995 -1.527839 -0.547693 1.430371 1.171981 0.363389 1.926814 -2.050987 2.649287 -1.959548 -0.458112 0.099338 -1.189350 -1.853183 1.252003 1.484946 0.904431 0.102994 0.481409 0.275045 2.486723 1.578033 -0.458072 -0.377939 -0.080748 -1.200380 -0.833852 1.077411 0.795710 0.455154 0.391594 -1.245846 1.259480 0.086201 0.674472 0.392552 -1.638051 -1.643800 -0.292657 -0.854799 0.593590 0.519671 0.567679 -1.125964 -0.171651 -0.489594 2.062889 0.405864 0.611655 0.770457 0.856016 0.248362 -1.567660 1.785630 0.548014 -0.835000 1.781628 -0.075972 -0.293097 -1.038434 -0.246406 -0.125067 0.749356 -0.904485 0.535812 -0.763328 2.856501 -0.245448 -1.609105 0.705662 -1.023475 
AACCATGCAAGTCTGT 0.304599 0.292042 -0.178640 0.691959 0.348973 0.022991 -0.259315 0.642067 -0.129675 0.173104 0.041448 0.283407 -0.909661 0.303839 -0.546937 0.194919 -0.020955 0.259338 -0.285396 -1.155787 -0.015032 -0.757669 0.314222 0.121522 -0.448100 -0.644581 0.440015 -0.111373 -0.094750 -0.509378 0.203635 -0.193090 -1.342963 -0.460276 0.043022 0.773802 0.180337 -0.042148 0.052573 0.686972 -0.406039 0.069858 -0.329926 -0.020069 -0.134917 -0.500091 0.046622 0.168908 -0.243429 0.153867 -0.547370 0.247175 -0.641557 0.023112 -0.389414 -1.134369 0.209887 -0.898726 0.365539 -0.369692 0.220192 0.112670 0.271859 -0.458650 -0.081290 -0.173804 0.052098 -0.289944 -0.068597 -0.473241 0.465096 0.547293 -0.246981 0.526397 -1.211414 0.101370 0.257762 -0.773236 0.107993 0.568942 0.087268 -0.241681 0.681395 0.398946 0.208909 -0.305787 0.045929 -0.345245 -0.437157 0.123842 0.555364 0.058956 -0.671318 0.809054 -0.104419 -0.892389 0.267456 0.538588 0.277958 0.057718 -0.674063 0.219297 -0.401977 0.311785 -0.286486 -0.089648 -0.137421 0.295429 0.260062 -0.061712 0.144621 -0.238537 0.193732 -0.501697 -0.239966 0.428577 0.233258 -0.616065 0.167933 0.567373 0.047379 0.067082 0.400626 -0.305151 0.611109 -0.180188 0.229517 -0.493893 -0.105354 -0.351517 0.008386 -0.079798 1.165231 0.329582 0.168254 -0.539567 0.353093 0.720179 0.134356 0.350521 0.017312 -0.901897 -0.324952 0.394469 0.708895 0.116377 -0.078853 0.283718 -0.688550 0.026762 -0.654066 -0.193647 0.213257 -0.355161 0.013561 -0.346459 0.108776 -0.030899 0.148619 0.083732 0.101175 -0.238825 0.506623 0.172049 -0.306061 -0.238691 0.007210 -0.429775 0.191906 0.147555 0.840737 -0.325776 0.123735 -0.205356 0.340149 -0.275366 -0.017891 0.566731 0.106640 -0.164325 0.754784 0.394443 0.962288 -0.459468 -0.170359 -0.066582 0.287715 0.174059 -0.177895 0.489023 0.224928 -0.017251 -0.454774 -0.366418 0.007695 -0.448929 -0.201066 -0.739081 0.746130 0.380571 
AACCATGCACGAAGCA -0.135124 2.219684 0.841339 1.851429 0.150714 0.189833 1.423905 -1.047305 -0.489533 0.647376 0.104474 2.601918 0.234489 0.770611 -1.196275 2.394042 -1.175769 1.856152 0.026912 -2.244374 0.356053 -1.728351 -0.769106 0.061171 2.681246 0.105606 -0.142233 1.325377 0.770178 -1.606990 0.894980 -0.753387 -1.282610 1.091622 1.225608 1.579808 0.921698 -0.324447 1.455583 -1.017011 -1.222982 1.488913 3.668184 -0.568142 -1.422528 0.053096 1.362856 -1.058071 1.748784 -1.099963 -1.914765 -0.262472 0.767442 -0.100638 -2.892797 -0.893555 -0.630339 -2.051290 -0.656085 -0.026344 -0.792461 -0.229134 1.547494 -0.145104 -1.324507 0.257315 0.590522 0.513209 0.895434 3.686554 -0.321416 1.085553 1.503188 -0.689593 1.982962 -0.969414 0.898414 -0.464777 0.425282 -0.721976 -0.662585 0.302771 2.283101 1.212334 -0.141386 -0.183436 0.059012 -0.803060 0.754058 1.264456 -2.179068 0.464380 0.468688 2.635991 -1.204059 -1.220233 -2.333757 -0.321225 0.772468 0.445577 1.003644 1.501069 1.087267 1.582788 -1.877157 -0.062813 -0.549404 1.720017 -0.151162 -1.721483 1.935626 -0.454652 -0.447669 -1.760044 -0.304099 1.026039 1.775070 0.262905 0.862306 -0.704938 -0.379141 -0.333938 0.232339 0.367902 0.713218 -0.904142 1.976636 -0.452371 0.749275 1.919804 0.944206 -0.451905 -2.335572 0.311296 -1.270491 -0.820633 2.384201 1.056852 0.347372 1.533907 -1.434478 1.330597 -1.056903 -1.832382 -1.120179 1.395013 -1.703490 0.668381 -0.086084 1.020302 1.636819 -1.204395 -1.317710 3.579597 -0.891445 -2.479863 -0.030205 1.583100 0.431056 -0.317611 -0.655597 -0.216620 -0.954182 -1.850979 1.630098 -0.477164 -0.518070 0.711210 -0.716131 1.792801 -1.136877 -1.459752 0.048461 1.647132 0.691583 0.867135 0.156692 0.832104 -0.017821 1.293784 0.915970 0.078730 1.069082 0.980175 0.552697 -0.186381 0.631675 1.020787 -0.188845 -0.464042 0.012729 -0.927744 -1.313195 2.047470 -1.874813 0.580969 1.710543 0.836290 0.425878 -1.527603 
AACCATGGTCAGTGGA -0.111182 0.121452 1.695197 0.371400 0.023711 0.688463 1.542655 -0.259287 -0.074005 0.904694 2.389205 -1.540208 -0.723378 0.977233 -0.474370 0.569174 0.003875 -0.393505 -0.056935 -0.158700 1.386976 -2.177343 0.203953 0.713081 0.522065 0.477743 -0.734210 -0.500960 0.697876 0.620734 -0.496745 1.454402 -0.953185 -0.128709 -0.204480 -0.351784 -0.348656 1.216590 -0.316345 0.822589 2.356493 0.337300 1.874556 -1.251381 -1.616999 -0.578273 0.962324 0.484789 0.128986 0.018430 -1.781171 -0.375521 -0.066437 -0.503064 0.108043 -0.695721 1.159757 -0.544863 1.873672 -1.323105 -1.495573 0.564135 -0.106695 -0.067635 0.709429 -0.810838 0.998292 0.321876 0.094449 0.771064 -0.490749 0.019269 -0.796477 -0.971703 -1.451935 -1.908108 0.368012 0.348867 0.008969 -1.332275 -0.231431 0.131882 -0.268834 -1.026908 1.278150 -0.509002 0.725238 -0.866023 1.331933 1.379498 -0.218877 -0.085676 -1.489809 0.661458 -1.462965 -0.415851 -2.064235 1.402245 -0.400482 -0.030919 1.819637 -0.709359 0.557234 0.646811 -0.346523 -1.639053 -1.385017 1.140812 0.319974 -2.327921 -0.394559 -0.444103 -0.649283 1.106196 -0.341268 -0.961803 1.427164 0.084638 0.491202 -1.201595 -1.504906 0.575348 -0.458860 -0.690536 1.792014 -0.218612 1.450666 -0.786949 0.582042 -0.608048 0.810883 -0.506101 0.423355 0.543377 1.698686 -1.613595 -2.382039 0.380225 -0.719549 0.984902 1.120470 -0.913662 -1.638096 1.145750 0.802690 0.608294 -0.459150 0.119994 0.213930 0.723738 -0.797562 -0.904552 0.626805 -1.621671 -0.302307 -0.501366 -1.395504 -0.917201 1.079586 0.348525 -1.470411 0.541018 -0.308980 0.185581 0.831983 -1.765388 -0.594285 1.348989 -0.887141 0.094223 -1.179687 -1.851871 0.666292 2.713250 -2.037432 0.851834 0.677657 1.697860 -0.702133 1.292086 -0.271969 -0.974551 -0.697487 0.340798 0.932499 0.987633 -1.290814 0.469909 -1.839117 -0.217471 -0.302602 -0.003248 0.994676 0.525912 -1.714778 1.427002 0.688935 -1.285776 0.051616 2.510795 
AACCATGGTCCGACGT 0.490845 1.467314 1.580807 0.099954 1.067908 -0.863944 1.401551 0.235527 -1.090594 0.368025 0.085034 -0.631168 0.319160 -0.976373 0.383424 0.745543 0.606622 -0.258637 -1.740869 -0.528112 0.718877 0.076063 0.519103 -2.271538 -1.759077 -1.939102 0.849400 2.248273 -1.118431 -0.235627 -0.349094 -0.337479 -1.564316 -0.569933 0.009296 -0.579802 0.686954 1.635315 -0.906438 -1.819398 0.343741 -0.188584 1.586118 0.501974 -0.552162 -2.114566 0.656347 -1.656714 1.570070 0.062271 -2.113064 1.088176 0.807910 1.169893 0.785583 -0.067572 0.571165 0.507980 0.310402 0.063651 -1.069952 0.395408 -1.273922 0.310610 -0.912943 0.749703 0.236965 -0.183906 1.111122 -0.798198 -0.089147 -0.082352 -1.051902 1.867372 -1.483108 -0.455287 -0.756392 -0.373157 -0.630140 -0.842558 0.357524 -1.047166 0.133678 0.070853 0.987670 0.966369 0.033986 -2.517046 2.817220 0.392307 0.556497 -2.378999 0.433491 1.292427 -0.011328 -0.243453 -0.694675 -1.166919 1.494497 -0.480673 -1.410068 0.923578 0.065172 -0.213992 -0.289485 1.074023 -0.871138 1.831677 0.777930 1.111430 -0.577691 -0.656999 -1.619335 1.169843 -0.501798 -0.350380 1.740415 -0.742127 2.369200 -0.839252 1.633883 0.329975 -1.398149 -0.270426 0.455746 -0.044537 0.751515 -1.612597 0.711504 -0.361146 -0.392668 -2.676407 1.126257 -0.847796 0.083748 0.556064 0.507352 0.843072 0.042820 2.195642 -0.711253 -1.515802 -1.328624 -1.523338 1.026518 0.064467 0.233526 0.542087 -0.306209 -0.561619 -0.126643 -0.661136 0.214381 1.342183 -0.444609 -0.499438 -1.078732 -0.709811 -0.580569 0.257934 -1.575406 -0.748046 0.501604 -0.914598 1.189930 1.173951 0.910918 1.417828 -0.248070 0.420505 0.944055 -0.225288 -0.972114 -1.042645 0.144668 -0.607364 0.700034 0.841064 0.477586 2.239270 1.218741 0.660237 -0.139064 -0.847999 0.997921 -0.086479 0.821645 1.476641 -0.788306 0.417501 0.370488 0.894399 -0.759116 -0.311731 -0.603614 0.534038 -0.095555 0.761900 1.364674 0.874908 
AACCATGTCGCCGTGA -0.027809 0.169921 -0.622208 0.332936 0.483274 0.944591 -0.335967 -0.543096 -0.650268 -0.470493 0.691889 0.438876 -0.368083 -0.480144 -0.907400 1.559759 -0.465827 -0.160726 -0.103782 -0.485753 0.625302 -1.253766 0.981928 -0.519293 -1.131497 -0.513729 -1.069394 0.480394 1.417485 0.667139 -0.096241 -1.441343 -1.031993 -0.775744 2.350967 2.128258 -0.901108 0.320725 0.155207 -0.495410 1.527527 0.455186 -0.165236 0.734315 1.418875 -1.084042 -0.092101 1.029997 -2.105828 0.880512 -1.194835 -0.678868 0.848445 0.307603 0.646596 0.908819 -0.875477 0.600656 -0.079280 0.695402 -0.243194 -0.608671 -0.278714 0.037462 0.552835 0.098731 0.434441 -1.061970 0.184804 -0.016099 -1.883993 0.539845 -1.342556 -0.347318 1.778813 -0.042673 -0.196469 -0.217453 0.205248 0.002039 0.443272 -0.013182 0.159039 0.136835 0.123474 0.044830 -0.449927 -1.028368 -0.871500 0.162977 1.610592 -2.226542 -0.681428 2.368637 1.413826 -0.050493 -1.110022 0.291515 1.165886 1.253091 0.401447 0.178812 -0.130187 0.694135 1.118590 -0.508389 -0.852841 -0.502625 0.819096 -0.046193 -1.732171 0.151465 0.240409 -0.118338 0.136199 -0.386798 0.199903 0.495913 -0.179622 -1.348413 0.386393 -0.974108 0.375058 0.213754 0.194790 -0.146887 0.361573 -1.524919 0.734488 -0.727308 -0.212416 -1.010356 0.741233 0.157503 0.145513 -0.608891 -1.259700 0.515411 0.003940 -0.664992 0.456892 -0.350038 0.659009 -1.808749 0.920538 1.694160 2.531249 1.337803 -0.114900 0.954192 -0.089829 0.570009 -0.872805 0.367828 -0.312143 -1.356080 0.034779 1.998309 0.410904 -0.292541 -0.654732 -0.930597 1.992131 -0.935410 0.575429 0.484991 1.336927 0.440091 0.460207 0.105242 1.157203 -0.288612 0.006583 0.317029 0.694407 -0.974879 0.434004 0.777918 0.330010 -0.175598 3.347703 0.609247 0.176441 0.529434 1.608713 -0.643377 -0.534824 -0.151319 -0.599480 -0.287972 -0.238626 -0.066327 0.181761 -1.662396 -1.200608 0.555775 -0.577082 0.446240 0.783522 0.094098 
AACCATGTCTCGCATC -0.168680 0.554520 1.125576 -0.246372 -0.132235 -1.292235 -0.132822 -0.086650 -1.150467 0.222875 1.196937 -1.426144 -1.526125 0.066657 0.332066 0.408423 -0.936020 -1.273083 0.424909 0.582097 0.214842 -0.803855 1.607943 -0.091594 0.856040 -0.654605 1.391337 0.062158 -1.270004 0.844859 -0.573995 0.559861 -0.261708 -0.455075 0.544165 0.766515 -0.364854 0.052287 -0.938943 -1.408849 0.105838 -0.326517 0.784011 0.258811 -0.687266 0.433897 -0.133007 0.648969 0.485589 -1.266252 -1.812679 1.093257 1.578321 -0.921467 0.093541 -2.406276 0.890858 -1.956740 1.304418 -0.520870 1.503621 1.236714 -1.004953 -1.430297 -0.672873 -1.146007 -0.641963 -0.339366 1.371586 -0.271637 -0.992088 0.410134 -2.230291 1.196898 2.192196 -0.142954 0.660106 0.613208 -0.398469 0.309893 -0.130042 0.776047 -2.381132 0.460508 0.065261 0.272754 0.446107 -0.735810 0.490284 0.045973 -0.100145 1.580318 -0.717444 -0.709053 -0.905423 -2.867282 -0.992343 0.154892 1.320902 -0.230476 0.355932 2.119998 1.501570 -0.617467 1.293260 -0.158188 0.047554 -0.003953 0.679818 -0.000259 1.619019 -0.069963 0.399840 -0.272994 -0.735118 -0.726505 0.158782 0.004215 1.208299 1.311962 1.789273 1.866752 0.211289 -0.045817 -0.775740 0.460772 -1.009655 -0.463610 -0.335077 -1.508162 1.299069 -1.661666 0.088056 0.628206 0.875672 0.992903 0.812233 1.285073 2.120460 -2.332925 -3.406936 -0.901993 1.336646 -1.080192 0.074683 1.693123 -0.222785 1.212980 0.332535 1.837039 0.449277 1.646572 0.672620 -2.197633 -0.465329 0.239873 1.845685 1.020481 -0.064801 0.721076 0.983266 1.077132 1.003539 -0.028850 -1.238496 1.252423 1.251400 -0.476709 0.227673 1.498190 0.907053 -0.608033 -0.593480 -0.946495 0.783517 -1.123553 -0.659975 0.854434 -0.774564 0.235610 0.987029 1.605390 1.852666 -0.002375 0.226236 1.129802 0.375422 1.600298 -0.556952 0.314393 -0.670799 1.158020 -0.523634 0.866228 -0.811582 0.307898 1.021125 -1.382731 0.663257 -0.642930 
AACCGCGAGGGTTCCC 0.250716 0.087650 -0.245258 -0.207813 0.234380 -0.468232 0.257609 -0.437455 0.632956 0.195822 0.315671 -0.192834 -0.866782 0.422492 -0.657089 0.209249 -0.221620 0.027227 -1.138707 -0.746284 -0.227505 -0.021317 -0.295290 0.148549 -0.365370 -0.472769 0.426208 -0.303540 0.031036 -0.249515 0.788467 0.225941 -0.346804 -0.324701 -0.160449 0.470270 0.177764 0.596955 0.175011 0.048759 -0.386917 0.076444 0.092820 0.373186 -0.351446 0.196574 0.260635 -0.282890 0.356871 -0.579337 0.191906 -0.329525 -0.248495 -0.012468 0.402529 -0.468127 -0.092392 -0.099124 0.233021 -0.138474 0.037531 -0.095332 0.002593 0.022197 0.133463 -0.002080 -0.146977 -0.340657 -0.703901 0.052726 0.018974 0.708431 -0.054875 -0.373250 -0.348164 0.131874 -0.669124 -0.164310 -0.153560 0.153382 -0.694554 -0.161288 0.154435 -0.000448 0.768827 -1.016398 -0.197693 -0.025256 0.183319 0.257360 -0.078556 -0.053245 -0.193865 0.369225 0.359820 -0.132861 -0.409728 -0.138436 -0.014172 0.105330 -0.000277 0.132827 0.254544 0.140442 0.764682 0.003347 -0.125998 0.364642 0.506126 -0.273881 -0.069180 -0.369080 -0.080546 -0.555739 0.057586 -0.369479 0.406934 0.272688 0.260125 0.772668 -0.858689 -0.227264 -0.410035 -0.556028 0.378238 -0.296088 0.064808 -1.143358 -0.356962 -0.332765 0.044914 0.057261 0.158851 0.099599 0.227561 -0.108391 0.175718 -0.174507 0.166603 -0.386731 -0.201664 -0.508788 -0.037337 0.250521 0.292140 0.404364 -0.002196 0.056072 0.153284 0.022736 -0.117858 -0.049446 -0.268421 -0.225626 0.165609 0.294279 0.281911 0.327173 0.087803 0.094745 -0.851141 0.668807 -0.318251 -1.180090 -0.352105 -0.060749 0.087359 -0.779334 0.248916 0.346233 0.544014 0.207953 0.035273 0.219748 0.098578 0.774503 -0.067611 0.387058 0.589967 0.286429 0.530470 0.512321 0.452297 0.040955 -0.147485 0.018436 0.268817 0.020791 0.514435 -0.362084 0.008475 -0.030618 0.337165 -0.343029 -0.458283 0.423006 -0.416454 0.129414 0.352191 -0.099421 
AACCGCGCATATACGC 0.925354 0.448171 1.073917 -0.187997 0.450891 -1.408035 -0.276183 0.069836 0.055287 0.479534 1.398915 -0.503756 0.794966 0.586150 0.201026 1.634155 -1.682397 0.335760 0.354125 -0.479440 0.252935 -1.300396 0.024423 -0.140736 -2.157505 -0.005171 -0.896375 -1.042559 -3.102520 0.249149 -0.440377 -1.286456 -0.220897 -1.186834 0.726112 1.263010 -0.146314 -0.081137 0.316352 0.009292 0.102194 -0.695408 0.302026 2.177835 -0.906760 -0.346239 -0.589583 -1.027089 1.633271 0.497369 -1.291149 -1.540160 1.102913 0.266657 -0.028824 -1.262188 -0.389847 -1.811191 -0.542338 -0.787248 -1.444368 0.509847 0.373963 -1.113906 -1.722675 -0.138646 -0.643690 1.358769 1.526417 0.419462 -1.268830 0.008249 -1.299731 -0.109881 -0.422437 0.640140 -0.350305 1.984367 0.169849 -1.787248 1.366605 0.255958 -0.671009 0.846681 1.528474 0.864830 -0.131362 -0.412587 0.547074 0.496079 0.555697 1.463535 -0.055204 0.299352 0.774139 0.710032 -0.498960 1.892420 -0.948077 0.260199 -0.642063 0.410723 0.090483 0.768459 -0.053815 1.010545 -0.007524 0.029621 -1.044211 -0.173379 -0.643110 0.495991 0.773921 0.290765 1.657722 0.661273 0.116183 -0.092755 -1.448662 -0.474874 0.263001 1.058715 -0.247661 -1.355117 -0.545022 0.095060 0.404102 -0.669494 0.569812 0.415748 -0.069783 -0.982181 0.341519 0.641700 0.494480 -0.885877 -0.293448 0.180290 -1.495445 -0.955667 0.536247 0.637428 -2.009066 -0.214347 0.362141 1.491755 1.187124 0.919352 -0.194784 -0.234349 0.634182 -0.619055 -0.281133 0.470716 -0.389316 0.042525 -0.788666 -0.638622 -0.760633 -0.411835 -0.216369 0.362713 0.790597 -0.217330 0.992725 0.075305 -0.369995 -0.881735 0.093811 0.803358 1.441510 -0.978701 -0.530674 -0.093633 -1.420858 1.066567 0.086630 0.574136 1.675291 1.314104 1.578895 -0.632705 0.375484 -0.898562 1.341781 2.364329 0.557163 -1.173284 -0.285544 0.256117 -1.293675 0.720635 0.024454 0.589773 -1.633336 -0.357215 0.307996 0.424745 1.618236 -0.465873 
AACCGCGGTAGGAGTC 2.536194 -0.261841 -0.447986 0.172660 0.245023 0.136903 0.049523 -0.896730 0.922729 -1.141627 2.288429 -1.968753 0.338647 1.214957 -1.268004 -0.105952 -1.224046 0.359168 -0.795868 1.599852 1.191221 0.594150 0.509385 1.068108 -0.206793 0.543285 -1.123105 0.637322 -1.014212 -2.134568 -0.582739 -1.469846 -2.306527 -1.842067 0.989310 -0.180240 -0.776647 2.301271 -2.465272 0.129052 -0.164209 1.631576 -0.975744 -0.588648 -0.905941 -0.117068 -0.758999 0.514520 -0.525744 -0.458500 0.536131 0.045023 0.711072 -2.541362 -1.182671 -1.923364 0.133326 -1.881023 0.187453 -0.238990 -1.555897 -0.785514 2.409015 1.089363 0.633193 -0.222173 0.196089 0.368253 -0.525633 2.105717 0.993974 -1.592917 -0.815430 0.934662 0.059721 0.350349 0.849300 0.437386 -0.337165 -1.243740 0.793668 -0.345289 -0.298420 -0.305107 -2.120538 0.790362 1.944903 -0.133518 -0.834739 0.315442 1.303973 -0.190777 -0.649531 -0.259809 -0.151450 -2.092493 0.403526 -2.053720 -0.916460 -0.621549 -0.476157 3.539934 1.016152 -0.369820 -0.214810 0.105398 -0.605329 0.915803 0.609600 1.061127 0.434847 -0.280907 1.076090 -0.306260 0.041179 0.868242 -0.036422 1.678808 -0.613767 2.591450 -1.053050 1.140962 -0.966361 -0.437737 0.464888 -0.304530 1.157182 -0.974340 -2.608286 0.746632 0.417939 -1.362598 -1.634419 1.460531 0.760489 -1.722622 -1.656087 1.980417 -0.257398 1.654698 0.618396 -2.073166 -0.577034 -0.479773 -1.363489 0.638548 1.428270 -0.125222 2.127667 0.789097 1.137750 -0.815119 0.212037 0.064825 0.377426 -1.522224 -0.090593 1.734050 -1.618929 1.763927 -0.065336 0.394633 -0.561595 -0.849613 -0.650005 -0.505505 0.748338 -0.475280 -1.508029 1.405473 -0.736902 -1.751233 0.962499 0.945795 0.943876 -0.291321 1.233841 1.399664 0.537085 0.947935 -0.461003 -0.973452 -0.664088 1.409105 -1.166023 1.544131 0.803714 1.921003 -1.664330 -1.874524 -1.584576 -0.107955 -0.089210 -0.583083 0.340532 -0.468605 1.922552 -1.623577 -0.273048 -0.926996 
AACCGCGTCAGCAACT 0.161582 0.629432 0.282081 -0.487319 -0.335590 -0.285377 -0.288260 0.002081 0.615865 0.030524 0.978243 -0.185372 -0.114760 0.221132 -0.210771 0.360342 -0.206601 -0.583330 -0.057976 0.166888 0.312704 0.712497 0.373589 0.782670 -0.302467 -0.943581 0.279148 0.300244 -0.289577 0.217666 0.636655 -0.266919 0.321568 0.310338 0.028413 -0.683794 0.146512 -0.265236 0.298494 -0.339321 -0.288201 -0.246922 0.014674 -0.368661 -0.639474 -0.541929 0.295809 -0.139988 0.376221 -0.361404 0.388080 -0.819459 0.036522 -0.418861 -0.838973 -0.752869 0.248590 -1.004638 0.212814 -0.731955 0.506520 -0.424061 0.171025 -0.018073 -0.585085 0.113656 0.213646 0.190478 -0.032457 -0.187445 0.254203 -0.541615 0.497244 0.147149 -0.008673 -0.711154 0.179287 -0.583484 0.036928 0.276748 0.177631 0.008314 0.343794 0.071004 -0.101224 0.092950 0.823712 -0.282818 0.422614 0.124826 -0.549633 0.459079 0.243171 -0.360341 -0.600487 -0.028458 -1.162034 -0.340769 -0.354170 -0.226417 -0.048078 0.345803 0.921351 0.235455 0.257104 -0.747301 -0.003685 0.230478 -0.175995 -1.132267 1.255513 -0.758090 0.303067 0.601512 0.135419 -0.207210 -0.653657 -0.065989 0.011220 -0.033946 0.426526 -0.881656 0.717200 -0.508923 0.324510 -1.193094 0.064506 -0.575793 -0.359825 0.338156 0.099353 -1.413832 0.518821 0.037411 0.273258 -0.171739 -0.337126 0.699529 0.131903 0.135048 -0.360404 0.775740 -0.458555 0.779573 0.533157 0.341149 0.138117 0.110181 -0.129794 0.284507 0.093392 -0.646295 -0.689804 0.197765 -0.042198 -0.527315 -0.915382 -0.127644 -0.427613 -0.486306 -0.096793 0.122297 0.206966 -0.826060 -0.057602 -0.224374 0.333154 -0.704440 -0.485288 -0.513267 -0.311751 -0.542745 -0.238354 0.380102 -0.728146 0.344826 -0.611347 0.026543 -0.005450 -0.171032 0.529279 -0.347916 -0.655310 -0.356454 -0.716402 0.460182 0.015998 0.412636 -0.174920 -0.381099 0.959311 0.123909 -0.430822 -0.101157 -0.906526 -0.100560 -0.338701 -0.121779 -0.870224 -1.012803 
AACGTTGAGAAGAAGC 0.735504 0.449402 -1.098229 -1.265980 -0.576509 1.942791 1.376882 -1.142255 0.998269 1.479915 -0.577562 -1.056768 0.533859 0.921160 -0.861396 2.099633 -2.055649 -1.186050 0.327661 -1.463951 -0.780596 -1.523606 -0.987228 0.662775 -1.013653 -0.939805 1.781992 -0.764895 0.754051 0.647066 0.401635 -0.175521 -1.118788 0.275980 -0.652072 -0.522924 0.284730 1.700515 0.314985 -0.501835 1.517120 1.023795 0.357901 1.673734 -1.725601 -0.470967 -1.092322 -1.402826 -0.621663 -2.024600 -0.986590 0.966048 -1.155684 -0.113170 1.742721 0.434643 -1.810117 -2.089417 1.722147 2.257896 0.146376 -0.723003 -1.277648 0.070571 -1.020976 -0.776673 0.416530 0.274766 -0.738279 0.301575 -2.821273 -0.320470 -0.310250 0.306655 2.702140 1.114560 0.581979 -1.434692 -0.780937 0.130108 -0.416426 2.022105 -0.496707 1.890586 -0.408868 0.462318 2.616459 -0.362395 0.429805 -2.179300 -1.583031 1.407690 -0.475731 -1.709351 0.171800 -0.414453 -2.006330 -0.096894 0.685488 0.526064 -1.348838 1.586574 0.519716 -0.285028 -1.385789 0.106854 1.365464 0.959280 -2.469597 -2.450485 0.051979 -1.249612 0.546681 -0.309245 -0.666757 -0.896602 1.795907 0.185807 0.020561 0.559004 0.925149 0.291299 -0.308228 -0.289639 -0.722292 -1.320222 0.819702 -0.415620 -0.323422 -1.519864 -0.132521 -0.060819 2.603220 -0.284589 1.149822 -0.915996 0.468199 1.239458 -1.255138 1.288070 -1.356145 -1.479841 -2.967453 -1.106173 -0.470574 1.597615 0.516222 0.146460 -0.791912 0.450993 -1.187699 1.654756 0.414744 -0.384583 0.044292 -0.632091 -0.483061 1.022807 -0.817846 -1.680867 0.166493 -0.068773 0.697239 -1.568466 -1.651705 -1.519489 -2.742198 1.031157 1.456221 1.131630 -1.724066 0.020587 0.902319 -0.867169 0.629484 -0.846334 -1.169546 0.350632 0.039702 0.665350 2.098994 1.424731 -0.017662 0.172367 0.365041 0.686883 -1.446613 -0.729073 0.428717 -0.447573 0.365410 -1.305922 -0.983198 -0.115404 -0.512308 2.346515 -0.709614 1.639614 -0.697729 -0.130258 
AACGTTGAGGCAATTA -0.799961 -1.771890 0.151131 -1.259597 1.403881 1.064341 -0.421530 -0.549575 0.104693 -1.218899 0.597980 -0.555429 -1.271851 3.033446 0.607811 -0.521368 -0.830342 0.084659 -0.439208 1.657368 1.200240 0.318353 2.251299 -0.885359 -0.032231 -2.074319 -0.192060 1.904111 1.800916 -1.255807 -1.015161 0.565864 -0.768208 0.735884 1.668449 -0.300867 -0.213478 1.046914 0.243217 -1.105364 -1.181949 -0.994762 2.412600 -0.179223 -1.044218 -1.925545 1.359311 -2.192667 2.058095 -0.765647 -0.080290 -1.006166 -0.681866 -3.603893 -2.451854 -1.175650 1.262095 -3.123307 3.574306 -3.589150 0.817221 -0.715611 1.091184 1.831724 -0.177827 0.235747 0.553668 -0.628922 1.692494 -1.085942 0.958668 0.480542 -0.466838 1.297892 2.458619 1.058167 -2.153087 2.126290 -0.942138 -1.296304 1.103203 -0.891244 -0.537261 1.438832 0.845406 -0.518048 0.102924 -0.397724 0.037197 -1.207581 0.171288 0.077287 0.334865 -0.001258 1.929948 0.715780 -1.692752 2.674577 1.216585 -0.170420 -0.065393 0.091790 -0.335908 0.617602 0.014212 -2.173955 0.667117 1.103710 -0.100802 -0.581073 -2.556531 0.229741 -0.332691 -0.640606 3.015798 0.389447 1.055786 0.380484 0.196487 -0.479663 0.390994 -3.161489 0.050257 -1.740871 0.200528 -0.617217 -0.315939 -1.868921 2.135487 -2.289331 1.280696 -0.983585 1.250102 -0.694508 2.889476 -0.299922 0.496627 0.647578 -1.230124 0.835013 0.374335 -0.896534 -3.235946 -1.066083 0.004241 1.264590 1.157605 1.084507 -0.959755 1.872056 0.276148 1.601484 0.357596 1.051333 -0.532728 -1.043464 0.420307 2.398799 1.155445 -3.690943 -0.798291 0.342697 0.082488 -0.525714 0.060326 1.455483 1.494480 2.658111 -0.061625 0.552278 1.729385 -0.260835 1.124956 -3.331788 -1.177454 -0.727224 1.934521 -0.991060 1.533878 1.069705 0.758745 -0.074567 0.134549 0.118515 2.802539 -0.782652 -1.075257 2.636164 -0.852930 -0.205131 -0.624213 2.452723 -0.007281 0.176379 0.867633 0.901830 1.109178 -0.008244 2.297601 -4.528359 
AACGTTGGTTGAACTC -1.660768 2.218678 -2.145217 0.507140 -2.623748 -0.222507 -0.451097 2.132672 2.250757 0.091082 1.885821 1.203706 -0.809854 -0.231548 0.013662 -2.595732 -1.379070 -0.417682 -2.395849 0.372349 -1.374825 0.404822 -0.855378 1.558725 -1.791409 0.876268 0.316459 -0.391764 -0.718616 -0.908465 0.596533 0.049339 -3.823988 2.008990 -0.202877 2.088140 -0.817276 -1.602687 -1.397306 -0.613329 1.158533 -1.044884 0.246388 -0.747547 -1.548365 -0.494286 1.059883 -0.204353 -1.935918 2.301429 -2.525512 0.288316 2.217453 -1.108811 0.762392 -2.569266 -0.520998 -2.696164 0.511529 -0.560845 -2.618047 0.558708 -2.543402 -1.312689 0.076302 1.879090 -0.065856 1.292981 -1.249098 -1.197293 -0.412159 0.438534 0.021500 2.283531 2.313423 -0.343760 3.328426 0.412637 0.418790 -1.376085 -1.510590 0.159591 1.084947 -1.667890 2.403461 -1.931902 -1.447699 0.300921 -1.195693 -3.114296 0.509769 1.749025 -0.984264 2.858154 1.572684 -0.320801 -0.545814 -0.234916 -1.271122 1.075403 0.747579 2.462034 -1.692484 -0.625661 -1.016161 -1.066299 -1.638559 1.155618 -1.176629 -1.448426 -1.533305 -0.835637 -0.563632 -1.122635 0.932172 -0.325480 -0.599023 -2.471877 -0.002025 1.480766 -0.315147 1.552936 1.042113 -0.884426 -0.165059 -1.591987 0.157916 0.585887 0.693743 -3.454851 -1.202874 0.375631 2.492457 -0.298272 -0.326854 -0.834920 -1.537230 2.147228 -0.998173 -0.116818 0.163200 -1.408178 -1.979137 -2.280527 3.525530 -0.429160 1.133438 1.388982 1.835764 1.711663 1.728491 -2.044105 0.826598 0.334557 0.458248 0.092266 0.578203 2.740924 -1.393844 -0.260049 1.742807 0.177540 -0.510377 2.004366 -0.385990 0.277285 -0.066212 -2.035354 -0.591703 3.109703 1.074886 2.292948 0.497257 1.806404 0.563247 0.301653 -1.334470 0.928499 0.192531 2.466607 1.189676 1.728024 -1.015428 1.290723 1.503450 -0.482508 -0.915849 1.902585 -2.431815 -1.156676 -1.109630 -1.547246 -0.980169 1.372476 -0.220177 -1.707989 2.004610 -0.403784 -0.170887 -1.308687 
AACGTTGTCCGCGGTA -0.174494 2.175830 0.428998 -2.019617 2.696805 -1.236303 0.253911 0.042670 1.564049 0.617429 1.535548 1.076562 -1.032115 2.251100 -1.412785 -0.308172 0.021926 -0.329238 -0.474646 -1.459667 2.283396 -1.618320 1.203280 -0.930115 0.705823 -0.142178 -0.644662 -0.433004 -0.755822 -0.113094 -0.473763 0.974828 0.365013 -0.923287 0.524898 0.346090 0.399080 1.074484 -0.209785 0.086809 3.085875 1.118701 2.486827 -1.183718 -2.024375 1.262658 0.812834 0.254784 0.531338 -0.540993 -2.153769 0.735217 0.444712 -2.659446 -0.612226 -1.354318 -2.163488 -0.984731 2.835224 -1.800331 -0.535957 -0.606682 0.441497 -0.753448 0.531491 -0.325376 0.719742 -1.222598 -0.685642 0.030044 -0.061412 0.833985 1.526776 1.373757 0.091627 0.244791 -0.405546 0.259700 -1.764976 0.996393 0.508011 0.402834 0.959207 -0.106383 1.450104 2.132323 -0.425385 -1.964960 0.700271 -0.061199 -0.186028 -0.011511 -0.120347 3.414365 -1.749100 -1.612527 -0.732404 1.516176 0.327348 2.313382 -0.511007 1.689740 0.475754 -0.650503 1.237072 1.148971 -0.860591 -1.035099 -0.003664 0.436254 0.756168 -1.016045 0.637309 -0.204809 -0.587638 -1.456695 -0.595921 0.343089 -0.397794 1.185977 0.596938 -0.493481 1.206730 -1.855952 -0.068304 -1.146325 0.662359 0.212912 -0.866014 -0.914223 0.977949 1.008223 0.282320 0.440145 3.713942 -2.044175 -1.415381 -0.416492 0.140282 -0.003114 -0.793729 -2.276492 1.644386 -0.659127 1.144513 0.501363 0.657722 -1.504814 0.855269 -1.001569 -1.103874 -1.394747 0.858999 -1.507325 -0.195806 -2.071974 1.130543 0.822546 2.032855 0.983701 0.206544 0.824121 0.088129 0.878424 0.996607 2.117771 -0.308071 1.128810 -0.214209 -0.095060 -0.956588 0.490073 1.261961 -1.375160 1.652543 0.313675 -0.544211 0.014289 0.582995 0.344511 1.818367 1.993456 -0.908311 0.018307 0.147340 -1.819103 -0.392090 2.042622 -0.438628 -0.214736 0.025236 -0.416953 1.042438 -1.354812 2.054715 -0.059055 0.387188 1.578396 0.484203 -0.544189 
AACTCAGAGTCACGCC 0.110893 -0.172764 -1.139605 -0.003919 0.686789 0.070509 1.010586 -0.180534 1.436602 -0.631973 0.791483 0.341798 -0.256237 -1.194945 -0.367283 -1.842591 0.630202 0.169292 -1.755048 -1.254404 0.080997 0.305525 1.899043 0.751672 -0.993848 0.460544 0.041518 -0.854898 1.214305 -0.905517 1.227733 0.394984 -0.163690 0.921789 0.337697 0.026503 -1.599779 0.308760 -0.360149 0.760289 -1.304349 0.230421 0.950515 -0.316953 -0.075914 -1.700680 0.856141 1.078663 -0.094876 0.273443 -1.704393 -0.420387 0.436712 0.169861 -0.313320 -0.949190 -0.917683 -1.139074 0.036162 0.202552 -0.790373 0.550653 -0.853509 1.778708 -0.191479 -1.002509 0.230394 -1.033955 -1.465140 -0.230514 0.840438 -0.110831 -0.606717 1.125059 1.075532 1.132590 3.150825 0.483031 -1.449686 -0.324961 0.310851 0.038769 0.388491 1.078981 1.110797 -0.228483 0.801393 -1.131478 1.015831 -0.644882 -0.379746 1.039420 -1.499835 0.479021 -2.352885 -1.156941 0.424202 -0.526519 1.126635 -1.982000 -0.939982 0.348045 -0.180586 -0.090722 -0.267117 0.557284 -0.389302 -0.510379 -1.317310 -0.110174 -0.573294 0.123750 -0.041918 -0.462241 0.556348 0.514073 1.860705 -0.597178 -0.408742 0.672668 -0.524971 -1.029808 0.724439 0.580164 -0.491534 -1.246617 -0.306785 0.187981 -0.781377 -0.576454 0.328858 -0.421899 -0.082578 -3.753544 0.877673 -0.847457 -0.448257 0.384083 -0.515242 -0.281836 -1.472082 0.232500 1.404370 -2.514210 1.311926 0.166237 1.663099 -0.613237 -1.055613 1.172470 0.462684 -1.436802 -1.542599 1.567645 0.645574 -0.060217 -0.701328 -1.093936 -0.521283 -1.362277 -0.763640 -0.410836 -1.691844 0.617796 -0.317341 -1.186113 -1.089098 -0.404550 0.344986 1.116657 0.505403 -0.150029 0.287885 -1.617385 0.767833 -1.978274 0.171445 0.046524 -0.542866 -0.984381 0.164579 -0.760082 -0.271888 0.506352 1.500437 0.788684 -0.187160 1.823846 0.234597 -0.281572 -1.065529 -0.120036 -0.648207 0.858893 -0.382101 -0.077762 -0.339890 0.561769 2.257590 -1.625646 
AACTCAGCACAGAGGT 0.111308 0.252075 -0.578786 0.598387 0.145585 0.424826 -0.048714 0.114925 0.513778 -0.182199 -0.004349 -1.150930 -0.764210 0.532283 0.101567 0.519811 0.571226 -0.026800 -0.621996 -0.756517 0.423485 -0.148759 0.412807 -0.083839 -0.173340 -0.396353 -0.700692 0.590235 -0.212123 1.053205 0.624941 0.389553 -1.040364 0.257047 -0.061282 -0.321568 0.135954 -0.473611 -0.399038 0.266613 -0.579992 -0.038000 0.469817 0.336957 0.055662 0.899065 0.680635 0.390279 -0.453047 -1.032691 -1.212854 -0.013586 0.231068 -0.103104 -0.697446 -0.312198 -0.086525 -0.664442 -0.153755 -0.363171 -0.012344 -0.084375 -0.497221 0.199735 0.145163 -0.747803 -0.060729 -0.478164 0.219886 -0.303843 0.439003 0.324118 0.090704 1.054356 -0.363683 0.035560 0.621613 0.182182 -0.205361 -0.776888 0.123263 0.506269 -0.151425 0.470878 0.698360 -0.261641 -0.358283 -0.030602 0.253536 0.045858 -0.582544 0.314793 -0.247164 -0.242523 -0.992447 -0.323323 0.050380 -0.924282 -0.041108 0.418004 0.576363 0.607246 0.828650 -0.139427 0.713893 0.298671 -0.345565 0.210082 -0.067824 -0.774581 0.263556 0.100824 -0.043311 -0.624215 0.543222 0.214067 -0.599741 -0.217385 0.394096 0.147729 0.576831 0.418170 -0.361678 -0.850371 0.343988 -0.309399 -0.209591 -0.064449 -0.446568 -0.157841 -0.718227 0.163706 0.556866 -0.343065 0.177844 0.205044 0.417683 1.315920 0.593585 0.108265 -0.313406 -0.404570 0.026812 -0.886544 -0.061998 0.666900 0.520941 -0.111827 -1.056704 -0.163657 -0.148757 -0.401975 -0.058850 0.142351 -0.417709 -0.375289 -0.759371 0.747288 -0.432681 -1.096099 0.672024 0.039593 -0.379063 -0.640549 1.004477 -0.355935 0.639887 -0.442073 0.085347 1.648905 -0.050593 -0.677652 -0.713157 -0.588794 0.296023 0.369396 -0.036085 0.796109 0.015002 -0.315576 1.157673 1.055421 0.304008 -0.238304 0.717093 -0.789996 1.105807 0.259516 0.051651 0.382661 -0.917061 -0.021310 0.816646 0.275600 -0.044077 0.331905 -0.094508 -0.224058 0.942903 -0.915240 
AACTCAGCACCTTGTC 0.753389 0.702841 1.588355 -0.977946 -0.648521 0.579192 -0.148043 -0.836579 -0.767192 -0.970988 -0.852311 0.877522 -1.276741 0.022390 -0.616566 -0.082474 -0.646901 -1.614110 0.066009 -1.257221 -0.787823 0.902611 1.504859 1.172737 0.713594 -1.279962 0.770874 0.483413 0.410605 0.010606 1.378773 -0.328342 -2.621917 -0.546796 -0.166074 0.611746 -2.073553 0.791644 0.510754 1.061563 0.048975 2.172021 -0.597069 1.140913 2.737657 -2.019715 -0.078355 -1.621914 0.603313 -0.045528 -0.972659 0.077591 -0.144823 -0.601769 0.903078 0.283858 -0.359507 -1.073474 -0.442170 0.091771 -1.022590 -1.087852 -0.297420 0.561925 -2.318691 1.637286 0.470145 -0.590711 1.712574 0.721800 -1.423258 -0.636418 -0.646183 0.086078 -0.901665 1.265694 1.444312 0.043277 -1.489941 0.371584 -1.182878 -0.845541 -1.146303 -0.253631 0.395922 2.227393 0.176625 1.207358 0.635092 -1.059498 -0.035195 -0.453062 -0.855205 0.986876 -0.007791 0.254715 -0.155442 1.040375 0.769410 1.129903 -2.343123 0.182143 0.307290 0.479221 0.049971 0.832562 -0.136220 -0.293905 0.337708 -0.448321 -0.572900 -0.130722 -1.400266 -1.228004 -1.045266 0.292130 -0.776906 -0.378849 0.661369 -0.680979 0.799796 0.358816 1.022417 -0.664429 -1.132843 -0.920382 0.474392 -3.410349 0.173437 -0.968850 1.131795 -0.460917 -0.443211 -0.242302 0.782669 -1.507117 -1.152825 0.391890 -0.838950 -0.443542 -0.943375 -0.530663 -1.476995 -0.805402 2.295425 0.353686 0.025173 1.191242 0.799170 0.296781 -1.367183 0.211651 -1.952222 -1.385789 0.347508 0.512795 0.022439 -0.512350 2.133224 -0.961772 -0.697196 1.206495 1.076686 -0.006034 1.397494 -1.554646 -0.847576 0.179244 -1.035375 -0.388108 0.701639 -2.202597 0.296415 -1.652591 -0.254160 1.546910 -0.839840 -0.456067 0.050113 1.826326 1.183995 -1.310147 -0.224064 0.727330 -0.895599 -0.818015 0.643853 1.556651 -0.484949 0.415978 -2.172724 -1.329693 0.978130 0.151203 1.592358 -0.785022 -0.297751 -1.631975 0.138178 -2.846056 
AACTCAGGTGCCTTGG -0.367570 1.122129 -0.424931 -1.279744 0.692801 -0.104408 0.509691 -0.122117 0.328571 0.798466 -0.582166 -2.138204 0.099427 -2.701606 -0.146511 -2.352227 1.280425 -0.510786 -1.426667 2.659476 1.238302 0.378944 -1.544299 0.254695 0.504349 1.743590 -1.357751 -1.627183 -1.530372 -0.215028 2.509056 -1.239509 -0.816564 -0.611347 -1.993731 -0.123216 0.928681 2.123628 -0.068620 -0.755253 -1.534850 -1.089031 2.601143 -1.334758 -1.893217 -0.688428 -0.771598 1.519639 -0.503531 -1.083892 -1.491205 1.460727 -1.047594 0.206349 0.841294 0.853377 -1.658808 -2.069654 0.931924 -0.996054 0.278237 2.182094 0.319193 -0.709885 -3.327488 2.623655 1.218506 0.318151 -0.101896 0.673091 -1.122947 -0.531537 1.278862 -0.993538 -0.003263 2.717585 0.710989 -0.852628 -0.062602 -0.407322 0.312521 0.656769 0.928545 -0.373428 1.477057 2.193004 0.056523 -3.994138 -1.553308 -0.967163 1.143495 -1.266434 0.278092 0.507551 -0.112722 0.372741 1.288092 -1.898685 0.394908 -0.342833 -0.455286 1.401497 0.725051 -1.822606 -0.503630 -1.730868 -2.524368 -1.663126 1.933070 -2.897877 0.308122 -1.060682 -0.559081 0.029191 0.483334 -1.080548 1.795419 -0.849271 -1.979962 0.949983 -1.361588 0.228473 0.025687 1.077683 0.538346 0.135280 0.884425 -0.665762 -0.962854 -0.491208 0.297231 0.136294 1.513251 0.973017 2.862465 -1.943441 -1.097910 1.487803 0.824188 -0.586457 -1.053009 -0.501468 0.625588 1.196714 -0.842446 -0.206388 2.702517 -1.643569 -0.179903 2.203245 1.285196 -0.246750 -0.318451 0.896440 -0.023036 1.041091 -0.430398 -0.485899 -0.109572 0.062237 0.818162 0.650395 -1.561331 -1.282356 0.099063 -0.165885 -0.746352 -1.276318 -0.716563 0.660699 1.439736 -0.166565 1.802806 -1.503120 0.418057 2.042933 -0.041099 2.207297 -0.529604 0.660663 1.457893 1.430563 -0.436209 0.525715 0.172009 0.176452 2.214878 1.289411 -0.119828 1.340772 -2.162828 -0.396461 0.874363 -2.544059 -0.825622 -0.698898 -0.547889 -2.783914 -0.176216 -3.067085 
AACTCAGTCTCCGGTT -0.436485 1.820303 0.254793 0.169881 1.694930 0.460351 1.874231 -0.479170 0.289936 -0.405951 -0.325672 1.745929 -0.879164 1.425711 0.340321 -0.764927 1.342738 0.490854 -0.669719 -0.234964 -1.437149 -1.020862 -0.329480 -1.213051 -0.997685 0.217772 1.243580 0.381480 -1.668112 -0.052954 2.156065 -0.203085 -0.112215 -0.487351 0.556357 -0.710091 -0.684927 -0.606747 -1.718697 0.211195 -0.778887 0.371590 1.086196 -0.980369 0.665018 -2.372055 -0.092891 -1.222205 0.781244 1.084707 -0.980529 -0.336889 1.075178 -0.699834 -1.893682 -1.207403 -2.158730 -1.814701 2.358804 -0.035251 -0.181441 -1.338935 0.635670 -0.495744 0.632143 -2.136182 0.372678 0.633557 -2.557297 2.625635 -0.843508 -0.705294 -0.683163 1.029177 -0.781690 -2.514158 0.397282 -2.990834 -1.015670 2.655646 0.166115 2.207209 0.281586 1.397653 0.132335 -1.161379 0.732992 -0.416051 -0.324811 -0.511457 -0.087929 -1.332389 1.272724 -0.687804 0.808856 -1.365441 -2.246307 -0.202059 0.641873 0.245688 -0.177787 -0.255826 -0.745655 -1.444722 -1.606786 -1.531770 -0.300145 1.115954 0.054265 -3.395990 1.294095 -0.315507 -0.012428 -1.503220 0.618753 -1.458414 0.327234 2.040395 -0.092593 0.008300 -0.750215 1.087692 0.662219 0.054343 -0.917696 0.950743 -0.033196 0.129346 -0.161125 -1.351930 0.991181 -0.367352 1.595303 1.118315 0.061011 -0.421100 1.038206 0.616648 0.334758 -0.649260 1.086587 2.279274 -0.135451 0.957166 -1.823605 -0.296144 -0.761189 -0.917240 0.653450 1.093135 0.917222 -1.633214 -0.382632 -0.509844 -0.071957 1.791023 1.289447 -1.122983 0.146086 1.785689 -1.709929 0.650174 0.621680 2.144422 0.317150 0.423961 0.959253 1.059870 -0.575527 0.396687 1.213621 -1.279966 0.365284 -0.120201 0.085539 -0.777031 -1.577605 0.618507 0.940964 0.188156 2.069337 -0.893669 -1.830158 0.023597 -0.127566 0.002713 0.798512 0.464473 -0.007085 -0.805315 0.005030 -1.216398 0.382152 -0.822315 -1.168774 0.952771 1.738793 -0.886078 1.843159 -1.892085 
AACTCCCAGCTGAAAT -1.782877 -0.790790 -1.853850 0.178011 -1.868160 -0.430569 0.722951 1.616205 2.488472 -1.510331 0.225369 -0.993761 1.763703 2.411601 -1.999440 1.179015 1.577028 0.508066 0.814497 -0.103439 0.661294 0.839642 0.035918 -0.037416 -1.465022 -1.173112 2.777259 2.190691 0.365326 -0.585924 -0.014297 0.296877 -2.981170 -0.971569 0.392226 1.391680 0.573459 1.058132 0.687225 -0.919668 -2.346459 2.179984 2.179067 -1.624097 1.446043 -1.699913 -0.652914 -0.550349 1.758448 -1.605946 -1.685632 2.000024 -0.275309 0.609326 0.145009 -0.845356 1.725077 -1.409370 0.065981 0.308472 1.182311 -0.090542 -0.157837 0.400838 -1.084685 -0.311968 2.103043 -1.765342 0.777528 1.575973 0.038276 -1.159361 -0.351538 1.008279 0.554409 1.533804 0.750665 0.682419 0.842220 -0.203224 0.521886 0.071739 -0.856581 1.261543 0.526560 0.949448 1.260077 -1.413749 -0.442043 1.439049 0.322119 -1.925092 -1.370055 0.335350 -2.175678 -2.346905 -1.155910 0.263835 1.469465 0.048649 0.406033 1.449443 2.363953 -0.111631 -0.030044 -1.195791 -0.811233 1.874217 2.333593 -2.028285 -2.020385 0.097819 -0.954552 -0.422922 -1.575863 -1.883466 0.867591 0.507418 1.673843 -1.971748 -1.486350 -0.100800 0.107032 0.014862 0.843181 -0.399734 -0.862541 2.005241 -0.265637 0.178165 1.198190 -1.249086 1.020886 1.007127 -0.900773 -1.147750 -1.074853 0.316439 -0.322641 -0.819152 1.328793 -1.946911 0.559886 -2.951190 2.555519 2.851080 1.800765 0.066133 0.702041 1.067179 2.427500 0.223970 0.596150 1.037538 -1.549338 -0.348010 -0.285077 -0.436347 -0.221528 -0.035980 1.331365 0.415712 1.072610 -0.984053 1.282751 0.722638 -0.956045 -0.151076 -1.263863 2.365579 1.203787 -0.984168 0.333761 -1.740263 -1.634718 2.661251 -1.040214 0.852047 0.645884 0.697120 1.105157 -1.521598 -1.946814 0.141060 0.950503 -0.271741 -0.563525 2.030019 -1.635151 -3.665708 0.610815 -0.466194 1.381678 2.434046 0.220823 0.730564 1.897729 -0.259595 -0.589993 -1.073140 
AACTCCCAGGTGTTAA -1.231341 0.280716 -1.271437 -0.584862 -0.553950 0.034748 0.706375 0.350408 0.182178 0.404175 -0.308443 -0.167393 -0.636832 0.111646 0.754852 0.031566 -0.812850 -0.161707 -0.301289 0.019374 0.278753 -1.227197 0.872307 -0.897124 -0.173744 -1.245708 0.090365 -0.080985 0.514061 0.422906 0.157007 -0.657717 -0.260979 -1.465103 -1.151053 0.518714 -0.462129 1.026157 0.297361 -0.613018 0.796380 -0.027711 0.204575 -0.395062 1.397042 -1.162877 -0.486794 -0.221651 -0.410572 0.123165 -1.544069 -0.794068 0.306266 0.132680 -0.014101 -0.343327 0.440718 -0.865763 -0.035918 1.103496 0.302555 -0.355657 0.128576 -0.397769 0.471240 -0.851268 0.553043 -0.872260 0.402176 0.649529 -0.121233 0.850289 -0.048654 0.884866 -0.494675 0.039533 -0.248209 -0.114952 -0.864792 -0.115279 -0.541088 -0.293687 -0.704559 0.640388 0.643552 -0.085441 0.490899 -0.189484 0.348184 -0.957922 -0.267958 -0.313125 -0.966570 -0.817264 0.645959 0.621073 0.901743 0.297570 0.515442 0.084903 0.203183 1.172737 0.971585 -0.165538 -0.140351 0.301146 -0.331278 -1.265703 -0.762902 -0.607381 -0.387027 0.033677 -1.183707 -1.568029 0.397566 -0.729386 0.282072 1.385280 -0.767354 -0.401667 0.160631 -0.213102 0.964164 -0.627910 -0.203565 -0.589435 0.662319 0.574026 -0.447413 0.572528 -0.483482 -0.296404 1.038964 0.298232 -0.045064 -1.291934 0.642893 0.882917 -1.209856 0.214125 -0.097129 -1.352706 0.324714 -0.517211 -0.553170 0.061623 0.280240 0.184549 -0.102106 0.005849 0.119655 -1.263977 0.996780 -0.593405 -0.061415 -0.788370 -0.037280 0.864155 0.245352 -0.490077 -0.632454 0.113891 -0.720462 -0.602045 -0.559000 0.381257 -0.418495 -0.842040 0.678288 1.390197 -0.002494 0.156644 0.172861 -0.682640 0.414359 -1.209537 -0.359372 0.422590 -1.293854 0.274975 0.502083 1.426901 0.066618 0.059760 0.405793 0.492589 -0.519801 0.524393 -0.257988 -0.367639 -0.741435 -1.084246 0.628311 -1.189883 0.945342 0.533202 0.070311 0.505310 0.306135 -0.572726 
