1140 200
AAACCTGAGGTGTGGT 0.608485 -0.173632 -0.027173 1.483222 -0.991021 -1.618174 0.541285 -0.436722 2.993583 -0.573707 0.721515 0.312238 0.859144 0.335096 0.039358 0.525669 1.712920 0.267930 0.098629 -1.635433 -1.118365 0.244026 -0.082131 1.076677 -0.503945 0.554116 0.950379 0.094932 0.982128 -1.680176 1.378109 -2.245198 -0.289028 0.624267 -1.025413 -1.935106 0.048940 -0.701330 0.553072 1.401780 -2.481652 -0.986839 1.260294 -0.003151 -0.012603 -0.693628 1.119213 1.326468 -0.055485 1.557545 -0.210630 0.720499 0.101725 -0.769554 -1.215531 -0.204738 -1.077861 -2.765981 -1.156451 -1.071570 -0.315538 -1.001790 0.902935 -0.462728 -0.386438 -0.461279 2.787513 -1.201749 -2.245737 0.545696 -1.652067 -0.556358 -0.808651 1.067703 1.898081 0.212561 1.462971 -1.042248 0.425787 -0.038294 -0.367074 0.724641 -0.089766 0.937164 -1.802589 -0.381098 -0.933291 1.397026 1.947702 -0.475810 -1.252737 -1.364778 1.121421 -0.663953 -1.174939 0.520303 -0.629091 1.474996 -0.201109 0.689143 0.736409 -1.424263 2.575029 -1.454204 0.278344 -1.457662 -2.628280 -0.445460 1.841347 -0.459835 -0.472452 -0.318381 -0.054659 0.100381 -0.995615 -1.136409 0.836847 -1.422792 0.571462 0.412042 0.263151 2.260077 0.725683 -1.852246 -0.879754 -0.385353 0.631901 -1.638020 -0.941495 0.370694 1.241573 -1.354524 0.371438 0.229423 1.554065 -1.578287 0.000324 -2.156576 0.347738 0.660223 1.916147 -0.272289 -1.992980 0.730408 -1.476053 1.366071 -0.183290 -0.951272 -0.561709 1.461452 2.012645 0.212139 -0.079953 0.346387 -0.453387 -1.231540 -0.673959 1.350975 1.174761 -0.712420 0.807623 0.981061 -0.726740 1.512991 1.960040 -0.194123 1.901920 -0.520501 -0.432823 -0.387653 0.070574 -0.880553 -0.515152 -1.218247 0.193208 0.480509 0.130708 1.611206 0.415422 -0.634988 -0.282128 -0.492149 0.554689 0.059759 -2.260518 -1.014243 0.546422 2.009843 1.183313 -1.675785 0.545841 -1.163194 0.183250 0.968406 -0.268599 0.013473 1.430655 -0.491383 -1.046609 -2.137817 
AAACCTGTCGGCGCAT 0.554676 1.040091 -0.477770 -0.323828 0.955848 -1.594543 2.035691 0.769896 0.599186 0.262711 0.951743 -0.061982 -2.365961 -0.612868 1.014565 1.114249 -0.022502 0.881843 -0.096985 0.969894 -0.804566 0.396939 -1.453325 1.792754 -0.469371 -0.087544 -0.654766 -0.580967 -1.063777 -0.182562 1.000017 -0.493441 0.077774 1.603359 0.360397 0.099880 -0.989438 0.349786 0.029699 0.572411 -0.289088 0.772764 -0.134137 0.454915 -0.650734 -1.828198 0.046544 -0.724102 1.890071 -0.756819 -1.223881 0.363930 0.154166 -0.431649 0.542297 -0.405113 -0.117096 -0.819906 -0.599805 -0.095302 -1.691106 0.638272 -0.182557 -1.958199 0.203371 0.157990 0.568042 1.394894 -0.902778 1.238883 -0.354505 0.274486 -1.048457 -0.997114 -0.626981 -0.081997 -0.467518 -1.231610 0.262011 -1.201623 0.934487 -0.045025 -0.286782 0.094210 0.545676 1.796292 -0.228089 -0.107838 0.830986 -0.573919 0.257216 0.346459 0.798636 0.413713 -0.406557 1.332657 0.220097 0.775108 1.250159 1.206339 -0.511785 -0.465827 -0.722427 1.541401 -0.581077 -1.277062 -0.795978 1.443574 0.620359 0.984569 -0.400159 -0.222437 -0.778086 -0.348759 -1.055506 0.267722 0.198457 0.011515 -0.997274 -0.374256 -0.001028 1.562995 -0.724189 -1.872817 0.834632 0.594357 0.629816 0.223789 -0.775290 0.340743 -0.792701 -0.211035 0.798337 0.674748 -0.499073 -0.715937 -2.008151 0.230066 0.315304 0.259194 -0.724989 1.173463 0.868673 0.413283 -0.029224 -0.509914 0.334080 -0.189734 0.335299 0.649462 -1.066887 0.490340 -1.136236 1.135220 0.170798 -0.683179 -0.748379 -0.653992 -1.291321 -0.044809 -1.804103 0.453759 1.437996 0.715425 0.087668 -1.071359 0.462556 0.016826 0.936361 1.290989 1.790640 0.091917 -0.900657 -0.137029 -0.117566 -1.644751 -1.406296 0.623686 -1.778458 -0.260384 0.158859 0.102964 0.532108 -0.061136 0.106557 0.998640 0.382662 -0.606072 0.718834 0.365488 0.335086 0.856537 0.271626 -1.631969 -0.572558 0.843477 0.355356 0.399450 0.414888 -1.006037 
AAACGGGCAAACGTGG 0.623002 0.615393 0.157653 0.573824 -0.211399 -1.109848 1.295408 -0.507489 1.039369 -1.062253 0.499720 0.250237 0.830219 -0.635683 0.145997 1.373150 -0.874663 0.426768 -0.614223 -0.141034 0.618978 -0.366185 1.228083 -0.967816 0.781447 0.240991 -0.044266 -0.816912 0.807869 0.617513 0.416401 1.058963 0.147096 0.630900 0.387292 0.693018 -0.230198 -0.622733 -0.299045 -0.897153 1.625893 0.943970 -0.291553 -0.445128 0.084237 1.009515 0.375278 0.812096 0.198121 -1.381054 -2.185508 1.223575 -1.327204 -1.296369 -1.187352 -2.628062 -0.973605 -0.780785 0.757223 0.816077 -0.092797 -0.711581 1.160974 -0.937701 0.970954 0.712282 -1.424374 1.952120 0.161542 -1.106028 0.236932 0.187008 -0.930893 -0.070436 -0.155845 -0.203372 -1.085976 0.117896 -0.877958 0.413069 -0.895851 0.300047 0.583604 0.325255 -0.638344 -0.060436 0.421139 -1.107497 0.657251 1.418517 0.940848 1.500051 0.349188 0.526871 -1.032422 -0.890674 -0.055238 -0.427607 -0.003351 -0.210723 0.381776 0.470421 -0.701851 -1.953229 1.996695 0.968298 -1.826953 -0.980110 0.005164 0.718129 -0.782202 -0.538805 -1.268174 -1.287082 1.119035 -0.687496 0.087471 -0.730206 -0.623736 -0.073450 -1.466207 1.449119 0.431076 -0.209631 -1.615388 0.126088 0.074081 -0.798822 -1.895826 0.648897 0.451484 0.173265 0.515653 -0.040326 0.455372 -0.009599 -1.317045 -1.092005 0.650965 -0.062297 -0.671223 -1.484602 -1.971630 -0.328487 2.178018 0.998754 2.370963 -1.842682 -1.071919 0.455971 0.586840 -1.092897 -0.406157 -0.264275 -0.202589 -0.159627 -1.015293 -1.318243 -0.137526 0.109301 -0.976074 -1.380518 0.333796 0.363779 -1.087402 0.100344 -1.100085 0.400742 -1.680345 0.025817 0.034352 -0.382348 0.378344 -0.859753 0.618658 0.188427 -0.337606 -0.797452 -1.801402 0.107609 0.649636 -1.682572 -0.110065 -0.486219 0.814975 -0.834275 2.353287 0.323454 -0.866990 0.023226 -0.806813 -0.483393 -0.233297 -0.568048 -1.915742 -0.607504 0.362637 -1.169260 -0.364676 -0.477678 
AAACGGGCAAGTTAAG -0.428819 -0.473040 -1.361841 1.287035 -1.222559 -1.323907 1.005821 0.048234 1.841381 -1.205217 0.799818 0.775648 -0.065266 -0.654347 -0.243304 0.108795 -0.001722 1.245511 -0.906232 0.343418 0.620539 -0.784951 0.457250 1.598586 0.926854 -0.029630 -0.366678 -0.356201 -1.361241 0.253884 1.825348 -1.465071 -0.816702 -0.034525 -1.683600 -1.002343 -0.910016 2.302547 -1.105883 0.929447 -0.260794 0.351728 0.430426 -0.153588 -0.180437 -1.064295 0.508252 0.972083 -0.012290 1.116055 -0.606734 -0.349520 0.257888 0.483375 0.121712 0.950040 0.724647 -1.690492 0.936801 0.720363 -0.350948 -1.095097 0.799128 -1.156582 0.620711 -2.167681 -0.172263 -0.620863 -1.558198 0.023042 0.145344 1.444786 0.035278 0.427586 -0.575866 -0.759111 -0.010496 0.474325 1.393670 1.124484 -0.661000 0.461231 -0.773792 -0.435978 -1.270682 0.055056 0.353351 -1.263839 0.701896 0.960801 -0.764599 -0.202783 0.496065 -0.434212 -0.043662 0.369635 0.877535 -0.206734 0.726330 1.555628 -0.262063 0.692266 -0.144038 0.531032 0.528632 -1.972304 -0.709426 -0.825881 2.510989 0.847879 0.133295 -0.124567 -0.648031 -0.537227 0.969831 -1.141284 1.190007 0.673176 0.735321 0.580984 -0.721541 2.565398 0.744735 0.047920 1.588847 -0.224834 0.096330 -0.569971 0.863419 1.564342 0.377711 0.002652 0.352227 0.930562 1.382083 -1.008415 -0.715759 0.330967 -0.178756 -0.165107 -1.304333 -1.246531 -1.193064 -0.501912 -0.639891 0.248391 1.902406 -1.422920 -0.917480 1.649955 -0.448576 -0.041108 0.261471 -0.317171 0.039129 1.075951 0.307437 0.105497 0.952642 0.395997 -0.413139 -0.407230 0.360045 -0.701186 0.750484 0.783590 -0.136403 1.527743 -1.975419 0.088375 0.629973 0.865264 -0.041385 -0.239013 0.827925 -0.030172 -0.728823 1.485577 -0.008791 0.735823 0.948672 0.960859 -0.088093 -1.074462 -1.563899 0.878918 1.056402 0.762705 1.046559 -0.460507 0.126736 0.731465 -2.000301 0.294327 -0.317536 0.142838 -0.553001 -0.928769 0.266591 -0.589189 
AAAGATGAGCAGACTG -0.605113 0.487361 0.110087 0.949766 -0.023746 0.814437 0.775889 -0.640963 0.542050 -1.082594 0.918980 0.990089 -0.669972 -0.000243 -0.222353 1.576723 -1.036920 0.359039 -0.689808 -0.200515 1.496940 -0.398820 0.398555 1.108365 -0.497280 0.302699 1.923802 -0.987086 0.038976 0.223523 0.462941 -0.225209 -0.065788 1.273586 -0.652933 -0.795904 0.944054 -0.259362 -0.449204 2.023546 1.771770 -0.190041 -1.086252 -1.022901 -0.436820 -1.353745 1.340584 -0.118965 -0.547539 -1.538119 0.168438 0.971059 -0.816190 -0.964629 -0.306778 -1.273145 -0.207406 -1.384004 -0.891308 0.332996 -0.818882 -0.107151 -0.182800 0.652110 1.718391 -1.537928 0.225068 1.491858 0.158106 -0.116394 -0.528950 0.455148 0.285563 -1.074759 0.533950 0.807380 0.328483 -1.745385 0.295545 0.326446 0.432974 1.140765 1.152983 1.298439 -0.041270 2.427940 1.388400 -0.342527 0.677793 -1.787365 0.125303 0.113288 -1.292893 0.931352 2.168641 -1.149616 -0.172088 -1.278184 0.826694 0.280397 -0.058252 0.669290 1.287596 -1.488513 -0.728266 -0.847505 -0.772004 -1.197002 1.280633 -1.589220 -0.207493 0.343424 0.166420 1.444093 -0.405705 -0.679106 -1.090059 0.613621 -0.181686 0.646313 -0.788359 -1.488382 -0.826774 0.652788 0.891282 -0.936803 -0.367974 -0.697816 0.131306 0.076168 -0.635334 -1.794274 0.226850 -0.322768 -0.362909 0.080683 -1.688971 0.668105 1.494113 -1.302792 -0.281045 -1.102389 -1.102324 0.116131 0.597586 -0.235014 0.130660 1.178512 -0.388521 -0.058688 2.756251 0.136667 1.923895 -0.332809 -0.343575 -1.035133 -1.763909 0.873689 0.659640 -1.103178 0.439833 -0.044790 -0.118438 0.831563 -0.051969 -0.461960 -1.409448 1.088126 0.204005 -0.295787 -0.207184 0.552408 0.932867 -1.147412 1.165770 0.065472 0.735110 1.245236 0.052360 -1.388901 1.444340 -0.726375 -1.564138 0.085468 2.239819 -0.556561 -0.371879 -0.916474 0.606072 -0.600454 -0.981280 -0.081933 -0.802132 -1.226495 1.013594 0.636072 -0.381630 -0.550376 -1.333792 0.035279 
AAAGATGGTAGAAAGG -1.239407 3.087009 -0.359500 -0.747235 -0.018315 -0.853113 -0.978661 -1.034395 -0.317693 -1.901929 -0.292749 -0.141236 -1.302574 -0.543656 -0.131638 -0.051985 0.209316 0.530625 -1.341694 0.099367 -1.113295 1.031759 -0.734572 -0.036742 2.759251 0.354701 1.789333 -1.464025 1.179790 0.811361 -0.106327 -0.304881 -0.671674 -0.008043 0.018818 -2.126427 -0.051704 -0.343800 -0.681977 0.954651 0.606060 0.125110 -0.048418 -0.140899 -0.920192 -1.255398 0.892808 -0.092794 0.830380 0.398584 -1.347165 0.976095 0.113316 -0.672475 -0.972190 -0.711614 0.147230 -1.199453 1.164045 -0.756208 -0.595870 -0.149996 1.794782 1.124608 -0.418044 0.344235 0.947924 0.248244 1.419398 -0.804664 -0.427425 -0.241918 -0.883148 -1.366948 -0.732036 0.107436 0.952945 -0.301920 1.440344 -0.887975 -1.784162 0.098962 -0.233533 0.355539 0.407736 0.675658 0.639228 -0.907419 0.320210 -1.106207 0.694274 -0.083487 -1.244639 1.333779 -0.204340 -0.087125 -0.014817 -0.557346 0.230989 0.326320 0.039666 0.414025 0.958379 0.724973 0.793448 -1.682101 0.237479 -0.510261 -0.670342 -0.728344 -0.490752 -0.333588 -0.667243 0.078514 -0.392271 0.205384 0.307907 -0.866289 -0.894276 -2.454831 -1.178678 -0.733344 -0.679175 -0.958043 1.153443 0.062935 -0.464833 0.352696 -1.392589 -0.179999 -0.391294 -1.633803 0.504577 0.561735 0.704488 0.455152 1.024334 0.184549 -0.063045 0.966043 -0.595601 0.470385 -0.148096 -0.965405 0.541446 -0.183452 -1.027377 -1.594325 0.191808 1.088215 -1.349509 0.206233 0.442742 0.886124 0.290629 0.188682 -0.397563 0.998500 -1.244572 0.546169 -0.729520 0.703916 0.513039 -0.365568 0.927138 0.239350 0.230112 1.410559 0.581291 0.448730 1.306799 0.440412 0.731298 0.827287 -0.033368 0.277245 -1.378337 -0.343808 -1.197786 1.453156 1.128622 -1.271328 -0.212316 0.615768 0.975906 0.055574 0.124688 0.177308 -0.939170 -1.170085 -0.335464 -0.405255 0.749796 1.018964 -1.795329 1.386112 0.689678 0.366642 0.211806 -0.662908 
AAAGATGGTCTCTTTA -0.745322 0.475588 0.014298 0.993190 -0.945487 -0.756812 0.464328 -0.006948 1.314449 0.825071 1.235457 -0.156795 0.587619 -0.071783 0.958011 1.525724 0.191792 0.749257 -1.276182 0.445364 0.165976 -0.867905 1.032953 -0.247467 0.286115 -0.206280 -0.059617 -0.139055 -1.320530 1.240213 0.434384 0.102565 -1.039706 -0.419995 -0.103899 1.592142 -0.828766 1.816909 0.487991 -1.321034 -1.012811 0.654291 2.089503 -1.610343 -0.833645 -0.556768 1.059193 0.051915 -1.221716 -0.240189 0.287390 0.449838 -1.666012 1.423867 0.687652 -1.500789 -1.396996 -2.088973 -0.769487 0.583547 -0.492877 -1.569131 0.744791 -0.555987 -0.042490 0.962470 0.173640 -1.619099 -1.161974 0.642666 -0.783735 1.173647 -1.479277 0.164402 1.348263 0.589920 -0.306901 -0.163855 -1.537225 0.239340 -0.475092 1.015226 0.686633 -0.565030 1.259633 0.657031 1.394166 -0.912283 -0.992370 -0.545330 -0.548305 -1.269439 -2.462702 0.769044 0.386640 -0.667207 -0.419282 1.098225 0.670003 -0.824218 -1.937244 0.263577 -2.484566 -1.308287 2.226992 0.233994 0.455498 -0.998692 0.528553 -0.670148 -1.360281 -1.292109 -1.443004 1.582547 0.819586 0.305133 -1.804592 -0.610787 0.008879 0.975203 -0.557198 -0.978843 -0.269863 0.715551 -0.858615 -1.303829 -0.051443 -0.989993 -1.308968 1.620269 -2.146180 -2.149436 1.302381 -0.340174 1.358302 -0.418769 -0.799199 1.987000 1.943156 0.369992 -1.800362 -0.944016 -1.588344 0.209078 -0.099416 -0.410658 0.565977 1.216779 -0.774596 0.096129 -0.249157 -1.061970 -0.040927 -0.336420 0.026771 1.230688 0.512396 1.013148 0.575086 1.057879 -0.604465 -0.973064 0.635488 0.612490 0.131490 -2.200487 -0.429975 0.198065 -0.749052 1.248927 2.391722 0.261307 0.568276 -0.682939 -2.369868 0.511665 0.665937 -0.089862 -1.070606 -0.044742 -1.123422 0.328009 1.465409 -0.283672 -0.117560 0.416560 0.054782 0.275829 -1.316492 0.730973 0.233679 1.158263 0.399442 -1.188790 -1.506381 -1.796277 -0.663845 -0.488446 -0.056681 0.530448 
AAAGATGGTTGTTTGG -0.173514 0.233190 0.733596 0.189500 0.435814 -1.675408 0.965302 -0.285231 -0.332403 -1.348759 1.682262 -0.845519 -0.442972 2.274314 -1.468886 1.358464 0.609587 1.099848 -1.496972 1.343527 0.467811 0.605393 -0.418852 0.419239 -0.754382 -0.120607 0.966523 0.754414 0.772636 0.146260 0.675393 -0.829642 -0.452449 0.040913 0.225517 -0.275826 0.045476 1.134801 0.596982 0.264684 -2.121880 0.739205 0.946194 -0.055370 -1.066117 -0.901353 -1.060866 0.518765 -0.322269 0.260180 -0.142507 0.109056 -0.422982 -0.429051 1.531519 -0.437072 -0.050244 -1.766327 1.017380 0.299060 -0.109148 1.025516 0.920290 -1.236904 -0.950576 1.673068 -0.531899 0.796728 -1.507224 1.670279 -1.105157 0.315459 -0.992786 -0.882322 1.477686 -0.661667 1.235188 -1.252179 -0.773906 1.171213 2.267119 3.710876 0.829395 0.787113 0.655121 0.790151 0.290088 -2.360311 1.784397 0.256982 0.185181 -0.599928 -0.777386 -0.298839 0.387765 -0.356709 -0.263246 -0.793218 -0.843476 1.195974 0.300293 -0.307434 1.463298 0.931351 -0.031686 0.326106 1.135115 0.746232 0.592418 -0.444898 -2.461254 -2.081677 -2.382378 -0.034545 0.203490 1.181445 0.866643 1.974406 -0.772367 0.994423 -0.650503 1.027321 1.138567 -2.333305 0.569805 -0.870839 1.251598 0.197654 -1.584434 0.777486 0.774898 -0.574701 -0.497016 -1.113052 -0.987672 -1.124063 -0.705248 -0.966998 0.018626 0.154420 1.133212 -0.049920 -0.613627 -0.103301 -1.183416 0.656072 -0.790300 -0.433833 -0.203474 1.306699 -0.378880 1.010146 1.114231 -1.419314 -0.127082 -0.412306 -0.346144 -0.530085 -0.551903 0.088396 -1.874223 0.415832 -0.978269 -0.142494 -0.357024 -2.139609 0.912060 0.916631 0.841043 -0.117630 1.108684 -0.284483 0.194772 0.053998 -0.181879 -0.352659 0.213824 0.961458 -1.179127 -0.002285 0.016302 -0.768650 -0.350809 1.082871 0.103459 0.224528 -0.060240 0.782944 -0.952931 0.459597 -2.314707 -0.088411 0.250187 2.215962 -2.047576 2.016137 -0.692167 -1.628256 1.217271 -0.677106 
AAAGATGTCCGAACGC 0.869489 1.853879 -0.235697 1.555730 -0.587779 -0.234487 0.298130 0.581911 0.573727 -0.076713 0.404081 -1.008961 0.045352 1.750193 -0.232740 -0.655417 -0.085332 0.824262 -0.733032 0.088305 -1.289681 0.384347 0.113168 0.277670 -1.246256 0.201272 -0.043534 -2.192940 0.145657 1.110939 0.400082 0.005257 0.788180 1.516984 -0.660580 -0.252197 0.547333 0.420594 0.972645 -0.255649 0.859928 1.434070 1.568743 -1.405193 -0.136858 -0.645179 -0.952119 -0.739519 0.302317 1.609229 0.004227 0.093951 1.764857 -0.624782 0.980711 -1.853726 -0.367511 -1.335842 1.881038 0.024758 -0.791463 -0.098020 0.826952 -0.200029 1.061024 -0.301322 -0.826353 -0.431626 0.437704 -0.494668 -0.021324 0.533432 0.034924 2.512201 0.993254 0.816734 1.874947 0.182285 -0.359425 -0.977682 -0.459630 -0.201671 1.710475 2.647348 0.574464 -0.018329 0.106770 -2.708721 -1.115543 -2.145322 -0.598499 -0.118457 -0.365072 -0.863849 -0.584988 0.373485 0.739300 -0.874907 2.088660 -1.849598 -0.122065 0.104742 -0.816336 0.801496 0.204577 -1.600384 0.587909 0.122146 -1.493150 -0.524204 -0.139002 2.121334 -0.876331 1.333667 -1.048149 0.434003 -0.381867 0.162493 2.497035 0.260635 -1.327852 0.283988 0.168555 -0.519235 1.396515 -0.716714 -0.928588 -1.050083 -1.208655 -0.511101 -0.271284 -1.792427 2.325878 0.353935 0.335960 1.325459 -1.309898 1.765173 0.142915 0.494627 -1.474686 -0.981286 -0.557626 -0.130130 -1.815345 2.247644 -0.392211 0.750883 -0.517024 0.483021 -1.265322 -0.664650 -0.895224 0.699332 0.884078 0.389269 -0.377219 -0.214855 0.579733 0.507669 -1.591148 -2.213060 -0.425784 -0.255642 -0.054591 0.130833 1.205830 1.483905 -0.301839 0.543314 0.628633 -2.789744 -0.730325 1.416188 0.501555 -2.294218 -0.364849 0.992819 0.960661 -0.932145 1.809430 0.737985 -0.593172 1.250921 0.608246 -0.696456 0.809982 -0.772849 0.295646 0.492012 -0.316854 0.786857 -0.087405 1.352994 -0.182602 -1.698953 -0.635634 0.436421 -0.153931 -0.335907 
AAAGCAAGTAGGAGTC -0.777423 0.324995 0.185418 -1.948693 0.155224 -0.569909 2.446443 -0.703829 -0.128014 -1.232904 0.219571 -0.245538 1.453442 1.109144 -0.518270 2.100263 -1.706523 -0.473656 -1.996837 -0.200917 -0.645005 0.843082 3.899866 -0.870437 -0.907470 -2.996337 -0.742902 -2.138125 -0.044806 -0.138541 -2.868953 -2.796675 0.338675 0.268386 0.676457 -2.474432 1.074292 -1.093964 0.111921 0.454491 -0.099605 1.431444 1.910596 -0.498728 -0.381561 -0.634790 1.070135 0.031289 0.145128 1.895868 -1.646363 1.060928 -0.679397 0.053999 -0.164355 -1.318439 0.495292 -0.375880 0.276228 -2.421447 1.469487 0.881425 1.575493 -1.433259 -1.300630 0.284559 1.665937 -0.755065 -0.560563 2.377035 -0.316274 -0.251894 -1.549785 2.740457 1.868806 1.290722 -0.374887 0.097393 1.907134 0.561932 -0.860182 -0.168587 0.684121 1.126723 0.326271 -0.888625 -1.813671 0.778741 -1.113598 0.660897 -0.811255 -0.338736 0.138064 1.143339 0.208376 1.376982 0.721759 1.047508 -0.483448 0.440110 0.903071 -1.024291 1.536338 -1.366122 2.608191 -1.793928 -0.509929 0.668119 -0.183566 -1.038348 0.076388 -0.322518 -1.244375 0.257973 0.615718 1.194304 0.203568 0.752449 -0.998920 0.943079 0.032153 1.842135 1.118503 -0.303573 -0.002667 -0.356059 -1.009167 -0.154653 0.513738 -1.495391 -1.062394 -0.914107 2.208019 1.483896 0.507840 -1.705020 -2.655928 2.204353 -1.520334 1.400784 3.222816 -1.844112 -1.197397 -0.623423 -0.459407 -0.026341 0.343929 -0.936622 -1.406674 -0.191701 0.452648 0.145040 1.171998 0.095176 -0.634832 -0.039878 1.110640 0.603828 -1.021874 0.808966 0.428234 -1.180053 -0.063120 -0.243625 -1.000693 -3.327378 0.141127 -1.087887 -0.470778 0.054788 -0.751684 0.839925 -0.875275 1.474894 0.217459 -0.715085 -0.048602 -0.071692 1.876351 -0.457952 3.008301 0.360068 -2.003660 -1.648185 0.838826 0.890195 -0.500345 0.986586 -0.066391 -0.487393 -1.538476 1.566288 -1.301796 -2.082346 -0.805637 -0.477000 2.037162 -1.016765 0.001075 -1.660945 
AAAGCAAGTCAGAGGT -0.796496 0.482421 0.194883 -0.963370 0.647374 0.471025 0.120845 0.314957 -0.821263 -1.490276 -0.020553 -0.959607 -2.833832 0.923970 1.070345 1.567516 0.371340 0.808343 -1.292225 0.192840 -0.796885 -0.085423 1.021530 3.032437 0.513139 0.258484 0.684341 -1.235551 0.014930 -0.671940 -0.624561 1.145953 -0.039188 0.019896 -1.975101 -0.849155 0.391248 1.408661 -0.733451 -1.006796 -0.859169 -0.025156 -0.071400 0.185209 0.852937 -2.999118 1.110017 -1.155043 0.909103 0.464135 -0.171816 1.422303 0.767720 -1.221438 -0.163283 -3.405414 -1.264754 -1.470612 -0.931653 0.102034 0.983138 -0.344866 0.365848 -1.353382 0.323701 -0.020837 2.061349 -0.895608 -1.515546 -0.354332 -0.334088 1.846172 0.282286 1.568683 -1.563352 2.335962 2.212921 0.771217 -1.000633 -0.932935 -0.652033 0.028462 0.746436 -0.054678 -0.006163 1.511139 0.608072 -2.091196 1.643972 -0.087726 -1.838931 -0.154419 1.450293 0.192372 -1.211483 1.502479 -2.896749 -0.010927 -0.354361 0.060477 -2.529002 1.445891 -0.265703 0.073627 0.412107 -2.208152 -2.261374 -0.179675 -0.662876 0.236358 1.611252 -0.831337 0.613764 1.785531 -0.681540 -0.318096 0.408785 -0.505460 -0.377191 0.476111 -0.893255 -0.050826 -0.733031 0.994197 -0.238717 -1.934546 0.939824 -3.034031 0.238164 -1.007978 0.459873 1.273168 1.180709 -1.283447 -0.343337 0.204381 -0.042464 0.369732 0.123592 1.182131 0.795992 -1.041421 0.730172 -1.964470 -0.542721 -0.049987 -0.712489 1.399842 -0.181091 1.968418 0.376175 -1.133970 1.410235 1.272915 0.359646 -0.788648 0.470734 -0.692137 1.978474 0.469825 0.620030 -0.397027 1.555674 1.892782 0.093781 -1.560153 -0.316530 -1.495567 -0.734780 0.401352 0.164309 -2.211166 -0.403264 0.144799 -0.483988 -0.638364 -0.781287 2.330545 -1.982506 -0.016160 2.577798 -1.791921 -1.417731 -0.780246 -0.019632 0.502608 -0.917632 -0.684376 1.259991 1.511389 0.361076 1.001072 2.000211 0.703798 -0.130695 1.275704 0.105315 -0.597500 -1.016854 0.150532 
AAAGTAGCACCGTTGG 1.043956 1.038548 0.094312 0.147055 -0.149947 -0.213511 0.149589 2.974770 -0.705791 0.737348 1.239778 0.724044 0.429822 -1.448030 -1.480708 0.033318 -1.290571 -0.938328 -0.897161 0.562347 -1.018069 0.215140 0.513753 -0.118727 -1.171253 -0.872460 0.841503 -0.317736 -0.601564 -0.195645 -0.314421 -1.348834 -0.236317 -0.189958 0.142908 0.568695 -0.472711 -0.518762 1.889286 -0.671104 -1.825139 0.597982 0.091215 0.754176 -0.169849 -1.595916 0.607339 -0.875657 0.652136 -1.927253 -0.009663 -1.005455 -1.182549 -2.407690 -0.830761 -1.066473 -0.673321 -0.934675 -0.307393 -0.495593 0.245731 -1.461675 1.026458 0.530934 0.189113 0.179345 0.896332 1.274635 0.201060 -0.169390 0.718656 0.189145 0.271504 2.866578 -0.174318 0.862253 0.903678 -0.497823 -1.323617 1.455328 -3.077606 0.944337 -0.767139 -0.716935 0.350525 -1.101631 0.438521 -0.073478 0.320987 -0.173106 1.092202 0.568506 0.601558 0.145397 -1.326751 0.383749 -1.325746 1.278014 1.852206 0.987063 -1.141123 -0.307383 0.900903 1.133548 -0.758318 -3.288650 -0.454851 0.031095 -0.110500 -0.004766 0.530122 1.397768 -1.056086 -0.020035 -0.564628 -0.352917 -0.413362 -0.496353 0.352771 0.651628 0.045863 0.155079 -0.361864 -0.802327 -0.240136 -0.350175 -0.946269 0.312866 0.741898 -0.174281 -0.226016 -1.883005 -2.471428 1.031256 0.997795 1.033134 -2.751949 1.760266 -0.982398 0.018928 -0.336664 0.323629 -1.426201 1.926821 -0.264684 1.385939 2.193917 0.663389 -1.503648 1.492156 1.458495 0.648027 0.524560 0.261551 0.440588 0.603104 0.579493 1.126461 1.456817 -1.088399 -2.341118 0.032528 -0.200917 0.376398 0.113204 0.402559 0.270887 0.175625 -1.850457 0.841399 -0.266474 0.566382 -0.085632 0.838830 -0.384387 -0.253276 -0.944461 0.807198 0.850751 -0.369455 2.143585 0.705330 -1.484834 0.852195 0.553364 -0.417127 0.551785 -0.379286 0.865885 0.878104 -0.445407 0.601065 -0.274908 0.758110 0.190185 -1.560519 -0.298451 -1.575364 -0.102903 -0.376687 
AAATGCCCATGCATGT 1.654963 -0.589209 0.097356 -1.091825 1.653137 0.145058 2.492844 -0.483804 1.473026 -0.440658 0.381939 -0.350888 0.849850 0.364389 -1.979597 0.417468 1.480282 0.887240 -3.604438 2.133118 0.146714 -0.517551 2.209946 0.889285 -1.386042 -0.504336 -1.213354 0.132719 0.343672 -0.358419 -2.998866 0.504855 0.314307 -0.379428 0.556661 1.196296 0.580756 0.592825 -2.163991 1.886678 -0.353639 1.736595 -0.306566 0.284488 -2.369692 0.135181 0.020192 1.616508 -0.714827 0.092124 0.720556 1.348123 1.703685 -0.298793 0.125842 -3.936188 -0.715877 -0.402780 0.756106 -1.804357 -3.014274 -1.647991 0.532963 -1.185175 0.052927 -0.903247 -0.215576 -1.555517 -0.094395 0.886860 -0.440912 -1.121341 0.217717 -0.147546 -0.562544 1.760720 2.384092 1.882306 2.116340 1.081925 -1.244053 0.032405 -0.656922 0.376503 0.270254 2.167235 1.733049 -1.079552 0.508086 -1.666405 0.691022 1.239498 0.641372 1.007573 -0.158907 1.009460 -1.464660 0.842209 1.294085 -1.063881 -0.741582 3.894258 -1.183658 0.003654 -0.144159 -1.892099 0.566801 0.760647 1.138326 -0.660178 1.612576 -1.399187 0.887274 0.482463 -0.001521 -1.758893 -0.082834 1.108195 0.596042 0.497106 -1.002293 0.628198 0.510505 -0.217062 -0.285601 -1.149382 0.995901 -3.263885 -0.842214 1.861750 1.202382 -0.110713 0.047304 1.832396 0.352616 -0.210054 -0.374293 -0.475932 3.258239 -1.240250 -0.584855 0.032152 -1.271572 0.276143 0.221988 1.177676 2.038074 1.166547 1.315132 -0.937833 0.938781 -0.124589 1.602639 -0.622646 0.686649 0.344527 1.832505 -0.881370 0.598654 1.242496 0.608992 0.047548 0.887993 -0.430405 -0.531358 -1.302058 0.004773 0.775793 1.329288 -0.159382 0.026836 2.324688 2.559003 0.785192 1.135160 1.372012 0.418693 -0.368516 -1.063508 -2.410218 3.353914 0.422505 -1.096407 -0.132620 1.136891 1.260812 -2.170480 1.141005 0.301106 0.783856 -0.340711 -1.796076 -2.777464 -0.493745 -0.578589 -0.969160 -0.247975 -0.136686 0.238374 -0.297605 
AAATGCCCATGTTGAC -0.069982 -0.039448 -1.991511 0.552342 1.384204 2.240368 2.204166 0.814327 -1.594765 0.380490 1.591956 -3.139193 -0.788269 1.320214 -1.808643 -0.248893 -0.490351 1.195659 -0.911991 0.546688 -1.308698 -1.203080 0.065320 -0.240922 -2.854862 -1.273486 0.677161 -0.802981 1.778848 0.493790 0.155492 -0.159877 -1.014813 -2.170736 1.382121 0.089633 0.318277 -0.724011 0.501630 -0.641975 -0.991595 0.430047 1.808815 -2.364234 -0.945153 0.400626 -0.086205 1.103881 0.656811 0.249512 1.825629 -1.115959 -0.277357 -1.648287 -1.634807 1.925204 -0.900111 -2.235580 1.100860 0.304367 -1.867165 0.399077 0.755628 0.738597 0.081219 0.399501 0.443462 -0.245522 -0.600304 0.281268 -0.999715 0.642660 0.428831 0.795533 1.802895 -0.747347 -0.582798 -0.088774 -1.195013 -0.787015 0.722815 0.547753 1.810503 -0.690460 -1.042277 -0.339137 1.281552 -0.150882 1.232060 0.386352 -0.659852 0.804575 -2.250234 0.946692 0.928438 0.012978 0.833632 0.904553 0.642256 0.464036 0.619188 0.289472 0.356458 -0.476158 0.471713 -0.523857 -1.219023 -0.233634 0.069105 -0.934174 0.437324 1.523933 -1.662534 -1.523945 2.296362 0.142538 -2.348285 -1.284487 1.132398 0.487221 -0.805535 1.141991 0.364525 0.112949 0.317608 0.601202 0.094812 -2.968544 -1.470520 1.511344 -1.182985 -2.086235 -1.315317 0.942802 2.582213 -0.155768 0.230506 1.457011 -1.375637 -1.245299 -1.788347 0.877660 -1.207699 -2.702632 1.220814 0.303603 -1.172091 2.209593 0.800269 3.388417 1.943605 0.712803 -0.954008 1.131113 0.467738 -0.032103 1.997674 1.733108 0.980290 1.373197 -0.310772 1.526026 -1.496950 -0.007034 0.690962 2.126435 1.888569 1.744276 -0.900881 0.844395 1.918741 0.369758 -0.048258 -0.005180 3.692682 -1.475385 -0.147563 1.157822 -2.169596 0.717784 1.859019 1.208938 -2.392896 0.061148 -0.424601 -0.317408 -2.569537 1.802113 0.194306 -1.376842 0.336286 0.516822 -1.630036 1.855834 0.370489 0.298965 -0.080782 -0.566383 -1.362573 -1.557222 
AAATGCCGTAGCCTAT 1.008775 0.602059 0.279668 0.071822 0.356439 -2.218958 2.987865 1.061909 0.830421 -1.032092 1.509613 -1.486498 -1.077120 -1.227544 -0.476534 -2.634292 -0.085599 0.200999 -0.211074 0.069818 2.681477 -0.994504 -1.439927 0.090464 0.747488 -0.280889 0.385476 -0.146843 0.228496 -0.497134 -1.791236 1.749829 -1.169153 -0.135889 0.422855 0.009632 0.184542 0.498543 -1.990528 0.369848 -0.183128 1.455158 2.429964 -0.837278 -0.498125 -0.340887 0.123127 -0.360246 0.117426 -0.484073 -2.486709 1.627880 0.816883 -2.168978 -0.011974 0.621796 -0.652532 -2.441822 1.400825 -2.214043 -1.211537 -1.746726 0.290297 -1.001489 0.098153 -0.403454 -0.531756 0.048279 0.050386 -0.768559 -0.697236 0.599777 -1.787954 1.079282 -0.303460 -0.396151 1.514045 -1.004359 -0.034265 -1.481026 -1.960708 1.088212 -0.820371 1.223276 2.048059 -0.054329 0.142562 -1.161804 0.352659 0.101884 0.882960 2.518317 1.725040 0.952160 -1.135145 0.866672 -2.902290 0.784610 0.840102 -1.001321 0.191297 -0.442407 0.233608 0.205776 -0.197928 -1.250523 -0.602946 1.038632 -0.386417 -2.288442 0.489780 -0.195732 -4.648952 -0.691099 2.839395 -0.740208 -0.625165 -0.776382 -0.572030 1.396634 -1.263844 0.433929 0.773307 -3.185987 1.834495 1.145170 0.787919 0.506429 -0.669201 -1.941095 1.987550 0.504333 -0.699730 1.767222 -1.762209 -0.898397 -1.650555 -1.679492 -0.392797 -1.352870 0.055747 -0.339657 1.447251 -0.049722 1.771551 -0.270540 1.224937 1.072903 -0.139360 1.403989 0.895097 1.378893 -1.237693 1.002855 -2.388629 -0.577649 -0.708578 2.541223 -0.433871 1.572150 1.070462 0.986370 0.305710 0.240699 0.228887 -0.578436 -0.386025 -0.138952 -0.706603 -0.926459 -0.795780 -0.298092 -1.565587 1.120690 1.565550 -0.967428 -1.236917 2.662874 -0.796688 -0.949132 0.643627 -1.601485 -0.447089 0.335243 0.377724 0.823866 -1.620330 -0.025840 0.673005 0.818682 -0.756977 0.718114 -0.478198 0.701510 0.288917 -1.622283 -0.363999 -0.929548 -0.255109 -1.579479 
AAATGCCGTAGCTCCG 2.038771 -0.125937 -1.920602 0.548385 0.291710 2.035809 2.196007 -0.027573 -1.222088 -1.012795 -0.168932 -2.288938 -0.521172 -0.414034 1.606707 -0.475154 -1.933856 0.203617 -1.440189 -3.206059 -0.863129 -1.676009 0.477253 0.416718 -2.236822 -1.397764 1.014738 -0.248270 1.508717 -1.163121 -0.339825 0.785424 -2.270410 0.697180 0.143819 1.809889 -0.951426 1.146028 -0.575294 -1.545442 -0.436320 -0.002254 2.402616 -2.110274 -2.485207 -1.529808 0.235001 -0.668784 1.944533 0.003386 0.531354 -0.509008 0.021386 -1.106495 0.218831 -1.193036 1.970961 -1.626794 1.816072 -2.023549 -0.650124 0.598127 -1.125544 -1.617016 1.023108 -2.841868 1.040564 1.487539 -0.242807 -0.299399 -1.657906 -0.869557 1.702089 1.551283 2.185818 1.012533 0.075367 0.052612 -0.250687 0.661470 0.185369 -0.040476 1.248445 1.555970 -0.688674 0.120295 0.718981 -1.139417 1.650982 -0.230696 1.218625 2.583807 0.685043 0.421828 -1.077060 -0.198528 -2.582988 1.104628 -0.002546 0.583761 0.111870 -0.004133 -0.442734 0.316623 -0.505194 -0.758916 -0.516479 -0.656764 -1.757422 -2.976991 -0.834816 -1.345023 -0.002065 0.760541 -1.346842 0.482443 -0.328366 0.610855 0.846054 -1.556612 -0.478269 2.876721 1.920603 1.128373 1.799570 -0.217207 -1.053698 0.027447 0.050488 -1.053327 -0.033208 -1.004904 0.354774 -0.924983 1.674628 2.277509 0.212972 0.674022 1.272876 0.069344 -0.040343 2.734828 -0.449641 -0.929380 0.934686 2.500498 1.882204 0.780977 1.174859 2.168542 -0.851387 1.324751 1.138556 -1.332548 -0.242941 0.015922 1.363296 -0.363890 0.943538 -0.281594 -0.524982 1.080821 -0.742693 1.904678 0.342850 -1.637501 1.934957 -1.240569 -0.476461 -1.088736 2.781634 -0.315609 0.282845 0.744652 0.313881 1.709041 0.036080 1.369472 0.040061 0.739028 -0.301646 -1.887327 -0.558393 -1.114756 0.205141 0.379697 0.229921 -0.582163 -0.014205 -1.836904 -0.417830 0.166966 -0.778731 0.252955 1.301979 1.025209 -1.284467 0.299644 -0.404590 -1.212359 
AAATGCCGTTCCACTC -0.817697 2.162051 -1.563653 0.147832 1.268696 -0.249556 1.234984 -0.518023 -2.742818 -0.657055 0.100371 -1.648919 0.148253 1.264533 -0.983012 -1.141649 -1.965021 -1.709643 0.162384 -2.301608 0.398309 0.756951 0.051444 1.234862 -0.649218 -2.559200 1.160477 3.053815 1.267177 0.403241 -1.292008 1.997826 -0.456606 -2.532197 0.651175 0.342951 -0.760901 0.841264 0.636691 -0.532444 -1.466161 0.204633 1.247296 -1.134721 -0.736486 -2.506225 0.513982 -1.000016 0.397657 0.734234 0.863494 0.869587 -1.469220 -1.470865 1.086640 -1.359964 -1.359668 -3.676357 0.676550 1.603483 -1.157789 0.295493 -0.402262 -2.069584 -1.216362 -1.017319 0.171095 1.605021 2.264113 1.106173 -0.183685 2.131744 1.416018 0.019247 1.156574 -1.773059 0.726010 1.638201 -1.245702 -1.084560 1.622024 0.127009 -0.226560 1.966485 -1.516560 -0.094638 -2.511879 -1.961148 1.023250 0.708144 -2.140046 -1.390351 0.953393 2.852657 -0.151776 -0.292207 0.020531 -1.860495 2.334149 0.580617 -1.117885 0.521410 0.940756 -2.175356 -2.928199 -0.549884 -1.400763 1.671379 0.864838 1.500653 1.026925 0.993478 -1.213032 -1.386301 -1.942309 -0.152340 0.941480 -1.636459 -0.800162 0.893482 1.586780 0.104693 -0.813673 -0.561863 -1.133904 -0.770971 -0.390847 -1.282457 -1.451282 -0.171513 0.418507 -0.638387 -1.488432 -0.645674 0.425036 1.105054 -1.566199 1.467274 0.207292 -0.690302 -2.115937 -2.087394 -0.263982 -2.016537 -0.017846 0.402745 2.230082 0.340782 -0.333541 2.448981 2.076995 -1.497786 0.134987 1.347380 0.613075 0.977373 -1.549039 -1.341678 -0.333534 -2.299519 -0.323020 1.607171 -0.639383 -0.015066 -0.132446 -0.012720 0.717458 2.808160 -2.261118 0.046162 -0.106735 -2.014745 -0.088738 -1.335543 1.234228 0.779001 0.801696 1.420788 -1.167439 -0.089339 3.156212 1.193482 -2.676545 -0.935541 1.358661 0.131774 -1.166055 0.749449 -2.001380 0.252532 0.626200 -0.452394 -1.005613 0.269864 -0.533121 -1.563363 0.395084 -0.484660 -0.047649 0.048483 
AACACGTAGCACCGTC -1.861075 -0.424217 -0.983953 0.954348 -0.896333 -0.580634 0.070154 -0.185415 0.799788 0.130213 1.100157 -1.608928 1.036477 -0.221205 -1.181958 -0.851974 0.190906 0.824888 0.324059 -0.267905 -0.761538 0.000946 -0.355141 0.552014 -1.588413 0.401291 0.597447 -0.301916 0.540460 -1.328559 0.060679 -0.419629 -0.146530 -0.435879 1.213750 -1.419123 0.818861 0.024519 -0.499260 0.867628 -0.420167 0.290148 0.253839 -1.020882 -0.995302 -1.337349 -0.489762 -1.022256 -0.741466 -1.311625 -0.499906 -0.225879 -0.033171 -1.167374 0.854242 -1.748752 -0.147909 0.357709 1.097155 -0.684054 -1.141134 0.591743 -0.218833 -0.516969 -0.083879 -0.975411 -0.798315 0.148541 -1.867289 0.233198 0.441787 1.352716 -1.237203 0.879347 0.249390 0.040317 1.053320 0.337391 1.082309 -1.373267 0.383649 2.438409 -0.370012 0.717671 1.192832 -0.815771 0.229888 0.424228 0.485432 0.435040 -0.715112 -0.070122 -0.206475 0.168512 -0.449884 -0.614418 -1.902710 1.330941 0.276719 -0.459436 -1.156975 0.985388 -0.373874 1.748306 -0.929668 -0.337497 -0.578324 -1.253028 0.006074 -2.585244 0.805074 -0.957906 -0.686488 -0.245850 -0.895635 0.089735 0.088846 0.137313 1.410892 1.230837 0.165502 -0.092843 1.527867 -0.061217 -0.576934 0.091993 0.326635 0.871830 -1.432172 0.143627 1.185741 0.145071 0.712859 -0.629832 1.591183 -1.182092 -0.599036 -0.892771 1.386022 1.247404 -0.779778 0.016654 -0.686224 -0.854019 0.742376 -0.941985 -0.326281 0.124793 -0.732825 -0.522047 1.095010 1.420662 -0.909814 -1.411265 0.015546 -0.622807 -0.092775 0.655907 -0.225310 0.986000 1.413146 0.710115 0.378336 0.462967 0.093905 -1.147444 0.526942 0.035404 -1.294671 -0.149322 1.039167 -0.901103 0.481052 1.037479 1.397504 -0.727816 0.045591 1.267445 0.396603 1.099119 1.177052 -0.712868 0.888638 0.496380 -1.157633 0.414638 -1.238196 -0.180099 -1.225108 -0.819831 -0.880343 -0.787559 -1.202466 0.078462 -1.067484 -0.610535 -0.870882 -0.690322 0.686031 -1.319294 
AACCATGCATGTCGAT -1.115127 -0.109168 -2.017228 1.071791 -0.955514 -1.124697 2.317620 -1.192446 0.508514 0.734563 -1.404982 -0.393281 -0.811376 0.347953 -0.607689 0.117133 -0.634739 1.938976 1.450396 -2.086597 -1.849424 1.022920 -0.515014 -2.071486 1.035610 -1.481924 -2.776154 -1.993988 -1.410486 0.795054 -0.592631 0.527438 -0.845180 -0.262372 0.158851 0.560570 -1.858365 0.590285 -1.287222 -0.293632 -0.807567 0.239881 1.852244 1.693147 -0.038051 -0.789947 -0.429147 0.327800 -1.992470 -0.827371 -2.294313 0.938552 -1.941871 0.519857 -2.387634 -3.464273 -1.031065 -2.538515 0.745338 0.378140 -1.683080 -0.004752 -0.930897 -2.541506 -1.589623 -1.231099 0.555719 -0.353902 -0.299001 3.022847 -1.162177 -0.711605 -2.100921 -0.739243 0.624970 0.580520 -0.473766 0.361842 -1.122059 1.596152 1.070166 0.057611 0.047764 1.022514 -1.343180 1.816700 1.401479 0.586420 -0.110948 1.023863 -0.989449 -1.235095 -1.073010 1.144074 0.544017 0.951845 -0.923120 -0.399773 0.720760 0.998354 -0.251562 2.476576 2.038615 -1.232229 -1.672380 0.478569 -0.181718 0.919654 -0.474153 -1.612324 -0.652883 -2.240064 -1.383749 -0.099872 0.703565 2.700592 0.196114 0.779866 -1.498784 0.473476 -0.109024 -0.491337 1.575361 -1.213582 0.379191 0.487603 1.239825 0.291005 -0.280133 -0.779076 0.765798 -2.725523 0.565608 2.576434 0.361565 1.645552 -1.039700 0.183412 0.172781 -0.697640 0.606376 -0.374889 -1.433178 -0.622244 -0.112786 2.344834 -0.052368 0.312175 2.445594 -0.625276 -0.205621 -0.123484 0.466430 0.647075 0.650319 -0.044473 -1.160661 1.080366 0.010560 -0.042964 1.088101 1.014942 -0.187189 -0.359750 2.389692 -1.558367 1.265174 2.275944 -2.152912 0.817664 -0.530593 -1.986711 1.070434 0.956930 -1.643665 -0.448110 0.718323 2.976384 -0.498873 0.261070 0.619952 0.094819 2.088725 -1.110410 0.125415 0.361592 2.073435 0.402571 0.987394 -0.315042 -0.558460 -0.467766 0.053036 0.980948 1.636883 1.106757 1.805367 1.087707 -1.011130 -1.093410 
AACCATGTCAAACCGT -0.649342 0.856210 -1.627578 -0.650904 0.255988 -1.589868 1.366028 -2.128679 -0.391279 -0.372729 0.479894 -0.457191 -0.780237 0.287444 -3.269197 0.347389 -0.510656 -0.407754 -1.313847 0.798326 -1.058312 -1.234681 0.051263 -0.396267 1.505768 -0.763012 1.204810 0.274383 0.457118 -0.470576 -0.301848 -1.083305 -0.282364 -1.411984 1.366299 -0.909127 0.858387 -0.331509 -0.578423 1.357630 0.715398 -1.233909 2.221287 -1.998610 -0.586736 -1.727247 -1.118281 -0.812018 -1.185953 -1.133185 -0.582877 0.759085 0.048580 0.765754 -0.424442 0.432072 -0.511669 -0.466247 0.263802 -2.127744 -1.576294 -0.186030 -1.003603 -0.162156 -1.482452 -1.102624 -0.940552 0.870701 -0.133153 1.021042 0.426446 0.589735 0.178826 0.009443 0.445385 1.885147 0.489212 0.339413 0.638813 -1.703507 -0.501954 -0.132926 0.462310 -0.865653 -0.681702 0.015167 0.689921 1.986179 1.072273 0.512717 -1.981070 1.912480 0.726065 1.892632 0.509406 1.495003 -1.736313 0.701948 1.723662 -0.146331 -0.629197 -0.758323 1.441344 -1.901231 1.288099 0.134657 0.310511 0.309441 0.938834 1.946020 -0.882082 -1.718015 -1.297535 -0.398903 1.474557 1.050359 -1.335925 1.339019 -0.944933 -0.009959 -0.446413 0.374994 -0.301758 0.383322 -0.745433 -1.946812 1.943617 -1.573507 -2.512046 0.873193 2.025966 0.602503 -1.038664 0.605188 -0.352963 -0.101154 -1.768533 -0.458211 -0.992010 0.577662 0.977827 0.146782 -0.761337 0.060993 2.443970 -0.197487 -0.640256 1.689148 -0.131020 1.630646 -0.375868 1.001854 0.458174 0.144569 0.866388 -1.646934 0.572443 -0.383679 1.069924 -0.665071 0.115276 -0.596090 2.188503 -0.312036 1.472601 -0.971605 1.831476 0.836338 0.197365 0.475820 1.004356 -1.459687 -0.670987 0.853647 -0.451613 -0.436016 -2.620309 0.904784 1.306803 2.290098 1.649240 -0.007509 -1.190619 0.188978 1.321474 0.669286 0.570642 0.096166 0.501687 -0.578911 0.364835 -0.282924 -0.707300 1.836631 0.134418 -0.036202 -0.230596 1.479044 0.266299 -1.056008 
AACCGCGCAAGCTGAG 0.155655 0.458702 -0.397741 -0.074596 -1.516912 0.021352 -0.163559 -1.055207 -0.781855 -0.250842 -0.992881 0.202232 -1.101298 0.481862 -0.504841 -0.067736 -0.334753 0.613405 -0.278698 -1.187191 -0.983652 0.636397 0.198730 0.511697 1.130340 -0.482337 -0.341088 -2.245237 0.286883 -0.385881 -0.674778 0.744554 0.527859 -0.398051 -0.474727 1.060354 0.547269 -0.669262 -0.661930 0.776991 0.192196 1.888735 0.177760 0.582446 0.953678 -0.604647 -0.911206 1.034398 -0.539387 0.376775 -0.022504 -0.813508 1.000072 0.184015 0.039699 0.679706 -1.078735 0.052780 1.224294 -0.075735 -0.624645 2.170062 0.176777 0.142331 0.835355 0.226799 -0.967925 0.572729 -0.306501 1.036033 0.214457 -0.939353 -0.870878 0.395079 0.121083 1.047227 -0.637300 -1.102949 0.234250 0.749168 -1.135176 -0.602987 -0.827192 -0.308870 0.388571 -1.266434 0.877809 -0.198839 -0.041885 -0.055744 -1.201240 -0.029248 -0.848064 2.427059 -0.443322 0.229830 -2.395387 -0.330807 0.215438 -0.050255 -0.292964 1.180635 0.976284 0.361045 -1.023151 -0.132710 -0.530301 -0.354314 0.145162 -0.735795 0.500620 -0.468405 -1.380384 -0.349450 -0.673754 0.889996 1.170827 0.801770 -1.445094 1.077599 -1.308195 -0.798154 -0.518617 -2.539105 -0.145272 0.053417 0.067255 0.864214 0.071574 -0.213013 0.265293 -1.097152 1.387549 0.173355 0.683616 -0.039890 -0.235671 0.014168 0.425967 0.042954 0.008736 -1.015970 -0.065599 0.235240 -0.123036 1.770156 0.914224 -0.714375 0.389606 1.545560 -0.267521 -0.512704 0.363452 -0.836926 -0.006803 -0.026407 1.714100 0.644736 0.306946 -0.454051 0.177528 -0.345773 0.378117 -0.969389 -0.378026 0.679146 0.609669 1.216879 -0.257309 -0.341745 -0.643124 -0.093781 0.703709 -0.420614 0.368884 -0.138374 1.654887 0.991719 0.432016 -0.498219 2.238435 -0.313520 -0.205453 -0.288520 -0.427546 0.554761 0.887639 -1.029569 -0.863082 0.317239 0.431769 -1.001409 -0.658601 -0.059965 -0.513108 -0.263434 1.111973 -0.339301 0.096274 -0.273986 
AACCGCGTCAGCATGT -0.541233 1.184435 0.533196 -0.526467 -0.700427 -0.089912 0.203850 -0.376623 0.557526 0.227939 -0.035453 -0.274159 0.272419 -0.201145 -0.081717 0.882396 0.365072 0.236497 -1.977004 0.537017 -0.108485 -0.740031 0.317533 -1.336277 -0.224639 -0.920849 -0.004009 -1.091730 0.574805 0.651933 0.507353 0.929646 0.001280 -0.001174 -0.271488 0.383860 -0.363486 -0.790739 0.710014 -0.136475 -0.466949 0.268601 -0.788133 0.049825 0.127028 -0.587552 0.967095 0.288918 -0.198589 -0.656498 0.126013 -1.803515 0.171902 -0.147101 -0.126562 0.199359 -0.547003 0.008191 -0.282069 -1.655514 0.136745 -0.366755 0.063160 -0.485032 1.370786 -0.953437 -0.087200 0.290968 0.204590 1.583973 -0.053675 1.157149 0.955327 -0.337047 0.508550 0.112108 0.201769 0.258993 -1.379166 -0.270878 0.542809 1.609437 0.355868 -0.906070 -0.307876 -0.175642 0.367839 -0.977880 0.389375 -1.857750 -0.301261 1.341529 0.737023 -1.167353 0.288433 -1.316341 0.103415 -0.399348 -0.293685 0.747945 -0.403025 0.694272 0.193239 0.098638 -0.866241 -1.169496 0.584643 0.873914 0.688217 0.099526 -0.861488 0.676015 0.104343 -0.110298 -0.622250 1.338284 0.620290 -0.219964 -0.124594 -0.081797 -1.375833 0.072437 -0.241583 -1.684782 1.372023 -0.899124 0.088516 -0.050036 -0.647082 -0.646435 -0.697541 -1.211966 -0.123056 0.066654 0.688709 -0.561755 -0.554573 0.657616 0.844572 0.200978 0.154633 -0.010106 -0.649530 -0.983457 0.755358 0.205179 1.430861 -1.261243 -0.836522 0.545105 0.472297 -0.382604 0.281619 1.382279 0.098220 1.258856 -0.205397 -0.588471 0.334452 -0.081505 -0.286273 -0.256627 -1.090801 -0.428240 0.273675 -0.896911 -0.196099 0.439207 0.235667 0.199476 -0.002411 -1.119153 1.469202 1.180709 0.715180 -0.154529 -0.254276 -0.196254 0.719707 -0.466705 1.273148 -0.238598 0.335280 0.968922 -0.152391 1.101355 -0.307946 -1.015666 -0.503090 0.720766 -0.227727 -0.131679 0.384631 0.680726 -0.803771 0.911966 -0.180614 1.196828 -0.417608 -1.353732 
AACCGCGTCTTTAGGG 1.201648 -1.032521 -0.231709 -0.557092 -0.770436 0.057210 0.702833 -0.176801 1.284210 -0.461414 0.805348 0.764694 0.765856 -0.867312 -0.824259 0.740773 -0.828420 0.862934 0.393122 1.312507 -0.466347 0.063948 1.812870 -0.140936 -0.189059 -1.398629 0.595959 0.262680 0.119948 1.503650 -0.124112 -1.241084 0.111419 -0.796837 -0.011106 0.250635 0.151422 -0.139386 -1.253580 0.343427 -0.093017 -0.225525 0.327700 -0.782624 0.003175 -0.546245 -0.357696 -0.193219 0.272420 -0.129590 -1.935495 -1.043110 -0.843447 -0.595484 -0.356013 0.133029 0.393521 -1.583946 -0.625558 0.851544 0.764027 -0.876637 -0.106608 -1.209066 -0.449501 0.228489 -0.308451 0.056569 -0.994410 0.580600 0.331967 1.361045 0.552141 0.000531 0.629172 0.751944 -0.122944 -1.137687 1.230204 0.729149 -0.161614 0.122483 0.134249 -1.271454 0.685658 0.424557 1.793099 -0.753408 0.085690 0.072747 -0.172525 -0.073945 0.008121 0.600074 1.069415 -0.043688 -1.756194 0.471104 0.976024 2.039522 -2.081324 0.100273 -0.772175 -0.551795 0.670357 2.418952 -0.355292 2.152699 0.180665 -0.673886 0.828376 0.188894 -0.686600 0.118337 -0.991480 0.859210 0.001117 1.383549 -0.228867 0.150493 -0.550883 1.458005 1.749138 0.308502 0.249164 -0.165152 -1.213920 -1.156698 0.418248 -1.050076 1.401819 0.373037 1.753544 0.100072 0.937671 -0.077121 0.400017 -1.072540 1.111931 0.367796 -1.641024 -1.216264 0.410842 -1.490436 0.622750 0.661730 0.753468 -0.662552 -0.332144 0.400023 1.247676 0.582707 1.026812 0.891806 0.565342 -0.358062 0.393823 -1.547732 -0.112916 -0.780166 -0.202051 0.346196 0.270015 1.233017 1.463452 -0.279327 -1.379071 0.475382 -0.117579 -0.329284 -0.346261 -0.444515 -0.460387 1.012565 -0.247429 -0.432819 -0.703438 1.072288 0.039831 -0.146964 1.320707 -0.891893 0.069395 0.236913 0.093489 0.362650 1.380297 -0.103623 -0.774922 -1.513512 0.602802 -0.318596 -1.345767 0.324521 -1.531436 0.093129 -0.108490 -0.938865 0.111175 -2.979092 
AACGTTGCAGACGCAA 0.268789 0.432008 -0.628737 -0.240876 -0.253459 0.197115 1.312265 -0.063178 0.721789 -1.383784 -0.333677 -0.521437 -0.813713 0.118628 -1.555113 -0.196934 1.420932 -0.575963 -1.523568 -0.916221 0.281196 -1.176385 -0.855919 -1.081220 0.253661 0.216586 1.042306 -0.502206 -0.963704 -0.578777 0.325221 0.041430 -1.223741 -0.228345 -0.354802 0.009435 0.628193 0.756657 2.025229 0.556319 -0.091208 0.554666 2.492952 -0.683959 -1.404262 1.597765 -0.090455 -0.628876 -0.600959 0.224286 -0.190925 0.689133 -0.592952 -0.949256 -0.615244 -2.020266 0.013898 -0.709900 -0.704566 0.195191 -0.205594 1.185431 0.555904 0.021694 -0.983463 0.194285 0.653012 1.002234 0.351030 0.250210 0.215953 -1.496746 0.192377 0.463171 -0.573430 1.074469 -0.994036 0.521365 1.004189 -0.515800 -1.794301 -0.129841 0.562713 0.487784 -0.968479 1.681678 0.724843 -0.981031 -0.923514 -0.168137 1.443177 1.629734 -0.538697 -0.480321 -2.925432 -0.516280 0.337358 1.464374 0.570743 0.293089 1.030374 0.487890 1.084477 -0.279918 -1.140720 0.181839 1.617225 0.844429 0.588231 -0.102591 -1.912128 -0.523693 -1.995757 1.751104 -0.215916 0.668914 0.622636 1.617729 0.115278 0.018352 -0.780987 -0.031849 -0.565458 0.081730 1.019247 -0.559761 0.343074 0.010185 -0.969401 0.571664 -0.376138 -1.247699 -0.175595 0.226432 0.956793 -0.471675 -0.163003 0.160812 0.703626 0.545904 -0.077710 0.979691 -0.978975 -0.651363 0.564627 1.728241 0.616933 -0.222312 -0.189701 0.483642 0.847116 -0.463976 -2.207481 -0.450979 0.403309 -1.196032 1.032716 2.175452 -0.405512 0.276435 -1.528060 -0.236846 -0.110463 0.402700 -1.534367 -1.658605 -0.589010 -0.569622 2.193908 -1.110794 1.904635 0.481537 0.744164 0.150490 0.104064 0.847378 -0.153802 0.684604 -0.731604 0.161276 1.848312 0.485338 -1.401907 0.356053 -0.602674 1.165358 1.689347 -1.179507 0.769406 -1.856514 1.228228 -0.029229 -0.605931 0.834372 -1.230994 0.484589 0.139565 -1.237280 0.280185 -0.191925 
AACGTTGGTCTCAACA 0.497494 0.337441 1.084987 2.475320 -2.230257 -0.812355 2.732400 -0.632258 -0.559546 0.665553 0.679085 -3.227115 0.865954 0.469387 -1.172215 -0.336968 0.049304 -3.444241 -1.435348 -0.868575 1.361971 -0.038660 -0.068465 -1.491551 -0.530854 -2.169469 -0.987043 -0.248120 -2.890350 -0.285913 -1.679282 -0.503431 -0.289421 -1.225536 2.059885 0.601836 -0.624399 -2.439229 -0.799678 0.655911 0.320633 3.325075 1.414329 -0.494990 -3.496401 -1.816914 -0.410604 -0.079303 -0.696420 -0.793381 -1.245694 0.971284 0.200324 -1.932517 -1.417954 -3.495737 -1.443074 -2.448771 3.208119 -2.297890 0.121724 2.073863 0.076466 0.352881 1.496783 -1.124380 -1.375659 1.823521 -0.170542 -0.782046 0.943661 -1.743848 1.471898 -0.558807 0.348948 0.655319 -0.362761 0.788060 3.105507 -0.809150 -0.874778 -0.478069 0.255643 1.558329 -0.431504 0.161137 0.925386 -3.040501 -0.299336 -1.287720 -0.210836 0.621126 -1.091203 -0.100461 0.567231 0.634584 1.599453 -0.262259 0.369247 -0.104076 -0.902922 -1.355107 -0.067752 -0.594418 -0.150041 -2.220570 -1.059036 0.124429 -1.256886 -1.002597 2.418080 -2.115787 0.397950 -0.783343 3.453524 -1.080744 -1.223224 2.323900 1.406234 -0.338613 -1.136775 0.311618 -2.685033 -0.818251 -0.683034 -1.654660 1.257264 -0.501404 0.539634 1.858024 -1.488328 -0.580319 2.551509 -2.491128 0.248221 0.724168 -0.154063 0.018392 -1.690794 1.002280 1.310389 2.307489 -3.021996 -1.415132 0.332948 1.303012 0.333492 -1.130645 -1.299655 2.649953 -0.084417 -0.644286 1.427855 0.352302 -0.627028 -0.550534 0.859793 0.703617 -2.692786 0.684119 -0.199320 2.117017 -0.108876 -2.052425 0.957269 -2.042985 0.607882 -0.283390 -1.757826 1.699890 -0.601089 -0.142617 1.104587 -0.603158 1.535394 1.602410 -0.311102 0.998173 -2.474574 0.524683 4.866266 -1.557155 1.826939 0.910355 1.931321 1.177675 -0.602636 -0.172117 1.975553 3.296187 -1.230125 -1.373029 -0.424525 1.436946 0.538782 0.477437 1.885412 0.025074 2.109652 -0.354290 
AACGTTGGTCTCATCC 1.251509 -0.542494 -1.110435 1.850890 -0.489888 -1.602501 2.513765 -0.325102 0.368187 0.500130 0.308099 -3.388986 0.812417 -0.783773 0.868460 0.041320 -0.792533 0.960835 -3.061425 -0.396249 -1.069388 0.783099 0.862881 -0.744285 -0.549033 -1.264247 1.025486 1.933223 -1.612951 -0.106685 1.357426 1.178706 0.261496 -0.138185 0.915792 -0.017526 1.578965 0.469647 -1.387657 -0.722676 1.709787 1.521008 0.446276 -2.286958 -0.591138 -0.111667 -2.563092 -0.343855 0.012558 -0.909954 -0.552960 -0.638040 1.332039 -0.942428 2.488002 -0.157291 -1.266195 0.615601 -0.199468 0.650674 0.557475 -0.184176 1.044886 -1.662673 -1.196880 2.022074 1.731970 1.246893 -1.265617 1.677575 0.029363 1.279343 -1.266535 -0.392199 0.831233 0.273841 2.587184 0.139202 -2.688645 0.844077 -0.240280 -2.157008 -1.116711 2.502914 0.151441 -0.231624 0.775103 0.072390 1.366366 -0.604190 2.696640 0.598352 0.023022 1.481499 0.318217 0.498741 -1.663592 -0.500543 0.459210 -0.528622 1.661154 1.660777 0.592160 -0.774021 0.377846 0.502718 -1.475725 0.307966 -1.556468 -1.329119 -0.190564 -0.587769 -1.675449 -0.426448 0.535696 0.129463 -0.229627 -1.541839 -0.490269 -1.280415 -2.176253 0.487875 4.155438 -2.155014 1.690587 0.396418 -0.708683 -1.054123 -1.059021 1.442248 1.446122 -2.446265 0.504938 -0.620531 0.901193 1.028963 -1.840961 -2.139986 -0.226910 -1.452426 0.301027 -0.724587 -0.331243 -0.586816 1.247307 1.859331 -0.504170 0.002404 -0.117020 2.198059 0.692722 -0.775173 -0.575332 1.542001 -1.842010 -0.551602 -0.136904 -0.587264 1.048904 1.218964 0.595638 -1.038442 0.746926 0.455359 0.652958 -0.110634 1.118560 1.763032 0.202072 1.919886 -1.088242 2.086266 -0.321821 0.299008 2.400401 -0.012131 -1.036568 -0.671480 -0.307802 1.932709 2.336855 -0.803128 -0.053354 -0.074915 2.963797 0.891907 -0.568432 0.730078 -0.563376 -1.456749 -0.257025 -0.569205 -0.891328 -0.738010 -2.243746 0.234806 1.790054 -0.189420 1.204603 -1.296585 
AACGTTGTCCGAACGC 1.437232 1.871106 -0.353202 1.693939 -1.033507 0.744075 2.327180 1.026186 -1.156398 -1.305422 -0.372382 1.843648 0.703940 0.306483 -1.571030 -0.494252 1.206703 1.071799 -0.390638 -1.441498 0.029427 1.002002 0.540623 0.058158 1.380275 0.127271 -0.616924 0.529792 -0.076263 -0.353571 -1.002120 -1.227380 -0.916204 -2.312056 -1.784428 -1.428082 -0.178159 1.084093 0.784098 0.703659 0.523174 2.110374 1.100333 -0.564510 0.318994 -0.410313 0.852395 0.807493 1.762296 1.765234 1.008710 -1.204307 0.219117 -0.580855 1.304015 0.597751 0.569064 -0.456114 0.158852 -0.672451 0.241208 0.326290 2.251296 0.045821 -1.120935 -1.114022 -0.369169 -2.662103 -1.571955 0.171921 0.304237 1.333214 0.421283 2.214070 0.503490 -0.002537 0.561571 1.967500 0.070716 -2.263916 -1.093311 0.053628 0.598444 0.082151 -1.508040 2.885546 -0.771899 0.055993 1.052064 -1.706605 -0.328300 -0.168660 2.517079 1.226816 0.993227 -0.412719 -0.502430 -1.869777 1.841138 -0.007790 -1.716791 1.054923 0.383518 -1.690549 -0.321649 -1.865802 -1.937865 0.470159 0.369496 -1.837629 0.506121 -0.777780 -0.120807 -0.882788 -1.070925 0.047965 -0.717101 1.505412 0.195311 0.441516 -0.481838 1.692019 1.946075 -1.512334 1.936166 -0.739898 0.179417 -1.839588 -0.376100 0.566083 0.056138 -0.284085 0.983596 0.046960 0.960807 -2.074014 -0.986115 -0.457494 0.269761 0.763656 -0.312686 1.079676 -1.607697 -1.447929 -0.047017 0.933344 -0.492001 -1.200689 0.627590 1.505793 -0.817254 -1.335010 -1.010757 0.702513 0.473556 -1.272164 -0.619197 -0.112042 0.430525 -1.401043 -1.462981 1.295766 0.579375 0.683679 1.750739 -2.715664 -0.489161 -0.531514 -2.524548 -0.167722 -0.340395 -0.545256 -0.148890 -0.821874 0.010861 0.501636 2.029870 -0.059471 -0.583060 0.088288 1.480458 1.854568 -1.749342 1.005770 0.996688 -0.166651 -1.633600 0.172569 1.003972 -0.617989 -3.655270 -0.274270 -0.075712 -0.218647 1.211994 -0.812152 1.992417 1.334523 -1.271406 -2.453729 
AACGTTGTCCTCAATT 0.045771 -0.079691 -1.057803 1.563841 -1.898738 -1.042982 0.496736 0.752732 1.058188 0.320815 0.910983 0.004076 -0.815836 -1.076776 0.632992 1.232097 -0.276615 1.493899 -1.585424 -0.327916 1.400727 0.273906 -1.021815 0.834685 -0.217488 0.938659 -0.313787 -0.195315 -0.588477 0.212448 -1.097228 0.216040 -0.569735 -0.640213 0.254365 -0.940286 0.324680 -0.455447 -0.927471 -0.432032 -1.454170 0.616404 1.494608 0.175342 1.044717 -1.790692 -0.620559 -1.211638 1.712803 -1.580430 0.874824 -1.901575 0.422843 -1.623032 1.195541 -0.028201 0.789659 -1.700915 0.213901 1.027933 -0.767301 -0.773719 -0.509447 -0.391675 -1.065024 -1.315120 1.195925 0.017183 -0.393807 0.079225 0.000216 -0.303796 -1.020316 0.997872 -1.135668 1.239675 0.241568 0.467921 0.303360 -0.117988 -0.187314 0.970132 0.393507 0.523179 -0.156810 -0.294692 -0.343131 -2.002629 1.203529 -0.483819 -0.720316 -1.959551 0.582698 -1.672822 -1.257494 0.191057 -1.418472 0.333903 0.623112 -0.273014 1.214049 -0.408678 0.783590 -0.892609 -0.061596 -0.820551 0.853356 -0.045967 -0.841560 0.239969 -0.868064 -0.427176 -1.091059 -0.963348 -0.122532 -0.748620 0.383459 -1.249606 0.855249 -0.606205 -1.215036 0.301125 0.077159 -1.288277 -0.358899 -0.336752 0.548883 -1.754946 -1.593451 0.971781 -0.526380 -0.258185 -0.017743 -0.487240 -0.776555 -0.999539 -0.169858 -0.270149 0.667741 -1.366309 -0.497530 -0.974577 -0.703029 -0.751750 0.657690 -0.413999 0.442696 1.826076 -1.010459 0.712555 0.051067 0.337853 1.293842 0.112938 -0.581988 0.340073 0.001142 -0.346379 0.115873 -0.469761 -0.715543 -0.209793 -1.750860 0.467505 0.674541 -0.365653 -0.331116 -0.012309 -1.292391 -0.957846 1.094690 0.776091 0.454388 0.982971 -0.367298 -0.016168 1.259678 0.762116 0.727347 -0.424651 1.214879 -2.159680 0.633642 0.409507 1.129973 0.911368 -1.281033 0.145069 -1.844022 -1.260022 -0.592301 -1.094575 -0.991816 1.062396 -0.737043 0.269693 0.077123 -1.068990 1.506925 -0.358369 
AACTCAGTCAACACGT -1.193268 1.396565 -1.219034 -0.036551 -0.350679 -0.257716 0.498961 -0.485352 -0.293392 -1.858185 0.203044 0.223851 -0.599926 0.040956 -0.512472 -0.578683 -0.082310 0.309371 -0.631511 -2.195286 0.590168 0.472411 -0.067335 -0.407173 0.605342 2.328994 0.883361 -1.534239 0.249682 -1.409788 -2.164899 0.803720 -1.254561 2.310860 0.929841 0.767410 -1.051908 -0.031847 1.498003 -0.273762 1.410281 -0.545830 1.579549 1.194824 0.683000 -1.714181 -0.382468 1.432909 0.159097 -0.872935 -0.965662 -1.958269 0.151675 -0.175642 -2.387182 -0.750263 -0.784121 -1.254487 0.424758 0.251863 -3.185591 0.863269 1.231786 -1.254724 -2.155999 -1.872149 0.649819 0.651063 0.687700 0.468694 0.433463 0.377839 -0.380913 1.019991 1.623113 1.202776 -0.284190 0.408672 1.336147 0.003991 0.920132 -0.033285 0.901097 0.844991 0.414195 0.858090 0.346138 -0.613502 1.817752 -0.506756 -2.472172 2.178028 0.600978 0.251732 2.564884 -1.876218 0.310403 -1.233478 1.295850 0.428579 -0.216772 2.623099 2.055811 0.200683 0.076708 -1.876922 0.205048 -1.349995 0.769404 -0.952159 0.850291 -0.527439 -1.396828 0.137420 0.158432 0.751884 1.444667 1.327464 -0.848053 -0.541015 -1.339016 -1.133587 -0.124980 -0.879584 -0.085002 -0.452556 -0.785549 0.408169 -0.425782 1.359942 1.270448 -1.710979 2.440969 -0.122981 -0.824829 -1.669421 -1.717071 -1.224573 -0.142723 1.279996 1.512631 -1.263222 -1.831556 0.465397 0.648205 1.548395 2.697059 1.495441 -1.531646 0.924974 1.113122 0.653350 -1.897093 -0.136975 -0.710016 -1.037922 -0.369939 1.237257 -1.742993 -2.521013 -1.351271 1.949508 -0.248025 -1.575698 -0.082542 0.295408 0.111907 -0.246399 -0.007570 0.677723 1.557257 -0.258487 1.231207 -1.187122 -0.584404 1.519439 2.704462 -0.935194 -0.218427 -1.910114 0.310588 -1.082787 -0.270549 -1.147913 0.068654 1.550846 0.216892 1.245592 -1.061442 0.499244 0.034915 -1.098195 2.148170 1.426985 -1.008204 -1.176754 -0.236207 -0.582691 -1.416396 0.406040 
AACTCAGTCAAGATCC 0.968300 -0.657604 0.861491 0.581985 1.262009 -1.821759 0.616676 -0.038311 -2.384184 0.574840 0.569500 2.143497 -0.761495 -0.683586 -1.758295 -1.108179 -0.474371 0.125447 -0.589818 -0.505822 0.293178 -1.167144 -0.572820 1.467936 -0.565818 -2.808367 0.477030 1.635865 -1.387200 0.143381 -0.661657 -0.304665 -2.378453 0.265205 -1.060765 -0.740073 0.701228 -0.567219 0.331954 1.106220 2.087019 1.360918 1.539494 0.545615 1.404929 -2.494300 -0.079437 2.182413 0.890013 -0.050682 -3.942967 -0.254828 -0.114668 -0.201318 1.562857 -1.280387 0.224868 -3.663992 0.648147 0.244251 -1.404332 0.278099 0.497427 1.022618 -0.238988 -0.472711 3.203381 2.120818 -0.244293 2.065434 -1.196764 1.331549 0.790269 -0.097780 0.174387 -1.220353 -0.595934 -2.088202 2.291398 -0.624599 0.623790 0.313042 -1.136958 0.117672 1.189522 0.982400 -1.305281 -3.042559 0.466239 -1.945642 1.310526 1.733538 -2.085246 -0.300692 -0.194610 -0.418014 -1.529755 -0.848590 -2.964811 0.376138 1.059327 1.011684 0.939173 -1.940255 0.013493 0.472136 -1.852132 0.223390 0.929892 -1.596977 0.189847 -3.110601 -0.732017 0.773423 -0.549861 -0.602497 -1.771332 0.892781 -0.608894 0.858874 -2.125556 -0.307023 0.472965 -0.284860 -0.122216 -1.548880 -1.371789 -1.018815 1.097396 -0.368244 0.192084 -0.460992 0.767564 1.698722 3.564682 0.067462 -2.738257 0.268476 0.392177 1.030489 -1.968600 1.443914 -1.222721 0.923757 -1.245106 -2.112288 -0.375322 -0.523396 0.914145 3.242807 0.618309 -0.422538 -0.838361 0.268199 1.763737 -0.508492 -1.943713 -0.240742 -0.015746 1.638938 -2.050735 -0.027918 0.515314 -0.063957 -0.205654 1.636735 -1.534539 1.356784 1.732236 -1.328831 0.909817 0.001488 -0.794599 0.771783 -0.738965 0.912412 -0.060522 -0.673765 -1.589132 1.056212 3.046029 0.122511 -1.858992 -0.214594 1.500639 -0.219095 0.798198 0.967368 1.430344 0.088095 -0.155130 -0.924850 0.843089 -0.398480 0.094319 -0.919725 -0.727608 -1.254858 -0.864218 -1.946454 
AACTCAGTCATATCGG -0.444761 -1.739188 0.485712 1.189283 -0.893710 -0.508241 0.018070 0.325103 2.182719 -2.274476 -0.145899 -0.162858 0.429109 0.600240 -0.236758 0.743051 0.056720 -0.702704 -0.830435 -0.180026 -1.497342 -0.818862 -0.104743 1.773904 0.511113 -1.062862 0.034626 0.403437 0.977762 -0.063471 -0.431417 -0.762210 0.237733 -0.969341 0.629126 0.603520 0.848466 -0.958256 -0.867954 -0.469579 -0.496403 -2.089908 0.576769 -1.207657 -0.946160 -0.142906 -0.460389 -0.878232 -0.064689 -2.077011 -0.116835 1.137798 -0.323713 -1.822853 -0.992566 -1.308813 1.458551 -0.892844 0.234029 -0.922166 -2.320342 1.261418 1.145110 -1.055557 -0.917682 -1.566741 0.652555 0.285575 0.790942 0.745895 -1.564055 3.098221 0.131764 -0.788090 0.914224 -0.107180 1.608133 -0.093057 -0.570534 -1.547669 -0.980322 -0.095267 0.035803 0.354176 0.590953 -0.404445 0.147247 -2.135260 1.366576 -1.949575 -0.798950 0.167105 0.448553 -1.140166 -0.682587 1.159797 0.189998 0.512590 0.849653 -0.945158 -2.118761 -0.545326 1.182928 -1.375361 0.574642 -0.249198 -1.188535 -0.712602 -0.358624 -1.420962 0.294000 1.019384 -1.250657 -0.065008 1.541259 1.725783 2.454007 0.029117 -1.074614 1.395222 -2.740416 1.249628 -0.612684 -0.990654 -0.565194 -0.656904 -0.394142 -1.166158 -1.555228 0.681767 -0.407828 -0.686185 0.696302 -0.624740 -1.112441 -0.194560 -0.309862 -0.832341 -0.171502 -0.080291 -0.106948 1.172930 0.497714 0.202157 0.091995 -2.334897 0.238174 -0.967637 -1.827416 1.485103 0.545652 0.231212 -2.349945 -0.081155 -1.594535 -1.304610 -0.578607 0.650782 1.114644 -0.701524 -0.887102 0.344756 -0.942378 -0.366635 -0.756640 -0.200674 0.881307 -1.120870 1.463416 -0.127729 0.437727 -0.351448 1.832919 1.136049 0.982968 -0.599661 -1.668555 1.343652 -0.918509 0.890387 2.259227 -3.286944 0.639907 0.114854 0.633545 1.976188 -1.283149 0.253074 0.112413 2.264289 -1.261090 -0.649762 -0.097296 0.052920 -0.782344 0.791919 -0.258369 -0.404380 -0.997042 2.549580 
AACTCAGTCCGAATGT 1.694446 0.266320 -0.765593 1.637094 0.243627 -0.771718 0.631712 -0.068802 -0.795088 0.407303 0.517116 0.581513 -0.013560 0.469361 -0.032063 -0.730151 -1.359351 -1.053412 -1.621580 1.340898 -0.742568 0.741261 -0.186902 -0.652550 -0.193474 -2.426560 -0.262347 1.750162 0.296517 0.319463 0.441657 -1.126794 1.368299 -0.993844 2.328970 -0.968230 -0.372123 1.126169 0.179381 -0.549774 0.066707 2.511713 -0.572189 -0.741130 -0.716414 -0.118631 1.480167 -1.245485 0.066227 -0.124420 -0.494095 0.531715 -0.198688 -0.743473 0.096920 -1.270628 0.528262 -1.234327 2.133022 -1.604084 -0.804687 1.701249 0.482236 -0.269000 -2.938080 2.166231 -0.733990 -0.310448 1.361140 1.606103 0.804401 -0.323480 -0.120826 2.122456 -1.059276 -2.593988 -0.191217 -0.717885 -0.608415 0.641152 0.602516 -0.346404 -1.340127 1.235976 -0.413081 -0.142976 -0.030957 -2.980559 2.753480 -1.285470 -1.199058 -1.621802 1.024718 -0.908558 1.758768 -0.764786 -2.024662 -0.247705 -0.758342 0.543657 0.063525 1.938172 0.605514 -1.038256 1.832322 -0.733631 0.107895 -0.556864 1.719427 -1.183739 -0.951480 0.835141 0.423699 -0.101462 1.134765 -1.172062 0.532284 -1.026427 -1.363909 -0.520537 -3.023901 0.569044 1.509564 -0.859266 1.130180 -0.994184 -0.465475 -0.788238 -1.747251 -0.285008 0.875097 0.180510 -0.889714 2.247017 1.264994 -1.126985 0.303465 -1.383989 -0.385068 1.009658 -1.375655 0.046560 2.638973 0.182125 0.160712 0.983972 1.598520 0.025345 -1.607861 1.492074 0.254110 0.725027 -0.594814 -1.351075 -0.052654 0.117471 -1.713359 1.792379 2.418155 -0.912844 0.113540 1.262363 0.142644 0.338558 -1.815848 -2.274809 1.610300 1.116526 1.434519 -0.348196 -0.092802 -0.012953 1.762622 -0.802430 1.112029 0.866692 0.597805 0.385928 -1.466590 1.740411 0.094808 1.203804 0.725689 0.487360 0.819122 -0.613543 0.963347 -0.254348 0.939685 0.017648 -0.890523 -0.738876 0.142381 0.971570 1.277387 -1.132612 2.001232 1.618286 1.044932 -0.604479 
AACTCCCGTAGCGCAA -1.332705 0.473887 -0.648171 -0.142440 -0.576828 -1.007902 1.509196 -0.668195 1.005132 -0.646816 0.081825 0.228406 -0.519119 0.437913 -0.705177 0.017258 -1.082628 1.225544 0.300488 -0.391148 -0.524034 -0.503540 0.989654 -0.013713 -0.255425 -0.128819 0.522411 -0.260100 0.605771 -0.790691 0.683320 -0.361065 1.036434 0.038307 0.756806 0.320448 -0.019924 2.000164 -0.639880 -0.962399 1.584049 0.757317 0.245600 -0.238957 -0.281483 -0.084054 0.977281 -1.000115 0.732537 0.412146 -0.976719 -1.201960 1.341964 0.060223 0.521280 0.606809 0.519499 -0.287973 2.363200 0.131541 -1.320424 0.583122 1.256016 -1.279601 0.548469 -0.645034 -0.073127 -0.073540 -0.409907 0.591229 0.296893 -1.182018 1.835518 1.073407 1.420961 1.255222 0.659357 -0.760284 -1.114610 -1.259933 0.635090 -0.954630 0.523136 -0.902990 -0.002390 0.853035 0.953784 -0.684531 0.279763 -1.137756 0.452623 -0.619382 -0.093576 -0.239628 0.647614 0.783357 -0.319984 -1.109102 0.694589 -0.389987 0.107277 -0.531292 0.337430 1.626198 -0.609334 -1.112827 -0.361100 -0.114836 -1.433971 -0.843902 -0.289706 -0.536945 -1.152328 0.453425 -0.954012 -0.082846 1.878227 0.258818 -0.199764 2.524110 0.214530 0.046337 -0.727734 -0.423592 0.612576 -0.285606 0.271121 -0.875008 -0.335653 1.877510 0.884642 -0.195354 -0.086370 1.422840 0.877326 1.163186 -1.328509 0.381009 0.646408 0.430855 -1.312834 -1.181123 -0.919063 1.558058 1.799778 -0.567510 0.194356 -0.567005 -0.262684 0.871245 -0.517472 0.502818 -0.928780 1.130095 -0.594501 -1.105635 -0.688208 0.381013 -0.893222 -0.419054 -1.376746 -0.716483 0.108605 0.544049 -0.318402 0.993210 0.698459 1.018499 0.097765 0.720632 0.235836 0.129281 0.478306 -0.248055 -0.559772 0.903571 0.747518 0.433091 -0.061783 0.250568 0.039589 0.699410 -0.727909 0.127570 1.282209 -0.817046 0.964720 0.011902 -0.581482 0.752649 -1.077657 0.387857 0.612252 -0.428353 -0.953025 1.256338 -0.372296 0.650514 0.011176 -0.255474 
AACTCTTAGAAGAAGC -0.099835 -0.488687 1.282100 -0.612288 0.235775 -1.220541 1.308062 1.560439 -0.497976 0.051166 0.425647 -0.526649 -0.213012 0.645416 0.237561 -0.755013 -0.733196 -1.927107 0.067909 -0.144572 0.027308 0.788061 -0.520402 -1.439129 1.803876 -1.100807 -0.775856 0.230125 -0.064087 0.404923 -0.477476 0.999322 -1.145765 1.776074 -0.518800 -0.179509 -0.900577 0.752474 -1.030358 -0.106585 -0.909513 1.092477 1.426619 -0.390653 0.143927 -0.469665 -0.107263 0.910154 1.310382 0.275346 -1.058500 -0.005181 -1.291761 -0.131521 0.218758 -0.208664 -1.032557 -0.929819 0.611934 -0.828529 0.802958 0.561164 0.619894 -1.209997 -1.849999 -1.105539 0.790231 0.442329 -1.666012 -0.158889 -1.028467 0.808826 -0.564983 -0.844601 0.540622 0.386649 0.462572 -1.113021 -1.031281 0.154872 -0.499760 0.719357 1.025279 -0.578956 1.580703 0.841662 0.266445 -0.682830 1.508229 -2.570141 -1.100312 0.660067 0.374925 0.704599 1.466567 2.480455 -0.582603 -2.287627 -1.235567 -1.147375 -1.342902 0.847269 1.510286 -1.300571 1.521058 -1.377824 1.244035 -1.078308 0.463207 0.463958 0.262278 -0.923465 -0.344436 -0.336907 0.158794 -0.157328 -0.679930 0.428653 0.165186 0.172776 0.798434 0.376711 -0.668898 -2.415060 0.029185 -0.623904 -0.146181 -0.588751 -1.225284 -0.057485 -0.727171 -0.719898 0.095571 -1.323323 -0.260800 0.938885 -2.279199 1.392552 0.034180 -0.020044 -0.296616 0.372752 -0.276733 -0.041892 -0.074003 1.188144 0.446005 1.029019 -1.358539 0.584379 -1.194315 -0.139003 1.091411 -0.344107 0.233445 -0.567888 -0.716982 -0.194647 0.650621 1.561826 -0.325762 0.759105 -1.001163 -0.825225 1.071473 0.069122 0.988724 0.663557 -1.119983 1.046831 1.775229 -0.212296 2.344748 0.651605 1.054395 2.300424 -0.081915 0.038999 -1.667393 0.013284 1.986257 -1.238143 1.218399 -0.154417 0.712537 0.581384 2.142847 -0.342203 -0.127286 -0.240381 0.961459 -0.253945 -0.642207 -0.112981 0.998816 -0.323707 1.069088 -0.969603 -0.070128 -0.886329 
AACTCTTCAGATGGGT 0.027270 1.655867 0.349500 1.786990 2.428194 1.775320 2.227801 -0.376060 1.063578 -1.004192 -0.024400 0.691837 -2.154817 1.025855 0.033360 1.269841 -0.593594 1.189293 1.268970 1.838396 0.325822 -0.373658 -0.667957 -0.649162 -1.373079 -0.492154 1.388956 -1.064445 -2.265402 -1.599808 -1.207055 0.310146 -0.299400 0.112661 0.975547 0.730463 1.034145 0.076561 -1.047647 0.815482 0.804206 0.438035 -1.776474 -2.754189 2.750412 -3.426494 -0.692784 1.254030 0.394475 -1.801175 -0.580098 2.029947 -1.465537 -2.655671 -2.815885 0.392582 -2.437199 -2.538536 -0.549821 0.617578 -0.429702 -0.003427 3.982666 -1.495363 -0.645022 1.594079 0.282865 -0.347858 -0.730879 -1.872209 0.786731 -0.351295 0.497561 -1.499699 -0.365465 0.823472 -1.545912 1.462358 -1.431156 0.846375 -1.320993 -0.669626 1.610837 -0.168365 -1.611921 0.681013 -0.085736 0.043206 0.392180 -1.069488 -0.768913 -1.351859 0.962581 -1.108112 -0.964161 -1.268074 -2.224786 0.248970 2.083523 1.364852 0.443009 2.992976 0.171883 0.259776 -1.636452 -0.188657 -1.803370 3.117993 -0.397487 -1.289581 -2.232309 -1.790935 -1.012169 0.455524 3.173136 -0.959518 1.784945 0.569508 -0.973432 1.297259 -2.004660 2.588399 0.386325 0.279125 0.675008 1.778521 0.243956 -0.872071 -0.494691 0.660972 -0.776934 -1.836412 0.383259 -0.670225 3.215571 0.379444 -1.505661 -0.330413 2.014532 0.822914 0.984137 -0.524491 -3.076526 -1.794302 -1.111269 0.548815 1.694054 -0.061450 0.768236 2.937361 -0.628954 -0.215074 -0.121285 -1.564062 -0.761206 -0.190552 1.785611 1.181123 -1.245752 -0.103793 -0.362833 0.441679 0.091173 0.638828 0.115624 0.531975 -0.121671 -0.179128 -1.646156 1.130698 1.150283 0.043553 2.289515 -0.393821 -1.100854 -0.654874 -1.337422 0.473466 0.707919 -0.793587 1.775442 1.074834 -2.457736 -0.053735 1.911252 1.029940 -1.131810 1.785387 0.583584 0.918456 -0.627535 -0.606285 -1.016687 0.768657 -1.719715 -0.838184 1.217788 0.451925 -1.512948 1.052956 
AACTCTTCAGCTGTAT 0.921496 0.459930 -0.138936 0.227842 1.292469 0.288336 0.526654 0.981325 0.476915 0.077563 1.242617 -1.528616 0.697585 0.146093 -0.906251 -0.047764 -1.306033 0.637817 0.561834 -1.667851 1.358711 -0.328877 0.086205 0.876045 0.253099 -3.293898 -0.243020 0.321848 1.313528 -0.624960 -0.927680 0.234300 -0.528535 -0.068378 0.651030 -0.315301 -0.961842 0.836713 1.959364 -0.320570 0.465470 0.357302 1.604948 -1.069940 0.550475 -1.240896 0.050353 -0.150271 -0.151872 -1.067575 -0.544495 1.330927 0.454443 -0.634377 -0.539171 -1.667373 -0.557259 0.165252 0.619337 -0.442159 -0.903867 0.805474 0.871568 -0.463136 0.271165 0.268148 1.131445 0.558957 0.488548 1.028729 1.173729 1.429507 -0.443273 1.664171 -1.293367 -0.730357 0.344097 0.106707 0.040376 -0.254937 0.219611 0.238851 1.021631 0.433929 -0.042460 1.166632 0.442591 -1.873153 0.982332 0.571862 -0.014846 0.853003 -1.101879 0.550393 0.987025 -0.071765 -0.788501 0.433092 0.456165 0.394713 -0.418876 -0.323636 -0.274680 0.991196 1.654456 -1.048646 -1.191863 0.213504 0.257975 -0.711742 -0.379182 -0.225132 -0.319713 0.267900 0.990485 1.028262 -0.579567 -0.396528 0.724200 0.790177 -0.002177 -0.583081 -0.225504 -1.431375 2.014933 0.389040 0.122774 -0.178213 0.245556 0.280909 -0.618656 -0.520644 -1.539014 0.976872 0.436454 0.322746 0.192368 0.162559 0.571588 -1.035016 -0.407907 -1.270445 -0.089792 -0.710069 -0.275685 0.281184 1.798732 1.156138 -1.147073 0.906937 0.557880 -0.815257 0.453292 0.564866 0.167931 1.252690 -1.848370 -1.018139 1.004014 0.297144 -0.512870 -0.711139 1.008864 0.147528 0.212974 0.889807 0.102850 -0.806336 1.004569 -0.288898 1.082927 -1.296722 -1.380787 -0.474628 1.277984 -1.407017 0.858960 0.863339 -0.348655 -1.097992 -0.795252 1.618054 -0.256719 0.670482 -0.145590 0.149996 -0.301585 -0.989337 0.107140 0.686632 -0.590519 0.311928 1.742953 -1.070482 0.879034 1.385941 0.329205 0.100538 -0.277380 -0.537006 
AACTCTTCATGCTAGT 1.058756 2.981627 0.719000 1.192214 -0.315783 0.219916 0.661014 -1.796525 0.077983 -3.249512 -0.435190 -1.290401 0.431197 1.489914 -1.287744 0.324178 -0.744046 0.344488 -0.260018 1.329805 -1.003330 0.941933 1.976483 0.057771 -0.335185 -2.418633 0.418868 -0.502907 -0.910213 1.029948 1.098536 -2.474816 1.840271 0.910784 0.287788 0.303801 -0.575090 2.978643 -1.755635 -2.868264 0.699580 0.653120 1.017763 2.214020 -0.514271 -1.888340 0.661143 0.414026 1.773294 -0.982857 -1.209040 0.883601 -1.166973 -1.229272 -1.348513 -3.888158 -1.828786 -1.592249 -2.386225 1.850358 -0.054360 -0.871600 0.587511 -0.436616 -0.218129 -0.479554 0.949373 -0.517749 -1.681563 2.354316 -0.779092 1.218647 -1.329387 2.034651 0.405749 -0.371579 0.951134 0.993639 -1.770076 -1.763273 0.758775 -0.029838 -0.264455 1.333736 1.427062 1.333191 0.807327 0.850252 0.299715 -0.514295 0.810893 1.182454 0.701272 1.059841 1.810945 -2.616278 -1.073294 -0.945864 -1.519054 -0.497870 0.028436 1.334830 -0.178376 -0.671719 0.490124 -0.304227 -1.141130 -0.629828 -2.621285 -1.051790 -0.719370 -3.168643 -0.646540 -1.428261 0.039677 0.461570 2.067330 0.449099 -0.014018 1.851136 -2.569403 1.059104 0.727804 0.241132 0.903894 -1.236205 0.849595 0.529001 -0.764904 -2.028970 1.318770 -1.197421 0.285373 2.662683 1.235389 0.536014 -1.606025 -0.132201 2.390463 -0.670021 0.898461 0.378188 1.471707 0.176893 -0.002716 0.007248 0.169390 0.803050 0.420022 1.820563 2.536153 -1.618889 -1.158018 1.690470 1.136770 -1.341031 1.186943 -0.778692 -0.666353 -0.229169 -2.000306 0.171524 -0.736038 0.876293 -0.027923 -0.739255 -0.558648 2.113797 0.407935 -0.144007 2.050884 -0.712030 0.031379 -4.938123 -0.223882 -2.251635 0.819559 0.310140 0.369484 -0.400324 2.071633 -2.843541 -0.891150 1.240879 1.390517 0.090567 3.075819 -0.197674 -0.319137 -0.317404 -2.129170 1.671940 -0.968076 1.114539 0.205054 -1.805962 -1.266919 -2.029825 -0.200811 -2.559646 
AACTCTTGTGCACTTA 0.658627 0.100389 -0.414887 0.730346 -0.241294 -0.582194 0.390857 -0.481922 -0.228403 -0.598816 0.899253 -0.723449 0.294126 -1.064626 0.178235 -0.033896 0.332796 -0.206312 0.027941 -1.193681 0.731412 -0.944070 -1.196182 1.063318 -1.560308 -0.678695 0.986605 0.374303 1.240578 -1.314087 -0.882270 0.217275 0.669398 1.451690 -1.067191 -0.732776 0.374967 -1.636522 0.116007 -0.912864 -0.749241 0.366078 0.736265 -0.187288 -0.132444 -0.632873 0.329973 -0.838950 -0.225374 0.884493 0.143763 0.891932 -0.664118 -0.382727 -0.061183 -0.220724 -0.512631 0.090047 0.011290 -1.152407 -0.475033 0.510995 1.181844 -0.011613 0.701159 -0.433393 -0.101937 0.176778 0.302308 -0.183445 0.867296 0.886692 -0.262164 -0.035038 1.062068 0.481986 0.434511 -1.313943 0.072678 -0.123200 -0.123435 1.238315 1.256354 -0.792899 0.144194 -0.708259 0.854635 -1.363861 -0.197970 1.514858 1.438998 -1.972273 -0.139433 -0.481174 0.690004 -1.305730 -0.407757 -0.683788 -0.627200 1.103354 -1.307586 -1.179901 0.619104 -0.596486 0.651083 0.591600 -1.251716 0.958611 1.351010 -1.573644 -1.210397 -0.391972 -0.420726 0.095281 1.159401 0.155501 -0.122545 -0.509086 -1.062706 -0.121122 -2.195724 1.327699 -0.044361 -0.902012 -0.559389 0.623205 0.173307 -0.824734 -0.976282 1.032258 1.400404 -0.656089 -0.379596 0.568986 0.642975 0.806757 -1.264727 1.246842 0.747347 0.084636 0.375057 -1.841072 -0.830245 0.650276 -0.478974 0.828150 0.425936 0.136894 -1.057154 1.562699 -0.274172 0.424648 0.925486 1.123580 0.846231 0.097302 -0.190946 -0.216006 -1.081624 -0.195550 -0.038365 -0.160100 0.047021 0.147331 0.258626 -1.049966 1.114766 0.399276 -1.044823 -0.106105 1.377849 -0.276511 0.633711 -0.116412 -0.256183 0.243898 -0.595870 0.655162 -0.177304 -0.326481 1.307320 -0.347399 1.078630 0.053838 -0.242755 0.986472 0.539649 1.689951 -0.733515 -0.966806 -0.648707 -0.043368 2.153095 0.964761 -0.286663 1.752564 -0.218098 0.921395 -0.235730 -1.754918 
AACTCTTTCAGTTGAC 0.846420 -1.033414 -0.720277 0.628258 0.634148 -0.891975 0.669202 1.034011 -0.081837 -0.490760 0.939516 -0.774428 -1.298949 -0.358066 -0.823230 -0.452413 -2.367521 -0.605637 -1.308364 0.189395 -0.656881 0.162698 -0.910642 0.828403 -0.540033 -0.896177 0.282827 -0.235240 0.405477 -0.034291 0.093102 -0.957499 -1.218061 1.302930 -0.587155 0.409644 -0.003636 0.858337 -0.525587 0.105549 -0.067719 0.850751 -0.988058 0.089031 0.183052 0.087446 0.270557 0.964898 -0.025580 -0.938184 0.162353 0.219631 -0.402875 -2.204912 -0.652986 0.222566 -0.621153 -0.679236 2.018030 -0.475693 0.170703 0.018852 0.972230 -0.663266 -0.561417 0.329567 0.248027 -0.071034 -1.512953 0.068781 -0.801795 0.261686 0.633235 -0.182056 -0.390513 0.161231 -0.327852 0.559840 0.357019 0.160544 -0.687250 0.089951 -0.915876 0.702724 0.079974 0.623022 0.496538 -0.702542 0.440909 0.341501 -0.834912 -0.615432 -0.559292 -0.356861 -0.372608 1.628716 -0.052532 -1.573072 0.871253 0.917720 -0.257644 -1.117351 0.191282 -0.274926 -0.144624 -0.796988 -0.015073 -0.684838 -0.263915 -1.014542 0.456753 -0.494862 -0.178201 1.121762 1.080880 -0.065389 -0.320630 -0.236110 0.033542 -0.046869 1.097769 1.210755 -0.559958 -0.090754 -1.555457 -0.682750 0.044499 -0.043825 -0.172581 -0.827810 0.355502 -0.649955 -0.470956 0.545995 -0.244361 -0.681979 0.034696 -0.302447 0.236801 2.021293 0.177840 0.676599 -2.370138 -0.492713 -1.047095 -0.204888 0.605330 -0.075090 -0.269850 0.463221 0.268029 -0.782411 -0.814118 0.278784 -0.029497 0.669483 -1.231376 -0.817489 -0.153044 0.012931 0.012479 -0.701056 1.480078 -0.377768 -0.110432 -0.555647 -0.611569 0.808186 2.196831 -0.043617 1.936112 -0.991009 -0.720602 0.451034 0.430423 -1.359152 -0.835203 0.150824 0.301927 -0.223514 1.242651 -0.533419 -0.308627 -0.422481 0.135931 1.419962 0.367977 0.410985 -0.302944 1.015467 -0.423156 -1.140967 -0.534209 0.461204 -0.127317 0.442286 0.053348 -0.835822 -0.235046 -1.026750 
AACTGGTAGGTGCACA -2.350511 0.659720 0.389793 -0.768482 1.184160 1.063833 -0.065433 -0.385183 -0.285884 -1.278977 1.891621 -1.041473 -2.630832 0.143627 -0.291883 -0.095111 -1.392746 1.063432 0.062617 0.369689 -0.016611 -0.181404 -0.928529 -0.197239 -0.355594 -1.089790 -0.436362 -0.227968 1.061701 -0.156241 -0.083441 0.257314 -1.335034 0.118409 1.768330 -0.434550 -1.643459 -0.473554 -0.115271 0.710324 0.731810 0.000167 2.441964 0.790180 0.407778 -0.331439 0.825848 -0.996239 2.063927 -0.122772 -1.139969 1.669356 -0.034673 -1.597103 -1.852705 -1.210070 -0.610882 -0.763615 1.406595 -0.611183 -0.619789 1.756942 0.847342 2.306668 -0.794809 0.792789 0.386561 -0.465006 -1.057374 1.523577 0.012140 -1.112871 -0.201213 0.023997 1.715505 -0.562784 -0.257721 -0.120635 -2.135056 -0.989593 -0.149343 0.515828 0.505603 -0.799320 -1.067950 -0.071492 0.303468 -1.215190 0.914400 -2.584753 -2.690100 -0.176577 0.152023 1.008493 -1.099889 -0.278133 -1.221380 0.975073 1.518240 0.036695 1.401907 -0.325742 1.841115 0.098971 -0.378542 -1.156715 0.572995 -0.793270 0.304708 -0.944458 -0.247819 0.094577 1.229089 -1.570297 1.231806 0.086711 0.128256 -0.438576 0.673270 -0.070278 -1.510324 0.152672 0.090015 -0.530108 1.192152 -0.120861 -0.805606 -1.051242 -0.200075 0.004877 -0.110469 0.155146 -1.147283 -0.092904 1.226033 -2.398591 1.259233 0.188545 1.826135 0.964072 -1.404586 0.507167 -0.727315 -1.121251 1.439818 1.091316 0.012971 1.723707 0.177924 -0.033754 2.869846 2.038974 0.004112 -1.472516 -1.277744 -0.947694 0.554540 -0.287152 -0.072252 -2.535468 -1.409670 -1.662781 1.229732 0.359300 -1.076108 -0.112623 -0.798167 0.006185 -0.111918 0.235886 -0.907033 1.119388 -1.690993 -1.701996 2.792457 2.312610 0.988746 1.606479 -0.941058 0.078693 2.469647 0.455616 -1.956435 0.580407 1.741052 1.102238 0.532812 -1.565360 0.095996 -0.563675 -1.215728 0.077399 -0.855335 -1.260864 0.932063 1.539296 0.606850 -0.268433 0.073918 1.892253 
AACTGGTGTATCGCAT 0.094004 -0.680147 -0.018661 0.529535 -1.352796 -0.580196 2.376596 -0.085753 0.729621 -0.763454 -0.490994 0.311893 0.507324 0.962372 -1.225534 1.720207 1.176214 -0.367772 0.179360 0.353565 -1.349217 -1.295845 1.285345 -0.031626 0.841981 -0.399340 -0.573615 -0.739608 0.243976 1.373218 -1.103855 0.667216 -0.414142 0.489417 0.577205 0.474476 -0.386691 1.154573 1.218923 1.072680 -0.355664 0.954866 -0.222017 0.380038 -0.827123 -1.076878 1.104705 1.174973 -0.609729 -0.684382 -1.425836 1.827386 1.132776 0.712220 -0.429741 -0.462099 0.670210 -1.491602 0.565477 -1.014678 -1.400463 0.724793 0.902268 -0.180710 -0.792276 -1.416707 1.820465 -0.299323 0.882968 -0.186059 0.050526 1.088278 0.090241 -0.210845 -1.660029 0.325414 0.744172 -0.897332 0.505896 -1.137816 -0.469310 -0.537742 0.369711 0.456301 -0.199587 -0.432380 -0.111426 0.821949 0.644181 -1.346598 0.056385 -0.195987 1.069469 -0.186181 0.001800 1.157768 -1.545521 0.133025 0.202171 1.389586 -1.110951 1.784138 -0.712283 -0.423003 0.440948 1.822342 -0.660334 -1.613692 0.387128 1.069153 -0.033024 0.027919 0.736562 0.807347 -0.004492 0.388984 -1.640370 -0.511020 -0.362595 0.566239 -1.445471 0.818187 -0.588347 -0.216895 -0.258462 0.298134 0.270397 -1.190002 -1.225953 -1.545220 -1.302466 0.163112 -0.130657 0.723786 0.976041 0.166262 -0.481894 -0.111336 0.386057 0.749359 -0.184318 -0.958987 -0.735838 -0.465108 1.054915 3.231620 1.169107 -0.930851 -0.405599 1.620193 0.850300 -1.472202 0.046097 -1.230342 -0.693454 1.224254 0.402015 1.794659 0.137329 -0.030219 -0.176427 1.292262 1.184518 -0.576221 -0.052544 -0.837947 1.226583 0.665892 0.900142 -0.298890 -1.094848 1.333490 1.002934 -1.266516 -0.803403 -0.610753 0.344479 0.425161 -0.108446 -0.468732 0.301570 -0.765875 0.102181 -0.565260 0.516413 -0.157531 -0.535635 0.306579 0.787677 -0.240700 -1.676918 0.323192 -0.633319 -1.430676 -2.165792 0.149169 0.935349 0.471032 0.556426 -1.543163 
AACTGGTGTGTAAGTA 0.897340 -0.430205 -2.029042 1.160439 -1.804805 -0.579969 1.720336 -0.715624 -2.378306 -0.185389 1.064078 0.831881 -1.568065 -1.113982 -0.833699 1.054279 -1.404773 -0.466145 -0.900178 -2.081100 1.169595 -1.515502 0.463406 -0.886785 -0.952008 -0.745707 -0.939496 -0.565859 1.478323 -1.855084 1.561506 1.208518 -0.495900 1.998315 1.504023 0.031805 0.915163 -2.461936 0.024096 -0.137494 -1.390399 0.678103 -0.409409 -0.865308 0.670439 0.891924 0.946668 1.653995 0.793550 0.626239 0.511973 2.414419 1.181125 -1.405200 -1.452703 0.377587 0.152236 -1.495826 3.367051 -0.019199 -0.202208 0.311886 1.148385 -0.289374 0.253844 -0.209737 3.661242 1.663293 -0.792923 0.837631 1.080778 -1.374317 0.154773 -0.422488 1.127854 -0.434772 1.617391 1.000763 1.463311 -1.522627 1.275214 2.006601 1.035263 1.445275 -2.522138 -1.146407 0.944647 -0.693373 2.759862 0.108505 -0.019345 0.222665 0.269768 1.158902 0.094581 0.416014 -1.198462 1.928445 -0.359667 -0.383694 -0.756688 0.311537 -0.287328 -0.218286 1.365046 -1.456432 -0.661466 0.634470 1.383405 -2.081213 -1.611745 -0.554197 1.097003 -0.771806 -1.386627 0.056793 0.671876 0.397684 0.468711 0.124660 -1.638252 2.070520 1.416725 0.869617 1.321154 0.310584 1.968436 -1.483003 1.458806 1.882367 0.268884 0.288170 -1.415611 -0.148049 3.015032 -3.328177 -0.628159 0.789305 -0.030415 0.843302 -0.036748 -0.610564 -0.265520 -1.639045 0.342235 0.443107 0.292638 -0.402768 0.322329 1.952593 0.593220 -0.106855 -0.942260 2.811757 -0.061709 0.400400 -2.067093 2.548816 -0.343000 0.922026 -0.817544 0.634457 1.552820 2.135824 0.465376 -1.805963 0.145158 0.474265 0.416735 2.091006 1.285261 -2.509316 0.191416 2.160535 -0.395748 1.287516 -1.326319 -0.051918 0.322618 1.491411 1.674787 1.454199 1.295305 1.647907 -1.727594 0.289783 1.078318 2.687177 0.365921 -0.274143 -1.382063 -0.085268 0.602376 -0.100360 -1.613876 -1.057843 -1.360755 -1.737769 1.755834 0.427045 
AACTGGTTCCTTAATC 1.728508 -0.636240 -2.471781 0.700434 0.939023 1.406089 1.170789 0.124629 0.762282 -0.347199 -0.993373 1.463943 -1.157116 1.059631 0.059016 -0.501917 -1.381422 1.006412 0.754105 1.326332 2.090651 0.120249 0.354898 -1.657905 1.703753 -2.039095 1.843255 0.011941 0.120786 -0.904079 -1.181569 0.695549 0.542770 0.044023 2.224217 -1.248980 1.925517 2.107131 -0.050900 0.583754 1.287141 1.600508 1.745821 -0.782065 1.477074 -1.696426 0.055492 0.582822 -0.336346 0.348259 -2.129439 1.089263 -1.153185 -2.042749 -0.260058 -1.019497 0.487375 -3.427850 2.233553 0.093898 0.264774 -0.690360 0.287542 -1.884064 -1.537210 -1.931787 1.628115 -0.305274 -0.059697 0.109612 -1.478104 1.807860 -0.688870 0.862068 0.085036 -0.478846 -0.086228 0.410654 0.080209 -0.976659 -1.835460 0.052669 1.212170 -0.574361 1.294871 0.229983 0.866574 -3.071131 3.285301 -0.998899 0.135565 1.317597 -0.280304 0.733652 1.628826 1.041532 -0.505173 0.138751 2.377243 -0.328850 0.576737 -1.389034 -0.074618 0.015190 0.669215 -0.626675 2.230547 0.525463 1.157722 -1.244148 -0.332535 -2.668934 0.322462 -1.241009 1.706984 1.212803 -0.161812 -0.126497 0.292291 1.071947 -0.726292 0.721902 -0.768946 -1.213056 -0.809400 0.433540 0.488258 -0.375362 -0.832630 -2.101063 0.921912 -1.435607 1.252633 0.775814 -0.336602 -0.591188 1.885894 1.743344 0.710108 0.533057 -0.996963 -0.384202 -0.994208 0.236425 -0.791849 0.396356 2.098791 -0.022647 0.998133 2.142769 0.970816 0.604884 -1.302494 -0.125754 2.729957 1.335953 -1.643073 1.673687 0.127064 -1.096223 -0.348324 1.309652 0.547782 0.106895 0.507065 0.520841 -1.386732 -1.234265 -0.881181 -3.076326 0.241907 2.006280 3.408364 -0.932478 -0.175257 0.491578 2.821200 2.011131 -0.924482 -0.956652 0.020382 2.543962 -0.852514 2.245518 -0.615796 -1.623982 1.070648 -0.660542 -0.597071 -1.952421 -0.083948 -1.756089 -1.370145 -1.430530 -0.802297 -1.906171 0.587586 -0.481151 1.058030 0.134739 
AACTGGTTCTCACATT -2.889525 2.341780 -0.624994 1.034018 -1.266954 -0.073837 3.391591 0.539335 -1.009576 -3.091241 0.164257 -0.011497 0.495683 -0.410877 1.828909 0.115589 0.141918 0.369356 -0.434547 -0.550936 -2.483070 0.637679 0.532594 -1.204121 1.371382 -1.151812 0.033790 1.384074 2.728951 2.210688 -0.562903 0.707621 -0.045008 1.087186 1.023366 -2.293524 1.446313 0.281963 -0.235074 0.235549 1.784636 -0.338618 -0.126481 -0.890747 0.562074 -0.498592 0.955727 -0.168521 4.688663 -0.116292 -2.125690 0.103895 -0.438996 -1.043610 0.756114 -2.077728 -0.733904 -2.112937 0.808790 -1.178210 -0.670486 0.530597 1.179152 -0.757940 -1.488830 0.711077 -0.744976 0.363566 -0.833539 1.628730 -0.527768 0.947219 -3.086311 0.850457 -0.913687 -0.303150 0.884762 2.126291 1.001929 -0.145143 1.971766 0.159771 -1.347706 -0.711761 0.998187 0.393349 0.113004 -2.027426 1.041551 -0.426008 -0.426162 0.053045 -1.467226 1.484834 0.759137 1.603604 -1.797786 -0.901777 2.393894 1.300339 0.435168 -1.730793 1.213885 -0.656769 1.442556 0.642409 0.443019 -0.329348 -0.668436 -1.152646 1.470693 0.840758 -1.191136 -3.451846 -1.414625 0.543187 0.576027 -0.144288 -1.154389 0.834962 -0.381290 0.838247 1.976648 0.249570 -0.483700 -1.144953 0.233607 -1.399915 -1.424575 2.225739 0.442110 -2.150040 0.429095 0.119806 0.328569 0.258844 0.276320 2.004173 -1.331760 -0.141978 1.496415 -1.874863 -1.393354 0.916802 -2.758532 1.366768 1.375099 -1.234607 0.281884 0.362191 1.214586 -0.145423 2.293251 0.374167 -0.409089 -2.750094 1.559596 -2.147583 1.757898 0.336497 -2.624800 -0.808492 -0.736335 0.312897 2.450752 -1.716725 0.272420 -0.670471 2.112906 1.422360 0.931392 -0.448168 3.030165 -1.160205 0.965858 -1.333812 0.135095 1.792271 -0.298609 -0.673589 2.155833 0.564706 0.984405 -1.498232 -1.114014 0.298712 -0.294561 1.863914 0.388270 2.078416 -0.215097 -0.001867 0.195924 -0.793993 -1.350173 -0.978643 0.172645 1.411033 -2.799237 -2.670863 
AACTTTCGTCTCGTTC -0.241861 -0.277895 0.360392 -0.787538 -0.979963 0.105899 1.365359 0.810010 0.511335 -0.927827 1.661106 0.004921 -0.785576 0.658822 -0.204293 0.916293 -0.204380 0.326091 -0.397830 -0.835634 0.065829 -0.189193 -0.706020 0.318000 -0.793019 -0.087746 0.778107 1.080301 -0.492607 -0.029521 1.613233 -0.782313 -0.136888 0.212269 0.066738 1.177161 -1.139596 0.636664 -0.600439 -1.127515 -1.567299 0.027169 0.517360 -0.148307 -1.264402 -1.864352 0.463020 -0.228628 -0.686046 -1.962695 -0.702490 -0.332767 -1.036591 0.122074 0.796985 -1.457827 -1.131038 0.834227 0.543746 -0.196563 -0.494357 0.587340 1.221439 0.275633 0.498907 -0.658696 0.697267 1.582387 1.008708 1.251442 0.610626 0.665308 -0.718662 -0.985528 0.187949 -0.549352 -0.009392 1.245280 0.618304 0.107857 -1.222126 0.768006 -0.117864 -0.632833 -0.251483 0.821468 -0.289931 -0.743410 1.437921 -0.826346 -0.980385 0.112357 0.157507 0.480101 -0.040043 1.252646 0.564192 -0.138033 -0.539267 -0.418558 0.436144 0.064678 0.490409 0.744929 -1.435079 0.263972 -1.725553 -0.078564 -0.914044 0.983587 -0.994711 -0.120401 1.293683 -0.719249 -0.291249 -1.917375 0.398161 -0.028274 -2.117449 -1.254095 -0.597809 -0.678510 0.824428 -0.044805 0.096248 -0.088346 1.303605 -0.428453 -2.502437 -1.105710 0.504975 -0.624482 0.965221 0.126908 0.632199 -0.824049 -0.947583 0.269087 1.037215 -0.656132 0.425876 0.000531 -0.427403 0.478939 0.075403 1.133384 0.382169 1.270114 -0.325327 1.408404 0.250780 -0.076210 1.136775 1.576260 0.259463 -0.578648 -0.181074 0.919176 0.821935 -0.895760 0.888064 -0.955410 0.478823 -1.461340 0.275822 1.042219 -0.794711 0.036609 2.225508 0.823289 -0.043128 0.503849 0.220177 0.354302 -0.696216 0.920517 -0.236006 0.362039 -0.640870 0.600995 1.765220 -0.439407 -0.925550 0.566237 -0.176531 0.409679 0.217781 -0.254052 0.501367 0.682853 -0.776978 0.426074 -0.999375 -0.588779 -0.491727 -1.214136 -0.677903 1.215968 0.853567 0.508665 
AACTTTCTCCAAACAC -1.078297 1.696285 0.472652 0.840542 -0.819478 -0.957600 1.269085 -1.510540 0.859306 1.121798 -0.201108 1.110140 -0.445614 -1.387860 0.541637 2.600519 -1.095648 -1.322407 0.465169 1.513654 1.873098 -2.405914 -0.666235 -0.498579 -0.176391 -1.303661 -1.297710 0.158171 1.050981 0.394438 -0.212561 -1.168390 -1.589154 -0.933588 -1.775069 -0.216741 0.512718 -0.708511 -0.775799 1.093648 0.490434 2.579042 1.134025 -2.475286 -1.656284 -1.182839 0.042469 -0.993279 0.262203 0.159568 -3.329782 0.576839 -1.235626 -0.608902 -0.351652 0.005628 -0.003475 -0.360880 1.857740 1.548908 -1.183428 -0.542069 0.655415 1.881260 -0.442329 -0.391049 1.896084 0.068250 -0.870165 0.064389 -0.245783 1.420203 2.341497 0.648572 -0.455477 -0.164213 -0.050663 3.272106 -0.642411 -0.776880 0.013337 -1.359847 -0.241148 -0.259410 -0.384665 0.189546 -0.083063 1.137276 0.711453 -0.525261 0.816176 2.220420 1.409374 1.491955 -0.390710 0.523898 -0.121798 0.070103 1.211915 0.108521 0.051766 0.272209 2.572367 -0.630650 0.330322 0.070251 0.068315 0.242189 0.580110 -0.355525 1.538899 0.075049 -1.839712 1.126440 -1.161749 -2.312596 0.085437 0.306208 -0.478635 0.844414 0.151434 1.049781 0.117127 0.016455 -0.600034 0.787282 0.266496 -2.012834 0.151914 -0.426245 0.900490 -0.121705 -1.461484 -1.457256 0.720407 -1.331310 -1.209570 -0.167920 0.775908 0.587166 -3.025901 -1.668548 -0.888314 -1.422181 0.212861 -1.286016 1.985752 -1.263467 -0.903297 -0.268263 1.438674 -0.036774 -0.625548 2.244653 0.483883 1.028444 -0.129146 -0.556574 1.015915 -0.167438 -0.857880 0.040210 1.474542 -0.287716 -0.772365 0.533888 0.483871 0.984816 1.418509 -1.253765 2.549889 -0.718731 0.019263 0.746257 0.645475 0.380071 0.627077 0.455695 -1.129790 0.717557 1.905757 1.119696 0.510312 1.310740 0.359674 -0.336624 1.882267 1.605267 1.604064 1.446251 0.972144 2.192794 1.137563 -1.457986 -1.362674 0.973126 1.117734 -0.250446 1.417062 -0.216000 
AACTTTCTCGAATCCA 0.250925 -0.452578 0.392463 -0.513479 0.430723 0.224461 -0.094393 0.191058 -1.077672 0.723042 0.754897 0.029665 1.305040 -0.660897 0.092734 1.258730 0.770791 -1.588099 -0.269501 0.403666 0.048145 0.117345 1.045242 0.762144 0.142181 -0.971643 -0.262467 -0.240681 -0.030128 -1.143310 -0.972899 -0.105126 -0.191226 0.563215 0.510674 0.554762 0.597648 -0.394303 -0.457755 -0.209874 0.145112 0.919120 1.460967 0.334610 2.338757 -0.150816 0.044863 -0.454924 1.155479 0.097443 -2.717217 0.741282 0.338236 -0.570452 -0.130226 -2.370899 0.014144 -0.371464 -1.427422 0.238280 -0.844716 0.598430 -0.680740 -0.059660 0.525982 -2.582901 0.071699 -1.235100 -1.444801 1.623641 -0.383183 0.167779 0.380045 -0.640138 1.690319 1.323698 -1.283714 0.111262 1.163938 -0.806820 -0.271803 1.235320 0.754026 0.098486 0.992664 0.640247 1.243601 -0.629462 -0.776123 -1.786757 -0.227726 -0.201682 0.522008 0.048554 0.327984 -0.303097 -2.227803 -0.554000 0.659807 -0.077813 -0.076940 -1.871468 0.089154 -0.793688 -0.443955 0.353787 0.595913 -1.306205 0.211851 -1.108780 -1.403286 -1.238080 -0.261087 -0.605645 -0.396442 0.560206 -1.224903 2.078314 -0.027663 -0.105550 -0.746378 1.960860 0.855946 -0.251186 0.442539 -0.369454 0.789692 -0.603978 -1.392212 0.727424 1.819206 -0.233954 -1.829896 1.112411 -0.413087 1.489627 -0.636200 -0.042402 0.488343 -0.304764 1.199995 1.052203 0.633325 0.469599 0.307547 1.031267 2.414969 -0.559362 -0.183453 1.721052 0.227880 -1.439656 0.021673 -1.206581 -0.255327 -0.815216 -0.047089 1.911440 -0.587220 -0.064802 -0.934170 0.032534 1.576153 -0.059447 -0.330343 -0.529701 -0.626881 1.705951 1.074641 -0.117540 1.430121 0.420817 0.468370 0.933117 0.595222 -0.736769 0.176663 1.109612 0.448142 0.809668 1.397027 -1.364740 -1.363563 -0.627188 -0.288316 1.235453 0.699069 1.466410 0.498160 0.403038 -2.301419 0.408761 -1.955705 1.301239 -1.319257 -0.031111 0.589762 0.397820 0.688586 0.527899 
AAGACCTCAGCGTAAG 0.638980 1.567457 0.319857 0.654609 -0.000944 -0.406314 -0.331595 -1.085185 0.621000 0.405886 -1.346228 -0.548311 -0.826293 1.164403 0.540138 1.957084 -0.567420 0.010228 -1.116329 -0.760280 1.110182 -0.792839 0.390476 -1.860336 0.700471 -0.288914 0.385537 0.655139 0.817726 -0.481901 0.571470 -0.670428 0.087580 1.579707 0.313652 -0.824326 1.306410 0.145989 0.465486 -0.514809 1.880435 -0.117432 0.264853 -0.318080 -1.318655 -0.261751 0.569347 0.643487 0.517707 -0.696455 1.049549 -0.577856 -0.460810 0.055723 -0.022220 -0.404649 -1.131277 -0.696891 0.199602 -0.791716 -1.063919 0.302532 -0.126844 1.189509 -0.241265 -0.578434 0.189084 -0.010442 2.020790 -0.912576 -0.610054 1.436108 -0.561522 0.094920 0.658096 -0.687659 -0.160694 -0.652098 -1.512801 -0.083895 1.292676 0.677675 -2.308860 1.858539 0.753960 1.206589 1.881126 -0.382676 -0.528860 0.331531 -1.002079 -0.923254 0.649712 0.800508 -0.472272 0.241700 -0.713921 -0.532758 -1.211792 0.208053 -1.291169 1.001113 2.468947 0.311264 1.302812 -1.465197 0.317079 -1.045367 2.017771 0.265414 -0.937128 -1.954151 -1.098547 -0.081021 1.671479 -1.755519 -0.300974 -1.056738 0.274159 -0.173490 -1.009138 0.161842 1.490573 -0.765862 1.225902 -0.657293 1.299656 -0.334794 0.083895 -0.433044 -0.281704 -0.418817 0.512690 -0.148669 -0.391138 0.667370 0.145444 1.423682 -0.402355 1.438291 0.653123 -0.333390 -1.248158 -1.930168 0.289378 -0.615424 -1.422216 0.609488 0.731412 0.644800 1.971160 -0.592543 -0.581907 -0.051038 -0.672770 -0.685228 -1.563924 1.281755 -1.536051 0.066807 -0.912541 -1.024506 1.444196 -1.696197 -0.308530 -1.483120 -0.092804 -1.117215 0.373957 0.856812 -0.101045 -0.833438 0.023532 -0.372643 1.389131 0.830829 0.916486 -0.051265 0.590847 0.410432 0.359185 0.369913 -1.087407 0.376765 0.385577 0.178609 -0.079008 -0.109251 -0.242903 -0.925027 -0.010294 1.133022 1.542498 -0.442036 -0.429891 -0.339915 -0.267706 -1.128552 0.291333 -1.254617 
AAGCCGCAGATAGTCA 1.715341 -0.651130 -1.494475 -0.029615 -1.414913 -0.704934 1.568047 0.081534 -1.163114 -1.759521 -0.205541 -1.395289 1.361957 1.230267 -0.793485 0.512561 -0.170740 -1.380179 -1.023933 -0.556573 -0.713517 0.161842 -0.254450 -0.810198 -0.652167 -1.496037 -0.091105 0.328393 -0.614765 0.567305 -0.398015 0.431038 1.734681 0.722767 2.393493 0.077002 0.821127 0.259315 -0.265030 -0.416032 0.588552 -0.534483 2.293823 1.567152 1.119433 -1.781641 0.900176 -0.991865 -0.985557 0.970985 -0.241078 1.388634 -0.004343 -1.370023 -2.245416 -0.750273 0.126865 -2.638292 1.683079 -2.606973 -1.766021 0.054896 0.651596 1.665333 0.890147 -0.671043 -1.217277 0.304101 0.818267 0.551619 -0.514376 -0.219160 0.250716 -0.839343 -0.491310 1.127470 1.335348 -0.744766 -0.798650 -0.080792 -0.838114 1.233395 -0.219312 0.480561 -0.794402 -0.158323 0.142192 -1.215595 1.541337 -0.490524 0.307520 -0.480120 0.167765 2.264051 -1.579890 1.579949 -0.223112 -0.564693 1.785239 -0.159614 -0.908767 0.536628 1.469829 -0.237025 -0.916048 -0.766137 -0.015656 0.147929 0.343048 -0.112591 0.496879 -0.714394 0.551252 -0.059469 -0.725049 -1.837870 0.123238 0.611268 -0.489976 0.836043 -0.360985 1.010415 1.033292 0.389681 -2.234924 -0.121602 -0.300640 -1.978818 -0.802636 -0.531607 0.121720 -1.125741 -0.029390 -0.055147 1.700425 0.540575 0.258160 1.114759 0.388724 -0.027487 -0.900213 -1.138633 1.150685 0.732686 -0.943334 -1.387386 1.246618 -1.365301 -0.987755 0.149152 2.180639 -1.668016 -0.736525 -0.518557 -0.623038 -1.164337 -0.080465 2.276104 -1.630725 -2.211544 1.166324 0.074899 -0.879520 0.952751 -2.946180 -1.234944 0.202721 0.847739 -1.818925 0.131235 0.005405 -0.643340 0.711874 -0.347126 1.337789 -0.196684 0.819004 0.331324 1.979644 -1.510611 0.682491 1.035822 1.134603 1.523573 -0.229756 1.900796 -0.840806 2.028384 3.498161 -0.948073 -1.493378 0.198195 -1.102723 0.204694 0.110380 -0.132420 0.737523 -0.368867 1.085142 -1.976190 
AAGCCGCAGCAGGTCA -0.789860 -0.173210 -1.708976 0.404156 0.666671 1.014877 -0.873470 -0.149822 -0.542598 -3.387428 1.041367 -0.126905 0.098481 0.217793 -1.531011 -0.066408 0.547160 -0.045417 -1.590746 1.378500 -0.249044 1.124956 -1.511489 2.267134 0.227336 1.213150 0.872822 -0.387718 -0.293839 0.723022 0.575170 -1.574975 -1.172332 -0.632527 2.149934 1.932392 1.336023 1.217071 0.755866 -3.034680 0.053553 1.278347 0.492803 0.245435 -0.432658 -2.200373 -0.204984 1.440313 -1.164348 -0.670726 -1.778088 1.445345 0.025831 -0.424621 -0.449301 -0.845504 -1.763404 -2.211019 -0.917561 0.267991 -1.771799 0.538530 0.846308 -3.369420 0.324745 -0.999979 -0.092613 -0.926434 -0.733834 1.185842 -1.972524 -2.005164 0.959521 -0.615341 2.416041 0.238622 1.249264 -1.105275 -0.435725 -1.451400 0.694555 -0.359353 1.363376 0.252768 -0.498143 1.466211 -0.135836 -2.180809 0.935991 1.005631 -0.805060 0.957131 1.285646 0.762643 -0.526643 -1.533076 0.005364 -0.411644 0.819508 -1.032728 0.342325 1.715543 0.335356 0.764186 0.255930 0.079110 -1.181256 0.548605 0.415795 -0.500022 -0.485967 0.895579 -0.358940 -1.595119 -0.675110 0.548189 -0.540073 -1.376362 1.082143 -0.856542 0.101063 0.782853 1.520096 1.560058 -0.365226 -0.867515 0.920612 0.840730 -1.330367 1.804271 -0.318711 -1.244114 0.233627 -0.444893 1.239731 -1.772942 0.760071 0.461155 0.579239 1.006369 0.349844 -0.076230 -0.451286 -0.080257 2.149691 -0.474434 0.261478 -1.163286 0.601943 -0.168066 2.419790 -1.168657 -1.194874 -1.457590 0.481412 -0.765495 -1.777502 0.294841 0.742092 0.257957 -0.465901 0.116484 0.327261 -0.769013 2.033030 -0.940030 1.135449 1.252356 0.847522 2.585497 1.374079 -0.945589 -1.290015 0.136122 0.336349 1.195238 -0.230769 0.363213 1.166244 -0.625332 0.938951 -0.845942 0.366734 -0.976135 0.682846 -0.186986 -0.253952 0.164747 0.448906 -2.738577 0.441567 1.616125 -0.376361 -1.951068 -3.414323 -0.704940 -0.600983 -0.762078 1.113445 0.135117 
AAGCCGCAGCGTAATA 0.707840 -0.167148 -2.403924 2.298626 -0.232780 -0.065193 -2.627903 0.471641 0.625718 -2.090890 0.387562 -0.449811 -0.909157 0.975223 0.794617 0.869867 -0.732794 -0.803050 0.340338 0.473976 -0.213079 -0.837057 -1.011388 1.197756 0.366229 -1.656093 0.260601 -0.061035 -1.169274 0.973472 -0.087265 1.610544 -1.028873 1.266750 0.052621 1.900679 -0.373222 0.293677 -2.203390 -0.843514 1.851686 -0.612500 1.237502 -0.858598 -0.255093 -0.824246 -1.170894 0.586124 -0.317115 0.083612 -2.295077 -1.139520 1.800187 -1.324506 -1.640645 -0.445766 0.158383 -0.939427 0.959778 -0.910412 -0.018288 0.444255 -1.898920 0.077564 -1.293389 -1.150908 0.779361 -0.626962 0.693570 0.538697 1.290919 0.961460 0.769078 1.720436 0.209597 0.686927 -1.259200 -0.453483 -0.913862 -0.899641 0.798315 -0.534705 -1.691923 -0.233259 -1.351006 1.298287 0.859948 -1.526396 1.051173 -3.488867 -0.546430 -0.116807 1.427217 1.364636 -1.068869 -0.001801 -0.363133 1.195745 1.044016 0.712416 0.768905 -2.516794 1.957467 -0.467895 -0.717783 -0.153399 -2.138798 0.736883 -0.724976 -2.256189 0.700042 -2.205450 -1.231550 -1.677832 0.419231 -2.257150 -1.395050 1.286424 0.192517 0.781745 -0.739328 2.259783 0.061248 -0.738977 0.767129 -1.552206 -0.035836 0.547866 0.540271 -0.896790 -2.156636 -2.704918 2.137589 1.279433 0.208489 -0.646703 -0.231217 1.165337 0.507201 0.824353 -0.330462 0.193774 -0.673155 -0.002115 0.592111 1.149571 2.265002 0.002968 0.263022 1.840347 0.692185 -1.001028 -1.724151 -0.621072 0.538920 2.560652 1.697957 0.640020 -0.105603 -2.309530 0.492506 0.818559 0.276711 -1.182945 -0.740443 0.555584 0.381628 -0.079569 -1.731997 -1.292090 2.159734 -1.957210 0.764497 -0.462121 -0.788961 2.657133 0.203391 -2.637598 1.225875 1.576200 2.360865 0.329735 -1.712006 1.625310 3.627153 0.389031 1.190465 0.083556 1.942837 -0.888710 -3.457130 0.121556 1.856813 -0.024987 4.005815 -0.562239 -0.762647 -0.831288 0.021813 -1.841660 
AAGCCGCAGTGCAAGC 2.121439 2.623023 -2.191569 0.852713 -1.812953 -0.848182 0.614846 -0.793178 1.468116 -1.978039 1.389798 -0.920489 -2.031976 -0.089990 -0.718101 2.736413 -2.706271 0.285366 1.886193 -0.165040 1.215304 -1.943430 -2.182824 0.505218 -2.598852 -1.556777 -2.285780 -0.008159 1.334512 -0.487408 -0.439704 -1.985903 -0.523690 -0.946405 -0.119407 -0.861187 1.477217 -1.080438 0.318423 -0.085338 -1.576174 -0.891534 3.045369 0.662200 1.589858 -2.808088 -0.602749 1.097768 1.820652 -2.014795 -1.287095 -0.271123 0.163047 -2.036179 2.214628 -0.507284 -1.390786 -4.010220 0.850648 -0.438224 -1.287290 0.055722 0.417776 0.439055 -1.150710 -0.745518 2.356798 0.284234 0.475473 0.378929 -1.355177 0.990341 -0.647151 1.923902 1.145678 -0.195921 0.133215 -1.378423 -0.774540 -0.388195 0.776314 2.910599 0.521951 -1.212585 1.469399 2.085879 -0.718527 -0.481603 1.092763 -4.045424 -2.140860 -0.179135 -1.092021 -0.363710 0.012173 1.225675 -1.044108 -0.578086 1.397539 -0.753437 1.537933 0.688184 1.111335 -0.409062 -2.002270 -2.003789 1.178976 0.451371 -2.739569 -0.917263 0.384316 0.016570 -0.970341 0.782611 -0.024023 -1.297603 -0.838563 -0.281688 0.416585 0.684893 -2.309107 0.854198 -0.007190 -2.451076 2.189861 1.297845 -0.697801 0.488974 -0.558970 -1.294363 0.504890 -0.549190 0.846153 1.678516 0.756794 0.983124 0.099170 -0.696034 2.237107 0.985580 1.271560 -1.031933 -0.082137 -3.871703 1.461723 -0.854871 -0.025677 -2.681744 0.362661 0.425680 -1.446867 0.020170 -2.459044 -0.291186 -1.066455 -0.662187 1.246554 -0.112668 0.650017 -0.243698 0.066818 -1.167228 -0.051992 -0.215243 0.427707 0.564487 -2.352558 -0.037882 0.221946 0.244822 -0.044563 0.102875 -1.776080 -0.203288 -0.072272 -1.371138 -0.551635 1.345406 -0.458652 0.949611 2.492482 0.227102 -1.202970 1.307499 0.439407 -2.248847 -0.364818 2.162590 -0.136695 -1.136963 0.341038 1.083923 1.471055 1.858664 -1.478159 -0.460741 -0.120983 0.177155 -1.702048 -1.937653 
